{"template": [784, 16, 16, 10], "iterations": 2000000, "batches": 200000, "learning speed": 0.05, "batch size": 10, "data": [{"layer_type": 1, "layer_data": [{"output_weights": [-0.4420043674520558, 0.6409910948982915, -1.864394862602546, 1.1577701724974119, 0.1012009103098045, 0.8291207244676267, -0.12763557340015552, -1.1129716550714313, 0.07998439680540145, -0.4188013964712522, -0.011533233811211237, 1.2784778546434838, 1.0331671752610956, -0.463392841071718, -1.2429110291277201, 0.5931654573606414]}, {"output_weights": [-1.3921137206782992, -0.32041154396427246, 1.063525831815721, -0.1620952070297802, 1.0439830669853776, -0.8841223414692587, 2.347691133805137, -1.6159505915042562, 0.8797524598713695, -0.008175245067461697, 0.23872396335214546, 1.3249043445869686, -0.6033065160990787, -1.8078656587188542, 0.5530767204985205, 1.3078615711935946]}, {"output_weights": [-0.73319350312888, -1.1787720281601664, 0.549917397942032, -0.12123480471111411, -0.579816172638026, -0.7445387130066793, 0.5530143892777719, -0.16985936593433792, -0.10957589749747072, -0.14814425822630473, 0.8753286716730824, 0.8091987368888907, -0.08931813447305494, 2.312817595980549, 0.6396831921634771, 0.5961550037581466]}, {"output_weights": [-0.31315882031817227, 0.302375298005889, -0.4728390571817627, -3.0606081392246156, -0.41671915039771035, -0.4795511666177378, 1.6352592271148163, -0.8984936492579297, 0.7190327096741654, -1.003989693787439, -0.046836368824955996, 1.1518619291327272, -0.3212112870857835, -0.10514034978162201, 0.13281251821419904, 1.9110063238102524]}, {"output_weights": [-1.167051153366499, 1.2822873898471883, 0.1676598781280471, -0.9836063427280841, -0.23238344042669776, 2.1398003125796548, 1.2214689507175573, 0.4653502890126089, 0.3608188519298483, 0.006402509794413541, -0.9138361365082552, 0.9016614280930362, 1.8720608166094115, 0.37492041667901543, -1.3012538209658115, -0.3391719806041429]}, {"output_weights": [0.1252237853572501, 0.8495074624969043, 0.6958241181760604, -1.1274727916235106, 0.5548095203148826, 0.16079085293195122, -0.2662913623511112, -1.0377363085718365, 1.7159507762871207, 0.8322034098525352, -0.2010043971392414, -0.6766285231052502, -1.0128022937096182, 0.6371266697178546, 0.25112601004680263, -0.27323388719431724]}, {"output_weights": [0.8592147574102348, 0.38146702583647, -0.2406476174199307, 0.2872653357113055, -2.929303585251294, 0.6532707118250605, -2.398013990090748, 0.619310745585104, -1.1524052143871202, -0.6313339689351802, -2.000671805977053, 0.039343601584984546, -0.16363220152904173, 0.4329445917908655, 1.595408619528469, 0.9752399610564557]}, {"output_weights": [-0.06907436128045052, -0.8872634511895564, 0.7260400600218652, 0.5019194501899159, -0.020266531558945065, 0.2228691444731698, 2.6243337917738945, 0.10645484902548379, 0.04378686755428034, 0.7657058814790952, 0.4167471260708426, -0.3969836794551713, 0.16392755388719732, -1.6017401409577754, -1.1749056288590727, -1.1684336671177415]}, {"output_weights": [-0.2126903483805201, -0.4657975832115432, -0.1418301931573553, -0.30578462598332345, -1.8094317235338986, 0.503338656541821, -0.10362179826641078, 0.4515190076496198, 0.11727070182281901, -0.17171611570248027, -0.2057540168733943, -0.1722872954000343, 0.748428583651131, 0.6885394993963486, -1.520341395346543, -0.23783914682841817]}, {"output_weights": [-1.0168992466024382, 0.24900953037575446, 0.29846600603119366, -0.3004410958568282, 0.6361687720155514, -0.9316020194812468, 0.17642793883369204, -1.8081265984789208, 0.42431968294020694, 1.4340578667546096, -1.038587813393205, 1.3317366287786392, 0.14584187388384495, -0.19904481736792048, -0.14787534022821536, -0.9501461409833013]}, {"output_weights": [0.20106508204356782, 1.15304666546814, -1.0930973074645949, -0.03200909490038978, -0.08929305146204712, -0.865418301261894, 0.3476649217584314, 0.5493242772447634, 0.4907443672637699, -0.7828400880841876, 0.12261649619340056, -1.116713737057584, 0.5609946739502703, 2.390557627428998, 0.7695865574924436, 0.020668606186761737]}, {"output_weights": [0.5173278283885644, 0.9338828571383473, 0.28970823914427274, -0.23651764360445054, 0.7343758470550478, 0.842037440557273, 0.39647649767874915, -0.8827058269790201, 0.510975766366879, 1.6553576501973069, -0.8019989239628057, -0.5680638365557886, -1.3935851282130658, 1.0058544122111341, 1.2004174281873532, -0.34914815123203274]}, {"output_weights": [-0.8940686928560958, -1.9977269039417809, -1.305493920951766, -0.460490082395376, -1.1495468098354078, -1.591672350756588, 0.08629249538731193, -0.4864090791756224, 2.1526557821369634, -0.10854426506544637, -0.6042002055954512, -0.6999396075622869, -0.39573025354117447, 1.1353918318021359, 1.2968838421861113, -0.2063464811207537]}, {"output_weights": [-0.33870252079423274, -0.6594414168898945, 0.7273411960571982, 1.370136899963577, 0.032683181744010165, -0.839812199790195, 1.022715842385725, 0.7431662265494663, 0.1235989225769819, -1.1776526899873636, -0.9264839313304618, 1.2471781636215908, -0.4515994417161136, -0.2937392743956261, -0.0702899100144959, 0.6717319425128063]}, {"output_weights": [-1.0085661291260952, 0.01807449782042572, 0.08785966344818515, -1.4363809621688866, 1.9491334025534552, 0.7727953433588851, 1.142354770058258, 0.11864310756389189, -0.8115410770569423, 0.9122321643208559, -0.6780653270727531, 0.027834090715089885, -0.5033538406103535, 1.5239139663262868, 0.6088838617056169, -0.13372315524799647]}, {"output_weights": [0.4343210698995349, 0.12502896534703203, 0.003458335688006568, 0.845978705305778, 0.9710752192567461, 1.9055334750351267, 0.1715852957938268, -0.7925817197466697, -0.09686652201480642, -0.7929530703482089, 0.5178407744722097, 0.8812608861136446, 0.3715752206612044, -1.9942521822016785, -0.8263445933765365, 0.026879935733739112]}, {"output_weights": [-1.6773134467032327, -0.463059146352639, 0.9638636047451632, 0.5807609998536944, -3.113600935766094, 0.9227564108084298, 0.5471973833761665, 3.090100730008296, 1.6363943625958752, 0.04677802308292778, -1.4881372646257391, -0.8057771954307167, 1.0360208470967227, -0.9609899671793991, 0.783953778114612, -0.28495257560353976]}, {"output_weights": [-0.4876672915658358, 0.8600660520454015, 0.41365033438110826, 0.4105332431566183, -0.36696000565678805, 1.0044284647923734, 1.3129093724819079, -0.37559888335483704, 0.5910050823434209, 0.0008911474684316716, 0.08108121752579263, 1.7794104793670955, -0.6371597767180681, -0.8764137942913865, -0.23750667167846598, 0.16776064841225294]}, {"output_weights": [-0.4402560130503214, -0.06961300348733164, 1.113160256436699, 1.1927381113847908, -0.3990426286974612, -0.11131662462094812, 0.7885821421881444, -1.3712857332817319, 0.1968526385089802, -2.458198442272835, 0.17771870600757067, -0.0824723692224385, -1.5556779314073943, 0.786268452989791, 0.7693176158054791, 0.022448568001992804]}, {"output_weights": [1.239328397222058, 0.7164848008401563, 0.29948132291167573, 1.5986971099114167, 1.568475948752116, -1.911605118274033, -1.822760818888597, 0.23050837231833118, 1.446861786515268, -2.4407392882479235, 0.28079626299115285, 0.13264390289645644, 0.5283052175253756, 0.1276982580563995, -0.9658380417301573, -1.2239476378644683]}, {"output_weights": [-0.8006346468968762, -0.26360050063255386, -0.6336866824915091, -0.31855988816284386, -0.44395030368786076, 0.3553785569123697, 0.28183847066233425, 0.603232908221118, 0.6908229548000686, 0.5471488568760278, 1.5096230419834593, -0.00642774372156083, 0.7508825117760252, 1.44502168783871, 1.898826512790287, -0.7281904389972631]}, {"output_weights": [-0.6117712001811311, 1.4037408999898053, -1.4381113037183908, -0.37320178849850916, -0.7326252850507439, 2.0685053046858166, -0.8943062510592186, -1.1755246884309851, 1.9735866375325664, -1.046882076340287, -0.33571139661117166, -0.8132334105268723, 1.7140596142361764, -1.2962276017155414, 0.6953053566533592, -2.2673847762578103]}, {"output_weights": [2.175760838717282, -0.5762090771878601, 1.4328214096290772, -0.43708397358630535, -1.3779980326091543, 0.5315163121857388, -1.1706522492642504, 0.4232718743742998, 1.0164424996480255, -0.04300976837570499, -0.3620599405490839, -0.16271909345026808, -0.08318204751129939, -0.8685559038864945, -0.2630869562907677, 0.9533391336395491]}, {"output_weights": [1.1918720105169103, 1.010331991921144, 0.42812720612607724, -0.9552549657318439, -1.566557723876978, -0.35773835908625373, 0.812649112876857, 0.6747371383516958, -0.4476351225395991, 0.22574003929142633, 0.22671058734759225, 1.929010674199654, -1.5934464264923214, 0.7694006554663804, 0.9094450302886846, 0.3032659707058782]}, {"output_weights": [1.2910823124662167, -0.7095724810879366, 0.8293684352212477, -2.7795704489955058, -1.9419773874075597, 0.20184615755188826, 0.626658242959755, 0.12075237773402189, -1.4556642912563589, -0.42222763847242367, -0.04559665906366321, 0.5910669027635905, -1.0056049785360848, 1.2375802846621708, 1.1898682193278944, -1.4771434796642584]}, {"output_weights": [1.0743834164191164, -0.14997039225127584, -0.30012514069134294, 0.3185024934972823, 0.8190769420612907, -1.9936985557021007, -0.4729987872124915, -0.10052444668650863, 0.03731748226627704, -2.0304644666688287, 0.2516711521432207, 1.573123435734978, 1.2526208599591855, 0.7138177662510174, -0.8000885817774782, -0.19732646322955189]}, {"output_weights": [-0.13010755230579707, 1.0431245750262759, 1.6678660188261947, -0.5028875501945017, -3.3377243321038574, 1.3923374127623551, 1.7964083787216512, -0.7469440027169987, -0.590114006364616, 0.42608345100497474, -0.6226352250483618, 1.2072213519164747, -0.41439898358629657, 0.3897195448259943, 0.7777888608048983, 0.2181440918569939]}, {"output_weights": [-0.33941017305838495, 1.7404669147767697, -1.0487401761943285, -0.8014236801757751, -1.3056445547328006, -0.8890765328826343, 1.2212400308057285, 1.4731831760237888, 0.7919873416390076, 0.8249995313653788, 0.297249584199991, 0.3896779032203401, -0.45598910015933247, -0.17836338883824662, 0.5751662561279836, 0.9904822283301771]}, {"output_weights": [1.7235867085309562, 1.3865975701608662, 1.748788439531224, 2.216964162517301, -0.18545428535613037, -0.027811386121906798, -0.2895173978766337, 1.140148129046711, -0.27835204933083924, -1.2364795017896044, 0.2628417871138963, 0.2561933702780131, -1.8236975773219506, 0.8417280581576023, -0.9110342827981236, -0.5444679294478268]}, {"output_weights": [-0.764329845157307, -0.8932328506812274, 2.247243320497036, -0.4260261619136064, -1.3404119535517556, 0.854143257475264, -1.773190541452784, 2.1283456520311947, 0.9657668413321324, 0.7348671096562848, -0.18822352363534275, -0.39658514873940665, -0.14174366580954162, -1.486173030578427, -0.6453355161798239, 0.09119513618540451]}, {"output_weights": [1.099020791802449, -0.35533165938954686, 0.31006129788679293, -0.8076997019660935, -0.6721862681800308, 0.880769265686239, -0.028142506414739542, -0.2311324700684518, 0.9554577181028658, 1.869161161901966, -0.3071516274583942, -1.1037943661493081, -1.1850788478439727, -1.62028868934757, -0.4141548568294791, -0.4337453509499197]}, {"output_weights": [1.8579466223177645, -1.542117667081373, 0.12970551397924768, 3.223182905315055, 0.23974209666070967, 2.1680230220654337, 0.11099386185166704, -0.1562576512082517, 0.39486366989365446, 1.60348054057101, -1.149527445012716, -0.3510327913440779, -0.3307608657864995, -0.6555247040512976, 0.5175909899505955, -0.22193089426350288]}, {"output_weights": [-0.8285978003108971, -1.2168339436328175, -0.49842496563767485, -0.23368321619382204, -1.5937189503987719, -1.019065177168286, -1.5246594975875214, 0.823147091870688, -0.3315789462052167, -0.7468931380504413, 1.3709743748716368, -1.0774251129605228, -0.517945004636621, -0.762031704172189, 1.8239204070170232, 0.7712770551569967]}, {"output_weights": [-1.4265886860035615, 1.3936357270386106, 0.6456476486698515, 0.38647534242604065, 1.3244715820057509, -0.02917763637641807, 0.21413952099383543, 1.3189343444000612, 0.04360498972379866, -0.033006014852532566, -0.535866433883859, -0.6189508155409543, -0.12097250936418073, 0.6387817322382161, -0.07651757483445576, -0.3962248882139145]}, {"output_weights": [-1.3396436580158222, 0.7108911123033882, 0.5684953661643896, -0.3844770283469199, -1.2400520521445246, 0.4533771300663925, 1.2983512432983688, -1.5665508151936216, 1.569423972818064, 1.1799514634573744, -1.4950179833499262, -0.04451035390279651, 0.36178058191504175, -0.0418623429847917, 1.8601233692100363, -0.555049648156266]}, {"output_weights": [1.0158880999592836, -0.5707531221276431, -0.10755136608371509, 0.5515444629095867, -0.9105137515018578, -0.8117802814769368, -1.8371187686275123, 0.827043268279612, 0.1702483962176377, 1.9178527801097192, 0.09668692409678062, 0.2256459796182983, -1.4715463086442242, 0.12448130093967584, -1.3616945238511144, 1.5827096892148145]}, {"output_weights": [0.829577856725055, 0.6266885952520201, -1.1070707099016435, 0.9732223504775741, 0.7296984803424178, 0.042455962064905206, 0.1900767538933483, -0.6896020601669967, -0.8790355916732762, -1.2404161716649342, -0.038552230192598146, 0.7455893550266194, 0.9700416486021358, -1.1116647090845557, -0.6567135699072675, 1.1491763769263037]}, {"output_weights": [-0.26909208110716654, -0.13491102171302474, -0.05187532221371386, -0.01077621368292513, 1.7931433565835182, -0.42551816526882297, -1.165342632213061, -0.39665970639541565, -0.5044491238376138, 0.4699765197443474, 1.7483224293612796, -0.9971178157197953, 0.4831923195994974, 0.42693961846862627, 0.11769359252953812, -2.6525993245583144]}, {"output_weights": [0.5455567101282451, -0.7398647170596756, -0.7190359880413947, -2.1042679482394355, 0.23378498146000157, 0.8473282824113835, 2.3737743298258946, -0.9200062585929235, 0.24643803959340363, 0.03388777370254825, -0.23602621637443302, 0.22114469387742983, -0.23908231266238342, 1.2496113017009778, 0.24046000007588936, -0.29058433245187176]}, {"output_weights": [1.4621597731679363, 0.7671749764380125, -0.5433590590768229, -0.9403489904460505, 0.9308490152054597, -1.1088086961842007, -1.7196466255100855, 0.43329274458251527, 0.3303559227391969, 0.2573642179639644, -0.5013580298729456, -0.038252880970842715, -0.37853814943190056, -0.482073178052024, -0.4516113681514433, 1.0195035978538476]}, {"output_weights": [-0.6543403821166413, 0.6912307829427642, 1.2141785582853903, -0.09529835231242709, -1.2590285961385506, 0.6703639021060241, 0.8617016157567505, -0.4548214348109254, 1.5174454950790435, -0.3748991698256544, -0.9280550237309686, 0.029856188549446546, 1.3903799539801, -0.8749723080518398, -0.21877769824295715, -0.4912450189801351]}, {"output_weights": [-0.550807211406669, -0.8298620646538598, -0.7169042733343371, 0.4637498931301383, 0.35184751689871796, -0.15238681303072205, 0.12081638062248964, -0.14888227030406492, -0.1443180368531931, 0.1940548387032462, -0.9156507737510099, -0.447299864962962, 0.07770699564371597, 0.38494022311278053, 0.10997841348020865, 0.7026853565725347]}, {"output_weights": [0.47173802921935815, -0.5334814581028458, -0.9444801065177402, 1.8571489928828135, -1.6004985862898047, -0.9943289417800185, -0.03658819630189352, 1.7616416719855466, -0.39371505334923834, -0.5105613170993452, -0.5714145804216288, 1.5866463100294546, -0.1718931896358947, 0.15230035933081373, 0.8653870675391413, -0.5271769398521841]}, {"output_weights": [0.8853047735303962, -1.19211594631332, 0.4664686303612438, -0.6553973817513321, -2.3310051774773433, -1.7402168476455893, -0.20828145185155802, 1.4605908563490335, 0.9302544450970323, -0.41548144169471934, -0.6951562791290768, 0.3655658858667234, 1.3143150505755632, -1.2632245773605417, 0.8219187223380542, 1.0028040857947023]}, {"output_weights": [-1.196753261863721, 0.022267365030127644, 0.20005393295206664, 0.25541243315631423, -0.2898624729212485, 1.0276411689951876, 0.005387033021528023, -0.21702919544394758, -0.5735774571556104, 0.8794715834076631, 1.9871326838276462, 0.8089525865151065, 0.6898656658709809, 0.6750350373222609, -1.9799606224884776, -0.3592922507078408]}, {"output_weights": [-0.8555714552855492, -2.2120701307866297, -1.1572474061492484, 0.030799394655411816, -1.3676528549550213, 1.77604846896243, -0.6343988750663067, 0.8738706073056263, -0.24615878516599202, 0.988073731408177, 2.183922553228038, 1.7274338314349587, -0.1062307261334114, -0.20277883831428178, -1.2677130974923827, 2.287883694379734]}, {"output_weights": [0.680271315405113, -0.481209329592422, 0.4135524087161367, 0.5140330748015691, 0.9745907489450758, 0.7441636103143798, 0.11742881925490807, -0.1323862402915537, -2.906282866165199, 2.3938146652629952, 0.6103454531434354, -0.04878757123607675, 1.6209339073196094, 1.0284167435117038, 0.9047114652041747, 1.3018731630763976]}, {"output_weights": [0.40861128374808825, 1.250023762426905, 0.9248335665123858, 2.6120558065825787, 0.9132047964182064, -0.9347949269797629, 0.6057673789770933, -0.016462819269829593, 0.15109469546782922, 0.7457034843533956, -0.566602126984926, -1.2214641020542738, 0.14362593052612138, -0.4207582270790938, 0.17383837116818132, 0.7091223872066729]}, {"output_weights": [0.9886744541394514, -1.0877353210180916, -1.696694069686909, 0.07811701836029913, -0.950997742326273, 2.0792698084655834, 0.8174078598575084, 2.3405833937027416, -1.7212218474466157, -0.9704869410757125, -1.2265703575985654, 0.10375587021840131, 2.220454154377069, -1.4491786136715719, -0.010124124539720258, 1.0388611538806147]}, {"output_weights": [0.9515495184391243, 1.3327547935937043, 2.0738625134580393, -1.5013575260415244, 0.7322456126242393, 2.4070116636577055, -0.4902401288856233, 0.4903562078305918, -0.5148434678001146, -1.5010230527764519, -0.8276141234416017, -0.16437925741656392, -0.9441392764931289, 1.2983317857782262, -0.9651643332055884, 0.6604291909309233]}, {"output_weights": [1.2926891868922055, 0.7900893708230344, -0.7438679207569233, -0.5385715989654445, -0.1451510046351102, 0.45647571608939086, -0.934020174273468, 0.7493113656267091, 0.32442189774277985, -1.4256153726293797, 0.05660340423009283, -1.5051424201171288, 1.7992343456243425, -0.9411265226954947, -1.1024988501835278, 1.7999681258198597]}, {"output_weights": [-0.1670940775906808, 0.33377381004550877, -1.1612794797467427, -0.6142020618528922, 1.22475813217418, 0.3408038030922837, -0.16427711346119608, -0.8718400569867298, -0.729529982737353, 0.847045244706809, 0.9746209260179147, 1.5530229384139635, 1.740836320492225, 2.043218536712621, 0.08736598416052857, 0.11865931240076931]}, {"output_weights": [-0.9591556478930318, -0.04535711621280378, -1.4159767429380414, 0.060122128971935515, -0.22321131969647148, 0.2644198874624698, 0.11976613037449883, 0.15962382487950685, 0.18759281172033204, -1.9972354886682366, 1.5752116799176472, -0.42377768564781004, -0.015887999947561862, 0.8652732496413991, -0.15545654113617585, -0.202241170106739]}, {"output_weights": [-0.49574666817887747, -0.8384555868531991, -1.1332465502450368, -0.9002114923502763, 0.5895375587018569, 0.5436393963834039, -0.31748190845083374, -0.47697242543482365, -1.8384141025633292, 0.19196478437705192, 2.1131840525121706, 0.6873211812415362, -0.3746572323034219, -0.6245943836024799, 0.5521823171642566, 1.2702896502298695]}, {"output_weights": [-0.6573700925613379, 1.0836571258156071, -1.172081546012341, -0.9364430273295979, -1.1755577367351646, 0.612638616165401, -0.7033177899801347, 1.0114901690420943, 1.7895086858058606, -1.2711291384563115, -2.4790710097259314, -0.8101714431341932, 0.45346839411066836, -0.11690167036187786, -1.3946871945125123, -1.0144865013454696]}, {"output_weights": [0.6323288152051707, 1.3294467155169316, 1.4914148790137016, -0.3355901606991648, 0.49729241404359764, 0.06637239778849473, 0.5480251481827259, -1.4715240248235952, -0.1820900093423225, 0.0521320137173542, 1.0889047920117463, -0.8849938946249689, -0.22786989065282048, -0.5562187567437338, -0.4695263916927393, -0.5613215963283034]}, {"output_weights": [0.6025349072682427, -0.8274640320130867, -0.4416262145923847, -0.5286109844624748, -1.6412749542955238, -0.003943338239267111, -0.7071854353318983, -0.16475494592188447, 1.062143722317869, -1.0581734548939206, 0.832763574825725, 1.0311451631863213, 1.616366092286033, 0.016845056169565314, -1.2314979365382297, -1.5173317309329726]}, {"output_weights": [-0.6348515399710113, -0.2557746244318939, -1.4645585277986395, -0.36207998880512765, -0.7773016404249701, -0.7179352440616832, 0.24582240331593533, 1.3408901603425767, 1.375940832923166, -0.10539887655152895, -0.5620304401738938, 0.3311877439584293, 0.26946013292164567, -0.5115967538197917, -1.2423479408288922, 0.4838696775582611]}, {"output_weights": [0.4402435839021378, 0.9535018757848283, 0.46384322289544877, 1.0327212292994137, -1.3361027626256885, -2.0199980909755046, -1.2217299394251278, 0.6983203056602956, 0.3420071667951894, 0.23423083080678397, 0.575981973909441, -1.4650903679322838, -0.9222194530893483, 0.7024365164792363, -0.6477635580131256, 0.6924613820460406]}, {"output_weights": [1.1457172882967863, -2.803516249556571, -0.05055126879101534, -0.3146988179972383, -1.2311738739290075, 0.2017909222201796, 0.47472740042020595, -1.651525683571675, -1.2189527756240908, -1.1841956290791795, 0.6029567191286618, -0.0554559871160183, -1.1711029232104182, -0.5496478508479302, 1.6520795055187532, 0.9963283732471793]}, {"output_weights": [0.9760071203494727, 0.6513945565006732, -0.49413251497831134, 1.2419479474282198, 0.895324417844104, 0.8312835546183416, 0.5353951746181522, 0.43049504121970794, 1.0732623132495953, 1.2903415063149406, 1.063234945829269, 0.08819192220986319, 0.9043572379502913, -0.7538567623472142, 0.3461759400061162, -0.8822078361763567]}, {"output_weights": [0.05240798872255105, -1.2658572567449269, -0.37100763903738065, -0.24930561557705258, 0.4695296387213693, -0.24425874392479222, -0.8173238785373832, -0.923855646386501, -0.14250002799448375, 0.4740561533391368, -0.7808690827758121, 1.755855613025391, 0.6321280231218267, -0.6429502484325069, 0.2490726983877365, -0.8165968553890948]}, {"output_weights": [-1.0543440756735514, 0.6539977172599705, -0.723152305948301, 2.0542533566185344, 0.4859668046811719, -0.24009324553956576, 0.3036532530694061, 1.0366086464422024, -0.6172508103397413, -0.322247428766691, -1.368492921198122, 0.16999278816182722, -1.413347116658985, 1.0065986274829184, -1.8728103962057006, 1.5156445266435035]}, {"output_weights": [-0.17434080975092242, 0.0008424747999723957, -1.7042363051127938, -1.392723432785734, -0.34543097420226215, -0.1275731486924875, -0.5942714227942238, -0.23516283555731982, -0.6439576561942494, -2.0966505236428787, -0.409176465654634, -0.6282786319378909, 0.5931317184922585, -0.7576746893426609, -0.780145734756934, -0.1449661786633687]}, {"output_weights": [-0.536170917976539, -1.1264687192542693, -0.033433188098992234, -0.7357697265766857, 1.2973844887085573, -0.2630321997432701, -0.4554496956117035, -0.7790884301671231, -0.07994839513229314, -1.1922826653081118, -1.1149261540012638, 1.582792288145306, 0.39047327454071834, -0.7856661616661654, -0.5299445741279737, -0.6536973764526486]}, {"output_weights": [0.5713633879864563, 1.0648434653031527, 1.651714724067053, -0.05905057696916952, 1.0936507336711525, -0.08770386784927528, -0.7102218553632507, 0.43303177267265797, -0.1743307997670681, 1.465979595438598, 0.4242758023766167, 0.05213166136000032, -1.3549031383289494, -0.26552991280326343, -0.5494767632857959, 1.2914973947265294]}, {"output_weights": [0.786261767548959, -1.0868071575591294, 0.3672178472140954, 2.3173389571203757, -2.299174389957772, 0.1345693017453315, 0.380817951491387, 2.7639332509137966, 0.21606372299274804, -1.4759573792245715, 0.2299383614591024, 0.6149383010251878, 1.6045838165695663, 0.6955935165755703, -1.1552831295140233, 2.5905481644431068]}, {"output_weights": [1.104575752845371, -1.31084334753447, -0.5439598979429952, 0.5522112883461072, 0.3660716963390947, -0.861354156741172, 0.12730734951905534, 1.3128088326758411, -0.8954753996417382, 0.5777769461889781, 0.804395527231249, -0.39966760446248617, -1.309590785519853, -0.833122946816214, 0.014078661853267857, -0.03290770196364213]}, {"output_weights": [0.7065800469445512, 1.3555691902538731, -1.42799493424831, 0.041094032669771845, 0.23150017363388153, -1.0875710264846017, 0.38278595429086965, -1.3508949238280146, -1.738556247623024, 0.5923199426848269, 0.5051804672589211, -0.5986678696850813, 0.6162273759665164, -1.2712527761408008, -0.12495813851391609, -0.42615168809222836]}, {"output_weights": [-0.21447151403728887, 0.5240293518028768, -1.817924076890053, 0.11329742107391386, -0.25453708456917484, 0.2381872157839702, 1.2385894836760087, -0.9437583774211848, -0.4887556420876011, 0.9227039826669973, -0.6447367321031949, -1.3095389875844652, -0.49314822682977716, 0.14442478722921998, 0.1902869697077236, -2.2796002827190587]}, {"output_weights": [-0.7918917494476936, 1.3010503157382547, -2.078108104000333, -0.20648944288224358, 0.3720528239968499, -1.083542421338961, 0.4247001991916884, 1.0296274071048805, 0.48906697571992225, 1.1870985994666992, 0.12782669413674416, -0.14445556634863657, -2.1363277373909466, -0.35865480851062315, -0.027369366212610227, 1.0074377210029495]}, {"output_weights": [0.017617787311416028, 0.07577249515512913, 1.3762489285100574, 0.6934537897225367, 0.17026283477818582, 1.9867437059302555, -0.3454103085428422, 0.24387435526573528, 0.34695388136026023, -1.5129122676410145, 0.05245677137258686, 1.280468438277238, 0.0948433061912534, 0.016654856818799517, -0.8386191879618566, -0.9038053359992527]}, {"output_weights": [-1.0566965470650798, -0.8941199241973968, -0.9692371761897745, 0.21028770795528665, -0.9694271447372191, 0.3688829241718305, -0.496696231283373, -0.3266047554442334, -0.7997634227788935, -0.0874039145825852, -0.37869816050052324, -1.0997904285136744, 0.9810299893132602, 1.032296204132106, 0.24196826543614855, -0.3230708761183986]}, {"output_weights": [2.05118104025158, -0.8017124400881951, 0.49500478969283107, -1.7027178278126922, -0.8445783976908315, -0.23459937895072977, 0.1605829972559185, 0.12834861568258252, -0.013317343477309347, 0.7011227395281796, -1.4843997858655325, -0.33951073993119857, -2.078917402061924, -0.8349684843959823, -0.7288123302643682, -1.3120881634152126]}, {"output_weights": [-1.4170468431078238, -1.6421858369909306, 0.0455164667883968, -0.5515541308326645, 1.0907575845123394, 1.3588117050222617, 1.12705326532923, 1.3333104982175563, -0.15115301932554012, -0.22674658453383326, -0.7482160383035009, 0.7921387248987655, -0.07846912466750265, -0.8525304912189681, 1.0087595611087472, 2.2282679104026246]}, {"output_weights": [0.19817353280891434, -0.5314934221407607, 0.007907272445476501, -0.4519893736882305, 0.5621553531377098, -0.7816739847018326, 0.4858039550112173, -0.19110203798949907, -0.6005244464696321, -1.527101995426823, 1.6380496584070565, -1.1159723613736938, 0.08063048101750903, 0.7968616579470142, 0.8876119445406137, 2.2078398724610295]}, {"output_weights": [0.4618055670108904, -0.5939625567230455, -1.0519761781837222, 0.11694954818772374, -0.8845361513947685, 1.5668544168869545, 0.6982304727241223, -0.05830478220676313, 1.41012285879528, -1.150465316596321, 0.2519516787731064, -1.2902726290186413, 1.0589729743158725, 0.2344628042227793, -0.27762145497990415, 1.640250610988927]}, {"output_weights": [-1.9271753953881314, -0.22107929677755156, 0.36887643031023165, 0.49895227147905613, 1.0214278939117716, 0.44131931229815885, -0.9252173090102901, -0.38863058861641175, -0.27680632180648074, -0.216621653417858, -0.9955639727241581, 0.83010913413629, -0.2434374782386922, -0.5747192501786179, 1.1609616028748173, 1.006313375107613]}, {"output_weights": [1.8125765726083547, 1.5933613444169914, -0.8140886388671748, -0.6655883483822093, 0.6833298061179248, -0.7207097013871553, -0.4932441942555972, 0.5043431793186988, 2.197267343157023, 0.8368832145422676, -0.08103537213434357, 1.4524864766052303, 1.6516680217226989, -0.017463849677859234, -0.5077586570691018, 0.6771980806651491]}, {"output_weights": [-0.14289533585991387, -1.7949322283251101, 0.285728037746545, -1.4742151652185282, -1.488491763622802, -0.5646189299428388, 0.18074117040642057, -0.45203333980281823, -1.6816969644448716, 0.8268129877037379, -1.6223544978404076, -1.8291062734743404, 0.8751225092145128, -0.36081080168848195, 1.4202008743317247, -0.4327713859633949]}, {"output_weights": [0.8780952792396268, -0.9506148344014517, 1.811958881024594, -0.8971431660129576, 0.008347470282634549, 0.04076880838277947, -0.4507757245425608, -0.6781645261355528, 0.16570748130601262, -1.2240710801822292, 0.6212901400503884, 0.9365544786475085, -0.9254148664352846, -0.7799530248162624, -0.024788489335820344, 0.7697424793888555]}, {"output_weights": [0.9580968979861443, -1.0127457466810097, 0.8462780790561004, -0.7211009321339975, -1.427224082905052, 0.701265380067281, 1.558086306922036, 0.11123305655138765, 0.9789361145968151, -0.40593660291080763, -0.7913359751830105, -0.2922418204319916, -2.0163923309644156, -1.152025522377883, -0.6772718435061444, -1.2340765023044418]}, {"output_weights": [-0.5751564682165345, -0.07362740782593344, -0.04767711982992855, -0.7643692349763315, 2.102871994875764, 1.3828462467265348, 0.9591293032586788, 0.5370564632098892, 0.867400164482048, 1.1202290114328524, -0.35652078088125994, 1.0864677333557489, 1.6160867692181322, -2.843051861079763, -0.9151178705031441, -0.1276831775629457]}, {"output_weights": [1.5286607300485628, -0.22259539948179466, -0.08487968857572853, -0.3482117974727067, 0.3856987523692526, 0.29797650317314445, -0.4152642354931903, 0.42234867549261135, -0.6909401708093917, -0.7372819817328924, -0.09957112368861733, 1.4697308820309527, -0.6834286580813845, 1.248330069496188, -0.9361420916243165, -1.2091546251001322]}, {"output_weights": [-0.8969717723950267, 0.27929080927024724, -0.039435695446705846, -0.42215565799468413, -0.8830670284982729, -0.38920284788163123, 1.8823831852503157, -1.8518330104578922, 1.104723154184897, 0.12379625320364326, -1.2699256546416153, 0.46864016428905564, 2.7636681222437196, 0.07339228268230472, -1.2066631141990103, -0.6803804411634902]}, {"output_weights": [0.3384224650998705, -0.32691849688908714, 1.4958888776225001, 0.1423172128587591, 0.3386433182152711, -0.8515195006352567, -2.4443283744710995, 1.8670987507702028, 0.26890901831922864, -0.168517424650958, 1.0412065778341721, -1.0203020595419772, 0.0445094589426151, 0.4740469213087604, 0.7887099345442367, -1.5687848221646994]}, {"output_weights": [0.32635470706483155, -0.9097258276232364, 2.294024856724576, -1.6846173981813246, 0.053281655826334186, 0.2541392241676707, 0.26863705960067863, -1.2762313736850406, 0.665369838207199, -0.49608785322968124, 0.5575118923835785, -0.6270227046886546, -1.054804185518264, 1.1278332259650043, 0.4896179164547913, -0.1550756829195808]}, {"output_weights": [-2.1477422066959106, 1.6043080468863804, 0.9189827939744661, 1.369411871914647, -1.41132130254085, -0.3138234689231964, -0.07155227645738592, -2.038443946528473, -0.5971041725118077, 0.35412538354330014, -0.5327806007776946, -0.7748868990774552, 1.1722539423576286, 0.52158872349839, 1.4102921085656392, 1.4416798819019407]}, {"output_weights": [1.1312393199417288, 2.0696844873458455, 1.5542586271217431, 0.8219357841083156, 0.7158129292269017, -0.6798478834639505, -0.164501475824463, -0.45420726110039283, -1.0259182306081738, 0.0921252714344892, -0.004274313119224907, -0.19740182828426786, -0.4935373260990835, -1.6046567005453367, -0.9435680812870166, -1.6641440928631523]}, {"output_weights": [0.7480880379102157, -2.2665286838383203, 1.2569267160079327, 0.19901733956098594, -0.6981043128255675, -0.042831981921367834, -1.532463953109937, 1.3252290450485842, 0.0947562375827583, -1.658491644011005, 1.5474401215483016, 0.6435756072963095, 0.5275329871171051, 0.48735622955090324, -0.7997933472357389, -1.567189567168964]}, {"output_weights": [0.9978457883337242, 1.965430409444016, -0.7294678210018438, -0.7306348095755363, 0.9097967252575905, 1.107938235688339, 1.7268177726303813, 0.8569871192611936, 0.0649301373368696, 0.5355352275866377, -0.8532418936525071, 0.9242629211590573, -0.3306162798695139, -0.8065280516750555, 0.9988378124027305, 2.0827077090363577]}, {"output_weights": [-1.8565731815640554, -0.9498500076143737, -0.12611666697753657, -0.044943992932664545, -2.053372918385611, -0.3869245269488262, 0.25866066071076105, 1.9316784763244677, -0.6561879437878138, 0.46780168168014374, 1.6914986396302052, -1.2616154529406423, 0.25087548361155554, -0.5011592686456537, -0.05143750594394674, 1.6080636972749849]}, {"output_weights": [0.2801469356563716, -0.10290919960750594, -0.53270683770743, -1.315939456352133, -0.3847056463344347, 1.3714003093649065, 0.17552469927266284, -0.06932652412870628, -1.1242816574368768, -0.7442429990347239, 1.0665543555158248, 1.3367548104242966, -0.685935256054648, -1.699486635472847, 0.5768113391926804, -0.32982681051139057]}, {"output_weights": [0.5212690293514901, -0.7754882655708751, -0.0975679365980174, 0.22612073761329063, -0.818910315356459, 0.8978531039684359, -0.7152195599720603, -2.4117479936750112, -0.10675856002888291, 0.7878011127524466, 0.5638165152990658, 0.16185689941415124, -2.561054703574898, -0.23375657174978123, -0.012799918488140164, -0.6986260697956602]}, {"output_weights": [-1.4997876379762363, 0.6461391151817367, 0.14954861725662896, 1.2993368607383458, -2.099980273524943, -1.9473956634327914, 0.006410403016726132, 0.3780859856672569, -0.42245362903117045, 0.5695986785020272, -0.6834869426174465, -1.2589091729418678, 0.22535534743952512, 0.13920961957486286, 1.286653331912996, 0.47441249646361283]}, {"output_weights": [-0.6669696684796312, 1.8560824965217442, 0.042561260400864845, 0.6334482995518309, 1.3189596049125962, -0.867997702965594, 1.6899989986569668, 1.280359752344708, 0.45723622443167133, -0.7504177863742174, -0.963117790233576, 0.3874636217436292, -2.3099095649353334, 0.3532205861792641, -0.3351210736120445, 0.9907597097078221]}, {"output_weights": [-0.037553303875309814, 0.4316618277124408, -0.3522771092166421, -0.7628480684957683, -0.8835840742458191, 0.6218547262225955, -0.7309812481412439, 0.12920878802466434, -0.06733803613912462, -0.5646567552201434, 0.3869906339885795, -0.13727199697809014, 1.0683693738454385, 0.9863323801339104, 0.033564548405445455, -0.7834906856176168]}, {"output_weights": [0.11579604725842044, -0.7730025390333538, -0.3800688182041505, -0.20008848392405565, 0.8473275662289119, 0.03472226609819918, 0.3375285252105279, -0.2712082154040183, 1.5477865704581992, -0.13752243518739932, 0.8173642989550127, 0.4797334533567422, -0.5323797687741483, 0.6015297147650481, 0.20947387752827504, 0.2964644976540859]}, {"output_weights": [-0.07597807915934016, -0.25814612336962073, 0.0179015359405934, -0.9859029007369359, -1.956017444003474, -0.04373756679388098, 1.638729895398193, 1.941700068787272, 0.23361251006609055, -1.3843696651210484, -0.4326938952654575, -1.4107470867880136, -0.28942617597266157, 0.17728963068099973, 0.9779273060453668, -1.2583373435381013]}, {"output_weights": [-0.21971845511807794, 0.8261630331536373, -1.1444072342826168, 0.6895018402629748, -0.3904142619201744, -0.1670323206342405, -0.6654127204424966, -1.0681896333994487, -1.3817926143175487, -0.7314558841681771, -0.06030983964619665, 1.2526574630687286, -0.2588479933769408, -0.11708154251089223, -0.6832585873291994, 0.5531009118610516]}, {"output_weights": [0.634588763329837, -0.6353534977004018, 0.8746380690052852, 0.7993749144979828, -0.0722683738227143, -0.029183544347564247, -0.07537102146716768, -2.1105423490959603, -0.0457794853966428, -1.6835877821657086, 0.9382758529806359, 0.6875997916246234, 0.026195954987865852, -0.7789925041888707, -0.8097892230027103, 0.5981655825948976]}, {"output_weights": [-1.1746507269449404, 1.0250915629846202, -1.4676895556334288, -0.22653698918745532, 0.5777125773928724, 0.8459126655036803, -0.6808572933317144, -0.560308764290689, 1.3365995428393413, 0.3313714976996976, -0.9654908793132728, 0.4945657563240856, 0.8180222310868981, -1.035621787119755, -0.2239083903395286, -1.258926813819749]}, {"output_weights": [0.7118299283832177, 2.056410322448595, 0.5505199098156025, -0.9537570523032334, -1.562399307613599, 1.3686874775792415, -0.27405227010549293, 0.44670155532967665, -0.2919909593885647, 0.8312622517422881, -0.13109984251423498, 0.9731354285601926, 0.05152757900889579, -0.13598519848119947, 0.6481876042974233, 0.5500303343270927]}, {"output_weights": [2.1996733464445932, 1.4185002799964728, 0.0177930347207587, -0.4272441943697496, 0.585812287305701, 0.7226157523299576, 0.5225567498732416, -0.4697184370070633, -0.7494505105990382, -1.0197136746150932, 0.7627126253799849, 0.3411308036759962, -0.9248645518250259, 1.7413477708058571, 1.0667738074511899, -0.7981097794194233]}, {"output_weights": [0.5037708804028477, 1.4517148038201309, 1.622504144496667, -0.5512841566510621, 0.8690070301253763, 0.26326009602471795, -2.3274983964680946, -0.7640245802021585, -0.1351140155187754, 0.6593341273847867, -0.8741471350570248, -0.4765407666047697, -1.5153564818428902, -0.4239303419773281, -0.5751494158519649, -0.9306988765773792]}, {"output_weights": [-0.806055694920867, -1.621479371706706, 1.7325030833998858, 0.9463152094188345, -2.3786701642547783, -0.5282802743531291, -2.6339695950945092, 2.1455733693636536, 1.1490422167927474, 0.8116904272929601, -0.1931868152189791, -1.022553754604261, -0.5243424122004039, -0.03142257962630223, -1.2249566375029803, 0.31384663224168224]}, {"output_weights": [-0.3067196003312585, -1.0229762334199508, 0.08068880253278607, -2.1179202851965226, -1.1098297858774495, -1.135739371545066, -0.21303898835779336, 0.8362412040348634, -0.04153248497565403, -1.4058598551875394, 0.6839667929072515, -0.40334038089159424, -1.0933886620488635, -0.17784132935105484, -1.0897881774442921, 1.7494058964262584]}, {"output_weights": [0.3207067343984393, -2.354469265744253, -0.919337154008233, -0.5190009673290235, -0.33331251422387875, 2.1571947563594693, -0.8322133296158417, 0.09150969941735512, 0.21318131904815174, 0.6557818687964281, -2.2136770467472857, -0.5293178640377748, -0.058365632938755886, -1.973506336050884, 0.3974851705748789, -0.6060312782484835]}, {"output_weights": [0.16647192480452583, 1.024925554310032, 1.7648818107308126, -2.023212258292541, 0.6221515475392464, 0.49414938270488606, 0.4506787555183715, 2.328050497496557, 0.06821912650064157, 0.9528549256410561, 1.5481990192342077, 0.9136750937251436, -1.8591405595354566, -1.192768476371842, -1.247013966982243, -1.6166897341763038]}, {"output_weights": [-1.0646667069029039, -1.8330222217360657, -0.17666157206793318, -0.005466267937272653, -0.4082704876898313, 0.3889901822214116, -0.8419028990986179, 0.6378856229579185, -0.9513959010256494, 0.28472005824950714, -1.405361001076786, -0.9333169713864676, 1.3776143862244963, 0.918141230920375, -1.5747691282190097, -0.19033988042737754]}, {"output_weights": [-0.8577092308596703, -2.67719726149579, 0.014924366622515277, 1.6621901127663483, -1.1791186209741094, -0.3359236029660985, 0.4701221742020823, 0.5475917164511196, -0.8546823433335089, 0.7840874483903861, 0.9427003660996206, -0.7109738833150564, -0.9091194649725527, 0.7171464238192425, 0.9299946546120738, -1.4408100038350071]}, {"output_weights": [-0.3960111624188949, 0.04783080723092457, 0.7132023435528356, -0.8339769475632075, -3.567607044668742, -0.24835317601772466, -1.5124614888953145, -0.8263949563802695, -1.260353067682583, -0.7130617581889352, -0.4187893969817252, -1.5013630253850592, 0.48357970780770815, -0.2789013673221833, 0.3605727623132083, -0.8053744692540976]}, {"output_weights": [-0.17849869021158404, -1.2792630098717714, 1.7688307860656698, -0.4355465082627723, 0.18009111222990426, 3.055128767722594, -0.9186575868125929, 0.7400576423847436, 0.9712582487719555, 1.7285124795742635, 0.43255612395117404, 0.5495212442301106, 0.3863237705876857, 0.4832152651050703, 0.17738740606536677, 0.3504859911298595]}, {"output_weights": [0.4244276965161244, 0.6079159154855757, 0.8400717143117706, 2.553440339882559, 1.0588308672567837, -0.7561922842114523, 0.37480644749604664, 1.1558105380579116, -0.8966073977342467, -0.34945354993500777, -0.534766343783692, 0.5473830317001528, 0.8425416377564938, 0.10154867760695031, 1.0822573373161821, -0.10656613494488658]}, {"output_weights": [-0.6274141971852187, -0.8654272838912034, -0.6116100596179986, -0.7108624408545444, -1.4311073695972338, 0.11036553103295951, -0.6798594339862081, -0.10534897442189242, 0.9855922295587912, -0.03281332970082899, 0.28712883852892596, -1.3740982756754974, 0.3373496158683633, -0.6268725105599681, -0.2264250944645255, -0.6280755622066373]}, {"output_weights": [-0.3608344417808302, -1.9545699016731812, 0.38353578023696017, -0.34426153653504543, -1.302843676574807, -1.3745503285090352, 0.04155809881481593, 2.0277606704483966, -2.0173395659407, -0.5694196637685586, 0.827988269163126, 1.079014424118869, 0.0411754899928833, 1.5864737340172674, 0.3670153697726191, -1.1105230207420158]}, {"output_weights": [-1.4784405896014834, -0.25298719298801886, 0.18511809381934372, -0.940542046874039, 0.15953953670351473, -0.24081179463222047, 0.5636170799160515, -0.11884869519890685, -0.31003756542964445, 2.8255998096502815, -1.4614246108608604, -0.22212581733255254, 2.287314246611976, 0.6381461809279094, 1.4623627779758384, -1.578858388500958]}, {"output_weights": [0.6129548970318917, -1.1918906457953817, -0.28128546988118674, -0.21247577560950684, 0.8970269750024567, -2.0524990655823694, -1.388453184648547, -0.6822127614841856, -1.3363310707660865, -1.6265361156763056, 0.4623978136244406, -0.7210075920745055, -1.3179029429539393, 0.9498576541861505, -0.7001887557994103, 1.6078625607354335]}, {"output_weights": [-0.6242684966591836, -0.40452255808321663, -1.1367340823058356, 0.5876968626470734, 1.377353681611394, -0.35707116135805644, 0.32568350109346206, -0.666790481007864, -0.5153245312953997, -1.3110388961813773, -1.2059656698025307, -0.24032836665905302, 1.0572757165758102, 2.26031379438755, -0.11623750256710728, -0.499965942293533]}, {"output_weights": [-0.8420457370455245, -0.6084321222462511, 0.5786350724728577, 0.15902371646349903, -0.9164645293899626, 1.704150012522539, -0.8308155172836201, 0.25707756311071683, -0.00522195285960966, -1.9261832898658604, -0.3525086412915042, 0.1577471082062183, 0.5274034651719242, 1.0242636710523774, -0.4047590414577781, -0.4144179831790702]}, {"output_weights": [0.6485607031844065, -0.2660787743155435, 1.448730616354687, 0.594698467804206, 1.8201809362057562, 1.076435091483479, 1.5547559785775202, -0.21566578846035417, -0.6776515953996675, -1.1082356658138082, 0.6349965181724254, -0.6251660259037116, -0.21057442268709156, 0.4049572974212655, 0.4168366504788806, -1.3439769183877874]}, {"output_weights": [1.4621127352622905, 1.0005269063282807, -0.14170443157213336, -0.3164616955699125, 0.25751764446891034, 1.4980219725866661, 0.1286537166949924, -0.27690292805273037, 0.28220761265746414, 0.30344591155496264, -0.5712419914661557, 1.8288581109252502, -0.5820278063691671, -1.3822128183003155, 0.07030338962974024, -2.296136043527269]}, {"output_weights": [-1.3795820923720654, 1.0213601481467478, -1.5353589930348228, 0.6805162075605122, -0.0008202691633408885, 0.23326383465383654, 1.7413154472042027, 0.49120481860736304, 1.4032261923046054, -0.40694379207856307, 2.317213106022938, 0.8667604832265093, 1.3017213964605971, 1.026712487703743, 0.2284177380521195, 0.31375137342012643]}, {"output_weights": [0.7496886671250313, -1.0573390806130674, -0.3768092536323304, 0.5759513932317921, 0.3309056868666268, -0.14426973340046154, -0.3254969120762507, -0.4599020312313961, 0.756994905821965, -0.007251202109831059, 1.1384601772076233, -0.11179941146706797, -1.432951015824322, 0.6324379530165019, 0.1856090035472495, 0.968322108754144]}, {"output_weights": [0.4394900885796538, -0.7836571872757494, -0.960160145778365, 1.4629028779811035, 0.05344497625970939, -0.15232659690114658, -0.5926670075708931, 1.3103332556276879, 1.0331080643749686, -1.1571032216824775, -0.5054224683876998, 0.36797467950040813, 0.512472699085843, -1.1084201300851884, -0.10035850419295349, -1.5863414697903142]}, {"output_weights": [2.677049491675398, 0.11807813416464971, 1.261870313713582, -0.7483466067903441, -0.5685298023249566, -0.37523980153529707, -1.1964097417820807, 1.0927423711829327, 0.36720639412408024, -0.9570457866499359, -1.0952109158540775, 1.0348581840383435, 0.6759271548828637, -0.7663721544865799, -1.2404454546342456, 0.1488503660723569]}, {"output_weights": [-0.28284573478711367, -0.1039439673026591, -0.10962292298423146, -0.9819145956701134, 0.7966911704836319, -0.6695855533113854, -0.2990062097271689, -0.9524108171312962, 0.6408395110811644, 0.3922455192115855, -0.7036430518790885, 0.22600735381439774, 1.010996898250522, -1.328953893344635, 1.425274092655918, 1.0958781320024324]}, {"output_weights": [-1.3204755291858246, 1.1461382310955552, -0.26923807822304147, 0.9192381671972895, 2.029955609233641, -0.4173286329008951, -0.6235494631703258, 0.5887387186567267, 1.4334518358422188, -0.8686058905516983, 1.913250935476375, -0.7859419814299882, -0.5264314991518368, 1.0700757149325448, 0.9000074819291876, -0.5970272345933573]}, {"output_weights": [-1.3121275895201632, -0.057294997250443486, 0.14757743675248652, 0.13070875861645534, -1.3311372284054417, -0.7311716764764034, -0.4754364767800151, -0.3228842823237792, 0.49638746559548674, -0.20507631261686768, -1.1038561007344898, 0.1539196002786187, -0.026239468700735395, 1.3371948104462996, 0.4948837174347743, 1.4434295092743197]}, {"output_weights": [-0.3873809471440276, 0.8068495305927551, -0.4447285648483616, 2.692026941526319, 2.3013199441126764, -0.8378751443099969, -1.2493937324155506, 0.5794926531610349, -0.09995645984161397, -0.2982427124969973, -0.3768831603518843, -0.5439463635421238, 1.4397812093764901, 0.2546872521248583, 0.5013574593023993, -0.38404150097603723]}, {"output_weights": [-0.09814645718154956, -1.069151494284334, 0.415506372691876, -0.24262900125104286, -0.678628679700722, 0.6974419524767661, -0.3148230188311668, -1.4334911049011185, 1.5456734028016634, -1.3146852172485897, 0.7668688187459431, -0.23911192704592463, 0.6607573315363534, 0.9661425633982278, -0.3319398284089685, -0.8157699829022275]}, {"output_weights": [0.7295246858004674, 2.0706402063213503, 0.4483189556847812, 0.5202002448861834, -0.29673082527677314, -0.05149222144598074, 0.20238793536639318, -0.8245433380211401, 0.7221848791983808, -1.2564076820775725, 1.2991156091136418, -1.0375803702023172, -0.45446862634445856, 0.18047079374784325, -1.6922085998431742, -1.5537098972142511]}, {"output_weights": [0.15992874134553045, -0.3840146975479497, -0.13709882206023816, 0.9769410647741384, 0.353176516612343, 0.2376935459885306, 0.7498170953898438, 0.88725538462309, 0.4216749682653126, -0.5986039380547573, -1.1724796121815961, -0.717824820928078, -0.474982610893941, 0.2637696356333263, 1.3570955055093077, -2.736919344051351]}, {"output_weights": [-0.8020134634977122, 0.5901814743318787, 0.03299188027762771, -1.5638530380108422, 1.2901823902843736, 0.09981874757384662, 0.10538652565312588, 0.6990681666841646, 0.0019180970319918806, -2.7879057411933035, -0.9436323973779166, 0.093562548390951, -0.49704679409467767, 0.11619594535777995, -0.5544984131469083, -0.6898273952599044]}, {"output_weights": [0.00918665457884955, 0.80359787369987, -1.0796097885461773, 1.0356968104787034, 1.142985237251352, 0.5166953705367966, 0.797641037510276, 0.046154817425667065, -0.6999383361571414, -1.0644074006327928, 1.3098774119420804, -0.5533115955512411, 0.8723451813737251, -2.545485060298148, 1.1813037611979633, -1.6461173147254178]}, {"output_weights": [-0.5492115011599522, 0.9917125222377114, -0.5422790980600065, -1.5554989328682853, 0.654755049025681, 2.8145106498966834, -0.6181821011256332, 2.0572029823174396, -1.6194177015539115, 0.3349492659979719, -1.844435922711545, -0.5733116877182838, -0.13744229517906437, -0.6720291988285143, 1.2787559186161936, 0.6857650490179988]}, {"output_weights": [0.328507544843902, 1.3120300445379274, 1.4340143798688814, 1.8808502112408778, -0.3321518966144576, 0.7872855046496275, -0.8433812970038679, 0.19689001089559974, -0.9035555670361455, 0.6569713875117791, 0.5237785783098866, 0.9101664889957048, 1.4130610208497656, -0.853952507763406, 0.8957025703811392, 1.5538577792218073]}, {"output_weights": [1.0510940248432605, 0.4997000804297425, -2.2256751219247457, -0.17402941694759824, -0.9560901422897334, -1.587936673628698, -1.3659474953562272, -1.0782161291552412, 0.5963484898634391, -0.2779612092238896, -0.3831347781315822, 0.645802273833691, 0.2563296382481105, 1.1935915393312102, 0.9195031204604088, -0.49803366266888033]}, {"output_weights": [0.25637299538858327, 1.4123736351434393, -0.29864625943975315, -0.4775318550532843, -0.15801390478867283, -0.13120775722591593, 0.042421279212793955, 1.6317740767802842, 0.3568820815213873, -0.19401153092961743, -1.492954814980868, 1.25291190179957, 0.17366112359306307, 1.237319145748954, 0.11123123311652018, 0.4214987714062751]}, {"output_weights": [0.46687173946211297, -0.8048442879100453, 0.09721885634027892, 0.9939739657356507, 0.03579993527888727, -0.7755304712154577, -0.14588897207825588, 1.8878112456456064, -0.31297324287937633, -0.25464135952086236, 0.5693980222931131, 1.1586722116982016, -1.2383672354262496, -0.8648802939769643, -0.495032195385565, -1.3788782871719487]}, {"output_weights": [-2.059939675242288, -0.059042081336509046, 1.010230582950775, 1.184404649230733, -0.6538851805371445, 0.8597013374735492, -0.0493662475006436, -0.07127360958805866, 0.3908050168650073, -0.11244778267723123, -1.0677430327014397, 1.2727504515860868, 1.3206085379114803, -0.6882790573969513, -0.9611785718369591, 0.7441506806691086]}, {"output_weights": [-0.33164859335229924, 0.9719825998103667, -0.41200118931220847, 0.525075026054381, 0.34887686377272803, -0.7573006616884824, -1.1152192419008922, -0.34752035067399295, -0.13355589282403038, 1.3859217561432444, 0.7073652672425952, -0.37236532112679355, -1.0957024943050164, 1.315675865325794, -0.41257609689095476, -0.037645234926111305]}, {"output_weights": [-1.2928356459714034, 0.9853223207025249, -0.08010858003075591, 0.4780338189786487, 0.08139616680686591, -0.05818585934129374, -1.4832196015903911, -0.19018589171940123, 1.7893497991165277, 0.08477657586048924, -0.577174152179115, -1.0170232834046178, -1.7674342806457068, 0.3697694748915796, -1.8901538979625125, -0.2926680915866481]}, {"output_weights": [-0.6178608225202831, 2.2964408752617875, 0.38008066673906865, 0.4132498200647214, 0.7463733319428557, 0.07602936740761654, 0.6738131804998551, -0.42959616894870384, 0.09636177740699209, 0.2848930781780332, -1.4616608112537612, -0.7996275999013206, 1.201590316433866, 0.48025509371725716, 0.14615590559326463, -0.33380781344394334]}, {"output_weights": [-1.5349542616860201, -0.23103496887299926, -0.4940527721228965, -0.4846521615557045, 0.5693454127574099, -0.3437690093349313, 1.2755726663986124, 0.21825840971284596, 0.533275217748439, 0.07259507762480581, -0.6780778047780861, -0.2641060331711181, 0.7674747390537561, 0.28488851027551637, -1.999797855868876, -0.8481647125486471]}, {"output_weights": [1.0979988974791923, 1.009239125662825, 1.068476361036498, 0.02662081207257135, -0.5219236743268892, 1.000730395508874, -0.7743935520570674, 0.12921209964976263, 1.1544178450467573, -0.04810187839413984, 0.1812503476458926, -0.1822504408027383, 0.2088922113376834, 0.640982712052247, 0.6740221312327215, -2.600131012315175]}, {"output_weights": [-1.3185820825153491, -2.822960025869041, -1.1424316509407983, -0.3764338170550842, -0.576411578774416, 0.6058950903187557, 0.4450629882026147, -1.396638578136328, -1.5328680713540384, 0.7074366797119287, -0.5562394343030098, 1.2670442757654357, -1.4675179395042814, 0.1865147892133624, 0.27908467973347867, 0.26604444261994337]}, {"output_weights": [-0.274586215660952, 0.7473689163277716, 0.7055254145775833, 2.1641785319222597, -1.2239668257483145, 0.7051965704140997, 0.8681785866306109, -0.06287277853982232, 1.4845771282993818, -0.8714128013031106, -1.0265758535658849, -0.5538663504540672, -0.12615983934815034, -0.9341393402462965, 0.025922734501358038, 0.5245309054599798]}, {"output_weights": [-1.2992989361586031, -0.06629689819048619, -1.0174861306637852, -0.47766072077000227, 0.0895387783726397, -0.6851555573152465, 0.5939121894699202, 1.1320101841481942, 0.5282652542832595, -0.5686757191393444, -0.8758140310559538, -0.43819611168697786, -0.8586641994231691, -1.0679492812775797, -0.10578578391275839, 0.5234219927834953]}, {"output_weights": [-0.4783062517727192, -0.6368939820929788, -1.443647247750493, 0.22791657388140596, -0.14882638467435902, 1.589589899181605, 0.15549104360301833, -0.2967973959503489, -2.3451732579106177, -1.7708274081757975, -1.6953896034332656, 0.05117420331319159, -0.34840547025097374, 0.8603503955092191, 1.4527289433905217, 0.08584396213530328]}, {"output_weights": [-0.2774285097050905, 2.0232259171975753, -1.4046259898227609, -0.869197748607489, -0.33326129149070816, -0.10330440616834394, -1.2161903046772309, 1.8157419849478338, -0.16490951971401394, 0.09322846263221153, 0.4366683913580254, 1.2716740320753996, -0.8114853359870561, 0.5652407826778038, 1.0705954071807005, -0.12495123832080816]}, {"output_weights": [-1.0894373567891051, 0.261139499734427, -0.18365327498081174, 0.3247984959322221, -0.11409854002442188, 0.9614364033090228, 0.05714876165139404, -1.1576892170596698, -1.4450768178008513, -1.1494066190725678, -0.2557221480953423, 0.6442499258300517, -1.4695484909915013, 0.434328376804813, -0.570423160262841, -1.0845754316021774]}, {"output_weights": [-1.106739043224554, -0.28660429870896903, -0.5873037398681168, 0.309607488340343, 0.3215772322581446, 0.24217304079483112, -0.410092125914859, -1.3570815195755452, 0.5964899109900239, -1.2999539264711635, -1.2965634913044277, 0.7636366677534884, -0.2198359954241369, -1.416865573074969, 1.1293517075818853, 0.23211579642297167]}, {"output_weights": [0.5097479265674367, -0.5398571815471765, -0.6286532793312688, -0.13661787124239758, 1.2751616743163412, 2.1602471111393737, 0.24919471375789057, -0.27240139202857044, -0.4949089922584372, 1.1511125848260608, -0.9565941658423365, -1.3119706821352202, 0.7900295611371954, -0.2707678556578298, -0.6075765792164861, 0.689682203282047]}, {"output_weights": [0.027934495181567008, -0.5486948970507312, -0.6133285927857416, 1.357078258255966, -0.7868392877255472, 2.0372157733430147, 0.4982724935047174, -0.45051620513406265, 0.1256216607075359, 0.9160392801000431, -1.924846138342167, -1.1631493570756974, 0.6496992028985421, 0.5511969935074111, -0.7875879472357071, 0.4298062817274614]}, {"output_weights": [1.5928744632784815, -0.23162785982991715, 0.9337440427057184, -1.166398994847847, 1.312956448276878, 0.25493845230395445, 0.8453200025550672, -0.5739936170000051, -1.566222811150903, 0.6442457291726109, 0.5108363333639946, 1.745012335141263, 0.1225459536737763, -0.5833845497299719, -1.2056144085080909, -0.7722528403433866]}, {"output_weights": [1.0032796041961483, -0.27617318460847623, 0.6616373988391968, -0.11093013486973755, -0.35159729059703454, -2.1952987442062577, -0.5930068370995013, 0.9437736351323659, 0.2541642470264547, -0.9138004046393915, -1.169902412778306, -1.7937003816603612, -0.24378261074865046, 0.42033033830006944, -0.7934884895750925, 1.1606988870261201]}, {"output_weights": [2.055231931687803, -0.8915498227313082, -1.7606648020688787, -1.3232986308329593, 1.4685309281185888, -0.010396815002425133, 0.7701506225796381, -0.9477486931760479, -1.6852845744245826, 0.49294649661696155, 0.7888484057329028, -0.34150447737206163, -1.2649053974985045, 0.33561038399069304, 3.483419538887598, 0.8644349143410449]}, {"output_weights": [0.73783479435665, -0.13714882553910507, 0.13433313767550678, 1.1008946489948883, -1.2048397144686942, -1.247698595569089, -0.5854733032974438, -1.0133385749216386, -0.10995436041638862, -1.2495941592732993, -1.2085024466877066, 0.25024432395281376, -0.23991668216019796, -1.3305026856613966, -0.05618713517082341, -1.587713067327378]}, {"output_weights": [1.5133221433532613, -0.2969667194795502, -0.029668482649449154, 1.1476719861169211, 0.8191465341081122, 0.8462756877817689, 0.6672316903214265, 0.2950267480719102, 1.1100621739185477, 0.3409423938299827, 0.41000887611946507, -1.70158242925915, -0.16136128985269765, 1.768975605645007, 0.17350764515176698, -0.453316120119938]}, {"output_weights": [-1.7018697113084453, 1.366733891356588, -0.9862629558209594, 0.3493906299798786, 1.3183245313322136, -2.091565514134096, -0.7726413482954619, 1.0901672402777787, -0.12531599310896932, 0.6003268453535211, -0.4062873559397258, -2.3829441937031977, 0.1452955480925975, -1.3751655806940086, 1.2864977173224064, 0.8224587804578827]}, {"output_weights": [1.6405731584860883, 1.2101869302217978, 1.1794066101636602, -1.0060831382728128, -0.42061866016285854, 0.5786792712187326, 0.6132618415595575, 1.256816748834509, -0.8910634612371281, 1.8730623107130393, 0.5750410348262595, -0.5931166436075177, -0.21019377385618482, -0.6402667702515468, 0.6560194345823275, -0.17905518089359665]}, {"output_weights": [0.7828285820817023, 0.4494350429157367, -1.2250850244993996, -0.7020804622464318, 0.7853830380489295, -0.5583478538620612, 0.8532632338036465, 0.3369539374990036, -0.11988189032287445, 1.0281535930903323, 0.24095412500760757, -1.0101845597769072, 0.06450643031131086, 0.45233719517707854, -0.9760954968767035, -2.5188842173186066]}, {"output_weights": [1.6431796799652356, -0.7910332254257142, 2.475324469150024, -0.560915049513153, 0.1879037460834027, -0.06346672948131223, 0.8005357978736097, -0.9272618852606778, -0.34660606697412727, -0.8751216278731447, 1.2374212042519726, 0.46791742339625275, -0.6651360529910559, -0.2568877798798755, 0.8277916574279538, 1.3355511961550968]}, {"output_weights": [0.787137460875237, -0.3867250746746237, -0.3092704057044866, 0.15088168856888662, -0.7176291116324837, -0.8755024682938807, 1.1135572122387503, -0.6471442838644718, 0.45968139503129296, -0.4291514342805846, 0.9660070788663089, 0.7182300570105687, 1.161769525971729, 0.1541131842360025, 0.8436857724919247, 1.5218712589782055]}, {"output_weights": [-1.5503333367669208, -0.16612772580242707, -0.6515240887097377, 1.0523610546712094, -0.4458940148141332, 1.1138709950341779, 0.2871670795632103, 0.17425850017150618, -0.3603628759495245, -0.6086711948908095, 0.45885928094089007, 0.2079295078468596, 0.2603107003808101, -0.16301573722168425, -0.6896502280843698, 0.15094374540736727]}, {"output_weights": [-1.964667329809252, 0.8418352476952873, -0.29352065052195536, 0.26248414521993796, -0.7155266163128795, -0.6086928734484154, 0.6737008239001328, 1.0756654045895868, -0.9061897620620549, -1.0740215743000412, -0.7302530076469607, 0.49943971586080355, 0.3177241892170938, -0.3314964580260943, -0.568634155559697, 0.671695295606495]}, {"output_weights": [-0.29948982000976854, 2.083980160108191, -0.15141742432385855, 0.15736235831017248, -1.0121828418280798, 0.30827269622240977, 0.6474167787540088, -0.29511292181219595, -0.9639023710034476, -0.5532843180494232, -1.3371298820262305, 0.3594304490693322, 0.7338557081794043, -0.6979572105916992, -1.1156858063097321, -0.7358048819920329]}, {"output_weights": [1.1114423602836545, -0.6908122940353356, 1.34255030238674, 1.484079966658925, 0.014490879116682866, 0.6857785046114377, -0.33402873271085554, 0.16161884318838052, 0.5059249627212866, 0.42992290373265635, 1.3660813792360322, -0.8500441469898096, -0.8903300923690417, -0.6568750346792179, 1.6233116863970156, -0.5536798336952871]}, {"output_weights": [0.4653407677510191, 0.7432529293871888, 0.42623066619980177, -0.5918822674742943, -0.2644821424789585, 2.1551659349044057, -1.5428470849509537, -0.16081378717756567, 0.10642542756330155, 0.769251928313443, -0.02557592270733534, -1.6088563117539605, -0.06289493904004387, -0.9145174997475825, -1.5486472848916557, 0.47216456759798586]}, {"output_weights": [-0.18199899986732804, -1.3806432131385973, -1.9524580507494738, 0.30625902154858786, -1.7778931073741868, -1.9356350411839802, 0.22300983274881006, -1.8290698711543116, -0.6514930218081559, -0.12981071162122382, 0.4814222653414807, 0.7028564850671573, -0.23058644441048007, -1.7229786559470068, 0.6871653578292735, 1.295608611809153]}, {"output_weights": [0.33948626138757865, 0.010136785853570083, 0.6061455282320373, 2.397430783168987, -0.7184114119544488, 3.451510536802059, -0.4741312128449469, 0.2205694634569357, 0.5519158416432598, -0.7027955431860144, -0.9304597766463952, -0.051482343942655065, 0.9617553984347708, -1.3176304544514268, -0.6879872014866012, 1.2389984351638834]}, {"output_weights": [-0.21230119939293843, -0.7345978072276322, -1.92120711851245, 0.12832231244383627, 0.42616014703593225, 0.007486214504170269, -1.44607330598917, -0.774356157090938, 0.6448083446592112, -0.4100084129410237, 1.619563749258482, 0.9015425795704904, -0.21058492710710908, 0.03490277280390922, 0.5797431099714124, 1.1620576982550388]}, {"output_weights": [-0.6951079023650021, -0.5536709535186896, -0.33073062894410216, -1.17642950854078, 0.802033209325554, -1.268054969135483, -0.6231504566354658, 0.6179936280668133, 0.7031793626701215, -0.11557752120578259, -1.4209770755192714, -0.90140747586807, 0.9071491216994068, -0.6950526760276433, -0.5344399485072995, -0.17365557043851007]}, {"output_weights": [0.6748400001277265, -1.6745136028358494, 0.766533355703806, 0.4900193309006586, -1.1665249422969584, -0.502079575197112, -1.1940790640292163, -0.07237361968791947, 0.13965844696022567, 1.619043215364877, -0.3951612078291205, -0.07172880604540681, 0.5113923000992258, -0.1446540957449967, -1.8590703063866978, 0.4882881382228034]}, {"output_weights": [-0.6223704521823854, 0.31391457509612075, 1.3809048300636695, 0.8185977016074687, -0.13387241146593556, 0.8357342069074534, 1.9173231397467898, 0.475600564004905, -0.05282033729325195, -0.7009381328239669, 0.20909239507936453, 0.2417117804969076, -0.8216270604866701, -0.16451682481498853, -0.5247653072681366, -0.816760633368448]}, {"output_weights": [-0.4565069755868799, -1.232916871213504, 0.8305183659482668, -1.2154377686433053, 1.319106653724403, -0.925192313010696, -1.30166311202926, -0.02932361269598948, -0.8006842283510023, 0.12982860314850525, -1.5163023564161096, -1.760411871068891, -0.5602285479089313, -2.158747705795347, 0.7960157003347427, -2.473451003711236]}, {"output_weights": [0.6039058729880086, 0.6024565183179478, 0.4948564071500274, 1.120288618264568, -0.32390495291592153, 0.9389715306458631, -0.09225578059194547, 0.5035220242149202, -0.8561275225091968, -0.5612680104743871, 0.5739220439492139, -0.959637209915385, 1.2102105319222436, 1.0748535023625883, 0.39237561455563175, -1.2845701285205293]}, {"output_weights": [-1.0287659934758395, 1.265259653328009, -1.6622165327221758, -0.1478619548800903, 0.8173928664969359, -0.7192588085444589, -1.2825287777228884, -0.18876259729340622, 0.5677926018646425, 0.3470973228690993, -0.00541252416272956, 0.44544246153749834, 1.6905870252228437, 0.7889731410942631, -0.03157529918519079, -0.5815396097496751]}, {"output_weights": [-1.0365088373523117, 2.1245586579364457, 0.11273978339265131, 0.9522844589392531, -0.3854995940473544, -0.21466664817509407, 0.8291722484322042, 0.455443347424249, 0.6942163219785344, 0.5895008237302818, 1.764003742621544, 1.1027727347058427, 1.2836064715819724, -1.774236040313824, 0.16747649069340256, 1.8213640261432835]}, {"output_weights": [-0.8010628720955484, -0.3005455179812147, 0.5084484521426985, -1.7184543148817757, 0.8283278299369917, -0.6237991335645439, 1.7171744563885356, -0.9429711906119741, 0.3633234301394594, 1.6829566858304645, 0.4528420945707895, -1.55257583390103, 1.339041021044783, 0.971288797121618, -1.8560771237115639, -0.23490763654825195]}, {"output_weights": [1.0705640556794402, 0.24416596670475518, 0.28392018840056754, -0.15169866667412704, -2.4776136209743616, -0.18758450536128135, 0.6308711178654235, 1.2202608894274634, -0.48448743810246087, 1.9418963228704071, 1.0816542116599341, 0.14157483768536225, -1.6254334841472395, 0.14105210309846108, 1.6266710142072154, 0.055093979812270724]}, {"output_weights": [-0.41010383458142147, -1.4379887373955718, 0.12525524071001087, 0.24692600207456816, 1.4970401553233166, -0.3650562064939421, -0.026770305266512476, 0.6619958549204228, -2.120191247186179, 0.24631882767100327, -0.4269627885987482, -0.6097609634374026, -0.8217941933267326, 1.1290983240981813, 0.10688518774622514, 1.138825459530751]}, {"output_weights": [1.4117436380636776, -0.9259268894477206, -0.4520385147301002, 0.5418740113950012, -0.6997897142258164, -0.6498572440105842, 1.4058668266718084, -0.2939902965067851, 1.1509302511118369, -0.24993584644084363, -1.358745605457891, -0.3522587871230891, -0.013942956648513943, -1.5882879809851806, -1.8270569056794768, 1.3775029831116756]}, {"output_weights": [-0.10706733947803825, 0.604352227905447, -1.2943439331701965, 0.15565668412692246, 1.4054332252374977, 0.5897092746270155, -0.3845994246802021, 1.7025034342418588, 0.16995130980704024, -0.5116293551530379, -0.5114111784920197, 0.06672445875764453, 0.2280104217888587, -0.02069424325467268, -0.1631030926176664, -0.17918144846951387]}, {"output_weights": [1.2417350023212184, -1.0914786542446684, 0.17721896190516112, -0.5021288939452837, -0.06639431854962544, 1.6218859376705164, 0.425373728176834, 1.223785925730334, -1.1217252891760923, 1.1012053597157851, -2.0616891934104973, -0.626342676835757, 0.7751150818446726, -1.7131259617379377, -2.442136503965902, 1.4052761362131214]}, {"output_weights": [-1.429633416719555, 0.6164381856552218, -1.0465390930345508, -0.9489697548550696, 1.173367178041603, 1.5137312158051797, -0.7239355706377613, -0.8302580160996794, 1.5472452579984763, 0.48067628522917544, -0.6796087287217221, -0.783143592873755, 0.6425317733194396, -0.3920160118451054, -0.26115542972123823, 0.9703318466865846]}, {"output_weights": [1.8331132401302688, 0.5742232889334136, -0.7817191764590828, -1.3632228361318943, 1.4438942872477185, 1.2178399146270582, -0.7682958475575538, -1.646304549189764, -0.11681852678928586, -0.9347299852941485, 0.3895665270383122, 0.5927201641143186, -1.46515842245949, 2.3505121304404915, 0.7897688082843892, -0.8390149306192244]}, {"output_weights": [-0.4445730673480478, -1.8731939637668726, -1.3681050752665802, 0.658185823615693, 0.40407232428791057, -0.6982512232314579, -1.8873817135138464, -0.2536712216843776, -0.6285599541628791, 0.20634917120107743, -0.8933663321614456, -2.2194853046386545, -0.9316720232038903, -0.31927459876206105, 1.483223353379277, 1.091595596843943]}, {"output_weights": [1.133831053089757, 0.11823470025785227, -0.3049863580809683, -1.81520675915772, 0.17709873237379425, 2.0962120471854484, 0.592806377296275, 1.9253253884054906, 1.4190950283211337, -0.2288263718744423, -0.2273117605194949, 0.2719365120943499, -0.6837756017389364, 2.5721202780104533, -1.251463571114492, -0.291570979820749]}, {"output_weights": [0.07757969050538455, 0.09516908816049678, 0.8860081146263593, -0.3275472934173447, -0.1150564919371618, 0.4506647964989131, 1.3607799079499212, 0.1691432983996312, 0.0108691629310679, -0.40352028755247804, 0.5369961373396523, 0.3413184628188043, 0.2913154801014589, 0.11824978350500912, -1.0247913929648094, -1.3400399615482685]}, {"output_weights": [0.7690562779517944, -0.3055239681406205, -0.15855607525147922, 0.9357472819951723, -0.17329260468637625, -0.43927090406121416, -0.4320702988139707, 0.3959599403459944, 0.40735304829154634, -0.6839864115941983, -1.5591896187713927, -0.26816348541405305, -0.2695711295738073, -0.7135774507048233, 1.5088626136051078, 0.10763462134051062]}, {"output_weights": [0.09198467414309447, -1.9131888706337143, 0.7711323815929643, 0.08364996887990483, -0.06290390154761964, -0.5727657324230968, -0.1401240112315672, -0.28691397753866527, -1.5445792033207375, -2.4200140961366423, 0.1013881391508367, -0.7921962928301265, -1.2180995508164074, 1.5457294020806656, -0.8240536701683311, -1.19575296240839]}, {"output_weights": [-0.31529105379710454, -1.3239986559473287, -0.9657819233465144, 0.5194512357188112, 0.007115874408622872, 1.2307513476604626, -1.2831363506597582, -0.5192679954098798, -1.5262768006213208, 1.8671624980479693, -0.24683072004307677, 0.5861585595657878, 0.8420541748879679, 0.1125821659322228, 1.339434381679716, 1.7388630694419829]}, {"output_weights": [0.8664792867752062, -1.2119563550866448, -0.09196274637303244, 1.2430458310803127, 1.2176277533970647, -0.1302866616582988, 0.42776601177574186, 0.5355777197787944, -0.1650421347353004, -0.9042763799656188, 0.19438428146980055, -0.9951593316138884, 1.265390690792445, 0.20982520461278295, 0.6577103034331558, 0.7664178165154687]}, {"output_weights": [1.1512744097989203, 0.7726018178519977, -1.7563168884030615, -0.02209034391153079, 0.24519632412493078, 0.2549785738980716, 1.0942026976638195, -0.509611587634358, 1.7474818617116066, -0.20311042614638058, -0.008707324301119071, -2.1216864221121834, -1.126468001372383, 0.3303746372378279, -2.2386293846071132, -3.673580258754404]}, {"output_weights": [0.38330535747501754, 0.9562733113866598, -0.6277271988372473, 1.1492411276705257, 0.31049537994246795, -1.0412269740312416, 0.17073288662518427, -0.6530058533137975, 0.41028232655694896, -0.6148796204448099, 0.24566577186252112, 1.4769455480341023, -0.5670540341727108, -0.7434821800167811, 0.024511745852401838, 1.6238603315272713]}, {"output_weights": [0.17480236988292092, 1.5319015844488508, 2.4041004488103392, -0.721217862505201, 0.4133011238031963, 1.0845805372569437, -1.1529369470616977, -0.5732737483173371, -0.34400925743451327, -0.0704131979527209, 1.757229224860056, 0.6108116714437886, -0.06061329226878061, 1.3999992570225974, 0.17675063426840595, 0.6929563873776519]}, {"output_weights": [-0.8415277813856452, 1.2252594800958125, -1.5976189545099686, 0.032638663963093825, 1.4442392807666802, -0.8092656561194346, -0.5424788160403868, 0.7167165802704257, -0.03292686562852732, 2.2603925240312597, 9.581833873960625e-05, -0.44756136026289606, -2.2960484516675326, -0.580227099060683, -0.7213990057797485, 1.3266947728461753]}, {"output_weights": [1.5411421704029842, -1.5900867984448206, 0.21691458332744457, -0.3713773076108542, -0.7853908839338463, 0.6238918473630418, -0.4601879602014767, -0.6257636324621948, -0.866709211236706, 0.48891674161089305, 1.0794361575986344, -1.6786014110282337, 0.02468144192936173, -0.32233621999871526, 0.8903814072146847, 0.43073546624802866]}, {"output_weights": [-1.6203031841486002, 0.6208655656620273, 1.503963806872098, 0.5798449156956165, 0.9044471508452012, -1.152350670836, 0.5632169393473966, 1.0309701620378664, 0.9522836931851918, 1.2416470066440934, -0.1969996136182387, 0.6818639506594363, -1.686831181052452, -0.5491738790330262, 0.5560288330025623, 0.6101041076240826]}, {"output_weights": [-0.6955899327756969, -0.05678974386516728, 1.7504219264182617, 1.0547789260806704, 0.5029599390154731, 0.7339189468658744, 0.3005281517985243, -1.8386488249719322, 1.4881029565407349, 1.5299444754550753, -0.13744877654546314, -1.345575002238037, 0.6839899966428968, 1.135155608249402, 0.31142456833260346, -1.459074637555135]}, {"output_weights": [-0.001830347340199621, 0.7480720851412287, -2.039959362404604, 0.5161017603618332, 0.553053662687007, 0.21205251066497152, -0.28042249727720303, -0.8503626445646988, 0.6950486525133533, -1.1579464024142705, 0.8677493845446445, 0.3628497127460395, -0.6056264908635646, 1.6651466783634057, -0.0051092238977026375, -0.95733677906228]}, {"output_weights": [-0.670497769128895, 0.09677610455783899, 0.4953111733849717, -1.6853799956206055, 0.5161649345389534, 0.22992384939583263, 0.7955805064450049, -0.5855632575280535, -2.2887148376653283, -0.6633612037830287, -1.5765426205260071, 0.9054875846199927, 0.9701894371507612, -1.3071325142935952, -1.7771944186201545, -1.1070456341404453]}, {"output_weights": [1.553499622711494, -0.5062109246380377, -0.5822919827351549, 2.0195063932164836, 0.09221578521654825, 0.5704859908674407, 0.3763706670370412, 2.64928547656658, -1.1575598846375295, -0.8876659135872439, 0.07633877720882874, 0.5217077549657452, 0.8994895646939333, -0.9106640822949675, 0.8165259822341723, 0.9003939107184897]}, {"output_weights": [0.6151248524596002, 1.1765591531502306, 1.456348677017461, -0.18784099795338188, 0.6955340727559433, -0.2783488580399836, 0.7437988569785364, -1.0894914135928826, -0.9189832421384957, 0.9883134069899151, -0.265208108353528, 0.8519001971309622, 0.8328327493902077, -0.05246825522460791, -0.11038392495603856, 0.5295130196552655]}, {"output_weights": [-0.9559864901179993, -0.3636355902085456, -0.42593161450576716, 2.000968381807435, -0.10196074249256443, -0.5085543434152457, -1.7162397230166786, 1.2606878620368764, -0.47656235941795805, 1.2249384021024574, -0.5942794186132934, 2.0971292133920607, -0.654546445933148, 0.7716586268330655, -0.6854899811200594, 0.11677283319267673]}, {"output_weights": [0.8145456117873462, 0.22745447654576648, -0.9477011581290923, 0.2345082216784752, -0.9284865201131299, 0.6178950236610131, -0.41201350788640373, -0.07281594735489147, 0.11844517554811501, -0.9704179756203244, -0.7538605764534213, 1.1699775679111843, -0.2798215269590485, -0.473975066752834, 1.3118645569662049, 2.386118156507922]}, {"output_weights": [0.21918223190428987, 0.610994065155641, -0.1127744111462867, 0.19651397305280466, 0.36033350393725677, 0.7516713463184629, 1.2234860163595, 0.5660483226939657, 0.8720223845785864, -0.7121082985496586, -2.0617484025240995, 0.6267551120808698, 1.0994766146834902, 1.5507354435960108, -0.5836709537534026, 1.0555601245236244]}, {"output_weights": [0.6372656175721799, -0.028197490541411623, -1.199341295559824, -0.8112271975978377, -0.897956377767502, 0.6493166697092283, -0.6534086855183445, -0.8373618779962438, -0.7243127461214057, 0.5676225520230695, 0.2774519304631003, 0.1850892575809282, -0.304606380136058, -1.2508750067678223, 1.1528553422186472, 0.23597359770903265]}, {"output_weights": [0.7280825443323733, -0.8312570898203349, 1.4656843199750935, -0.15233793006414018, -0.7821134696551301, -0.037742211424487616, 1.1001550729110965, -1.2280848295440636, -0.16525467285109252, -2.3415519255955943, 0.496765905903749, 1.1646559077825236, 2.1872531067551426, 1.539733818463388, -0.32320342038810207, 1.0296528325450984]}, {"output_weights": [0.511624800493567, 0.3441764131929556, -1.8278844143878288, -0.2556869824500808, 2.1621278238707835, 0.7054051275276678, 1.2782266669531874, -2.8040508131856337, -0.6855325781369819, 0.6042336577323565, -2.492434646422595, 0.2024762888860523, -0.21811604328945258, 0.07401355126609338, 0.1979960615535823, 0.6555049045998563]}, {"output_weights": [-0.7767942770817496, 0.2006787946414538, -0.985429236265755, -0.17222346312817474, -0.05194869026298874, 0.796502006840929, -1.2652236891240978, -1.6306671045796886, -0.42057298996052983, 0.6692561224594971, -1.4907377725765307, 0.6213256033315784, 1.2013962739977457, -0.27502559089546086, -0.4867834961582241, -0.06376286510798036]}, {"output_weights": [0.4834596989520606, -0.020362165868897896, 0.3085664539067078, 0.16825338161945036, -0.2508544787533293, 0.6879019457330235, 0.9263152181290977, -1.5135105283618757, 0.8895421150462975, 1.3921674718162063, -0.9029238411075999, -0.8174619487596682, -0.29017174411717883, 0.4983926654488571, 1.070955597463976, -1.0789443459067645]}, {"output_weights": [-0.4515129663816176, 0.06750995227698471, -0.5811883782158574, 0.3906245911864543, 1.9930941174469436, -0.39258217096256814, 1.476841773282055, 1.7362421167631885, 1.7485451738225906, 0.4152059170221977, -0.4900882877312396, 0.35638763149099256, -0.1769914257393816, 0.9336882345083957, 1.9447367960267952, -0.5452577447485885]}, {"output_weights": [1.2326553163905105, -0.7496040754507605, 1.6254385292072644, -0.5951034245787687, 0.22880883551289374, -0.15046368732101018, -0.5473855401734744, 1.2336169347728103, 0.022487894181882438, -1.2474183259559686, -0.5497878057692913, -1.8758437716638112, 0.1567650745938135, -1.2156841237011846, 0.4921436761168128, 0.10198322907727718]}, {"output_weights": [2.595033556733199, 0.20459774713808282, 1.8712061368750852, 0.439409972076025, 1.0666981971091458, -0.04513715315818774, 0.5219955998461862, -1.0044912481932688, 1.4251889319400888, -1.3401225590889818, 0.573879215028888, -0.29709569672464925, 1.2890195495454948, -0.2188173205667069, 0.7024012950225978, -0.4584225153851468]}, {"output_weights": [-1.0345304878577253, 1.2884159863258058, -0.2506840321064424, -0.21870511962479997, 1.3437405797284643, 0.3254670938738081, 0.37062229721192813, -1.1057327847982632, 0.9470510495298412, 0.7087764567931126, 1.4026004885588503, -1.808687848377627, 0.7894832789849608, 1.0756220625404034, 1.702456878888138, -0.2113544614600845]}, {"output_weights": [1.387518542401399, 1.6012983165689678, 0.2820210437101072, 0.6030294897729633, -0.25993408060142215, 0.5627110088424819, -0.7936359558266464, -1.0995602479768694, -0.6633854854613971, 0.2534028969344333, 1.1993337627957175, -0.10313433059022056, -0.2795749813185271, 0.013666143450001117, -0.08186063289830624, -0.9930656878366949]}, {"output_weights": [-0.22075820932017892, 1.784661397954386, -0.028611312314543523, -1.332937071108349, 0.5338694284345598, 0.0745194617257958, -2.1945145075908488, -0.5994196721221118, 0.06275461449349912, -1.7825532186013966, 0.6426736868648996, -0.17559618018167478, 0.9731180820879377, -0.20942856972306143, 0.5364330183571051, 0.09061104738127893]}, {"output_weights": [-0.756473086478589, 0.5861073597452738, -0.7416792053598016, 0.44118519400957906, -1.2517266390069672, 0.7703773361684986, -1.0012050289518033, 0.8065706334035981, -0.49972336659492994, -0.7148413898760769, 1.1583230818760726, 0.2953232837271937, -1.4036524953319267, -1.2514443689205141, 1.4600872705854055, -0.23246141919993357]}, {"output_weights": [-0.49594363281118503, -0.7595435469048286, 0.6227964013140137, -1.0104992194234474, -0.5467265367219921, -0.40642550320474213, -0.322536692005666, 0.8614278925333666, 0.8135711540285545, 0.571202627406437, 0.4368121815178684, -0.9046931736847161, -0.6772105436206663, -0.2637404180542103, 1.3487842267654209, 0.6441293678666306]}, {"output_weights": [-0.7630959503785425, -0.46745112724634463, -0.751357412303819, -0.8569240850888566, -0.7066819613693888, -1.507391022967801, -0.7773815642012503, 0.23790771598359345, 0.0666622456105047, -0.4461365906336129, -0.10350807748295794, 2.2140061177051944, -0.46852989928808314, 1.0262199708620685, -0.6314151624420158, 0.7515531012982241]}, {"output_weights": [-0.2187194570052215, 1.6811161093738478, 1.8265562343502049, 2.3220059119132976, 0.9856011072885825, 0.7990227508465056, 1.2162372286554137, 0.3803663157238947, -0.3351297574685921, 1.1960271794348087, -0.2742167451224071, -1.9602161839616756, 0.6939967192747473, 0.018705932691844823, -1.6497255960779331, -1.7375381862496484]}, {"output_weights": [-0.2571435152893057, 0.17091710785061182, 0.5549808557060996, -0.27509460119107587, 0.17088084829663763, -0.06855645787084404, 1.089309811650919, -1.319102364757232, 0.9969072579664837, 0.9681934822177723, 0.6265865885790481, -1.9070251854438294, -2.3486584685482876, 2.068578568736183, 0.30280506028470455, 1.6494516657496872]}, {"output_weights": [-0.18555417780040565, -0.03493397176560686, -0.1925345936850041, 1.283227203898539, 0.37036196684642564, 0.3973724546865428, -0.26048854921752307, 0.028948901124913228, -0.42403104253179974, -1.5506762448712204, 0.46922061392905245, 1.3043936754625278, -0.20619931124191976, -0.2459235668094943, -0.95551521955773, 0.025425370669276005]}, {"output_weights": [1.0285069081048264, 1.0500347256377447, -0.3263449785678465, -1.8292017652384671, -1.3388081192336803, 1.1596313150345139, 0.37913457690022256, 0.7142644468976277, -1.9326618512193747, -1.6756737808013085, 0.2742897669295325, -1.8345288587924908, -1.2180337996017576, 0.8171655100028933, -0.4118087322107384, 1.527292928003359]}, {"output_weights": [-0.4541672439158733, 0.5466138242473633, -0.16633333201294245, -0.4371783156502253, -1.7569149842741822, -0.40417694918219593, -1.5985340431874069, -0.7510331314442743, -0.24137783328854523, 0.2418966460030893, 0.24173679429152692, 1.317044679721238, 0.13941213220887755, -1.128575765189158, -0.5193305685355949, 1.241610592286749]}, {"output_weights": [-2.631961592663751, 0.2878509281535223, 1.6436816565700618, 0.8566451375292147, -0.5410347458147317, -0.9101861923532727, -0.958399047061696, -2.4937257776025237, -0.4844984991940694, -0.8634170769171834, -1.3201132709526877, 1.8696381449082553, 0.4757526300018692, 1.6771387529064385, 1.2716228095964626, -0.6059929908717876]}, {"output_weights": [-0.6734993281906418, 0.6128629183665888, 0.9508471401454764, 0.25696828351159484, -1.031806748188587, 0.3978352529972863, 0.12620418194310265, 0.33107361240730304, -1.3679041297147745, 1.0540132392611559, 0.8787441370190335, -1.499551220263479, -1.262535485790399, -1.003185407452596, -0.3713447670978551, 0.18006452285239893]}, {"output_weights": [0.5650948235467954, 0.4176508087582286, 0.9652580917279546, -0.7690034167709137, 0.07982168843515308, 0.598292575540637, 0.818921070524954, -0.13916489291553524, 1.2655195282718457, -0.4335656225602465, 2.406455958184428, -1.7637619345633408, -0.9411932296742529, 0.4721124374707257, 0.5329160329286284, -1.2699208984027588]}, {"output_weights": [0.21436801263392805, 2.606677181610869, -0.05094646683653517, 0.5182509149646516, 1.3913322639682395, 2.2953471228747437, 0.7406214310588816, 0.20001440327040257, -0.942510331887029, 0.9520509272084807, 0.6055922793060412, 1.4623665623309103, -0.2928008312668909, -0.4946111041946786, 1.365016160121504, -1.2330388494606854]}, {"output_weights": [0.26988446012786205, -1.0302255047909352, 1.2697947115093906, 0.4845980470739032, -0.2112275792960437, 0.5369028102460144, -1.2657920646953198, 1.3696285764926301, -0.939849781334601, 0.5681919520578118, -0.6566828576252802, -0.8088599689297614, -0.39436872497865094, 0.27442692380195366, -0.1413531531195864, 0.46454826069953264]}, {"output_weights": [1.6947295562215918, 1.3933025466187967, -0.38696709800757717, -0.09630674881360986, -0.9650686461485257, 1.5095721620587759, 0.9359769227766545, 1.5498963592062776, -0.7198731794615226, -0.20032913534695032, 0.664558138742801, 0.24131623193377186, 0.6710787364541833, 0.38917037908903, -1.146175359192085, 0.21878008856320308]}, {"output_weights": [-1.4447830041054461, -0.28751942507600914, 0.04379968240517106, -0.049671213678160075, -1.5975691955114701, 2.5240686476926455, -0.5317454440664982, -0.5795703354924884, 0.04143386071491642, 1.583651319201586, -1.0925324056211463, 0.18341932104637554, 0.38034891335648147, 2.41732691536093, -0.7107399447904263, 0.13267934432729275]}, {"output_weights": [-0.289417463179486, 0.11771055564033352, -2.7385218672285054, 1.4244739755138365, -0.25655557160306036, -1.3833895660047153, 1.3048808169005124, 0.5785031058368231, -2.203206570726394, 1.7092749985513813, 1.4732368435574374, -0.5219070398119776, -0.5861077572958737, 1.175584258366552, 1.3358385269445319, 1.9735090855166297]}, {"output_weights": [-0.4966830640967865, 0.12903576658267427, 1.028533165207823, 0.21020285278994053, -2.0569804875404936, 0.739320842423935, 1.79613372446205, -1.429639519832951, -1.378977410640529, 0.08952010897170141, 0.650646670209605, 1.0599678123475802, 1.1894456906636124, 1.657688714318207, -0.03771317326298205, 0.06498012138756544]}, {"output_weights": [0.6799829452100523, 0.31931249601775624, 0.21337419786514505, -0.5059979003326465, -0.7349043505054511, -0.7881016146117935, -0.16119335801201853, -0.20532266286001932, 0.7714087062853349, 0.9491391906832077, -0.8102077275610414, -0.1169139803706736, 0.8845660959502161, -1.0496293532633445, -0.2716001808013737, 1.655494829085898]}, {"output_weights": [0.9962574120037356, -1.1774279736042992, -0.7795262698639963, -0.6675597825585287, 0.2334765609765605, 0.1677252740420723, 0.48120634820457797, 0.7170570818052827, -1.9372744153761476, 0.6874380482228014, 0.04753635244316899, 0.088505213372677, 1.426290779616337, 0.20447871490169864, 0.8079748365646096, -0.9487001834610226]}, {"output_weights": [0.23698734039226138, -0.7845897753999219, -0.8335038821517756, 0.18820216811500304, 0.06838929490824783, -0.46951356263601063, 0.6895851805609069, -0.2646559073619586, -1.6271856496675017, 1.2942670211329397, 0.06149408412996902, 0.08230074407135123, 1.5218696677187435, -1.6530557563954784, -0.08123333885439035, -0.43723654609006474]}, {"output_weights": [-0.7100086652937819, -0.20714196126845572, -1.837333585408804, 1.81764551432071, -1.3508847248217242, 0.5707575594681148, 0.5615653015919462, -0.21387239166532615, 1.1581577214226022, -0.9424713742713725, -0.2887248558811958, 0.08276644346342564, 0.17087287146877805, 1.530457390380998, 0.27966835348345753, 1.5277612322225211]}, {"output_weights": [0.10405044874421523, -0.15322842368197295, 1.6075271027991718, 0.6911575958255849, 0.0017657492405774905, 1.6250101463161275, -0.4151559131814524, 0.5217819678155192, 1.580180444945834, 0.40339245762891923, -2.684450748199968, 0.2388722478724365, -0.8490716598167006, 0.3484924952978526, -1.3425538377648292, 2.1416649619109522]}, {"output_weights": [-0.23460749383301766, -0.11172407703371941, 2.8202332277484334, -1.3046037194036937, 0.3403009093884807, 0.24810404131700936, -0.5511992029826198, -0.9337286746657218, -0.21536294899504593, 1.9083038388362141, -0.4402015032424543, 0.32002403196937307, -0.9509957959336012, 2.1270853078311003, 0.9796022939945811, 2.156632803754784]}, {"output_weights": [0.49789973867213316, -1.5574335124167642, -0.8346493816460057, -1.0313580575681516, 0.3240653503722567, 1.5421835254628828, -0.13884339176627603, 1.14970903051977, 1.2461850757522905, 1.1068280430134494, -0.797132005330447, 0.03767179808492521, 1.0401062778830505, -0.435822946228089, 1.386104623840489, -1.2405447922088624]}, {"output_weights": [-0.3382001758875565, -0.707972444957804, -0.7675421396912497, -0.7066679436964679, -0.26579104699636485, 0.1721436833600701, -0.4659548303378738, -0.3341294690393801, -0.3188427124801465, 0.20022278824167097, -1.389828615047621, -1.5237465299315756, 0.2444942355439683, 0.42155001500296424, -0.021480604772748383, -1.6131061180574213]}, {"output_weights": [0.1669923904152074, -0.18888786726045778, 0.8958467315728933, -1.5187264143090262, 0.9965605622926184, -1.1847432390242492, -0.5481455138928621, 0.49917743992735064, -1.3194673805042108, -0.18657395561323242, -0.4536666528427645, 0.8556783153046564, -0.7626281882659566, -0.4309128349783778, 0.11199862910448548, 0.3191410706992391]}, {"output_weights": [0.11719915411751168, 0.5056361814302953, 0.20233709884326484, 0.2900541430059743, 0.08969504195402149, 0.036220453990719804, -1.529400025474435, 2.201797933586357, 0.0745950260428701, 0.9103105793151778, 0.1799173889020353, -0.2732793071511067, 1.169387897804927, -0.7461712177349706, -1.0292013408952143, 0.21736386990696646]}, {"output_weights": [-1.638449176704288, 0.4937609298307269, 2.3907529151364435, -0.3329791330523974, -0.507487911151309, 0.17701991760584757, -0.23215769808087378, -0.6459087913073577, 0.40448316433662934, 0.7649679907883417, -0.11133576296812546, 2.16846202203492, -0.025668312940709162, -0.5762645882870188, 0.20310880679551063, -0.46011208581396046]}, {"output_weights": [-1.1125265522375631, -0.8759195715293805, -1.9037722059122617, 0.23054672276510732, -0.6877664717066299, -0.5935219712675024, 0.7804846538822784, 0.515784192432139, 0.5308820026601536, -0.674972075956079, 0.8148712177520829, 0.5821707792281433, -0.16919525120882384, -1.1094554515031188, 0.7201742590763377, 1.3178288071833204]}, {"output_weights": [-0.2520325772476898, -0.5394069714422312, 2.014163028771733, -0.9204879779102739, -0.4085233654755958, -0.8331718509657712, -0.6119543232597444, 0.5339237144927028, -0.6535516456963834, -1.762533416945192, -0.22437249032045897, 0.5047406253821031, -0.32176784908084455, 0.2656127954173834, 1.1685083896183979, 0.538250948395942]}, {"output_weights": [1.0104985474232748, 1.7929067485913899, 0.3072610978188789, -0.9410920322968884, 1.429712772096216, 0.3692132581872198, 0.13883512878345816, 0.1688440692912015, 0.6714540316036596, 0.3111576422730405, -0.17069558164458964, 0.695033387116242, -0.10821043598347455, 0.10750094337369892, -1.2135882491225343, -1.4267748080061704]}, {"output_weights": [0.183345456441285, 0.43169992884687663, -0.831798679766524, -1.2617629901920058, 1.1752595108331605, -0.4893153171440645, -0.38193379437088726, 0.4790067799244253, -1.405698549836436, 0.10867949499086627, -1.2306189685904139, -0.2768114930621309, -1.2818411783371975, 0.026204762279271085, -0.5692666320342284, -0.3963145003422621]}, {"output_weights": [0.24358217566347296, -0.35189224329374913, 0.16066293527838268, -1.3887116686832082, -0.4250855746801705, 1.6574143291675394, 0.42917570983978337, 0.12650278327011016, 0.3031682235274043, 0.16514309590605464, 1.0194709470962366, 0.3470115694774483, 2.245561347215221, 0.2118168013722445, 1.1692854218761106, 2.146483270627163]}, {"output_weights": [0.1589338852140387, -0.08830502823509083, -0.08609177127670713, -0.9687850706545041, 0.8469387340744867, 1.3355532951615783, -1.0678006166448415, -0.1164335395997839, 0.6135451177543837, 0.30977766595684136, -0.3080195532158507, -1.1173630061921511, -1.3386101189189172, -0.0789455302372421, 1.4953396535241053, -0.40934443883684674]}, {"output_weights": [-0.11633540733367088, -0.9117318615445346, 0.5565039303168435, 1.3064479317470745, -0.03116819897315441, -1.7870679111933157, -0.45347466955709725, 0.9559030441736245, -0.7911647298275741, -0.5654262675150641, 0.2407332252401331, -0.8576149272118562, -0.0011211957747674212, -0.42146636364070394, -0.2883930042929769, -0.016968942510075365]}, {"output_weights": [-1.3285213289372422, 1.2960806212564648, 1.4380591275580838, 1.7472614948254017, -0.4224369803949149, -1.6384304340298592, 0.5679175826504789, 1.1061890102191059, -0.6739477025680926, -1.519355181428298, -1.1384996597738477, -0.5367726763909019, 1.2753897516591066, 0.165893959980717, 0.2731139657033754, -0.522281021507911]}, {"output_weights": [1.3433878238672252, 0.9507247170577442, 0.266332055537445, -1.1293991253915856, 0.7901009924531044, 1.1196057391300864, -1.3006751712159783, -0.17738651482455772, -0.08410282952824485, -0.6378250043884373, 0.9136806454691782, -1.6802523646562872, 0.8046769692584196, 0.7649917279401818, 1.6432562310199328, -0.10308505705130402]}, {"output_weights": [-0.2567030880515382, -2.026707140421001, 0.1143904949125108, -0.06366508637327414, 0.8592622117920189, 0.9491097579910788, -0.9478694554477943, -0.850170149458893, 0.23348739758681014, -0.939556528626662, -0.8888706195547704, -0.7518347600141742, -0.987735744172117, 1.0434144009774948, -1.72153573970633, 1.611662568110509]}, {"output_weights": [0.23017289198750684, -0.5733384906042461, 0.5596542580044538, 0.025893406478769875, -0.46418340442081774, -0.6588765076068287, -0.4636026496121966, -0.2676145597406215, -0.2727212434114886, -1.0763173269023383, -1.1486680249803936, -0.6905799966886335, -0.023835112697644455, -1.268444951889073, 0.3312138673586129, -1.2002795957424608]}, {"output_weights": [-0.8025648177843051, 0.168207572509236, 1.4837544724010208, -0.017779669491447624, 0.5586048609574806, 1.224374200147363, -1.076897948374186, 0.8288039984782886, 0.11295888992811214, -0.04856117375605229, 0.13678278226236038, -0.9054706570927679, 0.938308396610099, -0.4804170557059369, 0.7528047542839864, 2.0723361101993563]}, {"output_weights": [0.3566211317482494, 0.4431857480510952, -0.9240228526654233, 0.5888884942547585, 0.5883390928907737, -1.385807920694773, 1.2615456767940798, 0.09358802090387934, -0.05956332278678768, 1.793678552816971, 0.16476583040852497, 0.9354362261654475, 0.34028935641556435, 0.2769104173120558, -0.042297058529252286, -0.5703921460726353]}, {"output_weights": [-0.8990563019838822, -0.8126404526691428, 0.6846834703766084, 0.6864503353837552, -0.4325473454531455, -0.25861447409977356, -0.3299452462336728, 0.13789394192654988, -1.5582966917332624, -0.04922577995686883, -0.321280619474524, 0.45139748518929945, 0.677101323891102, 0.502028995327244, 0.7943378128298801, 0.35773915762029057]}, {"output_weights": [-0.7416920768868023, 0.6360309271108056, 0.21827911985688053, 0.7934898989531599, -0.5368171118126246, 0.42379476142852013, -0.7929880864420352, -0.17941707027934375, -0.11009024657215946, 2.2685742155220088, 1.4541747397482967, 1.2772741035375283, 0.8034751354738338, 0.055498205633124326, -0.07844327086240684, -0.4989500440512182]}, {"output_weights": [1.579890342349788, 0.6638258387134347, -0.7454720756829603, -1.6492806803111908, -0.1989340737989291, 0.11407426161452938, -0.5710446097162047, 0.46464344238809446, -1.5390150869504666, -0.013716288312738427, -1.9314805306193275, -0.9720933474723072, -1.4630370362296146, -0.19102747995546604, -1.3321721479156952, -0.2993020510241794]}, {"output_weights": [1.9496326376271502, 0.5640463260093157, -0.7635616399281255, -1.110760899576731, -0.0482780706086211, 0.8360745946778484, 1.1794840656351773, -0.9162189669844524, 0.17275649576835625, 0.6955146604259596, -0.2059381862533622, 0.628052866026359, -1.7493410889251513, 0.21776922905388152, -0.7847971125876944, 2.1708266027488956]}, {"output_weights": [-0.5733710574705945, -0.6205157643417285, -0.7131452695119507, 1.061621076252578, -0.26421207404583685, -1.1725547213398342, 1.5234610516569778, -0.24742658740917775, -0.5651340179139451, 1.178450686765967, 1.175763028185213, -1.4680894625864689, -0.31174577111497154, -0.0777175828248123, 0.4163387695724255, -0.023664787225248184]}, {"output_weights": [0.2658955564915693, -0.3821825061071027, -1.5176707006623382, -0.10961880775313405, 0.6925419301024679, 0.5235849274377026, 0.7764203507663122, 0.16449534927850357, -1.489350981591959, 0.43866741701682876, 0.23255584985863936, -0.7050461472371837, 0.5130184156702844, -0.38936152460780094, -0.3742394513836631, -0.520372098905209]}, {"output_weights": [-0.2537298164066384, 0.3149627220428757, -1.1696807038719252, 1.1119804569046472, -0.03579216987714485, 1.2552393464244167, 0.19489805530413518, 0.938552840493222, -0.2374447353325937, 1.1272489199603835, -0.14718549010359216, -0.3015479291106651, -0.7678916187263943, -0.18727299853848334, -1.2038678949382624, 0.05196207942263976]}, {"output_weights": [0.16608728399647404, -1.9913621748282269, -0.06493147768625991, 0.16584748246984812, 1.941411396712937, -0.500521892393863, -0.8372849798641947, -1.0052888811293623, -0.6894720662102617, 2.8877662390685668, -1.5609254908926635, 0.5685237327060794, 0.5839300453968269, 1.5159078341079002, 2.903230767442657, 0.28648391366787423]}, {"output_weights": [-0.10193135093448757, -0.6106645709023986, -2.8142175658076085, -0.6744398610460373, -0.9775301881696804, -0.2204966944053777, 0.4922690812005853, 0.22223360214837887, -0.3246043434817772, 0.6687877447215085, -1.8493493195173296, -0.858822209804663, 0.047337678582478275, -0.28504600003385916, -1.5089695674553265, -0.7539736074887882]}, {"output_weights": [-0.6925196605860305, -0.7215277382348311, -0.1599078483942486, -0.8247859991878973, -0.08586417803206256, 1.376224139050822, -1.9844956440824315, 0.6533580247200702, 1.6091391383129237, 0.1981405420190474, -2.1327201889436433, 1.2308134805169373, -0.7154428859254108, 2.6036579980329058, 0.6137794229296588, -0.049167389273814054]}, {"output_weights": [-0.6279200425633623, -0.8971359516382736, 0.13119382688914438, 0.2386251842873878, 0.7952972613641563, -0.8164025154639432, -1.0260629090982012, -0.7994868652465672, 2.1075046132655193, -0.17373298755683853, -0.5019898097154989, -1.168404665760149, 0.011723797519717182, -0.9342955046611305, 0.18504899663416677, -0.5825400292412158]}, {"output_weights": [1.8073430879637775, 1.0215826789000007, 0.8001793056903431, -1.8615898760584206, 0.8838132629125938, 0.794052877863228, -0.3680563781432905, -1.3271656155625433, 1.1069785251148219, -0.6967002659089107, 0.8009607630887056, -0.37531411124843816, 0.12408033109145064, 1.312321948121262, -1.1122157578701717, 1.0618754772386867]}, {"output_weights": [0.24199128878604126, -0.027763469838372204, -1.374672358776046, 1.0678215686405501, 0.9809289446204388, 0.5018156150635568, 1.0200981979340968, -0.9235667311184548, 1.0939430696855506, -0.6182803795828238, 0.9705686087549256, -0.11400990273739242, 0.43668051010174286, -1.40430194499054, 1.6540408316349495, -0.3337529316771706]}, {"output_weights": [1.0267603573098403, 0.20774213586782986, 0.6993364143495321, 0.8396304068958411, -1.0121273022311936, -0.1941499566246181, -0.22983175950465817, 0.8557024034306275, 0.8535192112627689, -0.5497661967113586, 0.7727906573868236, -0.9574918285803286, 0.6664394010932805, -0.17913454569298423, 1.0722726158654956, 0.6977567471826985]}, {"output_weights": [0.5234383190236445, 0.8967883038294319, -0.255052747746094, 1.3876916459862987, 0.5304515094784958, 0.981820962627876, 1.104997342250393, -0.5940255186021589, -0.6002706339835463, -0.8117369916764302, -0.6053465187676201, -0.6450352729394397, -0.26572788824118865, 0.5128830431333369, 0.6946718235600862, -1.4510977011127018]}, {"output_weights": [0.9895424344026887, 1.1268118600244938, -2.0069040966979754, -0.029785170667344592, -0.782430762537652, -0.23626721718654414, -0.9473090097766255, 0.3839465959662755, -2.002064177251838, 0.42669426091997253, 0.11758712251704076, -0.17530465683000376, 1.7697449481605276, 0.7051336554414849, -1.1309562001509206, -0.47994580079244176]}, {"output_weights": [0.07534096242598554, -0.1577902471811258, 0.96026080349286, 0.43608675643361183, -1.665476232422571, 1.5223154837315496, 0.09207718090460897, -0.5976356844028385, -3.136528129054105, -1.2072945365444392, 1.1766995251724903, 1.0872839282481668, -0.46656490295189684, 0.2985174335829709, 0.035208947804868766, 1.3050676163011605]}, {"output_weights": [1.1446194906941973, -0.24403735064499357, -0.6588265442098661, -1.050854340153867, -0.8643619242394074, 0.9803038648821256, 0.17327972060821098, -0.10995627428904153, -0.3007889044006514, -2.1762079018241165, -1.2022371755995003, -1.1177353936065453, 0.28875573555891537, -0.08379470468212812, -0.7733925865942717, -2.362537707902033]}, {"output_weights": [1.1545854994987053, 0.0014440998500680055, -0.7785243112446698, 0.03294191636842366, 1.1743077943798717, 0.5065348251412072, -0.6564199796568857, 0.2006468842523678, -0.3557661586700789, -1.864805092318495, -1.8306473741857283, 1.5541642942863352, 1.2830598193300882, 0.5370631098506398, 0.3076070824504881, -0.42063167737884116]}, {"output_weights": [-0.6986633268826706, -0.838803205486502, 0.5155098633451402, 0.797499802813438, 0.688871151270973, 0.13445517858110106, -0.29637716908419937, 0.8294081165359654, -0.24597821155532204, -1.7447999277955515, -1.9961543010809206, -0.5258241186576099, 0.1866190062825454, -0.05539666377089495, 0.48648760173147587, -0.8386266582171441]}, {"output_weights": [-0.7136230755737378, 1.2630222457129012, -0.8676355463399121, 0.2285498558067489, -0.3732604761677042, -1.0292759697819414, 0.6824298234352499, -2.0548274572013563, 1.5823110208668094, 1.3711942130241594, 0.47278191956076443, -0.42321442278534194, 1.0492689855062136, -1.0409039821137094, 0.039905539906773146, 1.348305142113708]}, {"output_weights": [0.5635577084911435, -1.5902014088375043, 0.3371321667154285, -0.44531929804748277, 0.5441584767257887, 0.3060543212914299, 1.2278801341271255, 0.8729584301083504, 1.5137519015993848, -0.05255382515027056, 0.11558209008084805, 1.3584746812549093, -1.553068812733907, -0.42912691996893304, -0.34547955415487375, -0.19293131539274744]}, {"output_weights": [-1.063959073844053, -1.2571268592611342, 1.1000973651407864, 0.8494930465126004, 0.11857501717724832, 0.1137472150367153, -0.10450250403016437, -0.31819973477383606, -0.5904039356060351, 