{"template": [784, 30, 10], "iterations": 2000000, "batches": 200000, "learning speed": 0.03, "batch size": 10, "data": [{"layer_type": 1, "layer_data": [{"output_weights": [0.767840628346833, 0.6959878590522637, 0.22859760676865867, -1.2015220909666986, 0.018622975170560076, -2.028131350945982, 0.897547591939846, -0.9336406128105323, -0.8952295558689826, 0.9902024507782289, 0.5589375421815581, -1.0750303250071598, -0.31933172633229506, -1.2858770860352091, 2.2256036399294463, -0.0903869401487484, -1.3340484509158832, 0.4275530582334369, 0.30664926732601033, -0.1396602226037217, -0.1489833602636057, -1.7688405045559357, -0.11175967727942338, 0.28068311400143137, -0.47705231945237714, 0.169310547410142, -0.6844822405002301, 0.6504052760456454, 0.061326183563039656, 0.027502240682895564]}, {"output_weights": [-0.05787763562138336, 0.4037854342566723, 2.0392183025548767, -1.3237804657089272, 0.7578750848474212, 0.5438673419522403, 0.529388568549343, 0.40640409851952725, -0.7022798915936206, 1.2861426085518755, 1.3498480604113083, -0.3474956029981874, -1.2063171064213913, 0.20945724627433127, -0.6049659370591932, 1.0427388433196625, -0.15610301567924864, -1.201226010285367, 0.1384453571989801, -1.64214691541598, 3.1570411269671, -1.2237812434575892, 2.307192612372753, -0.06018847354950561, 1.0297232855816671, -0.5057394804835659, -0.8578184963824903, -1.1623943839507798, -0.18126685328917447, -0.47585445180788555]}, {"output_weights": [0.7054799432775053, -0.6115412953392546, 0.10883891120881768, -1.255274950046437, 0.5801365421936772, 0.468426762615935, -0.45248790460483657, -0.07731887970697203, -1.2402810995951739, -1.3349501359015892, 0.23562042988421814, 1.724712442305586, -0.24485304021786666, 0.21919745775293462, 0.21201720347892428, -1.2683306225446505, -0.9716440644434141, 0.9656933128590598, -0.791870532793912, 0.8189575397671557, -0.6235146400497491, -0.20578904829024944, -0.6492368501945357, 0.7550595444836441, -0.332860539160149, -1.5064941628576076, -1.864094652146952, 1.4540969592267312, 0.6327410863965094, -0.23495307642267632]}, {"output_weights": [0.2624413836706273, -0.18464364611343115, 0.3551407645362933, 0.07603170582902594, 1.002022271622159, 0.604260410657983, 0.6425660110959646, -1.7131905708599777, -0.5800218039123576, 0.26742128501908113, 1.0874293284033214, -0.7181249467116858, 0.27922750580844546, 0.9473787936067387, -0.5824739669387602, -1.137319945902031, -0.32294062445120447, 0.7637361516154912, 0.5577360632471452, -0.8132260286695223, -0.04600738784285867, -2.606292823646949, -1.0332434414641982, -1.4852409051024011, -1.582224075708886, -0.7369145377456743, 0.1085879218473242, 0.20532137139622872, -0.7611611531199095, -0.20500187112117174]}, {"output_weights": [0.30688864073091787, 1.0624620380592935, 0.06578674446700618, -0.652989273291114, -1.1976699524652645, 0.6196780285345778, 0.3361467137223431, -0.36088021112779795, -0.9400179497876027, -0.3129246021325865, -0.9602474184458198, 0.8530456286414795, -0.7068299564012186, -0.7203252721693196, -0.0024467478413327907, -0.66722526350802, 1.2494010026833833, -2.1098354334944984, 1.1651080884650418, -1.7321564076718001, -0.6980721091041693, 0.26253384914522365, -0.17859994346243285, 0.722482070447332, 0.039877787908132165, 0.45882221524072786, -0.39743631767921717, -0.2931817919112643, -0.380265082712101, -1.1434628109526277]}, {"output_weights": [-0.3950554877490251, 0.5416225775061241, -0.9889836346046134, 0.35831650522554354, 0.35991246058320986, -1.4590126901274638, -0.5791475209546819, -0.6491043295107447, -0.3997280907991191, -1.0773092709891958, -0.2805083451638835, 1.1310659276778439, -0.6328481387501377, 0.10275379411962271, 0.05356199552462763, 0.4829376862817802, -0.30058116316234007, -1.0385187630925994, 1.8282433756205632, -1.3840998492746854, -0.8180353196561223, -1.1405030708964072, 0.050127234953076506, 1.2926736333523077, 0.4227522382789049, -1.8860703117461375, 1.385724468671009, -0.8939324117144395, 0.9824819764665607, 1.7639605942488021]}, {"output_weights": [0.1871166353503333, 0.9662125867098391, -0.27782721131787214, -1.442081961146621, 0.04292604444498648, -0.4105683929097085, 1.1241922897333652, -0.21790829312388396, -0.4590707770435662, -0.7957727557612592, -0.08689323994107447, 1.933784737631614, 1.2703040631379403, -0.42672685019884904, 0.2902992462696841, 0.7541555203015453, -1.42504625086774, -0.804245467307059, 0.8440361884594049, -1.292183375519685, 0.4968134595211036, -0.288063934324663, 1.4772202115163708, -0.1328791782569254, 0.8455961735387704, 0.7592055260881587, 0.8358402414635266, -0.9017581317943484, -0.2635700856806427, 0.16507874730259317]}, {"output_weights": [0.00292934564806287, -0.06463964746003657, -1.1291296777731954, 0.3228930865087579, 0.19926831120014024, 0.275079730198647, 0.4922916569428089, -0.8563433969403771, -0.7097419779246281, -0.5539096597178775, 2.1196443660092474, 1.4140091921307767, 0.39427883735888003, -0.005614686099799718, 0.07555853835018884, 0.5682058334893771, 0.7364366875732269, -0.46073508464379975, -1.3305504327159263, 1.7853833147576157, 0.11551386001079762, 1.213352134678179, 0.12130658210014877, 0.15986138947319375, -0.1694597401862117, 1.4000865447418172, 0.29552909910688235, 1.5616743337137637, -0.35278595558534054, 0.5164300344311409]}, {"output_weights": [-0.1829434121396859, 0.177021724609448, 0.6664141239916023, -0.8406318600785997, 3.028217595552196, -0.9603399004979268, -0.12543114075257278, -1.8747117687305555, -0.16648646716137122, -0.08370244126866606, 0.8911286560298068, 0.7534944921006257, -0.7136988948729144, -0.20386846607222053, 1.5427084821677821, -0.20172951891442004, -1.5412889567826726, 0.30445515952632335, 0.4368414187029901, -0.28463569812874245, -1.1113613967644727, -0.5589388058485679, 0.7388632704540463, 0.8144648897186594, 1.204815352161732, -1.2235884118445794, 0.6293468147705185, 0.6443373102929754, 0.7374059183529721, -0.6229921149311218]}, {"output_weights": [-0.807539769827395, -0.508441845325578, -0.5732135939261532, 1.2341375155791603, 0.927765890407391, 0.659149780185755, 0.765975518151488, 0.34062743970853343, 0.2887680830245281, 0.9764992533498148, 0.6750931889647352, -1.1648661320461486, 0.055223409322565344, 0.23902981437774257, -1.0679335754666708, -0.9165825043084785, -0.45263265832364064, -1.5124241734949737, 1.9619851920357354, 0.42472858706491995, -1.6037977685572902, 1.1018979525659334, 1.254608367033389, -0.8196830322870524, 1.6038387023173184, -1.494233181395751, 0.09558171712466729, 1.6500323956962277, -0.2854509053339235, -0.4568791808143555]}, {"output_weights": [-1.738688758908159, 0.08587941885946558, 1.1158365320718542, -0.5230355342222969, 3.4998247500787567, -1.3208159419368053, -0.03201917219234321, -0.5289190912920828, 1.8918571474598187, -0.6000596716158877, -0.475000002658425, -2.412398703764741, 0.3735951796354413, -0.020216161621879922, -0.10717656294214917, 0.8134154151089426, -0.6402159434127792, -1.3279121826421794, 0.4312209628377048, -0.8898290390285523, 0.5340902505130264, 0.1812047760963342, 0.3243062785816756, 0.6735383133468124, -1.8133646190664754, -0.8742030885789062, 1.3122763044948862, 1.3480764962618692, -0.5043473833004027, -0.40245937551586697]}, {"output_weights": [-0.5208250648995664, -0.5515994100342567, 0.047001514639946534, -1.1415897982707959, -1.4107675682857317, 1.4688690725849416, 0.5786621973124815, -0.7205954565760171, 1.3366125172426333, -1.145135771076972, 1.3937847898958768, 0.2003896947527444, -0.6351781872871807, -1.2243033168165958, -0.347640627764053, 0.9625098214400275, 1.3184034691709767, -0.8063045365343874, -0.07649292064205704, 0.2272083985884471, 0.2674797006427256, 1.9437355063897601, 1.6209159101996795, -0.2057811623135616, -0.22023568183318745, 0.5876095525548437, -0.7363047008808972, 0.21996367492523072, 0.9377696395074964, 1.3301793631025993]}, {"output_weights": [0.18333618384460063, -1.1088490557534962, 0.06648581998666751, 1.4735749652603114, -1.0026255744001147, -0.16034179475685514, 0.15699141081884002, 1.615718693464216, -0.5874143987643946, -1.1343163867186357, 0.8868054263738162, 0.4579129033277284, 0.8034376410504537, 0.2895039061974414, 1.1426946234135409, 0.7535102201627885, -0.529372480874611, -0.32092499742062036, -0.7424942831758621, -1.2211306547599516, -0.5095512686975616, -0.2503924367098352, 1.4834442667744443, -2.4217091611216843, 1.3045611490943085, 0.4511113502411842, 0.2765243970703199, 0.25295928118520705, -0.7653950235458349, 0.4031305684471406]}, {"output_weights": [0.38524774799721345, 0.6446428698305329, -0.6947232304999041, -0.3848966137163713, -0.5137300187102077, -0.7935772911513364, -0.6166081943429839, -0.5033191034706881, -0.48483038497410036, 0.9172835195267937, 0.616798669034573, 0.07876744145314035, 0.3149616465849941, 0.3541533791626541, 0.22169793037779137, -0.15601862306810854, 0.1698985720458541, -0.865362870281029, -1.41909248953568, 0.7911018825333725, 1.837285083061491, 0.3761215923201113, 0.9548979571954471, -0.4172414899664038, 0.06518145782047194, -0.6680919339779265, 1.942223924374633, -0.26667307949266916, 0.5448125676091822, -1.2595515465529208]}, {"output_weights": [1.3219584291261168, 0.1243240851840206, 0.7814813225079734, 0.13704797437072502, 0.7461513046067005, 0.5265615770235114, -0.4354718578268597, -0.6575686524820137, -1.6203626805539368, 0.3101221728902477, -0.3555345333179624, 0.057262456658057966, -2.1389904815613487, 0.19609800640162597, -0.6650381415074462, 0.3973965270143623, -0.1900709805484567, 0.031028408710894597, 0.9126676220577716, -0.014728489031978362, 0.7186997398067554, 0.015857509243024225, -1.2548236793912213, -1.8608285675957086, -1.410698137594199, 0.11887818447875081, 0.43689384116664975, -0.29641697162858116, -0.9793863293215238, -2.247303716719164]}, {"output_weights": [-1.6705946815213912, -0.1474361775068135, 0.7580503976290558, -0.3738361491138097, 1.0414264793082324, 1.4115103683188064, 1.2040060885124966, 0.15473576963191032, -1.2928509077288683, -0.2807020401058545, 1.7004391349786212, -0.7687632443797856, 0.8638984775586804, -1.2174803406410257, -0.26614504058775024, -0.6194462071546284, -0.3028809289806222, -0.32036418080726464, 0.9079751601738958, -0.7968481578340556, -0.37893277172456064, -0.11051757793870157, 0.3737402146765784, 0.4698644129403769, 0.13499371768012416, 0.706761928581461, -0.12008531281226512, -0.2538844939730306, 0.033881281647013796, 0.3280181918238144]}, {"output_weights": [-0.2511792346321017, -0.46652518815635097, -1.1082393999165403, 1.4569543181421938, 0.7823412887237204, -0.8935743522447055, -0.736694030547728, 1.553257516210257, -0.8142356080181776, -1.4261210137947344, -0.9487049589098275, 1.249138203557648, 0.217722277832596, 1.0678215240532873, -0.8315624841499768, 1.5303599765973153, -1.105310720406793, -1.6806467642077771, 1.0683078643134258, -0.0771954845849523, 1.7223583554511752, 0.4941513432863646, 0.6164927771809773, 0.30091931837437863, 0.14053635937719036, -1.367319525579305, -0.3501573501527984, 1.07914171546142, -0.9755462993352307, 1.0647433775470485]}, {"output_weights": [0.07573208367135138, -1.722414294998512, 2.0771736204600275, 0.5750144045891358, 1.4764493051216632, -0.7812452399118827, 0.805752470819855, -0.5525626052304269, -0.1715394565152686, -0.8841708547271598, 1.8321268229155045, -0.3770097809212319, -0.1111816786252234, -0.10826507289446421, -1.7246743663154467, -0.27565280334833403, 2.160890536670755, -0.308174572092763, 0.5101457172984458, 0.33614851867246326, -0.08103267741746387, 1.1074217660636234, -0.431354212389866, -1.4162297396168075, 1.5185273916515136, 0.9909728120424525, -1.589777233076187, 0.9013712399294781, -0.4416546365788765, -0.970304841353868]}, {"output_weights": [-1.7155206626332375, -0.06998788191721622, 1.0484121822727182, 2.2236841820763207, -1.0613350738483658, -0.7454841365093531, -0.8172739365192103, 0.1032023753485451, 0.12244880219269398, 1.0526320543906282, 2.6451275182507925, 0.24690218480104648, -0.18965390147664574, 0.38059273252277925, -0.21830345856889438, 0.8599348860317404, -0.6744387417585367, -2.543746591035986, 1.2391285608201463, -0.15675950355801135, 1.0150187051043973, 0.8841520417768491, 1.1676845844137644, -1.115504056214207, 1.3945472631523077, -0.12356132499493952, -0.19845513387492178, -0.0815556455608947, -1.4003952263750332, -2.194184615354576]}, {"output_weights": [0.7283478801352598, 1.1195289527722991, -0.4713219056636418, 0.07299970208931902, -0.7649249916700409, 0.015128262542649986, 0.7591897840508568, -0.39546380487152233, -1.5279034820004642, -0.6207791677080118, -0.7903660361958513, 1.1402272810093292, 0.9142637512295864, 0.9714808184969278, -0.6053682111193328, 0.6565664989574675, 1.5567640599088863, 0.035651680883296545, 0.7207636415027451, -2.016693653770432, -0.10005874514015502, 0.0530724268923256, 0.010742569269045137, 1.461840748304399, 2.443042543566753, -0.34201689768785787, 0.011945532507453095, 1.2049803213484218, 0.32071151166974865, 0.08902208388026392]}, {"output_weights": [1.4188449877186735, -0.4418704424191806, -0.5637201211078071, 1.564194796865718, 1.577830892950225, -0.036608754737336824, -0.48401904133232027, -0.7524746087666063, 0.25804572019044714, -0.8604743239262025, -0.07124661596610271, 0.24487437512983945, 1.0420177805158435, 0.6859788044178463, 0.6511258698232989, -0.2037171654848886, -1.8942120978626964, -0.729413170766568, 2.963028534540882, 0.020766084563941297, 0.2648668510364067, -1.0385463515906015, -2.1584192484051345, -1.3750163775409956, -0.6381829915282495, -0.9698112133594059, 1.128803389672567, 1.0284481991410608, 0.3903253524676143, 0.9862828333476968]}, {"output_weights": [-0.6982707238583357, 0.3040483750005036, 0.7349775457639148, 1.3383101495728058, 0.31725824511907924, 1.2181219307603046, -0.4066286205318107, 0.10951017966470859, -1.0854827075694056, -0.026400114312445926, 0.5512342635485646, 0.464701506622681, -0.3994096179968661, -1.0301026845673709, 0.00986053142016176, 2.438347952045005, -0.2517727900089256, -0.5027195339007516, 1.6023137343875375, 1.3119220413325943, -0.055893193569406405, 1.021722027036944, -0.5652866958883572, 0.3913639017066128, -0.39553662748150087, -0.513027141144624, -1.5488668171321538, 2.0301442283090254, -2.780138296787813, -0.640808799480086]}, {"output_weights": [-0.4802526101082817, -0.7024737556081457, 0.23333117846411963, 0.5786701291778799, 0.1566537230127166, 1.1866937605519101, 0.7221415670380881, 0.5123544140888879, 0.8271072598712678, 0.8014195705621112, 0.6704930641344025, 1.991297803417607, 0.34039097722271316, -0.5300999508906137, 1.2233930316431323, -1.9226352292426132, -0.21297453899522806, -1.232654833523135, -0.7514375522923351, -1.322442755604187, 0.6605042890346698, -0.5394562095833588, -1.088769582912805, -0.8342038765922399, -1.3268740976669986, -0.56433376227588, 1.2764348166794213, -0.20463870105482998, -0.6206072788962053, 1.1534222155908607]}, {"output_weights": [-0.8588696049339881, -0.6990995345875134, 1.0235969828791998, -0.71577356779649, 0.4677124191557553, 0.22819375480928944, 0.8555114517342636, -0.3898174934346417, -2.165693113808096, -1.5711762934040812, 1.062839339499895, 0.16603905018646803, 1.0411803542265872, -1.2878657838677139, -0.9235064587204067, 0.6025885717032974, -1.6752988477108066, 0.04624977338076414, 2.1109006440976397, -1.8307492616546366, 0.11561497096534483, 1.0164039795787094, 1.0547277566377504, 2.5366697780698475, 0.6452942058588834, -0.09670471365228854, -3.459669572609335, 0.396505664122079, -0.9266242913549839, 0.20692674035998754]}, {"output_weights": [-0.38535973346060537, -0.8089680071259753, 0.6636338042274423, 0.20560692178982015, 1.4475867243193439, -0.43475919407719005, 1.8938488904318627, -0.5121377662332989, 0.46856848104687854, -1.6340301413960336, -0.37825980328400627, 0.9087885209694496, -1.414927096086679, -1.0404736551797817, 0.016805175572775364, -1.7348367350492748, 1.818908660896129, 0.6529468346040831, 0.1972816099542245, -0.04132217381790296, -2.2863265176219283, -0.48142293143421666, 0.49759869396640266, 0.6146232256809401, -1.828429834759704, 1.7456749386895858, 0.7788816170705769, 0.8303028260646472, 0.7503835116588125, 0.39364850243152555]}, {"output_weights": [2.328250294148132, 1.0768707504715351, -0.34113737818539097, 0.46425619549965036, -1.0005826984900579, 0.35227062803781484, -0.8543504642844406, 0.18625145920058198, -1.3998809079993861, 0.5208022015426457, 0.6059975960583966, -1.5063036861519783, 0.6174089092330438, 1.3539707200143356, -2.0170893567015815, 1.4262802543780073, -0.7089415585098091, 0.7686148672352991, -0.1381753318711102, -1.8656766110401584, 0.00977412272240577, -0.2121912835961557, 1.2937966725526224, 0.3029076591979404, 1.0858200973112935, 1.5922319551817714, 0.17301927021266258, 0.3950755394741786, 1.4822298743312052, 2.0704740246060385]}, {"output_weights": [0.2654282339842842, 2.269808541994895, 0.14795871712154032, -0.4210301938249659, 0.8537069442468634, 0.9327200843927645, -0.738926493861381, -0.5370870361384094, -0.32107991623983706, -1.860322720108801, 0.11820659953238676, 1.1244718436073644, 2.3571938989804093, -1.0875899000663423, -1.173030373529972, 0.1627476669217129, 0.16916702922775365, 1.0929984772289791, -1.6495053025605317, -0.12311987257636911, -0.0432664622285191, 1.390647290517878, 0.7193149773224545, 0.6672236561062513, -0.08905288145158821, -0.32668518150606646, 1.7742796225215909, 0.9825194284488782, -0.7537733192362106, -0.5304460346364254]}, {"output_weights": [-0.42981546424761774, 0.23004677896612108, 1.2119949181703265, -0.2011060822176687, 1.396675445731164, -0.07923992785388521, 0.652776974712337, -2.651847500230914, 0.5308774040501645, 1.2435876089588886, 0.14519734476992174, 1.2488690393826034, 0.5327457382562176, -0.6105271223824577, 0.18572480011403067, -0.9694302479694179, 1.5373203769079116, 0.5173750088174963, -1.0428913027939932, 0.12964582167876237, 0.9878958298584128, -0.4647530550172664, 0.41014358428210757, 1.279579615326361, -0.7212206190126028, -0.12340390322917189, -1.2734601485662884, -0.7247925570495715, 1.2281319488244369, -1.2832003565252188]}, {"output_weights": [-1.8163309798267402, 0.1879332237465469, -0.26823093768622286, -0.012322350349877371, 1.4198387329370128, 0.1970787690382436, -0.8331907397682746, -0.48330807724786545, -1.0709869075017118, 0.31359950266522, -2.205637848502191, 0.7779079734095913, 0.07986540753237582, 0.5952247810202654, -0.7281136301369641, 0.03340156633294334, 0.1787689053152716, -0.3065323670550871, 0.27124164305090187, 0.19924532573151116, 0.9522284521228532, -0.16533490919452634, -0.5784072819203441, -0.6484081164012551, 1.0016831273451228, 0.5488584475177596, -1.6158692156164114, -0.5794618636512586, -0.10878204957315517, 0.7527216760769494]}, {"output_weights": [1.0085276619542825, 0.09292813585154049, 0.3052228372915028, 0.9075317540145733, -0.11608724143475928, 0.03797627497832269, -1.2515708877262315, -0.2525011925009397, -0.14943060879537695, -0.657389274523054, -0.2800189730901942, -2.1605240207329697, -0.2445345922318162, -0.5428812109858372, 0.524778615669728, -0.21683197352806996, -1.8064504644802077, -0.3623906041699657, 1.1241548494874394, -1.4012837887973055, 2.4048615565024054, -0.9935318693189025, -1.3933283295297947, -1.250976471020137, -0.2163994390625727, 0.14872480990811007, -1.3279649637348654, 0.1676917259626148, 0.3129091186842462, -1.5949641882090726]}, {"output_weights": [-2.2594001477669328, -0.961860874564394, -1.8225097298876498, -0.7261029911206136, 1.1071516856555166, -0.005557435874972463, -0.8384866342508145, -0.6291578019616285, -0.47485477147990046, -1.3081007790193113, 0.8774076347090163, -0.7206109033771818, -1.1678384691529011, 0.2949258656618292, 1.2526889039586557, -0.587661628896523, -0.49454951633893535, 0.24210643935803247, 0.40097233226189494, -1.146474016005351, 0.47715080523316084, 0.9915073914168911, -0.5810988019676784, 0.6179038807948767, -0.4709945473060611, 0.9928234946272324, 0.07845251412598718, 1.4861184878554865, -0.17365091978640038, 0.49397723440508207]}, {"output_weights": [0.7023710590121119, 1.1672256024260736, -0.42696557670390367, -0.8569710755226357, -0.9403547901559035, 0.6552406243581621, 0.8712674010602707, -1.2788622277720598, -0.14605679835299593, 0.13083917366047587, -0.8873731692077179, 0.22863493324622086, 0.513258292127776, -1.2176718822514097, -7.338527887151975e-05, -0.7584086441319441, -0.22520972524666052, 0.687095336995235, -1.128830511015285, 0.36737335759380185, -0.8870751153072297, 0.2419680193324961, 1.0130887537687854, -0.1598806114205814, -0.9195394808128244, 1.8235291364692807, 0.05546488927546541, -1.8089497272141553, 1.5066704682787515, -1.0332181702589762]}, {"output_weights": [-1.1515969316904426, -0.5227592371846876, -0.7719453515059425, 0.4562814200904655, 1.3038607678422458, -1.0764355175376816, 0.400020354682825, -0.9224132523565423, -0.42431971327601137, 1.1080939038635265, -0.2355885667592882, 0.34042946430670695, -0.6335435519442024, -0.24698285971809555, -1.587926876556035, 1.306504335719844, -1.5866294327075374, 2.0464612538427303, 0.7439197602467358, -0.39766766575921453, -0.6797027046287649, 0.2029216076157175, 0.0952110042896532, -1.6588755359920444, -0.15213873718010024, 0.8968436997058333, 0.9202154220517629, -0.48598697658886086, 0.6294769294107547, 0.7852936315459244]}, {"output_weights": [0.11335313692523888, -1.794319318973037, 0.22543478155415497, -1.0839356353793173, -0.5207165332968825, -1.26839455803741, 2.1616118410613625, 1.722013354651527, -0.3810041406224676, -1.073806699009784, -0.21406982773427705, 1.1197576927050878, 0.7152316999681813, 1.3551626307147808, -0.1701259308286793, 0.595159721182303, -0.7390733641243175, 0.9739095607125737, 1.1779961418619704, -0.33329091669299465, -0.43341032048096506, 0.664040084932084, -0.0768434212748695, -1.2427239218691917, 0.6236941862032269, -1.9260096592693803, 0.12777584560771177, 0.022334935955817262, -1.6750249840113078, 0.6507402458080545]}, {"output_weights": [-0.2602216187955274, 0.5645529573592639, -1.3918867282834833, 0.3513601521569045, 0.47685456651243185, 0.5526212770338818, 1.0917592785975139, 0.07914277235354611, -1.3684036271412345, 1.3223380242050036, 0.10442075677544738, -1.3696929353157647, -0.2938217691241017, -0.6824137585346312, 0.2850750369269671, -1.3388746351173337, -0.9110279023225809, -1.308573153835689, -1.4705340331022017, 0.10154474751860781, -1.1428795401385858, 0.2156018268238261, -2.4745596441153843, -0.32087330195426383, -0.02310677807793463, -0.16354450047626456, 0.8062780465656572, -0.15031557523338246, 0.0778994107046013, 0.9609648076531598]}, {"output_weights": [-0.5301215039347701, 1.2990749384015856, -1.580729654978794, -1.1406415503139637, -0.4134289509007545, -0.07859220702048864, -0.17514767694530986, -0.2555196621894166, -0.9344176908315037, 0.24151121050336202, -0.24256140716118516, -0.8383205333540579, 0.798307852413605, 0.3265344840359365, -0.8738002394667839, -0.953475680081918, 3.5467124310970166, -0.28646846654456265, 1.0097370173474245, 1.272527305739525, 0.7259863102581211, -0.05456400276757988, 0.4369693092177678, -0.5971316925150857, -0.34422661618998074, -1.5378043625904918, 2.1142929965950183, 1.7947877589124661, -0.8750987982686639, 0.5220252051288046]}, {"output_weights": [0.11517953401883732, 0.5192945183603962, -0.14185482687138243, 0.01921967118183489, 0.2677857871498633, 0.29446649723889207, -0.5541728868776649, 1.1614189889394924, -1.23113815906633, -0.6001705661824215, 1.0527742255081152, 0.7820681684890793, 1.9164744613602187, -1.2969674627574084, -0.06586918551308381, 0.3774993987592662, -0.5655749699622243, -0.16481525653281692, -0.12562550411216591, -0.7673992379559764, -1.0774962117022973, 1.2167976499892432, 0.4171561377493527, 0.23752093505037883, 0.08151438646331194, -2.4971578895478834, -0.6931039376741835, -3.0934831798750637, -0.8431083256836748, 1.4256877512707844]}, {"output_weights": [-0.027726190170661618, 0.5820870705084233, 0.8914861031902702, -1.4901547053210304, -0.10097182901431435, 1.1540766283708257, -0.16784028027314443, -0.1855739008932444, 1.6421138904402717, 0.7405338671960825, -1.1062473432838569, -0.265089797873011, -0.14764027173560534, -0.06633310622316334, -1.6258803208631902, -0.3719945266416047, 1.588947734768378, 2.0247157524628183, -0.5721100082378221, -1.565644843912001, -0.316901277177077, 0.03498651919629768, 0.5482104689112118, -0.24798747340515992, 1.37387911635449, -0.959714838516575, -1.6092286740600557, -0.9490277083575774, 0.43180242311254946, 0.7994744882770579]}, {"output_weights": [-1.446123737769266, 2.209794058572063, -0.2969005627924665, -0.021409998337481112, 0.29390749132658534, 1.3666787646842704, -0.6936179168535284, 0.3499699621795296, -1.105141663010894, -0.5051054766125805, 0.5929446811242738, 1.2140589702240994, -0.8411383400176793, -1.0023792482484286, 0.12749167580036272, 1.3198059615170858, 0.5486112993674409, -0.5674557569060515, -1.0066351400658797, 0.11595631360206435, -0.01903914131774293, -0.3150482459051532, -0.1036441154859546, 1.0792415259075054, 1.5189129579313796, -1.3212831882535463, 0.13452695515469618, -0.9250919188002505, -0.23188281337489672, -0.8162227373914062]}, {"output_weights": [-0.46848819991107593, 1.7437085742996064, 0.9695310220109532, -1.7052924369731821, 1.3389534480543028, 0.5573933895569462, -1.708146256800889, -1.2102807065447245, 0.8165608177805462, 0.7611692353951919, -0.9764020734756774, -1.1894163393050352, -1.051895691216153, -0.5303481179470771, -0.9301617830026983, -0.7106790072413621, -1.0322623918834315, 0.0911397555623529, 2.136082953754383, -0.5698378013846195, 0.272073162695309, 0.8393195694678164, 0.48132788323838716, 0.30596724657423674, 0.6481256721298785, -0.2745707121854565, -1.1871127678031321, -0.3078442511110845, -0.06275477482619843, -0.6115857411924192]}, {"output_weights": [-1.049047748009903, 0.44269304897718653, -0.47885908081116046, 1.1069025378419506, -0.17743476552645557, -0.505187116817234, -0.8161523490737497, -0.35667272147509677, 0.572065536948883, 0.6433566769989124, 1.2368875910576442, 1.2946324085543173, 2.0308251686848986, -0.17007045261729814, -1.6741423513833729, -0.39931388288134656, 2.303753354530422, -0.3967120131379463, -0.6005309656137884, 1.3457192238881022, -0.3892345441370578, 0.3739146354701247, -0.2054086865013055, -0.52170334222428, -0.30626575426299574, -0.26973532886074164, -0.5667514120969874, -0.2904736861373568, -0.9216438814120907, -0.40982658391825866]}, {"output_weights": [0.6592375065273427, 1.5934275480202673, -1.14398734750259, 1.0200399904765547, -0.27958327192339927, 0.013384188402016307, 0.6484901921797998, -1.25232006485697, -1.2297287673657529, 1.3060673656256248, -1.5547617628252532, -1.4389991472680814, 0.6624133906260208, -0.49007288308202074, -1.3099154993098716, 0.3410082718649362, -0.24875245044744787, 0.9723270386583799, 1.303637552680153, 0.1411367265360348, -0.7516735386960871, -1.068063797002616, -2.2639969563208475, 1.6148487839802406, -0.1221598160527476, 0.501426695195249, 0.4820289911340902, 1.0561313464343531, -1.6989068824137472, -1.072345568222]}, {"output_weights": [0.8579849126393576, 0.7181115950911909, 0.4817605564593541, 1.4726856932197834, -0.6666315603743519, 0.35025125913011357, 0.3118139791752644, 0.6196100402402607, -0.5727320070717293, -0.6912481430043704, -0.5082254986427114, 1.6544229865603295, -0.46668798767556596, 0.5072936608022631, 0.14678574334664352, -1.14223031796534, -0.12063947429295342, -0.6518963811060308, -0.09060518192132538, -0.7004347803237715, -0.6223775114618872, 0.004054691667472292, -1.1326954014431616, -0.30836048128086985, 0.5308814921326335, -0.44459935412416524, 0.43664500501530445, -0.7092770282889772, -1.116915868284203, 0.9738165844930607]}, {"output_weights": [-0.29107767083232117, 0.6885716414212235, -2.2951079377422268, -0.08115320788119613, 0.6483377615701891, 0.11075858289410362, 0.20213032471821774, 0.3676197606503094, -1.9365650253901237, -0.15824222833526044, -1.2200367596255517, 1.4924589236006642, -0.9677088190629185, 2.242265560204369, 0.41774083081162544, 1.3686274718455245, -0.7257931562667502, -0.6140987346584292, -0.9913331036630691, 0.19203337545699933, -1.1864748070805844, -0.6538874205342493, -0.2206075010361681, 0.5687880062939742, 1.9146725750495908, -0.009574666215947828, 1.0983848160672647, -1.4381838184427602, -0.060596193616445165, 1.265096706364011]}, {"output_weights": [-2.2375518367528113, -1.2631759291351559, 0.026973964735925324, 1.4862549621543573, 1.9787444031802741, -0.63044457643471, -0.2636569529141688, -0.8750017851780889, 2.2461483798521287, -1.7021302504746614, -0.1435296496927739, -0.9722704942309047, 0.6613714680976887, -0.8597796736188642, -0.36735631986348205, -1.015917344235843, -1.4325543391999007, 1.0597890839273822, 0.6292421858075126, -0.4404393030406057, 0.8419965016136763, 0.06532088216327134, -0.84372281149266, -0.03148513511262308, -1.6329756623546081, 0.6618676666220998, -0.23941570374059015, -1.2678990216648927, 1.2089975525205308, 1.0638992496540562]}, {"output_weights": [-0.17899025190422768, 0.23727912379993535, -0.08359256213524248, -1.503931465729538, 2.202993647520751, 0.42799658649590355, 1.2118559071184232, 0.519984703090989, 0.206435402558407, -0.9103433210434217, 0.6465327271731247, -1.025668539134656, 1.2746407505897983, 0.6099290380287374, -1.1532020421325386, 2.594788884121619, -1.6611234250499773, -1.1305470154169497, 0.45025298927284546, -0.15973457940557967, 1.9392256967341934, 0.8928807937405399, -0.14901492721804915, 0.21742069857080698, 0.45748384720255675, -1.2764768194187068, 0.5728079242226483, 0.1761727843536419, -0.9229040324292357, 0.5484376051255407]}, {"output_weights": [0.34914319693956525, -0.3126594763007934, -0.37169208209593335, 1.0606527039442781, 0.6506189478602271, 1.977315502449706, -0.27469409587110466, 0.5725604075783858, -1.2308754908611537, -2.0402863523291, 0.15939777026844454, 1.6942894839276803, 0.9766436019881494, 0.832812293911923, 0.18700406366747793, 2.1004395988018767, -1.5303649227749543, 0.6374928132913148, -1.191624733349323, -0.4911839800925559, -1.9207067101257136, -1.5070895645618998, -1.2257740851090604, -0.015697583930440445, -1.2534461904245124, 0.7868041657704686, 0.5626077751427312, 0.856222963954968, 0.6365205257820041, 0.8973568471575203]}, {"output_weights": [0.3019054295997294, 1.9877277945549707, 2.370134552015796, -1.16225359363511, 0.8522325875039615, 0.9414323383515664, -0.262984294759747, -0.4277930965839784, -1.1529460577366384, -1.071460310263518, 0.22212881430703232, -0.1310061136501025, 1.4940343186250595, 0.8760140494316666, 1.9429952356001052, -1.1597604092799974, -1.2349274648976099, -1.0617494469824507, -0.24301562205670973, 0.17699336222376646, 0.20055755115695262, -0.10223426424587705, 1.0332243885443855, -0.7028643318231406, -2.6144365589256835, 0.6503114280887609, 0.15886763444911578, 2.5288555971991427, -0.09996832541882737, 1.3426624597944983]}, {"output_weights": [0.26591053894508104, -1.6737236535361595, 1.063097611855616, -0.8659765665237547, -0.34610847971507075, -1.1457576620307928, 0.480738824881583, 1.2866050083097007, 0.591933764766267, 1.6397987632497153, 0.9967676085868437, -0.6610064087797011, 0.40436260904901605, -0.3674795505925579, 0.6964617766630093, 1.1979467639663128, 0.280838697506331, 1.138421614642538, 1.3513600010262514, 0.46962112845361664, 1.868197489670067, -0.49327392221719524, -1.2077499724524923, -0.11223550978058602, -2.5470896911166574, -0.41747769937749774, 1.7510708182872856, 1.237671292440281, 0.6474617363231692, -0.3670192127591259]}, {"output_weights": [-0.9502616087186333, -0.3257557099075459, 0.4989846006447616, -0.46809094739550156, -0.3571646096079589, -1.2296931787027823, 0.6497241414309387, -0.2545759161705602, -2.972054185538656, 0.9232954897791027, -1.6182321964028008, -0.7852845052286863, 0.15272326498319275, 0.8917331732286282, -0.27205838254032705, 0.20714995028173863, -0.7971104096485023, -0.1377569691516786, -1.7834511616830608, -1.1241648758823672, 1.8599492679263263, 0.21015586990578292, -0.9040787390620946, 0.16200532686898658, 1.3330333138192614, -0.6784759667612736, 1.221284942896046, 1.876360992311075, -0.16204720483278592, -1.0541451160563051]}, {"output_weights": [-1.230532659124455, -0.8303578336185243, 0.5269686619655407, 1.0672889277419468, 1.301358969041309, 1.2320548006143874, -0.26808821282548273, -0.6915318638373661, -0.4248332148022456, 1.2368323615699588, -0.29155670849214643, -0.22647128753980086, 1.2712569786883712, -1.9004503348445883, -0.6595320239103453, 0.14840451586517509, -1.9588221708316285, -0.898988711482838, -0.2602339058700254, -2.1658282456611606, -1.7476216255446166, -0.37698943590357725, 1.1801323397991978, 2.7447827425114237, 0.2977697839489596, -3.2837831123194463, 0.7579361591271241, -1.0250426869283593, -1.255895035700187, -0.37044357988393567]}, {"output_weights": [1.4161873217341112, 0.6904503652996954, -0.597598483862297, 0.5848792012970382, -1.5485997626797208, -1.6313725698927248, -0.9182483784340767, -0.46930012843157803, 1.9271362753154033, -1.0354700073532928, -0.8218099820745709, 0.07757527568667302, -1.2727032642165004, -0.14104461617361508, 0.04935914491490376, 0.26922948961836746, 0.8495816724730492, -0.24431494336629062, 1.3525239963997209, 1.5852327006303282, 0.17121213719368192, -0.921619153051261, 0.15139045344273983, -0.44920185992156025, 1.2947468752113707, -0.5160997979612576, 0.3640074237036851, 1.0009002168296468, -0.2819959524709675, 0.7655838333360686]}, {"output_weights": [0.5649511193877138, 1.5947682012846065, 0.6720511584423671, -0.9184066195685144, -0.05883142223777743, -1.8103469226035014, 1.774105563698549, -0.899556229747899, -0.29094973016083797, -1.052838128988262, 0.10204860847909254, 1.5480631232095896, 0.1295130990632028, 1.7036998685948777, 0.4504264761607255, -0.8350168191085329, -0.46889379318085783, -0.44522759425231256, 0.1474818887623242, -0.7390015788659505, 1.4405918713423864, -1.3912960308440165, -1.0503772301742673, -1.0297843998260945, -0.579429538574652, -1.421948710009299, 0.31884075357344543, 0.02291609749489538, -0.7258870784456501, -1.5654708815259764]}, {"output_weights": [0.48388943804010465, -0.7986256985071929, -1.6877735557669762, 0.021701789957942537, -0.0913241314870076, 0.5297222686307942, 0.5126173930291719, -0.4695774637326888, -1.722640050651543, -0.6947555606447307, 0.3620585424317344, -0.3745577823616488, 1.3403891362975382, 0.03876518863028965, 0.17380810762620658, -0.4338105996302246, 1.7405935841837925, -1.994871215326479, 1.1531035531762688, -2.7690905961235406, 0.6789698175178612, -0.0664250481204704, -1.3642336051456243, 1.239695442644764, -0.606773012169267, 0.04024151477407254, -0.3564329635831257, 2.2637148062345887, 1.6960542676032668, 1.7841602763270534]}, {"output_weights": [-1.7613916891398909, 1.354163011645994, -2.179993426807179, 0.6568733029028386, -1.5463955591041747, -0.25782125340576884, 1.180240133969931, -0.9856963502604353, 1.0122514094521076, -0.47315995898925767, -0.6797199472188267, 1.9334684293587439, 0.13824622613447005, 0.73085576854062, -1.2417650921973615, -2.4217780326589686, 0.2641108052849645, -1.6541807563820614, 0.6621540048818899, 0.3623848480627663, -0.9241114968519282, 1.7601072016897374, 0.1766243502054469, -0.11289732820764398, -1.2703761022608928, 1.2043945604956412, 0.32119142421514424, 0.10730616609234526, -0.3363276708604946, 0.8790800604160758]}, {"output_weights": [0.5155643393207568, 0.0620008099201179, 0.3843000658848661, -0.3740345774847509, -0.6215079030562879, 1.24014739963852, -1.7374310405187199, 0.2299747784193768, -0.042193823217727626, 0.7607369377917929, 1.229876723131718, -1.7004111586530015, 0.6804433284841026, 1.8781417530039772, 0.1441870039936727, -1.9128256638970593, 0.23044928112963753, 0.3382278048980145, -1.265883944396427, -0.7642896785835841, 0.8263090570414662, 0.01856790924560294, 0.18210419828114413, 0.30602367591903534, -0.39874806996826634, 1.1292337204804739, 0.5226685608277328, 0.33121344562262484, -1.1284768949439468, 0.0764982042616332]}, {"output_weights": [-0.4184670966140014, 0.5759125232547403, -1.1243491063478748, -1.004861898207154, -1.0123148440251364, -1.2468042479073906, 0.9989040013753971, -0.4773822643328989, 0.03800290344022446, -0.6589311405885548, -0.8518372353981991, 0.6121253143689063, -1.1082078787347889, -0.9232557043812233, -0.25731978067267847, -1.5669365215792594, 0.13070068435252938, 0.041228751046019516, -0.7198480074300617, -0.02133842365088195, -1.1367774601232028, -2.1450550766567567, 1.681099172164266, -1.698209661026183, 0.10089783653339109, 0.46671052309081196, 0.019219880156624427, -0.7249381742120156, -1.0618345081056813, -1.6721414985628211]}, {"output_weights": [-0.09141273470177609, 1.037724760942252, 0.04993882769620259, -1.034540149537109, -0.5362032160292362, 1.5556946428256773, 0.9172225911983054, -0.9479186104559143, 1.0668370930660516, 0.7176332841267518, -0.14768464400675974, 0.055331222899042694, -0.3254995227074033, -0.4402394421081365, 1.0454703806753054, 0.11120347417035699, -0.06782251381016952, -0.027780106994707027, -0.16666386855039209, 0.009328210650902112, -0.6106937904539361, -0.3428416922896337, -1.3850186297631089, -0.7477851702439351, 0.3388809483347348, -1.5692033095663331, -0.9908173359478772, 0.40314221708409603, 0.14776214984397465, -0.9180513096114176]}, {"output_weights": [-0.7884361679084586, 0.0015813585792330818, -0.7145165459703848, 1.235444080389801, -0.7466544750580965, 1.362346064639127, 0.29939739037864666, 0.32696110860198935, -1.376414882963273, -0.2359969605021622, -1.3271161865825514, 0.2501354717594095, -0.03883139206176751, 0.6776058256105847, 0.17071679967500475, 0.0799375978907197, -0.9609160782922593, 1.0458335570733515, -1.5890975448785267, 1.1387284321894384, 0.07108945144465892, -1.7993645080270604, -0.2218752933553973, -2.179726540007893, 0.871725430989096, -0.019634598708168062, -0.37052974795429455, 0.28494404655641314, 0.2946733181431746, 0.08653778865543221]}, {"output_weights": [2.859512027026678, 0.9063431445371112, -0.06489582543262012, -1.5000147633684167, -1.10742169021479, -1.6771296400600963, -1.7033041035291687, 0.46998856134634004, 1.1269427045754308, 2.1672755534840658, 0.8782225698103869, 0.6010997647767501, -0.29700231357283735, 1.0354999034297034, 0.5433303930680748, -1.4796350742489257, -0.10333763504059196, 0.8560433522010513, 0.33926740776841763, 0.1830754546843961, -1.0547025399784822, 0.30818186544570586, -0.49917183093580075, 0.14895709899430704, -0.8786586211891297, -0.9967933443381408, 0.24895557899467402, 1.8133558885261374, 2.2102215723669723, -0.30065320218839403]}, {"output_weights": [-1.136818553666724, -0.04546094771363003, 0.21241565152845068, -0.22742718070492096, 0.031255701362720996, -0.6827117577447491, -0.9353628869757681, 0.6578247526125298, 0.9709226783717123, -0.44331872979459486, -0.8334896805945833, -0.6455341755529136, -0.08382815783254932, -0.20835322445648416, 0.06764786109255348, -0.5712732401331196, -0.5154929491415521, -0.1705650606242804, 1.2560139263816634, -0.9919755962372054, -1.4431171851633244, 1.3223499532394218, 1.4837305816191872, -0.3707659670277419, 0.9682971420117156, -0.2963867108558761, 0.8454324459524618, -0.4740380313217622, -0.23611269883067781, -0.800568167711409]}, {"output_weights": [-0.5305011213424546, -0.42559065286143677, -0.8198066471453251, -0.2938557527096415, -0.520491993156564, -0.33226795122285774, -1.124032878986722, -0.1211560919077377, -0.01909614243727867, -1.0395193197894759, -0.19759050500871944, -2.026737166426156, -1.2635753913680636, 2.05293404604957, -0.5192420340565587, 1.2691886859034867, 0.183671153437224, 0.7399111719027449, 1.1509237145240196, 0.03221296046418511, -0.20605184686638942, -0.2364281590779184, -0.16154903510064111, 0.7856458029591488, 0.5901419551886864, -0.5741618239978926, -1.9663827050098903, -0.7930139370426407, 0.164456955326343, -0.8631550208964175]}, {"output_weights": [1.1944520531899288, 0.4153476909742095, 0.5951962461886631, 0.6785451352536651, 0.6014967743623122, 0.3827930424277584, 1.4201101578892428, -0.8230954218690697, -0.5449062129161337, -1.085839847643477, -1.3264122993033995, -0.7242098955186548, 1.164297626247404, 0.4141583651771861, 0.6426224317150107, -0.42737685430105304, -0.6395092379873709, 1.51627140175106, 0.5938353753196999, 0.9956631504120254, -2.0497166690033417, 0.6779090872570444, -0.03502994205513829, -0.573936974760529, 0.4954164527536966, -1.0526471809659568, 0.9430558543362928, -0.12447303175625478, -0.046401516950171307, -0.6857928886217953]}, {"output_weights": [-1.2706861394459208, -1.4208129684236837, 0.11014629939320414, 0.024673074952732896, -1.2030379588040667, -1.1819621535873346, -0.7786983619599364, 1.560092352468458, 0.2118077330869043, 0.9959601199798461, 1.2993534942319522, 1.1856645873667593, -0.20004305310213563, 1.4593165195670617, -0.23610121278412216, 1.0924043998895545, -0.7612980310552574, -0.10419494707356432, -0.8037928056752, -0.8916081905419907, -1.3288273566432567, 0.6162976587659467, -0.025836769120352442, -1.3304956806184796, 2.7527528776318744, 0.5462099415288362, -0.6913174480007935, -0.6754664897275435, 1.0754571574780587, -1.0822353443300687]}, {"output_weights": [1.6999752950529674, 0.8825524073521639, 0.5838618834107497, 1.497627161496802, -0.3602392146910499, 0.04897578527181072, -0.12513267123100016, 0.47326878100445424, 0.4590957409963225, 0.5616757213575518, 0.4329869880388675, 0.5521580923989352, 0.7429238606979445, 0.8869374968119362, 0.8891031849520283, -1.5994349338520024, -0.26103032502287643, -0.7201748589934984, -0.9350215759586393, 1.599776930615155, -1.538219073246476, 1.447407132511988, -0.7894236272358653, -0.5595235009134488, 0.7499418136558422, 0.20661389446069042, 0.10456380020205916, -2.8257689397002723, 0.3505240340980273, 1.5366963572968289]}, {"output_weights": [-0.15386402102063687, 0.4007285723434084, -0.8974762892485647, -1.9557031780187613, -0.8711594645844375, 0.14468506063307818, 2.0379687173483334, -1.0410319313400178, 0.3214087556683092, 1.207077620212269, 1.0918984444077187, 0.14277639977520773, -0.1752806346616184, -1.1327820111702078, -0.5987869876496501, -0.783361335771533, -0.6352931442488057, -0.18322272325049224, 0.5406165491235289, 0.2778900076535776, 0.18724686121629724, 0.7593912149042092, 0.23149115222812713, 1.551582900517505, -0.7890573324973539, -0.2560609119059617, 1.1340025434069172, -0.5679815784407883, -0.7688324486631577, 1.3621427527036973]}, {"output_weights": [-0.023141669608741526, -0.9422399697143957, 0.33598521698531403, -0.2805588526346216, 1.410376359043597, 0.466432148620437, -1.0743303314803156, -1.1505850084101048, -0.45594650474555815, -0.9844965059827205, -0.5756891241258046, -0.15893987437337032, 0.23932224983316056, -1.6269633602918927, 0.40803539486399815, -0.7846476982799695, -1.2776960617683513, 0.37757069849001657, -0.23423614912289942, -2.6663779629917657, 0.4736716582119809, -0.30949393440704365, 1.5754970044383199, -0.5733893783787952, -0.4108092563233712, -0.7926166136582473, -1.30812879839536, -0.04272485047507957, -0.6526508084608258, -1.0106804582057685]}, {"output_weights": [-0.8133924685308734, -1.2043896052347254, -0.10609583512809517, -0.28109626922919867, -1.6365846891498315, -1.9864075507484071, -0.46146917222700096, 0.8454950792633156, 0.6135594394390737, -0.24944579287277885, -1.1298168774928137, -1.2349587332527194, -0.6630193985429242, 1.848303619065368, -0.2719350844311625, 0.44173222000383533, -0.774374738672649, -0.2677330960039084, 0.7689971869904622, -0.573216332673692, -0.6586931196305817, 0.05728089777231, -0.3379663739724911, 1.4586161793548416, -0.5272410520105981, -0.8756216701482356, 0.286510248247057, -1.4572943132541256, 0.32432162929493674, -0.1288200697683696]}, {"output_weights": [-0.35712632392204824, -0.029956182134826214, 0.09684909909103466, 0.398946897616044, -0.20860834984182391, -2.211728095131351, -2.10518646524477, -0.9937415370046921, -0.17157853650684654, 2.9606629870391803, 0.7857735048966012, -0.8139762310573836, -1.1959368711293132, 0.6179621944289355, 0.20167944957047065, -0.20622984373277248, 0.1665029246184304, -0.6181626857420939, -1.3197652103466668, -0.18313447100819025, -0.24560972168892248, -1.008872641363547, 0.16868240456447006, 1.647611869124272, -0.17800920839958623, -0.15647705342282783, -0.665187264416073, 0.3493799099919712, -0.99408272162856, 0.5854445229975396]}, {"output_weights": [0.80015434385593, -0.6545327827172484, -1.2488667010445844, 1.634109309916564, -0.7605940009888686, -1.8146952542052233, 1.7908125215154773, -0.6515313764569572, -1.5049637937040878, -0.076359036388767, -1.3640415864615025, -0.27082911393715714, -0.1823093434244702, 0.00307174527902526, -0.09348366105854483, 0.5668855094733589, 0.5407209731054144, 0.44749569341030904, -1.1968121322546588, -1.552954243495249, 0.2084704819041361, -0.49178950349692274, 0.48931554065196026, -0.8165484985289839, 0.7290416693694017, -1.0656040232958193, 0.7699901206805744, -0.7086538032576857, -1.9671914903119596, -0.30190045938586546]}, {"output_weights": [2.4927341054485237, 0.22680458952253657, 0.9246245474342377, -2.162257497935746, 0.9168077805841818, 0.45931162330658065, -0.18174260819021784, 0.7345797996164436, -0.252060316602535, -1.350252621879101, -0.2146166298959103, -0.3569146419203253, -1.265499149049476, 0.4383997039418639, -0.25232658576486494, 1.7154534760826925, -1.00301586454255, 0.1619824045673042, 0.09061043989965689, -0.1652485571338877, 0.5966838495497941, -0.15150172086534588, 0.07297420639717886, -0.3628663431709213, 0.026696798181182313, -0.6160907005032513, -0.3702613951867107, 0.6188858727527156, -0.37568827130240584, 0.568535825974434]}, {"output_weights": [0.13776484700748057, -2.172135933901268, -0.6103113278635375, -0.21775153782803866, -1.4233985906716944, 0.6799824277563394, 0.41310639720255105, 0.6240247779768412, 2.00173506739245, -0.8362742059868875, 0.9829585979888366, -0.2615251090963334, -1.064695314342915, 1.4141977344530559, -0.07354244531544481, -0.05298329541169014, -0.48487377994875513, 0.5535631767560585, 0.7430104415248435, -0.6517637724948148, 0.928205759828291, 0.8103364190439363, 0.2843126098369742, -0.07095219936071002, 1.527036475047943, -0.03365781009047328, -0.9589731064070163, -1.2413236986402874, -0.8530502624330456, -1.3347357090143455]}, {"output_weights": [-0.5946286861555534, 0.0453903858405116, -1.2814818187784849, 1.4052792880561338, -1.5658595902978536, 0.2874034242585893, 0.4788152820210513, 0.1835886976123114, 1.187116674003348, 0.6613076004345704, 2.1435639083894915, 1.5171484919404379, 1.3778055402297051, -0.32570047902492405, 1.1253021275430137, 0.5045608811236095, -0.545186119985557, 2.194082875306823, -1.03094673529764, 1.3920227000482486, 1.8224272569856554, -1.7202450847928477, 1.9780268003789014, -1.0863509913893779, 0.6134183172692409, 0.48451155064139007, 0.031009948568090136, 0.654727587786886, -0.03989685224113644, 0.32068734592677883]}, {"output_weights": [1.2053137770780022, -0.9231778880889047, -0.6391795267484147, 2.124887392212184, 2.8960601512086885, 0.6793674828982857, 0.9923834648623456, -0.9074133154799129, 0.4668679447309073, -0.051857133764656727, 1.2010034418294464, -0.76290910858882, -0.6946291698376035, 0.742876092834475, 1.3105247954614168, 1.445968482691581, 0.6679670416053114, -0.46756966624405144, 0.2779699935916896, 0.830153348580271, -0.8229414836739231, 0.5309697856882308, -0.09625308095811169, 0.2648662435011514, 0.20372192874150707, -0.5980418084886683, 1.2757930216255942, 0.0822663505386109, 0.37004177863816706, 0.49219885702223604]}, {"output_weights": [-1.0330426481959005, 1.8583411957004248, -1.8733678346465992, -0.1367043693151443, -0.3191234685443933, -0.4796305646972278, 0.09018756923132655, 1.5695359152763604, 0.7102525619834335, -0.5916724896933536, -0.1525355452775003, -1.5904095138795311, 0.4292609461171627, 1.8197725218430196, 0.918479911936733, 1.869832379389906, -0.0498070688609411, 0.8575800329367501, -1.0200734839330354, -0.3843173126528179, -0.5580872497137082, -1.7369770290112658, -0.21555110196740965, -0.840864757161802, -0.08210724737920141, -0.10116179892572855, 0.7078933314464083, -0.02186171588664906, 0.4395239582578803, -1.574648897461172]}, {"output_weights": [0.15936799489956643, 1.133206673930674, -0.15287657017921039, -2.2660811560464222, 1.9835998227211233, 0.9214292768427051, 1.1914500858259773, 0.42384367172947557, -0.9468297132266078, -0.19220460057335903, 0.7629463897099071, 0.5268979459881618, -0.9636535837199546, -1.468231561753384, 0.885936504492644, -0.2939973477004719, 1.0792129461062854, -0.8505213227340865, 0.1792169631604169, 1.183401962636735, 0.8685183011168247, -0.6385449410837032, -1.930697986615035, -0.4563176888502739, 0.5525457561240863, -1.2281381885316836, 2.1542481244622995, 0.41032065333885925, 0.06108847176988145, 1.7490091881765004]}, {"output_weights": [0.616167896103514, -0.8968250219265111, 1.1788818563497954, 0.1400925873789784, 1.2701794892071052, -0.8488720515578753, -0.1620933860959022, -0.30865630768204416, -0.42606290633777416, 0.27368069282738444, -0.1172322355441237, 0.9840585993002436, 0.7900605965402209, 0.7612357612934185, -0.44163311249274645, 0.014082519512285504, -1.5905810700395602, 1.4449983166883775, 1.3901922521920864, 0.11325463315786904, 0.14814535099853898, 0.6774915264346995, 0.33178572666209183, 0.5344056134746673, 0.11178426855840222, 2.0675127581673935, 0.31966414455246817, 0.6800466087313819, -0.32514493233344466, 0.6647787213462963]}, {"output_weights": [-1.7322738284841435, 0.12268717587261159, 0.19109342207601068, 0.031164748915343772, 1.296283974580004, -0.906794138296936, 0.7515251762334582, -0.3109343672480407, -0.360223565342872, 0.5258185392272582, 1.1093372017110752, 0.9246213798757592, 1.0812571005096645, -0.8335337913751094, -0.07459753928622948, -0.8396307610084669, -3.335991292267458, -0.8645380150507561, 0.2664685352096993, 0.1834316344042265, 0.5226730322109947, -0.5520603587757267, -1.4484130492968368, -1.088050341278463, 0.5840111328042151, 0.5230939023850685, -0.5231277592547634, 1.471476125789812, 0.060340329778509345, -0.9243803348812819]}, {"output_weights": [0.2563623460224089, 2.6146925952814515, -1.0307188437381583, -0.343387647495036, 0.3136923049934504, -0.3431925558968933, 0.7556551188092695, 0.1305614387765028, 2.0899398886686056, 0.3279874320621, -0.027169656803369767, 1.4028254334323276, 0.6440232716821325, 0.336803710190391, -1.794851198938196, 2.7420520866038713, -0.16931897826298647, 1.3346451979046585, 0.8993139206509698, 0.28981190341600127, 0.2753802466764352, -0.5655130504228602, 1.2650141661842518, 1.395679900053054, 0.35723105886662376, -0.7273145393695214, 0.3074740635667136, 1.9006469079683694, 0.07749690303248663, 0.03432002310582476]}, {"output_weights": [-0.38574543765406194, 0.9603958131338809, 0.3547486745232655, 0.933272237304018, 0.8758181432511869, 2.042787020499117, -1.4887140501733225, -0.4058115099156078, 0.15912049513943813, -0.43182050351677914, -0.9571750430876729, 1.6253915516150998, 0.6272209301577407, 0.9394671438733514, -0.917040991951808, 1.2346980894780184, -1.2500656226871025, 0.34084935173277225, -0.7276751344629394, -0.14936332451944906, -2.20423794425964, -0.4079703761457536, -0.03868217763181643, 1.3974388347236846, 0.46945690393211514, 1.7891791809261084, -1.8063993667841705, 0.6868639463068471, -0.36423495901204905, -0.10136104106849206]}, {"output_weights": [0.4821315575387425, 3.6340644969910234, -0.626231197189275, 0.24876014167353017, 1.3909914709586964, -0.6630887263880169, -0.6453401557181606, -0.16785578260074285, -0.7271616675377804, 1.1681989061398563, 0.7511243624279621, 1.2205377147174976, 1.0460585038285157, 0.023866960963227296, 2.0224852092382766, -1.054939196233031, -0.6314498659414853, 1.5578751988106958, -0.20606967934003387, 1.3733881990035168, 0.510386357152413, 0.8076073469771662, 0.1308150968356445, 1.4773766913689361, -1.051223455828413, 1.1904711010350646, -1.983425604766286, 0.4222434214276349, 0.1120778750026668, 0.01875398797213474]}, {"output_weights": [-1.5223188263853993, -1.3829879524072344, 0.13015799089453325, -1.0362911279090132, 0.8080461003323942, -2.1429399935878015, 1.1007499576858857, 0.40253050817662367, 0.5956632630221579, -0.30302452105006944, 0.3051149069159346, -0.6500234642796281, 0.8143019230736375, -1.0189164163230553, 0.44567083235515653, 1.0656249395054278, 1.5252602863184972, 0.5329318662168899, 0.36753476241760824, 0.1597986025419242, -0.38549315481916147, 0.12469655758126286, 1.2757114700129892, 1.1108833717973114, 1.2540348218719735, 1.1318852679108067, 0.9224253260088551, -0.3858859878471285, 0.6593174772394917, 0.8890484614899279]}, {"output_weights": [0.531120035403139, -1.4898024843055466, -1.1330782998695155, 1.4747727856655977, 0.02331632245726939, -0.5877294471185097, 0.5313958320559656, -0.5292786344083057, 1.1536578018801387, -0.9806108101509732, 1.1564383717243594, -1.2153310014076693, 1.7317467660490395, -0.638192819303089, 0.6971909490155911, 0.580315931030571, -0.9494327068255934, 0.563558090558575, 1.687107414924833, -0.3123882232321828, -1.2188385620108066, 2.3874812630226145, -0.7072293209127173, 0.743300297824767, 0.2709348154054992, -0.10047280143179667, 2.61330545196893, 0.09337290451907987, -1.49059186706765, -0.45747470152044706]}, {"output_weights": [-1.0636143233931534, -0.9167534605409924, -1.0506401719492482, 0.47709809482015203, -2.073765714994207, -0.8047972331959943, -0.013039208278761988, 0.04397683681613743, -0.8219151440751417, 2.248301678961444, 0.7993088984413522, -0.999221225240458, 0.5752193309703908, 0.8000130859197674, -1.5037880674666821, 0.33385758668414095, -0.5068507399650406, -0.8298449086378727, -0.9484356010525586, 1.3683529975818975, 0.4033855989421118, 0.8267525931177698, -0.34206398899186946, 0.5965203118777983, -0.3858625508861699, 0.7491121390386432, 0.7834590169284978, -1.3862236517403, -0.6859177769713782, -0.17379550749684408]}, {"output_weights": [-0.5468150145443761, -2.036086862149936, 0.05801867291209113, -0.8288862166540599, 0.10977484132462677, -0.484176374525577, 1.086345435958126, 0.6799238942502774, 1.9243278539871, -0.2745461515222655, -0.3443980361693107, -0.14867593464006934, -2.5180620048730686, 0.8225997953096243, -0.9852989262143105, 0.486112600165534, -0.3392314630929035, 0.30898063309774704, 0.609105538414829, 1.4550101871254473, -1.116347716973331, -1.7772295427018823, -0.49835057050582143, 0.463774835677424, -0.4614577559185954, 0.996040382501091, -1.2987447843678204, 0.6877107360009793, -1.4899088753995242, -0.4071398311206044]}, {"output_weights": [0.8007130377404064, 1.3902088585823675, 1.0680893200981372, 0.5543902211500927, -0.2513394804684241, 0.16063127092234258, 0.8946912320747676, -0.8557239594166917, 0.4282540111007713, -1.376235995917999, -0.3623328397788525, 0.4485656433702192, 0.41459966791954395, -1.6874899322396244, -0.06260341536037585, 0.37279020714264444, -0.8714318396118071, -0.709158726198462, 0.3716661657610516, -0.37558090727617416, -1.8327004648153313, 1.205398507540513, 0.43857102110901713, -0.13752952008994987, -0.31373843236893234, 1.347383404246758, -0.8716260570096211, 0.4295935600811322, -0.037331813761101305, 1.9475901502509616]}, {"output_weights": [0.6059725451628696, 1.1838418759458202, -0.20253210083188325, -1.1512892057154498, -0.8354107889504523, -1.4052497087560816, -1.1344396581547178, -0.6355406641833765, 2.2810730639754966, -1.5136896976328267, -0.062467424567265166, -0.8493150826817328, 0.19519456220171016, 0.7260190949527876, 2.563512364019511, -2.0528340549980344, -0.05273200067534814, -0.07054581687735315, -0.85673198034156, -1.2157536906461675, 0.8292115304011894, 0.4165232122959223, 0.17248154014587505, 0.6563073278218782, 1.4483210560397068, -2.072523078003472, -1.0617082553794255, -1.2805813691417596, -0.2299363005033173, 1.2161489530964826]}, {"output_weights": [-0.8483167842933027, -0.08247176215182359, 0.8983504977035859, -0.29033726553119726, 2.009887621850567, -0.7358600739759106, -1.1284382110984377, -0.49415800321164244, -0.9083797944864365, -1.297349942148462, -0.9439042738330454, 0.560125651932328, -0.15161738991408136, 0.3886191436319175, 1.174279368291563, 0.08667164727783466, 0.9157876232805586, 1.2953523751585911, -0.5589632224587008, -0.445421572189349, 0.36959918751549325, 0.816093276537599, -0.2175356651891328, -0.6815350560298772, -0.30412556296130944, -0.583000358823448, -1.2022417518807194, -0.04720702530936827, -2.230860798866926, -0.15534772065950359]}, {"output_weights": [1.047743642142809, 1.8286888246334567, 1.5171537131948658, -2.458485069556292, 0.5701276912158293, -0.8012126443522662, 0.4103987744996444, -0.024394493233136662, -0.11573816942094507, 1.0669584561401138, -0.6476772940613897, 1.1470944840961335, -0.9928740355428798, 0.4675060712326103, -1.0149783847037597, 0.2436531928145296, 0.01097304437730642, -1.8796268675217844, 0.09833539724439856, 0.3104988190790245, 0.16494698715205225, 1.2495074450353563, 0.1396273941855094, -0.7285728549203273, 0.7063940263558945, -1.3921443334572623, 0.6576109844245697, -0.5395786792337202, 1.2296839993948259, 1.4669161604569385]}, {"output_weights": [-0.12836889148565658, -0.3820903581572393, -0.34891974373502976, 0.9425851748455132, 0.8295093705053312, 1.5242535820360732, 1.234530198444871, -1.111093170602069, 1.268344431449995, -0.3727378694637772, 1.28682521678099, -0.2931800400190678, 1.5790190679995877, -0.6944405329358685, 0.05438973037441306, 1.0408499423257291, -0.6120194709706229, -0.7611998779392334, -0.5839447563500316, 0.6681748651864984, -1.781760434714808, 0.5793965037720784, -0.15678445471521202, -0.7004195442073816, 0.7685996515759035, -1.1760312211970152, 0.7309225570270302, 0.024607333090168052, -0.9539668437800587, -0.19040348406516588]}, {"output_weights": [0.6295761266133756, -0.29310438230289576, -0.9728279848641637, 1.033509291588904, -1.277901170187079, -0.03819991957141947, 0.07589217984901962, 0.4235509753538959, 0.5416798011202103, 0.03588463372088596, 0.49967663673448615, -1.7388424363431394, 0.2191674800199963, -0.2654397580886163, 0.5163769530381281, 0.15647758712262527, -0.5767928664859746, -1.310876026911578, -0.46520000875654816, 1.6655370088809425, -0.6037385859742106, -1.0964717391387782, -0.11610822323456974, 0.9464062400259511, 2.2416218120584652, 0.014861143919458284, 0.6284154319346734, 0.2568189674193063, 1.5051936448794079, 0.7321641829111849]}, {"output_weights": [0.44787023223485645, 0.44064510646577754, 0.5058042434800486, 0.38456367748751014, -0.8462266464826103, 0.10426484354711416, -0.879385981260478, -0.2431143065573808, -0.9501837736191544, -0.10749559237629844, -0.033564143458131995, 0.267617897665947, -1.9540067766627713, 0.581812220323875, -1.6103139156100308, 0.8123010132012338, 1.2232176112151625, 0.6575155524578595, 0.49995623061718214, -1.231738791314636, 0.13159617661092993, -0.030662321750676, 0.5454756284740525, 0.18699241808984432, -0.2812494019509709, 1.4479708672401324, 0.24728933856688307, 0.21455550660642686, 0.1332217769605588, -0.8127162103175338]}, {"output_weights": [-0.34714324776714744, 0.809597447713232, -1.6482010849415691, 0.4751124716821249, -1.2527591938347549, -1.2117937053169703, -1.5357217527909235, 1.6748665597688714, -0.19544495206444532, 0.08420211729881996, 2.347211965684537, -0.21949308467193013, 0.5131693219662681, -0.24134473329327819, -1.1983308222207232, 1.0070939604942155, -2.609244450504532, 0.2729947760583212, 1.578611528262819, -0.7795740727751636, -0.6087551115535448, 0.11177407644768123, -1.8153446725140931, -0.5422115924429596, -0.9745420564690561, -0.28099266785393934, -0.35197559947392004, 1.3438906740800947, -0.5516275806503046, 0.32475562917543405]}, {"output_weights": [0.5974008560021417, -0.529374642225189, -0.21292517061377517, 0.5238602589329077, -1.6360277483408863, -0.4007102239076742, 0.20064113612651557, -0.1347522163472773, -1.3225581601811476, -0.8607928414061717, -1.1871104257645673, -0.6570898945208934, -1.7311168954533946, 0.4584047910240137, -0.8263527479741837, 0.09039104954139833, -1.1483590158075352, 1.0655109770183788, -1.4419619268155892, 0.9884807305655364, 1.937723337400255, -0.07947589044069038, 0.4810998756310112, 1.2833554792677195, -0.6737423335295784, 0.2520858758400901, 0.6675437715649792, -0.06554268917270796, -1.2442370412903145, 0.6070707159315945]}, {"output_weights": [-0.43909697675144743, -0.2342352481178516, -1.0897451566827148, -0.5257580406824386, 1.4231821096598785, -0.26461931627525176, -1.8930901690033417, 0.32895340197887213, 1.8563608718179883, 0.059990175990364075, -1.0311991472722146, -0.9236381349330773, 0.3356387267729177, -0.29874211779858467, 0.26240726370673667, -1.296236935059786, -1.2930156178160355, 1.5529085971397851, 0.7572795236191053, 0.3083659430524934, 0.9692973865474936, 0.08384395638313985, 1.8082658450085265, 0.029866878979786037, 0.7455373196729712, -0.7757843512833401, -1.37168025233017, -1.4780047051728675, 0.20564643594671383, 0.5583456817676948]}, {"output_weights": [1.1459572034048346, -0.46844340963617676, -1.9640987121193272, 0.3362076966668834, -1.5424215601180626, 1.1470043601738147, -0.22982765534680288, 0.17020626965932104, -0.5503320965038189, 0.44888382295784474, 0.010653022830233965, 0.3512934581020333, -0.40724690638146227, -0.48277625907280114, 1.2801277475252697, -0.3952329889063634, 0.8928521036572586, 0.6216803478382746, -0.811466256297518, 1.6644745856544638, 1.0160987423528764, 0.8764740110228699, -0.198980268194656, -0.09963270658001594, -0.021956408445564183, 1.094812574050192, -0.4220945032749428, 1.4159444441526874, -0.2183756779789089, -1.9096800430482368]}, {"output_weights": [0.23538225718046524, -0.1798890255958324, 1.8859890101920038, -1.1146462373942758, -0.8016743370835913, 0.7492817406661451, -0.18860153479216318, 0.5345583911647177, -1.4525329113932275, -1.078866526365367, -0.5783862610330098, 0.6009425537037422, 1.3051016230698629, -0.36248842731801567, -1.1315303445472333, 0.8840298507917089, 0.323402450506207, 1.740248629496609, -0.9298041444779332, 1.2228720628849123, 0.25717804469045025, 0.4601411794461211, -1.0544463358504326, -0.18242686636898503, -0.3936802511142354, 0.42947165385827096, -0.10100248780380161, -1.9677610338145368, -0.697746411849684, -0.9947167942118705]}, {"output_weights": [-1.1137583494976167, -0.17180353115734287, 0.7646240895406116, -1.5719317896027727, 0.6066703144795993, 0.3600634396696567, -0.46647470475089037, -0.23679019824924924, -0.13801713861782175, 1.4794892862192288, -1.4067742712799627, -0.28830796837049777, 1.9001214185917772, 0.28286887673867106, 0.7581444870695184, 1.1509667542263369, 0.37686672369391994, -0.028695901520706002, -0.78533267319883, 1.7456080714436388, 0.45756893662940273, -0.3415253300771016, -1.2659955819561095, 0.9578134842909731, -1.3801941243523492, 0.4862809086521078, -0.7743176656712466, -2.2135456285645043, -1.2455843234929138, -0.8950636554659089]}, {"output_weights": [0.28871156393764624, -0.7801124641442326, 1.8710466090119011, -0.5523068901780211, -0.7506672890708727, -0.8667937402105975, 0.44396364805995137, -3.0154445798416805, -1.207970089288339, 2.5253756702759205, 0.35316786351921803, -1.3087567622239, -2.2988764131249586, -1.2226247508948564, -1.2803827894222854, -0.18424167889425525, -0.4750643433720569, 1.2033604141128256, -0.04938792011594965, 0.8687358512731703, -0.7721992050452592, 0.09430559208151652, -0.325313422970749, -1.011371413245202, -1.761028996317962, 2.8341641510377293, -2.376705463980422, -0.43974497225163656, -0.9377698879081463, 1.2656796685887144]}, {"output_weights": [-0.20598381078175373, -1.801509336545765, 0.2612333824721535, 0.1960350161291344, 1.4690990805541992, 1.5167880562099068, -0.22906380758360353, -2.1914170122498624, 0.3958944627559578, -0.2502742595669707, 0.3499639896669217, -0.32285841704077034, 0.8566225442076792, 1.264968947896918, 0.7331010986678418, 1.1155437709289826, 1.5174796012267218, -0.21484338466079667, -1.6635365561966324, 1.6540785753356508, -0.15895918666607564, -0.38751483910618795, -1.3729371960865457, -0.1000566069065525, 0.5683580104829947, 0.24269951685033397, -0.5586353783178916, -0.6388447097597533, -1.0578313539926163, 0.7541281657836718]}, {"output_weights": [-0.14916100808980476, 0.3154071469062612, 1.2911425263662144, -0.6326170157639043, 1.7063828548772277, -0.685039173201057, -0.5505540810338572, -0.4615690399634198, 0.015379681600796277, 0.9311772151154788, 0.7137712506484977, 0.5820220497730056, 0.5436344245791632, -0.42436913168527746, -0.14996340313956338, -0.3748375032243578, 0.7583266765337154, 0.7735993041343584, -0.17454463799327202, 0.6027671624661343, -1.4056862066175726, 0.003901763611204227, 0.034657158234424945, 0.7527508396670184, -0.41311025434673615, 0.5784538441959871, 1.1919995745027596, 1.1899279033779393, 0.2868243844327743, 0.5203392108531628]}, {"output_weights": [0.31388809410846863, 0.21303135533340192, 0.9885457907188434, 0.11019665790287135, -0.19870212664966952, 1.0412051333841312, 1.2736274347239345, 0.06674398787788859, 0.3920206623083793, -0.4655600827967471, -1.4614738356475894, -0.9756574976233148, 1.1202239543557098, -1.2763335986617816, -0.8758931063009039, -0.393540041760339, 1.2681209763595023, -1.2875084663560683, 0.17374705935948292, -1.8487104866524438, -0.2608880586927915, -0.21512030266831905, 0.5951867517506667, 0.3001223930117715, 0.5561755348014252, 0.22866007309136854, -0.4259372730080241, 1.8429304067221126, -0.03667242510462208, 1.5630162906330078]}, {"output_weights": [-1.7463740814669786, -1.068580753898672, -1.4159280875045468, 0.8968985601371753, 0.7302337162943752, 0.3224921069722026, -0.6930306355082592, 0.7038823670221105, -1.3123474712349674, 0.014314796378876173, -0.009184628695652805, -0.9592042333310773, 0.6433841440294719, -2.3801785839943608, 0.7442424855803553, -0.40578413979862316, 0.10318439125523567, 0.03229273351692616, 1.8482294661586172, -0.40628637135980533, -0.6003783879303786, -1.1533758555623075, 0.405749967579282, -1.8905773447807077, -1.3272770681764579, 0.8314524470909811, -1.320646250461698, 1.1086037756227716, -1.1349466887735182, -1.414564884448486]}, {"output_weights": [0.05483269259556665, 1.2011805134259608, 0.4190737791869518, 1.1164224955082969, -1.1926301295286774, 0.5619454715690997, -0.07096420443244339, 1.1188408977741942, 0.6984264370601688, 1.4732205950333237, -0.8838694571036877, 0.653057809798959, -0.291949710838466, -0.0629636634157342, -0.41246454776444247, 0.6457367726797035, 0.0268539691990682, 0.2838284930435125, -2.165793898222568, -2.0199456756310767, 0.026196055744607583, -0.760886364300325, -1.1705687822131259, -1.9294558474972536, -0.9892793247953551, 0.8233196732354918, 0.4265101409368421, -0.29545269336383767, 0.039068102108668464, -0.38078538794195743]}, {"output_weights": [0.2715969600136359, 1.8644628069467242, -1.7009554158431135, 1.7715640714639198, -0.48062197332220946, 1.0248460997796895, 0.6985858176220627, 0.9842643379785607, 0.7554384805024164, 0.5947525340031836, -1.8592085190400487, 1.2235143381362934, 0.059535059203693126, -0.3750835960292408, 0.6638896430391548, 1.0879366403963635, -1.0199771880061101, -0.2928934096423095, -0.19158942686880082, 0.37440670496957246, 0.23804771299768435, -0.6935067945695351, 0.875763429428806, -0.5448838703105839, 0.09442675825122215, -0.9705275754132596, -0.10294592506765722, 0.8785624801779115, 0.006860272074528613, 0.937510856343941]}, {"output_weights": [0.07185764407559914, -0.1665375394107759, 0.4324307619341346, -0.017511784665818257, 0.3194933253165492, 1.0652385350474718, 0.3751170668380302, 0.2884304854349648, -0.5326962040360217, -0.5155151019436873, 1.3649164139260155, 0.31878327953989866, 1.5439420069352299, 1.695135872827218, -1.0697054173380143, 1.6292122786923215, 0.2035751258094543, 1.5192670004286433, -0.9033508764795101, 1.206342664955147, 2.0464748425582266, -0.9602334673193805, -0.057954204048329065, -0.2409783198982914, -0.5244957270963458, -0.38263070820573936, 0.7787576117469568, 1.053611010622281, -1.249727266875746, 0.18690037361780748]}, {"output_weights": [-0.9054459453856633, 0.2255964936550471, 0.4726918773776394, -0.525097364125022, -0.8053882934821873, -0.12366128042489107, -1.243344143898179, -0.8186857084220062, 1.4211196614969621, -1.9503067290300946, 2.8757290194469647, 0.20014911986700842, 1.423405897603518, -0.8599836919449949, -0.3639092304138215, 0.20839230842149728, -0.6025991035107177, -1.0356741237096796, -0.00037144603013973527, 0.7238521488535263, 1.4463038252056424, -1.9407020094878173, 1.4924376081310173, 0.9336481856822174, -1.7727946500248988, -0.7039648875484692, 0.08999154901333599, -0.7659873554734882, 0.13760701540761022, 0.3597917571544103]}, {"output_weights": [-0.7194910108838135, 0.018301873510788578, -0.04463813504283109, -0.5506761707693686, -1.7386623123772857, 0.011902762263066283, 0.13571702799634372, 0.3356066097093225, 0.27943075823807084, -1.4795500574259428, -0.09967794502590036, -1.3281834614701988, -2.1496441627713483, 0.354375481662162, -0.2884972178160538, 2.5265714021934307, 0.3132877827104136, -0.7662695793096025, -0.7626315519898013, -0.890314370155308, 0.32300814925805704, 0.7093311568891416, 0.9424904095766091, -0.16388999871449048, 1.2698368079265583, 0.517056862071267, -2.3718474477660294, -0.5949056770523308, -0.07912433617712766, -0.5322073218021073]}, {"output_weights": [-1.8219764054744458, 0.2875484503847689, 2.291904466837289, -2.8073110589532257, 0.29002464862900523, -0.8094447876819415, 0.901162881531625, 0.5113030683936749, -0.43545023041696906, 0.28660927287538945, 1.2579749131515277, 1.005331275318481, 0.5158444779861309, 1.6406116468716598, 0.20175972516546234, 0.5944021782482666, -1.6897653364594016, -0.8767403782573099, -0.9258977511469825, -0.07939690015616338, -0.2369523731357686, 2.043134808060925, 0.9776518056624088, 0.5814461291416705, -1.1127375140313558, 0.10178342544765738, -0.7165832529368483, 0.469600834283547, -0.050311081388489685, -0.3329786905363144]}, {"output_weights": [-0.652961001029724, 0.004610514795681865, 0.23785581473243983, 1.6305814224157136, -0.71839524320321, 2.424172178884333, 1.1350657855987907, 2.1510932816891595, -0.09738352385002318, 1.5983105242931852, 1.023218669506565, 1.06940532499593, -0.1797278518235124, -1.6532946605828596, 1.2952501840785022, -1.8417436273105647, 0.027006728729457374, 1.4654057476734461, 2.1987898553579006, 0.8848123363734174, -0.6828039475958108, -1.3112094468687798, 1.296005807612237, 0.6402835365109751, -2.689845707276617, -1.4855466176877294, -0.22706509323033985, -1.633000350841373, 2.0505029210510743, 1.2246935224533977]}, {"output_weights": [2.29922532124248, -1.4684584802391882, 0.20551114170026136, 0.5040512034821556, 1.0170241025377629, -0.3581398873623086, -0.7689019188353772, -0.28275554297276057, -0.6538085692064167, -0.30602970293671916, 0.09558954465018604, 0.6802912541729781, 1.6185437259539452, 1.9091969351116533, -1.6931316421824294, 1.0226873576012316, -0.21075909250944336, 1.2077580509360037, -1.7264005088134915, -0.35507133422452686, -0.21289450280704492, -1.4234258646760307, -0.47484212047161845, 1.1560193014728275, -0.053213074225427336, 1.5326046398556772, -0.9177689753989781, 0.5578420855872684, -0.3687556255033408, 1.4917553114851452]}, {"output_weights": [-2.404706746033688, -1.0680159956936905, -0.10163382640263893, -0.5667229764618846, -0.730238047675527, 1.0075358563916705, 0.7745633557356693, 2.4225881523863033, -1.0448024773555267, 0.6343589141771162, -1.488570393309796, -1.7801015506233047, 0.6401927979906264, 2.141704211528313, 1.4246406022032758, 1.581475918372894, 0.7751250415684696, 0.34074214409488485, -0.39497026115108624, -2.4186231519795274, 1.1519523345959826, 0.7382171475447147, 1.8233206036876888, -0.25478553540089605, -1.052784936276544, 1.5331646736936242, 0.7629838626802731, 0.35238164150235646, -0.12204970933428555, -0.7348688190717466]}, {"output_weights": [-0.6600863919911004, 0.15429693215577353, -1.6892851097235915, -0.10146740467963258, 0.2175700118664245, 0.9296783567706831, -0.8215098461390349, 0.5346422827430634, -0.45612317160032106, -1.7588245543013825, -0.41045941888800835, 1.2082622645577625, -0.5381052695381868, -1.156210872356581, -1.2977825086325265, 0.07281981454909565, -1.368511412344434, 0.9285319470111724, -0.3616846335406801, 0.4333891318520073, 0.4934145927430636, 0.6890289727422616, -0.507309930752533, -2.033970697251638, -0.29984391758107415, 0.3544575018234338, -0.44452748500493694, -0.7613193528266586, 0.7237331537434173, -0.4994534671070102]}, {"output_weights": [-1.011170503230586, 0.5316851891456493, -1.7638703793999113, 1.2430863488401687, 0.4551365305434442, -0.4205772429646568, 1.1063846156347041, 1.0034815436181463, -0.3240111417691204, -0.21192252738422268, -0.46559338113142923, -0.8497311985369156, 0.2459703473947439, -1.0686327851932016, 0.9139128577189676, 2.271042623247352, -0.12202602651872181, 1.5048729913802399, -1.3491784782573952, -0.35034511288364445, -0.6539251805423281, 0.2057349006907416, 0.8562233312696481, -0.6409013900375978, -0.21166260883414528, -1.9573410077864248, 0.3044330225708568, 1.2807484288383228, 1.2249076801505836, -0.1847324009937238]}, {"output_weights": [-0.5161910884019942, -1.051269264750798, -0.35696520369613455, -0.581658811989452, -0.5167453784243434, -0.7842677705875895, 0.08717620712140547, 1.2930374375992513, 0.9088974586062543, -1.0464986129917802, -1.6361665763833728, -0.03409995380493124, -0.6256871423899397, -0.22555549890869475, -0.13513629897097312, 1.1975925718767586, 0.2803370450679814, 1.0436512415295647, 0.7101814029562427, -0.4699203235626298, -0.08935024230769269, 0.08989498111182948, 1.6672080961765823, 0.34606262569552937, -1.2983299664626433, 0.7297153651710011, 0.42858737793038026, 0.6033127043920442, -0.7315953750631528, 1.6658894557947845]}, {"output_weights": [-1.2372723850092495, -0.38788862787174233, 0.525812741515054, 0.5336660655407253, 0.34965074354951947, 0.8291200253268104, -0.4842534530895965, -1.3223728082587702, 0.13290713733018922, -0.32068145092249895, -0.7467698230404767, -0.6392087213202933, -0.5278292445387757, -0.4020678092746519, -0.2284334524471365, -0.8954356349322149, -1.4770877696333635, 1.6638457244201337, -0.13595696048702377, -1.1454262013583938, 1.3835713924052941, 0.026273030285226203, -0.24326839712312381, -0.9042072433224436, -2.056622400458473, -0.6667754136797107, 0.026753936737772387, -0.007656051442594345, 0.22307075269246593, 2.058562438325752]}, {"output_weights": [-0.8537027402717199, 2.3832394057685997, 0.2899059467128597, 1.4270566606375346, -1.2031344409065958, -0.464459569316021, 0.577739255407126, 0.109439569700447, 0.4576541292392039, 1.1410989667981983, -0.10970321418113763, 0.21318556767027547, 0.4359273154460212, 0.7221554933521624, 1.2019976761551974, 0.24976304416389655, 0.0718808573696364, -1.3480733110779985, 0.6004971730646013, -1.0482214316834502, 0.36658465396115014, 0.43694551984896346, 1.0079824949478158, 0.435269081492569, 0.027109632379808016, -0.3101424113054852, -0.2950943748169067, 2.1064642458895353, 0.30221949630549116, 1.0639831755268128]}, {"output_weights": [0.540963370369214, 0.14139895400431737, 1.8965894914233143, 0.20339432747811273, -0.03707183236010979, 0.8202436560280966, -1.0645397570924207, 0.7144905244845003, -0.2596783303507054, -0.023414712718343465, 1.0130587331829795, -0.322505701784368, -0.15854343340267404, -1.619425947232464, -1.152390700557179, 1.8803541905121586, 0.01747812644565553, 1.2977117902322857, 0.4372671666148383, 1.5960378806175433, -0.0580638885207613, -0.6396752760829464, 0.7596523843286788, -0.8921391801315904, -0.9345306688482037, -0.4883833741182142, -0.49787837770151544, 0.6372035545204466, 0.6958437456516784, 0.48176651874377197]}, {"output_weights": [-1.1991166692861202, -0.8204827350478621, 0.7549079935409686, 0.9662498878313749, -0.9652897215205122, 0.3527661507529143, -0.04161287791102551, -0.8466196409985344, 0.13621616166834047, 2.0159094654268794, -0.8163655747182476, -0.3784367394341115, 0.1843660659739092, -1.0196161454035622, -0.22800564862148257, -1.341730528520718, -0.5302104865849678, 0.752923386034434, 0.09311799365182913, -0.14633871845014193, 0.9032447415358573, -1.1063103340701477, 0.5463427193465197, -0.08677119690949824, -0.5639380633911609, 1.8149893572873914, 1.182599239831898, -0.3288206498428975, -0.1272404134995727, 0.16636478004351177]}, {"output_weights": [0.7017966810834847, 0.5673895671887208, -0.5107205094734538, 1.8354342168586069, 0.5850589343082635, -2.931602302339391, 0.6468134940679584, 0.5013501608290604, -1.1677209850434673, 1.4754805822392207, -0.9948482066996421, -1.5494470686840989, 1.0196567427825414, 1.0786555112129943, 0.1717868898897005, -0.13186178175933091, -1.016819197801219, 0.8807880763857631, -1.8593880650517483, 0.01400999844087567, 0.6157631652574149, 0.28410007639473916, 0.6126846498684374, 0.7582235589233267, -1.1741468354989695, -0.5627386520227016, 0.9409052586148294, 1.092910702499668, 0.4116222086160703, 0.7489179031120744]}, {"output_weights": [0.5972578142237913, 1.4204136170653312, 1.5173561010956398, 2.7496133045036157, 1.3189294008803656, -0.7798921057266188, 0.20782405063893017, 0.8139331823235335, 1.1719788850847854, -0.8070875946928492, -0.7395515605630955, 0.43859865905694495, 0.21277236705348593, -0.3882389787513706, 0.35510937776288, 1.0624415505689504, -1.4017377637134283, -1.3523669821257047, 0.1597273148010219, 0.39184627767364966, 1.3159231429704192, -1.3170821767837877, -0.4196429355358911, 1.308957187911737, -0.46169390767112034, 0.21819232870297922, 1.1133181413747542, -0.14414662825845528, -0.18277058482418157, -0.5110054346289211]}, {"output_weights": [-1.4685040725815852, 0.04424876508975942, -0.06264177162219696, 0.5896855116733627, -0.5441090367541733, 0.4288610983626164, -0.2246144385407593, -0.1576236146904748, 0.6801957474547932, -1.2787676944120698, 1.7647840218954658, 1.8464762497607374, -0.7442355006422673, 0.23625505030419092, -1.9926402404236772, 0.9247977967264434, 0.9643979191997452, 0.5602402899453909, -1.944569775907179, -0.22899068137888906, 0.6074066144612934, -0.32642234488959065, -0.2877988142132665, -1.415661652229205, 1.7077690977499973, 0.8493417828881582, 0.7379238484855883, -0.9019007844573806, -0.12822246306178509, -1.280281036838992]}, {"output_weights": [0.40460359022856796, 0.1080529068542883, 2.39860625390713, 0.643358083536585, 0.35533586808346007, -1.0324161682028008, 0.1823638967219219, 0.43719596694445956, 0.7937675067984288, -0.0745349628879896, 0.4895994610573965, -0.7844781017696129, -0.9970729556317249, 1.2138004835506027, 1.8524083426104427, -1.141381047217427, 0.6477250684315371, -0.3299279834947091, -0.060575225543385444, 1.0971917569434817, -0.9346042718611436, 2.1656146381040773, -1.3119316023638032, -0.1487329381750042, 1.136984850524631, 0.14937354598310434, 1.0996878904847305, 0.06999843126222748, -0.9056613710237952, -0.14914486809794092]}, {"output_weights": [-1.5634638946871604, -1.106344385969276, -0.14368535497932292, 0.06302012840575298, -0.30345154961155474, 0.7653650150868916, -0.19777635249806688, 0.18300526108088722, 0.41150852275642236, -1.7161573732925457, 0.2342071141473358, 1.794100010058694, 0.7023363233013687, 0.005954778554646053, -0.22572532832200046, -0.17294741512903053, 0.3984288356042518, -1.4899237433028696, 0.4986372544704267, -0.9325971519316342, 1.0606582697591007, -1.0057432026972721, 0.38248414635669753, 0.14589405754582463, -1.26982659744275, -1.488135697272022, 0.014924736744619225, 1.6055066742145097, -1.0893464864851343, 0.6444689625939624]}, {"output_weights": [-1.0733491169094718, -0.6691628185915042, -0.08661332827235986, -1.4125323911928365, 0.5811704747437015, 1.3811745017530268, -1.157085413447961, 0.5655753029640149, -0.5708805150477434, -1.6337222223688292, -0.023079899144686437, -0.04300488193107126, 1.2787279166205952, 0.26719895390201015, -0.7534348714792161, 0.3860653127401772, 0.718846253653665, -1.2235247720494058, -0.7451584956993744, 0.6600773456822342, -0.6853579415542086, -0.9919761655480235, 0.08167912338641, -1.6405386518187854, 1.2082181189928467, 0.003323081944391107, -0.716015280072423, -1.9672306565552733, 0.5424627629647387, -1.5309202262645336]}, {"output_weights": [0.17142296347436575, 0.5354905454416303, 0.4219625217630809, -0.822333011394512, -0.5673622170698741, 0.3823318980630866, -0.9604944435714245, -1.3773522226933723, 0.27850698820981185, 0.28476042318314937, -1.0293691767389355, -0.8583419247337488, -0.27155405132363425, 1.3427784320919078, 1.983851083847124, 0.22011105669853198, 0.492021965983325, 0.9685025070165932, -0.5804728448866175, -1.710734529258735, 2.855927934694312, 1.6046678292974834, -0.45437440869081736, -0.6599263353248263, 4.715089901118605e-06, -0.9200159106725052, -0.6842902705123592, 0.3796967233928909, 0.8633086907828899, -0.4916341722608049]}, {"output_weights": [0.8643091013980103, -0.34896308817256244, 1.9166879438452793, -0.7994259224590832, 0.37417620690010045, 0.04243703167553181, -0.7216078799551884, 0.8288151607719233, 0.6270735991482574, 0.29138691575897147, 0.0310406957992056, 0.07487654023392085, -0.1293751893132386, 1.3303391120967767, 1.2215557525665237, -0.7346530799212124, -0.3042680107851776, -0.9496009857925906, -0.09488905146460846, 1.5731942892377162, -2.091351821761599, -1.4376163544188585, -1.8434784733049363, -0.6022195469263805, 0.03595260149486358, 0.30679396920379337, 1.7215646265874551, 0.46378836200404433, 1.2186063452177445, 1.5555998393089931]}, {"output_weights": [1.0743672846477261, -0.08662757201069785, 1.4045878788013597, -0.20321517568741104, 0.3422363470362189, -1.2789511456881282, 1.389308697238221, 1.610693700653858, -1.3127330215217552, -0.41513903404195873, 1.2212026917299057, 1.0159447433022377, 0.18550049176694428, 0.717096307133134, -0.6884544674414114, 0.3347223559626371, 1.0183749493274479, -0.455122411115872, 1.2973085518157441, 0.7542414668168315, -0.0891167165636757, -0.04445331453795951, 0.7519837761415394, 0.7171291418652682, 0.12189466896138035, 0.6418554463740795, 1.0186041455843269, -1.8556505880192458, -0.5657822883750485, -0.2039644575927138]}, {"output_weights": [-0.9862872503807681, -0.8558893935842593, -1.1333175252338348, 3.237154547343987, 0.32937005155709187, -0.24952376775419619, -1.4828104123895942, -2.0482707677208256, 0.8455592788254107, -0.039625843919259225, -0.49361056801773473, -0.6662852059273838, 0.07667891367055983, -0.058141887911110086, -0.2746450044032459, 0.024766713901207292, -1.9281615901604272, 0.07369714432360028, -0.375908315203325, 1.5065524943125927, -0.46173704769817536, -0.9899915826824053, 2.2809009551273305, -2.221682699700125, -0.12804031495725152, 1.4315263763480612, 0.207175662601839, 0.572370575846132, -0.27349566919121615, 0.20824536756896742]}, {"output_weights": [1.5979933640706576, 1.2458233831811834, 0.65618142825589, 2.324677663113883, -0.8386082600311092, 0.10582237652856344, 0.9965036321143353, -1.1886205701241404, -1.1320563636794718, -0.1753798051597242, -0.18977189708152536, 0.02941909678377789, 0.7664083411654927, 0.7593475166812695, 0.7159162541298866, 2.144674723635243, -0.1201211219455072, -0.692877357364256, 0.33743699481184003, -1.8267761177051047, -0.0719397072163945, -1.1434389131357303, 1.4626796927114787, 0.6718284147573415, -1.1090139457441162, -0.10991835072312399, 0.9945591183531524, -1.4759768222257676, 0.591657509511988, -2.055503826782172]}, {"output_weights": [-0.35185028042969324, 1.3763370916663822, 1.6573651168517949, -1.498092431907309, -0.1981332031380775, -1.2847338991046464, -0.9895767118635251, -0.843953357177264, -0.7587997083465684, 0.900453210525923, -0.2639871826825523, 1.1147053702306295, -0.9076844128608872, 0.7500370358282514, -0.8263548289374419, 1.2479219842866072, 1.806319868565894, 1.2904087962192987, -0.012556583752056264, 0.10941952143866666, -1.4820645732673186, -0.15484980038214938, 0.33817504367440115, -0.542680906046099, -0.8754105795423016, 0.8069637794641843, 0.7278439665010126, -0.9700192546164919, -0.5995332276683678, -1.3377789144026633]}, {"output_weights": [-1.021891092079891, 0.2919249496712945, 0.11772335019074083, 1.646252593932386, -2.305725429518407, 0.08569775449621142, -0.7219470246165833, -1.0500692566674532, -1.4468686496870338, -0.4529625847141956, 1.225915326434299, -1.2575206129963006, 0.13360789258867334, 0.3594238874017257, -0.6370612459120387, -0.3329419201819883, 1.0291436901436122, 1.3926268458760631, 0.8463644878353432, 2.017508076486505, 0.5016887458479659, -1.6460301628928729, -0.8005120049266831, 0.18484453177386767, -0.42895673317061417, 0.175949276828781, -0.40737796910678786, 0.3632410316459256, 0.415621864958596, 0.6261333742585838]}, {"output_weights": [-0.3962475743669116, -0.8204763298926159, 1.3553380022648696, -0.0014737003516565807, -1.0211219314217346, -0.16132831905756653, 0.9892634760459441, -0.24638636735050035, 0.6048427879759198, -0.604159903254175, 0.8796141346872673, 1.072929078900392, -0.890614344568751, 0.9227851764225039, -0.30746804499792146, 1.3825461577039917, 0.26823389274340886, 2.021940059926624, -1.459766625444195, -1.059383915775112, -1.0108351963861988, -1.222133580420904, 1.3472891193722047, -0.47371146100608347, -1.6527189606882748, -0.02510617577819754, 0.2838069471642088, 0.8244077631446161, -0.26051849649914427, -1.3191764061055375]}, {"output_weights": [1.5596838764960594, 0.9702783446663321, 1.4350577629562038, -0.4278134682467902, 0.055638690592518206, 2.234349383987387, 0.34333997190032867, -0.42331740016168273, 0.1618598955706935, -0.6186893214665731, -1.3537787516074273, 0.3352854364854958, 0.3097113754077113, -0.9125973309864231, -0.28551405674144964, 1.6395753592593718, 0.9617751950344744, -1.2568839602154642, 2.2897904187864238, 0.6407683197601585, -0.4230997865121471, -0.6206985799800955, 1.1751433806314642, 0.1137238759378538, -1.0643984147242098, 1.2437997152202476, -0.5491342607691294, -0.8319988190855957, 1.9317074166780848, 0.7790698274226379]}, {"output_weights": [0.9941284119270676, 0.456897693215967, 0.6454027041414152, -1.6427026744569766, 0.49359904763628376, -0.9842733737179677, 0.17072489734777263, 0.8898819795368204, 2.30774661008329, -0.12269336735957928, 2.471696094830549, 0.20323597190119805, -0.9132844099551425, 0.41957978409890395, -1.4364177059469903, -0.16199335678309287, -0.3794560171007498, -0.4344031043494913, 0.022353019244227067, 1.0620407522296507, 1.0231918521098704, -0.14728208747738508, -0.240686623247286, 0.17221875414724244, -0.2983161545729014, -0.11091032776808626, -0.3157587772995381, -0.15714745556144985, 1.0009148350255745, 0.5247414278940613]}, {"output_weights": [-1.6536445282254995, -0.1379371926837198, 0.5063674807728404, -0.1891812121399031, -0.4351847819294338, -0.5740322477242468, -0.455348495788709, -0.2727427261358852, -0.04503865241757196, -1.1936590570145935, 0.37339942247118346, -0.019213878203159396, -0.23723136337876227, -1.4664714707468622, 0.54784241627488, 1.035040519771789, 1.0148507653271728, -1.3102744724633177, 1.4808104382713307, -0.5996724107023709, -0.14343988739307714, 1.169655353574798, -0.7648913943982134, -1.603274854397346, 0.5191628841489978, 0.4878486390952897, 0.41946157187870087, -0.6826022616547486, -0.11250804885511717, -0.6225880734746254]}, {"output_weights": [0.1581900946747161, 0.27592104086219166, -0.4498899038710048, -1.75865230679002, 0.8220059431668439, -1.4609935074162748, -1.4982009121894275, -0.17251287734613802, -0.5146518011667836, -0.544822956511044, 0.22755734622479162, -1.2435073249396758, -1.462365376712285, 0.5200715061430004, 0.14468707035703401, 0.5566871550662817, -0.5170912086684454, 1.2008640166624154, 0.6318892459455702, -0.5543548986214767, 1.741184940473525, 0.44273603145403106, -0.8147275533193441, -0.6348201822180549, -0.965014035946414, 0.582385072374206, 1.037417042752388, 1.787051854445648, -0.00104508964718601, 2.2331826224100744]}, {"output_weights": [1.0998805221213845, -0.6956336267902108, -0.29306937510562325, -1.4864718681736109, 0.2595847931684081, 0.28309867248489007, -0.191859026522481, 0.16143969237932834, 0.27601097153769727, 1.563981153408839, 0.2347041066701471, -0.9010657643289068, 0.895113562358449, 0.07635738607776911, 1.1607674485300914, 0.3851824066048193, 1.5987105055434023, -0.6068130300366306, -0.487040491907979, 0.8227039705423055, 0.008600146137529107, 1.6484558504956608, -1.0315085340763255, -0.5855970289232222, 0.48802590800404544, -0.40271543865490994, 0.77347342788417, -0.4969724506456444, -1.146401577528937, -0.4017943312013569]}, {"output_weights": [2.1868239891286274, -1.1297148022184031, -0.7069510030545273, -0.028584257224591344, -0.17464796258194956, 0.9125927919930026, -0.9002872290034967, 3.0704590774689904, 0.0048711893017361904, 0.7494125186317404, -0.9279594498589921, -1.346048366804843, -1.2931017628167967, -0.7248187099065715, 1.1923395030748016, -1.2314082642717978, -0.4075082056032717, 0.6051259443987768, -1.1633621387959459, 1.112989927221096, -1.2272122791970657, 1.4392832401093356, -0.8157529842380227, -0.8360697494940875, -0.16002216790147986, -1.0740873690961588, 1.3114732536377696, 0.6176911415979304, -1.8104204660812653, 0.2159876923709582]}, {"output_weights": [-0.15080436853904416, -0.3234760424492498, -1.3950357403210147, -1.4867803843886627, -0.05558749668444954, -1.071321988643705, -0.34550578884677885, -0.22632362251036278, 1.4595297968676662, -2.60898050552451, -2.2614159890169003, 1.1927757423842047, 0.21618357623612816, 0.11775232483003914, 1.2332945289348587, -0.4853043403671853, -0.8017594474825857, -1.6067072689008415, -0.24324073243964345, 1.0940880166075662, -1.5416544124108877, -0.5112396625736214, -1.9874083139505143, -0.05449206049882117, -0.25506569103618654, 0.25602189291320915, -0.604630051791234, 0.9510815091079919, -1.0869456578197816, -0.4693632440459955]}, {"output_weights": [0.8436734864450283, 0.42748538119509705, 1.070677149050103, 0.25530750271601066, -0.6318523387475268, 0.20404439129762422, 2.153924874667741, -0.09804364578082331, -0.7503521279312967, 0.3270850877485612, 1.6306926871871932, -0.40384377930618515, 0.8969133363460071, 1.4247869947267298, 1.1688414156385871, 0.5225587401479173, -0.19517578744260494, 2.2291314946933896, 0.16521477094857318, -0.8902615417152855, 1.8886539448639796, 1.8728880464103548, -0.056597941079403934, -0.3966228597122744, -1.0429875526359127, -0.7836741733807584, -0.08415382562565041, -1.2604556586377864, 2.6825601893477455, 1.0933592750388257]}, {"output_weights": [0.5200264978909184, -0.6748979363894768, 0.8891475043837328, -1.2383833837184737, 1.619968207978386, -0.027019747495849872, 0.4936078504235017, 0.258418731319284, -0.44329649703062807, -1.0183049396097301, -0.2230534202592592, -0.9391705630620478, -1.4269429381047791, -0.8832894673564564, -1.5779007538801646, 1.2197110568818494, 0.09967360225208725, -0.5085688563112752, 0.6380161534294326, -0.09858992674679418, 0.3608282868254935, -1.7536995359835887, -1.2120535239781054, -0.6950981436638897, 2.2512109826486446, -0.9280279046599803, -0.37426249271184936, 0.8274151958886614, 0.14843179621204028, 0.4970817280797089]}, {"output_weights": [-1.0494630562994138, 0.765552497663969, 0.4268369699864314, 2.4345341368562337, -0.44313861685373174, 1.3266472480448988, 0.10719493157927121, -0.47756334672015716, 1.397896848665865, -1.414566040867687, 0.369264483434592, 0.2214225886184503, 0.01817589534045668, -0.6687846769801591, 0.5509623388400906, -0.3578893620658143, 0.17009194242682402, 0.609679997186317, -0.6576591992791028, 0.6267140300565699, 0.05852641420304096, -0.8367261906640864, -0.2499317772910789, -1.8728515293214214, 0.8362097094217195, -0.12192054657247724, 0.09157406664595431, -0.1566268000367504, 0.8736737044337471, 0.5177888088680714]}, {"output_weights": [1.6679043158759612, -1.2063965425768186, -1.7257677039373909, -0.5970824288622145, 1.4809251005357402, 0.14973140240625288, -1.4295478757288351, 0.8358441887733232, -1.4162901125684861, -0.7891393576939025, -3.070798733402798, 0.7050847057288925, 1.5176415699154102, -0.7924403721574187, 1.7291145729331028, -0.6707594208371516, -0.6984541220596737, 0.6421197640796656, -0.5503902657517032, -0.9802404960319374, -0.2898896425908967, 0.2480771298928823, 1.4493574046950424, 0.14907597044497756, 1.5381787845201405, 0.7717715610305301, -0.839224789282134, 0.009905917226134804, -0.6106552808597929, 0.9227175070824071]}, {"output_weights": [0.23559717433923053, 1.2710435703605387, -0.8058438762235142, 0.6131091798849599, -0.6026009808323266, 0.9754046942579941, 0.6993359337878654, -0.6218252819823101, 0.2884257255875057, -0.4278763365924753, 0.14169593100460837, -1.1857474761596332, 0.18828301916259643, -0.10906278639020445, -1.0170742659805823, -0.38269773962239684, -1.3671836238890855, 0.048530378360616605, 0.5693788100666493, 1.1994421936683863, 1.5883678922363456, -0.7915589480139024, 0.26465130633069694, -0.19437183802967065, -0.6133485632780108, 0.4640373614391776, 0.4764517787018209, 0.9583280168385515, -0.5329292386798856, 1.625467065087139]}, {"output_weights": [-2.2201284317827463, -0.19756055253302032, 1.4554345731672773, -1.2320000444668266, -0.38371405044056694, -0.6581033360117536, 0.5840564684674134, 1.693592635069309, 1.0430673643621475, 0.8497779336880491, -1.4562629921409032, 0.18598058217125327, -0.10778228197427234, 0.8299633000595411, -1.5016128567271987, -2.775775460187771, 1.4862872010584995, 1.4578013041287061, 0.07421266225755417, -0.6988137341006292, 0.16254150208220497, -1.0729877776881525, -0.9565505526036095, -1.0060126436792738, 0.8166789606064466, 1.7926643182031803, -0.1525341683523284, 0.20557033791397827, -0.43399314042549103, -0.26561686126464396]}, {"output_weights": [0.4598397242951929, 0.766285891027415, -1.1256372525433123, -0.17646485661157293, -1.063550362978354, 0.6261545561310731, 0.7711513480179685, 0.8606178609240971, 1.1596323083420297, -0.9105703168087935, 0.1176310580559768, -1.3970883116153323, -0.16165066254791982, -0.6730027846468082, 0.8902567526714085, -0.4833987716105821, -0.77160573484979, 1.640725343543811, 0.3298127730241614, -1.1424841615459234, 0.3536313762522745, 0.5083743493170724, -0.1552732758003499, 1.7201835982365639, 0.7923981229734146, -1.5692788450542647, 0.3897568395396695, 1.909425264113199, 0.6631263291849433, -0.13135996963115834]}, {"output_weights": [-0.33590538504336265, -1.5800931254074906, 1.165374659094462, -1.5386969668847699, 0.18602782692767716, 1.3291533039485428, 2.7982506800651534, 0.6110728398862116, -0.10451495570929041, 0.37313962301947307, -0.4243661269354597, 0.1306398623908908, -1.5652188600317785, 1.4676873948931468, -1.0887872709455615, -0.6285099680785483, -0.9053302114851344, 0.370119971337055, 1.790597542383747, -1.5203502351435887, 0.4414579810774006, -0.21268265677129675, 2.082738923659721, 0.598839636866527, -1.0290763105862393, -1.0741178602662131, 0.22564135375974198, 0.5637797014683148, -0.4493051411473572, -1.3851145718157014]}, {"output_weights": [0.9042167006118246, 1.587755212574223, -0.46775102061686785, -0.04465689331779007, -0.1853600972547782, -0.08296626932893728, -0.1325919021086095, 1.0324987312911191, 1.0384360933725751, 0.9686704023734923, 0.01614129855777563, 1.0709351928369524, 1.8399809386159975, 0.6867286041646933, -0.1713333719900014, -0.45895056746585006, 0.3805791928326377, -1.9246587446676195, 0.7773276063043587, 0.9423989798100753, -0.7635334933841056, -1.6229316948683046, -1.1360985507080867, 0.07041591273158666, -0.39360809598758506, 0.6108574881877111, 0.8447759497443755, -0.7375683866046077, 0.6939630506751215, 0.6547814999336302]}, {"output_weights": [0.638555588139231, -1.5694587440704697, -1.463148894078113, 1.9624379518171589, 0.4595528498605121, -0.8072483977183605, -0.09387118763526109, 0.05989498419111592, -2.4709777805908986, 1.0732854861656502, 1.1011396653410694, 0.33822556536995557, -0.3767431414946877, 0.8400228739532688, 0.3681983306345982, 1.4513500739937646, -1.8996411236900765, 1.5096706810364717, -0.8607790250869564, 2.0321042080242813, 1.193787675395795, -0.046134672983699866, -0.4614298677135698, -0.668285080278614, 0.8470749768751187, 0.07153690274405021, -0.65400259099511, -0.060543757023608105, -0.04478305004807703, -1.1415802233320294]}, {"output_weights": [0.12197608985309183, 0.20664362213606385, -0.22795764580901445, 1.384425105147733, -0.3119391244318432, -0.4417078040547837, -0.1973718086247955, 1.5601280276481073, 0.04919923959848879, -0.21016410777196323, 0.5776575499012971, -0.756057683192825, 0.6316841582868198, -0.3874656799140598, 0.5261112845884588, -0.20620465994819087, 1.3832264555010139, 0.8745231084246078, 0.5046502875173249, -1.9307577537732132, 0.7225124443521034, 0.910130923486917, -0.5289231529839244, -1.884981800786902, -0.525963348130054, -0.2362226691661643, -1.4074477590312493, 0.07600238725466978, -0.13939799628876196, 0.6616206091070195]}, {"output_weights": [0.47371585796137583, -0.5452613035365973, -1.2422557730059662, -0.7666113042920096, 0.15332185339472554, 0.12543928440971605, 0.5930670845238865, 0.32317448420038836, 0.1466502805375144, -1.8990920921946612, 0.7170092202109644, 0.06852545096642368, 0.6030178203132898, 0.664451219792915, 0.037566715654734205, -0.30709628701946484, 0.7436145684707195, 0.33735154650322163, -1.6373778576644853, -0.8246395959736471, 1.6822364579814508, 0.9197412115389874, 0.14327746485016635, 1.1013066900239528, 0.38783669945078814, 1.8744367433963096, -0.483660091172524, 0.5815505831516982, -0.35509602380507055, 1.9270360191847504]}, {"output_weights": [-0.444744437566492, -2.4186788839856637, -1.1030395946229532, -0.7441613353143091, 0.5080624547286483, -0.09751727917069045, -1.412078064615227, -0.3938691818751985, 2.2429603113115553, -0.23639102941659415, 1.9058429023559522, 0.08827814128490118, -0.13665557301727616, -0.4084921071054445, 1.3499831141346696, -0.41585467546671134, -0.33382954660855396, -0.7865528681920164, -0.07524144835831047, -1.3927981688408542, -0.6864011488286904, -0.403964525371931, -0.35309609857689844, 1.520130007768778, 0.8036281509794534, 2.0918634665329767, 1.3788230915997315, 0.2886712078338141, 1.4204315888455183, -0.011128153460298466]}, {"output_weights": [2.555460365629277, -0.6245189157770268, -1.509823103296365, -0.41946882195710683, -1.009739769450899, -0.42524380376174675, 0.33441185670168383, -0.6056569251534912, 0.5354208031770276, -1.7378028541472283, 1.690063616242902, -0.2527798532440004, 0.9845202024595028, 1.0077929815618327, -0.6228116312016424, -0.3894158108551051, -0.24158020004518194, -1.0934160209864505, 0.46132893376168244, -2.0467695773002865, -0.390848267767464, -0.9565445011529888, -0.9474658090240563, -1.6625192869139649, -0.01238340897952108, -0.48066465412993686, -1.8037595886392561, -0.811175809676703, 0.5461446448281126, -0.20392299298296504]}, {"output_weights": [1.3909494539342298, 0.18938271913436358, -1.1240613527152425, -2.173488750184345, -0.131253255909211, -0.4493937565272601, 0.46806481426127694, 0.35993395792582783, 0.6243908865155661, -0.5336577598011473, 1.5710910458709404, 0.17054027851405293, 1.5593810046007124, -0.4999988437317815, -0.41302966472252056, -0.2109979638937385, 1.2199998277814357, -0.2922046445442495, 2.528325728946107, -1.4084016565929824, 0.34246666619826, 0.7865687295087649, -0.8152643627080407, -1.8138586881087786, 0.5414445769570545, 1.7550413582392737, 1.0502091747376143, -0.22288163630936922, 0.49198756105903424, -1.220546251400028]}, {"output_weights": [0.5854185461523076, -1.4866422822200545, 1.0818451900594956, -1.5009330725884207, -0.9749091281144824, 0.550258962073382, -0.4428716714465836, -0.13749240803306584, 1.5382949843209894, -0.3343127937903833, -0.8882910737135759, -0.5885239081440792, 1.2648861607091153, -0.4508441433107751, 0.6569645531543563, 0.363675045672996, 0.48757992927427174, 0.17752281064635975, 1.9270020297234607, -1.0037578307477828, -0.09470338828436672, -0.45343422729260885, -0.5768049554650658, 0.6631241598344486, 