{"template": [784, 30, 30, 10], "iterations": 2000000, "batches": 200000, "learning speed": 0.05, "batch size": 10, "data": [{"layer_type": 1, "layer_data": [{"output_weights": [0.18834700178082606, 1.1774662367241437, 0.7335247120274361, -1.1635187231336475, -0.73899163984229, 0.6987353034850734, 1.3728722927468033, 0.4528061185620742, 0.4589974355372574, -0.7901159555719105, -0.6442031944523722, 1.0929799184494353, -0.45366483737867935, -0.5045690680845416, 1.0868192638861138, 1.1745196200964148, -1.1181604092750779, 0.9508134801054156, 0.7755802097512086, -2.581259606647723, -0.5128105580416006, 0.44514934062593825, 1.4636337057427966, -0.6227487318191198, 0.2143478062025268, -0.20562051036142417, 0.621266374769216, -0.081658968204823, -0.09052883857454334, -0.040740571682082866]}, {"output_weights": [-0.4235441969731896, 0.38726002656332564, 0.4171973661735539, -0.8599982975092598, 0.6796918461062247, -0.913892117230028, -0.4659390476414015, 0.009433009942893058, 0.28451365731204603, 0.06595978715022585, -1.662154983920675, -0.040280330238522524, 1.0651826040167913, 1.4852395955633915, -0.16214388080207087, -0.5064194498113554, 1.060023966130669, 1.5751624459860214, 0.6164474768095486, -0.6249105771162737, 0.3146679334011715, 0.8383337503880942, 1.8839234011509383, 0.6006866149799703, -0.015555121005813459, 0.8100870889519071, 1.0714052492750106, -2.110388507764577, -0.7442113820789612, 0.5254181397285664]}, {"output_weights": [-0.2634719855770603, 0.3739323653431425, 1.6931375865527458, 0.7897921699551147, 0.8932029065921555, -0.6349383644350587, 1.185108841400296, -0.7731038567387688, 1.6571206410015078, 1.7231498288433282, -2.0904778600579177, 0.25180170777454447, -0.7591152528861945, -1.169100930038231, -2.251826078853124, -0.5651840797767697, 1.3734416979307402, 1.3491947586334063, -0.011225817179555153, 0.04893679387385556, -0.4663755358814198, 0.9993327625859931, 0.05818697231242121, -0.09875834407749938, 0.13497606484442912, 0.3793776690954566, -1.3255396114740035, -0.6636646435969292, -0.512922393851452, -1.659468815793559]}, {"output_weights": [1.1872109451686494, 0.1464767315135353, 1.0449890535259447, 0.5841058338261117, -0.28157688412699544, 0.3028493402710545, -0.4481330955119798, 0.6405062763631145, -0.8666946798565942, -0.8857698427753532, 0.016574294512028916, 1.1082270922867121, 0.8163966729133039, 1.6180824965825722, 0.9968464401782826, -0.3180817918998988, -0.7132569285435781, -0.38074728534041147, -0.8001418620155862, -1.448491529140346, 1.2274723661390565, 0.21408137768413796, 0.07776235152420846, -0.9395325941504178, 1.0123944889775227, -1.2964588527293857, -0.22044484374327894, -0.4869660150182566, -0.7773959383611946, 0.9357526386059555]}, {"output_weights": [-2.1196981425313277, -0.08333093018007329, -2.8473493353100983, 1.025641479678258, 0.632013033461086, 0.0889342793074019, 0.5770956076386495, 0.5664338189198395, -0.5887247640175155, 0.43127728328163617, 1.5050893914140278, 1.0916511871883816, -1.1786655710207306, -0.0037301985541230835, -1.4224808670802491, 0.21921125104434147, -0.03152954951609991, 0.767874975825838, -0.03188216024468664, 0.5953044265653697, 0.9901170856720752, 0.7192269452174037, -0.566188041069519, 0.1884499666776971, -0.7416850933875855, 2.130174957730074, -0.13770596746055583, -1.3987539924463812, 0.6653403736221304, 0.8507932721847677]}, {"output_weights": [0.3573451810124754, -0.18658541971927506, -0.25541981561053656, 1.6696871638776147, 1.0673366716713557, 0.5945638010981237, -2.1777022424271784, 0.048777422410029976, 0.3468988810768251, 0.05807183658061986, 1.0186094723563042, 0.6126911475349436, 0.02653770833114702, -1.9070881131674655, 0.4731535929678562, 0.47243207018533157, -1.1646265099382753, 1.2852828624088857, 1.9384037091058273, -0.41182139328690465, -0.549643552741075, -0.8580976466921525, 0.31880256701721255, -0.9301424897215153, 1.8356410037626683, 1.024042714151456, -1.0785618291448578, 1.0403307446934205, -0.18282374406815166, -0.3936240069854645]}, {"output_weights": [-0.639211077856828, 0.12022343348742111, -1.019949151961403, 1.779180050899876, -1.5012487082265071, 1.1566254628010197, 2.5993815259351396, -0.18848391872378717, 2.726627917337747, -1.0320848587923879, -0.04656932984446183, 0.8602405132155003, -1.083374009490395, -0.3295116278362139, -1.2538458643306802, 0.3663378262293547, -0.907230320374017, 0.08292335152088565, -1.1007176942237449, -0.052736658560285116, -0.36485328270552864, 0.6740922018518686, 0.053364099876937306, 1.2665343412507453, 0.7177971941619461, 2.2318345255575442, -1.2635925032629114, -2.017991312075771, -0.8795402161856196, 0.15595167076157107]}, {"output_weights": [-0.7309426217721813, -0.2486965401602795, 1.881840524082304, 0.2676228138410753, 0.74403779339341, -0.2664695806145129, 0.5156938530470796, 0.07159882674603969, 0.9586009185917164, -1.5829823713327231, -0.7026608947296108, -0.21583996051251278, -0.6065025216795066, -0.42602445480031287, 1.073533808870559, 0.15330824722309744, -0.6056549139078852, 0.22843435441653853, 0.02901312471947926, 0.5997862598391793, -0.08317997273786543, 0.4446945136918574, 0.5268984356861648, -1.4112674792988118, -1.064568037323596, -0.16992581296590792, -0.6534575207602987, -0.7008045398017805, -1.0702278592494008, 1.0534528147312492]}, {"output_weights": [1.7314972125606174, 1.0120383846605407, 0.013424275552010131, 0.9937679661938968, -0.9086535772868019, 0.411560555779993, 2.0158357697547014, -0.1143638677915284, 0.9861098648390145, -0.9371388695216174, -0.7061641794201439, -0.9310871701038136, -1.6732178023055724, -0.25848629651377714, -0.6544282225329259, 0.6842481671927898, -0.4124231761264146, -0.0659880443766829, -0.005531157130105914, -1.2907690001604668, 0.7152958190826788, -1.9121315372745993, 0.4125567948542133, 0.17828203939803344, -0.4241623500467346, -1.727735706980118, -1.287623228424003, 1.0149563093856178, -0.74134965737931, 1.0239306658849483]}, {"output_weights": [1.5233611753217167, 0.23189055831977712, 1.4282466840390375, 0.30034035746261545, 0.8926078626133196, -0.6746097916060662, -0.16526376367373175, -1.291532439562398, -0.2281718669002226, -0.7454352944656321, 0.1595801485097674, 1.1693899538759784, -0.9006986789084628, 0.5915237830570076, 2.456174809807706, -0.06801381378968326, 1.6167924582788566, 0.17314665754862799, -0.34280434882919897, 0.373308539070983, 1.8242016646394745, 0.8517988582480511, 1.0867008629960568, -1.3747750727485493, 1.1857315772806427, -0.16515503700029122, -1.0892684852276142, 0.8687965829919541, 1.3028342953798686, 0.9898562676113629]}, {"output_weights": [0.8057081767653406, -0.007299111118929087, -0.7720130809395361, -0.32072296416806934, -0.4442573941819121, 1.916420898432894, 0.0558224734081744, -1.6802209994068458, 1.3085275403223973, 0.3784847793629361, 0.0375152917797228, 0.0775615805889778, 0.1306335651026057, 0.26797620580899545, -0.5692894319687432, 0.8261972276202411, 0.0941588052434487, 0.9778626039542779, 0.9617758502635535, 0.50860264546568, 0.12468484745867502, -0.12409297682389209, 0.02791655244661122, 0.4295466973923141, 1.5283225366894786, -0.9575831591984737, -0.7537486649883578, -0.8357452378526529, 0.29702775174725166, -0.31842496564287565]}, {"output_weights": [1.3010251205617147, -1.879255135646759, -0.681630033438809, -0.6445958681857941, 0.9252527085079304, 1.1791386769059824, 1.3927791473791489, -0.5255943806573155, 2.714382947357094, 0.1397322026735993, -0.08109730937993337, -0.8677041737969388, 0.29743611416186694, 1.2821387347497328, 0.464363667603821, 1.636174049013383, -1.4208810138696166, -1.3012198122736143, 0.6377256824229752, -0.3461498787235381, 0.1972463891514238, 0.3095033951231494, -0.5432138536378891, 0.6473379262584031, 1.5517491567042003, -0.35834727545016587, -2.2861096815486426, -1.393776780218912, 0.44894522078352883, 0.44530910376665456]}, {"output_weights": [-0.0751112405231038, 0.0021723011657926367, -0.4407961411514861, 0.6889007034196192, 0.5868664849384528, 0.8662414985609986, -0.6920391543865717, 0.795571944810801, -1.0884713263785042, -0.3052869368690389, -1.4057570431579356, 0.46251600364560075, -0.6449637645713896, 0.20648328893608994, 2.0179963722520924, 0.026713891297688985, -1.3491257258691634, -1.2645066760729795, 0.33239036610847317, -1.2254366029256205, -1.2166970225472293, -0.6494927154853964, -1.2690300598904178, -0.45050262001473346, 1.2519523242252777, -0.6407303449492474, -0.9327601524205765, -1.0595132130239677, 1.1222241974733886, -0.5757205149451222]}, {"output_weights": [-1.3035683719132738, 1.524131663570872, 1.4600018434935254, -1.2346696366451209, -1.4936976639459372, 0.5119494840481456, 1.892070878553006, 0.27455333506290114, 0.8148427723051538, 0.49755802342661243, -0.5736453097832404, 0.9535115451963302, -1.4537379289142511, 1.5507122699247142, -0.5176252095011051, 0.034134239415318596, 0.09726168028701364, -0.6755638371167275, 1.0727641038516185, 0.15313062147481, -0.07138410427364787, 0.20954460079705653, 0.2431085848412509, 1.293429049402635, -1.1619487060902518, -0.33520712194784485, 0.5421079435067175, 0.08461863613566326, 0.8770958194023042, 2.0496710597793775]}, {"output_weights": [0.6311744658401639, -1.092858103678787, -0.12088930790456091, 0.14435378286297537, -0.5205209759581979, 0.3657617158161681, 0.148027550107822, -1.0146189612073844, -0.41739511449280037, 0.402234188250579, 1.0011059218945102, 0.9609151808751267, 0.7655108419013975, -0.16761838133778267, -0.8529006290342144, 1.622063801425473, 0.8449702140692309, 0.27406599086772304, -0.5512507597644815, -0.5123292093755841, -0.2756566708837116, 0.27537342631037465, -0.5307531722952474, 2.853487112885521, 0.5983095824388379, 0.8124684892894498, 1.4789520631933009, 1.1099993030503181, -1.287862586635984, -2.067113324824015]}, {"output_weights": [3.3285972956675356, 0.5434060700718313, -0.19896857576061414, 2.0219501767421004, -1.2745777858162128, 0.21458503619471592, -0.47643008707435874, 1.707325611757327, 0.722530475935842, -0.38072722660984754, -1.340415912451868, 0.5275327720218883, -2.331936443958231, 0.5457532121369312, -0.4391482400023243, -1.2114356273078943, 0.6771454050689091, 0.7254621475526993, 1.7293162222812704, 0.4022270779063459, 1.746087635462787, 0.4970852148947734, -1.0655540466260962, -0.0717584067728529, -0.40273430624632356, 1.4162407424255898, 1.0454955203022993, -1.1630251978460486, -0.5465288479522741, -1.006984111288147]}, {"output_weights": [-1.5837772271607542, 0.021216525714472863, 0.019474527692731617, 1.1094019777581015, -1.2575894663183855, -1.4471527214775277, -1.0620589658506334, 0.13914728434340626, 1.7673773167869107, -1.2064692851358072, -0.12404348796570294, 0.38285514110667523, 2.1187620563863283, 1.8667734809326542, 0.044840047069529196, 0.28725151242683516, -1.6004623973687748, -0.303001530224842, 0.9523106067594227, 0.04369023850445213, -0.7104675690878398, -0.08448170518113758, 0.4320562890486103, 0.5336046042468127, -1.2322821063841678, 0.40862628590190203, -0.27959573777265945, -1.1216518294880138, -0.8060404585140948, -1.5234762917036078]}, {"output_weights": [-0.6622326168290261, -1.6183678423836387, -0.2520968290618326, -0.6913029824129111, 0.7540400633393436, 0.16219639405771416, -0.5759615416129944, -0.15507337167439114, 0.18206368709918705, 0.11171810269127488, 2.5101551062392526, -1.4316804443625593, 1.4694354484745753, 0.10799249607359389, -0.5720591539849804, 1.0092436322215164, 1.5670463000085395, 1.4737939549302992, -0.4507228465670811, -0.9092227797485272, 1.1232243001613293, -0.6308663926059418, 0.7941578876349136, -1.1464958550723943, 0.5180985858596123, 1.5187187234971264, 0.9333981585024506, 1.443445919225989, 0.45711646486303914, 0.39709683978329896]}, {"output_weights": [1.1116100613852056, 0.3590835300227199, -0.4749557566435546, -0.7212909039664888, -1.1887381827189185, -0.21843074082762637, -2.013174093190928, 0.05537029452419809, -1.0775528826566756, 0.39981913595107144, 0.47091850588121725, -1.3628953669548602, 1.1361995316396258, -0.36840769032477233, -0.9866137150821525, 1.2538157149355191, -0.2752411382277862, -1.5552921175496632, -0.3700236097324668, -0.4131633403049522, -0.5638726465200365, -0.13779194274196235, -0.024169779208213643, 1.2851729081272552, 0.17125246355232845, -0.50796135624398, -0.5229678877441475, 0.26473721212532986, 1.3099877340123065, 1.0067180751631748]}, {"output_weights": [0.25016122231370036, -2.2751617046366985, 0.2988782777748116, 1.676568295947895, 0.6869724921740574, 0.9129615463308145, -0.36279083151238917, 1.5716053136854424, -1.4527068951798539, -0.15893350994241412, -2.5931782361236544, -0.41308211716823373, 1.233338916575727, -0.49566326720832476, 1.5059596966801172, 1.2720954573327317, 0.8355060721135311, -0.046449037597950486, -0.6705802101934175, 0.4990307725924903, 1.6157766031690983, 0.6461210285977184, 0.28079455455614954, -0.5129295140333237, 0.6752025449069484, -1.0872167777421373, -1.2130195235909171, 0.34491178842592884, -0.07268094919729345, -0.31840191630441705]}, {"output_weights": [-0.3159380857520995, -0.384998711344446, 0.37859014924072276, -0.7631624374688151, -0.4378219554369221, 0.2502143493670592, 0.4093330384403407, 0.29364717616767766, 0.5976482490024513, -0.4524523729556011, 0.13904816400580047, 0.17345045539337578, -0.6925185031906501, -1.0725739247136292, -1.0566696402330582, 0.42713015961396217, -1.459943816730335, -0.9038574332910878, -0.3898801741753083, 0.9696025136772185, 1.1337534273595056, 2.8517577464365567, 0.30077248149748315, 1.755000406698062, 0.810727783014731, 0.6665099206007673, 0.44408499572765936, 2.272078535842415, -0.8335343242053357, 0.7760823540846816]}, {"output_weights": [-1.2094969786284386, 0.1478600627944, 0.02222331862695264, -1.1077505574976239, 1.0973791915486044, -1.1979997848993877, 0.1689025455482243, -0.442683790476321, -0.5673009034956074, 0.5720384359049298, 0.22744424410929742, -1.3153601749583137, 0.42259196289384543, 1.8413085408552452, 0.4580459983739516, -0.4515136845869755, -0.9379995184049592, -0.3441598750403194, -0.6399254588478535, 0.8039158780949966, 1.85055614859135, 1.3291590244556886, -0.2768654307302344, -0.25736572862316526, -0.623911872805306, -1.256524110463156, 1.683652777588418, -0.02300852442413166, 0.6342803318520005, 0.8300232114317496]}, {"output_weights": [1.9262932129973747, -1.5516495784742987, -0.06879254973274641, -0.5020619232181605, 1.840060437956681, -0.6423527293029729, -1.6198290563642306, -0.2795495714073503, -0.12549897960397247, 1.0370340670605116, -0.2866268101897729, 0.04204632895498828, -0.804974411126562, -1.1106238619928024, -0.3164718707543563, 0.33024121578468313, 1.0837912797776899, 0.08205758659119519, -0.747702145206591, 0.1312194518463675, 1.352517772798073, -0.00033774584694088686, -1.0033942141496328, 0.37056414988037467, -1.5708752895617468, 2.146456375281193, -0.03889476914499301, -0.5414915591409928, -1.134572993189541, -1.692966220239137]}, {"output_weights": [0.2543592194312887, 0.4011316996078949, -0.9933272841407195, 0.4580908422661436, -1.3710752557337473, 0.44231279408565816, -1.3098510015985292, -0.4623958833505269, -0.23040418397060303, -0.9195545392228229, -1.3875487646592253, 0.03395764651586003, -0.7231027243571305, -0.25210192556600897, 0.14762365604871655, -0.027647395985748616, -0.3536444779413874, -0.3458014238879455, -1.2742064590143962, -2.3332614357624744, 2.1106800446858958, 0.9104273001117169, -1.0369563453011184, -0.897232902947781, -0.4062841252250228, -0.6190229645444844, -0.09138433800791483, 2.1431408372158565, 0.07526240583085587, 0.2115338117060682]}, {"output_weights": [-1.0390627757132662, -0.04235954178198066, -1.1296303645988248, 0.9136517945405902, -0.048045918202345994, 1.3535115412883307, -0.5759056443667038, 0.5521606221101518, 0.22848080505117108, 0.8136667414247072, 0.035715237115954666, -1.2537837881880984, 0.5264654488031714, 0.45160966275818637, -0.9593597157744805, 0.6363846571810025, 0.7945866690200971, 1.2334382218494475, 0.31415082309124326, 0.1580395523885935, -0.46086143972172067, -0.5300478578043605, -1.2018439108811865, -0.9816876588490434, -1.480058470390565, -0.369704696881498, -0.5856189432993767, -0.7417541241702659, -0.8874190770169778, -0.41708399607816643]}, {"output_weights": [1.7933415418394634, 0.9109920437078008, -0.5816532947674914, 0.41487597466875115, 1.501628726909911, -0.24288866013649021, 0.006959708762052518, -0.5006498396932316, -0.2979529217149871, 0.8913842491056572, -0.9550550474289166, 2.199436840389387, -0.9316595693363761, 2.1169269590786404, -1.1471743554109899, 1.6917866027968944, 0.3872948416827882, -1.941698375867413, -0.22702395608843315, 0.151511547838683, -0.6943244616921262, 1.7799709321008876, 1.7029465204999368, -0.2761728631399932, -0.656902241099303, 0.854605630727426, -1.5041545482531136, 0.44097416747240237, -2.033673776939238, -0.4146398849509365]}, {"output_weights": [1.6300924343286811, -1.3506651468406308, -1.3911438825550813, 1.2416209405070224, -0.8868763192477083, -2.0693407723799453, 1.2155677416422632, -0.10596666373494322, 2.020386390292617, -1.0505538260070213, -0.7330474671070519, -0.38874940035691913, -0.9392786936935485, 0.18837591449257352, -0.20828354855106057, -0.12677336734799471, 1.0859165719429011, 0.22534252605314012, 0.16948789313483117, -0.588178897441422, -1.0644879073887423, -0.12647203685561975, 1.399276334236876, 0.09092957819928746, -0.21102869964706397, -0.20007875307536188, 1.4658248716174445, -0.5815735542438142, 1.1459448606894684, 0.7538566105751636]}, {"output_weights": [1.8211865949110868, 0.36517988038200555, 0.7644470574834872, -0.1722326219489794, 1.5565547814144767, 0.6339968391184087, 0.0039432544706515865, 0.3321760372040268, -1.2835001042604157, 1.650993687010491, -0.665936750767017, 1.9477754659837505, 2.081255850458034, 0.11764507540428126, 0.7052436366240447, -1.8371438167771161, -1.0256670392642682, -0.9533933740088216, -0.6794245613003274, -0.17061353785786207, 0.49236257156400043, -0.6380126587353574, -0.5629711681145099, -1.0274932110554422, -1.9479732712338103, -0.4404677383570477, -0.5001201750341175, -0.5295325576678144, 0.10923699960123384, -0.4844728682197676]}, {"output_weights": [0.6453819721631163, -0.2629521746846359, 0.2527963617913282, 0.4115114018680477, -0.2958636572084704, -0.10398755261621379, 0.19152200780945097, 0.9082355902558071, -0.9748718161722599, 0.8131839524674952, 2.5929497825209147, -0.8890387839052228, -0.20804134957281784, -0.26254931534412046, 0.35837897156940984, -0.6286734721576588, -1.2757300327177004, -0.6470963884382549, -0.6401451685985577, -0.9076498867967844, -0.7712059992891931, -0.22900881867307593, 2.0669163777359656, -0.35752463301841836, 0.21447778880873664, -0.8071570533493618, 0.4128144142031644, 1.039624882842574, 0.7746402472091699, 1.1184961851505788]}, {"output_weights": [0.7981144710634269, -1.726581647745415, 1.7072169458934683, 1.7036997629735307, -0.8555471075491466, -0.49652575269536137, 1.344637037823348, 0.9430559586958863, -1.517066634382755, -0.509706261559127, -0.5442588893081204, -0.5397933408644053, -0.954158816084237, -0.19469527588083033, 0.3109212054517292, 0.11311728405613096, -0.9067678981064142, -0.1629570620589155, -1.2870849946656857, -0.01907355511548509, -0.4903016607880491, 0.0655631743578484, 1.0473071722901697, 0.6810187830040725, -0.43232561373684025, 0.907313120782759, 1.037988952709113, 0.40117999545799476, 0.7078947585417391, 1.0302656611104068]}, {"output_weights": [-0.20810519959253032, 0.4535701524133604, 1.4531858884636755, 1.5938278891728466, -0.8430598122232652, 0.04361729172536515, 0.38314553205707064, -0.45622029817202014, 1.2250002685659178, -1.7183734056698272, 0.10664743276340463, 0.9005248899124317, -0.16885401015430465, -1.3452740342246832, 0.1687273370880276, 0.6415952744941072, -0.1328648621606083, 1.1270566925380894, 1.7025151141051995, 0.32380362038378924, 0.7943943301774107, -1.2171454303601723, -1.125265613427631, -0.28456959745217975, -0.3228881841868923, 0.6234712979697528, 0.9290313337567442, 1.1026983948155864, 0.9789190443103689, -0.12633660477862177]}, {"output_weights": [0.9786038414940975, -0.9162911954884844, -0.9299676283214697, -0.9926759246303715, 0.038989592051752266, -0.6457279059304325, -0.0818667296685758, -0.7355795657602687, -1.3798837590064263, 0.9047639885367416, -0.014301714820462904, -1.1174643728559384, 2.3954657758983835, -0.05687376000747799, 0.685957837764887, 0.5022574526561594, -1.2515518456592172, -0.8605318409855434, 0.5518984769519282, 0.640996980405562, 0.026353513306062334, -0.17701645517290504, -0.08951468863208706, -0.1777852218143375, -0.2399851114107853, -0.062363011699266765, -0.01658865932864872, -0.5822020822387409, 0.2597786592708673, 0.03840845351431554]}, {"output_weights": [1.179911022414186, -1.667194912807235, -0.46172355930060877, 0.07197967635621602, -2.8807012345429714, 0.780406725482353, 0.745570061363028, -0.5064779216050478, 1.4974196940601476, -0.925590976032381, -0.4900005871210195, 0.3541803640207298, 0.701022370655989, -0.6284337557669823, 0.5512773285135192, -0.38207169882043035, 1.7372860857015047, 1.018600108942284, 0.8485086249503317, -2.1076830352386122, 0.5044123567159826, 1.427744641168546, 0.7014690712252354, 1.597450577410597, -0.7254901877993506, -0.3079504507417999, -1.9544635520481994, -0.6470516266749862, 0.9736074546940235, -1.0578990171496874]}, {"output_weights": [-0.37345965801131376, -0.2554878217022104, -0.4858221160059683, 0.6097967533537896, -0.7685483394657072, 1.0638631371499334, -0.0069475871621833656, 0.22158916821478356, 1.667566764539698, 0.0015948934869372557, 1.1779526392644013, 1.296711055168212, 1.7381742041237516, 0.017315398206704646, -0.04628309085866548, -0.08413413499821609, 0.6729022780141407, -0.43079572045607883, 0.6246242207269361, -1.461512755447672, 1.6758604620608961, -0.45344429007675935, -2.2619531802616994, -1.3617916254993438, 0.14098067334427603, -0.31071502571351234, 0.07377855812011039, -0.43860585147421816, 1.2651331535881174, -0.4125416589317236]}, {"output_weights": [-1.3837508411387818, 0.6982900254322519, 0.40472729307971433, 1.2739988036389482, -1.617516528136014, -1.3191242448572242, 0.25157209292134847, 1.048477892521176, 0.07241444687236906, -1.3572530536155292, -1.8953982869560786, -0.8471880085704865, 0.6084708094793769, 0.0408883043570172, -1.1355094093832263, -1.116248453908229, 0.12100822446258781, -1.110375091374107, 0.15719656469705545, -0.9638837289730097, 1.7155648465556224, -0.7528043818484078, -0.20396023950028, 0.10764138332665382, -0.7244850564680345, 0.3852440570714421, -0.1898599870879951, -0.37714577761945256, 0.7586349240332178, -0.6621768676218566]}, {"output_weights": [0.40172381939563073, -0.10085903761383737, -1.7581055353542374, -0.12159547524502456, -0.5028200702658662, 1.0720673493508672, 0.0012199000363241888, 0.3098438663792099, 0.08597503641238993, -1.3887074792252037, 1.3294918664727118, 1.1984215499844295, -0.11115689867347504, -1.3907195673205026, -1.4924463727332495, 0.3227287466796165, 0.8011041052071353, 0.013901962484919504, -1.591374987104552, 0.20149055056836124, 0.3775887706558572, 1.8787015346798681, -0.8914444189255571, 0.10872881169526973, -1.2666278924986385, 0.4002033140258147, -0.9025578220114577, -0.8321289674640844, 0.8367140289550519, 1.1133257776832504]}, {"output_weights": [-0.9493474188052984, -0.7616702815554369, 1.5580733812007879, 0.9521288175668565, 1.6168193377490363, 0.26543502026676646, -0.14024311279285467, -0.8942360426634106, -1.1601323192609039, 0.7912355817885104, 1.0287577252614903, -0.9682370465250859, 1.589699472827691, 1.981277399942306, -0.2893824253388036, 0.2656200216028598, 0.6278794264799283, -0.10817264012403259, -1.3241431419794252, -1.0104190531884554, 0.9314763652159158, -0.8641600792122339, 0.5577682721773687, 0.06844548471920887, 1.3364744088328695, 1.4555442869205266, -0.02876648460012848, -0.2702281343008784, -0.6692019708828305, 0.3040530050808722]}, {"output_weights": [-0.4106945874861634, 1.0685734734332464, 2.7817705982125522, 0.6056173153648253, 0.9659423984133009, -1.1582002707731962, -0.8200258325786112, -0.40846300898822013, -1.1006279547697155, -1.6146727463432884, -0.4649921425772862, 1.0292603371083777, -1.6234700283807473, -1.4732183475787641, -2.091579024807804, -0.40646918361027023, -0.05473041500800447, 0.3088401684153761, 0.5090950028091282, -0.3881408577934552, 1.329403345795293, 0.6407894265638526, 0.932094875169444, -0.9023210392156233, -2.238793886482131, -0.07408887278809023, -0.7103006800422592, 1.9545993535967352, 0.5991027609123609, -2.010683413940253]}, {"output_weights": [-0.7986523797626187, 0.1812979868638679, -0.17119144723154747, 1.8791968472129608, -1.4424869073485438, 0.9762491716375877, 1.132923524510302, -0.90212797382816, 2.2787710871805524, -0.39356492725849085, 0.8635738948666445, 0.5258606604014863, 0.14387775629179267, 0.5005263925529216, -0.6144966639996713, 0.24149243639263374, -0.7808800388954927, -0.3295971312464455, 0.3751856764678194, 0.2481725654770879, -0.42334069325586465, -0.8703993513515617, 0.8187963564735723, 1.2566752216032908, -0.4334275244697723, -0.03749087096091122, 1.3338611058882996, -0.12868990953965712, 1.1329656800900105, 0.8209701840569239]}, {"output_weights": [0.6839600346294161, -0.5730107684348996, 0.5440599477171122, -0.22076906147195385, 0.7241959418090614, 1.2347729358380184, -0.7718656009773401, -0.5613517421581669, 0.6381567249295841, -0.8371827346208283, 0.1384053375968796, 0.3124813035048051, 0.7531264946713803, -0.12543374224569886, -2.5102528986451556, -1.121594833226824, 0.9729029035313032, 0.05588256995992956, -1.0945064572606844, 0.45976713145853143, 0.27242786153722026, -0.05005044540620638, -0.496103323851066, 2.083091134604053, -0.38907876982097533, -0.03231300461948405, 1.0202811477633973, -0.057245853180384866, 1.0780907732781557, 0.13237716924997525]}, {"output_weights": [1.2971126994990703, -0.7127041777342497, 2.2806202164309823, 1.982603681512073, 1.7637554520299243, -1.0581493414615084, -1.7977582725301182, 0.31189782613178324, -0.47637232864197715, -1.88900324190252, 0.9245541581173182, 0.47288153013310946, 0.03762162416580728, -0.3865307579175041, -1.4706666218211852, -0.36675112108186725, -0.9552490144756587, -2.156943251374581, 0.22352977407356453, -1.8008144234716923, -1.188443745640541, 0.465511523990906, -1.0605425938357118, -0.8149695213546003, -0.2231038092544859, 0.23061577328187707, 2.2145965161243755, -0.3551989292027697, -0.4357165279657542, 0.10551951055152009]}, {"output_weights": [-0.05012084453676779, 0.46950990453027047, 0.552270226604702, 0.5112828087187357, -1.893517905163861, 1.2378211275148387, -0.8360991921402713, 1.0516373597978494, 0.2505246668430616, -0.10914825935216667, 1.5328795445429486, 1.2416761288044933, 1.5723354217063097, 0.6872057070578425, -1.3408757813866097, -0.3970564731374548, 0.9693721644660631, -1.2106397244152518, 0.6356849979545014, -1.0151139405505685, -0.060241140703339385, -0.056636789118696476, -0.7565284937832134, -0.2390587095194528, -0.38037125665245763, 1.7033852826082312, -0.7254091888108987, 0.08898524474166788, -0.6424395671184185, -0.7624963953895832]}, {"output_weights": [-0.24926172996785295, -0.4062008531161747, -0.09394646273221853, -0.6706988622578869, 0.7060102504244924, 0.994133088617519, 0.7691024665982668, -0.4577044026237944, 1.067753421704956, -0.639410283574989, 1.0089771751975734, -0.37650253961763913, 0.7201413957744367, -0.33137364809519054, -0.508068141862511, -0.6631907693151349, -0.5713383152692536, -0.25621168711974823, 0.2588486065262519, -0.22301579821807405, -1.8855673176826182, 0.00019812923637978325, -0.42365346824788286, -0.01088512444414666, -0.2967880256963737, -0.7815259914983017, 0.5647816573838961, 1.6721115100475523, -0.9250002831075973, -1.0231285851449352]}, {"output_weights": [-0.22454683190465402, -0.1013427512853001, 0.42019549231919745, 2.058483430705084, -0.27725211205246597, 0.06256594243353147, 0.721735072184013, 0.5542312630601771, 0.5648263030651046, 1.1012180078706937, -0.9013161501147413, -1.6465647386615894, 1.4134364567367121, 0.9833049654607726, 1.2974856790586689, 0.14670860524659937, 0.01891928906002931, -1.4849147202791644, 0.8438608506996391, -0.5555230558762108, 1.4225429870904986, -1.053868549283099, 0.29563016843892964, 1.513915641001056, 0.15630441563738884, -0.7066101082691151, -0.713022944458466, 0.6374864572060204, -0.6913743195189289, -0.6377754498464925]}, {"output_weights": [-0.32924904371150127, 0.0861226674235899, 0.32222267468249455, 1.4161693708361867, -0.05513366600519943, 1.2742222882328527, -1.1404001717648695, -0.20991324192765695, -0.3917395860373798, -0.27165393651451075, -0.8160796586246594, 0.18324386893242894, -2.0623418070507955, 0.2390064129490623, 0.3774823980851708, -0.5743287882726806, 0.43128027966465715, 0.5620505087239884, 0.40356794369712673, -0.5222224479341856, 0.9073528206567029, -0.7882423622812571, 2.514409707046084, 0.8489655631670825, 0.13024286114465036, -0.5993590634722653, -0.8744012491248442, 0.1625976794677477, 1.6805597633923255, 0.6399115604317737]}, {"output_weights": [-1.0080815723833887, 0.7551481014978474, -0.09004090987125014, 1.2094797523160223, 0.05419905137238357, -1.3376789401172369, 0.3453331286193069, 0.3719310405034902, 0.1909491240306909, -0.28692970016594616, 0.19689386028482142, -1.3194166896221284, -0.5734583452759608, -1.0176172281265297, -0.17640585076582263, 1.1655798013090262, 0.6489396366318448, 1.8595264617839788, 0.5797225730684802, 0.6649542792094599, -0.7404748066178485, 0.2377390032270549, 0.13828723395669743, -1.193274644989792, -0.22387530589793317, 0.14668298804919944, -0.11839214626914407, -0.9488623106990269, 1.0556871310389304, 0.23691979956163883]}, {"output_weights": [0.020504603201522646, -0.06101021399624638, -0.03832308221601059, -0.5848904131219594, -1.4526572441571963, -0.9456918654709937, -1.6588891677210282, -0.06472827621669476, 1.2945574505556907, -1.0569010611014118, -0.03258637883613949, 1.3137049567442605, -0.39654599867620205, 0.8538381273677421, 1.3790069227212334, -0.8658802975109433, -1.5185155829603068, -0.7972141350097289, 1.023003773508063, 0.5688035008917546, 0.548764425528119, -0.05061559505326314, -1.8841427263746566, -1.293644579468881, 0.16046539972005147, 0.3295492114696402, 0.33441208129551764, -0.3760662654141304, -1.4764863934422399, -0.7180689058496024]}, {"output_weights": [0.37936859909837417, 1.130062811376257, 2.341572023371787, 1.1525028743020949, -0.7229625293470516, -1.635127655478255, -1.2078547880458537, 1.2963108087168922, -0.7567725903835874, -2.4196590055538385, -0.741880904688385, 0.17360993532555305, -0.8611402542465002, 0.7567709970377099, 0.1606653025193587, -0.11470987718526356, 0.2143983681549173, 1.4155681429213207, -0.07639740313605071, -0.5118512031810616, 1.9168198596478045, -1.118190148243182, 0.7176630096297808, -0.36262806406285625, -0.004298664985322283, 1.3546242940985946, 0.6774531409404805, 0.9301742629402663, 0.8794130088268169, 0.2482460522435939]}, {"output_weights": [1.0755438952976175, 0.04330930543300594, -0.30974940584346955, -0.2381511169014949, -1.4916403611565552, 0.4699826657462297, -0.7894494768703446, 1.7116267233548308, 0.12909745016547172, 0.08877190675035343, 0.13950914912581683, -0.3730167208431952, -0.026762937868388056, -0.26378985290499957, -0.9374708668983034, -0.9972944932802709, 0.9611365114289097, 1.3888056565939615, -0.9168596426601695, 0.7715898888931612, -0.12705285165573085, -0.2859117127734567, -0.05896533704000272, 0.40861933438762016, 0.2398366645034063, 0.8916692678415526, -0.7753673057665434, -1.1813188600261275, -0.5133248046990777, -0.6605744768999823]}, {"output_weights": [-0.6120216193771288, -0.16576965777487063, -0.11738784438491219, -0.19346301670047278, -0.09697591409801942, -0.509384537910723, -2.2852883506580897, -0.10684214050594179, 0.9650702141212014, 0.8138520502854336, 0.4635780026447793, -0.05223905066674456, -1.7036914352172632, -1.1443531492269152, 1.9251573814640977, -0.844621255376355, -0.5482841289604967, -1.65627087466773, 1.7153181874381491, -0.08270297765706625, 0.7650902643158367, 0.07486427672213959, 0.46172147905722405, -0.2520181688751075, -1.252998161458789, -0.23531497789883885, -0.6189724596963962, -0.9878566855186991, 0.04431129139515837, -1.0613146286386261]}, {"output_weights": [-1.7118488154883669, -0.2181396330304722, 0.5124807966562928, 0.9707998101328322, -0.13684791963189355, -0.8369034799838851, -0.2180824777897392, 0.8301581425589879, -1.076882088419534, -1.1855509361667755, -1.2002516542063213, 0.196666771639994, -0.6276389112564567, -0.6309169793407752, -0.29029088160315364, -1.5796196228755177, 0.5556686779696707, 0.07866438167741838, 0.3201739534370936, -0.893416328581224, -0.5571282855037278, -1.179469771779402, -0.5030747514724363, 0.3133708219866521, 2.482582799466236, 1.7306134817726722, 1.438984529689635, 0.7809511978782258, 0.23242757502874775, 1.2481479188034925]}, {"output_weights": [0.5929184641918, -1.5490553053647782, 1.0434139449208562, -1.1617280643031875, -0.3075967431728021, -0.9797676108524612, 1.7337069531948504, -1.0196498504377454, 1.0304713819356954, 1.3276419857841562, -0.4604717816058045, -1.2150061651977744, -0.43310753099946697, -0.8124053139881736, -0.545946249461334, 1.921550010844564, 0.6057678611865961, 0.3952520263367541, -0.6401558538237028, 0.8069473568302672, -0.0340843257129313, -0.7122188332874552, 0.1527318910624358, 0.15132295993942033, 1.4231219402950614, 0.34693733699329515, 0.5145737408334052, 1.1257986590494287, -0.20671838297571804, 0.20194949741399126]}, {"output_weights": [-1.8644779580645356, -1.0480208800709785, 0.5533487879815852, 0.7678800271939326, -0.1452988920600745, -0.737788893814508, 1.4291217638530205, -1.0201296262975128, -0.5682898872836836, 0.5320689420089485, -0.34659360644614, 0.021041316243769738, 0.24800143414798537, -0.6110740142105915, -0.8161894250610675, 0.34470712377709667, -1.7616303694627293, -1.001574320877472, 1.4594574056740381, 0.9482466084227346, 0.08359777059081498, 0.5920014532821452, -0.05593302806914319, -1.6017949106194325, 0.24637792225736618, 0.9329554882795243, -0.480769705821941, -0.5370942132441396, -0.4317467348882605, -0.8359022159129954]}, {"output_weights": [-1.4266582991322743, -0.5603985621008405, 0.581683398218927, 0.21486930912539226, -1.4368372667997396, -0.050619964380638933, -0.2326042148464008, -0.7275773867978202, -1.4310012130776408, 0.19789210550159703, 1.713513866300761, 0.026072500538666627, -0.19724940590468082, -1.1590669399129607, 0.9550849963120925, -0.37606725161280147, -1.4852873564069702, -0.8146362955831484, -0.8127069280933155, 1.4725562232510951, 0.21264223062039883, -0.271125456486912, -1.2556280828459048, 1.0386036006961168, 0.563994407454145, -1.5937186965707761, 0.4350775535326587, -0.5471777651144394, 0.042049724386924794, -0.7667352639265883]}, {"output_weights": [0.006016407326736241, 0.9841434957254633, 0.6568935518146044, 0.35418592655061626, 1.2880599376122015, 0.980866193344384, -0.5151244288792509, 2.046800425144369, -0.032640975277776534, 0.7437712962223301, -0.3932077583400014, 0.8070667094151052, 0.44192107237356654, -1.0905966732977812, 0.3098265954326583, -0.2675029369699771, 2.9079670088839245, 0.22560363819324816, -1.0364156159906963, 0.5646169256692821, -1.910164437753212, -0.3636197294415655, 1.8583416270478452, -0.28791372434546675, -0.005959307262401557, 0.7705348090594871, -0.9626057289840384, -0.5517479244047435, -0.44767484439941124, 0.5893117769719624]}, {"output_weights": [-1.1263123610988244, -0.3742777056885974, -0.709198239528962, -0.7315105443148888, 1.3769693349180065, -0.9185731185965678, -0.15535772476370982, -0.30541430513596035, 0.4572458662875515, -1.8349433418163226, 0.07558441487213977, 1.338907544275799, 1.2266952025356275, 0.32201612045247385, 1.1063572134445365, -0.9321705559118645, -3.5888733053436774, -0.3686050874630757, 1.2405156988549548, 1.3479799102933787, 1.2043404386713068, -0.6242703021604608, 1.505767260775945, 0.029194250434471755, -0.1655662427714422, 1.2608051676557566, 0.32189596054766434, 0.24921434226084477, -1.1586157266201902, -0.23792328367609128]}, {"output_weights": [-1.815334734542654, 1.4978915954471421, -0.5107983728252351, 1.074527645742298, 2.033511454321341, 0.5595881402353388, 1.3823681553365752, -0.32099066410483246, -0.06504054598113275, -0.29350399552233253, 0.17038064342373038, 0.16398424400195244, 0.769582192902372, 0.007838912364842972, 0.4964538533911821, -0.411430144625426, 0.694523214535327, -0.6653704124259511, 0.29497010927116146, -0.41366533637515523, -1.5145701991965124, 1.2703277842391727, -1.1566689877563665, 0.4874583667825938, -0.26791359054791425, 1.4674658505034999, 0.6709481713736203, 0.0055609848007671546, 1.6870707486849719, 0.01441956170210184]}, {"output_weights": [0.1852015166773837, 0.7456732384586814, 0.05152541248826992, 0.831563441851767, -0.02438283867496184, -0.6000248804733096, 0.681336826391704, -1.3998080705756657, 0.9801766705487276, -1.4671308860082681, -0.6083467057431098, -0.2896687229040186, -0.9616591366639756, 2.142498083378202, -1.5160875037181922, -1.2067525164109132, -0.5131842783863356, 0.055678276478551024, -1.141053303077751, -0.36363692260657077, -0.438470649232029, -0.0013247681463202919, 0.2861848918962637, 0.8792750251545731, -0.9620078198194172, 0.6889677858712928, -2.533257613202143, -0.13092103185685372, -0.20219428393798072, -1.2321512442480276]}, {"output_weights": [-1.155011527608989, -0.06893775209430318, -0.40071376825822025, -0.827231053362187, -0.6986494280741021, 1.2806620707203906, -1.5136018866372805, -0.5292117923023975, 1.3914749875523793, -1.3310624841149445, 1.028459083663961, -0.07119169870216595, 1.087913893244284, 0.4543293421619168, -0.604737593548633, -1.155616666274229, -1.2539609456749223, -0.15430190284464693, 0.3689291021089983, 0.3870125363491152, -1.1800154227609951, 1.3566076639702356, 0.5076665367540414, 1.233720252398249, 0.03074428450930206, -0.5348291037976045, 0.1278959644819221, -0.9178429234246323, 0.697960061125518, 0.7063878343597488]}, {"output_weights": [-1.436650898823428, 1.6787900004104446, 1.865425513396907, -2.1059311073835856, 0.05963445790432354, 0.8054726874383557, -0.059045338525810225, 2.1948396242593313, -0.3869970952707266, -0.9719605235996188, 0.8655591975881398, 0.32761249524885816, -1.7827345251267916, 0.723275581028048, 0.14764169799293986, 1.26126553027498, 0.5084774329915916, 0.7238181887739964, -1.3118238881112279, -1.1348348183774684, 0.27070892475892994, 0.5448793595907906, -0.8844800010956702, 0.5549451782061963, -1.6123798653616257, -0.5603672284632437, -0.7167373841812609, 0.4817922022536814, -2.2391464952663624, 0.27902222655986286]}, {"output_weights": [-0.1010180130810214, 2.2464357032915543, -1.440682254045599, -0.19112326474662253, 0.3254231437686492, -0.04831718049108361, 1.144901555937156, -0.5199023027814602, 0.44999703899993365, 1.3328466771721836, 1.0569211830012581, 1.0564375855635537, 1.4461358189350908, 2.469285704442909, 0.284704589573429, -0.08421879839152688, -0.1658507889058452, 1.2144019617616968, 1.7747335473475265, 1.3764306023734647, 0.4588572528821631, 0.7802623227456049, -0.8055561885623385, 1.4124688849264542, -1.8707637855812873, -1.4855634366705766, -1.5705419572124448, -1.2373533460580761, 0.8426847791053266, 0.2935443633726768]}, {"output_weights": [1.8541757328268567, -0.38927855439292397, -1.1205573208448112, 0.8051585646140196, -0.20648736082463123, 0.4419371081469535, 0.4300874024606385, 0.4212911556779166, 0.3528938856868871, -0.0898174100889983, -1.3989840434359235, 0.5923412261508151, -0.10027508782898167, -2.475825332454504, -0.7957059181040405, 0.0014052393723893181, 0.5787700169308044, 0.5500966203548717, 0.44144684773961584, 0.08417500844245566, 0.5863286910830748, 1.5277632407590995, 0.11333655301213139, -0.4232751069901758, 0.3116224089355787, 0.28131458807123666, 1.6777266155193478, 0.6534334361549048, -0.08934837812674079, 1.0431850782862198]}, {"output_weights": [-0.5586669018359759, 1.3847820074471597, 0.2154917967889939, -0.2984984567045398, 1.1795513213208577, 1.031310385650549, -1.338991681112232, 1.4185838599295735, -0.8741356076259513, -1.3695675987893297, 0.35463591042859716, -0.9415722482920793, 0.1355686759525529, -0.7968158221617259, 0.33765368285518077, -0.13931711943964678, 0.9032255828054273, 0.604618593786905, 1.1261753530189147, -0.0182195724053925, 0.041701342703462, -0.7585119293181735, 0.4959098980003685, -0.17442690021730653, -0.18514669191438374, -0.06839092935353407, 0.9656701608949877, 0.10421952759757583, 0.8747782335902312, -1.5633573839559958]}, {"output_weights": [-0.250114651784642, 0.04906092267837872, -0.9120362006050003, -0.3219581319374361, 1.4580126828869462, 1.0972365656750314, -0.825819393008458, 1.0124684548564582, 1.6607326393299815, 1.8856660540784316, -0.24102791048781233, 0.1534444505963062, 0.6404184650131441, 1.1774883543970123, 0.8124855129366901, -1.5967148914877278, -0.33290617410378004, -1.0530988707792586, 0.3039872685988403, 0.3652287280560014, 0.8430997989863344, 0.48163396335576025, 0.04400778063050453, 0.5599250206782077, 0.8914208425611299, -0.11417895091273021, 1.1645447070121553, -0.4623229298534731, -0.7970917541877244, 0.275778165054905]}, {"output_weights": [-0.5378394122659311, -1.604490369593086, 0.46927266376142196, -0.08185591089186384, -0.10106346336203789, -0.177472151755319, 0.20212490643518485, -0.3566342259396363, 0.9226085271190653, 0.7880463589480897, -2.0663738905979008, 2.992020063389135, 0.2125812498595834, 0.18312098014089098, -1.4641366892734957, 0.3853812886346781, 2.0150009299086036, -1.8752301860448732, 0.25936598586018095, -0.678212114591598, -0.14006845263726472, -0.31359443079699995, -0.07855906829596021, 0.8095739612270934, 0.821157298216118, 1.0502135401169967, 1.9306050486237456, -0.2908574536250647, 0.9932926897453329, 0.09638782520948279]}, {"output_weights": [-0.4529789364099188, 0.29407454793652626, 1.7388501179583558, -1.0268020061654248, -0.03680660730750729, -1.1283717682845278, -1.4681896267496046, -1.600865278321939, 0.37404063921283603, -0.2617023608895587, -1.2245907545513115, -0.7739945702703165, 1.7789823542599688, -0.017320377044950586, -0.9493853116521372, -0.2794381589094856, 0.10649636665844513, 0.4175594523344239, -1.5215293437294846, 0.5450397828300171, -0.20494718104857512, 0.20014231961082357, -1.1981515175973896, -1.4147439537471511, -0.6618603659048352, 1.0332117677259414, -0.3714090820234415, -0.19672006782257587, 0.07067224887367281, 1.1671721971734337]}, {"output_weights": [-1.275085358070627, 0.08660784354311682, -0.019766552104309065, -0.031934303436711095, 0.005662975233680514, -0.6238672511965663, -0.11912498881130039, 0.10277921315729538, -0.7187343085381175, -3.051444696531311, 1.257036358922435, -1.0200715667021931, 2.4713570737246062, 1.145424800596332, -0.1588858417743128, 0.20241129892462761, 1.7737987302021814, 1.345676390149586, 1.1189864611604676, 0.9319244504244728, -0.9128344681386357, 0.7716754682166631, 1.0579350232182103, 1.6209971059894535, 2.16476637372851, 1.2687401487872176, -1.6373929148303485, 0.8445434406509406, -0.02221619683214618, -0.8072966707677715]}, {"output_weights": [-1.6533354947487526, 0.5891527171730643, 1.2040854374539134, 1.628681320673321, -0.467263701129551, -1.8800024696877027, -0.10214569234676983, -1.096063843496079, 1.250921224178902, -0.11239078623010365, 0.4970938213676941, 0.42201894326729605, -1.2250879978793552, 0.9827840506270851, -0.8646999358006165, -1.8010924124110537, 0.475031604846509, -0.17212913417240927, 0.7660371295879591, 2.1352888378958523, 1.1775263174132609, -1.2369324058504592, -1.079816091943555, 0.15454091156171754, 0.7232856687528932, 0.816249162104612, 0.10616188082931784, 0.6353622578313004, 0.6658244228603212, 0.8073329075389043]}, {"output_weights": [0.6878957673456484, -0.7585968787838885, 1.3521243757410637, -0.4672516911177419, -1.458476381245339, -0.7348324871077886, -1.158717649440156, -0.2863038292496802, 0.3117968310508785, -0.06640788564120721, -0.8589153889585869, 1.1081770839162695, -0.868541068182945, -0.1928025262079094, -0.773580076806058, 1.608053843361797, -0.008199296885485758, 0.28732491490385875, 0.6278655682060553, -0.1010426907549244, -2.6096149345099215, -1.038223065339969, -1.6993554172225385, 0.28793065141963303, -0.45739500397064253, 1.4037509973086615, -2.505964436094178, 1.0138468960599452, -0.46873157404314125, 0.19785830561461867]}, {"output_weights": [-1.148985699373522, 0.6476748344362848, 1.454389782288054, -0.6781188564078426, -0.4143742437762543, -1.8914430228359669, 0.9303425266896129, 1.1407054445783036, 0.3657515475069541, 0.11833605819890063, -1.296171212737518, -1.1291597421311548, -0.3727075467174917, -1.344295295061231, -0.8736565962636004, -0.5372993036353427, -0.0945297396875486, 0.7868023428508047, 0.23157997174746214, -0.49004871144040785, 0.16171898264886275, 0.608058746275823, 1.6991512397557302, 0.6121992356954887, -1.4294995533674892, 1.4267983060554923, -0.8260322825909433, -0.34662745301897163, 0.025634278557533294, -0.9266877401721321]}, {"output_weights": [-0.32885844604537434, 0.8110737558686741, 0.20033854878058066, -0.5829019473246564, -0.12272737533392666, 0.7529948648941243, 1.3473751228540343, -1.68947120795946, -0.38842597069106943, -1.7003552041281005, 0.6875441935942729, 0.6473792920313007, -1.6279011802871264, 1.1078397415639696, -1.2283393042071908, 1.082135846199788, 0.32682113442584404, -0.641582605435426, 1.1597349528517142, 0.0043514067919013825, -0.7511816851306992, -0.1930404868871792, -0.4581808297723873, -1.7263369894511562, 0.9245269122834875, 0.9915570795080526, 1.2638537130357979, 0.9454206119043329, -0.5957068497277068, -1.3417253515387437]}, {"output_weights": [-0.6320211494925808, -0.9509722533962128, -0.6728856634903796, -0.9300443832509505, 0.024150655289281356, 0.46299627034082685, 1.6455258709777498, -1.2526485814981465, -0.7387542464345773, -0.2557369085437351, -0.8078959764417508, -0.2055075301483452, 1.4671411916276582, 1.0321640372745107, 0.18082666492404428, 2.0196943448677, 1.0695006976923982, -0.2883135560275957, -0.45813042051252023, 1.8831274310905595, -0.9406220182262021, -1.098025835236774, 1.124408565804227, 0.6767614600573699, 0.6159207716476132, -0.22291341959055236, -1.2511250403311824, 0.10208233422389594, -0.7534098253336627, 1.049342410767977]}, {"output_weights": [-1.3320298378163584, 0.05204352139420001, 0.8445845034722258, -1.6274369330959348, -1.077995540826374, 3.027582462823704, -1.291411481293258, -2.6221773494074005, -0.7053225674640712, 0.15103000219198143, -1.289419125228743, -0.21975346528521325, 0.6951790621449971, 2.4943708239387328, -0.35389337575156776, -0.15062071283120865, 0.14535288190111864, 1.0346736012888775, -0.41036006766123057, -0.5962802849956188, -0.6481713028410244, 0.5666384187546388, 2.589244889460026, 0.21451345752084583, -0.9431322774673468, -0.17332057371070989, 1.7379441146987376, 0.14387727370131956, -1.154472526634913, -2.503383917584913]}, {"output_weights": [-0.5168410374732936, 0.6878642352897002, 1.8402005993963935, -1.385953631226863, 1.8773849494636015, 0.3088827394385783, 1.1346008420194873, 1.0332868451541148, -1.3586484387598687, 0.4266941526023447, 0.45165543310507, -0.3150866711702274, -1.7124080160966613, -1.041737607377311, -0.1368044354300247, 0.674095652433619, -0.11856309091866266, 0.4938677631903803, -0.340755317142906, -1.2786403659460894, 0.41276366100816847, 0.44414752933882456, -0.8596607739681451, -0.19684719765615574, -0.4872623182698307, 0.3090239734421074, -0.3436262256777805, 1.928496953712362, 0.7015296192317172, 1.1219500264278535]}, {"output_weights": [0.3590818201798065, -0.03949105537043238, -0.6597423898082105, 0.7139573490926321, -1.5825805666128077, 0.25554853505193553, 1.5560998753277695, -0.4011373399649686, 0.04199273019207505, 0.5826505431761069, 0.13448063968724072, -0.35392702066560305, 1.1230576439542312, 1.37578350930997, -0.5406696284787237, -1.6696701475053255, -0.6715781282407753, -1.049255063880579, 1.7625753781302689, -0.5822572313961057, -1.217125366210505, -1.0024532020336883, -1.0855339325132811, -0.9308643408303692, -0.11484119542351291, 0.31669914110553893, -0.5924002026007003, 1.3833455493875604, 1.1316788852390722, -0.33285984634618376]}, {"output_weights": [0.0893481585727772, -0.3993604416249575, 0.3915044896059867, 1.4020431572157532, 0.20173904521181457, -0.6943519872971264, 0.7590003355735457, 0.3649236115117739, -2.4635138010198907, 0.47841973647967573, -0.029416518482892333, 0.28578473687222905, 0.5581811308062854, -0.1812766277717438, 1.2608623551184124, 0.01332522778647833, 0.4879465330324247, 1.8468449210643996, 0.2674067668697167, -0.08181444225243419, 0.07408151692070915, -0.5075980894757958, -0.20062944093826046, -0.1344551082119279, 0.06756274776634094, -0.058589716056316896, -0.5177688645108451, -0.16437417037601382, 0.6540913357380475, -0.9020255729851867]}, {"output_weights": [1.0167403682118699, -0.1525037523043536, 0.6167763152087986, 0.001467010751113543, -0.7974591085167886, -0.008039633675496444, 1.3129440830954773, -1.7435099763765896, 1.3224078698297759, -0.9710572766153687, 1.2133552222782908, 1.71005124107102, -0.5263931839455264, -0.21694612286164222, 0.6856553275419216, 0.7836271076190091, -1.6102640806865538, -2.187952189643035, 1.3716979148135946, 0.0022101507773704494, 1.0169191350250093, -0.1992832843190303, 1.0369189503827465, 0.3216025452234267, -0.30665229220924994, 0.5588538377836281, -0.5568859142588111, -0.22828032682676933, 0.6587232042808154, 0.7620176176715775]}, {"output_weights": [0.7341501351160679, -0.1154645405181902, -1.5827730317774986, -1.3006231640644266, 0.43200513068941443, 0.5961213743042243, -0.27854716871951024, 1.7043142256521746, 1.4556620917544945, 0.8004816926385848, -1.6377873020140774, -0.25332992222961054, 0.0362761290508584, 0.594639151160729, -0.5095276756849672, -0.5197101563089422, 1.113381491996225, -0.9724717853844427, 0.34849764837571495, -0.7089792094693342, 1.5118881369797126, -0.6709756053785377, 0.6580281740790921, 0.0507270906248527, -1.1442898144736346, 0.18686149317060557, -0.03336971797119685, -0.9339858693836988, 1.2908963259908781, -0.3810968357897409]}, {"output_weights": [1.7997653023773101, 0.22449638623534934, 0.3700213483800618, 1.1545042478592562, 0.6352568245452875, -1.3280164067812867, -0.18622586171370295, -0.4184561423575532, -1.140130321349027, -1.3326913530846227, -1.8732133197874057, 0.8827177270338347, 0.9593986243622155, -1.297741946624653, -2.0759830928962337, -0.8855810537550135, 2.331041907306323, -1.4189881883258955, 0.5507175485019675, 0.36663238726855446, -0.4256946350186406, 0.9062445566644013, 0.23092407089452993, 1.798543685979285, 0.6784140501793782, 0.7645237089888979, 0.37489035634881435, 0.4489774926666861, -1.1198386756570868, 0.06363385281963324]}, {"output_weights": [-1.5894877738368332, -0.025074899020506605, 0.5392056930365671, 1.340272041735272, -0.17691401867483184, -0.17537962915519573, 0.28714427811141413, 0.4500014819366851, 0.39031041203331474, 0.6121994256733734, -1.1172124636084897, 0.9971834397682061, 1.859248947127802, -0.731251215950485, 0.6416524597088367, -0.9653817620720887, 0.05906660785406971, 1.5707938195439255, -0.7173462208950953, 0.40298076401518373, 0.4878564388641666, -1.669999229476965, 0.1100848589225979, -1.1158497903025852, -0.9078289170407235, 0.6834102561395469, -0.02914113895370992, -1.3844337573380574, -0.07847018655735162, 0.07082462617731164]}, {"output_weights": [1.05632563753136, -2.258316754051274, 0.261570985861448, 0.4972489282000269, -0.7029416132459129, 1.2441713317922551, 0.40044209374639395, -0.38599254545807565, -1.853130146996612, 0.08261034112761884, 0.41753012851597704, 1.31837028915513, -1.1325975949288936, -0.5499933555790689, 0.3196524217908017, 0.5258396874476057, -0.7023185513721408, 0.4969653382691962, -0.02656998478830536, -0.5057404833288364, -1.2220255678628675, -0.7296485363401017, -0.42657363602380227, -1.226445797440198, -0.7459350091582376, -0.7380848817156321, 0.4881901174958167, 0.8662836300987921, 1.8908028545602136, 0.32956072207693216]}, {"output_weights": [-0.6125437393499722, 0.20548639927378978, -1.4638490087697031, 2.4326363797616666, -0.7732044840875024, -1.4342086672119838, 0.8258609763054424, -1.493379313361477, -0.7172607334002895, -0.07520244425389862, 0.3871679503845699, 0.09957804501119065, -0.4260186507404101, 1.5372665595232125, 0.3053433460124466, -0.8200776565065262, 0.41827534622340834, -0.015262889507569122, -0.13961013416991092, -2.1278857045505775, 0.10613626475810939, 0.5555692553429685, 0.49004428641398784, 1.4951332048953332, 0.5261608941273526, 1.3567868387700641, -0.8449554806857558, -0.6271304240046937, -0.17286015145602598, -0.741690338633885]}, {"output_weights": [0.0804626681215144, -0.07124109531549523, -0.15096417589019856, -0.5754019882731282, -0.24839913804622155, -1.6331993158829774, -1.2865063574043492, 0.20509880572976136, -0.13814756208929643, -0.6815624708598759, -0.5480327426168365, 0.6152064754768438, -0.448546362424356, -0.17947910043219675, 0.9014447368531769, -1.4332614613181225, -1.5796931665366205, 0.007074799110527741, -0.5584110857782743, -1.00188991385666, -0.6900016678305513, -0.6309193246310388, 1.1770091027272347, -0.8958587772442331, 0.35861856767206035, 0.026987101319892216, 0.6880913299820806, 1.3754533458649238, 0.2692643988890999, -0.8917640744803386]}, {"output_weights": [0.4971544988456499, -0.9692741554591926, 0.02337260362043462, 0.19343772421442437, 0.6733028925428751, 0.3782940117078608, -0.5980280642083403, -0.06409879314338261, 1.0986667302541948, 0.5221392135925563, -0.5043610777500338, 0.4541359789402463, 0.36825940406899743, 0.9903789929314146, -0.7783884142535186, 1.2961701734990378, 2.242257544266562, -0.3834077592894664, -0.010601152251913546, -0.08164434124262566, -0.9365942490239408, -0.9607275556052983, 0.458184023707193, 0.06827290924624661, -0.4261780802782351, 0.12094003191465223, -0.1955785798938819, -1.256388704346763, 0.27622219694162425, 0.15359874187620534]}, {"output_weights": [-0.8933727152311212, 0.7129250225448055, 0.24903010921128954, 0.8613955813696644, 0.6047378386804786, 0.9987541481187704, 0.25286006875053063, -1.8792851813762703, 1.244820839447287, 0.2671046131902258, 0.0020971148084950914, -0.1350790520552377, 0.054080553902108724, -1.610073410522513, 0.7376295693481387, 1.0723156105063731, 0.3065402197741509, -0.27584957543668703, 1.0269346241372075, 0.8189336332927442, 1.2060624726824916, -0.7025142549009683, -0.2613550031664755, -0.582541003706801, -0.6585285441740178, -0.9047539267499601, -1.2158989084565817, 0.5777085910396523, 0.7839815435514191, 2.593773909066681]}, {"output_weights": [-0.13488947004070254, 1.0360225823445233, -0.09535395386751022, -1.2058395796744679, 0.44462960482266217, 0.1129759316667685, -0.2930384472412065, 0.26748084400243616, 1.3260491938907875, 0.7935728619519203, 1.302728753429895, -0.8985883600847, -0.9199790077044591, 1.5051852635142766, 0.00377770229916391, 0.4636544279021423, 1.4233230952569835, 1.8175105821875648, 1.551984135297277, 1.1156257133947898, -1.7033788248002397, 0.3442058992984323, -0.02205484508947468, 1.4481131314117086, -0.5664740798735036, 0.9885729167376803, -2.0379717802560697, 0.04432477672342054, -0.27690954562036524, -0.4792747115938231]}, {"output_weights": [1.5184566798106558, -0.27291717573493657, 0.8775226150120722, -0.9591973625666397, 0.9336435538632715, -3.1591627928560677, -0.7297141337868185, -1.006581712754928, 1.6332360185066612, 0.3598352915204319, -0.3166266644952396, -1.6399291125368862, -0.904236001298223, -0.9919279677616891, -0.041738762698462835, 0.7045061830873972, -0.6867412518979067, -0.16416521550175936, -1.0909827282979951, -0.1039968085421162, 0.5316939865682037, -1.1654583358948678, -0.1564168138602099, 0.6467786667563545, -1.0881719477545533, 1.7883560144026904, 1.6600593084450483, -0.5238149553046675, 1.546387502168905, -0.11147209263515304]}, {"output_weights": [-1.8432967689335396, -2.1416866580039, 1.4981329883725483, 0.15011212349361602, -0.435930345790508, 0.8423709190801175, 0.5700509025245363, 0.29821798401100397, 1.7957345671657312, 0.284443856774925, -0.5857558016005481, 1.0374067046662423, 0.9502123927622325, 0.20816417673429233, -1.7606561196003492, 0.8032318128843411, -0.6472174656264257, -0.20403308749791862, 0.8845460592498008, -1.6484408940687612, 1.7367526608890052, 0.26523800619342663, -0.22820394257380786, 2.410175339946783, 0.6265298291809057, 0.125642888189497, 0.07079444484757698, -1.34062696800763, -0.23852546174358882, -0.859433143470166]}, {"output_weights": [-0.6745790990145039, 1.2251964586418687, -0.668483992996952, 0.3657685417980584, -1.8484161437876385, 0.5748414790681246, -0.6898860625423308, -0.04856551768341313, 1.639822952004932, -0.19018959853307274, -0.6762720027680892, 2.598233085604747, -1.0276922435864082, 0.19480602864695518, 0.8933512421907039, -1.0714517424816443, 1.138822970566839, 0.6128372577846607, 0.7420540473931548, 0.7745829554784436, 0.23035644088502386, -1.7827908077951689, -1.5762873237029145, 0.31547527135994263, 0.27894276608958635, -0.6048023511452065, 1.9763933593904393, -2.4545569156142997, -1.1206538913317572, 0.40287492504983535]}, {"output_weights": [-0.11933008666953177, 0.9722076852689463, -1.7217007453640603, -0.44709530984899404, -0.4245385602563589, -1.2566869096917574, -0.6078718963905069, 1.046545066513542, -2.1767857726518973, 1.2313419775338903, -0.120580267454708, -2.186219764335831, 0.6070106819273602, -0.4008082177465328, 1.243669275415188, 1.8309446136347862, -1.754707305083729, 0.7152502936305308, -0.5615156833825422, -0.282133750494251, 0.038364766248245134, -0.6233605174322352, 1.7897877322828017, -0.07049041835515599, -0.18137247644655588, -0.3851522251069012, -0.0787192271201937, 0.6151399826909734, -0.8623148123793823, 1.4792563076358514]}, {"output_weights": [-0.41431331051127684, -0.36803120662137245, -0.6522874653765443, -0.15818949115762165, -1.4337338848001575, 0.5574248157039997, 0.17568186070937147, -2.191123370233616, -0.6415100020168634, 1.2326364000512253, -0.30379217318123325, 0.9450197344267436, -0.025115492325418334, 1.791488159757783, 0.3794603112508465, 0.5208139244094848, 0.8778485815989764, -1.065066940087999, 0.7050665548359827, 0.3023791554625546, 1.153682835806196, -0.6658185735876279, -0.655917396346314, -0.7009881891102607, -2.1295907857727494, 0.3512713190784874, 0.540617647420559, 0.4317470141204456, -0.5866929367794091, -0.19321105730466953]}, {"output_weights": [3.19115373980422, 0.3992717311638363, 0.0773627415506328, 0.5162552420104464, 0.05774061885089756, -0.5777617684298475, 0.8130763213647896, -0.13596095495080027, 0.7098549806559884, -0.5608837504830082, 0.5436330789355075, -0.28021706101738836, 0.5389823152184081, -0.12568763842268385, 0.1677448651868113, 1.036961596444825, 0.017055634620147656, 0.5431466674528471, -2.0255152337594016, -0.2128319089974154, 1.4558278604192518, 1.5323073996984387, 1.0637893693305351, -0.7240630451837172, -0.7294462463901004, -1.120920774636305, -0.8282407808979199, 0.6965192887865282, 1.4073664366935505, 0.4160557778811121]}, {"output_weights": [1.3394566060728348, 0.05848901729378564, 0.439579827081811, -0.45885387416520207, -0.9441301293171411, -0.5642580439965482, -0.47923039705616677, -1.02763351642518, 0.5933718460965591, 0.13072819665656749, -0.6931441963767486, 0.7777174962340077, -0.29556923706149896, 0.23988826897012022, 1.2313768980755349, 0.02545797653313151, 0.5134500267341585, -1.440990666051364, 0.7390184317487725, -1.1255860009572154, -2.6831262898601542, 0.10136711072563659, 0.27156503895484363, -1.299031565350589, -0.24964865855374535, 1.4573684106555256, -0.9201044967386658, 0.7053899231332739, -0.3043786563262504, -0.531478777111859]}, {"output_weights": [-1.3633611879352086, -0.6957516290417972, 0.13431713888187233, 0.20260642630950843, -1.1035153240696502, 0.29989752850611706, -0.9800523340722318, 0.20921539285531693, -0.6445692350661093, 0.7521856809894728, -1.869632620725872, 0.24263246258531704, 0.052337444503560177, 0.6695401723974257, -1.6119317033877296, -0.2373571011177321, 0.1370343609713435, 1.0510870969130697, 0.9791152608817597, 0.36911062132023975, -0.411905884552652, 1.0140108122674372, 0.24316356573296127, -1.344355623455025, 0.22922524762838722, -0.23701183131391215, 0.37162351265249993, -0.8430135641923433, 1.1015836944566664, 0.313214255477764]}, {"output_weights": [0.06056879145726292, 0.7114644241258842, -0.2884397078678539, 0.6290864271811936, 1.6587630984512738, -0.7506364533192846, 0.9328097744083217, 1.4851963160620385, -1.075790104901089, 0.42688321018327496, 1.26896081227072, -0.7804894273488395, 1.945617106219551, 1.2299601105560063, -0.684146413586973, 0.2910117180098179, 1.1924189713449576, 0.1175502024257794, -0.17073621871979602, 1.093369682776169, -0.9487035748240132, 1.2148490746993157, 1.0300667588404349, 0.5851066517480425, 0.0334086600514343, -0.48157458586276725, 0.10640221746530568, 0.69833350704991, 0.3144519616942082, -0.4772181025180385]}, {"output_weights": [-0.7400634445198686, -0.32907840753317663, -0.2670270373732901, -0.6354391095787167, -1.7373598840560138, -0.13904644133811273, -0.06670604507514859, 0.23638529118974172, -2.0279327581397983, -0.3069659331191775, -0.8478531962931815, -1.4279530849267976, 0.8048582023119393, 2.7426244260747366, 0.6652875817933432, -0.7080676793402852, -0.9087660360046764, -0.12960892883990607, 0.13475739186215877, -0.6201404448531833, -0.9773106987032487, -0.15732747427110816, -0.27176311333979236, -0.8680991107296958, -1.3657070256859474, -0.1298715888539914, 0.1700262433954215, -0.8790976575068168, 0.552132828764743, 0.16414987317932453]}, {"output_weights": [-0.26210598777652916, -0.34014401600719646, 0.5499711307001013, 0.8660819708817699, -0.167131102860624, -0.531434789514143, -0.32224844591581064, 1.3479065664707244, 0.5585197193899325, -0.8210615734471051, -1.202307730506685, 0.04864215096903763, 1.1911671497992153, 0.09066519050093642, 0.9777617924811298, -1.0939067406514995, -0.6806840340336686, -0.6443373434400321, 0.5030739043106077, -0.735209585035267, 1.2984281273165539, 0.06052124722356909, 0.78787775336943, -0.8365645008396521, 0.2461721740948671, 1.8816563908592243, 0.6418249515525554, -0.18010594394935917, 0.4599213677976787, -1.9423322143764803]}, {"output_weights": [1.3023263229972064, -0.9991508776567907, -0.28644430231465123, 0.9055977571710191, 1.391675733286041, 0.5115970330335563, 1.505221802139256, 1.2156121613219322, 1.0011093994116154, 0.23610463206145446, -0.030441993597299256, -0.8828251810156784, 2.379018142566468, -0.4856796577053562, -1.6134463119786786, 1.6786601910317427, 0.04908346896602894, 1.8383158705749632, 0.7829489122234892, -0.16084068639909405, 0.6006397759134463, 0.7843985124685758, -0.4792815540246416, 1.4392134599885162, 0.5052180792236936, 0.3004886542502744, -0.7047422329189971, -0.131482326275807, -0.02542564865482458, 1.7766246006892885]}, {"output_weights": [-0.2930151421723147, 1.2365477175269044, 0.27129677288309, 2.184533244177396, 0.16548919638997922, 0.17032293614692015, -0.7208304916821135, 0.9447658409820292, 0.24346772147553636, -1.8212174700869879, 0.3042229077800105, -0.5075734754718568, 0.5494269638869679, 0.8070834039335213, 2.041983061257283, 0.40455257385735754, -2.1086565832110518, 0.015569300135046312, -0.8366075332248119, 0.6022998511305466, 0.12147652090895084, 0.9635372442169978, 0.059338392422910766, -0.9430188317848077, -0.7359563736219884, -0.041171436714587964, 1.3512167552346521, -0.7729041594129323, 0.25793452732392746, 0.04119144173837421]}, {"output_weights": [-1.1654162424704788, 0.5534774494986664, -1.1475465568618375, 0.5450358541766868, 2.2819450829326993, -0.48632246484304603, 1.0623383289770587, -2.085989146602078, -1.044045015606742, 0.7855941740364475, -0.6920737843520648, -0.06416869505228566, 0.4318394109289907, -1.88926354589144, 1.9642707101721744, 0.37903585545571455, -0.9481402838078361, -1.076860633393306, 0.3972248234948244, -0.45147481852581667, -0.0448236079832078, 0.5314910046792962, 0.3364671222513956, -0.7041803648542588, 0.18818067214714124, -0.17209901843159914, -1.320460882075347, 0.40473181862625746, -0.8158983537855192, -0.21879181552527624]}, {"output_weights": [-0.4962522160016001, -0.2143666728843394, -1.01982281158439, -1.2645139265208245, -0.4765626700377371, 0.5976912696612143, 0.27445657078914676, 1.6014812571283343, -1.3079207714446826, 1.0498837439890496, 1.134918549659582, -0.530690154749621, -0.7801375701490162, -1.6278917477171648, 0.027045312814197812, 1.6447633108021986, 0.3567659468312484, -0.8210996170008019, 1.4173449159123739, -1.0987588362186178, 1.103223446164048, -0.18728575581006268, 0.20408437569352805, 0.05364443730330414, -1.7367953674984038, 0.5330009258401448, -0.28383479795578975, 0.42472442037657177, 1.138831624883224, -0.03163897385422725]}, {"output_weights": [-0.38759749704037877, 0.2139246087134256, 0.26723421254256563, 0.15161202919450098, 0.3690814093749224, -0.5359932342311323, -1.0234490084233714, -0.10346847440131045, 0.47853904497409955, 1.387947448948952, 0.14515838373065423, 1.9036434247117193, -0.612510581307965, -0.7515368133529309, 1.26890549749054, -0.4959056591962434, 0.7412104901083704, 0.017333319415663687, -0.9713156066453772, 0.09593696267774547, -0.9488295042157813, -0.5640085444985826, 0.6178667522952901, 0.3116004687248859, -0.11084818185477457, 1.0049682792887844, 0.7247776429907238, -0.32050363413752136, 1.2137999843198208, 1.0840157516321784]}, {"output_weights": [1.3983107648820974, 0.22732951392067813, 1.805925574901797, 0.5764059323840891, 1.1527512962640607, -0.8150321955482089, 1.2983097254341784, 2.1623517105208596, -0.47575956743727077, 0.361709154969543, -0.422921090215205, -1.492469173796496, 1.5894888139763308, 1.479411371712405, -0.7465821193471678, 0.9726219350026186, -1.1968200426963824, 1.1936720430490968, 0.9522310530843975, 1.1917347699211773, 0.34662536316327847, 2.73277363420827, 1.20734332041765, 0.89474641740421, 2.091779197568519, 1.2595462906055155, 1.0178241808520458, 0.6871969271347568, 0.05337881418494844, -0.7707346153506601]}, {"output_weights": [-0.33336354801439844, -0.08406084030438159, 0.35168590618842427, 0.7033052417536202, 1.0842892498227013, 1.7878353369589213, -1.0231738696606327, 0.4130261818973511, 0.372827920460451, -1.333353109752251, 0.39937430575521893, -0.4525691045925191, -0.034854476003666764, 0.09609012359073146, -0.17909390423401045, 1.0408973539963435, -0.48959952519946176, -0.24321134177962686, 0.1594283913974899, 1.6785550799462714, 0.27495147172977635, -0.6438798382642044, 0.8875097732230065, -0.5022181503107576, 0.3058020175567042, -0.618524257870255, 0.03787620336174651, -0.5473583753287128, 0.004710199817887373, -0.7290665302988114]}, {"output_weights": [-0.08118677437694868, 1.8168619220016962, -0.20145691987434378, 0.9784132090316346, 1.0435530785472968, -1.9377832666443415, -0.7880857160436636, 0.6598086491774946, -1.9659558498434007, -0.7120372674754617, 0.6690557691120657, 0.43920794654511486, 0.10048017967214755, -0.6948050073973444, -0.5914856130463355, -0.9154977700486885, 1.1673948275117172, 1.7673362418110479, -0.03348159784932643, 0.8831823678841696, 0.21040237922716915, 1.1394842809545627, 1.0665194168489343, 0.6246916482730908, 1.1724030311253564, 1.163855137302846, 0.5107956841133434, 0.5784156994021658, -1.4525835679222787, 0.8993390280081388]}, {"output_weights": [-1.0187016227302603, 0.7638906894756955, 2.384634731821852, -0.08501724131712152, -1.0355919557646895, -1.7180849562444644, -0.04581447429006064, 0.7876595408836642, 0.49485239445953, 0.5217461125370566, 0.14538311852583816, 0.5106940104511299, 0.9910012905892865, 0.2729818186859075, -0.5177431591926144, -0.14759769456995822, 0.254172515739851, 0.09133895063030123, -0.14505883155982416, -0.12565858882067185, 1.4419258062361002, 1.8093977643834485, -1.4511836589367093, 1.928062416733857, -1.1730556689942004, -2.1203110322389946, 0.7605301941030426, -0.027675446381547227, -0.38584707947893043, 0.9844893792893926]}, {"output_weights": [0.509444201815568, 1.7401572664151006, -0.39462725535654974, 0.884639728961687, 1.3166915057673718, 1.156504252797615, -0.9186680656712539, -1.182491859311292, 0.5547119311304199, -0.8891680172074333, 0.23638193123826773, 0.28929033568192797, -1.1951006129588795, -0.06126182863101831, 1.482998541869904, 0.007389608872979713, -1.3157241947156149, 0.7033020388358779, 3.400205431979195, 0.7744502719423714, 1.8333036831298208, -0.9826770457770063, -1.3768186184263163, -0.35739747688388696, 2.6084677891685333, 1.0670732768176843, -0.7339619850777904, 0.48702860334154074, 0.4475263943695591, 0.050019649331839056]}, {"output_weights": [1.1306292959325532, -2.1315126665769983, 1.6458306864595724, 1.5220985408337173, -1.2056744739447993, 0.28075509997276565, 1.6342450435627318, -0.25810095354089974, 0.5184210843017049, -0.45449168959010633, 0.031204380114093485, 0.4795665466017591, -1.489469115915748, 0.997153558075925, 1.1673821049858162, -0.685431865450114, 1.48048807247597, 1.0714055924201995, 0.04002445734288594, -0.8301159231030673, 0.18955575344794925, 0.7718568859846715, -0.8083157193084569, -0.20014656474059564, -0.09314977471490789, -0.8447355658131398, -0.24260546594573484, -0.17663645893348695, 0.08400505059058093, 0.7623355773455353]}, {"output_weights": [0.656078199561022, -0.17881490348401785, 1.5959936073596812, 0.15091023438869094, -0.3571103788946602, 0.07196904424529695, -0.49149834831918227, -0.2716843529365676, 1.952172113251643, 0.3689780616885486, 0.014087325566367638, 0.7997395253000958, -0.6903777250158176, 0.559093795950029, 0.8986359806727398, -0.23521166582878075, 0.0778201001878501, -0.6244006550799258, -0.1680508157569069, -0.5436935837948307, -0.4871716286242001, 1.0892020307062225, -0.6287166766198095, -0.3159890113908339, -1.0668021454848613, 0.833544714411136, -0.42576560724215146, 1.4381185035951496, -0.9477809126931854, 0.009814603964718277]}, {"output_weights": [0.7431947791197793, 0.1723551633532972, 1.7220910727573244, -1.6195383101528882, -0.5672186345809326, 0.33926201446791027, 1.4278195931131055, 2.1080494837749777, 0.21213578296495994, 1.294776327676044, -0.7841525842556835, -1.292856151682405, -1.3199758687044845, -0.07055802848281689, -0.3626135606947297, -0.7189089341626176, -1.1166566956041395, -1.6289183251920931, -0.005878349941530103, 2.364283869403404, 0.5440629308056832, -0.9016147884598404, 0.5980533607443597, -0.28608189402354756, 1.2152875868663233, -0.9841347780299049, 0.009257265780460922, -0.14218899811082103, -0.6887807091995402, 0.7813123276045019]}, {"output_weights": [-0.5618803787337302, 0.4876254728623699, 1.3350042784091622, -0.5469288766664225, -0.46135741481139064, -0.87334421936462, 0.3399827882262737, -1.802680328885619, -1.3014772483959591, -0.18467225126677494, -0.9564401225318406, -0.503196355247961, 0.04176786068221405, -0.8398443603346396, -0.7220322974571901, 0.18631559559710814, 0.4807380826215749, -1.1333260114410015, 0.2651224127053219, 1.601187517125664, 0.2047137448510755, -2.074802077122275, 1.4900156407849527, -1.3953279361795983, 0.6519757093169978, -2.3605116329009723, 1.6981200590427297, 0.9421095956303813, -0.9333731750244018, -0.4458689319260186]}, {"output_weights": [-0.37060621922383113, 0.24554915536759114, 0.6391494390524345, -0.13607948839925166, 0.4262560481061526, 0.9194578345658728, -1.00802953968183, -0.0729779442913053, -1.3213757282364267, 0.3066492950948068, 0.25657784819629664, -1.3334020495904895, -1.2821495884435858, -1.8125984231877652, -0.3117102226010797, 0.2447532130523183, 0.9802911388256417, 1.0343706101567225, -1.4903580462274688, 0.8836808828479831, -0.983755744190275, 1.1697217749632192, 0.39049211889499397, -0.18664828563951916, 1.2050474069692376, -0.5599058841986125, 0.439608390451463, -0.030267824173787525, -1.0224632598895933, 0.09720398772761836]}, {"output_weights": [-0.7998569485101092, -0.8768550580848995, 1.2970672752418657, -0.6243869735801838, -0.25364375664332417, 0.22610445181730043, -0.8330204135430831, -1.4619935853680686, -0.2684008741402495, -0.4375592888824142, 0.7878445483787762, 1.1317291904582325, 1.608190034585381, -1.9271950133291063, 0.3096398748560167, -0.32959029253548333, -1.9076198293556592, 0.05444874634507399, 0.6113974302880543, -0.44282145865690137, 0.15712592650178633, 0.3213908513057869, 0.3815906109824877, 0.3307482623955236, 0.14318012118410534, -1.3581474639760058, -0.5898970517281966, 1.9759293513493217, -0.9687274295720153, -0.42904878769014015]}, {"output_weights": [-2.7165712429088513, 0.7147954768346839, 1.0686295972795983, 1.0629796867803996, -0.42679523177438283, -0.32227206844619066, 0.1751066803378221, 0.9404169077856868, 0.10853044551267026, -0.42419376224564703, -0.2767140064515434, -1.4054195241979126, 0.06270022441175953, -0.14023044679078567, 0.6586803819938771, 0.07614678413663845, -0.727607650875176, -0.06629298620255183, 0.7203203325488476, -0.35958345539026587, -1.283866028650125, 0.5468864692170766, -0.18722917505082917, -0.6910124918927445, -1.2020588835115098, -0.8543532950837919, 1.2016640414987967, 2.0596903017432187, -1.9780486108379634, -0.876207992495992]}, {"output_weights": [1.1467456723511102, -1.4906739441828458, 1.63390577365949, -2.128866169002439, 1.7745450776606793, 0.8455775534498928, 0.04291640112769725, 0.8537250392683593, -0.06027431313124535, -1.8542129077255711, 0.616827939316117, 0.04138257850540776, -2.764572278741722, -0.40345495219906147, 0.7860969651165615, 0.19729406310285508, -0.0889893730151409, 0.37376489979399413, 0.9314525943484323, -0.7231869655324551, 0.24885858886924372, 0.24667850980946904, -0.8986433531649332, 1.3525117751164903, -0.529287629660969, -0.6911228017717737, 1.0129563239941195, -0.2480544894336235, -1.6154872361539931, -0.8543135537246817]}, {"output_weights": [-0.24303716278284554, -0.8557170611485205, -1.7528324282393175, 0.3747381494560296, 1.08299205292202, -0.49808126906120054, 0.6585860976031739, 1.0792993279113885, 0.05654351234069186, 0.9246106826182229, -0.09286312785731442, -1.2615375667978703, -0.13222999789645334, 0.24265767151216686, 0.562746437092365, -1.7056395203673347, 0.6320715961597783, 1.5854200563616214, 1.387247314740954, -0.686310638750799, 1.7327010292706357, -1.6681913236694483, 0.41596802816016404, -2.599241079199743, 0.11573038102603224, 0.39299362447521685, 1.1238470719011275, 1.0900386487472307, 2.014108142149774, 0.3359350100211579]}, {"output_weights": [-0.3329107989044204, -1.0420008115612525, -0.3499350957125655, 0.008792948004186812, -1.742190058502043, 0.36217916975913483, -0.42332027826596763, -0.06518908060619974, 1.9182851960687755, -1.0550537823398083, -0.7794006862760235, 0.741088311525412, 0.49606641364046533, -1.3309177376085934, -0.030765688768961623, 2.2360822367859914, 0.2773640074929699, -0.8696648199539372, -1.814707952957358, 0.5418825339376121, 0.6149334520541144, 0.5882138943285978, -0.7163693708040811, -0.8877609184472186, 0.05152602260081195, -0.02199012139891725, -0.2174514771614138, 0.13312112709892313, -0.33880916478285605, -1.4150941609323295]}, {"output_weights": [-3.511233441160745, 0.4510455490462742, 1.335200051994753, -0.6671316224169315, -0.8923001879364431, -0.37101440633325106, 0.8836541486565999, 0.453489473965042, -0.6495545494395409, 0.8864360748520859, 1.31496092736036, 3.2879183544851784, -1.5935816210978742, 0.25394494501283027, -1.5570356931259992, -0.3709666661173969, 0.5709154208747206, -0.6330937614307891, -0.08103040790972212, -1.598339821586706, 0.47402877851633857, -0.6685599974475556, 1.0470556115713554, -1.3410071726376585, -0.019609014399067516, 1.1530896182495494, -2.2743600478275297, -0.9140699741627937, -1.38839490324325, 2.213804051421958]}, {"output_weights": [0.042042583894588606, -0.5749596202933009, 4.194900860377935, -0.4084192609248571, -0.39351919030868215, -0.7324254261362795, 1.041559083259687, 0.47161461124940957, -1.2898093511945283, 0.4734771093961497, -1.257943724679028, 0.41550929563549677, 0.3276807973363504, -0.25076943465326806, -0.08908164336026664, 1.1395225250317438, 0.6508619603098899, -0.12783516880965254, 1.1525465517764006, 0.3639232123485377, 0.6571979145600676, 1.6079659805465973, -0.8833208422177076, -0.1608647731488408, 0.7130881064471364, -1.6086243292013434, 0.5426549291357453, -0.5040644700340916, 0.5308108228975315, 1.012114676202395]}, {"output_weights": [0.33912420526524184, 0.6417309612353749, 1.3677200673788041, -0.44473436630507424, -0.49103451356485645, 0.7031236097690864, -1.4585991301625443, 0.9381689699488953, -0.03664585415825821, -1.2907912782680913, 0.3273730789972964, 1.938972280443762, -0.673377705930794, 1.8048282249532173, -0.4259906040641998, 2.1458239934319274, -0.44005996780607143, -0.601332983619888, -0.47525777812771614, -0.8156226525632689, -0.0034676781042481055, -0.12052719587459791, 1.2101800300255463, 0.2823201383980858, 0.4493417315105939, -0.15920523204646359, -0.1514056090563176, 0.024426820506386535, 0.4652927696263788, -0.4974876773087472]}, {"output_weights": [0.5554443019009625, -0.34958286794384225, -0.2445527234750123, -0.3611349899689207, 0.307101429112907, 0.6206189971199692, 0.6277111959088104, 1.4085586805541792, -0.5951248004843005, 0.05005718529429277, -0.11356103737112508, 0.41847769029044896, -1.6493389130837863, 1.4165176354645268, -0.4732535458405287, 0.37348458656890554, 0.874481794364226, -0.40372271357407974, 2.24078860459291, 1.7840051261816632, -1.8572900564577686, -0.32875023130889375, -0.0233825357982677, 0.7601747868197707, -0.38013082385039976, -0.3083369496555289, 0.373550416306412, -0.14799520819108067, -1.1712833545915637, -0.2141733945665017]}, {"output_weights": [0.5026305759890314, -0.29421842265838394, 0.6562439511832461, 0.1944161059684789, 0.06830284666288898, -0.8804481963202789, 0.01564343240664585, 2.0357115609100886, 2.4878854726289896, -1.0025258958790024, 1.432626642228597, -0.4195318374464136, -1.7032803242976136, 0.3120609854859141, 0.06690354358554848, 0.17881903736319824, 1.158261403357353, -1.6757371197842814, 0.0037175656787922797, -0.03105808192452143, 1.6503006073376045, 0.7979636298895624, -2.212460797821726, 1.9281193132460401, 0.41032167012250603, 0.35646301288134297, -0.6381282116457792, 0.8178223951038905, 0.02770259231101349, -0.7205615026610517]}, {"output_weights": [0.16432548224647947, -0.6212216522154429, -1.4164417953184625, -0.3925981639277142, -1.1770414857678457, -1.6687871931492269, -0.1325379920307328, 0.7834551368553795, 0.5950020506335856, 0.07579320290441303, 0.40056718148030207, -0.7007820790402407, -1.4712427989673424, 0.37235775160750983, -0.7173760236146058, 0.37655143660237433, -0.5003442970891189, -0.33671393857677356, 0.42808249923332864, -1.1587422845904882, 2.6135397907851687, -0.6806342528259914, -0.661510495201295, -1.4630832762904313, 0.49377428928072903, -0.24673510684550312, -1.3280507644596422, 0.13060948791650837, 0.34905912790900534, 0.05226171586235404]}, {"output_weights": [1.3711477341888763, -0.3646558358889685, 1.930563801601855, 0.234922273511987, 2.212531243952575, -0.7084967702900042, -0.07957041188001948, 0.8606527218696078, 1.797936748797931, 1.4730728516715819, 1.0889182163784605, 0.5056653511539076, -0.641257752996421, 0.9298219693448557, -0.591338323300534, 0.9683796202553581, -0.3018995237485168, 0.2693563614992169, 1.1748086797151196, 0.8162759320982638, -1.3007542830676149, 2.207561433164681, -0.09415986286603077, 0.6271456063863127, -1.0592084930910248, -1.6330775289188502, 0.49131776511683384, -0.7511765820625508, -1.120266963035456, 3.162671317775774]}, {"output_weights": [0.5524118380066546, 0.3265163358243165, 0.39631910559304295, 0.5521848509086884, 0.7421409584804954, -0.5187164765599619, -0.6949360245886927, -0.19834567176379225, 0.9564918134886392, 0.8876869191727228, 1.0998764561950107, -0.869510644141773, 1.8388355976862611, 1.9000564200408248, -0.4777093056071928, 0.9225413180591798, 0.08808039304599635, 0.3382878214178795, 0.08474811303354708, -0.3485477648696014, -0.5459289003116847, -0.14248242046153894, 0.07747004230083085, -0.46598208410808567, -1.2979928461001327, -1.2035843991644009, 0.34989796720255906, 0.9285563940596419, -0.49405916544962225, -0.5243758899170978]}, {"output_weights": [-1.1378905731899986, -1.1339108363277837, 1.2288415680026374, -0.443673506876319, 0.1848532070021464, 0.17446901812838211, -0.3800873416315689, 0.0014836201846221543, -0.4009519167898104, -1.6758658783088505, 0.9979462234338563, 1.0243281375192066, 0.29917716413255496, 0.2986398662291352, 0.046484230695956766, 0.43878230925025885, 0.3873723113557684, -0.3462274792028351, -0.020969889077817435, 0.7765847749879999, 0.4107319465182016, -0.22738636790353847, -0.8434691643228397, 0.7432732344023211, 1.3311027132516835, 0.926421083584481, 0.24313202649425247, -0.2374218245122831, 0.5363344369408294, 1.1448593906244906]}, {"output_weights": [1.3654758925996011, -1.1844789608957758, 1.4619124054697112, 1.3023335904309274, 0.29730732308098784, -0.5714242690650324, 2.2219698542230386, 0.30360160167703526, -0.15555067211048304, -1.5820339662011302, 0.5153537896932439, 0.4794122942791792, 0.4029678127296187, 0.33244699480351764, -0.43274598674965015, 0.4642524108525683, -1.01892032985952, 0.3731424019807768, -0.1263170395019237, -0.8106907692441655, 0.31863293095328343, -0.22989072045399886, 0.080004687386668, 0.4611417998510128, 0.6059076512225117, -0.5606039017243512, -0.5345197258067089, 0.7946540098148415, 0.5007855883277659, 0.007106812378803143]}, {"output_weights": [-0.20275132800554008, 0.32066663246564936, 0.30538221043488095, 0.7320164547614039, 0.5717599688102113, 1.0689806397084871, -0.044606119113501694, -0.012201044438471025, 0.2006887503353957, -0.10354461903750911, -0.04552930694109682, 0.14699573511647943, 0.48346785796621095, 0.46783229533756077, 0.45700236504419295, 0.5769610675748332, 0.9281763311633401, 0.03739665330561411, -0.38827757198294777, 0.2896956301041519, -0.48190563665406433, -0.26045659831520107, -0.9615854618938247, 1.453997836791007, -0.601352305568564, 0.35655953016795033, -0.18955317019000717, 0.46281900379608953, -0.12688073520479015, 0.6091760276228152]}, {"output_weights": [0.30106143934569585, 0.013356514912777015, 0.07215218766762112, 1.3339648584369777, 0.2790689161121004, 1.0922059256538805, -1.1151320032634247, 0.6840363561274286, 1.0929053384138852, 2.67541006074561, -1.3773733481690233, -0.5222529202966125, -0.38984071499776163, -0.26223607056872833, 0.9091116176829489, 0.6169085266931571, 0.1132884190529501, 0.45878546611361637, 0.902793178356542, -1.867007884111933, -0.6391192539740697, 2.499870149174889, -0.8311537839154904, -0.07921894147710137, -1.622635036727279, -0.49123174303890627, -1.448842458158818, -2.200494394247677, 0.2777852670518121, 1.7653558885015925]}, {"output_weights": [0.6344449733871228, -1.471749357392238, 0.3365310572945957, 0.8025216423283452, 0.3295867190470813, -1.039350237929733, -1.4493484671432664, -0.8450743613573722, -1.6542810518422115, 0.3845718408829232, -0.43391291293966944, 1.450741123748558, 0.05808850912583111, -0.5529125095728141, 0.7404634561056764, -0.29002119202086996, 0.032624472689674174, 0.8225268992851382, -0.26633528831106923, -0.863284014792579, 0.1400129446573416, 1.9109105719259465, -1.0932842832012997, 0.4217516476597967, 0.6213383106729408, -0.7903111734033526, -0.258082602813058, -0.5166628938696739, 1.0826509942108131, 0.12116608225635998]}, {"output_weights": [0.7341906134094629, 0.3019720252587763, -0.7501183376824913, -0.4060026817987867, -1.8165435146583035, -0.4424283198432459, -1.9559885761632578, 0.14413403266199273, -0.4753995723359838, -0.35092238827938643, 2.1573103062481134, -1.136990693585686, 1.494601738627365, -0.4442549333944232, 0.5377828356725227, -0.1437242400673675, -1.0714191247728748, -1.4422438516650093, 0.7423633443541265, 1.1468550271650797, 0.04176428357067531, 0.48070403530978184, -0.3271133470582434, 0.5106504130973316, 0.43753188191141157, 1.3233486413598574, 0.2957137915706937, -0.09357097903660884, 0.32942425177777923, 1.2373735262842402]}, {"output_weights": [-0.5909500254009858, 0.12411796679264647, -0.3258231327380294, 0.21239778664307887, -0.20745384544230083, 0.874331902498773, 0.7118966181743034, 1.3994552167608558, -1.3869272858785668, -0.4972437485286368, 0.9048493957579276, -1.4056619937381534, -0.28979628132825613, -1.4529250712056905, 0.2071419936722966, 0.9529127364974918, -1.454978125276961, 1.0787313168333996, -0.5420048327998551, 0.3594082039584551, 0.387194226470145, -0.09685032931520912, 2.197685797449464, 0.8265015187226515, -0.8340578950661853, -0.5176900170487403, -0.2837371273717326, -0.5552887389790468, -0.15195481521648435, 1.6360645311896433]}, {"output_weights": [1.3420207699944915, -0.41967544424824016, -0.4812591321901357, 0.5152178307595566, -0.7530643208123478, -0.5130891498829453, -0.2138883931077659, -0.37537027710407356, 0.374271473482509, 0.41823956248826677, 1.230493421192409, -0.5958698065049095, -0.3656385528465764, -2.3397531137468732, -0.4838960427360409, -0.37885078049311915, -2.9631687330114382, 0.9353449578122351, -1.7516234219312319, -1.1895366230194935, -0.024757895772096795, 1.9094474405300677, -0.029248475491671883, 0.11150811670013228, 0.11058141201055297, 0.5051694924603001, -1.3540219932008568, 0.4661227084961722, 0.590653818033595, 2.0258311399892084]}, {"output_weights": [-1.1103193941624423, -0.5818801340446664, 0.09495347945543278, -0.7105870143064732, -2.008332646912081, 0.3686584272328386, -0.49702710266985817, -0.3622012100724643, -1.0647117618844772, -0.7762318478351744, 0.030637187444070617, -1.137878727204448, 1.243400289368016, 0.7286022068236077, 1.345338512660761, 1.4775950268592477, 0.5491945671451105, 0.844502547766482, -0.25775362379059774, -0.717440994586304, -0.465551921722926, -0.22868776308014976, 0.10985508756845232, 1.384338573113939, 0.24876273675205562, 2.1907474233322897, -1.0085977687316192, -0.5408666726791868, 1.137385839879581, -0.2627523036880036]}, {"output_weights": [-0.46367131732529404, 0.8555482863031796, 0.09690261356562645, -1.180578149595273, -1.7539295920896871, -0.029217480458116996, -0.38663953316295985, -0.20481651073130805, -0.29070221536677276, 1.324937548113296, -0.12189914236651443, -1.0137281761161283, -1.5327756882840355, 1.050539524458895, 1.120017387380851, -0.9776313248464464, -0.9425529802727323, 1.6740987368522469, 0.5883486198871443, 1.280240763941127, 1.2459230251439517, -1.123238950535645, -0.9251020488799191, -0.32753191264274734, 0.68415412810634, 0.4116280478372746, -0.7158601324434614, 1.0149010814129549, -0.9607912133831449, -1.2064097699270557]}, {"output_weights": [-0.5177543000290729, 0.4778236633577408, 0.7842763586110537, -0.2900042811806275, -0.8910950445895368, 1.3378115254967449, -1.6970574380215637, 0.19949786641205358, -0.8909410645283117, 0.9417000891489896, -1.4268425164614649, 1.2591678382382667, -0.7579569964935384, -1.4988030263097312, -1.4735275370900052, 0.40896108329661046, -0.3600979428578642, -0.2716275953325652, 0.6091167504250883, -0.5176464543340406, 0.00960632604905542, -0.7990319051023906, -1.243232458901523, -0.5151555190334587, 0.6277180167306609, -0.46421822346815195, 0.580017627701557, -0.39427485427391773, 0.7477030355387283, -1.2561528906159194]}, {"output_weights": [1.8867024868375284, 2.617920291719224, 0.6531756636797155, -0.20899529271584452, 0.9022614278646169, -0.4040484562908153, 0.2446305318070746, 1.302629328137652, -0.8713670874603489, 1.1647557786566238, 1.1133544315035562, -0.49436934507988106, 1.0535782680788495, 0.6584367481688118, 0.7060215364820298, -0.10904061192756426, 0.4113476061794411, 0.29999909495613186, -1.2132236400019034, -1.2615702218963118, -0.17668119480023062, 0.7481614202866458, 0.9483341351977004, -0.13374941684752498, -1.2254245913060868, 0.9119210276059104, -0.4376938577911679, 0.16738341746937666, 0.17853876578647415, 0.8249470229150645]}, {"output_weights": [-0.9093568823813417, 0.2102368456675798, -0.8470505065931428, -1.281107024223925, -0.0538910952181089, 1.6337751216230816, 0.4541377169383386, 0.7191699444896389, -1.1062232948494082, 1.1273784772840163, -1.6537924202245715, 0.6314463294505551, -0.09510600059215503, -0.6703301543346003, 0.50700466723435, -0.25941145509941127, 0.006694064590377328, 0.9364955407190753, -0.6210434597878576, 2.035735898680392, -1.7101069717380375, 1.6777080215589149, 0.24357895902837295, 0.1393101626364724, -0.2806728502538953, -1.2526331291764552, 0.7088723115033287, 0.48120834133724594, 0.44685417298213626, 0.36081388606947806]}, {"output_weights": [-0.42449721679963215, 0.6384096192947802, -0.6592549303814241, -0.5517789929467839, 1.2007229233877408, 0.09196126556876387, 2.0049832536016323, 2.263096241282024, -0.9894928600747636, -0.49461897645105934, 0.7262170751146917, 1.2602335336577013, -1.0829002870630406, -0.1720955919298534, 0.20326262738544115, -0.22003972313513678, -0.7579269798977664, 0.4073240031420706, 0.3038437688035271, 0.9908697013695563, 0.19807448666665092, 0.09609603223054439, 0.7190602047278061, -1.2421479575396024, 0.7698452521227009, 0.640789375209672, -0.3630169313248078, 1.0096686833978101, -0.8850522410884575, -1.2250255115998887]}, {"output_weights": [0.0772691698255604, -1.511757597164593, -0.006193940456512799, 0.8278683687743544, 0.9674352534951617, 2.4725105648463535, -0.0481301167153072, 0.15489536238667204, -2.233645627878334, 0.4953021769022514, 1.6709039522107907, 1.3150956442768134, 1.6117287245149705, -0.2266495942615844, 0.6043982111670774, -0.2375534180603503, 1.2438237603217672, 1.7452551644751542, -1.1487876708184714, 0.1028954348908197, -0.8700287770953877, -1.2348507426641768, -0.8563676984406589, -1.4762926746917528, 1.2572472138251545, -1.1980585599608051, -0.14412428738348218, -0.5710697643777642, -0.015361688696697276, 0.666813442613491]}, {"output_weights": [0.09543994808938568, 0.8601255221619682, 1.098026771848285, -0.433455741443397, -1.2278538451171466, -1.9961055745573513, -0.11493463699834426, 2.067880707758007, -1.573721136188869, 0.4617587363152032, -0.4308730850601268, -0.3264682699166032, -0.01173462162297098, -1.5175583006730764, -0.47664820343668873, 0.5620126378060957, 0.783188685400253, -0.7821136418021646, -0.5077588025467756, 1.036818160561642, -0.5317370461272088, 0.9508900568726104, 1.0571952137605123, 1.5879527565248184, 0.6962146253845939, -0.09656122402755506, 0.7786185504279461, 0.162594500814224, -1.2349306608109965, -0.10010356181642881]}, {"output_weights": [-0.29278119426590143, -0.9372080977735247, 0.6281108416784185, -0.6680654559843776, 0.7178505021863291, 0.9084997171049138, -1.6562571985456893, 1.8886038393918776, 1.0997442049490074, -0.19911052599054566, -0.7409530442789831, 0.33720802506952263, 0.3669031382375061, 0.1496584052377597, -0.8764353786364207, -0.016271218629477505, -1.6299065624049824, 0.24976698941363148, 0.43641038045796626, 1.7040066022384912, -0.4743133659392655, 0.5318241855878185, -0.20786603567345135, -1.4649321186274349, -2.1374561079336067, -0.015015049938625704, -2.1152104986851477, -0.09485256818210124, -0.3301206648729985, 2.208129180815239]}, {"output_weights": [1.5857796139984928, -0.3660737715097132, 0.5055648194829908, 0.005915753674506995, 0.4765552757245033, 1.5862866663264845, 0.10650504009832093, -0.9488042099910188, 0.6723300625689209, 1.9472430872636919, 0.040323211960248344, 0.7180001164064553, 1.2577991044444414, 1.5266302671810403, 2.4118889590387673, 2.7958247306327815, 0.5053157632563037, -0.64251612424717, 0.23392351396801606, 1.618839052420351, 0.4110652812640663, 0.6638326781419592, 0.9803344237725231, 1.8417854235529867, 0.35263030967856707, 0.5335160800890416, -0.6725394208573049, 0.7077436436175544, 1.8959105770204931, -1.157742597646385]}, {"output_weights": [0.10964183224138477, 0.12215742129725984, -0.5420392142503471, -0.7195203936726886, 2.9566866027734098, -0.35205390273852966, -0.26151725889016675, 0.20353659560353946, 0.6934077202574807, 0.6583343114589189, 0.9213781009824952, -1.1721015836604416, 0.29516953562792714, 1.6098201099335416, 0.3346337867131839, 1.7032649625563587, 0.375181892560768, -0.3124456247892265, 0.3537401718425884, 0.982756701136995, -0.1735780973828265, 0.37245739368426384, 2.1108016893732198, -0.8156983092399058, -0.29278601143353156, 1.4152247456037474, 0.1915672851427555, 2.078320020917636, 1.1289606449199074, 0.195154214369871]}, {"output_weights": [-0.5704397347051988, -0.4521977782742701, -0.8708914426139012, 0.5336462789514845, -0.20367241483408519, 1.7086910489879727, -1.175103187231698, 1.3362378451629842, -0.75597520972761, -0.5527761771232991, 0.04053488674697217, 1.1070942177530496, 1.1782256546791656, 1.204340769227031, -0.06315220197164974, -0.22266119397270134, 1.325984428616896, -0.16246990757331567, 0.22608062766158252, -0.21251313712634504, 0.4354452471472834, 1.314042278152645, 0.5178540277786429, -0.5233219184667696, -0.7246992164819609, -0.28029336450841275, -1.1779242268013528, -1.5972878767333507, 0.6928722261844914, 0.8619636038370014]}, {"output_weights": [-0.39966564962556184, 0.2912379724438292, 0.24231302304587476, 0.8773562781266238, -0.08086588908567854, 1.4797859199791452, -1.71344209404999, -0.7352204406923979, 0.46580372745127624, -1.5109241556051136, -0.14241503008505704, -0.053437336884041384, 1.301444318335565, 0.8687183776422251, -2.191669550988509, -1.2490197612855423, -1.4470016076498224, 1.4529849974633278, -0.2748891575035856, -0.04648582285786614, -0.34732602940600943, -0.4519388103417236, 0.1638155536679587, 0.08412464170131626, 0.9186787323998333, 0.47607672567403814, -1.180287831387441, 0.01490049805757712, 0.19147227583496343, 0.28759018548998]}, {"output_weights": [-0.19617147964062032, -0.6624087974425549, 0.6670306214259736, -0.49555870276994346, 0.44050977517365364, 1.1852069960971177, 1.0269328266390476, 0.3380993937766514, -0.4881705331993748, -1.565226995167597, 0.04418311698326339, 1.0675688233155551, 0.37803496114190344, -0.9388293359450197, -0.007892731250213517, 0.24202053413498467, -0.9221660836429342, 1.6422090390847326, -1.010192531669421, 0.9360687650902358, -1.1713619998533369, -1.326017439125336, -0.639422419436442, -0.04954253940717059, 0.45617213194423634, -0.8332588283000759, -0.28170066108653374, -0.5769551415921694, -0.2524105370443444, 0.8765814951366964]}, {"output_weights": [-1.6355218819007877, -2.076160718851123, 0.4584106606697427, -0.4283356015346286, -0.8324062143573263, 0.6694467678211603, 0.650652765239518, -0.2885764864476268, -0.7230817831519453, 0.2030420156104076, -1.07048717515658, 0.11668967301002536, 0.6675216162353554, -0.022675049332810646, 0.1288322404799875, 0.5721153305765254, -1.7113015607308497, 0.20143143329128285, 2.167751109019589, 0.8697721294337601, -0.16169887192866397, -1.2026081884916568, 0.24432893789026378, 1.2393880023400792, 1.6157009782114058, -0.2039529356560044, -1.0949296993742164, -0.6234416569261649, 1.3446107226579231, -0.8195286237074787]}, {"output_weights": [0.517132454744143, 0.19666010327269343, -0.09238828246577849, -0.22901870336555857, -1.6633513707477827, -0.8840514956651507, -0.8136534076583085, 0.8819509243010285, 1.005729977571004, 0.6770830435107188, 0.7744775941430464, 0.2561610002732242, -0.06218750647594799, -1.7605260720187241, -1.2803222812812778, 0.2580170556674759, -1.0458728349451774, 0.06644346526838221, -0.2076405583096059, 0.7590843090095934, 1.3390311520197542, -2.3414158761148234, -0.5101897653511669, -1.7871878891645994, 0.10997687271601816, 1.2371961562670903, -0.3018603363275568, 0.5474080129005098, -0.9265864086984477, 0.09869998524479236]}, {"output_weights": [0.9398301697022737, 0.9804687303344315, -1.3291734848991608, -1.4194922342736151, -0.28517274354535566, 0.17143166589623332, 1.0645638720274224, -0.30511134459506817, -0.8121653410662982, 0.4689263217437541, -0.0473267912667205, -1.458867758261439, 1.8036632172401974, 0.676446019916367, -0.7721131505571351, 0.8271281783978383, -0.5398913178676016, 0.41792050333627145, 0.5710286261670238, -1.8045287920752167, 0.5337858919231931, -0.14051385860746055, -1.3204936776362608, 0.33354652319093814, 0.4437197946499752, -1.469252200961171, 0.4630092190866333, 1.3876798523248444, 2.0704644466559574, -0.0003457294721147093]}, {"output_weights": [0.9854522048596399, 0.5469605496003483, -0.4844704091610944, -0.823885444719652, -0.3163555182202193, -1.5495581796220712, 1.8237098830497414, 0.20301929678528144, -0.5839941060046009, 1.3367197289113912, -0.15897723201439823, -0.09704142813388797, 0.41124953332744635, 1.424462325905729, -1.6524412955834062, 1.6494715565048328, 1.0857377690188952, -1.5184527940214119, -0.5214189025130289, -0.610956106097681, -0.5893547668107139, -1.3889596648567564, 1.1384051858994113, 1.4732079225713737, -0.8771871266085961, 0.17764084213544495, 0.3777240855058993, -0.05595685814080717, -0.5926067705832481, -0.1258613489982732]}, {"output_weights": [-0.16683334317343265, -0.7014351877793303, -0.10463531112952627, 0.5637403698554107, 0.055396496526890854, 1.2576178228434216, -0.8361953811969228, -1.3133318472461835, -0.6337579113477045, 0.6166025641474416, 0.31729728234247384, 2.691049872148262, -0.24217275262391819, -1.2070115323544073, -0.17696254253760152, 0.4990298102509698, 1.0680385880647758, -0.32879847684173313, -0.6969874947826318, -0.41347061071651225, 0.9956162725511165, -0.6960562183636628, -0.9382261364626953, 0.17241460147215498, -0.6442597944538964, -2.049814688833729, 0.5135946550616951, -0.7770200809908111, 2.412485098819762, -0.7130150235355301]}, {"output_weights": [-0.9993401727801287, -0.46880949179776804, -0.40950267106997323, -0.05960516474272544, -0.2128026134447518, 1.3206591568250639, 0.5299616218604652, -0.2305881746325023, -0.39225725658212257, -0.4310756654616731, 0.9562758891742652, 1.1457463320740522, -0.38118327580542727, 0.8882229498179044, -0.9206510440206244, -0.3672888965628096, -0.7503079824692769, -0.32724527906495826, -0.28129548874713667, -1.8644130647630939, -0.2779114101266734, 1.578523950491273, 0.24531128493982005, 0.033836064016034104, 0.09376971715895471, -1.0605120978927265, -2.4743687753172825, -2.1620995916573866, 0.5381593909716484, 0.17503764783341116]}, {"output_weights": [1.758069161221504, -0.4676753949802682, -0.1479989132722748, 0.5971143282652079, 1.2058421030264732, 1.284062876001816, -0.04208751195662477, -1.696786823052292, -2.1695794994324964, 0.8669021986466974, 0.5156948174114437, -0.5889488517450681, 0.8879198688682102, 0.814465837913842, -1.4798021505717385, 0.652159398176381, 0.13957719031938687, 1.007726265339192, 0.5576451870758052, 0.6191575720462187, -0.772124844789411, -0.3814054323430854, 1.4484357923536668, 2.9700271688305526, 1.749993928308374, 2.2802103672480416, 1.1593022611758892, 1.3033494873384068, -0.2293266684220779, -0.12444604489779686]}, {"output_weights": [0.10542308433988593, 0.05035791978560565, 1.025378480394076, -0.1493466038018639, -0.314038600962611, 0.5231598074930919, 0.33338057176269487, 0.5002885258189599, -0.23537907577263564, 0.8277543030217579, 0.7362005658424825, 1.0537459213334834, -1.679723263082586, -0.7864781313227339, -0.9384509801193178, -2.670691062406114, 0.20126072167234266, -0.5286045292804721, 0.5785549118714547, 0.48674895504697385, -0.3723022653936924, -1.6397007030642943, 0.22021333094307355, 0.402671155871332, 0.2688664611510449, -1.4672782626065928, -2.5118084735090394, 0.14019352481867722, -0.7417218125142079, -1.0340523288420544]}, {"output_weights": [-1.0975805903570475, 1.3611561886147918, 2.1127238162330433, 1.1717134453431433, -0.9866483629364158, 0.9090001389807839, -0.05040226999202797, -0.3642621889649078, -1.0976472794460157, -0.6172382473116392, 0.8163826834491604, 2.1606453649832993, 1.1718434330819782, 0.8402788754215772, 0.5453043425314665, -0.5770908553139036, -2.1851800597531863, -0.037767124902274955, 0.5323912547437338, -0.5472178711347885, -0.42079974207972426, 0.41773403572315343, 1.227005401887191, 