{"template": [784, 30, 30, 10], "iterations": 400000, "batches": 40000, "learning speed": 0.05, "batch size": 10, "data": [{"layer_type": 1, "layer_data": [{"output_weights": [0.18834700178082606, 1.1774662367241437, 0.7335247120274361, -1.1635187231336475, -0.73899163984229, 0.6987353034850734, 1.3728722927468033, 0.4528061185620742, 0.4589974355372574, -0.7901159555719105, -0.6442031944523722, 1.0929799184494353, -0.45366483737867935, -0.5045690680845416, 1.0868192638861138, 1.1745196200964148, -1.1181604092750779, 0.9508134801054156, 0.7755802097512086, -2.581259606647723, -0.5128105580416006, 0.44514934062593825, 1.4636337057427966, -0.6227487318191198, 0.2143478062025268, -0.20562051036142417, 0.621266374769216, -0.081658968204823, -0.09052883857454334, -0.040740571682082866]}, {"output_weights": [-0.4235441969731896, 0.38726002656332564, 0.4171973661735539, -0.8599982975092598, 0.6796918461062247, -0.913892117230028, -0.4659390476414015, 0.009433009942893058, 0.28451365731204603, 0.06595978715022585, -1.662154983920675, -0.040280330238522524, 1.0651826040167913, 1.4852395955633915, -0.16214388080207087, -0.5064194498113554, 1.060023966130669, 1.5751624459860214, 0.6164474768095486, -0.6249105771162737, 0.3146679334011715, 0.8383337503880942, 1.8839234011509383, 0.6006866149799703, -0.015555121005813459, 0.8100870889519071, 1.0714052492750106, -2.110388507764577, -0.7442113820789612, 0.5254181397285664]}, {"output_weights": [-0.2634719855770603, 0.3739323653431425, 1.6931375865527458, 0.7897921699551147, 0.8932029065921555, -0.6349383644350587, 1.185108841400296, -0.7731038567387688, 1.6571206410015078, 1.7231498288433282, -2.0904778600579177, 0.25180170777454447, -0.7591152528861945, -1.169100930038231, -2.251826078853124, -0.5651840797767697, 1.3734416979307402, 1.3491947586334063, -0.011225817179555153, 0.04893679387385556, -0.4663755358814198, 0.9993327625859931, 0.05818697231242121, -0.09875834407749938, 0.13497606484442912, 0.3793776690954566, -1.3255396114740035, -0.6636646435969292, -0.512922393851452, -1.659468815793559]}, {"output_weights": [1.1872109451686494, 0.1464767315135353, 1.0449890535259447, 0.5841058338261117, -0.28157688412699544, 0.3028493402710545, -0.4481330955119798, 0.6405062763631145, -0.8666946798565942, -0.8857698427753532, 0.016574294512028916, 1.1082270922867121, 0.8163966729133039, 1.6180824965825722, 0.9968464401782826, -0.3180817918998988, -0.7132569285435781, -0.38074728534041147, -0.8001418620155862, -1.448491529140346, 1.2274723661390565, 0.21408137768413796, 0.07776235152420846, -0.9395325941504178, 1.0123944889775227, -1.2964588527293857, -0.22044484374327894, -0.4869660150182566, -0.7773959383611946, 0.9357526386059555]}, {"output_weights": [-2.1196981425313277, -0.08333093018007329, -2.8473493353100983, 1.025641479678258, 0.632013033461086, 0.0889342793074019, 0.5770956076386495, 0.5664338189198395, -0.5887247640175155, 0.43127728328163617, 1.5050893914140278, 1.0916511871883816, -1.1786655710207306, -0.0037301985541230835, -1.4224808670802491, 0.21921125104434147, -0.03152954951609991, 0.767874975825838, -0.03188216024468664, 0.5953044265653697, 0.9901170856720752, 0.7192269452174037, -0.566188041069519, 0.1884499666776971, -0.7416850933875855, 2.130174957730074, -0.13770596746055583, -1.3987539924463812, 0.6653403736221304, 0.8507932721847677]}, {"output_weights": [0.3573451810124754, -0.18658541971927506, -0.25541981561053656, 1.6696871638776147, 1.0673366716713557, 0.5945638010981237, -2.1777022424271784, 0.048777422410029976, 0.3468988810768251, 0.05807183658061986, 1.0186094723563042, 0.6126911475349436, 0.02653770833114702, -1.9070881131674655, 0.4731535929678562, 0.47243207018533157, -1.1646265099382753, 1.2852828624088857, 1.9384037091058273, -0.41182139328690465, -0.549643552741075, -0.8580976466921525, 0.31880256701721255, -0.9301424897215153, 1.8356410037626683, 1.024042714151456, -1.0785618291448578, 1.0403307446934205, -0.18282374406815166, -0.3936240069854645]}, {"output_weights": [-0.639211077856828, 0.12022343348742111, -1.019949151961403, 1.779180050899876, -1.5012487082265071, 1.1566254628010197, 2.5993815259351396, -0.18848391872378717, 2.726627917337747, -1.0320848587923879, -0.04656932984446183, 0.8602405132155003, -1.083374009490395, -0.3295116278362139, -1.2538458643306802, 0.3663378262293547, -0.907230320374017, 0.08292335152088565, -1.1007176942237449, -0.052736658560285116, -0.36485328270552864, 0.6740922018518686, 0.053364099876937306, 1.2665343412507453, 0.7177971941619461, 2.2318345255575442, -1.2635925032629114, -2.017991312075771, -0.8795402161856196, 0.15595167076157107]}, {"output_weights": [-0.7309426277014736, -0.2486965224276231, 1.8818681974660803, 0.26762281375547103, 0.7440377928211099, -0.266469505983768, 0.5157001204248073, 0.07159871343812994, 0.9586007948470155, -1.5830098112293902, -0.7026608952312065, -0.21583996046674875, -0.6065024516343718, -0.42602439237679285, 1.0735336869634884, 0.1533081988653859, -0.6055605416702118, 0.22843432427767457, 0.02901312704602583, 0.5998235230417083, -0.08318139480257707, 0.4446943774059185, 0.5268984356626607, -1.4112674677379504, -1.0645680521827654, -0.16992581323287298, -0.6534575207582451, -0.7008045752633645, -1.0702278592469507, 1.0534528677395671]}, {"output_weights": [1.731525151564428, 1.012038287255084, 0.01353066354070086, 0.9937679528506146, -0.9086355857239636, 0.41156087509773237, 2.0158984365280053, -0.11436431638224093, 0.9861093619467012, -0.9372509175165857, -0.7061855000513235, -0.9310328964954624, -1.6732769628345476, -0.25836456882890924, -0.6544281086113405, 0.6842477328773061, -0.41203984432078716, -0.06594324808486675, -0.005654072494572071, -1.2906367284239633, 0.7152796224098654, -1.9121373910947295, 0.41255635963577963, 0.17828208651891678, -0.4241624106270236, -1.7277757517571077, -1.2876232283950417, 1.0150348580420814, -0.7412215919850775, 1.0239322750048256]}, {"output_weights": [1.523366031743275, 0.2319000339687418, 1.4282600459874195, 0.3003566681777173, 0.892607879518798, -0.6746047610753488, -0.1652620843085525, -1.2917337708901897, -0.22817593482297108, -0.7454485772741314, 0.1595663327847521, 1.1693899245388593, -0.9006909655289076, 0.5915015689388873, 2.4561748156815826, -0.068013995906878, 1.616856305530739, 0.1731072330242317, -0.3427924383424752, 0.373380237669089, 1.8242026971797212, 0.8518006729686588, 1.0866819579970421, -1.3747749222753343, 1.1857303955171323, -0.16515495959384838, -1.0892686815020514, 0.8687165276241403, 1.3028475097755599, 0.9899446425114626]}, {"output_weights": [0.8057193575321296, -0.007276317010322648, -0.772019602074683, -0.3207043875277936, -0.44425737925521763, 1.9164334894247823, 0.05582109515234358, -1.6806736870647987, 1.3085226285355003, 0.3785020161474136, 0.03748115863709588, 0.07756151138451335, 0.130642794885278, 0.2679503201925457, -0.5692893458941218, 0.8261970489251572, 0.09416284000883476, 0.9777751046964792, 0.961792775168587, 0.5086585979092957, 0.12470094153874654, -0.12408833182172237, 0.027835427829246896, 0.4295464184872084, 1.528321600707007, -0.9575830674202727, -0.753748893265627, -0.835926549974398, 0.2970430764012149, -0.3183224018019347]}, {"output_weights": [1.301030188836147, -1.8792322489199293, -0.6816847249323521, -0.6445915304590368, 0.9252536190416494, 1.1792238384162592, 1.3927703510820506, -0.5257377665923844, 2.7143695439285214, 0.13973816034475656, -0.0812413097560459, -0.8677065184761201, 0.2974376038304817, 1.2821359513680426, 0.4643579323756765, 1.636173751235715, -1.420855312910055, -1.301237040447017, 0.6377645038885608, -0.34613790204832423, 0.19725557756022088, 0.3095102593623037, -0.5432847801568612, 0.6473378158865615, 1.551753691636536, -0.35834725196851913, -2.286109729537911, -1.393966044268509, 0.44894114500375265, 0.44532186487646686]}, {"output_weights": [-0.0751114348143151, 0.0023254416507605276, -0.4407033523176435, 0.6888975350164203, 0.5868674730118546, 0.8662423152402566, -0.6916347495038366, 0.7954939562014033, -1.0884745272745386, -0.305295115621015, -1.4057745585025965, 0.46251600713075086, -0.6449625027370954, 0.206483288266045, 2.0179802549577537, 0.02671388275081117, -1.349004006270875, -1.2645068055176127, 0.33296217397659456, -1.2254320429072576, -1.2166982991694608, -0.6494930824896573, -1.2690251502147158, -0.45050251961275023, 1.2519518729162322, -0.6407303490676977, -0.9327601779093707, -1.0595051894715084, 1.1222241984711006, -0.5757185523642508]}, {"output_weights": [-1.3035683706628183, 1.5241316638741655, 1.4600007035560383, -1.2346696425909638, -1.493697676286061, 0.5119494840528486, 1.8920709470198882, 0.2745543039350152, 0.8148423023337171, 0.4975583104537212, -0.5736453253096422, 0.9535115670916735, -1.4537379887015023, 1.550712355925079, -0.5176253025704645, 0.03413183313682135, 0.09726148979767188, -0.6755638370464586, 1.0727640095119593, 0.15313101066916376, -0.07138409389661365, 0.2095446011524382, 0.24310858482988848, 1.2934290690283217, -1.1619487061388498, -0.335207162451582, 0.5421079468075938, 0.08461868066975152, 0.8770958278306346, 2.0496737011198665]}, {"output_weights": [0.6311162776509863, -1.0928583126177673, -0.12087570826416137, 0.1439195848830998, -0.5205209731203381, 0.36594248412132413, 0.1480275540845163, -1.014617112008125, -0.42100665468242116, 0.40223212064741887, 1.001396311092532, 0.9609273027526346, 0.7655108508543489, -0.16734135292440905, -0.8529001387987718, 1.6220648581172172, 0.8445877042935961, 0.2799481985326056, -0.551250759834093, -0.5123292250381773, -0.2756567108532857, 0.2744355879167414, -0.5307531631138442, 2.8544253220870837, 0.598197529064751, 0.8124683505344232, 1.4789520650665793, 1.1100825366905946, -1.2878033811591916, -2.0671132227159994]}, {"output_weights": [3.328578243736292, 0.5434058825431045, -0.19896410321854915, 2.021809669520036, -1.2745777848849837, 0.21464619895218784, -0.47643067855283605, 1.7073261681156455, 0.721349208354954, -0.38072790093891956, -1.3403208321411009, 0.5275367411322521, -2.3319364408798973, 0.5458439204233465, -0.43914812149842763, -1.2114352831168222, 0.6770201737497231, 0.7273879575674866, 1.7293162196669205, 0.40222707278733777, 1.7460876208865637, 0.4967784087064268, -1.0655572824582515, -0.07145292025896802, -0.4027707738387354, 1.4162407033630966, 1.045495520920239, -1.1629995649851919, -0.5465108624302457, -1.0069841735812846]}, {"output_weights": [-1.583777222368394, 0.021215845056882097, 0.019474639478246587, 1.1094114851746388, -1.257589466306855, -1.447141446417929, -1.0620623531682363, 0.1391470035908052, 1.7673845860853008, -1.2064692698573354, -0.1240435044112168, 0.3828551411068427, 2.1187620572254016, 1.866773480177665, 0.044839806979968935, 0.2872515021106021, -1.6004623102572455, -0.30300280213026126, 0.9523105919505295, 0.04369023855846215, -0.7104675775955009, -0.08448014152595387, 0.4320377814002904, 0.5335948057947875, -1.2322808352388488, 0.40862632230515084, -0.2795957377465726, -1.1216610902421742, -0.8060484604686894, -1.5234768387135236]}, {"output_weights": [-0.6622326168290261, -1.6183678423836387, -0.2520968290618326, -0.6913029824129111, 0.7540400633393436, 0.16219639405771416, -0.5759615416129944, -0.15507337167439114, 0.18206368709918705, 0.11171810269127488, 2.5101551062392526, -1.4316804443625593, 1.4694354484745753, 0.10799249607359389, -0.5720591539849804, 1.0092436322215164, 1.5670463000085395, 1.4737939549302992, -0.4507228465670811, -0.9092227797485272, 1.1232243001613293, -0.6308663926059418, 0.7941578876349136, -1.1464958550723943, 0.5180985858596123, 1.5187187234971264, 0.9333981585024506, 1.443445919225989, 0.45711646486303914, 0.39709683978329896]}, {"output_weights": [1.1116098120147848, 0.3590835328681275, -0.47493523615053107, -0.721303673487878, -1.1887413056374414, -0.2184307439183978, -2.013006905471898, 0.05534553502527895, -1.077646092483794, 0.399738079781284, 0.47091750401998195, -1.3628953430931912, 1.1363281393427433, -0.36840745068041497, -0.9866468003547076, 1.2538155741076709, -0.27522052806181163, -1.5552958210527683, -0.36997722750811557, -0.4132241410339486, -0.5638742136662452, -0.13779195546765594, -0.024288894557720504, 1.2851013074909705, 0.17125251638384761, -0.507961754421056, -0.5229675419748847, 0.26473348296662547, 1.3101235261838906, 1.0067739663907165]}, {"output_weights": [0.25016122268569624, -2.2751617033905998, 0.2988782782058815, 1.6765683131192473, 0.6869724891261845, 0.912961546329447, -0.3627908311668419, 1.5716046995396495, -1.452706891575218, -0.15893350987484328, -2.5931782632179865, -0.41308211835711295, 1.2333388751100556, -0.4956632672651104, 1.5059596845316952, 1.272095457509046, 0.8355060721135331, -0.046449037596147116, -0.6705802102626526, 0.4990321922399227, 1.6157766030438243, 0.6461210810580675, 0.28079455455794267, -0.5129281503673829, 0.6752025420022004, -1.0872168182057802, -1.213019273461322, 0.3449079877897229, -0.0726809491146411, -0.31840026745130523]}, {"output_weights": [-0.3159380857520995, -0.384998711344446, 0.37859014924072276, -0.7631624374688151, -0.4378219554369221, 0.2502143493670592, 0.4093330384403407, 0.29364717616767766, 0.5976482490024513, -0.4524523729556011, 0.13904816400580047, 0.17345045539337578, -0.6925185031906501, -1.0725739247136292, -1.0566696402330582, 0.42713015961396217, -1.459943816730335, -0.9038574332910878, -0.3898801741753083, 0.9696025136772185, 1.1337534273595056, 2.8517577464365567, 0.30077248149748315, 1.755000406698062, 0.810727783014731, 0.6665099206007673, 0.44408499572765936, 2.272078535842415, -0.8335343242053357, 0.7760823540846816]}, {"output_weights": [-1.2094969786128253, 0.14786013220845115, 0.02222393847084609, -1.1077512570382468, 1.0973847903190803, -1.1979997848998194, 0.16890841132849452, -0.4426837964156871, -0.5673008272754015, 0.5720384419850534, 0.2274441806097663, -1.3153594973526528, 0.42259090241699365, 1.841308546331578, 0.4580451836901352, -0.4515136495930278, -0.9379995183376459, -0.34415987481120386, -0.6399257463849815, 0.8039191021151774, 1.8505561484336994, 1.3291589356483957, -0.27686543072300057, -0.25736353775976123, -0.6239121787660821, -1.256548463399971, 1.683653179402873, -0.023009280418183106, 0.6342803259510591, 0.8300270095700136]}, {"output_weights": [1.9262932130125, -1.5516495112294366, -0.0687919492589746, -0.5020626008981387, 1.8400658617655798, -0.6423527293033905, -1.6198233738895937, -0.27954957716111134, -0.1254989057656479, 1.0370340729506309, -0.28662687170494383, 0.04204698538547216, -0.8049754384635123, -1.1106238566876057, -0.31647265997930324, 0.33024124968506985, 1.0837912798428997, 0.08205758681315094, -0.7477024237581839, 0.13122257511591756, 1.35251777264535, -0.00033783187900527533, -1.0033942141426255, 0.3705662722792974, -1.570875585961249, 2.146432783373652, -0.0388943798872395, -0.5414922915102303, -1.1345729989060778, -1.6929625407926931]}, {"output_weights": [0.2543592194312887, 0.4011316996078949, -0.9933272841407195, 0.4580908422661436, -1.3710752557337473, 0.44231279408565816, -1.3098510015985292, -0.4623958833505269, -0.23040418397060303, -0.9195545392228229, -1.3875487646592253, 0.03395764651586003, -0.7231027243571305, -0.25210192556600897, 0.14762365604871655, -0.027647395985748616, -0.3536444779413874, -0.3458014238879455, -1.2742064590143962, -2.3332614357624744, 2.1106800446858958, 0.9104273001117169, -1.0369563453011184, -0.897232902947781, -0.4062841252250228, -0.6190229645444844, -0.09138433800791483, 2.1431408372158565, 0.07526240583085587, 0.2115338117060682]}, {"output_weights": [-1.0390627757132662, -0.04235954178198066, -1.1296303645988248, 0.9136517945405902, -0.048045918202345994, 1.3535115412883307, -0.5759056443667038, 0.5521606221101518, 0.22848080505117108, 0.8136667414247072, 0.035715237115954666, -1.2537837881880984, 0.5264654488031714, 0.45160966275818637, -0.9593597157744805, 0.6363846571810025, 0.7945866690200971, 1.2334382218494475, 0.31415082309124326, 0.1580395523885935, -0.46086143972172067, -0.5300478578043605, -1.2018439108811865, -0.9816876588490434, -1.480058470390565, -0.369704696881498, -0.5856189432993767, -0.7417541241702659, -0.8874190770169778, -0.41708399607816643]}, {"output_weights": [1.7933415418394634, 0.9109920437078008, -0.5816532947674914, 0.41487597466875115, 1.501628726909911, -0.24288866013649021, 0.006959708762052518, -0.5006498396932316, -0.2979529217149871, 0.8913842491056572, -0.9550550474289166, 2.199436840389387, -0.9316595693363761, 2.1169269590786404, -1.1471743554109899, 1.6917866027968944, 0.3872948416827882, -1.941698375867413, -0.22702395608843315, 0.151511547838683, -0.6943244616921262, 1.7799709321008876, 1.7029465204999368, -0.2761728631399932, -0.656902241099303, 0.854605630727426, -1.5041545482531136, 0.44097416747240237, -2.033673776939238, -0.4146398849509365]}, {"output_weights": [1.6300924343286811, -1.3506651468406308, -1.3911438825550813, 1.2416209405070224, -0.8868763192477083, -2.0693407723799453, 1.2155677416422632, -0.10596666373494322, 2.020386390292617, -1.0505538260070213, -0.7330474671070519, -0.38874940035691913, -0.9392786936935485, 0.18837591449257352, -0.20828354855106057, -0.12677336734799471, 1.0859165719429011, 0.22534252605314012, 0.16948789313483117, -0.588178897441422, -1.0644879073887423, -0.12647203685561975, 1.399276334236876, 0.09092957819928746, -0.21102869964706397, -0.20007875307536188, 1.4658248716174445, -0.5815735542438142, 1.1459448606894684, 0.7538566105751636]}, {"output_weights": [1.8211865949110868, 0.36517988038200555, 0.7644470574834872, -0.1722326219489794, 1.5565547814144767, 0.6339968391184087, 0.0039432544706515865, 0.3321760372040268, -1.2835001042604157, 1.650993687010491, -0.665936750767017, 1.9477754659837505, 2.081255850458034, 0.11764507540428126, 0.7052436366240447, -1.8371438167771161, -1.0256670392642682, -0.9533933740088216, -0.6794245613003274, -0.17061353785786207, 0.49236257156400043, -0.6380126587353574, -0.5629711681145099, -1.0274932110554422, -1.9479732712338103, -0.4404677383570477, -0.5001201750341175, -0.5295325576678144, 0.10923699960123384, -0.4844728682197676]}, {"output_weights": [0.6453819721631163, -0.2629521746846359, 0.2527963617913282, 0.4115114018680477, -0.2958636572084704, -0.10398755261621379, 0.19152200780945097, 0.9082355902558071, -0.9748718161722599, 0.8131839524674952, 2.5929497825209147, -0.8890387839052228, -0.20804134957281784, -0.26254931534412046, 0.35837897156940984, -0.6286734721576588, -1.2757300327177004, -0.6470963884382549, -0.6401451685985577, -0.9076498867967844, -0.7712059992891931, -0.22900881867307593, 2.0669163777359656, -0.35752463301841836, 0.21447778880873664, -0.8071570533493618, 0.4128144142031644, 1.039624882842574, 0.7746402472091699, 1.1184961851505788]}, {"output_weights": [0.7981144710634269, -1.726581647745415, 1.7072169458934683, 1.7036997629735307, -0.8555471075491466, -0.49652575269536137, 1.344637037823348, 0.9430559586958863, -1.517066634382755, -0.509706261559127, -0.5442588893081204, -0.5397933408644053, -0.954158816084237, -0.19469527588083033, 0.3109212054517292, 0.11311728405613096, -0.9067678981064142, -0.1629570620589155, -1.2870849946656857, -0.01907355511548509, -0.4903016607880491, 0.0655631743578484, 1.0473071722901697, 0.6810187830040725, -0.43232561373684025, 0.907313120782759, 1.037988952709113, 0.40117999545799476, 0.7078947585417391, 1.0302656611104068]}, {"output_weights": [-0.20810519959253032, 0.4535701524133604, 1.4531858884636755, 1.5938278891728466, -0.8430598122232652, 0.04361729172536515, 0.38314553205707064, -0.45622029817202014, 1.2250002685659178, -1.7183734056698272, 0.10664743276340463, 0.9005248899124317, -0.16885401015430465, -1.3452740342246832, 0.1687273370880276, 0.6415952744941072, -0.1328648621606083, 1.1270566925380894, 1.7025151141051995, 0.32380362038378924, 0.7943943301774107, -1.2171454303601723, -1.125265613427631, -0.28456959745217975, -0.3228881841868923, 0.6234712979697528, 0.9290313337567442, 1.1026983948155864, 0.9789190443103689, -0.12633660477862177]}, {"output_weights": [0.9786038414940975, -0.9162911954884844, -0.9299676283214697, -0.9926759246303715, 0.038989592051752266, -0.6457279059304325, -0.0818667296685758, -0.7355795657602687, -1.3798837590064263, 0.9047639885367416, -0.014301714820462904, -1.1174643728559384, 2.3954657758983835, -0.05687376000747799, 0.685957837764887, 0.5022574526561594, -1.2515518456592172, -0.8605318409855434, 0.5518984769519282, 0.640996980405562, 0.026353513306062334, -0.17701645517290504, -0.08951468863208706, -0.1777852218143375, -0.2399851114107853, -0.062363011699266765, -0.01658865932864872, -0.5822020822387409, 0.2597786592708673, 0.03840845351431554]}, {"output_weights": [1.1799110107151316, -1.6671948976220725, -0.46172356075363297, 0.07198004936934964, -2.8807027468889697, 0.780406725482353, 0.7455700613630288, -0.5064779220860928, 1.4974196940848061, -0.9255837162296202, -0.4900005879040506, 0.35418036389709745, 0.7010223706767871, -0.6284337680027576, 0.5512768326699248, -0.3820716989395582, 1.7372860857669596, 1.0186001089422911, 0.8485086249770758, -2.1076830363633046, 0.5044123501816226, 1.4277544537501097, 0.7014690712160487, 1.597450575236525, -0.7254901863932589, -0.30795045074222743, -1.9544617188786482, -0.6470516270248057, 0.9736059739762786, -1.0578990264634427]}, {"output_weights": [-0.37345965801131376, -0.2554878217022104, -0.4858221160059683, 0.6097967533537896, -0.7685483394657072, 1.0638631371499334, -0.0069475871621833656, 0.22158916821478356, 1.667566764539698, 0.0015948934869372557, 1.1779526392644013, 1.296711055168212, 1.7381742041237516, 0.017315398206704646, -0.04628309085866548, -0.08413413499821609, 0.6729022780141407, -0.43079572045607883, 0.6246242207269361, -1.461512755447672, 1.6758604620608961, -0.45344429007675935, -2.2619531802616994, -1.3617916254993438, 0.14098067334427603, -0.31071502571351234, 0.07377855812011039, -0.43860585147421816, 1.2651331535881174, -0.4125416589317236]}, {"output_weights": [-1.3837508411391162, 0.6982902258165911, 0.4047270269225761, 1.2739988090288168, -1.6175175454349282, -1.3191242459096195, 0.2515720929131098, 1.0484782421043108, 0.07243928433832136, -1.357250680718646, -1.8954207972991919, -0.8471971609496185, 0.6084708064931178, 0.040888267544197374, -1.1355094468930216, -1.1162458253485084, 0.12100848368694428, -1.1104015595441314, 0.1571965647058393, -0.9638830843352391, 1.7155625880186154, -0.7528043480234066, -0.20396024440361502, 0.10763964182356034, -0.7244850597653796, 0.3852446912046123, -0.18985949457077195, -0.37714585313928534, 0.7586349424871928, -0.6621768680286086]}, {"output_weights": [0.40177047738503624, -0.10063315227820083, -1.7580000770762039, -0.12174788264929833, -0.5028704314377201, 1.0727064929728902, 0.0013046712642222926, 0.3101259125295087, 0.08667194558435802, -1.3877559430132842, 1.3292019983952432, 1.1982491428313253, -0.11087207090590219, -1.3907278280197564, -1.4928181490983488, 0.3228576631997409, 0.8014952822028745, 0.013842492351176176, -1.5913676154025211, 0.20186481493007433, 0.3773967039217132, 1.8786401116694806, -0.8919884392450314, 0.10748616127684857, -1.2656631957947373, 0.4001856925660863, -0.9025263855002288, -0.8329269197437698, 0.8370834526521664, 1.1132228681922953]}, {"output_weights": [-0.949039852010466, -0.760122764730212, 1.5584312572119072, 0.9516870379303185, 1.6171982359284023, 0.2673158347898813, -0.1392016817242795, -0.8966255735324814, -1.15984790267572, 0.7871866813524883, 1.0281525275184447, -0.9681840006864666, 1.59168247587416, 1.9812759643416422, -0.28961251575005403, 0.26537322846378264, 0.6284993247714485, -0.10852243213630218, -1.3234078940726206, -1.008762297246311, 0.9311330738936682, -0.8642331200626546, 0.5560841167960495, 0.06389988514071024, 1.3360345617905833, 1.4555985766881818, -0.028709015174467754, -0.2714253848612251, -0.6688341517710296, 0.30352982031778153]}, {"output_weights": [-0.41144893921417836, 1.0703246556017174, 2.7814975839407436, 0.6055482984539217, 0.9658089736563489, -1.1559782234563987, -0.8164058857351202, -0.4113901698210875, -1.1004355583911207, -1.6198750634280892, -0.46674745980531834, 1.0286028792218633, -1.6182605835705244, -1.473238239420793, -2.0917300728080392, -0.4060726103835724, -0.05436490892747003, 0.30742843098142497, 0.5178381442494387, -0.3865505079397994, 1.3292185689789877, 0.6398191481079089, 0.9297598701575027, -0.9054560458617136, -2.2402421126825973, -0.07369604611918419, -0.7100263575340895, 1.9549462201671837, 0.5994361740854486, -2.010966272533813]}, {"output_weights": [-0.7996484177344667, 0.18305633444437408, -0.1714687911598955, 1.8788955491342714, -1.4424906449444088, 0.977766122269995, 1.1373517254569607, -0.905395028215587, 2.279077637320903, -0.3992121451607619, 0.8638163986724184, 0.5188520344502527, 0.1498841724407515, 0.500521066186133, -0.6147877926692326, 0.24169492933845219, -0.7800185291881415, -0.3322962963186421, 0.38284601682577374, 0.24808379966160907, -0.42339710373095557, -0.8711457485592083, 0.8163192575427026, 1.2556793085978513, -0.4311594453241357, -0.03774541985628435, 1.333878486202817, -0.12520285563730263, 1.1343359521386909, 0.8212835998685369]}, {"output_weights": [0.6830175519171305, -0.5707157498086364, 0.5441917576486854, -0.2210181757001636, 0.7242150101248543, 1.2365574264302022, -0.7639526087276215, -0.5655337318960715, 0.6394535975608396, -0.8414713717655106, 0.13797030098629154, 0.3100543427746859, 0.757041855996484, -0.1254102034516004, -2.5102990296930456, -1.1214894683465286, 0.9739458903056912, 0.053302995396017724, -1.0895477685802537, 0.4593580732829961, 0.27222729489992853, -0.04998079492833576, -0.5011048001051877, 2.08028534132808, -0.3867348160621521, -0.031249913165975696, 1.020285908442074, -0.05584585043409205, 1.0786162085607518, 0.13217234493356797]}, {"output_weights": [1.2961792984098919, -0.7104623389038051, 2.281333060303829, 1.9835334865166907, 1.7637551579856507, -1.054632954078767, -1.7875689353758668, 0.30737115494808664, -0.4758635909140133, -1.8927895732107651, 0.9225379940261079, 0.47288606616243034, 0.041077187985453775, -0.3865747493612464, -1.4707545842283603, -0.36656891439126305, -0.9542889737371605, -2.1582771206846205, 0.22738065412616337, -1.803655578268662, -1.18847502800594, 0.4656584065346872, -1.0671463297399182, -0.8194497131003392, -0.2235262717165649, 0.23104438868598112, 2.214597742438981, -0.35730719447604736, -0.43571866924102165, 0.10536516681796033]}, {"output_weights": [-0.050520941481895364, 0.46982883378981183, 0.5524979466078657, 0.513194716751477, -1.8935186715936807, 1.2384476090318124, -0.8330382070852665, 1.0510086991074301, 0.2505559092077084, -0.11184426915285534, 1.5313890647347463, 1.2416718956803994, 1.5726957851808943, 0.6870082385548689, -1.3409119372052523, -0.3970718203569333, 0.9695881682153498, -1.210564528146741, 0.6365941010202582, -1.0167816258111817, -0.060356446864588735, -0.05663458114658838, -0.759112272710352, -0.23952223743362522, -0.3804106765362633, 1.7017015060359726, -0.7254091929809007, 0.08868884829350138, -0.6424786533467008, -0.7625955237684016]}, {"output_weights": [-0.25020435280705916, -0.40620624146528833, -0.09357576102257284, -0.6694323821935834, 0.7060114655451811, 0.9941257620364545, 0.7701375600134501, -0.4574928714448649, 1.0718717222608436, -0.6427466098099374, 1.0074368571506878, -0.37649981131077764, 0.7200766160247732, -0.33140117158258153, -0.507826747374077, -0.6623463778858447, -0.570905862987913, -0.2567095183703993, 0.25886194442576316, -0.22294334097581991, -1.8856056803864192, 0.0002103654935523845, -0.4236762797242611, -0.010624127870278366, -0.2968216883778622, -0.782870942356436, 0.5647791808382185, 1.6724281398945626, -0.92500238561769, -1.0237853641466763]}, {"output_weights": [-0.22536040117172526, -0.10134196131416803, 0.4201954496701277, 2.058483415008763, -0.27724747747020456, 0.0625464322018881, 0.7217317424525672, 0.5547390049640403, 0.5684717888576027, 1.099568933938626, -0.9027093039021673, -1.646525360129436, 1.413293813737586, 0.9832924909091921, 1.2977669935065135, 0.14861937035664122, 0.019918944905735717, -1.4860551286139991, 0.843860850654038, -0.5549364873534665, 1.4225396257061615, -1.0538159970106133, 0.29563937584736794, 1.5144202755150946, 0.15611870336302808, -0.7066101065821576, -0.7130296115953935, 0.6382033461123956, -0.6913800914716793, -0.6377754713843033]}, {"output_weights": [-0.3311698055049355, 0.0861230228731805, 0.3227188269262038, 1.416163951380131, -0.055131533241143546, 1.2742130508933656, -1.1409971487713824, -0.2091068044345182, -0.38988900123038917, -0.2734347344294376, -0.8167392897821095, 0.18363132062668794, -2.0624092430339402, 0.23874297665204508, 0.3776171084544178, -0.5734233046109137, 0.4317680157558599, 0.5611285959480193, 0.403532514252462, -0.5219403309675932, 0.9073512466324132, -0.7869256532421716, 2.514414061077264, 0.8492039207457636, 0.1301549209091981, -0.5994125252064195, -0.8743973523004201, 0.16293949677060315, 1.680557045273093, 0.6398256330573546]}, {"output_weights": [-1.011654261396686, 0.7553654021089146, -0.08961430463827372, 1.2094294439666713, 0.05407610796682914, -1.3376821371174454, 0.3453864709201135, 0.3720245266831563, 0.19369943121375396, -0.2910304486859506, 0.19666440868840046, -1.3193920817978235, -0.5734785089445438, -1.0176346859982437, -0.17630131881962882, 1.1659076153270604, 0.6491089546248864, 1.859319826609269, 0.5797208287239137, 0.6649909511646047, -0.7404753701039051, 0.23781195491565857, 0.13828840666168762, -1.1926623295185665, -0.22395278298528537, 0.14667924985289665, -0.11838869209003092, -0.948736169472679, 1.0556990326483293, 0.23654731203249263]}, {"output_weights": [0.01965377277073593, -0.06075780236619751, -0.038221906443954276, -0.5849008074425804, -1.452799900759039, -0.9456916714492368, -1.6588327908595704, -0.06473130551594823, 1.2951163603813491, -1.0577802688290834, -0.032588885383413625, 1.3137047683235141, -0.3965438743507385, 0.8538369497442936, 1.3790956609836618, -0.8658772666007389, -1.5185120800232141, -0.7972142043832017, 1.0230038920961662, 0.5687842387919984, 0.5487610468869141, -0.05061964185284514, -1.8841419252495546, -1.2935082384040597, 0.16039700970646184, 0.32954913678351366, 0.3344138912055005, -0.37606730707761704, -1.476469544381038, -0.7181914307520008]}, {"output_weights": [0.37916143052733386, 1.1306269365823314, 2.3416169880126874, 1.1526679969590135, -0.7230581105080122, -1.6350743560071472, -1.2080055646664967, 1.2961449695831162, -0.7565919959107873, -2.420175850670607, -0.741985864159732, 0.17379784462662468, -0.859172913365478, 0.7567279398114339, 0.16079909483954077, -0.11464835758647848, 0.21521251726570048, 1.415485568861085, -0.07462384097727146, -0.5116115710310576, 1.9157056254609874, -1.1181745095094466, 0.7154677849657984, -0.3606025851505578, -0.00538597262996865, 1.3546647539914878, 0.6774350839130713, 0.9301530397740974, 0.8793240278381224, 0.24896876999631246]}, {"output_weights": [1.075116863615655, 0.04470331444592198, -0.30980095336590735, -0.23765691119439647, -1.4916950801780664, 0.47009242886162367, -0.7898049329553264, 1.711629259491235, 0.13111328349789433, 0.08765265328921179, 0.13934757273971018, -0.37265703020583285, -0.026740146289882197, -0.2641252424906913, -0.9372454326122623, -0.9971572672417499, 0.961619656195234, 1.3887829360804664, -0.9168611408853355, 0.7721360915899909, -0.1270531442525667, -0.2858426026341521, -0.05893151020864463, 0.4126380724454213, 0.23751201055347915, 0.8917717936060856, -0.7754893706040061, -1.181336528055246, -0.5135724962579297, -0.6605783395789172]}, {"output_weights": [-0.6126901157673614, -0.16465387605930948, -0.11761654908825839, -0.19344443550452112, -0.09702012239503645, -0.5093187685757812, -2.285454326057486, -0.10675810265999738, 0.9661948509983261, 0.813178470678253, 0.4634834106335912, -0.05185875719256327, -1.7036504466163327, -1.1455803322889302, 1.925336646598609, -0.8444815772739497, -0.5476593378157464, -1.6563236300514652, 1.7152891104405128, -0.08258150171511605, 0.7650905190400222, 0.0750709248199392, 0.4617103842598204, -0.24959711836249066, -1.2546816453958771, -0.2353225749456316, -0.6190824594789887, -0.987869832697756, 0.04429975235529664, -1.0613282981491756]}, {"output_weights": [-1.7118487263700002, -0.2180738912679055, 0.512478730392467, 0.9707996002649147, -0.13684757893585053, -0.836901026952084, -0.21811937804742582, 0.8301546526579282, -1.0768496125667681, -1.1855708617837408, -1.200255119244079, 0.1966812529589532, -0.6276392355826069, -0.6309169832491721, -0.2902872047956085, -1.5795914276667469, 0.5556792893980785, 0.07866211505530912, 0.3201738635849858, -0.8933980157695232, -0.5571282912132351, -1.179461520802813, -0.503062573334676, 0.313468041080998, 2.4825350649557274, 1.730605871523995, 1.4389606971220976, 0.780950340685011, 0.2324275645813056, 1.248149072680249]}, {"output_weights": [0.5929184641918, -1.5490553053647782, 1.0434139449208562, -1.1617280643031875, -0.3075967431728021, -0.9797676108524612, 1.7337069531948504, -1.0196498504377454, 1.0304713819356954, 1.3276419857841562, -0.4604717816058045, -1.2150061651977744, -0.43310753099946697, -0.8124053139881736, -0.545946249461334, 1.921550010844564, 0.6057678611865961, 0.3952520263367541, -0.6401558538237028, 0.8069473568302672, -0.0340843257129313, -0.7122188332874552, 0.1527318910624358, 0.15132295993942033, 1.4231219402950614, 0.34693733699329515, 0.5145737408334052, 1.1257986590494287, -0.20671838297571804, 0.20194949741399126]}, {"output_weights": [-1.8644779580645356, -1.0480208800709785, 0.5533487879815852, 0.7678800271939326, -0.1452988920600745, -0.737788893814508, 1.4291217638530205, -1.0201296262975128, -0.5682898872836836, 0.5320689420089485, -0.34659360644614, 0.021041316243769738, 0.24800143414798537, -0.6110740142105915, -0.8161894250610675, 0.34470712377709667, -1.7616303694627293, -1.001574320877472, 1.4594574056740381, 0.9482466084227346, 0.08359777059081498, 0.5920014532821452, -0.05593302806914319, -1.6017949106194325, 0.24637792225736618, 0.9329554882795243, -0.480769705821941, -0.5370942132441396, -0.4317467348882605, -0.8359022159129954]}, {"output_weights": [-1.4266582991322743, -0.5603985621008405, 0.581683398218927, 0.21486930912539226, -1.4368372667997396, -0.050619964380638933, -0.2326042148464008, -0.7275773867978202, -1.4310012130776408, 0.19789210550159703, 1.713513866300761, 0.026072500538666627, -0.19724940590468082, -1.1590669399129607, 0.9550849963120925, -0.37606725161280147, -1.4852873564069702, -0.8146362955831484, -0.8127069280933155, 1.4725562232510951, 0.21264223062039883, -0.271125456486912, -1.2556280828459048, 1.0386036006961168, 0.563994407454145, -1.5937186965707761, 0.4350775535326587, -0.5471777651144394, 0.042049724386924794, -0.7667352639265883]}, {"output_weights": [0.006016407326736241, 0.9841434957254633, 0.6568935518146044, 0.35418592655061626, 1.2880599376122015, 0.980866193344384, -0.5151244288792509, 2.046800425144369, -0.032640975277776534, 0.7437712962223301, -0.3932077583400014, 0.8070667094151052, 0.44192107237356654, -1.0905966732977812, 0.3098265954326583, -0.2675029369699771, 2.9079670088839245, 0.22560363819324816, -1.0364156159906963, 0.5646169256692821, -1.910164437753212, -0.3636197294415655, 1.8583416270478452, -0.28791372434546675, -0.005959307262401557, 0.7705348090594871, -0.9626057289840384, -0.5517479244047435, -0.44767484439941124, 0.5893117769719624]}, {"output_weights": [-1.1263123610988244, -0.3742777056885974, -0.709198239528962, -0.7315105443148888, 1.3769693349180065, -0.9185731185965678, -0.15535772476370982, -0.30541430513596035, 0.4572458662875515, -1.8349433418163226, 0.07558441487213977, 1.338907544275799, 1.2266952025356275, 0.32201612045247385, 1.1063572134445365, -0.9321705559118645, -3.5888733053436774, -0.3686050874630757, 1.2405156988549548, 1.3479799102933787, 1.2043404386713068, -0.6242703021604608, 1.505767260775945, 0.029194250434471755, -0.1655662427714422, 1.2608051676557566, 0.32189596054766434, 0.24921434226084477, -1.1586157266201902, -0.23792328367609128]}, {"output_weights": [-1.815334734542654, 1.4978915954471421, -0.5107983728252351, 1.074527645742298, 2.033511454321341, 0.5595881402353388, 1.3823681553365752, -0.32099066410483246, -0.06504054598113275, -0.29350399552233253, 0.17038064342373038, 0.16398424400195244, 0.769582192902372, 0.007838912364842972, 0.4964538533911821, -0.411430144625426, 0.694523214535327, -0.6653704124259511, 0.29497010927116146, -0.41366533637515523, -1.5145701991965124, 1.2703277842391727, -1.1566689877563665, 0.4874583667825938, -0.26791359054791425, 1.4674658505034999, 0.6709481713736203, 0.0055609848007671546, 1.6870707486849719, 0.01441956170210184]}, {"output_weights": [0.1852015166773837, 0.7456732384586814, 0.05152541248826992, 0.831563441851767, -0.02438283867496184, -0.6000248804733096, 0.681336826391704, -1.3998080705756657, 0.9801766705487276, -1.4671308860082681, -0.6083467057431098, -0.2896687229040186, -0.9616591366639756, 2.142498083378202, -1.5160875037181922, -1.2067525164109132, -0.5131842783863356, 0.055678276478551024, -1.141053303077751, -0.36363692260657077, -0.438470649232029, -0.0013247681463202919, 0.2861848918962637, 0.8792750251545731, -0.9620078198194172, 0.6889677858712928, -2.533257613202143, -0.13092103185685372, -0.20219428393798072, -1.2321512442480276]}, {"output_weights": [-1.1550115276148138, -0.06893775019749365, -0.4007137459473079, -0.827231056380614, -0.698649429001485, 1.2806620674809057, -1.5136018866301575, -0.5292117923023976, 1.3914749875517385, -1.3310624841151188, 1.0284537870769028, -0.07119169568007255, 1.0879139066113572, 0.45432978952189823, -0.6047376746659927, -1.1556182719990973, -1.253960945674928, -0.1543018949224853, 0.3689291021089983, 0.38701253631198157, -1.180015434903566, 1.3566076654931776, 0.5076665367539848, 1.2337175949685435, 0.03074428451099873, -0.5348291037977115, 0.1278959644819221, -0.9178429234246318, 0.6979600611254534, 0.7063878343419807]}, {"output_weights": [-1.4366508811352703, 1.6787900045983213, 1.8654293917483065, -2.1059310964117364, 0.05964153543718048, 0.8054726803029034, -0.05904533848084534, 2.1948115816941853, -0.3869966424811059, -0.971960523598766, 0.8655469638045501, 0.3276125021326933, -1.7827344937552223, 0.723276416483748, 0.14764125916384624, 1.2612636712383158, 0.5084774384431978, 0.7238182062617707, -1.3118238881127124, -1.1348347665824523, 0.2707089206648103, 0.5448793723163535, -0.8844800010957946, 0.5549392318743153, -1.612379865420396, -0.5604183757562047, -0.7167173696295481, 0.4817399055957071, -2.23914416830858, 0.2790222779346837]}, {"output_weights": [-0.10102319969738133, 2.2464360316688206, -1.4406639958497323, -0.19113080229299131, 0.3250439142832394, -0.04831718314783017, 1.1449078518497244, -0.5199984549410855, 0.4500398049919465, 1.3328205198007987, 1.0571022686506688, 1.0564277201596706, 1.4462158932026685, 2.469285029522307, 0.2847035188746552, -0.08445739587371384, -0.16582582710513064, 1.2143857774774875, 1.7747335473424968, 1.376455685159531, 0.45893052715535065, 0.780262356283406, -0.8055475014452246, 1.41246795328055, -1.8707692413309183, -1.4857388307595742, -1.5704731902716689, -1.2375326453473943, 0.842664440342087, 0.2935443790490268]}, {"output_weights": [1.8541252013024703, -0.3891869247274528, -1.1205792074489893, 0.8051239341031654, -0.20639007056733208, 0.4416216362589642, 0.42868308794049736, 0.42128062898320295, 0.352966388344229, -0.08983714507778788, -1.3990416162144728, 0.5936263854304021, -0.10071456824018615, -2.475845599370791, -0.7957483641713389, 0.00163645931191181, 0.5787768673003783, 0.5489535374731301, 0.44142900702367066, 0.08416755399177812, 0.5863273160235632, 1.5277669435846981, 0.11347904134294237, -0.4227898879824905, 0.3118911478323095, 0.2803428272806158, 1.6777442946124697, 0.6534107044476201, -0.08957923376731473, 1.0432021134698388]}, {"output_weights": [-0.5590390048430622, 1.386683631600752, 0.21673826927921094, -0.3014868811506268, 1.1797891503018012, 1.0312272487829257, -1.337229014718669, 1.411163093819466, -0.8747249595044209, -1.3710809000180202, 0.3502343887627962, -0.9408411443975182, 0.13552137184246046, -0.7967807938693571, 0.3366066527905849, -0.14044196860746855, 0.904994843424119, 0.6040614653936868, 1.1347673723560585, -0.017584536410402248, 0.04212497288674809, -0.7579305912772641, 0.495592067605309, -0.1804285004198793, -0.1848648805287422, -0.06736677853858057, 0.9656434243847867, 0.09772122446044477, 0.878443988574422, -1.5623115526137281]}, {"output_weights": [-0.250817880401946, 0.05716869479276136, -0.9109767046570172, -0.3237233730681278, 1.460532509846711, 1.0986032135070074, -0.8228973283816686, 0.9974826936520029, 1.6580681728713227, 1.8880202593205044, -0.2514670394889643, 0.15548854529756548, 0.6410270396580076, 1.1775466156137557, 0.810231060811768, -1.5968176696165355, -0.32880773299756316, -1.056921647677184, 0.320823871454663, 0.3687983081998484, 0.8445135490717899, 0.4817325458564033, 0.04635646872658529, 0.5472089062763471, 0.8933471976704496, -0.11219448004600945, 1.164875415034554, -0.48068071031839804, -0.7931169848022197, 0.2809483237909031]}, {"output_weights": [-0.5295560556447018, -1.59246302200047, 0.4677096761735369, -0.08758512876206467, -0.09700227751990913, -0.17544240791776636, 0.20764456273930115, -0.39114215717025413, 0.9214325295536105, 0.7843549965101925, -2.082980762072515, 2.9904146346840346, 0.22609172039335498, 0.18354942567944255, -1.4654189205182213, 0.38824661362528506, 2.0189806816919207, -1.8830222207560507, 0.2867988870201833, -0.6735671911516142, -0.13686205885783512, -0.31423839153415833, -0.09249073731511509, 0.784445924071448, 0.8153057129070663, 1.0525524569434588, 1.9337798271580227, -0.3188930146981039, 0.994471423827144, 0.09933511769844103]}, {"output_weights": [-0.4465509891415366, 0.3051403319046871, 1.7367885074862355, -1.0318502397708822, -0.03438806531148791, -1.1302290539973052, -1.4551375870106413, -1.6412858209134173, 0.3815169497435493, -0.27441099311155015, -1.246169065931498, -0.7865239354633642, 1.8052783657970182, -0.017461691920230567, -0.9451339818272467, -0.26714212907787116, 0.10935963985262695, 0.4096426203867419, -1.4926794403247445, 0.5543004933148243, -0.20224098844883176, 0.19941400831215866, -1.217269376664541, -1.4405533598776856, -0.663189487084671, 1.0364905468881604, -0.3698069730779382, -0.22970452095610447, 0.07211162298244282, 1.1711894855857068]}, {"output_weights": [-1.283838734335503, 0.09537036623989383, -0.019731017137318247, -0.0360934935421484, 0.004114322695898998, -0.6199729116594435, -0.08962162379130853, 0.07435793851764984, -0.7144890604121681, -3.0687094214425836, 1.2435072093105024, -1.0394894484612116, 2.510432035283645, 1.1452354603910069, -0.15853247975603196, 0.21227953860388762, 1.7778818975324322, 1.337432135809235, 1.1679416265780795, 0.9406325293541845, -0.9180607034575969, 0.7689130833103871, 1.0367086369066096, 1.606315143113682, 2.1665808919448137, 1.2693368101946252, -1.6334633739272046, 0.8297010507380154, -0.017352510939333408, -0.8043405855185516]}, {"output_weights": [-1.6620795143859355, 0.5979344892983379, 1.2033767365311825, 1.6274553045786424, -0.46992390089498887, -1.871177005218769, -0.07177133062844701, -1.1260442298173983, 1.2590675333456771, -0.12865646851529247, 0.4872198355034535, 0.413272233584035, -1.1933390460581006, 0.9827846304738642, -0.8679091503798704, -1.7951448798499063, 0.48184842883230217, -0.18042926677809318, 0.8016276552644601, 2.1337640838471534, 1.175204569923136, -1.2375528624672778, -1.0981228744258458, 0.13653874903106145, 0.7245587972974066, 0.8167279286341164, 0.10813753867907704, 0.6256099464748869, 0.668093010455596, 0.807516039272467]}, {"output_weights": [0.6811019898946091, -0.7510202603007908, 1.3537236447031802, -0.46442139379526476, -1.4595324056363115, -0.7272532876000302, -1.1386014808335982, -0.31720414890716336, 0.3137563400151549, -0.08936205457116632, -0.8631058086789376, 1.1028600665690544, -0.8429373991629693, -0.19279800291364962, -0.7745566139683222, 1.6108393766832307, -0.0014327249350890147, 0.28326939729326234, 0.6599629204374332, -0.11199739416070549, -2.610568290553689, -1.0384841972157213, -1.7139130472515995, 0.2741609816979368, -0.46004035571450935, 1.4031861112797575, -2.50292725762208, 1.0097411063311281, -0.465972566754775, 0.19359108977992132]}, {"output_weights": [-1.1545246628620587, 0.6519841500744106, 1.4599592858741999, -0.6758517616860424, -0.4141877279822746, -1.8845477050830952, 0.9433452052222964, 1.1161415085149178, 0.3650857975546002, 0.09988340291183784, -1.2963384756383496, -1.1311995837133189, -0.34399977142893706, -1.3442868441020601, -0.8744505021190907, -0.5363764155358308, -0.08894149822533043, 0.7842405276803449, 0.26908490618400027, -0.4974406151555807, 0.16057294698169652, 0.6065890818636442, 1.688199686598538, 0.6054811850473384, -1.438023142988203, 1.4271916535223748, -0.817648331194888, -0.35302631572300314, 0.026208163440598838, -0.9295726930194584]}, {"output_weights": [-0.3323273820973471, 0.811974483075376, 0.2028434071442478, -0.5830779798219821, -0.12278608908069305, 0.7567793413603489, 1.3544632944088917, -1.699392280552345, -0.3881963944568539, -1.707766568036052, 0.6863910292995432, 0.6472177640345643, -1.620677841536439, 1.107826056291549, -1.2298051438715336, 1.0832020845460215, 0.32871767360558235, -0.6434769383795526, 1.180717072292532, 0.0031282365371207137, -0.7515943790527428, -0.1930242659449719, -0.4604475403352663, -1.7282256362034105, 0.9230317643026476, 0.9926599819363214, 1.2653626616242422, 0.9385801923744606, -0.5941136303576445, -1.341771476006752]}, {"output_weights": [-0.6370235108634391, -0.9461153410392317, -0.6728817124237187, -0.9322095837445045, 0.0238054190369578, 0.4628030913974884, 1.649329901891473, -1.2593623496916837, -0.7341229697306683, -0.2612130967907279, -0.8103193723845581, -0.20524951740377073, 1.4699734207624273, 1.0318129952227226, 0.18118700369105387, 2.0222244757970014, 1.0708418502277715, -0.29132652446153284, -0.451612926835594, 1.8852770779940737, -0.9416228718671905, -1.0956553555743465, 1.1235896735516844, 0.6793301272543915, 0.6108310589810176, -0.2242009187091483, -1.2506536472694485, 0.09889034766133101, -0.7475899901521768, 1.0458284358087782]}, {"output_weights": [-1.3422820627833676, 0.05765859289178961, 0.843087045128236, -1.6284594730566972, -1.0833732265799685, 3.0265103024556064, -1.290910502542681, -2.6200241353545772, -0.6791816458887573, 0.14247243620377237, -1.289705931004187, -0.2199012052273614, 0.6953166601567072, 2.493514292221353, -0.3506755143645529, -0.14020818158614395, 0.14760647036219066, 1.031644238661371, -0.4124731926126333, -0.5908665048358415, -0.6489164412753005, 0.5767318627892547, 2.589703995585391, 0.22303259478558107, -0.9450465906373133, -0.1755758873524876, 1.7389781899888215, 0.145769928911626, -1.1554754571461558, -2.513340223578723]}, {"output_weights": [-0.5304776551125825, 0.6940623653020637, 1.838485048899473, -1.388681629327897, 1.866621518493831, 0.30813477651525856, 1.1353010165694524, 1.0358733964953215, -1.316685669708733, 0.4101320831179133, 0.4562637925749025, -0.3172250775771085, -1.716330762596503, -1.0448405306400879, -0.13097656278168096, 0.6899035142197089, -0.11455152203762489, 0.48972832361513086, -0.34234023344229825, -1.2697563500346711, 0.4153320894707488, 0.46120136692287567, -0.8579149887057962, -0.18434801897890046, -0.4895986251199994, 0.31137660092914327, -0.3410742016653555, 1.93064172908466, 0.7027456136209871, 1.1078370587375668]}, {"output_weights": [0.34117257285778113, -0.03107745583373701, -0.6628844732260932, 0.7119783528705511, -1.5919828479332865, 0.2548056752465248, 1.5563942592997835, -0.39522006607880805, 0.07469024126676842, 0.5657099052580481, 0.13795117912735003, -0.3558280743174022, 1.122744856595787, 1.372940626026075, -0.5312574082940504, -1.6534663653944737, -0.6686252633246277, -1.0582555750523837, 1.7609484440453853, -0.57452687884594, -1.2166806493789464, -0.9865081423468058, -1.0840581409296695, -0.9219065426051152, -0.1202711433754452, 0.32018580201647107, -0.5903637014806996, 1.385824191285998, 1.1342512334144699, -0.34592833033652537]}, {"output_weights": [0.0774745195870184, -0.38444825815142075, 0.39319935103386866, 1.3949232976687718, 0.19922762109961903, -0.6951479863958143, 0.7522847110362594, 0.37288138296304785, -2.438853754988326, 0.4570493464871755, -0.028525016898022577, 0.2828569223626726, 0.5599133518512595, -0.18200936843307053, 1.2723806694145154, 0.03232245234284181, 0.48566873760416035, 1.8348313195780481, 0.2658884257042325, -0.07645130666909833, 0.06890586307629228, -0.4993273634324059, -0.19895303606315942, -0.12627653201796943, 0.05712538453841655, -0.05615382378428101, -0.5153380787831382, -0.15898329722049032, 0.6543802614899721, -0.910530894951507]}, {"output_weights": [1.0155005579824556, -0.13011674331366432, 0.6100677233693068, -0.004446891317157686, -0.7941758508090617, -0.008404476346830992, 1.296895016816602, -1.7414851009546157, 1.3443640606061988, -0.9792462285475865, 1.210901053918862, 1.706584494554512, -0.5280630393918039, -0.2202128839102938, 0.6931713386865568, 0.789116669911823, -1.6123424380042368, -2.1973788056713515, 1.3703633840316298, 0.010927658107941338, 1.0109594979802041, -0.19492257124213103, 1.038965388766778, 0.33115147507614245, -0.31579334546258725, 0.5580798367775951, -0.5572544893918137, -0.22393501042436265, 0.6560303932158852, 0.7606176078799693]}, {"output_weights": [0.7385506931796249, -0.0920497394360032, -1.5938953671283114, -1.2994859303035904, 0.4399460555947743, 0.596041760352652, -0.2960885071200034, 1.6969227652918732, 1.4764009747765297, 0.8080273412400838, -1.6588234123870802, -0.25296613775928267, 0.03577820787838677, 0.5883339673038757, -0.5095307836069266, -0.5217786107386666, 1.1162325562049387, -0.9864003154719344, 0.34699907181493844, -0.6900715942790541, 1.5119300851322464, -0.667319970667323, 0.6584812201238086, 0.06765985109144443, -1.1483736414927794, 0.18652480765394397, -0.04298582550882659, -0.9335661223575483, 1.2876255222344284, -0.38052482585311775]}, {"output_weights": [1.8040611867359095, 0.24570037038589126, 0.36332467861961165, 1.155320680400425, 0.6397149831028488, -1.3280401671507034, -0.19735349085182263, -0.42575760865198853, -1.1241101901620631, -1.3266875096616304, -1.8981067068260822, 0.885359973233551, 0.9591945377251048, -1.2994462729769367, -2.075512812886055, -0.8904147424879577, 2.33340735461794, -1.4358767404217974, 0.5498508039910073, 0.3755995164820923, -0.4267060575478756, 0.9074006089716248, 0.23159754434847143, 1.8165639798610016, 0.6763504529410891, 0.7647797120725014, 0.37081391484974474, 0.4476633175013537, -1.12123138899203, 0.06343786139811929]}, {"output_weights": [-1.592856714417798, -0.015697658455768326, 0.5379777808177856, 1.340799086681758, -0.17716242599229468, -0.1755118345015622, 0.28072290672519246, 0.4534572469104313, 0.39755955151195405, 0.6104354942384048, -1.1220665333793902, 0.997931658531077, 1.8592071856558567, -0.7312815324689951, 0.6425154589357626, -0.9626108202149032, 0.059616961132321566, 1.562707172200591, -0.718417973880765, 0.4045131784606061, 0.4857891929364655, -1.6696989934976552, 0.11054544949147557, -1.103743953726987, -0.9084233471201577, 0.6833474307768428, -0.028911678050772164, -1.384419344228052, -0.07888660805710859, 0.06967433475633138]}, {"output_weights": [1.0493344149708916, -2.2535787488279597, 0.2612261920986706, 0.49737325604087607, -0.7045544296334972, 1.243992402521542, 0.3956243867521458, -0.38278236734649546, -1.8506063809618023, 0.08235625383550414, 0.4174514093924339, 1.3178255630458777, -1.1326291748503523, -0.5499942006448029, 0.3196870929820146, 0.5309382341418346, -0.702132746626347, 0.49397652777835765, -0.02592486338727059, -0.5049005468632155, -1.2225059714253896, -0.729557071104059, -0.4263491022385108, -1.217071547429943, -0.7461675250092883, -0.7380846406298672, 0.4882532818347082, 0.8689231888826139, 1.8905347941120731, 0.3295225028970014]}, {"output_weights": [-0.6136631812587806, 0.2056835161828758, -1.4638773265344212, 2.4326477414573078, -0.7731464051537582, -1.434271877335197, 0.8254572006112754, -1.492254185835938, -0.7165733810628636, -0.07516944493586233, 0.3871739869499079, 0.09946985169729601, -0.42602145621023324, 1.5372664480586284, 0.305427763968144, -0.8191680096648235, 0.418150247030575, -0.01545804108712146, -0.14034348347339884, -2.1277410506509162, 0.1061335437843112, 0.555574736558893, 0.49023453486326296, 1.4958021490310547, 0.526138996541839, 1.3567868338223597, -0.8449534576271309, -0.6266388464231695, -0.17282957342531752, -0.7417017228180466]}, {"output_weights": [0.0804626681215144, -0.07124109531549523, -0.15096417589019856, -0.5754019882731282, -0.24839913804622155, -1.6331993158829774, -1.2865063574043492, 0.20509880572976136, -0.13814756208929643, -0.6815624708598759, -0.5480327426168365, 0.6152064754768438, -0.448546362424356, -0.17947910043219675, 0.9014447368531769, -1.4332614613181225, -1.5796931665366205, 0.007074799110527741, -0.5584110857782743, -1.00188991385666, -0.6900016678305513, -0.6309193246310388, 1.1770091027272347, -0.8958587772442331, 0.35861856767206035, 0.026987101319892216, 0.6880913299820806, 1.3754533458649238, 0.2692643988890999, -0.8917640744803386]}, {"output_weights": [0.4971544988456499, -0.9692741554591926, 0.02337260362043462, 0.19343772421442437, 0.6733028925428751, 0.3782940117078608, -0.5980280642083403, -0.06409879314338261, 1.0986667302541948, 0.5221392135925563, -0.5043610777500338, 0.4541359789402463, 0.36825940406899743, 0.9903789929314146, -0.7783884142535186, 1.2961701734990378, 2.242257544266562, -0.3834077592894664, -0.010601152251913546, -0.08164434124262566, -0.9365942490239408, -0.9607275556052983, 0.458184023707193, 0.06827290924624661, -0.4261780802782351, 0.12094003191465223, -0.1955785798938819, -1.256388704346763, 0.27622219694162425, 0.15359874187620534]}, {"output_weights": [-0.8933727152311212, 0.7129250225448055, 0.24903010921128954, 0.8613955813696644, 0.6047378386804786, 0.9987541481187704, 0.25286006875053063, -1.8792851813762703, 1.244820839447287, 0.2671046131902258, 0.0020971148084950914, -0.1350790520552377, 0.054080553902108724, -1.610073410522513, 0.7376295693481387, 1.0723156105063731, 0.3065402197741509, -0.27584957543668703, 1.0269346241372075, 0.8189336332927442, 1.2060624726824916, -0.7025142549009683, -0.2613550031664755, -0.582541003706801, -0.6585285441740178, -0.9047539267499601, -1.2158989084565817, 0.5777085910396523, 0.7839815435514191, 2.593773909066681]}, {"output_weights": [-0.13488947004070254, 1.0360225823445233, -0.09535395386751022, -1.2058395796744679, 0.44462960482266217, 0.1129759316667685, -0.2930384472412065, 0.26748084400243616, 1.3260491938907875, 0.7935728619519203, 1.302728753429895, -0.8985883600847, -0.9199790077044591, 1.5051852635142766, 0.00377770229916391, 0.4636544279021423, 1.4233230952569835, 1.8175105821875648, 1.551984135297277, 1.1156257133947898, -1.7033788248002397, 0.3442058992984323, -0.02205484508947468, 1.4481131314117086, -0.5664740798735036, 0.9885729167376803, -2.0379717802560697, 0.04432477672342054, -0.27690954562036524, -0.4792747115938231]}, {"output_weights": [1.5184566798205286, -0.27290579670746273, 0.8775237621211143, -0.9591023594530467, 0.9337391519039622, -3.159162792790492, -0.7297124191948873, -1.0065776442457461, 1.6332360185736738, 0.3597862055861463, -0.3166879008682951, -1.6399291090984929, -0.904235992025612, -0.991927974917784, -0.0417603628466008, 0.7044687958887513, -0.6867353938622337, -0.16418448215613082, -1.0909859082456916, -0.10399618719427546, 0.5315329876327198, -1.1654581708572067, -0.15643596903716886, 0.6467860738718733, -1.088171947943902, 1.78835601300867, 1.6600593084448336, -0.5238053786439464, 1.5463875036094576, -0.11147189101606518]}, {"output_weights": [-1.8432960065524562, -2.1415937157472844, 1.4981336148324402, 0.15035608555921975, -0.43565679353069314, 0.8423709191099544, 0.5700600524513513, 0.2982193275530336, 1.795734886701123, 0.2842753045151807, -0.5862243048089782, 1.0389503296642575, 0.9502129430723231, 0.20816659263502837, -1.7608231807181862, 0.8027356404715477, -0.6471826396381913, -0.20419347374477304, 0.8845368446010877, -1.6484420267806323, 1.7362710532800598, 0.26523928182496953, -0.22826631862353797, 2.4098716056123686, 0.6265135257195633, 0.12563062996696647, 0.07079920977745038, -1.3406109096348133, -0.23852488336090974, -0.8594316354283537]}, {"output_weights": [-0.6758906657518781, 1.2255306706995313, -0.6687373272469539, 0.3658350038887852, -1.8495757371651047, 0.5742254261361889, -0.6908286681343495, -0.04853904402427192, 1.6409431403350252, -0.1910772797266372, -0.6760639618440599, 2.599882717770265, -1.0280435848166052, 0.19384481228720854, 0.895030428133243, -1.0715397555908952, 1.1388934195475866, 0.6121076599806101, 0.7423178231738926, 0.7745620522306685, 0.22982191710103025, -1.7827923391907297, -1.5762795865979153, 0.31507977687754857, 0.27942974229744943, -0.6048605309231125, 1.9768308257567602, -2.4544381325055777, -1.120569711043541, 0.40187525754874104]}, {"output_weights": [-0.1214165227293758, 0.9760476075394938, -1.7239554342861068, -0.44710043991392256, -0.4241764075936247, -1.256830199014412, -0.6109473922390735, 1.0425353823233037, -2.1764355223732266, 1.2269677287750331, -0.12738058929707824, -2.1853357290282283, 0.603379253432077, -0.40625642843717163, 1.2526277239725665, 1.8293421940601835, -1.7540254558549688, 0.7119079311712786, -0.5614622361156599, -0.28130794973175866, 0.037958641227045224, -0.6233363826596688, 1.7891895186682312, -0.06995124943443673, -0.1811027762449054, -0.38732428445679995, -0.07881025196680505, 0.6152272735542451, -0.8634251256260018, 1.4749983155602089]}, {"output_weights": [-0.4193695264185454, -0.3512189361181067, -0.6556988286281928, -0.1574850433568445, -1.4367632985094518, 0.5556315509368533, 0.18395348581665474, -2.2167080542637234, -0.6082208565776446, 1.2256020440335464, -0.34527935047380676, 0.9527083748894549, -0.023130837524951587, 1.7818806851368993, 0.38950667097251696, 0.5279824019967367, 0.8843260516028323, -1.0695718656422557, 0.7192114672879776, 0.30460457119494483, 1.1423813353936092, -0.6653438124029735, -0.6682313980735999, -0.7053042342495013, -2.1340228334018017, 0.3493672516433966, 0.5519389565155003, 0.42104807650431125, -0.589373785734069, -0.2020247968304369]}, {"output_weights": [3.1875369302670475, 0.42074848480360977, 0.0692294602204602, 0.5182181415973963, 0.05450154800541617, -0.5763309602099531, 0.8188508384004424, -0.16505590389969635, 0.7573167813411018, -0.5752703504420602, 0.4849328407997988, -0.26594758920126693, 0.5478572412402074, -0.1418420735862473, 0.1667140006138067, 1.0617709150424666, 0.030710255463875954, 0.527885870907036, -1.99475705673059, -0.21001305381951352, 1.4449092966293426, 1.532884349326313, 1.0475103505726902, -0.7425800288317206, -0.7428590610049496, -1.1150982800224327, -0.8154830670965822, 0.6665046082212512, 1.4040584072409692, 0.3992267937433558]}, {"output_weights": [1.3381905489812826, 0.08963823223454562, 0.42332308145992875, -0.4614916332780388, -0.9457707156069384, -0.5658550840144501, -0.47236288378370517, -1.0847855027556992, 0.6476156578730922, 0.10521207532661177, -0.7803809760420354, 0.7951821610338008, -0.28298385301556295, 0.23104372277520727, 1.2289573088006822, 0.06003437288607133, 0.5355401157568705, -1.4800387642561614, 0.7918498499102224, -1.115611384875127, -2.693098417452737, 0.10078655651209811, 0.2380731684784236, -1.3417123481439257, -0.2752531171052975, 1.4780663194442811, -0.9090361661030394, 0.6457295232826716, -0.3094977309155824, -0.5532793225230742]}, {"output_weights": [-1.3736522124408095, -0.6545140590770216, 0.12597126697090139, 0.19512280880416405, -1.1016798806196955, 0.293217864740735, -0.9608558780046926, 0.11973345028851436, -0.6156720641653717, 0.716164615768986, -1.9322668532972718, 0.23503532259783624, 0.09863305976788066, 0.6636807153030306, -1.6069781075444263, -0.20258976515467586, 0.15423436234898366, 0.9989431703035375, 1.0624378101421157, 0.39314290803600666, -0.4210350902364003, 1.0149898066089285, 0.20267263775770006, -1.4044783514678845, 0.21334417363987446, -0.21774749258487736, 0.3760968572645422, -0.9192189838142019, 1.08262091932189, 0.2975717299365605]}, {"output_weights": [0.0454637323062644, 0.7514211001878529, -0.29479136805764644, 0.6226707171815629, 1.6610616950633268, -0.7520091130916585, 0.9700103510742334, 1.398634454679709, -1.0482481411191602, 0.3912597900462285, 1.2292969311817092, -0.7924145136270921, 2.0077574438596293, 1.2253307852180086, -0.6843804530246161, 0.33575902220867965, 1.2057499434046082, 0.0756095658063469, -0.07566692483022121, 1.119248493461143, -0.9559598597807246, 1.2135813971684328, 0.9985608796796267, 0.534928693408718, 0.028097440240475596, -0.47631460174689677, 0.11107053282786951, 0.656688451605549, 0.29537502266343285, -0.4925536493464181]}, {"output_weights": [-0.7567577382857729, -0.29906417576271643, -0.27367565756302564, -0.6380517730751656, -1.7341827993973524, -0.13679130062808859, -0.02403939160085788, 0.1692358901334606, -2.007085010419416, -0.3323219438144547, -0.8662203524325226, -1.4271168257297544, 0.8749781746002551, 2.7403632745934816, 0.6510233554445021, -0.6785091671107238, -0.9035383680093683, -0.15226909903452354, 0.21503113032456558, -0.6122927250185548, -0.9740211943018197, -0.1589989463898553, -0.3053509138564332, -0.9182238936986783, -1.370286537938903, -0.12890103183203694, 0.17412148599756905, -0.909481181562352, 0.5447236156187539, 0.15400521584007235]}, {"output_weights": [-0.2733490025548896, -0.3266798671862242, 0.5495643919648864, 0.87315722234898, -0.16762318802500353, -0.5280031289633331, -0.28417975550221436, 1.2969763965497982, 0.5544805424620303, -0.8748550362070034, -1.2023371199195374, 0.04478265915193424, 1.2482737028927051, 0.09057758757381626, 0.9717440685957726, -1.0829173681533804, -0.6798691258401184, -0.643476922569926, 0.5633035613820635, -0.766526843728411, 1.309026196482865, 0.06145191898732766, 0.7606635787304961, -0.8675146954385822, 0.24095651409424615, 1.8833816748192052, 0.6506852522231699, -0.19852827933558795, 0.45689331913913594, -1.9546531619905676]}, {"output_weights": [1.2975552572122526, -1.0002907611361413, -0.2836906541746436, 0.9143958824432395, 1.3915296057544209, 0.5161520884957184, 1.538068716297597, 1.1840948135120755, 0.9950373117469304, 0.19109526455659798, -0.02893684035326652, -0.8829218589017678, 2.421572030840106, -0.4869219034892709, -1.614268885534422, 1.6853487509125746, 0.04708894442296419, 1.8506353812492289, 0.8283858799410093, -0.19447769355345457, 0.6091428382662555, 0.7876014127401432, -0.49507735683959675, 1.4241051332890668, 0.49885894204096537, 0.2999072542091245, -0.6992977205158897, -0.14545860699855712, -0.031405450845544386, 1.766193901476145]}, {"output_weights": [-0.29820161227827235, 1.2358654963970934, 0.27254676122179894, 2.1898934182815553, 0.17120910683077095, 0.1719457923813369, -0.7017112805901309, 0.9169872055212677, 0.23857158939181172, -1.8384295395207373, 0.30511940246712493, -0.50587836717073, 0.5698460170311648, 0.8015369140043037, 2.0399206711421116, 0.41332656419016467, -2.1111146603159483, 0.01780500620816836, -0.8172400568780237, 0.5926045506395253, 0.12712808013795368, 0.9707003467664532, 0.05387109535231959, -0.9538098548554779, -0.7367397282214178, -0.04304669870416217, 1.3564121505283087, -0.7825673187926894, 0.25206473897442755, 0.02986251486744953]}, {"output_weights": [-1.1865849370467738, 0.5663642403460543, -1.1470993096999278, 0.5545674724776328, 2.316355802230653, -0.4854801704124127, 1.0625224242622482, -2.115329715696474, -1.0364457962733495, 0.783118887480398, -0.7115609923902673, -0.054357639982164925, 0.43932702652878425, -1.9078573441686184, 1.9650583710807135, 0.39088694502782134, -0.9452616495010404, -1.0870998615506167, 0.41555011928829894, -0.42967294497182307, -0.029505146690970447, 0.537877198301062, 0.3306510363799577, -0.711581386029905, 0.17361924303268472, -0.1714297267075551, -1.3112968265353924, 0.39678113035698787, -0.8129072656630347, -0.22114626820177785]}, {"output_weights": [-0.5311201109811685, -0.19059845083440363, -1.021868806937633, -1.2424781916805712, -0.4172282928138536, 0.5941932350523108, 0.24824457962433694, 1.585556424813936, -1.2456662672241319, 1.0511380369275902, 1.1067995370102062, -0.4967848779557186, -0.7864526502496789, -1.65813180323415, 0.032485162178132104, 1.664397673537658, 0.3551415451484815, -0.8381469835609544, 1.412135928454132, -1.0459274088225359, 1.1223967991669785, -0.1714494885267086, 0.20571214423312986, 0.051251690743864424, -1.7297257864182571, 0.5280079856463736, -0.2826907868019903, 0.422438370701031, 1.123739879812392, -0.04105997563327396]}, {"output_weights": [-0.4356953015417551, 0.24629159632691702, 0.26560872727903867, 0.19232428697931214, 0.4331505865333042, -0.5450768428175706, -1.093659822243291, -0.10646143903840123, 0.6156335035415303, 1.3690225904159148, 0.09475916894966457, 1.965410501862647, -0.6295080463069629, -0.795449718806827, 1.2906994098010296, -0.45289034589205457, 0.7390984004046124, -0.029022326689639277, -0.9845283480688419, 0.1703514231211464, -0.9226195843424855, -0.5398873271778836, 0.635515912916097, 0.3312346177688163, -0.08692697832499553, 1.0015164363927787, 0.7160402488965333, -0.31842112065733696, 1.1744079113241859, 1.0642123035707944]}, {"output_weights": [1.3375823209313522, 0.28559496031274945, 1.7885829485953293, 0.6229361384940293, 1.2115728299668538, -0.8267813452609912, 1.2036700314608249, 2.173627741335062, -0.2881879797333435, 0.310171339504591, -0.48298326216293425, -1.4355678978466089, 1.5743234551965246, 1.4270500482324175, -0.7024362635002676, 1.0624118630462793, -1.1902228239813217, 1.1125162156339734, 0.942978291125889, 1.2759021527587056, 0.3797321612576622, 2.7695361623955193, 1.2424805528619838, 0.9326970622304872, 2.105621936844147, 1.2676813135644598, 1.0080494988224724, 0.6915205554118737, 0.0012718825511426285, -0.7968339860574903]}, {"output_weights": [-0.3826110377847265, -0.026929808960690495, 0.3246298337121204, 0.7334543088231571, 1.1297553430329241, 1.7830654793334768, -1.1398167456675077, 0.43028338369949426, 0.5546071279516149, -1.4100425477638034, 0.312581608548397, -0.41377868149754116, -0.047963113527911654, 0.04723879022550972, -0.13883433836140283, 1.1526347089194047, -0.47304931778825676, -0.33920551700774715, 0.14728019076440335, 1.76879015035281, 0.28758075217001444, -0.6180592715719714, 0.9118978659489088, -0.4540875365520297, 0.29787834966198645, -0.6090082490252847, 0.02681496862474482, -0.540100946546075, -0.04841466680621037, -0.7576197343923954]}, {"output_weights": [-0.08617380313789125, 1.8603885900986297, -0.24011562217918916, 0.9978606936446102, 1.0759399093753437, -1.940919848203381, -0.9136880006530357, 0.6738043666440428, -1.8412573026140895, -0.7638389670632174, 0.5577777371428532, 0.4613780118644997, 0.09184845706206596, -0.7357696537057994, -0.5735084552428493, -0.8201426643328426, 1.1923289147918348, 1.682948601054446, -0.05155687187468374, 0.9747607601572498, 0.20533663911355549, 1.1509011052134255, 1.0901261911507487, 0.6502644823038384, 1.1574775489543625, 1.1786368815304906, 0.503941031857124, 0.5800956333383137, -1.496308622169827, 0.8754737043042419]}, {"output_weights": [-1.0119017426509176, 0.7974571342222144, 2.349435913377348, -0.0698071437179949, -1.0241291010275777, -1.7224876024622158, -0.1311555158459828, 0.7906207600960478, 0.5585984058939963, 0.50590973148903, 0.05453535743747416, 0.5385911765204806, 0.9900917502915982, 0.25051516200108737, -0.5163119829108926, -0.0908130975011302, 0.2756187141464178, 0.036923429444115384, -0.16390340185845392, -0.05433297925446157, 1.4410025281191796, 1.8212035287341013, -1.4371553530850196, 1.9561034445825791, -1.1914293605741857, -2.1058100174341132, 0.7429854844950015, -0.035481791462582166, -0.4096302704846435, 0.9748521853268067]}, {"output_weights": [0.5171822251189241, 1.7869394245767036, -0.42184429747704344, 0.8999772287231378, 1.3234609593527364, 1.150943372155969, -0.9650841533948613, -1.189292490892349, 0.627204261827655, -0.8757505880027007, 0.17190260162662438, 0.3147086441329686, -1.1947693757014146, -0.06671800787069264, 1.4793994259619345, 0.034802096121488345, -1.303840886864636, 0.653292932678686, 3.388556240617532, 0.8199353708474835, 1.8340162159461344, -0.9757504054523932, -1.3640696887294712, -0.33617637833026315, 2.597379414967161, 1.0759517454081224, -0.7461391818811034, 0.47562543992372425, 0.4397894427001145, 0.048901080980890244]}, {"output_weights": [1.1206070420364043, -2.1067027981907107, 1.6394244639197668, 1.5309652258666417, -1.2058775815760054, 0.27717275607611336, 1.609756126690634, -0.25088173674410763, 0.5662148976765213, -0.4536480896353823, 0.013259851504313908, 0.4903632183215082, -1.4893744910376852, 0.995250518365518, 1.1690320973578272, -0.664242194520073, 1.4819456692396453, 1.0477230275444898, 0.03562546108791599, -0.8173677763207411, 0.1876948975669786, 0.7732285568521401, -0.7999738364018735, -0.1858516483501267, -0.10313214396812616, -0.8424025658287378, -0.24496400652477826, -0.17819968728924412, 0.08235098571247097, 0.7590462919931666]}, {"output_weights": [0.6480448554633943, -0.1676283059158186, 1.595110126607609, 0.15066941003096435, -0.359192337987289, 0.07155266672366432, -0.49882867268691494, -0.2682950029155602, 1.9693063007420197, 0.3664299565724339, 0.005958060188703214, 0.80665664287985, -0.690447366458995, 0.5590907174021325, 0.9016940218790379, -0.221859510211352, 0.07818834811392303, -0.630363160576584, -0.15425256529083103, -0.539930978798464, -0.49167511103665246, 1.0897187032290756, -0.6273229367027718, -0.30359006457311594, -1.0682914738780505, 0.8344304795433453, -0.4224981010910248, 1.4399308617892423, -0.9488792181745554, 0.006570490816833768]}, {"output_weights": [0.7413807888884839, 0.17426829904088387, 1.722118999812759, -1.619416030774583, -0.5681396846416827, 0.33921568671351626, 1.4252871738169737, 2.108557127652217, 0.21254382192200075, 1.294793978001998, -0.7834434468836667, -1.2872221436965356, -1.3188975002522798, -0.070558083774239, -0.3625579243476844, -0.7180182250227519, -1.1164522273231008, -1.6301497307809512, -0.004124743451508782, 2.3637558310925897, 0.5416412849676282, -0.9014775007533319, 0.5979374224621995, -0.2808566292163692, 1.2150585928428046, -0.984057621585717, 0.010110802446002761, -0.13651178962472893, -0.688872261997552, 0.7810405985167194]}, {"output_weights": [-0.5618712388416757, 0.48762543405724845, 1.3347923614295427, -0.546928303023257, -0.461357435873076, -0.8735303320271871, 0.33989545715703795, -1.8026748560459274, -1.301477240775662, -0.18444146946161488, -0.9550689533655505, -0.5032722401643226, 0.04168267783015672, -0.8398443980653031, -0.7220322671325832, 0.1865612842235362, 0.48073806064949964, -1.133176704206517, 0.2651224125609193, 1.6011873781250143, 0.20479132415127743, -2.074284554637406, 1.4900158626360238, -1.3953403789495356, 0.6519757094770385, -2.3603632865640702, 1.69803583508526, 0.9421000204129935, -0.9333739477055591, -0.44667471920781865]}, {"output_weights": [-0.37060621922383113, 0.24554915536759114, 0.6391494390524345, -0.13607948839925166, 0.4262560481061526, 0.9194578345658728, -1.00802953968183, -0.0729779442913053, -1.3213757282364267, 0.3066492950948068, 0.25657784819629664, -1.3334020495904895, -1.2821495884435858, -1.8125984231877652, -0.3117102226010797, 0.2447532130523183, 0.9802911388256417, 1.0343706101567225, -1.4903580462274688, 0.8836808828479831, -0.983755744190275, 1.1697217749632192, 0.39049211889499397, -0.18664828563951916, 1.2050474069692376, -0.5599058841986125, 0.439608390451463, -0.030267824173787525, -1.0224632598895933, 0.09720398772761836]}, {"output_weights": [-0.7998569485101092, -0.8768550580848995, 1.2970672752418657, -0.6243869735801838, -0.25364375664332417, 0.22610445181730043, -0.8330204135430831, -1.4619935853680686, -0.2684008741402495, -0.4375592888824142, 0.7878445483787762, 1.1317291904582325, 1.608190034585381, -1.9271950133291063, 0.3096398748560167, -0.32959029253548333, -1.9076198293556592, 0.05444874634507399, 0.6113974302880543, -0.44282145865690137, 0.15712592650178633, 0.3213908513057869, 0.3815906109824877, 0.3307482623955236, 0.14318012118410534, -1.3581474639760058, -0.5898970517281966, 1.9759293513493217, -0.9687274295720153, -0.42904878769014015]}, {"output_weights": [-2.7165712429384183, 0.7147954768227984, 1.068629596368384, 1.0629796867626096, -0.4267952944014005, -0.32227206844789424, 0.17510680898171002, 0.9404169025547279, 0.10853044551267414, -0.4241937622492975, -0.27671399905686345, -1.4054194322497597, 0.06270022443733643, -0.14023026849604253, 0.6586803823057699, 0.07614680350737132, -0.7276076517170597, -0.06629297175097691, 0.7203203325405857, -0.35958345545035986, -1.2838660307197023, 0.5468867573211191, -0.1872291750502778, -0.6910124918340989, -1.2020588836405324, -0.854353295083788, 1.2016640434889776, 2.0596903018357713, -1.9780486109357076, -0.8762079952189078]}, {"output_weights": [1.1468777895276636, -1.490722976648495, 1.633902215245291, -2.128945623639049, 1.774492195942384, 0.8458018689905938, 0.04297303513435245, 0.8538029128679787, -0.06027431325761689, -1.8542299808457134, 0.6167200270555209, 0.04138270013530902, -2.7639769962666305, -0.40277591597787354, 0.7861038632111297, 0.1973287123553789, -0.08908285765475456, 0.37376260167025144, 0.9314514978611511, -0.7238639579883814, 0.24879490499455867, 0.2466789865935124, -0.8986493468171648, 1.3525809332479677, -0.5292878384872727, -0.6910862178344362, 1.0129563241421347, -0.24803275404505384, -1.615483693110199, -0.8543242645653658]}, {"output_weights": [-0.24293250870102004, -0.8555379188458423, -1.752826599792693, 0.3744500602638973, 1.0830224205933692, -0.49803578248435887, 0.6586254987126494, 1.0793175453124102, 0.056579893677933396, 0.9241944485025715, -0.09278349084447934, -1.261603586989859, -0.13209268773134142, 0.24271991345990868, 0.5625970226783285, -1.7055708774144835, 0.6321594247092598, 1.5852739875854083, 1.3872441819050212, -0.6864264411920555, 1.7325079227189397, -1.6681903156757105, 0.4158699887931199, -2.599213404224233, 0.11547619974646997, 0.3929964904497826, 1.123857911971185, 1.0900645531863076, 2.014172832241733, 0.33590799647891284]}, {"output_weights": [-0.3401235908996051, -1.0395629250417362, -0.35291437673935117, 0.00016049710714522727, -1.7515780471653566, 0.3562469398182756, -0.42432334080510853, -0.06114034478240398, 1.9279546116204076, -1.058482308131944, -0.7752403859072965, 0.7418075732766329, 0.4925559635638351, -1.3310301336060533, -0.02874298528440576, 2.2425293781540883, 0.27734124318229275, -0.8744411874874605, -1.8147060965963235, 0.5428674179786488, 0.614699060551822, 0.588052910807502, -0.716446662560613, -0.8878604563452698, 0.04222674762328878, -0.02202318034507399, -0.21492582876247443, 0.13359417324985765, -0.33927688626812635, -1.4157408940931437]}, {"output_weights": [-3.528441106139936, 0.46647117164072843, 1.3259891782180666, -0.6686410883537827, -0.9020448858183762, -0.381611132123322, 0.884429123813573, 0.45405018966901894, -0.6077244332348404, 0.8677315526745362, 1.294207115359895, 3.299785611700062, -1.5995204734847075, 0.2478256774996764, -1.5478970468790942, -0.35592377185732593, 0.5747010803248259, -0.6408907428421806, -0.07750784628550104, -1.5889981026046507, 0.4700303959605783, -0.6689167760065314, 1.0450369418186032, -1.339699559418269, -0.03123851064004591, 1.1534322802591983, -2.273491240532903, -0.9137195728336527, -1.3895896958787373, 2.203992610674731]}, {"output_weights": [0.028408741090589863, -0.5393854686470598, 4.180454911045764, -0.40599459078821576, -0.3984832884792106, -0.7446147486019371, 1.055643351884153, 0.4457326316826508, -1.191915209669041, 0.44703030373833647, -1.3535399105243717, 0.4486029962019476, 0.3234380422025961, -0.2690287589975862, -0.07943226069887556, 1.1826335115057178, 0.6659505224354344, -0.1425311091792365, 1.162528473293138, 0.38537682127050926, 0.6338601302123882, 1.607005445733686, -0.8921268031645202, -0.16694788450457176, 0.669241275379516, -1.6041005264918067, 0.5539488439110443, -0.5096325996519595, 0.5306284304085045, 0.9927342435777473]}, {"output_weights": [0.3303708728363918, 0.6878286896894538, 1.3432857991161444, -0.43856104249183764, -0.4790207612217309, 0.6934297430030032, -1.4637297415171948, 0.890377711672975, 0.0996648774867211, -1.3328924793014778, 0.156011322839963, 2.0084852638201434, -0.6692074745257268, 1.7811101173988582, -0.4332636876570769, 2.202226966494889, -0.40117944422435, -0.6524764228880057, -0.4457363519667197, -0.7841099134913463, -0.024214998364229474, -0.11958593118292239, 1.1982541772211102, 0.277590130291406, 0.3705508040831712, -0.1382192262179336, -0.1271067328428724, -0.007885851026736022, 0.4581145354106009, -0.5327884350853365]}, {"output_weights": [0.5372326292286228, -0.27555257734692323, -0.26743658064166237, -0.34981620836411415, 0.32160767496044984, 0.6020564192596928, 0.623780766000618, 1.3244560497855344, -0.4837872327989109, -0.011492208653973318, -0.29132836948725266, 0.5038526568885702, -1.6306500087017775, 1.3989963318288674, -0.4798793133482988, 0.4331253400221427, 0.9177940870514842, -0.4969318832768131, 2.3439927021715987, 1.8085153366631521, -1.882192810377967, -0.3267092500470096, -0.05146230619792952, 0.7348625547475918, -0.44999405819968497, -0.2578368188657899, 0.4044728824025038, -0.22144664806857162, -1.2131728969273257, -0.25530824315055234]}, {"output_weights": [0.49207134032341426, -0.21498044310208964, 0.6362803726039237, 0.20311154146964658, 0.06491644181343154, -0.9003097205035376, 0.0430677031501805, 1.9049009420338854, 2.5237840835375462, -1.0538631265863003, 1.34355984473629, -0.376660814109754, -1.6217614039726675, 0.30327506567831897, 0.057181323447075716, 0.22341921821302313, 1.1854503398528466, -1.7723268671914165, 0.19025479977281706, -0.0013919470691517164, 1.6407173131080357, 0.804601335364795, -2.2615876823195835, 1.8695173031330907, 0.36785893589636154, 0.40186161665747966, -0.6067375502036643, 0.7370921247573894, -0.009650548614052403, -0.7484668726756404]}, {"output_weights": [0.14419525201910025, -0.566808055559888, -1.4401294750332756, -0.3892398343597485, -1.1867843927899426, -1.6799869726634467, -0.06733669509887465, 0.6624971162632742, 0.6059060124299224, 0.028992039912126632, 0.4111943243032475, -0.7090862145709298, -1.3783030491030743, 0.3700052566197046, -0.7389945549985238, 0.40787746205516345, -0.4848061017848728, -0.40055790588509527, 0.6200542627448543, -1.1530331281047728, 2.6162964577663894, -0.6729138919574673, -0.7097704356540577, -1.561293546157827, 0.4360670610594676, -0.22825221505951404, -1.3154063687208342, 0.0775266785135427, 0.3462220868175364, 0.016312380171058762]}, {"output_weights": [1.3580450682340568, -0.3234252604752123, 1.8941844283748006, 0.2470595124663605, 2.2055484325961343, -0.7284821407875683, -0.030020308581272977, 0.766549330154816, 1.785710883246092, 1.4770530901761705, 1.1293296942654372, 0.4736029637757596, -0.5534379028300348, 0.9361575743497177, -0.6073096978536364, 1.0173371834950993, -0.31389578628065296, 0.2510768055749851, 1.2943850893992326, 0.7726588195076318, -1.2867777899871407, 2.2202000729227267, -0.11892545585850596, 0.5367787335625296, -1.0884559922720503, -1.6319115930213604, 0.5010175929372959, -0.7806345705994527, -1.1039296848987035, 3.1232584450884215]}, {"output_weights": [0.5391237054988751, 0.34004919504038206, 0.36551508856617626, 0.56665917603083, 0.715743417313523, -0.5507256767802303, -0.6913080598332413, -0.2517803313876477, 0.9286504267570764, 0.9050699382187037, 1.1653144216017708, -0.9200881023664303, 1.8937263130738082, 1.9013737301302134, -0.48193850877591105, 0.9539553409255255, 0.05123438917638308, 0.3673349791876228, 0.12150947002786334, -0.43095112834948374, -0.5316948029103185, -0.1203643963128544, 0.08113736903596536, -0.5480492021476452, -1.2889547550171874, -1.2011238534495456, 0.35950995854704165, 0.9096469563721503, -0.48441589227334225, -0.5881962816598343]}, {"output_weights": [-1.1521850349823346, -1.1560249412831622, 1.2253362463469397, -0.43435450779117163, 0.16329221863198604, 0.13032904569259435, -0.35609519500969133, -0.03597238017594307, -0.45045731315479143, -1.6729291841226848, 1.0605243820063046, 0.9816600026855535, 0.32332424589887326, 0.29180558796436196, 0.03763303800987599, 0.4697103062435979, 0.34788867892151676, -0.2729597411748624, -0.012323921059277008, 0.7101731526247214, 0.4322090833101799, -0.2019323423092755, -0.8294636115856076, 0.6664828117448697, 1.3367164910002933, 0.917645519095079, 0.24509115073546428, -0.25275237239280096, 0.5652944824595633, 1.0824363718215793]}, {"output_weights": [1.3887655972691226, -1.2063900383296047, 1.4670292044486566, 1.3121034077794296, 0.31906139702121805, -0.6290180203991647, 2.2333879754556176, 0.26042303218440976, -0.1928070177100135, -1.5624160250187393, 0.5255955769192615, 0.437615253711641, 0.37214395594354976, 0.30704028346919005, -0.43364184967788594, 0.5052285959172174, -1.0473203332949568, 0.43866949595716054, -0.15431641837109908, -0.8244545821342679, 0.359127450358857, -0.2128644999007081, 0.10009394559321219, 0.3849496962909209, 0.59587623221853, -0.5674593726973948, -0.5396529632335467, 0.7796212151131695, 0.5285208285967283, -0.0318838087836988]}, {"output_weights": [-0.1683998636743592, 0.31683845148574785, 0.31652711017965107, 0.7724974511236427, 0.6597201901403172, 1.0188313120096542, -0.06484736698588257, -0.05781647373363712, 0.20393525227231826, -0.058528399071182714, -0.09496871865713452, 0.1503358983486369, 0.4454019672061969, 0.41767889611570735, 0.460433351249377, 0.6120499966019598, 0.9193594571702417, 0.07695629321182033, -0.42043445809808855, 0.3333023301958093, -0.4216512698981645, -0.24148887845943112, -0.9602380095670086, 1.3833287610191538, -0.6132025905688189, 0.34979589349278456, -0.2106304125362098, 0.44748735613427426, -0.12934039454317028, 0.6032984876329297]}, {"output_weights": [0.3277094811659329, 0.026554113373621964, 0.06932358943913247, 1.4212896437345446, 0.4209406632963272, 1.0574033509443193, -1.18895166175149, 0.6455437403359484, 1.1517603732109527, 2.6872130067540385, -1.4956405011964153, -0.45994300499796265, -0.39445192576938504, -0.3241277898485631, 0.9220999393500299, 0.6653579034325439, 0.11833896057752398, 0.4714778207716951, 0.8784868508099861, -1.7883349084393148, -0.5679505317419993, 2.526643692006981, -0.8375779555788473, -0.15090284289875663, -1.6192854716196754, -0.5041926761942043, -1.4873054561086265, -2.2187012716007364, 0.22311009047662422, 1.7658330351596223]}, {"output_weights": [0.6352266653836944, -1.4605111329706226, 0.33454535206183267, 0.9045614854613206, 0.49048689387963146, -1.0674386547271564, -1.5946748557914583, -0.8550402042491454, -1.5345003742453596, 0.338291212907084, -0.582065732995493, 1.5594724122564694, 0.08246050910132693, -0.6354965648698212, 0.7726900572830073, -0.1879394497819111, 0.02349659323769174, 0.7716362382659036, -0.3007565499248803, -0.7357128134938677, 0.23703567511853346, 1.93865949598216, -1.0749189678179372, 0.41900019265718, 0.6281740501391228, -0.8071179982313901, -0.29830850590115404, -0.5198834486822417, 0.9867300392615204, 0.11456207201981397]}, {"output_weights": [0.6979742996566385, 0.3392379001869426, -0.7621391826269216, -0.31055227012420966, -1.6608765927893048, -0.4571941476505012, -2.1507740798596373, 0.15364529626096243, -0.30172349600670323, -0.45985959017969696, 2.016128113038909, -1.0080199709831619, 1.5272783721232819, -0.5458119172109894, 0.5965352424670519, 0.03432254622307921, -1.0957147920024428, -1.5399731310452365, 0.6912924945014228, 1.2794891465784524, 0.15261439171262897, 0.5094366258835087, -0.284893738271435, 0.5870257722207399, 0.4653060739023004, 1.3012158724754757, 0.24154710210573402, -0.07217494618480119, 0.2145470720140777, 1.2130096490904623]}, {"output_weights": [-0.6389270478915517, 0.1501270349942119, -0.3577837922984907, 0.2663112875208956, -0.11075289399534666, 0.874267443841495, 0.4952245077291011, 1.4166224151919513, -1.196880567164546, -0.6149877678018891, 0.748582004413998, -1.3299360803983926, -0.28023951246581974, -1.5540357226657593, 0.2773149689406561, 1.1574814304611292, -1.463122277412452, 0.9799162501234677, -0.5789733594019896, 0.48564868549689705, 0.46763543419887527, -0.06446592626148505, 2.238808178383104, 0.9257671430921056, -0.8220137546848477, -0.5126769666535586, -0.33515078966873163, -0.5143323756394645, -0.21377214649102322, 1.605665876874774]}, {"output_weights": [1.3545847592196392, -0.42203663387544915, -0.5344682651690815, 0.5664144625000913, -0.7153459422499309, -0.5064957967775652, -0.3978288904487942, -0.34153368814735713, 0.5655758166496926, 0.339247401211123, 1.0540824186156148, -0.5888160948481835, -0.36312153940738134, -2.4200195418768513, -0.4298924885040371, -0.19786717720223068, -2.9631559958839224, 0.8327978834437855, -1.7898272188362145, -1.0435895850029484, -0.0006973909018105862, 1.9244198965381059, -0.0016171606118149974, 0.16978899440433193, 0.08311271738622308, 0.5512930377254336, -1.3879473168308594, 0.5003691432369377, 0.5405248206747302, 1.9868118247627522]}, {"output_weights": [-1.1034995846806062, -0.6284921496308158, 0.06328746860059115, -0.6693374659996889, -2.015918814760294, 0.37394768296753583, -0.6093520769092045, -0.3451770146288215, -0.9034610365872278, -0.7987431040986669, -0.15145452254859593, -1.1220550270220029, 1.2446279356706604, 0.6795374473501089, 1.379501723183889, 1.6044859306422246, 0.567174217331098, 0.7509698408637548, -0.2849394608292752, -0.6004817889462882, -0.46461629587052494, -0.21659108824676068, 0.11655850531668463, 1.415224908515851, 0.19905011848632934, 2.223657439840498, -1.0410273670845696, -0.5347206844278094, 1.1007312470912087, -0.29439494236262315]}, {"output_weights": [-0.44592787782338006, 0.8410375516102769, 0.06891771324130234, -1.1444245434376241, -1.7623688743603365, -0.027768646349293526, -0.4401525499346185, -0.20925477506078224, -0.1425864057399487, 1.34231451324957, -0.2740979196628124, -0.9766439644221888, -1.5354480239122061, 1.036397583817154, 1.1335702688044682, -0.8782575152095298, -0.9217052286734809, 1.5577636205754415, 0.5901803389641925, 1.3633977501731176, 1.2519387987303205, -1.1141343556294885, -0.9187148697193891, -0.2940933167316868, 0.6402835046204699, 0.4237204365478192, -0.7520210139544535, 0.9986001572936513, -0.9906693076717328, -1.2187327063822602]}, {"output_weights": [-0.5177004050062995, 0.500978297999536, 0.7677920039029007, -0.2707503947171084, -0.8865248599196149, 1.333298670592947, -1.7153923417970889, 0.19999913404186054, -0.7631734708800527, 0.9383681540793926, -1.5228512803461858, 1.2909885019423863, -0.759085256350615, -1.5012294921925842, -1.4595024024917598, 0.47889245447687356, -0.34405102367251095, -0.3530331907968277, 0.6403162165224147, -0.473787794892217, -0.0033662065883520755, -0.7981088283207957, -1.2324715181910184, -0.4895105359350569, 0.5964634375282452, -0.4705600184718706, 0.5740354460611213, -0.4106729600470107, 0.7334975041516719, -1.2638619200077856]}, {"output_weights": [1.874330704755059, 2.645951890125722, 0.6456150070400818, -0.20225799556518892, 0.8927044218458626, -0.4064039999444188, 0.24540366602153416, 1.2960890607422724, -0.8160918556839727, 1.1586294731077504, 1.0722126462538182, -0.4854862100048038, 1.0656064688085276, 0.6580650689891773, 0.7181885799440713, -0.07626781991233095, 0.4186603326925189, 0.2717179047574511, -1.1517709711062374, -1.2445806021454036, -0.19850762080780288, 0.7495520646221524, 0.9468260486835196, -0.1251972930687923, -1.2402411090571075, 0.9204267568653932, -0.43094580906967284, 0.14981748570340572, 0.16968320120752686, 0.810359159146067]}, {"output_weights": [-0.9154081452340961, 0.21774703780672536, -0.8505456862157261, -1.276334190804914, -0.05920004103428196, 1.6327529054267165, 0.4521901006378982, 0.7139230968884609, -1.1024579722494496, 1.1288010591960314, -1.653150334199964, 0.6417560236137522, -0.07840515603136941, -0.671357855766915, 0.5088560045167262, -0.25154592067895953, 0.011754854532868765, 0.9310328210920482, -0.5947892422424397, 2.0343534808286337, -1.7178516480101818, 1.6851722080710776, 0.24051583472182, 0.13062029936865244, -0.28632381617612584, -1.2410841244629354, 0.7110658307726562, 0.4815602393670968, 0.4374439665573453, 0.3468173688904696]}, {"output_weights": [-0.4245117702422249, 0.6385556007100703, -0.6609637298795454, -0.551198157891065, 1.200734184871753, 0.08977593922257085, 2.0019319605580126, 2.2606410875406326, -0.9893530179867683, -0.4872443403413072, 0.7348970802400306, 1.2587437143813072, -1.072439450534602, -0.17209497624826892, 0.20326193846321233, -0.2169675614600014, -0.7579388334046003, 0.40804351369480374, 0.30499818184670224, 0.9885750860941505, 0.1963106377927919, 0.10428201520790464, 0.7187548340583082, -1.261400324698822, 0.7698348844776591, 0.6504094407495848, -0.3635177721840634, 1.0084653493390614, -0.8932837399420727, -1.2358325041400502]}, {"output_weights": [0.07726851403787179, -1.5117505315112931, -0.006194215458402711, 0.827870933228302, 0.9674352377091747, 2.472510545351368, -0.04813011747325983, 0.15489517255230384, -2.2336456125121447, 0.4953007008990619, 1.6709053679155468, 1.3150956436807637, 1.6117302287854667, -0.22664959208689958, 0.6043981001999985, -0.23754997314542456, 1.2438230812585513, 1.7452533453135841, -1.1487863169167056, 0.10290236270809663, -0.8700271772159026, -1.234852621729178, -0.8563601607559782, -1.4762989096543646, 1.2572472144049178, -1.1980585409765938, -0.14412446545661708, -0.5710697729435418, -0.015364735291716548, 0.6668161884502424]}, {"output_weights": [0.09543994808938568, 0.8601255221619682, 1.098026771848285, -0.433455741443397, -1.2278538451171466, -1.9961055745573513, -0.11493463699834426, 2.067880707758007, -1.573721136188869, 0.4617587363152032, -0.4308730850601268, -0.3264682699166032, -0.01173462162297098, -1.5175583006730764, -0.47664820343668873, 0.5620126378060957, 0.783188685400253, -0.7821136418021646, -0.5077588025467756, 1.036818160561642, -0.5317370461272088, 0.9508900568726104, 1.0571952137605123, 1.5879527565248184, 0.6962146253845939, -0.09656122402755506, 0.7786185504279461, 0.162594500814224, -1.2349306608109965, -0.10010356181642881]}, {"output_weights": [-0.2927811943441662, -0.9371898964098323, 0.6281108390015072, -0.6681753108684184, 0.7178503182192133, 0.9084338791816154, -1.6562568118424612, 1.8886523831933855, 1.0997442049476045, -0.19911054020175487, -0.7408789115559439, 0.3372013114556157, 0.36690076053572585, 0.14972242356838533, -0.8764378402962759, -0.016270434257124773, -1.6299063335595154, 0.24976730175922945, 0.43641038044767394, 1.703909472836648, -0.47431337943139185, 0.5318250319148067, -0.20786603560518443, -1.4649321222389797, -2.13745611393336, -0.015015059304180844, -2.115210492839, -0.09485253115253127, -0.33012066489608205, 2.2081303335910927]}, {"output_weights": [1.5858983809580394, -0.36608758249732226, 0.5055482283529542, 0.00544128844705553, 0.4765585285604624, 1.5860870439974148, 0.10654383112117255, -0.9486180018217257, 0.672330084676833, 1.9473041623568623, 0.040559690701414616, 0.7180198885469566, 1.2578932957295488, 1.5270969044219525, 2.411837604885688, 2.7958195660817573, 0.505299625740421, -0.642518864457797, 0.2339235140146093, 1.61832463231065, 0.4110491130724023, 0.6638121121815332, 0.9804228859496327, 1.8417746058927262, 0.3526303652939558, 0.5335202176116992, -0.6725500580251859, 0.707747088625365, 1.8959121266563446, -1.1577378697662921]}, {"output_weights": [0.10263015563459531, 0.12791345658221978, -0.5432266779309688, -0.7128859083690214, 2.957342129389073, -0.3533579870210827, -0.2607304228689439, 0.20407710690459765, 0.6941718059913929, 0.6588466107845107, 0.9126235175611334, -1.170805352195793, 0.2950966384911567, 1.6104956166174496, 0.3341144270083614, 1.701104063475829, 0.37681536323296877, -0.31244657146266064, 0.3537403470467461, 0.979937246793598, -0.17250245729736985, 0.37241515596887037, 2.11097698395101, -0.8163418087088447, -0.2927967872314321, 1.4151895184638128, 0.19153879824458964, 2.0789533112011136, 1.1177320276669318, 0.19461462366288493]}, {"output_weights": [-0.59796759108042, -0.42561210756553347, -0.8863415132265379, 0.5436568288342176, -0.21479486559529376, 1.7138892118816098, -1.183187123392871, 1.337437417158873, -0.7396762452025095, -0.56631909533664, 0.010687209767359337, 1.1055868325022802, 1.1753275218869663, 1.2072383175103554, -0.06538948772465611, -0.21357314031768126, 1.3327403945062344, -0.17618000640249382, 0.2238014191749392, -0.21201813178449366, 0.43679223041250426, 1.3125909873523398, 0.5201199448361479, -0.5263703589663012, -0.736752971157613, -0.28094680352108764, -1.1773430957672688, -1.5966637043543286, 0.6748672147140212, 0.8631976160483247]}, {"output_weights": [-0.4551593795510766, 0.3498103807487226, 0.2060437356736207, 0.8928739988654136, -0.08425944861494586, 1.4746251783595212, -1.7214530748936032, -0.7409239591571861, 0.5626994578041349, -1.5453545281264545, -0.2227678950812702, -0.0224004031422622, 1.300582343423622, 0.8590055829270654, -2.1932548817573863, -1.202804660589865, -1.4264525934392909, 1.4211008921066055, -0.27158755974430693, -0.026391465548244862, -0.36120303414556126, -0.4541087371628072, 0.16695502878344604, 0.08188076582995696, 0.8943493487084181, 0.4775639915988124, -1.1849220464936294, 0.013444887009026713, 0.14897798326687886, 0.2667274811837553]}, {"output_weights": [-0.2355040752012184, -0.595506211671244, 0.6040993777415351, -0.4732818969902531, 0.4627245252574077, 1.1623021408619472, 1.0363405500472274, 0.3134100284322114, -0.31806927363062426, -1.6238073378530902, -0.10884707825226364, 1.1463803680501647, 0.3736845331060518, -0.9674330604494396, -0.0002765464811012876, 0.31161260260253426, -0.8791140244729818, 1.5920371073301036, -0.9899994282986105, 0.9949714229067662, -1.1822011096930656, -1.3267873275624353, -0.6428687409187004, -0.07151383244050533, 0.3607793061285603, -0.805890080287087, -0.28435983572373413, -0.5799591159521034, -0.2648956625247062, 0.8262521194558432]}, {"output_weights": [-1.6583045864348964, -2.0020994424257617, 0.40092135036276993, -0.38499307022778023, -0.7484357352380901, 0.6510769450058554, 0.6293723222177667, -0.3407336502564841, -0.5229320467100003, 0.08137726245417964, -1.3251225581868467, 0.25674007095288914, 0.680085105345681, -0.062091062328949335, 0.1224573902028258, 0.634255052987608, -1.635539805728742, 0.11926062456025342, 2.2845652647515196, 0.933469311914091, -0.1559404950430568, -1.1991312520471726, 0.23821189042628255, 1.2438724748589416, 1.4813150595041693, -0.13990635169201115, -1.0923117166243201, -0.6623744668122648, 1.3249626000135086, -0.8985051109274911]}, {"output_weights": [0.48116762018881826, 0.29176804540027734, -0.1511032189689237, -0.16811702296640563, -1.5872885339587353, -0.9096300063239228, -0.8382548180001945, 0.7807741028556192, 1.1427031515226598, 0.5484491187768679, 0.5455276029542547, 0.4011082834817446, 0.015911912945520523, -1.8046834592769758, -1.3303234066052265, 0.2796727756579994, -0.9793229120279533, -0.07391581776122504, -0.04729226953994461, 0.8127559573347769, 1.3514643296703572, -2.3387015469423775, -0.5342893879711567, -1.784634966107666, -0.011809565842616339, 1.3429449519531738, -0.28253501279602083, 0.48263173917012, -0.9353913672978967, 0.03816130065774762]}, {"output_weights": [0.9243728211222442, 1.035345181324069, -1.3676328700113403, -1.3793936238335316, -0.2359586919012227, 0.13509524269954343, 1.1034206810347424, -0.4102107645575534, -0.7675709161959395, 0.365025967464569, -0.1634258945004611, -1.3601468846578542, 1.9554734640505607, 0.6604537542172323, -0.8567952241202986, 0.7849156887545354, -0.5151791722602864, 0.27097809489019875, 0.7435232505980216, -1.8124771464379412, 0.5264760894913485, -0.13378238205835055, -1.3944198093860247, 0.2800370712866411, 0.3368991815105473, -1.3786200869666054, 0.49194395520415046, 1.3166468415709205, 2.0807358122406527, -0.065512651995287]}, {"output_weights": [0.9692735952206177, 0.5602949208155293, -0.5209787898978233, -0.8309581483314664, -0.3368156676947779, -1.5850051452065144, 1.9284418319367267, 0.11316708236864023, -0.5924165938970619, 1.2836183630683624, -0.11244924695473088, -0.08542703711893815, 0.539535247315954, 1.4414846823319167, -1.7301871128563908, 1.5665836837353118, 1.0488382561507394, -1.59183570536577, -0.3970462058027419, -0.7393015186154067, -0.6198563251839769, -1.3761431685344954, 1.0606733714389134, 1.37877803281361, -0.952634475762554, 0.23734231341106252, 0.37838008519601285, -0.07298685156380248, -0.5824134743760854, -0.23044717383273064]}, {"output_weights": [-0.1780936174782835, -0.7239955540579692, -0.17252727064879986, 0.5232560316883482, -0.03026624433402831, 1.2131331912509788, -0.7305867144249575, -1.3144512525776164, -0.7024673988325497, 0.663291483977145, 0.49481065928099066, 2.6590222204474174, -0.181476922111269, -1.1677060546802656, -0.2133680357226097, 0.4294316109095319, 0.9938283950659383, -0.3178114500443417, -0.7009321695820031, -0.6425242075722067, 0.9806419112743773, -0.6702207955517541, -0.9783638597926476, 0.07142078665981749, -0.6580376535630216, -2.0195149613651715, 0.5108815610588099, -0.7390377496618494, 2.4205561934176614, -0.8632484060527073]}, {"output_weights": [-1.0162217193965593, -0.5398884258157968, -0.44737002082487987, -0.11681364143003645, -0.35652289306887397, 1.254859783465134, 0.6295703437313442, -0.18068580884585458, -0.5085653293855652, -0.38440432850788975, 1.2006258819500355, 1.0466454262820097, -0.3482463469921753, 0.9082688668095622, -0.9242719472813791, -0.3497241465679855, -0.860860026001397, -0.21947443510032405, -0.44126792802884146, -2.1388794325078275, -0.2763582965250582, 1.6177014966140828, 0.22218481252140274, -0.030940452667071693, 0.15143759334434928, -1.0394262490416633, -2.4987295050918963, -2.106999393700685, 0.6035201089587748, -0.021927173687158182]}, {"output_weights": [1.7618624367558677, -0.5719863179280356, -0.14034970504836106, 0.541090606366248, 1.080622149225412, 1.1884305439044476, 0.0722759320583204, -1.6364174056839411, -2.29224589600438, 0.8904072568347559, 0.6953487152959222, -0.6982086009762993, 0.898044237528386, 0.8095140933185206, -1.467467503419722, 0.7136151233577981, 0.05325138264645296, 1.180857482805945, 0.35192863941315117, 0.38372441550328884, -0.7370951100570634, -0.3405849592983874, 1.413045313937576, 2.872430312592796, 1.782462164226638, 2.2828571652660146, 1.1106249980640028, 1.355695269983465, -0.1363071930923255, -0.31205083691448976]}, {"output_weights": [0.1787375509753669, -0.016363831428644116, 1.0431143899280821, -0.17335257095819515, -0.3417004984122557, 0.420690692193376, 0.4269024056675456, 0.5000581448806279, -0.3114154375900198, 0.8720685958267926, 0.7811401778936904, 0.9723709789927406, -1.7344276013966362, -0.8223032245354233, -0.930528677554219, -2.6321600139135666, 0.19358328769815406, -0.37243155888341173, 0.40689919744327435, 0.39437889476087695, -0.27831538797827043, -1.6124506182143, 0.19263402990825115, 0.276355647345289, 0.24098501872020342, -1.4686308595669042, -2.5800075873565, 0.16117262151345904, -0.6322924583615125, -1.1492935656836638]}, {"output_weights": [-0.9037753223698952, 1.328000302197644, 2.150493657349016, 1.2433602442967315, -0.909386436305521, 0.8101389087898052, -0.012208469440784957, -0.38216829725110285, -1.1175754475457198, -0.5112497669259388, 0.6846623477430146, 2.1611595952176192, 1.0804675728105508, 0.780959869899607, 0.5430111561177777, -0.5915101726198582, -2.1464596700148753, 0.07500432302047484, 0.3423285338794368, -0.5258897350752023, -0.29268979466123946, 0.4250189731470949, 1.2206778310624216,