{"template": [784, 30, 10], "iterations": 4500085, "batches": 450008, "learning speed": 0.03, "batch size": 10, "data": [{"layer_type": 1, "layer_data": [{"output_weights": [-0.8615627242620387, -0.8514448908304524, 0.5663687050066342, 1.8072895851259199, 1.009653674500888, -0.016767495874418774, 1.2001026201807325, 1.012252265357517, -0.056691049855444195, 1.5049181728479615, -1.3523205398913751, -0.39845145322843656, 1.6290465536771883, -0.842369070398383, -0.1948563710602344, -0.3434484158776776, 0.9457708131942142, -0.39792650361945253, -0.36949961013473526, 2.4247413676650504, -0.06796937890424602, 1.6942622857887712, -0.6639591588569034, 0.7167680875366623, -0.9564377953824365, 0.03227926141111484, -0.722630914916768, -1.5577818134084975, -1.3070059713918392, 0.40518034918413187]}, {"output_weights": [0.2950983634398674, 0.8050735608094813, -0.06762409309431422, -1.10087289029095, 0.5446720736400151, 0.5186423210277783, -0.5373094427483236, 1.7514152596425698, 0.14881738848567322, 0.10460963353767119, -0.3643896557141231, 1.5640694153324548, -0.22781232694194287, 0.03717456181774022, -1.8254101560685823, 1.1810708477712766, -1.6403549524786964, 0.20731076238698895, 0.15850027055600158, -0.8550133907565431, 0.8186133409738766, -0.1482453480642344, -0.5397418899362033, -1.0472363439666297, -1.2008718856852814, 0.26680512572241655, -0.4381212769368013, -0.925534803437225, -1.0471442970525424, 1.561845467291369]}, {"output_weights": [-0.29350766541541323, -0.16886683835249974, 0.7771669068603743, -0.5925706997661987, 0.03552328688338345, -0.10111919692737777, 0.5746728069633898, 0.12884594949983885, 0.7868439089593301, 1.1276687921939355, -1.1587534396656853, -0.2767904413784347, 0.7866240310880347, 1.000138240733239, 0.12901997698037768, -0.9717808675775417, -0.41109533215795063, -0.7735691742990896, -1.316291513604561, 0.7228202500048407, 0.6548288687580585, -0.16856310877298109, 2.0073144593844385, -0.38613719776732114, 1.5358041428536586, -1.3010212399785364, -0.3521632076043743, 0.539473317273148, -0.46041382942188164, -0.014947979041623465]}, {"output_weights": [-0.17470197559633613, -0.8993711527370504, 0.645680859660806, -1.77300352923591, -0.2848705351096892, -0.19623264966083925, 0.40408283829865854, -0.7929184046709137, -1.0305787334850167, -0.08414120911428143, 1.1418044745258649, -1.0231449355742273, 0.5285747210060093, -0.1474025105351465, -0.5525121626663984, -0.19628730636504219, 1.2229378693798496, -0.848860213537368, 0.5965416505940511, -0.4895942795163364, -2.635576756703796, -1.6920277832626658, -1.5180047817262365, -0.5046926410913829, 3.2036826118363004, 0.832593172251569, -1.1422061002187407, 1.0022147161524064, -1.0592458962019515, 0.19850975131982268]}, {"output_weights": [1.609287161247839, -1.9052974571144128, 0.2742641558190204, 0.7957887447284202, -2.0007559423684707, 0.36371985251410927, -0.1625818595950906, -0.9156699223546817, -0.6851315936464945, -0.34651720697292077, 1.908726240941855, -1.246917371167772, -2.0366776665744126, -0.4905070912761371, -0.6700465663086168, 0.6707217984908619, 0.6939830335459631, -0.010902405110955117, 0.5621938295913878, -0.41384275352260197, 0.19489979823500536, 0.38675958466075067, -0.798330743472418, -0.13507896308266465, -1.1108448067967036, 0.9398234741243962, -0.6906493528407449, 0.9023842233957343, 0.3203822736811113, -0.1016164240881099]}, {"output_weights": [0.18250579160392885, 1.0617668914842937, 1.999492255262327, -0.3256351872608955, 0.8951710903454974, -2.2272977112594847, -1.8770245547966118, -1.267573796185995, -0.9926836121303948, 0.6566914195367698, 2.3594349171396716, -0.5288640923806428, 0.8843217502783165, -2.3704593223678634, -1.091640243212603, -0.5172332264301469, 0.444450323344631, -0.8417957518778031, -0.008526230404775959, -0.05132028960363397, 1.3569993918856775, 2.1238789202096675, -0.09420422368222353, 1.8874925711091588, 0.10606608147165152, -0.1784498688837014, -0.5275119824926072, -0.7851095279790673, -0.5738021435068819, -0.47197101270165415]}, {"output_weights": [0.5841803184187117, -1.2483289148132517, -0.02142772291791548, 0.563729214876067, -0.45308473482851014, -0.44450711425757733, -1.8660166602371517, -0.30660673319087156, 1.9507494545717983, 0.9880839061847931, -1.0260621169596569, -0.8467708929383629, -0.2120118771591385, 2.047003138910266, 1.150700941316366, -0.1038151750165823, 0.15511585029994293, -0.14107080859841678, -0.2570463451133063, 0.3415006024663605, 0.8699752061246082, 0.4421982313455359, 1.2244710418796716, -0.7761733608622057, 0.3829715722067164, -1.6567392145249964, -1.5247033618761157, 0.21574244640993515, 0.06645424321323355, -0.4795619871608123]}, {"output_weights": [0.8412618147099545, 0.3192192168371853, -0.07290349325584873, 2.6098625455085145, -0.7758011709435401, 0.19799478644318128, 0.012442283644990882, 3.417956232513394, -0.3477138282488491, 0.7119399781026212, -0.5824133573908067, 1.8830456257857544, -1.6490857783366, -0.028305875642617533, 1.0044559998375306, -0.13257825475063695, 1.45295689584851, 0.21859485141984814, -0.5836409763620778, -2.850565929162259, -1.2607317023073836, -0.7174717446733546, -0.890899242681168, 0.427126889326056, 0.28506910528397056, 2.8169941372634706, 0.5036627172465519, -0.05925963826244978, 0.4768678794984064, 0.49900909302023577]}, {"output_weights": [0.07582966769126008, -0.08681159163186324, 0.7009525705796932, 0.5422527071125061, 0.2638151272695589, -1.5620597911332141, -0.6416514609770959, 0.6742612074106599, -0.33178450447401375, 0.181313082421449, 1.2871126348680366, -1.9703487525783965, 0.14650277206723758, 0.06180557526393663, -0.5930812382554608, 0.7959448629453458, -1.7404746034801666, -0.2302792704003221, -0.40462606088004077, 0.9383531652150994, -1.8859198067569984, 0.5186179007305171, -0.008288585940936214, -1.7264997341401012, -0.32650046067737415, -2.6809024267201056, 0.4527758252031285, 0.0874957760012706, 2.3027848409363236, 0.06737604415321966]}, {"output_weights": [-0.10364027545378587, 0.4359654016792078, 0.0731102691880497, -1.701955579310284, -0.11822016370076212, 0.5571866938834087, -1.566327133449315, 0.18977940049552275, 0.9328294112031852, -0.23664551208483742, 1.2084375519153925, -1.0506789411033224, -0.3630666678721604, -0.42014144889554134, -0.016371724685238585, -0.6294104529927949, 1.2809853202438581, 0.15322385736692068, 1.7385427038809937, -0.8470015531208408, -1.029082516758921, 1.3684377038675497, 0.44390970487623965, -1.0337462265348687, 0.011522599818091698, -1.5465709522021145, 0.9299574297579235, -0.23201011607690886, -0.3271673403409104, -0.3109456962458161]}, {"output_weights": [1.0020337367933159, -0.3837236804647814, 0.5446947627453641, 1.4131723027294196, 1.6948164623541782, 0.07935665443199068, 1.2068160706614346, -0.6505831246948082, -0.6568246863486228, 0.9181875158039308, 0.06527213953193538, -1.327191004059897, -0.46674540521698377, -0.8595964969432395, 0.43937095270193965, -0.8537104082296563, 0.06788847148985369, 0.5963623543287997, 0.8437391458112772, 0.5497562517771855, -0.09059531958159887, 2.202890734678906, 1.0622704012385473, -0.08199633975671632, -1.3008472414104766, 0.5914569424379356, -1.105253872634046, -1.044534245301901, -0.020911800223060804, -1.2239158878188234]}, {"output_weights": [1.015401345789965, -1.045039539820987, 0.1976246135960602, -0.1945623144372108, 0.23227755698548552, 0.9277510431837162, 0.24312461939391014, 1.033154611283145, -0.7147085832649783, 1.0448778861611197, -0.0486938063045259, 0.1740714135408676, -0.30894852409258966, -0.019011010786423733, 0.4877126784085914, 1.54834633131551, 1.2011322054325921, 0.809696314770982, -0.38833861744746806, -0.30803905798146425, 1.783735500135016, -1.2537702707184921, -0.8386804173799788, -1.341220201075874, 1.7028306288478852, 1.7813237341125654, -0.6867803156329139, 0.33994286112769706, -1.118465679544706, 0.4338461440755442]}, {"output_weights": [0.1640179689454839, -1.4890933100423807, -0.13871691297716168, 0.33454282136527286, 0.07376829068232325, 1.488867260022665, -0.2604739818516768, -1.2792988761544457, 0.5319265288931742, -0.08174066559406873, -0.17179443877710637, 0.3631925129632905, -0.7946917349658038, -1.538244873884579, 0.40755651667765574, -0.2987127455085627, 0.5689851290661389, -3.1847650984036657, -0.09193124350779881, -1.0294394023763267, 1.4178344717114797, -0.8827989617357261, -0.4968966951811468, -0.6395283978338517, 1.214900671286701, 0.2963730021303095, -0.5538684739786345, 0.22400683308814218, 1.4546683900961348, 1.1440828834583125]}, {"output_weights": [0.2797017565913785, -2.4071286309857447, 0.034036527240854444, -0.5909649885095447, 1.6993060557993913, 0.6808942263935892, -0.6132838706162754, 0.3723753577591626, 1.252879335255827, 1.4008713183295007, -0.37415174646577337, 1.136052414974749, -0.17001473602786862, 0.48177602944920866, -0.026191609787178365, 0.28298102370607936, -0.21614499426066966, 0.8186807287381633, 0.46207570164133593, 0.31731667067953473, -0.9645287673338574, -0.2173654876977961, -1.475758162647768, 0.16626139461150463, -1.5878797262958004, 0.019262934789085615, -0.29862003041062324, 0.12948369742355684, -0.21802636940677247, 0.6339721079521887]}, {"output_weights": [0.5591260517691239, -0.22301200215578218, -0.15985566682964375, 1.2406278334227188, 1.8688629464221556, -1.2592150347608402, -1.5374679846439232, -1.5976602554291361, 0.16203614617825787, 1.5362812987643857, -0.7156313247459388, -0.10614351523024158, -0.15499846592613822, -1.0320451067961984, 0.09309337538455145, 0.5794271305222132, 1.0998255731773388, 0.17654679458547157, 1.2012082718917512, 1.9552167363395352, -0.1316805393316244, -0.5802366249958582, 0.4791549046223501, -0.29742424247803856, -0.30406426778935053, -2.8086501925313043, 0.634341793043419, -0.5220428204110122, 0.3039383737397774, -2.208029190102266]}, {"output_weights": [-0.2684686109808232, -0.04360299281626904, 0.700587589810098, 0.8748542817318653, -0.412555090950802, 1.832747906756834, -0.12297554980728857, -0.593228087747453, 0.20923873115733616, 1.3998723228879697, 0.0003846324020778973, -0.12634500150816438, -0.9120917162956984, -0.21657040302641423, -0.6722575866105508, 0.46878201965498983, -0.43319605329262356, -0.6601769900645083, -0.05614834909035142, -0.33586004257175256, -0.4458949829477609, -1.0016976242836693, -1.1307806820704513, 0.9978660031647272, -0.37365928027897416, 1.5269330054139674, -0.9775954588094127, -0.06819376715603939, 1.669046961340383, -0.31757856731146694]}, {"output_weights": [0.3235792234258769, 0.85317146713059, -0.03947850850251442, -1.614889123191974, -0.6528934044948163, 0.8235910598861741, 0.061253941291811845, -0.4120359147562604, 0.40307410130247756, -1.4949542982039048, 0.4351821186246543, 0.2605435732511295, -1.3077416371283186, 0.1947824777530632, -0.32298226177723516, -0.07678098830038053, -0.36723253645133036, -0.15537700088918752, -1.0909989636824822, 0.6098973294322906, 0.41407954448931367, -1.3308892775162686, 0.5606931081049982, 0.50116240076453, 0.23680750493635852, 2.0132111098566705, 1.1791560149149833, -1.364568577167726, -0.3563111585730532, 0.19993450377672028]}, {"output_weights": [0.6149363720596955, -0.11437274360841365, -0.04232456161729281, -1.8220069162784829, 1.5490655442907035, -0.5243364212695166, -0.03549628549871172, -0.4151531639620689, 0.09284055588799117, -0.10928910134983247, -1.3468726580648485, 1.8609089728188155, -0.22678261283664067, -1.017266463053461, -3.384189650712375, 1.0496376600433988, -0.22897553078634605, 0.4546429678249444, -0.3156260219950442, 2.480862142113185, 1.099601040271711, 0.02830715260223634, 0.19751715319521831, 0.08780764141451405, -1.382366314039304, 0.051521001230550235, -0.9062408293924901, -0.4452592100455726, -1.9640651587532805, 1.9453237473429619]}, {"output_weights": [-1.641737480117542, -1.3390477811122707, -0.9473167886369721, -1.5092731256522702, -1.327677293970076, -0.79528483780752, -0.035220894493761756, -0.808844544620777, -0.26918955980648707, -0.8231006060575063, 0.63200878392885, -0.6494026737271315, -0.41540520752349747, 1.1023500424872497, -0.8998067275999129, 1.1255504096394509, -0.695600514679493, 0.30169335361428323, -0.052675741883824116, 1.1682963616275934, 0.23405247095012854, 0.011053350075805633, 0.39545856375969957, 1.3847644375877775, 1.0146111763917476, -0.5940446949070927, -0.9515948798823455, 0.5370302202947578, -0.3159459479948197, 0.5161258543065357]}, {"output_weights": [0.35567177716526854, 0.3188630265685207, 0.5075885787964061, 1.3430020952197679, 0.7244369998978231, -0.26521758036437393, -0.19083215206995313, -1.0439127393980168, -2.1170626176677594, 0.8635797050359021, 0.27159587628418974, 0.7820793685087887, 1.3493283746173317, 1.0392603825984776, -0.3424699580801896, -0.7672981875239023, 1.0223061805752272, -0.5986936334964473, 1.0488232383050566, 1.093756793088648, -0.6313677674717361, 2.754246852729524, 0.31010658067868263, 1.1324243590138545, 0.025155968301213128, 0.010991365678312697, 0.055311253982172424, -1.067853181731904, -0.43867345115396483, -0.45989037978230535]}, {"output_weights": [-0.6389117937475864, -1.1112643202934456, 1.175082049087268, -0.14811995866926828, -0.2383288085820593, -1.5924201847588715, -0.4669753762050786, -0.38569354672051365, -0.5900482335640184, -0.48832967496136676, -0.4776393289082384, 1.1269348006425384, -0.8629275719434658, -0.47721828115694304, 0.5508691066339857, -1.3893621572010364, 1.7305100705004277, -0.9420789407690467, -1.4768396243659676, -0.32648489453755347, -1.7529697960195836, 0.14798826702463738, -0.32133170127298705, 0.22094047198711325, -0.722303112118769, 0.8388657574616257, 1.5252955275437605, 0.5384734138471727, -1.7113508223297247, -0.5991302288079653]}, {"output_weights": [0.7469449893747595, 0.20316141169822097, -1.2925448365520622, -1.192883851121304, -1.3823502049126875, 0.625477591814059, -0.19483832556996403, 0.6800058163861172, 1.389740972328994, -1.9328582918668622, -0.6896699933550654, 0.2385834501487924, 0.1484132387423665, 0.020799506831091275, 1.6741965578394884, -0.6715860362086308, -0.13651199995163066, -0.052938965594744314, -1.9204024398451833, 0.26323433855309725, -1.609873026497626, 0.04957185986263536, -1.2910108671698115, -0.3050705748738747, 0.0034160478290613523, 1.1429126144397754, -0.15899717494950105, -0.21453772415162206, 1.5955287813289178, -1.1032960577062796]}, {"output_weights": [0.18413686838849197, 0.6495587070750758, 0.8665738726587614, 0.46769361772444995, 0.1756088361179639, -0.5872078708840044, 1.1261342384168453, 0.7609702809003863, -0.49472147922789933, -2.4817618826567593, 0.02577293286466155, -0.9769368348414921, 0.48301122951551845, 0.19587009968711205, 0.38541410993118386, 0.26485918059580627, -0.33146568421982736, -1.9368983955478027, 1.90673385577812, -0.15145931726869133, 0.9194239729426943, -0.6090052946496657, 0.1642897780048537, 0.3740452186330488, -1.4158267443186972, 1.065182463357309, -0.5620070901655612, 0.4829861764417078, -0.36693309136542823, -0.9142852280943642]}, {"output_weights": [-0.5063797659059653, -1.5751775893764892, -0.5673750244579765, -1.0802155447018558, -0.7266473013779714, 0.45911665494867293, -0.2743036887955529, 0.3191557536625944, 0.4838714662454096, -0.8331436659572402, 0.28274674580379094, -0.20443115955697377, -1.189969866200062, 1.834218564338996, 0.817563776454134, -2.194630995602297, -1.2678415813321537, 1.2301124692419558, 1.16677053498212, 1.9468920418507447, 1.934691792424687, 1.4544955518396436, -0.5974428471162837, -0.7126323171438949, 0.004694785475707887, 0.7441373750222996, -0.2683970038996771, -0.6607610600306083, -1.602604057275657, 2.1303359652301834]}, {"output_weights": [1.0728438630758872, -1.244905383056595, -1.273329551792676, 0.5087308400837348, -1.570716305641607, -1.4229994997424404, 0.9682055605673271, -1.0454353697339127, 0.9438929794096409, -0.5085042058477696, 1.175271588573218, -1.2999982165329513, -0.6266569337913395, -0.9939726784915461, 1.4051070788233402, -0.18987598471293782, 0.4576965812716395, -1.7823331666409061, -0.6344001114864308, 0.6942918279477472, 1.0156113943100733, 0.007653135178121107, -0.6398948330684686, -1.6554559526452206, 1.3914285156511736, 1.0750414869698581, -0.8576080518659253, -0.5712704714456635, -1.1772190637878097, -0.7281922964261154]}, {"output_weights": [-0.13086955290994845, 0.8734365318035586, -0.7120555940292392, 1.2764674472602862, 0.9928041109206727, -0.3886155367900127, 0.914888114196419, 1.5115088683129643, 0.40947948994415784, -0.13373507197964726, -0.5697666292623548, 1.2119365610084014, 0.25258440120601044, 0.5533296152681918, -1.2579193578932442, 0.012624752761016562, 0.2260894496194539, 1.0585697974395925, 0.24049711422721104, 0.9372012016061384, 0.2612021197795927, -0.11703300386138787, -0.568373211366076, 0.9110277221474287, 0.28729458489712917, -0.22988337760888952, 0.8139519010875901, -2.099233659752874, 1.069258820238406, 0.19800860407006438]}, {"output_weights": [0.2848536903750325, -0.8186874263783541, 1.228066363264882, 0.23677047368202367, 1.3009224242065154, -0.7132631597159884, 0.7729749705533165, -1.014410793572324, 0.30229240993727785, -0.6546644581304618, -0.2151048482412244, -0.14522961164098658, 1.2290433595725483, 1.4724915041888467, -0.547831907729507, 1.8371226879257045, 1.1898170208678986, -0.1364626124210176, -0.6861476670240241, 0.28957788742282425, -0.2389997268029626, 0.7696089651765539, 0.5961586623534219, 0.7476647758609158, -0.5700641820342052, -1.4472319936441937, -0.8362696010893994, -0.914386945891309, 0.904614697762772, -1.28854387138859]}, {"output_weights": [-0.9016875934778209, -0.5312650867366773, 0.13952943363401812, 0.6590771793283249, 0.6704669275991334, 0.34280171198708276, 1.3939364412273234, -1.7848532903180252, -0.9751629582497549, -2.0645133904123902, -1.3893296304520875, 0.044975963684048555, 1.7970234490922519, 1.5209812521572785, -0.056693609561862694, -0.6479212059585364, 1.254834155124735, 0.56428976196964, 1.1573281556318167, -0.07951069369788798, 1.7470258227566164, 1.2870717892087333, 3.0592075786801387, 0.18863467632349187, 0.5490571096577281, 0.7630072099259765, 0.4666663127774204, 0.5450044580437565, -2.3991566043985153, -1.7441422401736226]}, {"output_weights": [-0.9036861732091996, -1.5852420685361144, -0.14900819431391518, 2.2591139412788936, 0.5294016638885419, -0.3492898174236624, -0.31974537539356246, 0.35739507191434944, 0.4143760640174601, 0.43557501656751557, -0.08319581695121796, -0.6042569502297327, 1.2500219606766791, -0.18743611212738043, 0.36395088064744785, 0.03606153273609778, -0.2512727717100605, -0.18355982848546204, -0.24214673232622289, 0.7168990755336229, 0.26545904477812277, 0.5723624430864848, 1.2784047522475848, 0.7123995736640935, -0.7548669782063119, -1.1313280076834162, 1.315350685149439, 0.803832115635594, 0.37904762400486625, 2.2656508602126197]}, {"output_weights": [-0.8469696796692426, -0.04397769125067841, -0.7607687879080204, 1.4709604842491097, 0.5411932788595184, 0.18936834671335415, 0.02041725363009896, -1.1029425065547402, -0.3165701167167882, 0.08410518732470504, -1.0626338284791805, -0.4298385820187509, -1.7591729560844678, -1.9161065665937747, -1.2496596995321998, -0.040881132548040086, 0.49253403804640367, 1.3194341108305006, 1.1142404657969993, 0.4728032388564999, -1.557705204625687, 1.3613615493199989, 1.4760865492297452, -0.3369983169491191, -0.7630181434277115, 1.428760431955439, 1.3108295146515923, 0.03769496466225168, -0.26040914554482675, -2.48963347489192]}, {"output_weights": [-1.3219113177753175, -0.16905293220322562, 1.2945631940531621, -1.6142632584564571, -1.1959463461318713, -1.5296291608253427, -0.8460371354343186, -0.22613139542631114, -0.5948547761243644, -0.04482801333605744, -1.2209048089939696, -0.43077322874804325, -0.3563075518075662, 1.2055940502014337, 0.5025989444569449, -1.3059589410669532, 0.2837079355451371, 0.07007223969676551, -0.15524246024562552, -0.6105009984412181, -0.6223238272400271, -1.3126609362343808, 1.4750023240437553, -0.7643080504913312, 0.5871035462424461, -0.6006913502858043, -0.6369388457815687, 0.13901213283664593, 0.9386435084333606, -0.9439977079253534]}, {"output_weights": [0.022228820487595568, 1.5496777025522686, 0.7562704601622989, -1.0748597467122654, 1.0278325133565387, -0.4842513698047288, 0.2566836199509585, -0.30031292754875244, -1.3848613707978348, 1.443232701066317, -0.31942111173651005, 0.6027579234902503, -1.3361471937837128, 0.06074030733658082, -0.14541835396433406, -2.7421925373750304, -0.7128677117927725, -1.7419624820119652, -1.401025529394518, -0.7665591487905514, -0.15987724770310244, 1.2243196224293296, 1.687863477613203, 1.3740797388994794, -0.13418324266205792, 0.813552707803021, -0.6129043411514727, -0.9245970641355726, -0.047103201410029924, 0.6998248984656451]}, {"output_weights": [-0.23817929039029845, -1.4107670610818586, 1.410351925548642, -1.1193308714932164, -1.5150636585822113, -1.4839726951973828, 0.5705599936341001, 0.13790957129253284, 2.6691625425118493, -0.6867339528707102, 1.3652237848272468, -0.8201753999171433, 1.7006801690804763, -0.9779974951329187, -0.9288420519414248, 1.4308378895896823, 0.8828158735205458, 1.1091394859192922, -1.0019582830300782, -0.8925537997259236, 1.3987793329010356, -1.5234227518985324, 0.6983397290262805, -0.21465418360232139, 0.4258801536531438, -0.33649989778013983, -0.6297114273295531, -0.48240202853675923, -0.4572575586510674, -2.19509821705627]}, {"output_weights": [0.057855907774719655, -1.3077543923627313, 1.4193800799857654, -0.1453021358130043, -1.5612114352426862, -1.3111936762635685, -1.6880967361868076, -0.09128788266331007, 0.2506424141066751, 0.706133765247451, 0.987009717147776, -1.2407576710350408, 0.06896597106912881, 0.8589436880654115, -0.19922857773549169, 0.21509709626254314, -0.14270280562623214, 0.9075581371766186, -0.537172173668182, -1.566869921027381, 0.7615623140509855, 0.8146432447888728, -0.9657151460518149, -1.026115108348379, -0.4402807856068317, 1.0719937595690898, 0.7312062999682432, -1.0227736222165271, -0.7584187662349003, 2.5246209897380565]}, {"output_weights": [0.4546984492893661, 1.7398801732506255, 0.004984199390741133, -0.07621297961283795, -1.5989032149874767, 0.2445176929485666, -1.7805250412018947, -0.7666614482167419, -0.2249140753599395, 1.2182985092571896, -0.8452841811876014, 0.26453511433957494, -0.637871178243626, -0.48379622948431283, -1.102780545907445, 0.47577503505791685, 0.27925913910743544, 0.6306011483290197, -1.0163838707880262, 0.25333191451557113, -0.3411930200334955, -0.13511930883099854, -0.7119020705394261, -0.43498632033560275, 2.2066026969646746, 0.8195904293949617, 0.1097630515002452, 1.1289937843318, 0.46187546461348084, -0.31922419397114643]}, {"output_weights": [1.370151270854895, -0.2020595353215294, 1.0179008893548995, 1.9922689203867554, -0.4795287888846606, -0.0861060950639879, 1.6573311718975485, 0.5972705963877044, 2.39191351662104, -0.5341633251401271, 0.009851524105458363, -1.347557253467043, 0.19700523310165835, -0.3170625212461853, 1.2021096622134437, 0.36211310620145853, -1.4584193338493188, 0.6564771218035677, -0.6071178672617094, 0.3391487102020039, -0.3280227360526616, -0.17098453990355905, 0.9508964734973071, -0.4771392128262896, 0.3373541602679078, -0.13615141803026673, -1.0533702218068342, -1.1192891825189786, 0.3857168257282653, 0.16599967780666042]}, {"output_weights": [0.811102329133886, 0.9452075441538111, 0.6824615557421999, 0.19525163406796203, 0.11357169391162852, 1.2228272272518297, 0.03256614235881434, 0.362006014807178, 0.7444500332082814, -0.053096158723783045, -0.13135586737705932, -0.6061744736074302, 1.5680415659525406, -1.121018235329396, -2.350883673424415, 1.7391129557548297, -0.2527931750261025, -0.3731151080999646, -0.8944744391311108, 0.13682602595962012, 1.4584239095142053, -2.170498564685114, 1.0146797536653707, 1.4938599231885736, 0.46208694349298013, -0.4988226527471476, -0.9420230267106341, -0.6837212619431422, 0.44798248566358617, -0.046961548113657325]}, {"output_weights": [0.2779991477387156, 1.0313842331308514, -0.3075774315346306, 1.099686660116827, 0.054595167126297785, -0.552016918633619, -0.6543965431934373, 0.05417145356868585, 1.4851678847382899, -0.9199751047795399, 1.5682565541749602, 0.44035196787979025, 0.9343078036592811, 0.3983007141987558, -0.8254884037418079, -0.4382666590298094, 0.6143078541299206, 0.5254251880136073, -0.9290686142290717, -0.369645913388693, 0.14142755516356773, -0.0744979925532243, -0.15496980927776122, -0.46281155800215884, 1.5329186145981624, 2.076765530072488, 0.6666830463760803, 0.006462137767552759, -1.0834741740867642, -0.08957452828158263]}, {"output_weights": [0.32509735006201307, 0.5310179791969962, -0.5480942311104199, -0.017082722107844374, -0.809456548828501, 1.1653072060801932, 0.011577223989029984, 1.3805917905271297, -0.055640215331001934, -0.9117695009706912, 0.39440092767011387, 0.20225961472577053, -0.03501220921581921, -1.706932976831216, -0.0534508847590914, -0.519079724156893, 0.1282448458837163, -1.1126684463042837, -0.4365319136906655, 0.9160096081658783, -0.5034539362747081, -1.2325134288765294, 0.20573934768512173, 0.9270413289335442, -0.4234580798834563, -0.6507373172924825, -1.2123111487251683, 0.9648202271361898, 0.4573736332798403, 0.418359886867477]}, {"output_weights": [0.5518004680988853, -0.14249723687924107, 0.013850829110960262, -2.1922285516588067, 0.6773742624840359, 1.6606129034441095, 0.5308805966734707, 0.021066140406557122, 0.8094914300548981, 1.5321956154791159, 0.36985074989859507, 1.0423179378925274, 0.04697363105973254, -0.5630911619066324, -1.2815615423108335, 1.1833068841293153, 0.21924181719652422, -1.26539941445872, -0.271993463502473, 0.19682547150595475, -0.8463367102516318, -0.15783829151681622, -0.730760662514588, -0.19804584411555706, 1.148360007698325, 0.5891931597081769, 0.24270081581480793, 1.2499092651769377, -0.24988390174047836, -0.11462469678029044]}, {"output_weights": [-0.07325156693727448, 0.897319331128981, 1.8021762466922124, 1.1287880933599401, 0.6111615969708466, 0.8229596107324918, 0.2676999631504577, -0.28918957126392064, 0.1957169352591544, -0.7191256698640334, -0.1466588104131468, 0.500354695658237, -1.0911684821624035, 1.1999441374914486, -0.055075361790001685, -0.047609343914482856, -1.1669746197172346, -0.4800279354973824, 1.275393451940491, 0.44526575455589823, 0.052484611129577294, -0.34629863776510694, 2.1586969941909566, -0.054244120764135886, -1.0974664028280963, 1.1563454954600012, 0.29591245462189963, 0.27992457936092763, -0.0849347934403602, -0.6074333583067512]}, {"output_weights": [0.6709311224191876, -0.30196935455920987, 1.2356742675169594, 0.3290615352404703, -0.9058085116398318, -1.8253459033663848, 0.1549400398760328, -0.9901906970970279, 0.756067115887436, -2.1383463838316112, 0.5850957297949089, 1.073365711441553, 0.7709954149333915, -0.21475379634985273, -0.5008239944849847, 0.9458295718719334, -1.2585624440706167, -1.595353783955157, -1.335673278079272, 0.17360519957780107, 0.5282790954528368, 0.6558237311062419, 0.26890104732914083, -0.9352505308591916, -0.09504133686845082, 0.5523304140868128, 1.4241225699606588, -0.04467468726747272, -0.787933752609195, -1.4966088668556363]}, {"output_weights": [0.8151811492196949, -1.0802171305759705, 0.8827216368148058, 0.30771557866620886, 0.003719215674464939, -2.099796540620615, -0.19902806734723558, -0.6178794655092517, -0.20968303116260126, 0.6264248339780734, 0.6592584067228251, 0.5647990831301991, -0.35806607227532466, -1.8953196310021692, -0.08479613649986098, -1.2122106666227055, -0.5343339011994747, 0.2063449714993718, -1.2969864270486857, 1.572297504011578, -0.6355574093365663, -1.3960622568124086, -2.660712841631341, -1.3959845276106695, -2.3105817301989533, 0.8274827017372703, -2.183642581064854, -1.070691207960773, -0.6288760328465101, 0.44188075875428484]}, {"output_weights": [-0.40428686500828676, -0.3729820076174279, -0.8386495511978084, -0.8045668265381964, 0.10390044018066547, 0.19148124883449535, -0.21145888880963976, -1.1214197607366045, -0.48003210154456005, -1.4935467931810813, -0.5143659973391791, 0.46886075817540246, 2.2700919795602283, 2.142447973840761, -0.9417082687911407, -2.2319773411668504, -0.46653798241890887, -1.1604381263924317, 0.5063328141236008, 0.9343072325202837, -1.0974662777029147, 1.457304298697891, -0.1306148950740262, 0.5245298084041561, -0.6161136994347419, 0.7314478459703114, 2.2248199788668037, 0.3146621072686111, -0.3445916775884501, 0.07625860473655764]}, {"output_weights": [0.8674826148392142, -0.668006951477501, -2.2826614968103995, 1.449829464780962, -0.37939139504760244, 0.2549603896159783, 0.1005255542527096, -0.6395156187357843, 0.2444641309471127, 1.3872273913722293, -0.6101546865520592, 0.09588638613807957, 0.10102488575032206, 0.17500715205814496, 0.5653732012389477, 0.7403172389892893, 0.27591016101239046, 0.09673021683512732, 0.044829091169352325, -0.2940483505963666, -0.8279016559995492, 0.5276681727798617, 1.2390688457836379, 1.258634305326798, -0.0526673372420412, -1.0736015667635628, -0.8807762186961302, 0.5529167793805865, -1.5550844047478387, -0.08630157379467682]}, {"output_weights": [1.0566819085702313, -1.709291571012046, -0.32716881170345075, 0.8449867652512829, -1.6026163402689002, -2.4733126227576676, -1.018763938832227, -0.5472639609811687, -0.961926546383848, 0.4140956265078852, 1.0346822231924522, 0.993965310888624, 0.880924600272035, 0.54070885635301, 2.91107962443554, -1.2872726412206563, -0.16663465787118673, -0.4433325252893512, -0.68399558185059, -1.018750532956283, -0.7624317569633499, -0.06984112138024748, 0.6828862099132392, 0.7700130790608306, -0.6374334180227835, -0.25427399157383856, -0.20660263620787642, 0.35880767752170806, 0.08920183923607694, 0.7026471463620068]}, {"output_weights": [0.10490446257682497, 0.5629465864285508, 0.08378512312543833, 1.5194349461960521, 0.8241243107777761, -1.3768362525105178, 0.3578861055365769, 0.7581331696778751, -0.8636830111461113, -1.1494845025669307, -1.038366242521474, 0.6220381121517357, 1.0080057011617969, 0.25167385717835206, -0.26637914808653795, 0.1898242385784277, 0.5536541253148818, -1.5559699602702686, -0.2639693902018244, -0.9502115792836127, 1.3245825473666348, -1.6940780951740289, 2.3399483899220637, -1.1427103421385287, -0.2844593052813668, -0.4383117712764585, 1.1870058410357023, 0.3217100880977135, -0.7068400567367958, 2.8832772265857582]}, {"output_weights": [0.7438914510146253, -0.11121665610131144, 1.0865881770944879, -0.8038467334526282, -0.15553266150032063, -0.13539608995505426, 0.24163318549086804, -0.5300806257770607, 1.2384005068573387, 0.20390041415217144, 1.1692858852225816, 0.3302513659749322, -0.8461571907976182, 0.965511562372086, 2.074703423739018, 0.7497687824785505, -2.387618415318078, -1.629362515851485, 1.5499050313209346, 0.6984036249407717, -0.04860561090443151, -0.7316608749960247, 0.9083637979044453, 0.7312438435350155, 0.3968121600806619, -0.1224197832949072, 0.5143684600910063, 0.7476398001992891, 0.23975057724868476, 1.1910989922451165]}, {"output_weights": [-0.5161836280374041, -0.9798960958090137, -0.1352880774760874, 0.7035123023503899, -0.17332072625279946, 1.9809963606679828, 0.9751062285159927, 1.1006129424638993, -0.7928629321102151, 0.27870749949464474, -1.2128376275008959, 0.377947884644034, 0.18844706008229625, 0.21008181760389336, -0.6513987744879328, 1.2009584836572618, -0.25673082145900145, 2.238634258137104, 0.6239058203993979, 1.0660396621385442, -0.1940804006999413, -0.8664974509604995, 2.2174083919780117, -1.5956203322793974, 0.21967123703087457, 0.3586960657479682, 1.9870501075112907, 1.2464596882036558, 0.5737889286288959, 0.6797410371742649]}, {"output_weights": [0.038699949383289786, -0.8225852326641585, 0.2542104703653003, -0.3588885616104235, -0.0976726172752811, -0.19919358057457415, -1.4698392333893984, -0.6879043934349924, 0.8573815453034117, 1.9248476723333012, 0.20608942530908356, -0.2153645413562139, 0.04665440459887246, 0.1489587219454687, -1.5306378528277558, 0.5836415476525619, -1.764150372962472, 1.7954074220488052, -0.614103927663762, 0.14358731835640784, 1.5397752488599674, -0.7363870930530532, 0.039605948381119416, 1.8022875534502376, 0.8761425396738776, -0.1205718626364248, 0.6970249860055078, 0.5441617262261302, 1.455056424505576, 1.0882817416760215]}, {"output_weights": [0.7301487677962218, -0.8217761187823448, 0.9568729688043883, 0.8420609309154893, -1.2715817050622495, -0.9632763185047898, -0.6732769622934536, -1.0608100110641074, -0.38817910752576523, -0.3068459069678995, -0.23857560454260623, 0.4019321001906153, 0.07053971910515677, 0.5311055649188808, -1.1729549074013967, -0.6981328881852035, -0.826833819750576, 1.5367467798771788, 0.6939086266030956, -0.33639405142635825, 2.035639790509389, -0.5205962890038323, 0.22710653271772843, -0.41332744129305177, 0.3563885273141358, -0.10115125431681296, 0.7273747067593813, -0.33151067542311513, -0.7329230427583171, -1.1788016148947773]}, {"output_weights": [-1.1566835789542533, -2.3120574254310813, -0.26296994166310117, 1.49075184002135, 0.6334401222055609, 1.8983239621951888, -0.9885009964428957, -0.30466611358385687, -1.351813906421136, -0.3565670058065739, -0.9950356320175389, -0.2081567029182164, 1.5524104423671774, 0.2741697980072359, -1.0318463597750984, -0.13257714703819146, -0.8032393942499034, 0.34322595021069485, -0.6544885422955008, 0.7579463841893403, -0.4881425439206961, 0.00393159034535315, 1.1522479410126123, -0.5531750717810218, 0.33751925254019477, -0.7571480377511713, 0.001433169141594393, 0.10892562381917696, 1.0602220083031095, 0.35112588020035573]}, {"output_weights": [-0.9306726695144917, -1.7342810380463445, -0.8766720393849169, -0.7865432372192873, -2.097624890572109, -0.9428205042556951, 1.3572495779498868, 0.7147966502096494, 0.051602253270834175, -0.2619774883948587, -0.8853464903968745, 1.035546613599072, -0.6226439240123983, 1.47060349299285, 0.6392470778628006, -1.7813601053810924, -1.1118981096011837, -0.7026533134857293, -0.06145992539830396, -0.6802085364170012, 0.6378818071041245, 0.4509818378641422, -0.15727484725382315, 0.04042767712543513, 0.17489626922267304, -0.4559339935691876, 0.8272458880336564, 0.7911273792083467, -1.3498490214919252, -0.6123226366872385]}, {"output_weights": [0.41531857836374336, -0.4380181050052653, -0.06796569317961415, 0.3214103211547215, -0.2590561020829953, -0.7871164548960393, 0.8687204083643443, -0.9392720203620177, 1.7559931311230033, 1.2470870797076434, -1.317711586977909, -2.2413477246512854, 0.06645063746081284, -0.5746313412271247, -0.2653073196394746, 1.401370021979944, 0.5105970375756569, 1.8250343165209804, 0.9852493604843275, 0.7347618488774689, -0.5876715284040076, -1.4720353138686615, 1.1384397937960098, -0.06770760812886234, 0.34594981545876585, -0.987916185349219, 0.4643808607336409, -0.8252252887448887, -0.7814257162859051, -0.971232071931378]}, {"output_weights": [0.18657718865404532, -0.7322265843295854, -3.1406646001012875, -1.001155925851333, -1.687087025288057, -1.1537326272933284, -0.17983478418268903, -0.28837865046522826, -0.7705124189239461, 0.4845346698416298, 0.9016525394511068, 0.20832185034084455, 0.08764677123384802, -0.4467535295980416, 1.2991941204540516, 0.2702568474611112, 0.2499481339049834, 0.1460053909793492, -0.1103077040158962, -0.7121851913109889, -0.2635083149491773, 0.6145719297832629, 0.0387193433631394, 1.1199823406001002, -0.6780334737007505, -0.018446770607433417, 0.09129872440208806, 1.0999909180890588, -0.56546981111472, -1.4071337729977733]}, {"output_weights": [-0.30561417953178516, 0.14190135333752008, 0.18045065150865203, 1.3112475679047373, -0.949529232705873, -0.7897720383108834, 0.1496290365554093, 0.04326215984488929, 1.2252537933970167, 0.8913939044044327, 1.1875578449781734, 0.492759883452701, 0.3675626214095498, 1.6886725583786797, -0.3808308654290579, 0.14124482217568357, 1.3408103404799672, -0.03828432722201629, -0.19391873728584513, 0.6131182957324963, -0.6040152754077572, 0.8595286091895676, 0.13464383040353892, -1.1807498688066382, -0.5233655215261034, 2.6517273775281924, -0.3533828657195027, 0.010890667306770354, -0.9248632147797096, -0.4918267589154395]}, {"output_weights": [-0.5342585224842819, -1.0451137530410444, 1.2722626284121157, 0.1689520232364303, -0.18339996413355497, -0.006406363548232687, -1.2722479134884326, -0.41149868942109363, -1.5639667304833245, -0.14675068799756816, -0.4786010184117186, 0.6235832545077005, 1.724600615748915, 0.4035242936428535, 2.0984060953345107, -0.1720905143668733, 0.9770624159085537, -0.6643957639116325, 0.11122469924813563, 1.7151373882292609, -0.4682562957679123, 0.679992563929609, -0.044029652689399595, -0.8909025268249562, 0.13610998053680395, 2.2721026135638867, 0.35903858976651426, 2.5710195961713502, -0.5239249123310926, -0.07574828549328409]}, {"output_weights": [0.5298244718590247, 0.4099698378192596, -2.1339263976371, -0.006296307930281494, 0.13349962636027016, -0.3954281189980411, 0.2900225571636684, 1.6743143178813025, -0.4212007582239319, 0.4175869589358033, 0.5370505774315897, 0.13025033227336957, 0.765579896946642, 0.4328417591560644, -0.29330601027200853, -0.040541768198117105, 0.005093189525856246, -1.4143024420011971, -0.8398952895406211, -1.112830237565389, 0.14645967912203783, 2.158051176273814, -0.12364742444045, -2.015165406916527, 0.4318655530145336, 0.27256204559034103, -1.6479315156660705, 0.9999203491084836, -0.314819724226208, -0.24338863119506352]}, {"output_weights": [0.37599213811415294, -0.058573017312248135, 0.38219448510074017, 0.4666514194846768, 1.5873975853230209, 0.4276486835414877, -0.9085895550828359, 0.2505400941478434, -0.5865780258570717, 1.9129283910922477, 0.31030418469718624, 0.020182895779181986, 0.4756043724889524, 0.7595823978473322, 0.31858180060818325, 0.7526944994656354, 0.34248915403659, -1.830323322448833, -0.5917405700409266, -0.8341929782268817, 0.2093270514532475, -0.8922266343695459, 0.3142288434550762, 0.30741189331425484, -1.413404060243005, 0.42753454941670654, -0.6909526553638935, 0.1411425304307315, 0.06264078832265743, -1.2050356941409885]}, {"output_weights": [-1.9909502826347099, -0.755615439849343, 0.011820702698286202, -0.2164006154648998, -1.9716331585106066, -1.8003739730947903, 1.0033585448227589, -1.4855548195913173, 0.8486427265075269, -0.810485562601881, -0.22124742851226378, 0.20667272507068457, 0.29986600575640426, 0.533017573416859, -1.2749177404774101, -1.8150945611729452, -1.59510682283068, 0.2519947791009825, 0.005790777212597029, -0.5320404827072658, -0.5697418710130989, -0.9436647814303767, -0.5336068440372375, -1.3705497409734586, -0.18575178375154203, 1.06437628996652, 1.3238240606777172, -0.8633326700760763, 1.567881308776156, -0.529268498140957]}, {"output_weights": [1.5683690429414265, 1.4573140442834145, -0.7209945151475343, 0.6484163161191066, 0.41640494530249494, -0.5462641343333939, -1.063322819183973, -1.0490097082066205, 0.715611994793183, -0.630304609795776, 0.19532577586448835, 0.030619171711621925, -0.6556445730968125, 0.21729749488544045, -0.7208504988313897, -1.6913823966001236, -0.290748432210365, 0.05273566053113067, 2.2132716867914652, -0.7494237640939985, -0.037677545409758324, -0.5407465257190118, -0.11520850468740078, 0.9084761928415693, -0.5178973360082121, 0.03694709562168567, 0.9640150722031825, 0.026917109376178545, 1.2968662135205995, -0.7280851547120422]}, {"output_weights": [-1.1238911942949865, 0.25753963348545833, -0.5736379755520219, 0.9261894123027322, -0.6805597969316256, 1.663792530683944, 0.878336958985005, 0.826815827652902, -0.8253839727111314, 0.922890264639141, 0.25800711573533025, -0.575241423496681, -0.06851706322065354, 0.8161725502097024, -0.5090604964248372, 1.3501466326504292, -0.30385953310134345, 0.9853962171847247, -0.8286872612233457, -0.21892192383078754, 0.7677510086316622, 0.5385289945139317, 0.7006445955233467, -2.160833523551176, 0.44095251868907864, 0.655024961439289, 0.21645667994372877, -0.6644762579768603, 1.0102452343696784, -0.8200106335794415]}, {"output_weights": [0.35271649480515643, -0.9815857491150453, -0.3283824304926965, -2.0221807255469453, 0.342894260570294, -0.6681826072580009, 0.25100927969893344, 0.9097286254112107, -0.47841704163223103, 1.622956664768094, 0.8843691313893932, -0.13977700054823866, 1.8060201076568203, 0.6439759062345157, 1.0600951805630536, 0.8082012651608215, 0.36991908912787, 0.31149266396326564, 1.7138032041233093, -0.016409241509162967, 0.6640188708547162, 0.8126466859596014, -0.8745966604545936, -0.6681159224826282, 2.3010851931121663, -1.267685637548499, 2.1613589890976983, -0.0029266656467035724, 1.1434877484297992, 1.1583831031701985]}, {"output_weights": [0.9424096049544239, 0.06077872815189527, 0.3021554967666335, -0.6820251435874689, 1.2872725449518116, -2.2864028678901067, 0.5680411424642797, -0.8765236296064307, -0.33291451858825105, -1.9927253651802355, 0.6639841275793759, -1.0564958738109778, -0.6941089865554928, 0.13275673245198455, -1.5974028101414455, -0.24507591399026155, 1.2251114777119059, 0.040608170194615295, -0.6706544703408358, -1.7851995661533928, -0.3149404934551005, -1.455812268694384, 3.323125749008118, 0.17049398166061364, -0.6097610536996927, -0.7152601051447036, -0.5935639864630364, -0.8798248587275678, -1.272371494211262, 0.11986319672023042]}, {"output_weights": [1.1387162922159364, 1.7193293206351121, -0.9376423741998517, -1.3636798437409203, -0.45919975728462514, 0.8724838964608667, -1.0568689301483618, -0.32401068942325845, -2.329626235184725, -0.2164720939042042, 0.18058915246485985, 0.11370814859388689, -0.8266944768822362, -0.4516275158910628, 0.864076034780184, 0.37005796096406285, 0.3407988932573215, -0.2739461007417491, 0.008045217950153937, 0.9938568542558485, 1.4769046796772956, -1.2425656582435145, 1.8231685542535618, 0.4798800763890425, 0.08787316881399178, -0.35726466240055804, -1.4357558071887346, -0.5770113355372682, 1.288450936907401, 0.6072322346301547]}, {"output_weights": [0.6648183128618634, 0.20512825984654412, 1.2335253772528845, 0.6332636704908402, -0.2254008484957329, 1.1868066424642052, 1.4868315624066866, 0.771494465166613, -1.2829283180026134, 1.532481263422404, 0.27074037013443825, 0.2844009330392592, 0.04864128034290672, -0.22464799640045463, 0.024730045841042193, -1.8204962876598465, -1.3918735099135557, 0.6042423928048647, 0.25007933295634743, 0.6447783804423703, 1.0214032946299259, -2.0580627604851256, -0.10189498630326582, -0.3083135045536179, 2.367365177461784, 1.0533661130273821, 1.93530536586273, 1.6225928342451235, 0.9541466201670779, 0.09450359011033153]}, {"output_weights": [0.49680959275882486, -0.17891483879783565, -0.7485180727684041, 0.3981015517547944, -1.029096998044291, -0.9120328904445472, -1.6546153037469262, -1.3678803857827626, -1.86748572410721, 0.015832331568527737, 0.5014208896903614, 1.0811543046425152, 1.263735184527105, -0.3695264837629742, 0.014400832591996095, -0.5625493683842491, -0.8840110483310774, 0.15009673200104381, -1.4399953734089137, -0.6944309822739901, 0.6677286951628554, -0.05167481763045698, -0.6354190611217664, 0.5584082992491907, 0.09550861928275692, -0.9139688160898642, 1.454201961884545, 1.4402130920839822, 0.4959015371606532, -1.090146604987754]}, {"output_weights": [1.4799283544338402, 1.4027539475328223, 0.16546259072770164, 2.668915214011309, -2.4733654342520364, 1.2386722219853337, 0.04893402628662717, 0.449491194144824, 0.667884263854116, 1.116372239693719, 0.3070243115140883, -0.6306388870911651, -0.896849374433659, -0.09651548094491476, 1.593550166654733, 1.7245108797348034, 0.9969907951592226, -0.19596535348892383, -0.9070798819709981, 0.08237273086671806, -0.2610839871987293, -0.08267478755879847, 0.47440850221063474, -1.1689479408088244, 0.8333071750447485, 0.8534130049869816, 0.730944283261217, 1.8110672993129424, -0.7070821788904564, 2.5143153735741555]}, {"output_weights": [0.1560196464463191, 0.943577803203323, -0.9368041191388145, -1.2425095314017585, -1.375153201119677, -0.27084851256744635, -0.10520757106166796, 0.6072615988191451, 0.9043545566106512, 1.202244971662299, 1.6033309603680754, 1.1752955424477698, -0.9920720686830163, -1.2565888738232855, 1.5486696523550352, -2.04210819660075, -1.3192156411210085, 0.8832066580689756, 0.009033086565998445, -0.19744612783503235, 0.3910312730169387, -0.8079897930105153, 2.551671830414357, 1.0970349486281403, -1.1066406395293746, 0.2116466398100428, 2.9676223885434396, 0.41373716896458845, 0.9064910892448136, 0.6994549356731531]}, {"output_weights": [-0.45845926050525276, -1.365790214365672, -1.1346812722401212, -0.3888852187033281, -0.16033244888957293, -0.44920313373843074, -2.499254632682109, -0.5320376763065966, 0.45488081998169777, 1.3387045596736737, 0.7022763213482858, -0.08888036098500969, -0.3129724668777592, 0.17784638561900462, -1.1234103556043775, 0.41969407085739024, -0.05847740399556616, -0.5965618877711127, 0.16919404462336865, -0.027352485789215696, 0.6474681555859652, -0.9089755325910022, 0.7027544558244565, 0.7211297252191906, 0.054409438512481194, 0.3787446254806659, -0.5721450616876236, 1.0798281682906934, -0.744032203072852, 0.21531782527522936]}, {"output_weights": [-2.164977673172486, -0.7520864491125167, -0.34790461842312387, -0.33548278116021113, 1.4966422875746082, 0.8539207876164092, -0.5997607555809522, -0.4270948234879291, 0.5389226933155635, 0.32426059735597046, -1.0931901938487818, 0.006341089462373927, 0.17205878715182435, 1.022063975031673, -1.3812983521352886, -0.5306775347726831, -0.7605303834388297, 0.7725684297776454, -0.07302444536540731, 0.3937960210849623, -0.040622436426659435, 0.45893035665140625, -0.6672939535761191, -1.0157417988733524, -1.2615414459033722, 0.022564167871851178, -1.7983455443790706, 0.5043812504454661, -0.0655996272690135, -0.3785180896845193]}, {"output_weights": [-0.2124853908496293, 0.22303833783907454, 1.21664385410545, -1.7714466502183273, -1.1186924302991264, 0.3848457404161468, -0.4693747010130285, 1.1568471498997168, 0.15050958326291913, -0.1980629693228293, -0.3946814877504427, 0.32339271128714214, 1.6370765290549132, 1.5983161974942388, 0.13434266792033966, -0.9850618267177468, 1.9524701503769428, -0.027601804995265912, -0.5875772311739367, -0.5758748638957952, 0.9734477020180256, -0.5223370704738899, -1.3981740842554389, -1.5731555086683766, -1.1089786712225542, 0.4858103871430703, -1.2968780561521436, -1.4282412135465006, -0.836321136649617, -0.3416745566088983]}, {"output_weights": [-0.024273163347925175, 0.6089257558143604, -0.5593175906684938, 0.72113529876049, -1.0338690164581603, 0.8153630073690592, 1.7687544183906476, 1.2887282053510671, -0.23607375446692877, -0.3249307597661601, 1.1327170879709147, -0.8773655200799746, 0.12503545849849398, -0.611884901750233, -0.5975328627505844, 0.09927386751229351, -0.22048772328035798, -0.2630505220789925, 0.12196433421159018, 1.9869621563651445, -1.8462875797954044, -0.25629379701657207, 0.7965616804732352, 0.2607329504134562, -0.9897051017862483, 0.514370706818626, 0.46745051955377076, 0.4857362550158104, 1.0182727708940311, 2.5444305792339565]}, {"output_weights": [0.05806873489830124, -0.38237321698810983, -1.4289192284487595, 0.9676336348260984, -0.32066525405877855, 0.7073657546373008, 1.2549572008984111, -0.5245219774954417, -1.0609528130954646, -0.46560810255939433, -0.48411117544998616, -0.5656490115518505, -1.719252054187667, -0.3531536278611398, 0.4346045211318559, -1.7179694371587249, -2.2770428105240725, 1.0424283275295285, -1.002158745576057, -0.026207132592318407, 1.3726183239421756, 1.736782201089976, 1.2847665536039081, 0.018360664664179013, -0.6395210699159196, -1.6051167447708314, -0.008076090188887584, 0.1269146965089342, 1.3216664766361104, -1.4186789305942462]}, {"output_weights": [1.273762512347412, 0.7212850005820801, -0.4129570617248105, -0.19560090067104727, -0.6680493904419265, -0.9859205078099823, 0.0012719081211382134, -0.7484613271412824, -1.4270342888680771, 1.6344851445710409, -0.14714809838590673, 1.0195619282192248, -0.32493077646309954, 1.2169662763376652, 0.23580498478888595, -0.06588193110346595, 0.2178448705473551, 1.924171676757382, 0.06129591359084173, -0.6346719629542311, 0.05209026287032986, -0.34649665883049435, -1.1694951850024722, 1.2564877993707602, 1.7842300323402325, -0.5168968496071564, 0.7066445850559491, 0.7008836937570699, 1.3364003678706913, -1.1426339608133966]}, {"output_weights": [0.012169217378260077, 1.1586423358466515, -0.05446938072452293, -0.025530453494182096, 0.6722836803098677, 0.03802105153118514, -0.9525117019357511, 0.4284810693141251, 0.4333664716528397, 1.5588561063975608, 0.9659133728750412, 1.7248131967325786, -0.7856732452225476, 0.9490452004215097, 0.5745326072893304, -0.5019961888571716, -0.36064956229026834, 0.13795118708631143, 0.4535698744738918, 0.9165049902786371, 0.6400786739563862, 0.6075759582827704, -0.10262432185651973, -1.5347544396893524, 0.9013047030332108, -1.723854932024163, 1.0647312464243515, 1.4362567308414917, -0.06414799651177795, -0.8460081271742637]}, {"output_weights": [-1.5800163588100147, -0.36185734749975607, -1.2050819732131253, -0.18128124843995727, -1.792297026608317, 0.6594831683774853, 0.7173589134356143, 0.31142777298928026, 0.5175406102885645, 0.5236596047656468, -1.2160123252868356, -0.9204942151802297, 0.9179912018670283, 0.8113203479438971, -1.0579499827415786, 0.2475111506995104, 1.4632478711750758, -0.40732302395269304, -0.6600367115661625, -0.11945957994938024, -0.26716491267863957, 1.8530228728553542, 2.39272398024872, -0.17048720142380253, -0.9934707553106772, 1.833182385744746, 0.023137916946348064, 0.5969664334642857, -0.1323138166236534, 0.14203303915544824]}, {"output_weights": [1.1971622663522092, 1.0792814485799487, 1.052266216718253, -0.5113939463898568, -0.6931774247888066, -0.15466514453291583, 2.0044190843083274, 0.8497916496383718, -2.872518580203032, 0.823592802593006, -0.3541502354938002, -2.3550237150155686, -0.8150947435015687, 0.14912304891534442, 0.9620419636850983, 1.040797295969713, 1.4690534946268419, 0.7550527496869933, 0.0024372679766792977, 0.21444939409288286, -1.4754796167118915, 1.3227346081362072, 1.2331214910899795, -0.9802249579285296, 0.3711563636210862, 1.9029316344849025, -1.7569718350229164, -1.4768638674403431, -0.4162505885221964, 0.09251990702344978]}, {"output_weights": [-0.11080410134824255, -0.34415295153785413, -1.0579972425358586, -0.8172896020277032, 0.3987733032299969, -0.018959936221725947, 0.4445200870341017, 1.118998252679501, -0.9021692265130239, 0.2356763805400631, 0.05824563201995703, 0.34902963415876204, -0.7768161226610438, -0.07336134920947213, -1.5028626474090474, 0.16166633300563427, -0.7981826612396066, 0.8555312028381745, 1.3091237687765942, 0.6219228431978454, 0.06817854367767014, -0.8886521391690614, -0.7627857349791775, -0.7711426172916243, 0.22731483055366927, 0.53793022942766, -1.3763071242200933, 0.6629642253041741, 0.8117247764971247, 0.9664799337681511]}, {"output_weights": [0.41455862421362033, 2.369818769401817, -1.7993058700236308, -0.18995129650180428, 1.3435742564301694, 0.36410889279124403, 0.3863412556536897, 0.6949560975398, 0.14739744047463563, -0.2872152677121649, -0.06231772666166129, 0.026445976961289218, -1.0552238128325202, -0.715328999643865, -1.2064158327235146, -1.1254389237619422, 0.5821331349290059, 0.9325569883528411, 0.35027893842393243, -0.6575858215650027, 0.48152490857402785, 0.9084308120313775, 0.6961350395338278, -0.5977989920212582, -1.5529839190942907, -0.35364885555264053, 1.516230309432555, 1.6955696113302674, -1.9571313291280172, -0.08202925414269494]}, {"output_weights": [-0.5022578742548046, 1.2459296951910896, -1.9735530493494586, -1.1239342488212005, 0.5246299011503933, -0.5761373877738704, -0.2758068234573066, 0.37099679588735096, -0.24047546020139227, -0.25660635226951134, 0.5734369767003521, -0.23524727562418202, 0.48364823722728123, 0.35374045282968913, -0.1381882377200561, -0.47438058010750367, -1.1473716814894903, -0.6120238714118541, 0.4791653161902315, 0.4351877644224593, 0.3322052751779754, 0.8928277423476608, 0.16478263374671495, -0.7819643942647136, -0.055854218871718986, 0.06928829337922258, 0.7565302386424482, 1.4431861495030005, 0.054508143676115305, 0.8308228587813965]}, {"output_weights": [0.8716965114815182, -1.5972227106835941, 1.6889470412650642, -0.3085271042157458, -1.7773494643944991, 0.018804319647766462, -1.7538761135556653, -1.715855580568458, -0.9127833663780668, -0.04389111312730126, 0.8916769016916232, 0.06633937723238834, -0.18499646617229207, -0.5023599298335633, 0.8469712077489061, -1.8300813928529478, 1.0388453428165518, 0.37789301181029145, -0.7409681314159172, -0.6899639360674772, 0.41059899812483824, 0.5214650869974118, 1.5621100383114146, 0.35496027716216066, 0.6017087805132418, 2.7391976351367457, -0.5514512366986981, 0.0483428562255777, 1.5810075938662866, 1.2081179782751341]}, {"output_weights": [0.7765441667735343, 0.5120873271324405, 0.3523805289042439, -0.9732562288225499, -1.4625990233607171, 1.131717385899113, -0.2311827344576723, 0.8972162482866608, -0.2577758660385234, -0.14959408717036707, -0.3668728130178972, 0.06587135081224361, -1.0041878643139237, -0.47512294626280827, 0.9509633093221003, 0.7451158982162732, 0.08213065344420353, 0.6113412647393108, -0.019907723891000026, -0.17696648717257865, 1.3407692665164912, -2.24841134243521, -0.16239408616125975, -0.14197499656467583, -0.2508633672270621, 1.1261403499705693, 1.648027623574801, 0.47913396659081153, 0.011977010740444296, -0.9777248937082101]}, {"output_weights": [1.6448149194976032, 0.1978676151546047, -1.2674502976509614, 0.041028292782845595, 0.9810364179281059, -0.1764699897560879, -0.8729108676713385, -1.6519876214131666, -1.44218413451837, -0.5838929648872889, -2.347293991108387, 0.1915837890208311, 1.313426439641607, -0.45346187184013764, 0.8042075026337568, -0.6567935050063605, -0.14861085717580766, -2.149064999103655, 0.010850437332103348, -0.05601814350496012, 0.767656186000747, -0.7598515276943619, -1.9861621069092477, -1.1377658841696257, 0.24430144414302177, -2.411810002315879, -0.14668606817312235, -0.9620208113115799, 0.6646712864042312, -1.919265316865472]}, {"output_weights": [-2.0811907552814164, -1.7732720359395322, -0.6655041998452291, -0.7987042629044138, 0.5998807158794953, 0.42964201149086173, 0.48125733203479915, -0.35614450335380393, 1.0174600651172168, 0.20893873033153235, -0.05714323652866485, 0.26338232128209615, 1.1025743668985644, -0.5477348147448162, -0.7162938482614425, 0.6311237275026653, 1.0448266374681374, -0.5164889426916306, 2.0045231628622893, -1.114741737180651, 0.38832598202829005, 0.17390926932714285, 1.3901756272492571, -1.3753170129919832, -0.12446661164154686, 1.5815236117433416, -0.21443624805162115, -0.12968225769017355, -0.9073787632331505, 1.6845026876287301]}, {"output_weights": [0.7622335675460387, 0.6567580245571939, 0.2384476866541426, 0.5964888522788614, -1.0446880052220222, 1.6925678233900598, -0.456084042128713, 0.2802614901172457, 0.8196304955786247, -1.6833751302842146, -0.39912831723152853, 0.10517138152531272, -0.38784400521689705, 0.22913422184871693, 0.6852851445999387, -0.016173002136282807, 0.11168753520258708, 0.17670718120702997, 0.25208264103283273, 0.49233595812630554, -0.10014122106563057, -0.6327725771518256, 1.3680608215307262, -0.6473383272597533, 0.14796848095726575, -0.8130251688023068, 0.15378565190755838, 0.5201465734831896, 0.24891162823614732, -0.01204375302484507]}, {"output_weights": [0.9830454331987618, -0.3040399385523563, -0.310749946690643, 0.17195183364969854, -0.6776130221572148, -2.028919226251778, -0.2671822311824845, 0.4441911996536168, -0.5871401739414951, 1.5771452825151207, -0.5332315996135859, -0.783766338385078, 0.617811462370185, -0.4685656602939004, -0.8892675352731338, 0.5407751827383909, 1.0346670563880185, -1.4559313636381033, 0.8456772321947119, 1.3519335776374768, 1.598357049986182, 0.8087792283998742, -1.1451169437110782, 0.5745617345237101, 0.7517402202040832, -0.17502539595064956, 1.1245310925070975, 0.4542778765446888, 0.05562375604995993, 0.42654038246100623]}, {"output_weights": [1.1152326430144384, -1.6165817409516685, -0.18483092194217815, 0.10225047027460864, 0.9101672939582602, 1.7826575196756784, 0.969057730863569, -0.13442473231151833, 0.2781690793224115, -0.42840029011079384, -0.46384854586704327, 0.5395930569010374, 1.0874517133608002, -1.04349340528956, -0.28833508218499304, -0.6242507284584154, -0.8916311587195858, 0.7399506762822627, -0.3767751104120631, -0.10826624877772587, -0.24803003636508833, -1.3056365714650657, 1.0919117649924253, -0.3867470087890391, -1.0404760828912831, -2.055833243889319, 0.36372055363007083, 0.546424121259675, -1.2601848489176208, 0.13131195881071306]}, {"output_weights": [1.0439613354567574, 3.288140398777034, 0.9610929581877191, 0.8831937059845484, -0.32725589360830065, -1.6626408943369708, 0.8112746719592746, -1.039573186478129, -0.6781633861740455, 0.5284785723415473, 0.7763348880073333, -1.163564079195506, -0.04094908193182344, 0.0341991366885033, 0.8421098601237649, -0.9759110252286145, -0.2570226183710724, -1.3996451200034161, 0.08850457398159232, 0.2725986820613249, 1.791555184488096, -0.6402219797099239, 0.7811908537995742, -1.2085941052185807, 3.1143442694483805, -1.1856009607143916, 0.18991363318293394, 1.4487269578786888, -0.26675932212473336, 1.2177850718141776]}, {"output_weights": [1.0202471243398183, -0.9912393543142514, -0.26945371487475317, -0.5416424207552636, 0.32447508738393205, -0.2946715404384124, 1.3764610044650454, 0.6100845523752179, -0.4449846267964967, 0.7984560703718352, -1.2429315147179358, -0.08200613386950563, -1.2519157072315568, 0.6667492862809246, -2.552784853323686, -0.4737526068883432, 0.6250525453791153, 0.37105030141135315, -2.917916495483904, -0.4124938474456634, -1.487096329943062, 0.10780407103197967, 0.31595324315879214, 0.4433862526947726, -0.22304777568545547, -0.3665665830654194, -0.06410702255069109, -0.09175040259562484, 1.3533475760252904, 0.29881821927146923]}, {"output_weights": [3.4156656711348736, -0.22798815565234126, 1.4135260355665678, -0.3550218869858294, -0.3779134434009304, -1.3651580948745567, 0.24746203223274196, 0.12579962800557773, -2.2372561892606773, 0.49341726598642005, -1.2263243666151176, -0.17372394515749062, -0.39141973352718834, 0.6361624842919553, 0.639985249129339, -0.7214516970904985, 0.7231502057082225, -1.3126460845545236, 0.938680649411874, 1.7679480523513817, 1.1829990564554262, 1.5824009183028906, 0.2559297408806293, -0.36357611650666544, -0.5533336608800984, -0.6044469713537262, -1.0238828406432425, -1.367150694832913, -0.4158323473332675, 0.7519387881803935]}, {"output_weights": [-1.7256507965179138, 0.42538410419300154, 0.5448278842331803, 0.773944189541012, -0.4115076935303337, -0.8678152406509078, -0.16996842045296878, 1.9024919494459822, -0.24653613860765067, 2.249287034834279, -0.9151078049691179, 1.7451615039217363, -1.5254762161816466, 0.28460760075866476, -0.6947214421408475, -0.17610018105923128, -0.5390047975120869, 1.1758990895531027, -0.505903729269227, 0.5600286851386531, 0.44956654935296425, 1.058095293040887, 0.5644722999551439, 0.17075958446738937, 0.2673433182578855, 2.0231337483242573, -0.17368998175079556, 0.46194510273366723, -0.5854762475750975, -1.1091013648936676]}, {"output_weights": [-0.059422240339855006, 0.038337136157754304, -0.8485423216923516, 0.7623275230807486, -0.12349487680460204, 1.4127801738829588, -0.46035728652230246, -0.08706972528192343, 0.9846792400222809, -0.7684080216425161, -0.0010809115234466959, -1.1712748152146992, -1.7906919304011069, 1.4736246687875398, -1.8575421253768767, 0.2919123197343983, 1.5451717037539667, 0.07112405332123613, 1.7231907589321749, 0.2942121345050827, 0.1305673872318585, 0.7353707833905185, -0.23514564062390522, 1.3083783287251574, 1.4957721670830486, -0.4455121954745421, -0.018341512782294043, 0.2261789826939412, -0.8792656138850756, 0.9067472120099086]}, {"output_weights": [0.4095080170739761, 1.2242338968993205, 0.07410652637183479, 0.4709654807750236, 0.192138752780702, 0.3927401769767878, 1.3176099589792865, 1.2135541516372979, 0.20709045108120222, -1.2448024928524677, 0.6787672743583134, 1.8069857738704178, -0.25949425453829306, -1.9415711144633248, -1.807582744553204, -0.9708288149635668, -0.7847093581223864, 0.7731031330680701, 1.6463262338070186, 0.09986378863749071, 0.026690704561931112, -0.9902432044149291, 0.7644534853140904, 0.30793441707628455, -0.960087143522098, -1.0556503185724224, 0.08700462397303983, 0.2822244830988898, -0.10036049547683007, 1.1187550952103738]}, {"output_weights": [-1.3889072966623153, -0.7086320085016048, -0.5493579777720013, 0.8231571286318166, 0.6848836010982783, 0.1808822216171771, -0.008978893324116138, -0.523055430034032, 0.07977329034054613, 1.4684461724079179, -0.4230659384203622, 1.6239601333895821, -0.5149437909094783, 0.47871660280575823, 1.7769931283058995, -1.690183768093406, -0.3870626610844867, -0.8836393939828996, 1.0536859626841861, 0.5637822608370646, 0.07602322898310525, 0.5087797318209011, -0.5959049359798915, 1.3056566953827542, -0.07393261917889048, -0.7078726326694849, 0.5679256177150056, -0.5367473586599015, 1.0611846722376514, -0.23574903897474495]}, {"output_weights": [-0.30836842242833085, 0.6205828226967999, 0.7988205882185034, -0.026231692431890104, -1.0595612581978784, -1.3419617954087442, 0.29045878500364664, 1.0902388386505502, -0.1021730630432536, 1.1353464949783079, -0.2825496320987363, 1.0336822856287673, -0.12410124047889037, 1.1937377687253259, 0.012406339092376905, -0.06167427472711834, 0.7646735040032363, 0.3338684710426717, 1.301876204702797, 0.13863609862015625, 0.5707663105366596, -0.7940235872667621, 0.725079664921352, -1.9597979241688481, -0.05142746993878598, 1.802259298751989, 0.6670408084475855, -1.3122827421504297, -0.3141858081489921, -0.4856054741481019]}, {"output_weights": [0.8342800136534284, 0.15525671673626934, -0.39955685705325866, 1.9834998020880643, 0.9444492695745235, 1.1921710204128606, -0.2314513457779143, -0.17948438084161417, -1.4644576934784752, 1.003046951915076, 1.9232360915215998, 0.9037092534527821, 0.2805118873684559, -0.9542606715838118, 0.5624105314538378, 0.5116843399533333, 0.3892119975283613, -1.8923903422370547, 0.6534193809446616, -0.6774836321385215, -0.8989269423990824, -0.1166764113774968, 0.5317569023652754, 0.27144815736205374, -2.3853982553888535, -0.4288690558916472, -1.408480581860925, -0.6440903368147568, 1.2305297691600838, 0.20540167831969058]}, {"output_weights": [-0.10467388335243943, -1.2708895607100643, 0.8495098078423716, -0.5689669141126842, 1.752081542110638, 1.8528822116147916, -0.31923285936321805, -0.6830840691108033, 0.9888680740097228, 0.6628657047629761, 1.2738335576255324, -0.24301405357052444, -1.4319596707964377, 1.988315623054205, -0.6353268687521622, 0.36674561204385964, 0.2597495132905947, -1.6557102928057799, -1.1330932141694827, -0.4409215545056962, -0.49390477080168277, 0.060975087500951604, 0.8114559645010342, 0.02477781543372215, 1.26205110792509, 1.3525853530282517, 0.13000815440653324, 0.04536621251365259, -1.4739908681836438, -0.30623997646305146]}, {"output_weights": [-1.009500008024934, 0.9060177439879499, -0.691046197155934, 0.6557306488631249, -0.3201755535709921, 0.34393183886733514, -0.6701733703657942, 1.257596007686684, -1.0127141214299626, -1.3653085776882468, 0.04436553841902457, -0.6744210994590063, -0.46575985539249526, -1.6860935057320978, -1.131717633853388, 0.1702331138338709, 0.40961959945481463, -0.41262882717260657, 0.48513094277921487, 0.6641595315152556, 0.4726527122077261, -1.4824341338100568, 1.5680066685865695, 0.6656905308273353, -0.1897979982948069, 0.7051428541528922, 0.42022852420189505, -0.34268638748976465, -1.581557445614316, -0.9669902273763568]}, {"output_weights": [-1.3359609475079062, 1.9021196312465734, 1.078374717836423, -0.37711022140830425, -0.06775944334371439, -0.6479192857785553, 0.6143328334435453, -0.5510815317083575, 0.6704982286772347, -0.6489914193696932, -0.037342568589845256, 0.4640892262918614, 0.8004268639530254, 1.5315783244172538, 0.3965931190318663, -0.17526551079109728, -0.04013092418230052, 0.3579622816306471, 1.086566372299215, 1.0462735818664508, 1.290748537955793, -0.9251635365966664, -0.8140819269250356, -0.07174297984238909, -0.9610683173144395, -0.20160239969793767, 0.540282395552186, -1.0091159484186802, 0.7180868366858865, 0.06401734641248913]}, {"output_weights": [1.0355347557293515, -1.00595874054941, 1.8047629263101466, 0.12672899816208408, -0.2999028205205142, -0.40741652974269976, -0.1189403794849449, -0.8455959836581767, 0.47731902252884373, -0.6471663179609829, -1.4597886366361452, -0.2943272450168454, -0.49251387972669686, -1.5204762824837663, -0.22370927327002052, 0.10873639630922055, -0.692153428637605, 1.0924185008776366, 0.950481155206942, 1.272740935025838, -0.5894893275272858, 0.9833598712267875, 1.7578984230007455, 0.7006822228421334, 2.193462385756352, -0.37163485857330303, -0.6994586297004292, -0.5276394195430754, -1.6001473934085757, 1.2493967029296884]}, {"output_weights": [-0.589381152041224, -0.7657987255566421, 0.32155842678962404, -0.4424676206207441, 0.7844465699830923, -0.42719970610602553, -1.1121149888616975, -0.07423229743329005, -2.5467749407433455, -0.814733126219812, -0.0074173876381382065, -0.25364000531603365, 0.6549816451477047, -0.19278945457981353, 1.3702277165960286, 1.5084031789601646, -0.3464698288022992, 0.5648238237978197, 1.1109746594455459, 0.3078709444558181, -0.6509999157130358, -2.2479034470658914, -0.8384220773912288, 0.053295956428479334, -0.5528932149872403, 1.8398476276098599, -0.5421626462566587, 1.297867817280004, -1.258638001227927, 1.2249050373912762]}, {"output_weights": [-0.11146920934748647, 0.783491792354249, -1.2745505441044904, 1.0600797107963928, 0.3817411308276839, 1.2678946198138719, 2.008686332852364, 0.18540235016108922, -0.49005529050729757, 1.2738914005781836, -0.9804578311407168, 0.38987859184992646, -0.3478730561016625, 0.6370777882083959, -0.7537877146155292, -1.4072786200620073, -0.051833650851019875, 0.022651879728847538, -0.5317466678000502, 0.23732358636866555, -0.3593435831041569, -1.2090039097876466, 0.13191306482927134, 0.03778209873108271, 0.33782819512484136, 1.2252838041740581, 0.40631389668837115, -1.146582293207929, 1.7909231586915213, 0.6615816735434781]}, {"output_weights": [-0.11395090617978959, -1.447328155726385, 0.7687666382056368, 1.1632323533130067, -0.6062561533532314, 0.9255314099014604, 1.6441791780900885, -0.25339374244055196, 0.5381445440708373, -1.7509462679195666, 0.47679392135279447, 0.7736694262609861, -0.6350993653019968, 0.43975480690461904, -0.09948435641734209, -1.424300320328227, 0.23752641796352197, -1.7256028866796629, -1.0765675810423792, -0.6796620365812218, -1.0185428751150194, -0.7804989879659802, 1.9575553961797003, -0.1419095961864512, -0.02398747545009231, 0.28547286222561663, 0.27589301731787425, 0.667426116758724, -0.35375854415562374, -0.5981901699566088]}, {"output_weights": [1.160939445615355, -2.331920303749948, -0.5519493277172467, 1.7225968061599344, -0.2758726014135351, -0.3411986053790278, -1.1004064210648363, -0.4146039609719935, 1.2472956237738597, -1.520485411073393, 0.5781669830879218, -1.3848998762977185, -1.8924317381873015, -0.04455724142941598, 1.070187873785568, -1.1001978945685384, -1.7481366948191253, -1.0629865893351977, 1.8576480601576644, 0.6982241923261197, 0.519147995197222, 1.6153286526899802, 0.4558111430591055, 1.4562377619566536, -0.4886665872680184, -1.723719528861528, -0.056210544673527985, -0.7157857449726068, 0.7128271847866817, 0.2827482191590269]}, {"output_weights": [-2.1310280840074274, -0.1680587996948637, -0.0923448268044478, 1.4098153522455954, 0.34582643413824676, 2.1469018985212527, 0.46636913638639504, 2.2663761306487293, 0.2134422195566642, -0.6537941358507084, -0.6938336325266069, 0.4629919241860525, -0.3840282625362894, 0.9326814914476146, 1.2559315570544163, -0.9859683699397164, -0.7497787138119327, -2.18667967478153, 1.0746478983701704, 0.686365767071602, -0.9683061382968777, 0.2549548827502762, -0.9202725694692349, -0.7101852877363364, 0.15300774463905878, 0.8018073192154676, -0.3283953966489778, 0.4625580307438227, 0.5833690894055377, 0.35324996395888486]}, {"output_weights": [-1.7018486539944229, 0.5216348721839865, 0.1740604597868766, -0.04333385307067541, 0.5722159309405704, -0.32968026745198087, -1.0158424282851704, -0.2573767602944393, -0.7354767614420079, -0.42291125042748995, 0.17804387882642717, -0.2347303811313374, 0.23680926577769607, 0.2741114631987625, -1.2314417634562929, 1.7573311197462416, -1.4789183216545598, -0.1203445102386601, -0.9475954672616465, -0.2901094503499913, -0.6172217718598406, -0.5001268572792432, -1.2500605209642524, -0.12046059148387722, 0.017505009744456276, -0.20574451996271761, -1.0362792685459676, -1.0343357981835173, -0.4672297833736557, 1.441689525183813]}, {"output_weights": [0.8637214583433613, -1.4443701567979468, -0.385059387357889, 0.014337594488476931, 0.6203547380071956, 1.4214779119565752, -0.36271245905897753, -0.7871039090078423, -0.017754462489821137, -1.6074008471139045, 0.18418973776280942, 1.7019579325902048, -1.3357694642125177, -0.632119494029502, 0.6293014015740355, 1.1112067563684456, -0.8810052762322268, -0.22861402811991924, 0.006485124267659794, -0.28063336745080486, 1.9423867515711857, -1.5652042813456797, -0.4132173824961503, 0.6137408357514005, -1.0259215076980217, 0.6401280522401944, 0.04904279538792285, 1.4186214520834959, -0.9774623967670458, 0.004335373771590199]}, {"output_weights": [1.4869041171681876, -0.3642537501138485, 0.29309293810194254, -1.575426853511928, 0.1842171160806139, -0.22723459045386027, -1.8787134612918428, 0.6585043519747018, -0.3348684107839206, 0.49028668603952713, -0.5807113346384715, -0.9599610412326596, 1.201028966728306, 0.04755196054125721, 1.4606758378593008, -0.8588375528371773, -0.5017082282903714, -1.082736798815825, 0.48197309171556135, -0.7515036056378945, -0.04669931811015757, 0.01945654955217797, 0.9155680945291199, 1.061873300141699, -0.7034080226634593, 0.39181893228995573, 0.04258067263556666, 0.48377308500885996, 1.0542865512801953, -0.6756126977737971]}, {"output_weights": [-0.8662885767140021, 0.5851582919571391, -0.6997980513108945, -1.694996887930736, 0.44945949266833407, -0.02980009660702709, 1.5267732424700104, -2.8447126047081777, -0.9623074403112107, -0.9551315301378864, -1.766225173590409, 2.1425944340119902, -0.03045020229855579, 0.12777863998033592, -0.02849349709877297, -0.29152830996620993, 0.6373868815969135, 0.11871913205107139, -0.5724705456893976, 0.011581045691315999, 1.5741458670872603, -0.9203123981535692, -0.5135417204845578, 0.1570102181803023, -0.3352607034349566, 0.6480831917290722, 1.2488139443299795, -0.3609885131443266, -0.9568183772161032, 1.0369169475414681]}, {"output_weights": [0.38224868088059555, -0.5510805740203031, 0.04430296591321536, -1.9598212392658951, -0.5298153415104323, -0.6551095472738527, 1.6131891650379049, 1.0370108490910386, -0.47781703527805197, -0.2913268614519404, 1.480463181342321, 1.06030336690301, 0.8386790609898231, 0.7359561801417145, -1.0204891346728773, -0.3623557274451265, -0.4468142595845408, 1.2402992347606345, -0.44888852501974374, -0.9984296915991431, -0.7678633623817466, 0.45488190236159404, -0.8714647593613911, -2.6365630062513956, 0.6694635360658743, -0.6774710310200969, 0.09508379339789697, 1.1399178487513442, 0.42148585880785533, 1.3187538870082205]}, {"output_weights": [1.4998669328561418, 0.9314096052605372, -1.5190421729562473, -1.3140598721924808, 2.114058743172722, 0.6571169995435614, -0.4505810683599378, 0.557920163612661, 1.0264203738110855, 0.9972747125971112, 2.176113712599129, -1.1959188709804407, -0.36231936687050564, 0.34134227345762036, -0.3147793016172163, -0.746803178665289, 0.016116581386888887, -0.6082669297368928, -0.11787506903866606, -1.3103915779599844, 0.6160383051166586, -1.59284525462654, -0.27448950488098417, -0.4119660031821737, 0.25721840325051293, -2.1732027517839723, 1.227457584419646, -0.006516819100649466, 1.5334723052527621, -0.449188637119666]}, {"output_weights": [-0.08988101482314341, 0.5974979100810086, 0.4732374775452463, 1.179417772929688, 1.7473876034194438, 0.026086342160082054, -0.39052760647724594, 0.29785603349792933, 0.46107807448193794, -0.7449514551624749, 0.7605888410778843, -0.9785267900468061, -1.0501175364520143, 0.3134097862441772, 1.6925650592074575, 0.12870067550160394, -2.4240067582584808, 1.8134632611085701, -0.6078746547130882, -0.543105158822194, -1.4968586226166878, -0.5041276314574633, -0.3555376298789838, 0.08230776986272115, -0.65801677581516, 0.38687752857580615, -0.042285416570968085, 2.274093149260961, 1.9232514865410282, -0.348306617979117]}, {"output_weights": [-0.3887180109724868, 0.08905720968978285, -0.9407307202337468, 0.4116689587971321, -0.7801888987564293, 0.6732574655074263, -0.37606628452710944, 0.1505437282670619, -0.7817033881013734, -1.5706671390889855, -0.8934328507700101, -0.736055084228451, -1.0229863617513821, 0.2397898182352803, 0.4483679802213959, 1.681143009151471, 0.927207566311537, 0.5871331670544461, -0.4117857158391965, -0.09578039784669305, -0.05608222549875435, 0.16317269423003392, 0.7668553853315123, 0.4207502512438114, 1.896254121908892, 1.0732887830148523, -1.0902639327567432, 0.3595928641412764, 0.9682878282535213, 2.1773326407848077]}, {"output_weights": [-1.5537555466114552, -0.21117848093913275, -0.6091208926160295, -0.37978317274720585, 1.9053452672814462, 0.32820657931780706, -0.7428596176323645, 1.6240432058838794, 1.6662724977389354, -1.124057353102561, -0.23230715179994818, 1.6643522195908642, -1.0177281380111214, -0.3988339994509222, 0.58082984145078, -0.14485552856804437, 0.9736417532805473, 0.19609438209705526, -0.3205642239356703, -0.8861892536233188, 1.1156349780663992, -0.805670197360612, 0.6018442252397808, 1.2035037350368238, 0.766259219193564, 0.08447937635695317, 1.0266987712028328, 1.9506137900139586, 1.5400229078005723, -0.7616509922653565]}, {"output_weights": [-1.145536560479654, 0.8056208064826922, 0.4051486368437529, 1.0429066416720636, -0.2952175140051571, -0.721753062987019, 0.3907296500656098, 0.45662597440178193, -1.4597866044178782, -1.7339764428588096, -1.6885952578463421, -1.0540766750202215, -1.2610151819707158, -0.6036723690733228, -0.17402299634666824, -0.28439386893176233, -0.5579464872568195, -0.1743700647077357, 1.2629673432920048, -0.13872257695281712, 0.7657725099490997, 0.025187568736357316, 0.5541377745519288, -0.8926752201728941, -0.19530205502499567, -0.4225749559609116, -0.7832495601977444, 0.4775869651829471, 1.0363440912783013, 0.0713401168372399]}, {"output_weights": [1.921710996223268, -0.3008658263017968, 0.13827396241342402, -1.2773335536082746, 2.1861083361391787, 0.02266289561688317, 0.11467379295413738, -0.4170000096278377, 2.802662773087738, -1.077568285336829, 0.7373401557780005, 0.957601527456012, -1.862133436101815, 0.31416774931107994, 0.43015676143595755, 0.9550133646475977, 1.2407915063284716, -1.626259476353701, 1.107484757347606, -0.15241318142189392, -0.48032213547480695, 1.2166244201496688, 1.2001955800631272, 0.20751341186336464, 0.5213541744786726, 0.507655904065483, -1.7032517871882957, 1.0933950798709844, -0.5954636770132318, -0.47213431749659857]}, {"output_weights": [1.171392559689736, 1.7855447966605165, 0.6122653432635529, 0.8917112945206922, -0.02935176995264544, -0.49320802447701145, 0.14336983565489245, -2.9099164620759055, 0.3830925239827014, -0.6605682180540996, 0.4124565620682855, -0.6659449641100535, -0.15882941668168837, 0.6912740115334096, -0.35696588466884815, 0.22723129627291855, -0.25118049218373045, -0.6016814146494962, 1.1726502469254325, 0.4937627218245613, -1.2877393042340561, -0.2330985275580109, -0.5433728491090595, 0.6861043667990065, 0.9381199214517221, -0.604989836237931, -0.032896213033447565, 1.2097887091883655, -0.7942564787609835, 0.8707595539923604]}, {"output_weights": [-0.21356830954788508, 0.7783330728593388, 0.07223895109136186, -0.6440059875975047, -0.6852589093332049, 0.8107458607143437, -0.5282473459480523, -0.9630782723554399, 0.6390455751610375, 1.2344206712235466, 0.09777432105924341, -1.3522797352897586, 0.04333486242038459, 1.5266536575155396, -2.055398277630308, -1.0104028749128786, -0.3634903334395683, -0.34621859988315545, 1.7185213975192033, 0.45282258000157527, -0.3036610906696862, 0.005763553042260058, -0.9843758005473109, 0.2918095851508254, 0.33458728796401394, -0.3124692637150957, -0.7905919462208207, -1.849269948905943, -0.09570043994054445, -1.7608181416961834]}, {"output_weights": [0.10493981782488405, -0.9900722356370137, 2.4822288454613326, -1.156035369246272, -0.7566754167451537, 0.13636315984837008, 0.9970234117484781, 0.8817829063664767, 1.3227406965120785, -1.2660780459280643, 0.5049503986864426, -0.39457247913175136, -0.5337792394112912, -0.5884061111811286, 1.4265285813906399, -0.630186585845302, 0.8249768840301964, -0.058305900324583236, 0.35369372945199906, -0.3610363387098908, -0.07413185624635345, 0.6794053741333661, -0.435500072689606, -0.07903701764652261, 0.4084649823796361, 0.11852546266466324, -0.9618934656153493, 0.8402732877430908, -1.2896408673786772, 1.204440919984859]}, {"output_weights": [-0.7329262260104745, -0.6859219064105596, 1.8738753811262565, 1.4654521001898595, 0.2984866253186092, 1.5077073483503065, -0.027642356085124938, -1.5726076505300395, -0.057927503792175525, -0.6435401855934473, 0.02054089736660404, -1.6078989915859876, 0.9222513243349678, -1.5935096196851908, -0.0018099467998228254, -2.105124228744723, 0.28888303627583406, 2.204406554084097, 0.48182507330629204, -0.3549653688542176, 0.7026344287730226, -0.25810270190849854, 1.477059780432659, -0.42644097736050957, 0.7000580813593373, 0.31999443407868655, 0.3452653580602391, -0.11608953839596849, 0.9506082374708902, -0.150679842042328]}, {"output_weights": [-0.8694830410638406, 0.4461346243730872, -0.9329034270521814, 0.6763649490411675, 1.5034932205747125, 0.29514795244617487, 0.2900724989679044, 0.1836885396339991, 1.2105326435129817, -0.42299853243422936, 0.4726323429286111, -0.10639170231663632, -0.8804417936813216, -1.2834465129082306, -0.6727529510364963, 1.3730233459697905, -1.0452681129195687, -1.1200046207899004, -1.1328662844460011, 0.32286250050874965, 0.15952218730630907, -0.8219258539219837, -0.7884648597641489, 0.7873064950293188, 0.06839467249147095, 0.19510130659902317, 0.5444886283464222, -1.3628648427468493, -0.6654528810691617, -1.0848692778596682]}, {"output_weights": [-0.005354379761565627, 0.5015771906855278, -0.6505760993622932, -1.2082095242742283, -0.9865315014521101, -0.030110225404508955, 1.3667786953602938, 0.10573938065176908, 0.048153550748636545, -0.920789233291535, -0.47278412123334096, 1.2276410548487646, 0.7708982055016287, -0.1873198512589951, 0.9564443025418524, -0.009232013808996036, 0.12041112447990315, -0.6006051927997643, 0.5734770217720568, -0.8201853642791059, -0.441146113531405, 1.054992212835992, 1.1276039643267572, -0.16932632794128338, 0.2534952362243498, -0.398988399940576, 1.2474357523891915, 0.44932510163552064, -1.471216693252914, 0.18847810465636125]}, {"output_weights": [0.9947139868215513, 0.08294075413390072, 0.9459211138745972, 1.1146008020760816, -0.4731524423578423, -0.5252092593766567, -0.43701772885416745, 0.847850158227069, 1.5204274045417296, -0.8042522536126517, 0.13684241622596066, -0.5791535695576115, -0.4588106074737206, 0.03835627409241265, -0.09851686691165135, -0.5276113358942154, -0.40320297579968156, 1.347606520616275, -0.38729055770604165, 0.3623591616526284, -0.40072894888312033, -2.3756006364071034, -1.4663624543394653, -1.2008328724614814, 1.186086503078814, -0.03581508648545071, 0.7548182824623534, -0.606369100696875, -2.3697016246065417, -0.44097022701127814]}, {"output_weights": [-0.8809880309299094, 2.2819573174906536, -0.2316429132805123, -0.01216426518354897, 1.4545509035328525, -1.187634655931318, 0.08166974893466913, 0.007232451622711208, 0.07702261884487548, -0.3319523023858226, 0.8719261674439956, 1.373262096802165, -0.829420870723892, 0.8082836866485855, -1.145315287302481, 2.7939772899452273, -0.822399361664072, 2.0594361759671194, -0.061452384250687254, 1.254530792054493, 0.5502703377836808, 2.3768985144972876, -0.9221557286825662, -0.3802130575732198, -1.4285189538683924, 0.3752848411060415, -1.11653295758014, 0.5099370972677599, -0.7741958108108287, -0.360218106827731]}, {"output_weights": [-0.883119840683882, -0.6431795980882316, 0.4807254210682034, -0.15473184649823074, 0.4644260526263491, -1.5311447255570922, -0.7066075688092138, -1.7826498536433029, -0.06612832925298931, 0.2203682215568594, -0.782027079769688, -0.6847118426417519, -1.198599769447, 0.16361611025354944, -1.1418318510357521, 0.6587040476737561, -0.0006830725529218969, 0.2792504973292063, 2.0034074829336865, -1.7269306639736264, -0.5972999449689333, 1.4728127196088145, -0.22895707804768436, 1.8748276636136612, -0.2732507050724494, 1.4902158550658338, 0.21801665254664854, -0.14822431494314653, -0.5863860682640224, 0.38053502514031756]}, {"output_weights": [0.5991756077391823, 0.6568467051202883, -1.0196446048506738, 1.2033169971432116, -0.011542920257715606, 0.28693912537167815, 2.4340992881195205, 0.3068620790224591, 1.1209001356665058, -1.7202899623421648, 0.09401714768955555, 0.14769174400366494, 0.3806613235075736, -2.18619374058367, 0.37109779765706197, 0.6318737166620944, -0.3701908793056733, -0.19126147628529153, 2.0030933831599382, 0.7899390820462535, 0.22582934632825674, -0.6094868214757119, 0.39377107266252365, 0.9488634006522303, -0.5692314058916705, -1.2252944152470824, 0.4791961586029906, -0.2420357154703568, 0.10303107516132015, -0.47969212761955016]}, {"output_weights": [0.3998501481023801, -0.45047638889361796, 2.8793539787078806, 1.298001553024073, -2.237493922624206, -0.877124218477582, -2.1444237816789475, 0.018367253943654814, 0.30444607371627785, -1.3893720819628417, -0.19005771450415518, 1.1466398631624029, -1.0271701312619304, -2.445322901183353, -0.5837109183533423, 1.6088504661457024, 0.5662463051128134, -0.6196039798544736, 1.037253713799899, -0.1233809140409589, 0.25669848534228445, 0.1184490789704637, 0.5400370851597245, -0.5914598095339773, 0.46975062376734245, -0.6721572023673738, 0.7154288910774259, 0.31632995539417874, -1.0721676219061351, -0.2945788912124368]}, {"output_weights": [-0.2087224317440546, 0.17294932563711574, -2.0175060452982714, -0.12521617832476378, -0.2373424030686479, 0.9308580568879368, -1.4843004431708229, -1.3293915842165356, -0.21207222090751046, 0.2699773020411978, 0.6470700778278522, -1.0402434886641818, -0.17018116197802613, -0.1822239367389924, 0.19494260553423295, -0.26060240441238663, 0.36987751611789615, 0.7620940601954048, -0.03449323466540515, 1.2833485726016802, 0.06553674236864553, -0.8892226823698084, -1.0873293330446727, 1.6848736144253094, 1.8603071882160793, 0.4083155711896217, -1.1692696766078703, 0.17917779200915415, 0.21512477125459026, 0.8026525200588228]}, {"output_weights": [0.12635303751347143, -0.8080692255302967, -0.2525665452075302, 0.15617962774398425, 1.0677441162920653, 1.4069361267594205, -0.7398559969037606, 1.0859472671982682, -1.1743177585421847, 1.0884415110834802, -1.6747304391857754, 0.7869373520326565, 0.15735894032207584, -1.187240924681042, -0.6690962946502366, -1.7673437361361082, -0.3556794191854866, -0.01720048616547569, -0.6288921414445634, 0.7343049441374196, -0.04297749728436931, -0.8843589289944095, -0.7917932009687266, 0.7442795440514319, -0.773007800996567, -1.532549228978932, -0.5827862563289058, 0.10503701180820083, -1.4867014729948056, -0.05466745702137912]}, {"output_weights": [0.07771678357813486, -2.791387702147658, 0.023752500050347566, -0.7167189229872976, 0.5732584035591313, -0.9491911746676706, -0.8611082354909928, -0.8735766094685127, 1.217210345392363, -0.43706138450321375, 0.8282783152279155, -0.28508179724068006, 0.36361607631109377, 1.3661693462870637, -0.10903873070131911, 1.8091666704663198, 0.055328147911994356, -1.0111554784004708, -1.4294802284910784, 0.7318580457837542, 1.3824350875048435, 1.0314237458607907, 0.37011772024856593, -1.1682354355683697, 0.29634928181456865, 0.8423642529592866, 3.100188580171573, -2.3841614841003294, -0.3399768289603824, 0.9275333790852236]}, {"output_weights": [0.464788390583995, -0.1307884782531483, 1.064137978592137, 0.2912297339373076, 0.34504338365697396, 0.2562290310177719, 0.6798635982062087, -0.7579116187730721, 0.8488228249439355, -0.7537172444984042, 0.009681810058953914, 1.669487660148763, 1.1893482354613236, 1.2815347151156966, -0.2823301230715038, -0.2832202843977799, -0.27456688698417364, -0.9315090366946536, -0.6691850969134532, -0.280104308220928, 1.1340841778041635, -0.20979593953588635, 0.32310772126035503, 1.2317693457662435, 0.2514390243930438, 1.0890526854303535, -0.402184733495532, -1.792715518778121, 1.241396523139414, 0.27390135084048256]}, {"output_weights": [1.1575155056315687, -1.1179707690721261, -0.8935076088224424, 1.852313742344584, 1.001422210922859, 2.4211848782196146, 0.46415416361872996, -0.4388985378344781, -0.15235004622383386, 1.7379178807893252, 1.1599991046651366, -1.4117416522823631, 0.17075331467405586, -0.316833017514366, 0.9330612733212946, 0.6881857487529771, -0.8621837075974116, -1.3319346989999523, 2.3652503796121978, 0.4347575800973887, -0.35051818968195547, 0.23745501031197466, 0.668594232010476, -0.7935262721662686, 0.7705335559895047, -0.758148175575982, -1.3408785517850785, 0.6097699346209728, -0.12078881538751832, 1.1975763407403004]}, {"output_weights": [0.1370615954261273, 0.7471377293085458, 1.049703909089347, 1.1981352937757674, 0.5911009223410537, 2.1167944146842914, 0.7736603470651505, 1.1091008445326551, -0.49843105060351606, 1.152244757449661, -0.22037427511142482, -0.9594459297476629, 1.9512139377730722, 0.6356335012153524, -0.152862263046758, 0.7477535239298163, 0.7685763485614544, -0.427433801173677, -2.2824857246990202, 1.0663913975223012, -2.6799890267852935, 1.0675461639704957, 0.7863138088525632, -1.6426612248862613, 2.0186931534496515, -0.11506786003407518, 1.269331095287539, 0.29225360036462095, -0.6626522582723576, -0.4918098054110831]}, {"output_weights": [0.9997475326142748, -0.5484933427716178, 0.899313387419196, 0.5456990581982598, -0.495093649629616, -1.0866042407613261, -0.3582994490004858, 0.9758712449628385, 1.2063315336090696, -1.768240224010661, 1.0712442042076997, 0.5063370340431024, -0.8472757135104982, -0.3746253235514612, -0.3395032807456073, -0.5750339883458149, -0.7960510927435274, 0.03688341689926852, 0.3173085546503298, -0.5546540643207815, 0.17024745978035943, -0.7439095024058131, -0.18919475959106688, -1.1680790813006106, 1.4605796857844595, -1.673612548551843, -0.03541478377653942, 0.7716714752010851, 1.8815508485931884, -0.5677045546914581]}, {"output_weights": [0.7921291503074561, 0.6044068741079027, 0.49956473815984476, -0.7487692701284087, -0.19078935210355408, -1.3240171169113253, -0.0008471895234107937, -1.2024994386580072, 0.13331439491635655, -0.3240313059178748, -0.8043401262685328, 0.5058822030923577, 0.18980118900198814, -0.08460825685551039, -0.04965599629320095, -2.005260162217288, -0.37105176968307585, -1.1076990442793595, -1.4223695897653976, 1.022984703884872, -1.150140364329909, 0.1286091744559157, 0.6195536642902052, 1.459290576276181, 2.092346640252106, 0.6576540866766651, 1.7638003844512862, 1.638128966488482, -0.7356583930601429, -0.7056051588255168]}, {"output_weights": [0.37168500836142887, 0.272315292865417, -1.1429857295989863, -0.09371853964041943, 1.4247014726682048, -0.8264188108739727, 0.24844155063124343, -1.4303197686370666, -1.5815105796378357, 1.0053550461440335, -0.1881663106046527, 1.3435848185085177, 0.6679624143530356, 0.6370369954477605, 0.0738157311519442, -0.8143331075593269, -0.8267338568932134, 0.8436808420592158, 1.61484360561981, 0.8861839186040531, 0.7066316363737554, -0.18272663965619299, 0.7343190166786374, -0.905455006963502, -0.8963608680346252, -0.8458486046505393, -0.032575185003924124, -0.7482226390210269, -1.1103681014831381, 0.9144476257688184]}, {"output_weights": [0.49292939217228654, 0.3078887442914879, -0.9778125539482284, -0.3988861893818187, 1.4454259408680574, 0.5706714299885103, 1.1549771698758353, -0.7546855924299206, -0.6912856235143213, 1.3484154617683224, -0.4746792249186329, 0.16121121174605121, -0.5808399997828635, 0.2963230249623732, 1.3375948428496685, 2.670227838176146, 1.497052583971639, 1.493540076451458, -0.18496069983064561, 0.5343635033048111, 0.5625298532079732, 0.20680475578729235, 0.5327840561226176, 0.9256399981354977, 0.31248057139981533, -0.5126408892092583, -1.0912107934472883, -0.5452861703262797, -0.015503493970785718, -0.7209227808665983]}, {"output_weights": [-0.35891319399435245, 0.1159793616269144, -0.6003565738017752, 0.9482605764836518, -0.7113334237188306, 0.8949604545352714, -0.48925988896405503, -0.014910343206335613, 0.953897088436028, -1.3262928349706444, 0.40198913646807294, -1.6757929078352984, -1.3653262107656132, -0.2382866920979531, 0.4342640392766637, -0.1909427082778915, -1.2862715617959506, -0.15752427174548672, -0.9612123371576047, -0.8123901699846257, 1.26678016052673, -0.6144522234556548, -0.1589852626537383, 0.06074020714460723, -1.6049580603256477, 1.9799970855100124, 1.101969941858583, 1.3790805243435649, 0.19586410779455177, 0.7961719789357636]}, {"output_weights": [0.336225095701212, 0.22592745409138826, -0.7231624664526431, -0.7782369730794632, -2.0037014553573695, 0.41117395337325513, -0.8535019858909164, -0.9394364122253744, 0.08815004135048729, 0.2723271929029981, -1.7278518141530559, -0.9608378261574667, 1.3787845637170153, -2.5851152493778025, 0.6748617910806407, -0.149312881114023, -1.5006628734253755, 0.7666572591256262, 0.21678160840345476, 1.8879477263571214, -1.3181378317556876, 0.6746513272366138, -2.067076579304895, -1.299110708863569, 0.8132795724430659, 0.7408464783355846, -0.8739360276187915, 0.06176392303541233, 0.4668252519249074, -1.047490079975281]}, {"output_weights": [1.0405735437792558, 0.8786887350586041, -0.0020343161002204535, -0.4379773567477554, -0.5713198717929902, -0.5936886683398438, -0.25177057979975653, 0.17586252820449993, 0.9480340921173518, -0.779494384424115, -1.1185028411561457, -0.12107177935346797, 0.034766638845228584, 3.1255376256920075, 0.21425291687175652, -0.7449639623542103, -0.9670703699604196, 0.6803377567259247, -0.7128450225191146, 0.8785464187983625, 1.952951874721083, -0.095496158557768, -0.8886827529471653, -0.20294090494007772, -0.6757032054574306, 1.0430405009955772, -0.01955897187413359, -0.07826154402832355, -0.17340812515898246, 0.3198921837826701]}, {"output_weights": [1.2258964729096025, -0.43976136938061533, 0.4332267067943468, 2.070906864191265, -0.8115954989597626, 0.1781928758876045, -0.02303091381775015, -0.9185834504449778, 1.1625451367831328, -1.2302330497541596, -2.1527956092605223, -0.44589027724985186, -1.3046760260167678, 1.0065719467341663, 0.8250735384412239, 0.07696546799827213, 1.6495436648562163, -0.8300620728283262, 1.182579503964095, -0.2663600719550456, -1.4909022505538165, 1.078327975402919, -0.6570021649777298, 1.1918123651847978, 0.26893137981809123, -0.8054667770593665, -0.3269810127888988, 1.2038367206883702, -1.5003854665612382, 0.4975510868389974]}, {"output_weights": [1.5003371456707648, 0.5467195851984097, 0.03997161771878256, 0.7389464123778544, -0.28041158319218035, -1.0615765315107006, 0.17807326382277136, -1.63643827977552, 0.885035980912917, 0.2026401314785584, -0.21874196779732547, -0.7382649765569012, -0.18321848172860855, 0.19525733068483664, 0.2684502780728957, -1.448039837193624, -1.0360732361641924, 0.057963332678105536, -0.22796017692756854, -0.08029221099342101, -1.9866292230582259, -0.8850633085804451, 0.3039126630682515, -1.5471183957416308, -0.65466795464052, -1.2909575398735182, -0.6350007606284114, 1.5846362264282208, -0.46526896275344254, -0.9989570824538212]}, {"output_weights": [-0.14001415409062198, 0.4935769334725035, 1.4643357205782885, -0.09890331998269478, 1.392417386120628, 1.6477896161828012, -2.092364517405153, 0.4954863650041466, 0.10342786974266438, 0.8520618288392664, 0.7776829932045941, 0.9592579919427933, 1.1038860766873173, -1.2542882402262607, 0.7116465073456706, -1.6304279836095867, -0.8074928227744597, 1.0078200602654135, -0.07038014981655358, 0.33454863842353694, 0.6375992683400775, 0.9574228139185469, -0.04864668807224252, -0.5557777200380132, -1.6173446029782177, -0.9794109788306284, 0.5463035401521548, 0.9409497589306448, -0.9170277403675346, -1.5734929645375508]}, {"output_weights": [0.13004807724148457, 1.994424385859147, 0.23987941653039005, 0.044855069045867516, 2.2770867463408155, -0.29717211657591125, -0.27389630742956833, -2.1415490206956362, -0.28514934451727986, 1.0459705371424322, 1.1680349196876962, -0.1827410632062242, 0.7117867512337112, 0.5243591433049484, 0.5188724569861835, -1.2374232229379711, -0.6980219546279828, 0.8940171944383786, 1.4354696194441878, 0.4485921520909803, 1.663204754717322, 0.36573949028720565, 1.3020424270976405, 0.6629127191535245, -0.8219877716963012, -1.5078921195018877, 1.265001404732058, -1.6121690353494886, 2.163112524405187, 1.6585267032058986]}, {"output_weights": [0.10616171500234754, 1.0286407996813522, -0.25671736859057903, 0.8277140202475441, 0.3601549211640563, 1.8297432904975994, 1.5260588823545291, 0.7041269749729612, 0.3050244635174266, -0.2903829922871921, 0.13859543023346302, 0.2982480077621941, -0.43457400523850404, -0.45806279339602274, -1.6917253213147927, -0.5372340777033003, -0.6420222099021676, -0.7894521150172842, -0.8543463361014306, -1.4710208507944522, -0.36878701304004013, 0.0816518056262637, 0.07926621961496093, -1.1627001205613852, -0.17332653949193855, -1.8923825525003968, 1.0721032846588008, -0.3750954573768391, -0.8788004040143402, -1.0869357115705853]}, {"output_weights": [-0.5096760191242099, -0.636971670194243, 0.3023857281417399, -2.20913468888838, -1.0886241342254492, -0.7683302975539246, -0.08770869568176684, 0.5657218826290028, 1.2195972845489724, -0.45870031355782137, -0.16489422552062552, 0.39976167423803105, -0.4986019377976809, 0.4105536757418735, 1.3821612882750602, 0.2877747543593687, -0.710221380613544, 0.9630609662260468, 0.8224058451553456, 0.9848598395481146, -0.0064412809362890105, -0.5502394637319309, -2.038363065568282, 1.157799131242917, -1.7215934732909066, -1.5767236882719722, -0.624204358704684, 1.0030330312130458, -0.69353062052376, 1.7498735467002384]}, {"output_weights": [0.1873844974155304, 1.7999400269113293, 1.8106354967404887, 0.18736148953789286, 0.3873545708974816, -1.9917808039340203, -1.1892848392531672, 0.018674645857466046, -1.0195500038955303, -0.8213395773585925, -0.7956229060641509, -0.38701127004514535, 0.30942228857365633, -1.097840206248222, -1.4253226405274257, -0.1052169946572449, -1.3958132181792886, 0.6482407755079389, -0.30596419184313384, 0.07847755623476094, 0.08038252420003184, -1.1574452034153235, -0.8847984410011631, -0.7286110909780137, -0.7480126389469666, -1.127200187346137, -0.6898756300508889, -1.2188317716930133, -0.32912651047587865, 1.9170493330135625]}, {"output_weights": [0.0026311795790916522, 1.6068175789059713, 0.21437066453095838, -0.9836298124940613, 0.35376588986254437, -1.4039831557914642, 0.9345327175976027, -0.4275888110977933, 0.0758024344062569, 0.46479465433309536, -1.666013055420428, 1.1869283712182022, 0.642632516066388, -0.507821314949975, -0.9148265536159433, -0.21334784524691605, 0.3451198117469798, -0.3367081701926438, 0.17130168517827024, 1.4272336615356873, 1.1806122871684688, -0.3495728955718685, -1.2642019202021744, -1.1825863580857572, 0.9488795874368586, 1.0781287512581266, 2.9405292981110556, -2.2022067492432256, -0.17892721068016457, -0.028519979730107513]}, {"output_weights": [1.294751118363135, 1.3681446826753079, 1.022331997641736, 0.8667964557823609, 1.0249730846391363, 0.5118616519765411, 0.12039236686407094, -1.697703610584966, 0.9555109299312249, 0.9771039234230846, 1.2337270932233004, 1.0900553237274022, -0.024903365314854407, -0.29980367743711267, -0.18800057480919766, 0.259189037301809, -0.545465521098937, 0.7323710722626311, -0.589511736236098, -0.1601720314070216, -0.04186927541697566, 0.1819869898173541, -0.99678740182067, -0.794658964340793, 0.20516534814139142, 1.1331401037505697, -0.07757477799374536, -0.18174878825080976, -2.430651988176383, 0.38929629853130204]}, {"output_weights": [0.19710723306072242, -0.343759639084052, -1.2713343677716022, 1.090555770169392, -0.23896834707147604, -1.5326210753725946, -1.6357751930702933, -1.7035630655510108, -0.8014210331423788, -0.3003797455399762, -0.6105797472380421, 0.05448848779970799, 1.1479778632034445, -2.966510916907757, -1.272559654178194, -2.0041351459041956, -1.9437788098074942, 1.909840405477566, -1.106499894086804, -0.4645161581475945, -0.5375045406980332, 1.03263815760045, 2.1137266544024413, 0.5044183626676115, 1.0166127570069028, 0.4583171459005443, -0.9959904931521024, 1.8270090763921703, 0.03262227110476251, -0.020460915725635947]}, {"output_weights": [-1.4960611859677952, -0.3115563472146791, 0.284017035819826, -0.7708616985686221, -1.561976669335332, 0.8597165220713141, -0.3861620403188033, -0.6755582437816882, -1.5055758282839273, -0.10225092340128364, 0.28191786362187715, 0.09467605969747764, -1.9325397701817946, 0.4688566680277609, 0.3598279782408707, -1.4166886460767705, -0.5952960041251698, -0.5014707903041317, -0.6231842928997586, -0.3828039491805845, 0.36346770162704406, -0.23520866083597095, 0.22040439739601175, -0.8747034026218496, -0.7688283445303289, -0.21416543019855666, 2.08693611299453, 0.30142969135149555, 1.3165488162497103, 1.554297278925191]}, {"output_weights": [1.0355322410368593, -0.0009132490314908208, -1.0686813001264257, 0.23077103070802174, -0.8667087951642641, 1.4733963257116858, -1.5398651658368256, 0.5134546868096361, -0.20790352981287238, -0.8928234709941052, -0.9636488290906633, -1.8476142492641374, -0.035242741579050836, -0.2729339588617132, -1.0239528901074577, -1.057984401963771, 0.10139995214207982, 1.4537454688955544, 0.31295733126407055, 1.6769687961040771, -0.48380488046450554, -0.6574317361834112, -0.2015499576560886, 1.109928754116553, -3.2873561274521355, 1.9121169015144697, 1.0739923648266514, 0.228750616205965, -0.10146009837347622, 0.23234415746319173]}, {"output_weights": [-1.8197441199353364, 0.8724514171257823, 0.315134625820469, 0.7578692657441775, 0.8136200529265797, -2.3167347184588074, -0.40194125527832103, 1.0109445887212483, 0.748335589394595, 1.477258414478403, -0.8903995212461226, 1.4286400220997681, -1.5245057243465476, 1.2150291352881728, 1.5826260028324433, 0.3719201151561259, -0.4936645663928034, 1.175245952959216, 0.4159995334229855, -1.1943923139007573, -0.2542387656322589, -0.6925540436591838, -0.5029893723187013, -0.3217594200585562, 0.7347093606571173, 0.6753029859728061, 0.5539147027861187, -0.359256173646163, -0.11222897006704433, -2.2337546646961774]}, {"output_weights": [0.1633015115844704, 2.6857655691466302, 0.8172994441305884, -0.39706003349747937, 0.8188912214245386, 1.3114426282233638, 0.722450276148409, 1.1611913952577892, -0.6603858448697336, -1.8084881630303855, 1.6286755640185182, -0.5274961961172613, 0.09179520860332026, -0.11835401855283796, 0.4050439144642317, 1.0004600507526638, 1.1474690846133195, -0.9176497431065299, 1.542348714894722, 2.05269113785184, -0.9878778448214001, 0.12793432997856438, -0.7606502286912864, -0.6788153390174942, 0.010459706905697369, -0.8893820666912031, -0.16217783057269294, -0.778152226004518, 1.5907290537776944, 0.2549798771503853]}, {"output_weights": [1.9742297756681086, 0.18500466294466095, 0.0923767542993917, -0.008689513991098087, 0.7608070319467369, -1.709331385911656, 1.0287681933474195, -0.7820462694063027, 0.6154980089610191, 0.8700040206729726, -0.17402879386972114, 1.25441074227057, 0.750870734912562, 1.9248506303389907, 1.8052763815305322, -0.7770975200934024, 