{"template": [784, 30, 10], "iterations": 103373, "batches": 10336, "learning speed": 0.03, "batch size": 10, "data": [{"layer_type": 1, "layer_data": [{"output_weights": [0.2527438917842491, 0.2950097268161453, -0.5101393910858885, 0.18889448670847325, -0.49218715725596435, -0.9790204186629577, 0.12706934702610811, 1.922750424005614, 0.9652158405068404, -0.44325961821006454, 0.7714529121852216, -0.11542534371529653, 0.47648451992608937, -0.790269188444601, 0.06696485323211894, 0.31578325330238066, -0.07463436771496036, -0.5101563808512015, 1.6423606751600954, -0.4821339695638367, 1.4151730817758463, 1.498532337870265, 0.17725910761813846, 0.472611387330136, 2.399294453300808, -0.032938107775029944, -0.21361041125815883, -0.6455431262757579, 1.5395103260252574, -0.7438998373724992]}, {"output_weights": [1.0773146365088384, 0.4009970460443855, -1.791832220550691, -0.788634533319347, -0.7803332529355832, 1.1752865562168768, 0.7655280811914256, -1.4464107238085906, 0.07567752564883949, -0.6057476997913727, 0.17294813560850963, 0.33508428412964525, 0.30899412105339347, 0.09438199702674768, -0.45622646822307433, -0.23362169860738605, -0.6908487654544956, 0.6733512222354673, -0.6389214868985338, 0.9937484239560094, -1.3478730430391932, -0.024204200918283757, 0.37426769446837765, -0.8036488703585202, 0.8052908210055711, 0.6364774951585087, 0.5730896206908394, -0.8425500588058366, -0.5588811417003117, 0.5108684542878378]}, {"output_weights": [0.9405490116351343, 0.7148567204984684, -0.03856946527411314, -0.4909069859975618, -1.064674840854428, -0.5997239905004057, -1.5891981836921236, -0.031489386064101024, -1.266714625437276, -0.7809759013947902, -0.8535312090500028, -0.04886309309303795, 1.291962782877542, 0.7836618572414337, 0.009814976400366401, 1.527746060382386, 0.16272782418267862, -0.7842158462129681, -0.5938656216677343, 0.35304261723113295, -0.3526282325965246, 0.43574449625202316, -1.3264564504031868, -1.6030892726600652, -0.5217643625625482, -1.477866519834914, 0.9211273178489818, 0.19602012472774716, -0.9812815241353458, -2.93322200893765]}, {"output_weights": [-0.11456687556124605, -1.1555124320464836, 1.0458212924517425, 1.2742140094401524, 0.5191194097738119, -0.8393530754778109, -0.7190292598525154, 0.5532215271158861, 0.9391657616777623, -0.8004061395792729, 0.45227181022265567, 1.0269695136728225, 0.4036349247394748, -1.8110074661703262, -0.03131761503162327, -0.01499543180649049, -1.0690133499686103, -0.0376477453169333, 0.21033695424885582, -1.2339274652493761, 0.2976778149209488, 0.2953148236953597, -0.6492053493576757, -1.84620934444062, 0.31658894857332454, -0.273251584040903, -0.5907804385486386, 0.07341215019036382, -0.91305435574288, -0.28324340427378814]}, {"output_weights": [-1.1915786384957368, 0.3606435916393283, 0.1520562814323616, -1.598029528996293, 0.17286170302770598, -0.5133354690937699, 0.12056089418020687, 0.10720865799428722, -1.211707618894033, -0.6998522912642446, 0.21119225833771985, 0.38731541913740863, 2.0121835172001235, 0.5401528698645016, -0.9166863769605837, 0.8110891551993175, 1.9294368183683377, -0.2261943826242223, 1.2176098547449439, 0.8419662173644469, 0.32499655575411485, -1.1189531512594917, -0.17563784677960034, 1.4750866290288538, -0.448169672205108, 0.8427532415037228, -0.3151781527039135, -0.005181624760457013, 0.13993580644671177, -1.5411879708979332]}, {"output_weights": [1.2845019057042093, -1.239968331688958, 1.6924495792406458, -0.06841279058591339, -1.0321122074194282, 1.5043253514821322, -0.8856288179440667, 2.2090001912021116, 0.7382508744873221, 0.06470805229071923, 0.6408860031749154, -0.5051044301332074, 0.4456184823880157, 0.14177217641709003, 0.9249591852744674, 1.0096042486519008, -0.5191974862638983, 0.6762026524320138, -0.5995578104824838, 0.4549564228443514, -0.7788754042418342, -1.5386331106547453, 0.3572410452913678, -0.4303882448098141, 2.210223472738537, 0.393565503137145, 1.2908204481578174, -0.752324882317124, -0.08865717160686486, -0.0809340700893994]}, {"output_weights": [0.8537213304594066, 0.1391960943885905, 0.7062905179699, 0.533970423318654, 1.8138484791762455, -0.8964003138461142, 2.467538891155562, -1.8978389025357927, -0.0012114315908768277, 0.6836889412281865, -0.18681318054662147, -0.0017550711714029155, -0.264552778896245, 1.50539140336087, 1.2472274849138365, -0.026221728650564165, 0.6071294949621853, 0.04909298915858012, -1.4591768906566007, 0.5521184960281936, 0.8309721042089613, 0.2771167543964021, -0.27899661839895556, 0.32028438842676205, -0.4763198846156224, -1.4788063589405134, -1.1210641253532867, 0.38893706523116767, 0.05561220846390841, 0.26291389445785435]}, {"output_weights": [-0.7745736316230605, -1.2783055449640626, 0.41515295499934074, 0.14038360028723096, 0.536150411582954, -0.5540639252910494, 1.9025805575309327, 1.8533395798020929, -0.7967305069511866, -1.0920009069525245, -0.7770474390231775, -0.22526266169633694, -1.3079630424190092, -0.9728221639844185, -0.5673621018748061, -0.7472352063305261, 1.1203360628959844, 0.7297070522779701, -0.8686237901482469, -0.5117299821486708, -0.722913698737373, -1.0372687344716784, 0.03947358832765327, 0.8351370223119591, 2.644561954313318, 0.9564347338077519, 0.6734304904064959, 0.3544956632330638, 0.09679207708803265, 0.9108564717043456]}, {"output_weights": [2.2308764623100945, -0.8496123937176664, -1.0119655997466035, 1.0271367500971071, -0.14910619979380435, -1.0746622833323045, 0.6483818734025353, 1.0339302963332966, -0.4740040672295161, -0.7027186076505924, -0.9542410960444422, -1.7213541334255764, -0.18503515699788556, 0.4591174066484688, 0.2730811073126152, -0.986469801168678, -1.7013130633242217, -0.2681276720307227, -0.32351309296484854, -1.005812551396242, -1.1883643203175038, 0.3731697293071776, 1.3137246920220398, -0.24521413879112536, -1.4605005454103666, 0.2788665152911881, -0.8293631359982102, 0.2672871254132325, 0.09504303682732418, 0.942838351417762]}, {"output_weights": [-1.8665468254030926, -0.0005629922477907198, -0.8676408615896057, 2.3163500911261825, -0.7746065952209277, 0.44293965736551705, -0.6252978866017493, -0.15461504241076474, -1.3964534502123016, -1.082925472959134, 0.9564535752322525, -1.1638523039781914, -0.28169584001614667, -0.5011995105554363, -0.8338668473178007, -0.7562447620375873, -0.21230529418528982, 1.3964362219541808, 1.374554443892478, -0.9665880741116094, -0.17852408898436975, 0.7997468200382704, 0.0861719187955849, -0.10498163966354959, 0.1970676343757143, 0.5149741769704286, -0.6631538425916843, 0.7240740341612534, -0.22327502527192716, 0.3175930313256736]}, {"output_weights": [-2.236387859850438, 1.336502689147162, -0.017860550602844756, -0.7360909732989049, -0.8761056502760908, 0.0002720095868995693, 0.016717440170427002, 1.212805367029229, 1.4760388884945435, 0.1860208266221002, 0.30562846691470974, 0.6204302432924281, -2.1014406326534973, 1.625830046931875, 0.9501151387133241, 0.5670701431589644, -1.2850454525620805, 0.23147886191325834, -0.3337793418715652, 0.8741363230288335, 1.5169448243070278, -1.1515747879981817, -0.33833572445153776, -0.12003447178636074, -0.16779421139837555, 0.5714718851224437, -2.135576637695156, -0.887131930527637, -1.2322486744876429, 0.6859184884118895]}, {"output_weights": [-0.17346762275402214, 0.46688684996014584, -0.3886529678191616, 1.0675232590035224, -0.4367607447620143, 0.8254048276349168, -1.3937121790185583, 0.706199513465911, 1.0483841424620974, 0.050602302060525864, 0.734923436894901, 0.013956304281229015, -0.17514395664858695, -0.444695243067004, 0.3011394672841291, -0.4199301489874623, -0.2655635069479108, 0.21771085551065836, 0.5045208466527383, 0.5198347008363295, 0.3144668965709523, 0.7008627630038963, 1.1314583004825962, -0.013126551331962076, 0.5391823130184932, -0.6666191334622786, 0.7593540236992495, -0.3077072654396909, 1.1540660591746708, -1.9596298237626675]}, {"output_weights": [0.5571119387134906, -0.5695484437412567, -2.3402329129796478, 2.1639957594210415, -1.5272086126284337, 1.1413199909635166, -0.8087623537707563, 0.14271568506492857, -0.9819356494631682, -0.23117706157627138, 0.8379027127685736, 0.679316330987386, 0.2751751647450377, -1.514005390879853, 0.4810176495587451, 2.195226171932134, -1.4230020886046788, -0.2538852425440112, 0.08657613811315945, 0.9685454303353662, -0.1774964949383166, 0.24469750651221547, 0.896318742553713, -0.25253506058450575, 0.6916189198173479, -0.009806551330191392, 0.47656318325153185, -0.5914607104834549, 0.7852732876084699, -0.5992827023974212]}, {"output_weights": [-1.047415627005132, -0.5431271027786037, -0.5473258655832911, -2.3141831794017667, 3.3540795605336746, 0.8997329243085246, -0.014898365267073728, 0.7370265713723207, -0.04433169973881844, -0.9341499393483611, 1.5648201626826388, -1.899450160737357, 1.021617823045813, -0.6379919401702155, 0.6186921571981869, 1.778491941809808, -1.0363560319499425, -1.2568204807508125, 1.814727374756287, 0.08973895679680789, 0.9682703886893703, -1.233071330222916, -0.8782865412942337, 0.48674447450627023, -0.7465305416385026, -0.8639780267329521, -2.3746606312401504, -0.07795533119624384, -0.995429924690395, -0.23622248169884152]}, {"output_weights": [-0.8175227694204693, -1.0279849012563822, 0.9345667496465967, 1.7088701352441311, 0.0730087385372669, -0.5771122271754043, -0.00859904705685923, 0.9295226451960376, 0.17560068614319635, 0.035110697197655694, -0.8143097475260653, 0.5642135674429364, -0.745170501094059, 0.03783179558932419, -0.5321664003365485, 0.29042258217614625, 0.03121944307065334, 0.2965948084027793, 0.8072536632114267, -0.2044413327627412, -0.1419089864216977, 0.1204940935184588, 0.9425575615259103, 2.4212499415003723, 0.8703135438471409, -1.527167816962181, -0.46023488078114166, -0.749779400975473, -0.624248358908808, 0.10742116240176326]}, {"output_weights": [0.12486206800352828, -0.5134476405171234, 0.9588076097722247, 0.3911599007049738, 0.7461223398661171, -0.2615919794539498, 0.8115324245021516, -0.3678655950465745, -0.5543056146395348, 0.2662340767345044, 1.7782070450367786, -0.37585128976058113, -0.17021345047341374, -1.1666834450904906, 1.324593086547983, 0.25680745596896065, 1.6143206020412586, -0.6954358189648278, -0.2330101419956168, -0.11907973052826505, -0.3865754389322063, 1.6601947967759292, 0.4705456742248071, 0.5772125800895336, 1.32548520792366, 1.1607325805348891, -0.43793022254273417, 0.3852062607288159, -0.6606587177967654, -1.7632774132965086]}, {"output_weights": [-1.4654184645846853, -0.6738588294046174, 0.8436189221475046, -0.2968495413212966, -1.2519977025844844, 1.3979817317715673, 0.3604251735460537, -0.6987287565868078, -0.2182260880683238, 0.5337200998745234, -0.11275612286079131, -0.03358971676012135, 1.0389851754063644, 1.3489362156801803, -0.12222641148803148, -0.4597047822099242, -2.1061254678958607, 0.9027822583174616, -0.4862641322772414, 1.3873768095199501, -0.24821648477391267, -0.526993137431904, 0.32578045276874645, -0.5208993850754041, -0.5885745960049754, -0.14636478279216894, -1.2841247295803118, 1.308019068772719, 0.2564985812822549, 0.19377164709910616]}, {"output_weights": [0.9382022836083719, -0.8370870261172761, -2.7035979150043934, 1.0010392935866015, 1.9468389031998372, -0.7724474253894589, 2.2129929073615973, -0.619803291615062, -0.5933262396137953, 2.0544246801668984, -0.5902147145209847, 0.8257552977370562, -1.5382244868027013, -0.3171049651399667, -0.8333865003994506, -1.056619860252003, -0.9054422498908633, -1.2262581214759036, -0.9910166569220321, 0.42926348011318083, -0.5750871621262783, -0.7777036739460962, -1.8850316495274344, -0.56090924738506, 2.2762183533892206, -0.37620906676061266, -0.4826024820449602, 1.8317790131225922, -1.8285884668572057, -0.295170274773887]}, {"output_weights": [-1.657855433932108, 2.555695251259031, 2.062740649260137, -0.19512992829495354, 0.08004686970772285, -0.4160312413753321, 1.2840185370073347, -1.284702552368041, -1.465410836416439, 0.30952853241219164, 0.540595180947024, -1.0484631147065908, -0.42048431224863136, -0.8727258288190645, 2.068241492095622, -1.2256409573882654, 0.3803437104213512, -0.7609628345891954, 1.6627996018362092, 0.22325054202992495, 1.5138701426969277, 1.3321440421371131, -0.7294762655199728, 0.12013679253810602, 1.261812368470887, -0.15253425797957798, -0.014236929039330881, -1.0293080897104747, -0.11765883929627452, -0.7847987678690371]}, {"output_weights": [-1.5870481445550513, 1.1607919086127878, 1.4620562932543695, 3.330085051161214, -0.3981191818351334, 0.8060390581897128, -2.041175663902827, -0.4860650536342221, 1.0848722052460382, 0.34735430490730235, 0.9163848058632591, -0.6105394834993286, -0.5724042606995037, 1.785565263963733, 1.269961249759569, -0.7625726128728614, -0.6846910170930057, 0.9973515423147735, -0.2872151369370089, -0.8762133439454115, -1.4754330857356872, -1.5791349202215041, 1.1794368875714518, -0.7778191922349074, -0.23939142603701258, -0.5517073271886108, 0.12856195092317643, -0.07428683602009167, -0.49570482555663486, -0.22553640139346998]}, {"output_weights": [0.15064796739262762, -1.1752224437307555, 0.04307595210313307, -1.141421180226247, 1.2296724848651621, 3.702121185124664, -1.0762480837185497, -1.2892561731081116, 0.06641871315396794, 0.12676208301282976, 0.07161638719089683, 1.6760011904132106, 0.4076399471840779, -0.9584482293931745, 0.047716174350766895, 1.3392086010635689, 0.14062019667545045, 0.2526472993463383, 0.09913464334927907, 0.048070250603931206, 2.018388697548157, 0.9537015182843591, -0.47969249588080765, 1.3264220578260484, 0.6838004626483486, -1.3907668725215405, 0.6167555758492071, 0.5804187342399911, -0.7458237533779286, -1.7821909488361753]}, {"output_weights": [2.477878187592172, 0.35325795736339094, 0.9598775242756202, 0.45148376909025184, -0.06105918764283709, 0.7800745646250616, -0.5805319745876014, -1.3975018452898726, 1.822513770739144, 0.6218810082578897, -1.0322548044188207, -0.31836371027819993, -0.2178122434240607, 0.8031820342255215, -0.13323055597758396, 0.5422259081066646, -0.10847413591518446, 1.7017976204409595, -0.3999143071890556, -0.9080634681905632, 0.6633612221226545, -1.1363992203039026, -0.21340830828727061, 0.5265784305932921, -0.4500261203327389, -0.5832577020209103, -1.0574615492563701, 0.35869519330882726, 0.3826675929851806, -1.2753590362427047]}, {"output_weights": [-0.48952276883290397, -0.7923294134827001, 0.9320509882853677, -1.8873840921278642, 0.3085374488438667, 0.9017023611918461, -0.3543471907023973, 0.143528095199933, 0.7399370086314677, -1.1566648868529066, -0.08237285084149495, -0.5139421693702477, 0.8895817173629104, 0.6222892824283127, -0.8886329966197497, 1.415309741448787, 0.5276817627728605, 0.41957856002615795, 0.84478971784187, 2.286439866161841, 0.3430146643629009, 1.0535634278377788, 1.3281953583639217, 0.20250957225547847, 0.6517186136539336, -0.692511387924709, 0.7036980271850612, -1.1007419415320563, -0.6927801481842653, -0.9325624835521765]}, {"output_weights": [-0.8130571474039554, -0.5468349851408263, 0.6080354983699834, 0.5573503631120722, -1.5737523943289757, 0.26175856350279453, 1.3192454946824654, -0.34737647128190036, 0.15009895475617502, 0.8937843694685813, -2.259552514032866, 0.40596778168261116, -0.5567530067626016, -0.10140188540471802, -0.2811572021671133, 0.6648687011128892, 0.7408672529799376, 0.4768749877296733, 0.14861677797770015, 1.8702346203455287, 0.7834740124663222, 0.6621846519494887, 1.7829277072720227, -2.382482367674228, 0.3834997456424386, -1.7239336194267008, -2.8061272300944142, 1.8140965514667868, 0.2174724412680467, 0.917396019696126]}, {"output_weights": [-0.3415131142233377, 0.7703055576159867, 0.014296116160036086, -1.0699540482587349, -1.314617905435101, 1.5193946807617573, 0.6484548093931886, 0.6483755741559108, 0.29631356390622166, -0.15764395196661113, -0.6711169133393714, -0.8850005200660412, -0.810462352466935, -0.8880077262732754, 1.5969667105790688, -0.248872201020185, -0.30410758342044897, -0.27240440090440426, -0.6018907390714222, 0.7592160871540656, 2.191166792255787, -2.0275671137792335, 0.6908784739935516, -0.511812532663391, 1.009458795569489, -0.1521052852115776, -1.8475414759703463, 1.2497564615494943, 2.422100331112909, 0.15292809005773092]}, {"output_weights": [0.7613553907499783, 0.6361819600671468, 0.5268462393013651, -0.48032922659474275, -0.37824720289547425, -0.12225824591061614, -1.8207823119658402, 0.9464923996742505, -1.5878648291065545, 0.6837883559026585, -0.11133594780384526, 1.918780699726287, -1.9267486196929537, 0.027083184166293576, -1.411062295144771, 0.7894332328703791, -0.25621427884916614, -0.5333733754432013, 1.9425287787255292, 0.5364008345237812, 1.4427471558602782, 0.14932419071703198, 0.985493635237845, -0.32598129826276057, -0.5587717755588093, -1.5421552426775027, 0.20811892431211063, 0.03898468434302586, 1.957816809876301, -1.153220150537041]}, {"output_weights": [-0.6276268848471845, -0.42242542956726153, 0.0058595601351038055, -0.0011065001014900668, 2.280000884303295, -0.0010113392238333973, 0.8457881358565469, 1.848863220769298, 0.006651686825647927, 1.3023126365917796, 0.028861852211130606, 0.25787097037503054, 0.36026875493589644, -1.3913631236903925, -2.0668552249913694, 0.6217336367212092, 0.049346753623853414, -0.6174223026922607, -0.9901669964385736, 0.8731273949948064, 0.9916530579356005, -0.17497220625707358, -1.5676215980050405, -1.2670772314034995, 0.27397753814385106, -1.5519705789294742, -0.21607283815220857, -0.08229701119272466, -1.8228748044750893, 1.7971625201096757]}, {"output_weights": [-1.44252369285284, 0.9145660715385794, -0.33567024487833497, -0.2847529444459859, -1.2675625736468332, 0.46813732772005107, 0.432337109878886, -0.027411598009385505, -1.2707846241591654, -0.24741435197879635, -0.31616965007988224, 0.24274327863544215, -0.20131701696579501, -0.48415671816907413, -0.2367556067515193, -0.44164503961929635, -0.5814034882484984, 0.8387972348548914, -0.25034758286488434, 0.2163838564971838, -0.5982283817521266, -1.8664925618222947, -0.22937374377800565, -0.4608137548418241, -0.13858303589027224, -0.14745474774796946, 1.0916989761722873, -0.5535413422881232, 0.10613201781411094, 0.5203765361897497]}, {"output_weights": [1.1137793195883992, -0.831422734185298, 0.3779170237182041, -0.5248927724600452, -0.9682686150631098, 0.8335660358911754, -0.0766944773777339, -1.2047455398740152, 0.2629458289815752, -1.0899263125490684, 0.3448542765522032, -1.335129899288951, -1.270702761506384, 0.6010038286189044, 0.4119886566838518, -0.5126861571296703, 0.5250628472116581, 0.2953036070739522, -0.1242807557663616, -0.5661140394265205, 0.1443126387888961, 0.20313826432034754, -0.0006086907062173455, -0.697268820916581, -1.062998783423996, -0.11888727734586987, 0.3502967756555156, 0.19706510732142182, -0.8688450385174126, 0.6257065151989788]}, {"output_weights": [0.981464843451815, 0.15944782664766624, -0.38461027860901364, -0.07461240406872736, 0.4515228987091039, 1.7059630938702335, 0.340708154935171, -0.20511866789629754, -1.0012757750217836, 1.0341079289579918, -2.1133827596854466, 0.4722690957540341, 0.11691616153618915, -0.20509579522910282, 1.1833556658342876, -0.9839315098150512, -2.533031185337983, -1.06777078152569, 1.3950877327894924, 0.16821061138072244, 2.8064891708240687, 0.22140741208439937, 1.2904054973913497, -0.360687809561933, -0.15379716086070627, -0.3054396111101111, 0.09469814270814628, -0.6271809413313453, -0.34331267237529867, -0.470169390513995]}, {"output_weights": [0.31110927072812816, -0.35066346395649656, -0.6959265784307556, -0.1435777193297723, 1.0240267904231688, -0.47264838605777504, -1.069976416131542, -1.1387258125052808, -0.5512601303395156, -0.7172915095587503, 0.8635530794073051, -0.1659943399470563, 0.8473424034623837, -0.843863855922147, 0.4662822090564105, 0.22442912088813488, -0.26583770440123616, 0.08849676945633406, 0.30633398060562855, 0.8287846075834209, 0.13820999070768247, -0.1683423814446349, 2.1119966941530817, 0.5195462545126023, -0.1661866089126973, -1.8836130998329623, -1.684732369911955, -0.935604986117187, -0.21220513520358314, 0.7946501463604502]}, {"output_weights": [0.1360932226195262, -0.8640993175904582, -1.144520146127184, -0.7450684435277334, -2.298067470398209, 0.31655312647457634, -0.3699211478434433, -2.035322314206086, -1.223778905206301, -1.4668067162961327, -0.47822430410339917, 0.6082397992827692, -1.4276061486426876, -0.3145299263742664, -0.09741220685804, -1.1389661317989581, -1.1113962833217346, 0.11982897349928152, -0.3606629229200422, -0.848597179126897, -1.0473422839603015, -0.1507825212136648, 0.04290993708238809, 1.7480238950708473, 0.7240235577623179, -1.0205775858542832, -0.6523188951826644, -1.8701014461987966, 0.422790721241244, -1.4487179324272446]}, {"output_weights": [0.42311205479772784, -1.4214189135155402, 0.29759268304226744, 0.6638311810898866, 0.37492779353929345, -0.6746321806331259, -0.7254574575464666, 1.0568241183724265, 0.009754375871364962, 0.36889885453991555, 1.0675498603567626, -0.5031144622001386, 2.2193240100896685, 0.7676250842627335, 2.450352786028451, 0.5159713083172505, 0.1929969500964364, -2.138475844166187, -1.6213427850110624, -0.42498616843266085, 2.485695475550735, 0.4288337102518752, 0.5799374475783264, -0.42150557198427163, 2.3333952908571987, 1.9623516055095864, -0.07831917465739036, -0.06928653099913169, 1.6972842403843722, 0.6869391658108817]}, {"output_weights": [-2.8588585229060657, 0.2187302269948085, 0.07963021020487075, -0.27440734392536137, 0.6249519434136641, 0.6807725505213695, 0.27951148230229, 0.5403683370655353, 1.0792330864623716, 1.635151825424581, 1.8011876053921356, 0.11041211565991713, 0.5132680189690015, 0.8057231736165368, -0.7560540665022247, -0.7950126202954412, 0.046750033242085494, -0.9650640304005172, -0.08339898995343376, 0.6969405020232644, 1.4520194544924896, 1.7931824148396363, -0.2832369493143142, 0.7524918639324227, -0.4953351937726597, 1.0158946439041463, 1.2132355212080113, -1.3989472612967313, 1.3963719367829328, -1.9116600124882122]}, {"output_weights": [1.0968759708053522, 0.2630656842236748, 0.8745447284976396, -0.6692608726135024, -2.520277913825788, -1.4302842101503233, -0.3931971410209425, -0.36250103666288547, -1.1505102895418644, 1.6306445361464084, -2.148922362067626, -0.15286113958149802, 0.13634293797964434, -0.8210673450884675, 0.6065507931595872, 0.8468491660857023, 1.3351216770735224, 0.8864377223842315, 0.37666575059619256, -0.17774200946110735, 0.11021167373554325, -1.661042048752625, -0.4998973159052269, -0.34671826056316934, 0.2055169463313912, -0.6065798033720543, -0.9706961963208458, -1.0353294155042359, -1.1095293060780673, -1.2365563610994756]}, {"output_weights": [-0.22734713692505565, -0.37663291629182266, -0.6498463860967038, 0.23170858855761184, -0.4449137014684384, -1.7256119550930709, -0.4529241523184588, -0.08933516470246373, -0.05558984956500217, -0.7847567579234482, -0.7218982840524993, -0.5265465021638115, -1.9635377650550385, 1.2367407275773559, 0.05387052215798787, -0.272302865480158, -1.1810674399404562, -1.7778174100664024, 0.716162687697288, -0.26162938583800877, 0.571714593812496, 0.4384537852271561, -2.5798997382084417, -0.40733298705534127, -1.192422389144573, -0.976183365482282, 0.8278280395853495, 0.8099872081376845, -0.556515983786657, -1.239842106366046]}, {"output_weights": [0.2822447964508757, -0.3350932125875721, -1.2777608310015418, -0.15642574003881943, 0.4639929436641084, 0.8412276902439602, -0.4448162181355576, 0.02395045887273702, -0.6283158079486506, -0.751336616931878, 0.1472248514959877, 1.7819403550446422, -0.851473113595549, 0.9562809011916117, -1.0794377834748714, 0.0458494389813252, -1.229608816092582, -1.1867370683603027, -0.6634525672634797, -1.2220569033286495, -0.24750605127353675, 1.3233867016465013, 0.4079935612441349, -1.050802730228402, 0.09775457975284023, -0.022335478925565866, 0.9448157676882658, 0.4754437206608107, 0.8892420756368267, 0.5936761320075605]}, {"output_weights": [-0.9917182233397923, 0.13462836573218204, -3.2325151883322336, 0.5640338296629499, -0.9377508327163901, -1.3309180731551489, 1.089829967802028, 1.0397270842554263, -1.7343511754520082, 0.3805884371957003, 0.0414358870698598, 0.589465527710062, 0.5632137864660661, 0.44980417085438845, -0.9317309929551544, -1.0439640295672576, 0.6101228545678082, -0.29464239634266876, -0.4839961432097022, 0.5199694677116414, 0.9511766080678831, 1.0576040690061153, 0.07601717924358077, 0.08262797743315253, -1.1127517388977959, 0.547960835950794, 0.8941571816230452, 1.3372741606423042, 0.43822292884881087, -0.5323287894213552]}, {"output_weights": [0.12585574748968237, 0.44304000383968806, 1.2105803040356087, 0.9583997817904094, 1.476422208160461, -0.10398566430147109, -0.16334760842812612, 2.5131821172068993, 0.4568335536125916, 1.279057976463299, 0.06071005934200025, -0.48104846394084116, -0.7887058725713781, -1.9024717491410104, -1.3004277140556473, -0.29522936719817056, 0.4889733445467894, -0.18956822176757313, -0.7827212847064938, -1.767366949375595, -0.010191119434088963, 0.4636620519314452, -2.1076567945079665, 0.8745744858916353, 0.3827358541174358, -0.6497675700097111, 0.9403717923922597, 0.287220753005479, -1.5444902130634977, -0.34847156948488595]}, {"output_weights": [-0.5602656830665427, -1.166486315916367, -0.02992803998745818, -0.28522807525737226, -0.11158413638680634, 0.5742233848557765, 1.4372874093231311, 1.9949767807350605, 0.48110670948143325, -0.5202302289022437, -0.9639311049665988, 1.0836711748839771, 0.7878186480625997, -0.5624111050401782, -1.0980727633902954, 0.421985990918984, 0.17090936233107953, -0.04066319835724815, 2.2068585349453294, -0.20695820464730627, -1.538329120488856, -0.10856312064113431, -0.3175288987280942, -0.13540365521378853, -0.8366774648530945, 0.6988571596320168, 0.2859882857248666, -1.7017153759657706, -1.178604677821964, -1.6385084806701449]}, {"output_weights": [-1.8632037759782316, 2.2296812251980582, 1.064502576603783, -0.10105864287490275, 1.532950676838002, 1.5885595787555555, -2.517331124902706, -0.5500059401051676, -0.5171002984642886, -0.34757633773392327, -0.39178685870264324, 0.4553667846269774, -0.2315826036983887, 0.9242226322326872, -0.35120676946529344, -1.3726932134804408, 0.5945771119056604, -0.5868011463879974, 1.6784761108410813, 0.2264523476453113, 0.4501885814369227, 0.29476995312387944, 0.12318041126081719, 0.9526714052816446, 0.3465248559958205, -0.360146513366716, 1.1896857923498112, 1.431728370431612, -0.7435744350548515, 0.4470507521258119]}, {"output_weights": [-1.5981160330891926, 1.9370552425601046, -0.8324270524031202, 0.42010408416773026, -1.092133794788358, 0.5878534618770814, -0.1479096741908134, -0.42548030698902856, 1.3324071478056756, -0.8677726238443809, -2.1231897671660573, -1.5498847901989432, -0.9658748689035161, 0.1905371848176633, -1.108121861074627, -1.0266116049243004, -1.8014327676728694, -0.59013407278791, 0.22080604643180032, -0.5638689404877213, -1.7867681426597024, -1.9171249904546792, -0.04519033703618196, 0.5711264750137441, 1.3874656540878485, -1.5097968341896244, 0.616882276538515, -1.282896867723172, 0.1255460665954395, -0.31418657397321564]}, {"output_weights": [-0.395624655709773, -1.59643180327646, 0.7602927080451477, -0.08761058518498188, 0.5684433991884752, 0.9476979924692555, 1.2235260481298884, 0.8816966387079301, 0.6850882061091658, -1.4139772807504292, -0.07837739801183537, 0.3216298588729967, 0.6803841219191826, -1.4141838406149498, 0.35011807799145095, 0.5409710516489266, -0.03736595712453678, -0.5903435557826269, -0.501976802597783, -0.23816573951192171, 0.5820239298049014, 1.4841703386574832, 0.9189758580325091, -0.7871078440368697, 1.570400341807477, 1.060965928216738, -0.4389200022473176, -1.8075761344040169, -0.3801384250715538, 0.8781339504366816]}, {"output_weights": [-0.7535973615985379, -0.6908530338799316, -0.41027436852868077, 1.6120515477064141, 0.6136784921674016, -0.6291497425202136, -1.0003258730422637, -0.3032709525852859, 0.08768090110559339, 0.3552218731712764, 1.7309365671194499, 1.4329852350007692, -0.025775807757419302, -0.6710984508654363, -0.06021182200502908, -1.412577558142983, 0.26259825558392047, -0.27497695143269013, -1.4850355254664238, 0.7817893573073889, -0.3854986124738829, 1.1607830697015977, 0.27177866466916717, 0.06037334649618803, 1.6671673402014477, 0.48039718790714403, -2.4592883037434627, 0.31936918085902266, -1.6899815503124451, 0.06346964592958498]}, {"output_weights": [-0.8669427765412898, 1.0801864146186186, -2.023430910150318, 0.5874024061596543, -0.6984666643319586, 0.5539159100886631, 0.43515569597367815, -0.29479467015692734, -1.2541267665730926, 0.11700745804326347, 0.45371759105787773, -0.30653255764626447, 0.4900504521793108, 0.021869153056615114, 0.05872951488466671, 0.10929802603766975, 0.7493159986071902, 1.5922159399320295, -1.8916932749233277, -1.3262766880002386, -0.4171789834305025, 0.39069147795047454, -1.057796383630102, -1.3405834267566716, 0.26049451896306036, -0.21971149268122503, 0.2890241978588127, 0.2166765256896505, -0.3599925816375014, 0.4276703385261375]}, {"output_weights": [0.9599483399187855, 0.5205321602808778, -0.29226855345207664, -1.9597547900431642, 1.030014443670481, -1.0889973677512303, 0.2239069674543593, 0.6870736280513162, -0.665239549362235, 1.7600596286377832, -0.6941266483574304, 1.37042980987208, -0.760555858833301, 0.27898917498861653, -0.4501833868432396, 0.503018310871411, 0.15940623343932975, -0.031678517541413015, 0.3686780493262839, -0.977622072923042, -1.8950581451344426, -0.5081207907523676, 0.05978032080972642, -0.5020054707356051, 1.3373332671895788, -0.113921457279733, -1.6958043566515915, 0.8655265948592099, -0.40292913211438963, -1.0492219281237243]}, {"output_weights": [0.40205025190650856, 1.606737073182903, -0.02905031924446294, -0.615943996833341, -1.6432896422966123, -0.9921646825060808, -0.3564453042772169, -0.2646109246623928, -2.049169479159989, -0.9993927345465894, 0.04568843918950459, 0.5769534390271537, 0.7348083447885199, -0.9622517458002372, -0.4810269258475452, -0.41329704763522784, -0.2397019910220617, -1.3159814602209603, -0.8601298740272424, -1.077658030157716, 0.3687216542917871, -0.05288437021653491, -0.7923998404538724, 1.4237470439233542, -0.6017118567079265, 0.06483413380541905, -0.3061438965030359, -0.8472961661087529, 0.17270393469235967, -2.025805496347278]}, {"output_weights": [-0.4571120060019555, 0.1673907040823322, -0.5518072558921953, 0.09209637763468223, 1.1204775527346502, -1.4620915443378026, 0.07720467775612883, -0.9355339070807642, 0.5182810877587639, -1.1075993732956098, 0.4553856919838393, 0.8295193503927951, -0.8427732852317846, 0.8652456427180436, -1.3693506748933226, 0.525176008995821, 1.9978976390033603, -1.1293223636257503, 0.2567823187831388, 0.013896153899799821, 0.8664298708247551, -1.2115582089460653, 0.7641161606999692, 1.2016696806006888, -0.03571445169640828, 0.47565850097101836, -0.7930414533819437, -0.1351338102490136, 1.2323060905377454, 1.2092849061822377]}, {"output_weights": [-0.771838034862647, 0.4101669601704409, -0.39932414485667644, -0.43529224608570616, -1.2489839792781645, -0.7891914789651213, -1.741195389239034, 3.244128883812126, 0.26679245366116455, -0.435893745510221, -0.6466290366431628, 0.37894872508989663, 0.7266429451833332, -0.07932852781128182, -0.5220140351290796, 3.8415015313701684, 1.5139013115625144, -0.3965448134867581, 0.5361361436391464, -0.29161698093004945, 0.6658007660648776, -1.8808913510722334, -0.11406958883278387, -0.38147302283037926, 0.023199611344852364, -1.2661143983872813, -0.9252781482876696, 0.5516123394297742, -0.11802167960161354, 0.09576765685941048]}, {"output_weights": [-0.35117119891843135, 0.7796855971813847, -0.681328016825225, 0.5807806930615312, 0.35729855090678647, -1.063051652087296, 1.2216092976911666, -0.16224207311506636, 0.16822996385023867, -0.059639503854794766, -1.345787030124187, -0.6919467189466324, -1.1437582480979454, -1.0975357068073706, 0.40296496666771325, -0.1999480872502071, -0.09277082745772064, -0.4401352686391731, -0.08109971652794601, 1.8471798386907212, -1.3631496280784954, -1.3994285711963874, -2.0385822312784017, 0.6902395734651999, -0.7425386687961941, -1.3774676237217265, -0.8564578246484135, -1.638124619300722, -1.1721643425381, 1.0676983003171203]}, {"output_weights": [0.03527458093123429, -0.505984986574528, 0.4501425435642737, 0.12237780352459418, -0.772162518759656, -0.49281205985005705, -0.2968249823507183, 1.8978085619226208, 0.6800808895071112, 1.702095803176179, -0.5045485503877537, 0.019694914033279682, -0.4617649930849802, 0.10073114985123346, -2.0445633768376905, -1.0877747699693072, 0.10968898042427083, -0.3037111937545849, -0.8364628524964706, -0.6626185899524687, -0.8593651894794788, -1.0205711319619541, -0.37154907761502587, -0.14251115116411553, 0.9225171237799831, 0.5867509120094937, 1.3478959811520548, 0.9705951144618465, -0.1114698582978964, 0.6058400116784275]}, {"output_weights": [1.0120972856073973, 0.14937683266942506, 1.5208658868406228, -0.6519148683412833, -1.029611755252002, 0.9300004569940991, 1.9262736628238128, -1.0246200933135057, 1.838863032476254, 1.2589182343600764, 0.08275324652114693, 1.0987574091653483, 0.32153053296147716, -1.4727739508542816, 0.08085600323366418, 0.9349994757469265, -0.6385797509562511, 0.8041347403092624, 0.35201406875921276, 0.5648928885578092, -1.2574870726577547, -1.0475006918920733, 0.7480341814278813, -0.804007564900887, -1.3862230396479904, -1.4979424654317721, 0.8291794213402098, 0.06893782257951715, -1.985334769566698, 0.2997755816822151]}, {"output_weights": [0.24831433441410108, -2.769614940942727, -1.415821099519261, -0.18797852839189, 0.8495947681927217, 1.2332950599168777, -1.5181296143876202, 0.22916055126649443, -1.421174183119432, -0.07886178100193725, 0.9339583571415142, 0.41363844895071245, -1.2890260316452706, -1.4855202666352745, -0.9799016653463186, 0.72573658771512, 1.2890659468540093, -1.4134492486682422, 0.5210436538709835, 0.9229777353562768, 0.8291329710505011, -1.8606741898172516, -0.4838134526663844, 0.43558536473061005, 0.38243658415548454, 0.2588506418220963, -1.351558179197066, -3.2595016156380936, 2.2147600166268084, -0.10775645247725157]}, {"output_weights": [1.1300324341740364, -0.24174191803029832, 0.8083502498481206, -0.04914499410293658, 0.8177910555470912, -1.356186234804976, -0.4008717617570335, -0.3992216902594622, -1.1083067509215936, -1.5926807008655801, -1.391986159855771, -0.47039791627385646, -1.3865070984766905, -0.9589991584541686, 1.0947426712315118, -1.6702054093674006, -0.7274512279031988, 1.602301300995587, -0.1568154143488476, 1.1139612195574455, -0.6975294457333525, 2.858672956917589, -0.13896499942317514, -0.24258294788281967, 0.11373009403140803, 1.81902479377059, 1.1579003007562505, -0.8452945159142163, -0.2459816607628286, -0.4380388351338323]}, {"output_weights": [-0.5755910613165833, -0.6221360968490149, -0.40217925908243385, -0.13070030118605036, 0.5929663337531856, 1.553745965672754, 0.3858247094379926, 0.023281858850243305, -1.925390978679318, 0.6888397837435143, 0.6761102986299321, -0.5358417689739978, -0.058704503712641125, 0.22490767908494172, 0.2600236242488184, -0.7365898415229786, 0.7532377179245666, -0.4205899830975062, 0.40486098196582465, -0.2907070165821864, 3.3545919723062094, -0.262650955263475, 0.401027656660902, -1.245860600055723, 0.6644171353901115, -1.7414136543608167, 1.3950305092885746, -0.113903251864256, -1.1806653073653919, 0.9143492315747762]}, {"output_weights": [-0.6640678901093899, -1.0656099172880933, -0.7881405302824842, 0.08546288677354676, -0.4070514432849964, 0.6833643502974157, 0.7330734873490891, 0.49024107855469773, 0.25976874187859156, 1.5649416314974756, -0.17932294691573297, 2.224964737614244, 0.4911018760019781, 1.5826923573503546, -0.05082847387523184, -0.40283601670613617, 0.14768486419812532, 0.6091027063248429, 0.03746676277688082, -0.6065446673694757, 0.5245635689752619, -0.571886982926824, -0.725538271133204, -0.8684986161554007, -0.11488507924736513, 0.08044063884177854, 0.38065549638346985, 0.83728708563739, 1.0724395941846505, -0.011942724231407346]}, {"output_weights": [-0.8790294591742702, 1.3163857462465791, 0.6423230238567312, 0.411025624741303, 1.2238338797850676, 0.03134497947666719, 1.0100998561434862, -0.6257360983558782, -0.7795568649405167, -1.1215843958744556, 0.0595393048923207, 0.2950981433927508, 1.7245957218211525, -1.6781214438871916, -0.315292103853448, -0.13979781559272209, -0.7033699823384684, -0.8555976839607694, -0.5162191482477665, -0.05120616891798201, 0.9762587312081263, 1.4267678191415318, -1.5325184436545654, 1.1296208951503999, 2.1204553350205884, -1.8044073975176662, -0.012713215027809942, -0.024496281999085916, 0.3129392222265253, -0.32237638917611994]}, {"output_weights": [0.44985205971338366, 0.697961120676552, -0.022768990186964367, -2.0816401039423624, -1.1930231924629064, -0.7945254187125796, -0.07365530890325638, -0.5547117545815128, -0.6485423077202874, -0.7048067290336159, 0.011278531142957432, -0.15958168063335854, -1.0263225519290964, -0.5195957048491424, 2.303123190476646, -1.3765904510237996, 1.3989604859759557, 0.521213458992158, 1.0402835330036058, -2.3753314667069834, 0.034179192587747244, 0.02825774543544209, -0.997771800633436, 0.9713455063513445, -0.26763690778934907, -0.28920950170570364, 0.7286371350849256, -1.1190670792059902, 0.09940720717069086, 0.430229364711832]}, {"output_weights": [1.0894291871524762, 1.2199083070808794, 0.23629721202822457, 0.1341204785087636, 1.960329562406812, -0.9497716525683026, 0.6394997473105354, 0.46462865822340554, -0.21782402023475922, -0.7279405251888442, 2.2329677428369332, 0.9340203249904653, 2.9210619685782833, -1.6257688675442068, 0.026117584942750443, 0.2573041662159624, 3.0255191990272143, 1.1433684321942217, 0.4584561893147892, 0.9705969682523898, 0.22490809683749188, -1.1321007310267106, -0.7183035729890108, 2.3165509407385305, 1.4124813904849514, -0.8663340779957005, 1.0289860439750562, 0.7029032219430102, -0.6522015904031262, 0.8620363276486076]}, {"output_weights": [-0.1738667831894873, 1.2165871131773272, -0.6311791508239926, -0.26807660917497017, -0.6730219631824339, -1.4633652009373546, -1.3374067043728535, 0.7241408198788764, 0.07481850648185187, 0.19620769053834933, -0.746310435292358, -0.3353263959874856, 0.29248054912765464, -0.8153334325841882, 1.4030901668777502, -0.4902832598486282, -1.2310602800743062, -0.43026715300073626, 0.07932432943574781, -0.4336347023467304, -1.2347222291966136, -0.14323645015921205, -0.2654800330060163, 0.7459378358961036, -0.32095379436567456, 1.3100376835469683, -0.44473768623737586, -0.16604694764772016, -0.35262257513088835, -0.6943296655014821]}, {"output_weights": [-0.0024881866254503815, -0.8905331741385509, -0.46984744946689627, -2.075169879479686, 0.36633847853960766, -0.3895205864051094, 0.9386529986908677, 0.357195603402527, -0.25096456528388733, -0.8825483434366829, -0.7680143227171374, 0.9916977730083263, 0.3377323308121024, -0.49199331534173646, -1.2993864512855897, 1.43262926994296, -0.742833898629473, 1.0336714496340729, 1.7519002602655007, -1.0970030778400308, 0.22155143539543298, -0.5502148669630027, 1.9568776958174965, -0.7400712139585193, -0.48282767211997957, -1.4482028062636376, -1.2764537777190832, -0.6650805269303995, 0.6509167354015047, 0.13546420337706938]}, {"output_weights": [-0.39215942115509306, -0.9074084472485728, -0.29206370031361684, -0.6212426648853571, 0.2798539850475461, -0.6422525692127403, -0.21847052642566755, 2.794106524889279, 0.43038312561926545, -0.2781536774199648, -0.5036353438990637, -0.3481866886356638, 1.053227560235865, -0.7388058106336551, -0.39623597991667153, 0.4125650782400882, 0.006698260591456328, 0.09393151325959985, 1.4407309048516168, -0.8881979974955541, 0.7791573467213254, 0.022129759558852945, 0.48985788041080064, 0.0810245223907681, 0.7586411747613764, 0.7656352350525522, -0.8333462351207516, -1.4762844047385228, -2.2880500574094955, -0.5827641823401299]}, {"output_weights": [-1.8071145122132046, -0.5697475994039024, 0.6249240223480048, 2.1604632034011906, 3.40544193513799, -0.5536463828703589, 0.9401136767393573, 0.1809173823777535, 1.7754408208535297, 1.0315363391645123, -0.6404200831693095, -1.8049542220456385, 1.0891531824424607, -1.3314652889298042, 1.1888781700519764, 0.7970874114996124, -0.4213245562124578, -1.174970897428172, 1.4415781739352207, -0.8282847626131786, -0.19338512199915447, 1.1636105562757264, 1.006821855364729, -1.0350761026580333, 2.1050549084157244, 0.11931860882083246, 0.352754326617699, 0.7557048440870107, 0.025896154522927865, -0.9895417925506587]}, {"output_weights": [0.6946951170198159, 0.8284878399712128, 1.5337734437246355, 0.36638204828824616, 1.1406807554988467, 0.7668340436704032, 0.5717713536741342, -1.1930599691740316, 2.0407865717870535, 0.20595843509836761, 0.20231034629622605, 0.06584923054312941, 0.4287356496275923, -0.6484535614325716, -2.1563304234231175, -0.42106278281709314, 0.1318347978045579, -0.43746077993973015, 0.3549013055956931, -0.6478145148886767, 0.008582398369409236, 0.515742516844064, -0.6814483918148277, -0.13034912299448428, 0.07102502401744284, 0.9946408112983149, -1.4036878333635927, 0.6650073371153072, -0.6333878172155721, -0.6462489418334924]}, {"output_weights": [-0.37185211643320065, 0.16715257849949627, -0.5836490649953266, -0.5308770419915909, 0.4083195648750796, 0.47007851674048085, -1.419798075266335, -1.7038431855514584, -0.7628008549282284, 1.5473415149086516, -0.6933469267914137, -1.5747405902015141, 0.35936126342441654, 0.4744715254031891, -0.4451241273446729, 0.1911415762901, -0.5884323759423533, -2.3124418334544337, -0.8104390017906279, 2.2341336198948483, -0.2876384157555235, 0.9642466319470583, -0.39456610239629647, 1.538124996151812, 0.29200919000927544, 0.8852469586626484, -0.9147371810412511, -1.1506247825690465, -1.1496170302456268, 0.6306531968028539]}, {"output_weights": [-0.8577507405597674, 0.36659005959002466, -0.8400756508364104, -0.7249330850735383, 0.4021908739951105, -0.5072537526001664, -0.4197637284961434, 0.2948382684459796, -0.8512606261304271, -1.0042450074149682, -0.3679552736274373, 0.09471369248511065, -2.0826369431792315, 0.1577019695071467, 2.386344632361802, -1.3100841654640492, -0.3996443111978612, -0.07598072346246379, -0.6579881107744197, -0.7283772276497955, -0.11713808503421311, -0.6081321689328226, 0.3128766343382164, 0.5985719826960182, 0.6797820213173323, 0.543267300093425, 1.137449161466706, -0.30629379001937107, 0.4031309860322183, 0.8792580626738918]}, {"output_weights": [-1.0496920901994709, 0.08435048917796463, 2.8438595807091853, -0.5667549485202436, 1.2400723457584208, 1.4722961366485832, 0.30508967019033745, 0.2260101620785561, 0.6777561031040472, 1.3706785253895133, -0.304823422258325, -1.5409842688751567, 2.098956724039242, -1.076945194968291, 2.227908547982728, -0.3196370929986917, -1.1559038314344001, 0.32040049305000484, 1.0184090577680298, 0.5216125388392812, -0.6239141154699547, -1.2906223994886403, 0.26396476036431654, -1.2164016672435813, 0.9734573559999551, 0.8506339328795004, 0.5263804656115707, -0.1197343840415424, -0.41371379846332407, 0.4157551751596097]}, {"output_weights": [-0.5290714781527677, -1.9042851413778725, -1.220398845921697, 0.4580494436463973, 0.0025963211991457233, -0.08113381146505336, 0.7752310631735688, -0.5656728571527787, 1.0642899433189499, 2.2353129149559288, 1.3059916828435583, -0.4579063589154946, 0.53941544869319, -3.397685840812003, -0.20718713125740695, 1.1897353214131356, -0.5617146922298326, -0.6698291882887739, 1.0811994408581727, 1.871084963812592, 0.39317417656480985, -0.35980381911132714, 1.2585231714403153, -0.8271598842454605, 0.6180240641695472, 0.6278887031083373, -0.574618865571076, 0.4999084595546276, -1.3157772070740468, -1.4363626911216993]}, {"output_weights": [0.21107880603982176, -0.22391567729105938, 1.1595719814557737, -0.8498688406366177, 1.2339670877631679, 1.7714919403093896, 0.296720189090989, 0.4789212847929457, -1.6925214079996889, -0.42455236623201453, 1.1286437022679696, -0.25523776124261943, 1.6864046677525821, -0.38678879944521966, 0.6095992542160584, 0.6297277457429926, 1.4710816282899237, -1.2309574224948934, -1.4517342129669493, -0.06747289859880377, 0.5508113476332241, 0.41223159027176765, 0.8037496095647904, 0.8212191615639891, -0.2863874575696783, 0.747836266112332, 0.9399863633426276, 0.6222259269619045, 0.12020162398968247, 1.3711946725610111]}, {"output_weights": [0.17964910360722194, -0.8702760833736484, -0.31205363080662324, 0.03169944858536333, -0.31812618239063306, -0.4580847064183794, 0.46101665846036316, 0.46967093697009266, -0.3602768167431646, 1.0618554271454521, 0.019284804432423926, -1.0173450457906967, 1.6707996417647666, 0.20868923719861865, 0.30291445696219854, 0.014874079332872008, -0.032706026446556354, 1.3594300363423972, 2.07831009162148, 1.2248161998478522, 0.7586503249661256, -1.8652870628081304, -2.3146435674708035, -0.20299254836706274, 1.0177046509030403, -0.38550202248545906, -0.12166367841893296, -0.08389996020865163, -1.559268521308655, -1.7782474100120689]}, {"output_weights": [-0.042419618711799174, -0.6426962655362568, 1.0534909152227194, 2.0245274791971077, -0.1479514565467118, 1.460088917679336, -0.22111884362188888, 1.1390715200004786, -0.831301213083661, -1.261005190841994, 0.3171805727496625, 0.8739892856919476, 1.1174340195321766, -0.032061415327478145, -0.17827174578269456, 2.531129031024356, -0.41200047965333797, -0.6793036673287474, 0.5201034885316558, 0.25192525650672054, -0.3424474944330819, -1.6629657514504905, 0.5523834245443324, -0.4269818895698809, 0.05550103272182341, 0.8099974789992826, -0.7041872895539748, 0.2640778116712762, 1.9400193533175831, -0.31323478639008545]}, {"output_weights": [0.2646316576847939, 0.4395193670853542, 1.477756698540531, 0.9850147992297223, 0.8907177681608183, 0.4512448360250545, -1.436298077786163, -1.2175801271600661, -1.1152478894331062, -1.286545833406696, -0.32601359769038674, -0.9954409370519888, 0.11953750318001331, -0.2788159202893086, -0.7930548955768274, 1.206234659156322, -1.0672087581280467, -1.97349189673054, -0.8998186806471841, 0.7316240376411859, 1.6893512128961672, -1.1790456587536395, 1.2252316672773158, 0.8463845438544954, 0.9469572043215798, -0.6499138746886355, -0.6016954555461039, -0.5319118712578311, -2.167357133905699, 1.7950350921462646]}, {"output_weights": [1.1206574582730262, 0.19271036068084096, -1.2456470247378078, -1.0257830464070077, -0.33206369348576714, -0.04685704244952961, -0.09757894002023294, 0.8340249639994686, -1.0255759912366544, -0.4739420295139692, -1.8056845522789535, 0.4806800097389479, 0.36908226551589035, 0.534796097188363, -0.11822963206400439, 0.17498354399245356, 0.22665507003782587, -2.3087405982460614, 0.24905039431092546, -0.7473765313037224, -1.159584843340404, 1.2355620425538278, -1.3625209448182263, 0.30851237916769353, -0.19133876522129767, -0.32022393226929746, 0.8558574096394272, 0.8600297709307958, 0.8436372683848056, 0.06393471297148125]}, {"output_weights": [0.94218883920409, 1.2897732399495332, -0.5368610033258775, 1.4468887392402627, -0.3613109150188296, -1.3507585400462772, 2.7466506434044087, 0.10318282612939887, -0.35692936417228344, -0.1785019379952138, -0.48514402422992103, 0.7181390756834843, 0.32118173879559614, 0.3269528125562347, -1.1919379796738083, -0.5684274134478736, 0.2849158236203621, 1.315642616426859, 0.6377576908121743, 0.7783085883193166, 0.9438893343008976, -1.0921494586403213, -0.3933499452280817, 0.1906635292743586, 0.6672864957537503, -0.49425063383166934, -0.3468603512359157, 0.16298209675375808, -0.42765177704500423, 0.13327324004822505]}, {"output_weights": [0.8620417617617867, -0.09473746421343246, 0.5362156109526297, 0.3063308395665067, -0.45202803178490164, -0.5889706843240217, -0.15795547744085298, -1.0808225982783355, -0.11791203439434411, -1.2515575377279375, 1.1455618951070616, -2.469731091023561, 1.6147697367346028, 1.9110879204046491, -0.6912516280383004, 1.0057142636352838, -0.4298042540147562, -0.45758731057986657, -0.8304610367990197, 0.08576520251965514, -0.2727548981985792, 0.5819875740557696, 0.7342440674000401, -0.20060803348574732, -0.9917721115134566, 0.5525097206788581, 0.3831623719112762, -0.06062246779458164, 0.06493335591850392, 1.424905057199769]}, {"output_weights": [-0.4067583193424272, -0.21215778179172826, 1.109150528849357, -3.4527607312703004, 0.4649285962273567, 0.38463856028057647, 0.10249196280062461, 1.1819454347633558, 1.848797845545882, 0.5857877077061837, 0.37043158713567, -1.8088889179758143, 0.14000916890882514, 0.8005182107959828, -1.184420011798305, -2.0081289100687, 1.5104428523499493, 0.3597914737226974, 1.361270157403553, -0.5568496189214439, -0.30262789105765214, 0.668267753086453, -0.3809176734676613, 1.8415732571064956, 0.9116414351822133, -0.49305931646938794, -0.8707757447306881, -1.0470316543306906, 1.736170412746296, 1.2143504661957436]}, {"output_weights": [-0.21022489187136928, -0.5416207722536899, -0.43407807910543006, -0.31252122112022224, 0.5429118320399451, 1.7859939199002557, 0.8065374187897528, -0.2146595645042276, 0.7633809084554523, 1.211169830413866, 1.047720109363991, -0.20923293163788337, -0.2098732999932106, 0.607452939471965, 0.9784466850288849, -2.1847405194907665, -0.5238064312303632, -1.0527039662510216, -0.3938500563590476, 0.15231708255487966, 1.1494623803484403, -0.10034527384218243, -0.8657258460702013, -2.0673336714055197, -0.26806429196170156, 1.662647470590071, -0.5165977781385642, 0.8373687179719359, -0.4666777526659785, 0.6262400475095363]}, {"output_weights": [-0.10410519839692378, 0.6432771000731168, 0.050737786455449296, -1.758495215020948, -0.6516616202136768, 0.001492808601006874, 0.3079092610440181, 0.9926541320193268, -0.5873552928499893, -2.620480150391566, 0.21323137638994197, -0.4881379712880798, -1.5364478534447388, -0.5136005497944728, -0.9106164480844544, 0.9315186462787727, 0.24428418060085808, 0.5179171012568509, 0.0531468964156166, 1.009135585339469, -0.3794173074395334, 0.10566727952676938, -0.7363080825205965, -1.4248300412450319, 0.46063378119435955, -0.5882480618589548, -0.7083995259747541, 0.6463042113036377, 0.005779998712659444, -0.5138149082201269]}, {"output_weights": [-0.1627813127611018, -2.0693092378324507, -0.2091726827789571, 0.559549686042476, -0.28055763508513437, 0.11422174980133186, -1.049705715807263, 0.7330549469982522, 0.0751923080992585, -0.35363231560360125, -0.14186519685688614, -1.0145004157982582, 0.07400862823769494, -0.20333202231000774, 0.8545176845079395, 1.0821909050633987, 0.031111274290272627, 0.7025591096601428, -0.1726999142997807, -1.2084422819455973, -0.6029628830896933, 0.9572103721349214, 1.6532307744461363, -0.6034784358172731, 0.4006954795473464, -1.8207756559005064, -0.8997268231216595, 0.4992654721365687, 0.26423063425512056, -0.2554804717644067]}, {"output_weights": [-0.5062902939683877, 0.9461236390453758, -2.223159189966269, -0.7429394921396837, 1.8139319030228296, 0.17609115164328334, -0.3232660685752744, -1.6813881551169083, 0.872761360826657, 1.2326264055336378, 0.22893516558325566, 0.9108718596535273, -0.6271644252208062, 0.9163367383880333, -1.1271029316534589, -0.25087981525214825, 0.47221954877767175, -0.006981899895371115, -0.14720834887207737, 0.4754302921832466, -0.5569731912759806, 1.1646581461038534, -1.4933728229461452, 0.9947936418727705, -0.743718729975846, 0.8529540570836541, 0.9629097554586223, 0.6950424594990977, 0.1852693336925447, -0.919674715947757]}, {"output_weights": [-0.11263963800726025, 1.994195047315898, -1.2627179284452674, -0.21169534417364397, -0.8724688553723593, 0.40904244159691044, -1.0154659125516936, 0.8054693798897317, -0.9368589901402629, -0.1196861365607359, -0.7040230783822593, 0.34896183330027286, 1.2469943101694652, -0.6081441101881853, -0.03422949014183129, 1.6053195865560193, -0.8893902110503832, 2.0261143648734885, -0.5203221755188372, -0.6664860470976143, -1.158392596562729, 0.08312497912366877, 0.7895675996800835, 0.04062326501273638, -0.8083612116689888, 0.5922483871614858, 1.2221469943738101, -0.33138171541186373, -0.0400672257653402, 0.22209446020898435]}, {"output_weights": [-1.13581965222166, -0.7088746038893602, -0.004900445736851734, -0.5872530660795852, -0.7312606291931534, -0.2232752603735928, 1.6612416635420029, -0.15624768089325425, 1.0943843190401024, -0.640972738681906, 0.9614030476557811, 0.8363752510193327, 1.8909111672150758, 0.5442527211042038, -1.5354095983425633, -1.4809843812424333, -2.2813638423559133, -1.9542888495614428, -0.3311717060275393, -0.1628762703814163, 0.05277797983536116, -0.5871834713326206, -0.13761895459402113, 1.2646767508073766, -0.739943315747891, 0.8544886450520172, 1.256370873157306, 0.27930461163876125, -0.68503668751647, 0.07164320720299476]}, {"output_weights": [-0.04610386955431581, 0.6754087798994126, -0.8000315647830795, -1.0854261254056037, 0.5539975685943519, 0.003754303266621056, 1.6248588920024163, 1.1927204530356401, 0.9298150883780871, 0.5666111476025487, -2.7221661712319993, -0.4514351821385498, 1.7050731186225756, 0.29473409097606695, 0.7271661558301656, -0.7681479523700349, -0.4936900258105841, 0.35628916637383223, 0.4618916846384248, 0.15639004198975492, -1.7282269047230867, -0.27523601437849293, -0.5151533123389312, 0.29736942919631043, 0.19942490400804974, -1.0848377491488044, -1.7222782565210972, 0.5333756270796616, 0.4938445577721465, -1.2717302774557624]}, {"output_weights": [-1.6186127653457196, -0.045259298338072074, -1.1008028917762154, -0.6580981534861627, -0.45507970916611257, 0.8869827660823102, -1.272704654209317, -1.2199896934549823, 0.04595714115589016, 1.7760518343392255, -0.008055910999955763, -0.9768636698424455, 1.4872811296613901, 0.7868102930102179, -1.4487295485003475, 0.1347843499668042, -0.01699938370464425, 0.5272980471501416, 0.061585723529242714, -0.32751037281717377, -0.34816700764481223, 0.4298899048215016, 1.942097846805217, -1.6361876677471223, 0.8394916298271401, -0.6997978816470545, 0.914009934470095, -0.965865527338202, -0.45465551056485354, 2.1083118677378487]}, {"output_weights": [-0.27741032574654095, 0.7695785462416342, -0.8520333793797866, 0.4219523392676027, 1.0439805735073322, 1.6022304027765553, 0.6190820140578817, -0.8698796952592781, 1.292977364303608, -1.1206923437798473, 0.3126180312644865, 0.3300777198266778, -0.5741406700871733, 0.47232698464307427, -2.0201423530642, -0.9983655181724177, 0.840961620960852, -2.219610912746448, 0.04827118608292764, -0.715078606895347, -1.1802873372439069, 0.8097390998596895, 0.8672870862788697, 0.9715376217270799, 1.428669330148691, -1.0135081504759629, 0.5644356046364793, -2.226711221952673, -1.270471197654947, -1.8378768880265384]}, {"output_weights": [0.30855377708436393, -1.3861461114548483, -1.2927538235023528, 0.8611634400982773, 0.2160319712843799, 2.895054730275582, 1.8005050052037401, 0.5570545000136444, -0.03157100291620201, 1.548092809678277, 0.9117336156243694, 0.7973289415917396, -0.4478910948036161, 1.0750996471440992, -1.084487882787424, 1.8310690625963713, 0.7281118499802063, -1.2950223681787791, -0.7975429063974524, 1.5526353468879672, 0.7581913752364887, 1.4446624577028224, -0.11113851263263565, -0.38868064761916, -0.610582746817137, 0.2594695056281819, -1.2411548960089136, 1.0877309980029974, 0.9287661559353209, -0.704313926418338]}, {"output_weights": [-0.8516771456545769, -1.039751647872395, 1.136670391197643, 0.3350847854908973, 1.3036421074618696, 2.1061860126374707, -1.3099896020198356, -0.09218207215934235, 0.637121904720969, -1.8080116644525037, -0.2851390360639408, 1.2137385136430046, -0.4087436702376921, 0.08837485223702891, 0.1582714487371206, 0.6986334259782636, -1.0159993305877026, 0.15211115677945306, 0.7854274876635734, -0.8009890863581713, 0.993970424570874, -0.21492111072941927, -0.8028377313291278, 1.4104579263554218, -0.6157496032927995, 0.5610160730660244, -1.0051856709533757, 0.5008100067702407, -0.030435990480017078, 0.034012213728465635]}, {"output_weights": [-0.7390315815019812, 1.4974064509259286, 0.43897477762735937, 0.949003396046574, 0.3545061021438662, -2.4488392563664463, 0.8838531528881939, -0.5141226600424028, -0.4686078238565454, -2.7837704051104826, -0.21449057236833133, -1.0473458316385853, -1.322496916052803, 0.8193537211345512, -0.04778486712796643, 1.0392549382933165, 2.1994480863340287, -1.9828335772204941, -0.7969250163955466, 0.17581679698411318, 0.3131893837469062, 0.9823519196023301, -0.5731534676780312, 1.0039399618583742, 1.2418669903874615, -0.34793081539828147, 0.30915263345164873, -0.023991316173535907, -0.4325734833023335, -1.088087085274025]}, {"output_weights": [-1.0814811002609586, -1.1020320519373212, -0.7217093131017193, 1.8691721910035064, 1.7388137586532721, 0.14606182833961215, 2.843328425937528, -0.512284584823915, -0.895556856045709, -1.6473780798685889, -0.5294361850919647, 0.30288141002073343, -1.622118657732478, 0.8682762964907402, 0.9124804402151783, -0.7620413799281868, 1.6495719940421567, 0.7881896488578508, 0.6585521998795288, 0.06680359925463794, 0.13364875838158688, 1.7308820727828542, 0.38154462021632085, -0.19967907142547694, -0.3138112623339522, 0.5821631562519531, -2.1075186579737646, -0.018103611232493672, 0.10624334758990023, -0.8331607152657174]}, {"output_weights": [0.6399336102073591, -0.7675336058335382, 1.2879081614654138, 0.7815654353501285, 0.2338700485402376, -0.9522586539933406, -1.8094120222745003, -0.07620870015729325, 0.8444227010023214, 0.16786738103797175, -0.5717887938326889, 0.7851389376321276, -1.0146715170244331, -1.3196712210033865, -1.1155084636644519, 0.4753221400372085, -1.153607731055145, -0.04965107952055449, -0.4932778937129686, -0.4530568500181095, -0.4805397997153037, -2.8319613071665213, 0.17770611936257175, -1.4333795354681542, -0.7625666703228103, -0.28014858994592234, 0.38320459835342624, -0.2949115557482835, 0.5599203174876819, 1.164723366998468]}, {"output_weights": [-0.7959054261054154, 0.8968951152515499, -0.530244717587986, 0.778281444655033, -0.5628789917881882, 1.411099038070185, 0.24456737903070272, 1.555770233926986, -0.8019405456983005, 1.6143802157775318, -0.15214100428461128, 2.3158522787520743, -1.5919058002525661, 0.11206980696096695, 0.2400090596927082, 0.4858811769459512, -0.562803816838935, 0.22279474086868603, -0.619606529354784, 0.794320198422073, 0.7667745935120296, -0.9781395366201285, 0.14817298732099754, 0.1219187456661909, 0.49939151031841483, 0.9292394511749806, 3.1524253531587636, 0.7026589060546518, -1.733810997528812, -0.42415484519378943]}, {"output_weights": [0.7148570639879402, 0.8624864984815344, 1.3593935837788924, -0.6318611273874327, -0.550919815361781, -0.39886655601920373, -1.3412358871128764, -0.3458043150827818, -0.46886568160988645, -0.9160240649121035, -0.09190178229541823, 1.0570509777675052, 0.6940081457501099, -0.5910038849057282, -0.9668714573807741, -1.157701362165284, -1.4783728959195572, 0.23528344669224227, 1.42656246554036, 1.6409126013853683, -0.654479026817241, 1.217826142395924, -0.38747151302620386, 0.24522130281102741, 0.7400444813531591, 0.1746107270315, -1.063146685884574, 0.7445258103199307, 0.2568737492102264, 1.0840832226732318]}, {"output_weights": [1.5315222601831768, 1.7766128107777848, -0.09823248079991315, 0.9406658653441339, -0.21211087403942583, 0.12733054536804783, 0.5547584813170691, -1.6012823384758808, -0.8688225983009947, 0.575284224605693, 0.7896707399409918, 0.28506776859299926, 1.7505279880462308, -1.604001185407215, -0.045761464396336396, -0.4550911538166666, 0.9861504273511564, 0.6752420252424076, 0.2553700107698473, 0.17857190009628782, 1.493915406351791, 0.9373104399861685, -0.21142671800870258, 1.2591808306972374, -0.7465618160117705, -0.8497615142583786, 0.3578893692531066, 0.48698569288566546, -1.366471302342538, -0.03138701471676795]}, {"output_weights": [-0.8164305722835521, -1.1591453400175333, -0.22605435913173705, 1.212907560051758, -0.7996294543242518, 1.329684715197316, 1.0794707184571448, 0.39331654965351376, -1.4468295795013957, -0.6253413134417999, 0.5330675074372483, -0.018314147852593558, -0.24158477906315062, -0.8486549173129563, 1.4242813406475423, 1.5397155279291024, 0.5572042017033322, 1.4223563500220777, -0.4455764946353383, -1.5062703133343913, -1.1081709082192988, -0.044849715153856856, -2.8641114585601746, 1.1951615606890202, 0.5005843981870558, 1.7488005945072413, -0.5261799803475453, -1.0483811205729323, -0.751748752860041, 1.99606170650044]}, {"output_weights": [0.756492163774587, -0.7891494695529027, 0.2682686011873689, -0.39158287696068134, -0.06606169031630357, -0.04997419051041421, 0.5658158184916187, -0.7489712787057285, 1.696823340467746, -1.3537587985962083, -0.3812891837263757, -1.610189456211087, 0.01001655109641682, -1.4708151142671155, 1.0785612764774084, 0.05087943519435125, 0.8314112455263282, -0.004493838065069487, 0.46823565807256157, 0.9058144141938224, 2.0095791397140137, 0.8112026765621269, 0.061274554993829784, -0.5733092951563684, -0.9230327621490496, 1.1155310876033617, 0.1852612477281552, -1.9028759152004342, 1.2540971018042757, 2.4279263390860533]}, {"output_weights": [-0.3246770809473421, 0.020971393645553605, -0.26563040841644675, -0.7318801085650333, 0.10489013035587601, -0.3061073378384958, 1.1810030758075218, -0.10367728358885475, -1.0853422654275413, -0.1644402298317426, -0.7053985828821873, 1.15316285497211, 0.6104803052444642, 0.488822908104829, -0.03734621771432962, -1.5833499025211548, -0.5121527527929663, -1.6386639622810164, 0.7558257063974291, 0.3346128863030027, -0.3127074561118445, -1.1006257796680368, 0.6570087115451213, -0.9377413509310941, -0.047111971097176714, 0.16518788489100258, 1.30480376403394, -0.6438450916716598, 1.2615927581011492, -0.7540082443566137]}, {"output_weights": [0.526533865477623, 0.749988548913281, 0.09690360901742924, 0.008223597468512641, -0.9326286313454774, 0.8301089675094977, -0.10229102618734251, -2.2122236040192527, -0.46735448681866204, 0.33469810092184943, -0.5547082856989297, 1.9988903054220626, 1.2315427749155625, 0.9068444597112554, 1.158419386436894, 0.9423565385325416, -0.32411785286875805, 3.9658393539081054, 0.5328453674042525, -0.39256590461593543, 1.5199514799539955, 1.0494837888379587, -0.1608319837993049, 0.5031285296647174, 0.11237562123022653, -1.3486090966325228, -1.1896807615352112, 0.7065478543447925, 0.0573824500599693, -0.9375935796732054]}, {"output_weights": [-0.37299976939746604, -0.4649499507207037, 0.5579162975764379, 1.089432320368551, 0.3034267743287545, 2.4480083885189807, 0.1293943519048728, -0.25877153526630564, -1.5376147154433921, 0.646549213544943, -1.3179596825665556, 1.3301774261375232, 0.2620197384388606, 0.8951437425172023, -0.40989034861392576, -2.8893684256093346, 0.49729410389901, 0.7936052627810793, 0.04569606957811861, 1.1050506333130388, 0.4455844492542122, -1.8991235749908666, 0.8543264913839996, 1.244040435674087, 0.2302079752798145, 0.2448312720922731, -1.3566356795967478, -0.7569991244905492, -0.5500738008886015, 0.8408432258587546]}, {"output_weights": [-0.30676219376161634, 0.9656165702733303, -1.3931086928508003, 0.02434933679412101, 0.24342616005359854, 0.6183982239192931, 0.3878828768875123, -1.5256639156813185, 0.46992979846431815, -1.138624364553859, 2.1206588410516005, 2.18661949682655, 0.5327109928625594, 0.19945545108859114, 1.7739844966476734, -0.5908559212299049, -0.04543135099396799, -0.4859084088688645, -1.0220184877055598, 0.24309720097893808, 0.4452337337292244, -1.2520630962980683, 2.158266383761231, 0.35978794613794246, -1.8353909080697042, 0.3583184306010932, -0.022350699352831325, 0.31645528471897433, 1.9267272794459716, 0.27425659081511405]}, {"output_weights": [-2.184584111735635, -0.10537139553037483, -0.08921723256416136, 0.2299107425662757, -0.465589838412391, -0.10070483995243201, -0.35509993700482373, -1.7273003393011797, 2.4497729447230183, -0.9272810885461051, -0.3779662361185703, -1.814415862653727, -1.5148874125016716, -1.7086755823309996, -0.40688167568350736, -0.7228955679272141, 0.12487809018576916, 0.8603365640005518, 1.345910145729329, -0.09760849101245117, 0.08469902463162386, -0.7257141176355864, 1.4360143373559027, -0.7924648413743612, -0.9134354853279614, -0.4573268361202488, 0.8360164949001035, 2.2201746630088017, -2.7261140228906524, 0.24873674105798824]}, {"output_weights": [1.8751221264857183, 0.2849070819885272, 0.03230859110157178, -0.9382645604950226, 0.12643653356046175, -0.04859633919921957, -1.9880922815582531, 0.27729029833407265, -0.4600710364938861, -1.1470810439454884, 0.8495084182696719, -0.145898438376446, -0.18478234539918995, 0.02804166840992675, 1.1876297847606714, 1.1707105648068232, -1.971401858067098, 0.8539250980453937, 0.6975464033216515, 0.4021767985869324, -0.9271828061390914, -3.0616578838464763, -1.2256430894306194, -1.111385697268934, -0.12842056465129242, 0.4082684829290849, 0.23380915531960872, -1.4216747874409836, -1.3087948126032585, -0.1873893433344529]}, {"output_weights": [1.3205631416754597, 0.19816911680985452, 1.2615039060768507, -0.00859157583563224, -0.40491374523353046, 0.9742682322858751, -0.18647283506782694, -0.6410109487597205, 0.13523662984059537, 1.3901514717142027, -0.5892419200800786, 1.799073729287176, -0.22113141551769722, 0.17146692758636334, -1.2401459012061171, -0.6694543214297267, -1.655993896984959, 0.8162819885121313, -0.42782672075246647, -0.9901713476923446, -0.05661490416371683, 1.275767911159333, -1.0562662237296043, 0.30091027390925795, -0.49330663463145774, -0.14188078137958077, 0.5164709440163161, -0.40643101552081257, 0.0006842494986286029, -0.2993078549879699]}, {"output_weights": [0.22989033942790962, -1.163862456975201, 0.9067150056998569, -1.642538439218842, -0.027923478980580747, 1.3334912847510967, 0.5434082874736782, -0.7126620656250053, -0.8021479330412228, 1.7828112705298715, 0.11106183590982677, 1.0457975906631798, 0.8925007542855682, -0.44908003513814193, -0.6726481252651693, 0.6097279843876933, -1.1267729792711834, -1.426806742972136, -0.3750610215896608, -1.569713540372301, -0.912639878938329, 0.429914505662365, 0.41370918071444024, -1.416081690999619, -1.333473266618784, 1.1581271931751627, 0.7371384457618693, 1.7914228378306358, -0.6789172061159373, 2.0418198753930623]}, {"output_weights": [-0.8680590741519468, 2.4760624048829234, -0.9607193643844762, -1.5314244621938644, -2.400399337373992, 0.8478632701513577, -0.2084829865253409, -1.1124622959744979, 1.0573025437826824, -0.590646673013545, 1.7515665142265222, -2.7705638649670186, -1.1523800843311651, 0.1782344210683831, -0.32203230363431196, -2.1386372662242477, -0.827074832533081, -1.271799313043884, -1.068945209896996, -1.1027935835312135, 0.8293647684738338, -1.1488691909610846, -0.3542040187365342, 0.532632485353374, 0.24800016035401537, 0.09651345183551831, -0.6614068905140996, 2.2604168705561984, -0.6210980230797976, 1.0149883735420429]}, {"output_weights": [-0.6993979804110206, 0.5191507149657516, -0.2393332352983921, -1.4094303390428646, -1.4157041152319947, -0.09971601899504928, -0.018313770342127254, 0.49988115886642454, 1.4914645574533858, 1.2262758055161975, 0.45449653253475963, 1.3287165328835011, 1.1785662749332737, -2.667463607331902, -0.610404324055213, -0.45484382729425904, -1.5946055198547744, -1.3065999891110893, 1.271406570789383, -0.9967437232934426, -0.2715226237516161, 1.6384864462269217, 0.9509723602499222, -0.6423628823933244, -0.25175792688768595, -0.21435804430893457, 1.1960918037943846, 0.8267455380974321, -0.2281452178917761, 0.46478227660933896]}, {"output_weights": [-0.662699152943342, -0.014860920009445732, -0.3793525039803647, 0.4414396397137558, 0.8182938071757244, -0.6524685824915354, -2.2194067817896967, -0.751603307821259, -0.6031959023936366, -0.7303068743191686, 0.04590724635072912, -1.6844135245577851, -0.7516035888260508, 0.7370440765174856, 0.27085874038481766, -2.311798191773484, 0.5884699540258788, 0.034933978738623826, -0.5858882314695364, 0.939286226016289, -1.7067887954554726, -0.23983210677025224, 0.01988688000348588, -1.2373521224684154, 0.9309546766918446, 1.883572558521504, 0.7823456551557078, 1.1752945789871236, 1.1942802485060084, -0.05046660394972299]}, {"output_weights": [0.8423310831338553, -1.0460038396492835, 1.420070907541205, -0.30009424564942916, 0.6130057997161323, -1.173597854589063, -0.038776008924591376, -1.0092631295770909, -0.17500193341047582, -0.44845501530403825, 0.44701569805798436, 0.4721574658535059, 0.7708722078910025, -0.2191355904446996, 0.010406594185933642, 0.1439657473015162, 0.6219211819101511, 0.36351796926090973, 1.8016898107236372, -0.5403257813634722, -0.3437434196940575, 0.770864523219089, 2.300307276145074, -0.6400746407171976, -0.5916240604032358, 0.8602302869432304, 2.1084625570559745, 0.6759351544940143, 1.218596662192625, 0.4471337718566592]}, {"output_weights": [0.5727829680132244, 0.996596739259331, 0.13237259507677518, 0.7143842312211179, 0.9624483341364896, 1.015084766855503, 0.48617999835539155, 0.19541037142600637, 0.9527199625512848, 1.0466764007108202, -0.36143973405426516, -1.4655202652426014, 0.8433903407237128, -0.16807125683771693, -0.9904027911999772, 1.1760746865087395, 1.006185104784998, 1.747605810821212, 0.8930948636878616, 0.8462093392979563, -1.8238436633624762, 0.01851073749949181, -0.06354310962850271, -0.82723435166405, 0.7996575309505628, -0.012099188498197678, 1.2695769317475611, 0.48479065321129816, 1.3143903625861257, 0.6335462887086631]}, {"output_weights": [-1.0054167333171922, -0.5569891261157321, 1.7318342865996, 1.1031962320606894, 0.44639775737462895, 0.520584004222553, -0.8993581081391588, 0.12538914691005282, -0.251307219371778, -1.431460625802951, -1.1859905304442515, -0.1697023026060742, 0.5487271870713077, -0.48477857636344673, 0.28525089883232724, -1.7453193332387533, -2.090942251386782, 1.7058176807574341, -2.190717246983783, -0.014814453931613066, 0.6550626917551302, -0.2177597561594958, -0.6272401020285588, -1.4736089246068973, -0.2604038451015624, -0.5092795642103735, 1.585531765407679, 0.4025434906887606, -1.0299964767615548, 0.9048084606454322]}, {"output_weights": [0.28733152824620395, -0.3370927310610791, -1.324972887394353, -1.6637789738699438, -0.1047495143383946, 0.37767820162068255, 0.3548503741390604, -0.92061035464685, -2.208835584291607, 0.08118825744073137, -1.6123331511011587, 0.14036971224494674, 1.4595453872997735, -0.2094772037624679, -0.08453929799784923, -0.9694541314452213, 0.5604140933085392, -0.9206151367199754, -0.487189910579536, 1.547948306149768, -0.07715935734635535, -0.7308815565116908, 0.8564796737686379, 1.4594604953483077, 0.28249689517472115, -1.3285769979968658, -0.41088365550386113, -1.5674567227885403, -0.38887285144450734, -0.7850450884251605]}, {"output_weights": [-0.6305676964389434, -0.47860166876729343, -0.07002314218527098, 0.502791164116936, -2.390225042091299, -1.0586414766159895, -0.5769542507749488, 0.9247248808443713, 0.4450382182063032, 0.9731956662239408, -1.0024918693369675, -0.5004975416137993, 0.1800091114811517, 1.021846482231033, -1.4905299608909077, -0.5166541198631117, 1.4555662126595348, 1.1149104380786912, 0.8256951011564757, -0.7153797318911728, 0.053867443554567136, -0.30368088446326086, -1.0024661582789194, -0.3812193873185145, 0.9420107330880216, 1.1526754514304163, 2.217322141201903, -0.6003571724717983, 0.7433163794720926, -2.0629036236760614]}, {"output_weights": [-2.252103772100324, 1.13575030351792, 0.7315936233076175, -0.7179953833574462, 0.4182090730063564, 0.0308435340123854, 2.2202335663332287, -1.0804239568551206, 0.8302841130192476, 1.5256671300343683, -0.40610538815342423, 0.7840148453888025, -0.7373760534077858, 0.5681466424055187, 0.28775684174698024, 1.9265467056017047, -1.5119164677581336, -0.9350299131976036, -0.40064943081551346, -0.03073350253128185, -0.9947245186996069, 0.5172850620144045, -1.0497179376170656, 0.01266879090433675, 0.27262466347836606, -1.7383121516457318, -1.6686201245298884, 1.0468358821793344, -0.3528106646823503, 0.4982499204422491]}, {"output_weights": [0.13424455132237326, 1.4407507330528637, 0.7770020528879599, -1.2213478903281736, -0.0742141842876495, 0.8807920216339287, 0.1453087704813888, -0.6810092993313808, 0.9134761504984874, -0.11394172809175399, 0.05611956136079886, 0.014034887529069385, 1.306661266368197, 1.283911313261896, 0.8890487749077493, 0.06488174761716257, -0.9827358519724999, 1.174734491818261, -0.5247753650274481, -0.1611009917672412, -0.8860382225572754, -1.0481263060297616, -0.27197265193453923, -0.17992533800678237, -0.7179038757905926, 1.164166971803774, -0.47273937897310003, 0.11327636241429645, -1.92834330662587, -0.09769637465172415]}, {"output_weights": [-0.2586143061835176, -0.5196192066100634, -0.21736941196179954, 1.2010954037785877, 0.05889041792108541, 0.2511040837625957, -0.48444232303849044, -0.27696296173082113, -1.4362141748286057, -0.6894229649453313, 0.3548083404156526, -0.7917649760470565, -0.27814950411677386, 1.1561926937709217, -0.21079130937354032, 0.3308393033497817, 0.398540165345671, -0.22172882979329794, -0.9386949819133403, -0.020930216634932223, 1.1628480123555445, 0.3692266688280269, -0.5163827923217803, -1.5256689314129517, 0.7263239560632071, 0.0845244577163285, 0.4100567724053124, -0.17730835035473774, -0.9833117364355812, -0.6562646460763087]}, {"output_weights": [-0.41958268402789206, 0.5333562795267642, -0.8651701472629406, -1.9010668266358661, -0.08733331893622581, -1.1889876750462567, 0.05578056413717429, 1.0381414236789668, -0.7288360939938007, 0.07937167494348275, 0.06424494342589611, 0.6048724044111438, -1.337478442555019, 0.7155109337072806, 0.5652115652307869, 1.331905258661761, 0.353532487523601, -0.5037854097704977, -0.6590939739094348, 0.1349924239490419, 2.0793644903333726, 0.153035858762736, 0.8981388260774745, 0.7908983578090013, -0.015740301844225684, -0.7464065243884349, -1.06630118874412, -1.8616179168349614, 2.100886760705469, -1.9824014010449351]}, {"output_weights": [-0.13263528177415557, -0.880284821248017, 0.5355456085143424, -0.3178994386714141, 1.6145871729967167, 0.6760539532278323, -1.064020335906017, -0.5414796436027852, -0.848282428415608, 0.8720597985684903, 0.6723256126089252, 0.8327940689620729, -0.09486386832150061, 1.1203698354281617, -1.440904999937119, -0.1142377425822584, 1.0546959076089335, 0.6497944055748346, -0.038194174708750334, -0.2744923011925272, -1.7745109820833282, -1.3895164061664929, -0.2961369177548749, -1.5706572436966053, -1.6941977611108678, -0.16411168971779616, -0.6430623401372083, 0.8900535798828538, 0.13204362615061083, 0.6907142198203315]}, {"output_weights": [2.0448177234214824, 0.4262671844617444, -2.022110023965271, 0.4307863716244552, 1.2045628159167414, 1.090779403634992, -0.141007403107723, -0.31138783020561467, 0.21637795850402392, 0.37241457900818065, 0.8334464717306239, -0.4530191270192135, 0.1612886110175252, 0.6911381073753946, -0.7783796566173915, -0.49868601588123224, -0.46131960175473385, 0.9080845224292845, -0.02088348027505367, -0.6640732733254914, 2.1218939255274547, 0.28789872659473037, -0.06513121326116442, -2.0664431376536125, -1.575924587515928, -0.6407939399122249, 0.42345986984452194, 0.9570159677175311, -0.5941614951570194, 0.5390950010665286]}, {"output_weights": [-1.5418699814171928, -0.36978198369646537, 0.10892046353383437, -0.6336608642223908, 1.1963856763278826, 1.531539171787472, -1.3727131594719224, -0.33469325918126797, 0.7480000766115177, 2.372169877441785, 0.006843765044836235, -0.29989447284436077, 1.5967497799344916, -0.04115860823729307, 2.936300153665546, -2.4047402158210147, 0.3655216984993994, -2.0352397361339354, 1.80018236294208, -0.49137586917808007, 0.559077809524729, 0.3038016602519061, -0.9329712807729466, 0.6521012863316087, -0.6938790941523061, 0.23482271951498127, 0.7417673684223925, 0.7602332807252283, 0.5948494517596451, -1.3043808535650407]}, {"output_weights": [0.6265580681894883, 1.0882023339244304, 0.6755684291999248, -0.6828361180559066, -0.22929386253113193, 1.1472440688825642, 0.2893063384820015, 1.3559111633491658, 2.1288218463716153, -0.3126532332363096, 1.539101507699768, 1.1249603058244326, 0.5964586034554461, -0.6419121902517191, 1.0851781967462, -0.16908028459110724, -0.7856252244486125, 0.2901673275360887, -1.46755856987005, -1.9849661180052323, 0.07688421536890508, 1.1593216113405853, -0.7043634396824213, -0.35555111896378544, -0.3681080685663023, -0.1941668618704863, 1.4071117918620561, -2.0330693614129918, -0.9602476243725498, -0.712289304700396]}, {"output_weights": [0.7516232753985427, -0.42094543348809926, 0.5066948961829751, -0.595598893109769, 0.322014138496097, 0.4467259695967363, 1.4477434188810725, 0.030082207988716993, -0.4697243765341569, 0.014998202835433322, -1.3355828502249747, -0.15393865123896774, 0.789522404108113, -0.9323373181147854, 0.4625933038293535, 1.8839514373262145, 1.515199903485282, -0.5721093217065187, 0.5548436849378369, 1.033848138993701, -0.16964588897280478, -0.5636960444510861, -1.0982950315544626, 2.3667321849638, -3.9210562635706516, -0.04088873476388392, 1.0491688505721342, -0.4493862289839716, 0.4534083677711141, -0.43133319393760394]}, {"output_weights": [-0.18326168077112703, -0.07438578570975685, 0.4590394806300321, -1.932999834564778, 1.3485931553360877, -0.09180386222324705, 1.7795762518125433, -0.13234290662532694, -1.304108724745186, -0.507770652230546, -0.5202832377801848, -0.8282499461887162, 0.5858459668625012, 1.7875093224884113, -1.5340770800476486, 0.6669235090757909, 1.673258148663722, 0.6431882925568743, -0.6334090241068313, -0.25793472354729324, 1.2737986278038052, 0.0491061038327103, 0.18276110511322893, -0.33224272189784815, 1.7887107695486042, 0.678617701252076, 0.047264706741809985, 1.4563103020148562, -0.9470138605272544, 0.7890594977392296]}, {"output_weights": [0.7379254094328918, 1.259046552740702, 0.9309179260734469, 0.02855358978152862, -1.133148290844565, -0.2098594264791984, -0.9016766096462057, 0.8367161074685647, 0.1634135541407924, -0.23611384836815325, 0.2003250057039758, -0.696048303933517, 0.4769840441773866, -1.5805471080285853, -0.6235973432123576, -0.8468772317005837, 0.06950565982852258, -0.5809027683320112, -0.546570370442747, 0.287801419775679, -0.23721472212617975, -1.1971683774804471, -2.302619655985667, 0.5074551642161843, 0.7319220643126522, 0.983730725767853, 1.0999657795574624, -0.2250861343900602, -1.8495949982242268, -0.022789737411044925]}, {"output_weights": [-0.14856316699050548, -0.24367744088927126, -0.5428129636653737, 1.200252610812781, 0.43079438699620326, -0.154500351875358, 0.6329277953442388, 1.8836633891822478, -1.088826533421317, 1.0602114942787872, -1.215454677496034, -0.755761960183022, -0.5271664065116551, 1.5646065222119856, -0.24439728531721414, -0.7692693879081294, -0.5936217420909974, -1.2968479803421358, -0.29382259878541866, 0.286932812901403, 0.23861099779942194, 0.2428203866071169, 0.09117412054182487, 1.214682397106424, -1.4811167020941933, -0.7157519322791017, 1.7271784521189857, -0.6181589450328312, -1.0932675703896313, 0.9910646754459148]}, {"output_weights": [0.18020056145466692, -0.07911623027781833, 2.306135192957544, -0.03154196778424565, 0.735395247029014, 0.33877619088102856, 0.5836769430436173, 0.4386646172329436, -0.12852465192573992, 1.158623815998231, 0.8363866199078949, 0.14108772770278916, -0.13129789919923615, -0.10089907881304211, 0.24134090049137594, -1.8829273824935628, -1.1971617165832444, 0.45809576686042797, 1.7760739984191578, -0.3724506510967919, -0.5935630728169271, -0.46230557391746385, -1.0347566634197776, 1.1250101726109165, -1.4237415606202921, -0.2601981154015752, -0.7561460280798421, -1.536361233335077, -1.7934153542130682, 0.5651714613582081]}, {"output_weights": [0.9889177081581879, 1.7680947001434772, 0.6116105405594245, 0.29271097008153396, 0.7717695713579588, -0.38739326911650196, 1.2517425177712092, 0.29207574256725904, 0.4929081522629984, -0.3073404919847475, -0.9557500198020563, -0.10236030955395856, 0.40429624396525293, -0.6041589746589328, 0.20995853334631867, -0.07556798000948053, -1.2140686359308555, -0.6114214517109219, -0.16379362489366317, -0.6059430698777721, 0.25310433497190465, -0.27746033185847707, -0.37091112250969327, -0.5518286979421442, -1.5027151376796455, 1.5382899790612266, 0.07697744031623915, -2.6054876113641616, -0.6003309532937039, 0.0846752171956226]}, {"output_weights": [0.46105711912510117, 0.16637766877447369, -0.05271664268167629, -0.9035917864599525, 1.1982040678657842, -0.8298638998945395, -0.5574562699064031, 2.0644932542261856, -0.763233417708379, 0.6216143393922623, -1.6349640436847173, -0.7004545783037209, 0.40922427880642503, -0.2550433339789899, 0.5871240514683395, -0.577299971712845, 1.2472834066180936, 0.6191614222046972, 0.31022747263778455, -0.08360784907929446, -1.0713062229790484, -1.7621503748136267, 0.2466224181019527, 0.8902095276022953, 0.3735681302628143, -0.49759659822659374, 0.14391610120984386, -1.1405724580932777, 0.9396305718677956, -1.4605352710324917]}, {"output_weights": [0.23543104830620798, -0.18167699348279448, 0.5028730335350969, 0.8021511551244815, 0.2904930060942126, 0.4908836527700402, -1.3540707265041048, -0.8580374446801129, 0.2112118603488397, -0.6518470809062987, -0.3832839594581846, -0.3720692412607924, -0.4623645342589446, -0.8458552268234915, -1.1702500566352307, -0.528895606400718, -1.9087646879821296, -1.472104135142063, -1.3778592395989477, -1.2604366690186626, -1.3208046419521444, -0.04136663857612266, -1.602805510324633, -0.26934951305932703, 0.22902610368584886, 0.4387759964406745, 0.081398291518009, 0.09931907349051912, 1.4789785646784335, -0.33343071995002166]}, {"output_weights": [0.33521063140705737, -0.3160868203136384, 0.2411854908791374, 0.018185573070956265, 0.18716645979462912, -0.5236560258750335, 1.5516583089015863, 0.30627691175749505, -0.6402915952869139, 0.5865490950324944, -0.8555306793173043, 0.6211049886702535, -1.048968027448367, 0.8129720861330353, 0.03372506221103296, -0.4284297095382093, -0.49635744714412283, -2.483187928256133, -0.07747156375340432, 1.4681208473028442, -1.1446786966529887, -0.5040679123128247, -0.9719434909809032, 1.1345417875774986, 0.8592568115053553, -0.06782585135031659, 0.4662606443415072, 0.051788081825463045, -1.263649572418712, -0.0650280088865927]}, {"output_weights": [-0.7680929175681276, -0.25977915887035063, -0.4569737399659148, -1.6502673242020152, 1.6793998073139518, 0.9707769994513156, 1.2221059756938357, 0.15068276438763684, 0.7181562727572154, 0.11734423084956856, -0.48825807282423817, 0.5101490000008041, 1.5855667661208113, 1.4623554370671858, -1.6142573833781197, 1.0148814321713895, -1.2712106613606962, -0.7391233557488143, -0.42027905825829215, 0.978967063584454, -2.059377646694696, -0.23151071973743825, -2.067916417704261, 1.3903762580360135, 0.5432461110414636, -0.05206895272346492, 0.4717227863870113, -1.5143836184368653, 0.7817509827365632, -0.4091487863541404]}, {"output_weights": [-0.3327406898813855, 1.230106265924507, 0.658718789929199, 0.5274213703340878, -0.3054937090812782, -0.009499167146207417, 0.36275185179321284, 0.03341044318544023, -0.24030828328991521, -2.0443549819534925, 0.4630057752660065, 1.1850888821563654, 0.5099196185319266, -0.17934469151654228, -0.7255000655692627, -0.6038315868829032, 0.04148452886682404, -1.2539704398980454, 0.9972586127745382, 0.477612845244498, 2.0656109111231777, 1.3620412108665003, -0.01787759229642803, -1.7020148132332347, -0.36774672504925277, -1.5906919383387106, 0.41909541737172573, -0.26882397174537925, -1.9890891480551844, -1.6135092881120734]}, {"output_weights": [-0.028619774890018254, 0.6322411612754525, 0.34021908063183415, 0.5382531885689583, 0.6059339990093444, 2.321652112157692, -1.6391874440737775, -1.0278157669373373, -0.19037647290626633, -1.0232365125942164, 0.6250001324561336, 2.1074176564752474, -1.0682829191055099, -0.11557489343712006, -0.9384070918246948, -0.30509895388134045, -1.5002764639451929, -2.598598030967687, 0.8103231705509768, 0.6101168964702679, 1.6379694733840942, -0.14986278184909235, 0.21451150465360053, 1.0041922645138757, 0.9584994938277132, 1.880041620756727, 0.02479011853411516, -0.3332016000669506, -0.6104724607935328, -0.6341454443634632]}, {"output_weights": [-0.014457516786468796, -0.9558283541273465, -1.6860418827096157, -0.5432417488121296, -0.7079882154244301, -0.5922829979344565, -0.7140430470838672, 0.9481496806589886, 1.7647342632735927, 1.1113324608307076, -0.1775607552443402, -1.5557331363987736, 0.37712586385831987, 0.07177702838715572, -0.20596033212858486, -0.73624672659551, 0.03448680744206146, 1.406995667859002, -0.7587826594143363, -0.0687056923558037, 1.2144837442018026, -2.322010577626404, 0.965168934749672, -0.8890765296934364, -1.315976259663915, -0.9056723068980618, 0.44124834399610696, -0.5527075402210737, -1.0532873282577573, -1.891265793635605]}, {"output_weights": [-1.2636036404375977, -0.32984574996343097, -2.392568047564158, -0.8860198637252895, -0.28377610751127036, -0.8630123745229286, 0.587312431666111, 1.2457330202886157, -0.6711732140198834, -1.0137902710595847, 1.1214482068490867, 0.06282916748202252, -0.18352555539666512, 0.5599487129712988, 0.36461924079793795, 0.04168992115157066, -1.1047032315811403, -1.5547431368827713, -2.2717025570226372, -0.7023224723096958, 1.6369870613906548, 1.2531240539651423, -0.146113359800761, -1.2124840353249304, -1.1639148054384594, -1.2203960064257162, 0.019733046821830677, 0.6635890077666338, -0.42060131309450743, -0.2933689886284419]}, {"output_weights": [-2.0375603171745507, -1.2038481350886925, -0.3202925318637776, 1.56614271602458, -1.5935188814234238, 1.544716293678307, -0.6890236829222993, -0.940997058857804, 1.5158264211369799, 0.04813855588318109, 0.2357629125880505, 0.815794307736611, -2.0748882982535033, 0.6725881117404733, 1.7346734952292946, -0.6932682225197142, -0.12616480895209306, -1.035873593666004, 0.1341259929885883, 0.2766377501796371, -1.9793529159815082, 0.8193172192552195, -0.8272786990741013, -0.7491207040180061, 0.33874712793620515, -0.6050144316570416, 0.4532194446685829, -0.23522920489443577, -0.16229593894135402, 1.4121238716288937]}, {"output_weights": [-1.7795262881661695, 0.35532235891587677, 0.42457959207494667, 0.4598519306334277, -0.3821401878549504, 0.4616166109249022, 2.252015188871906, -1.2419868278298931, 0.33099893183127516, 0.4235478749890133, -0.7578351755952792, 0.23208666051118634, 0.8775447870023657, 1.1853992686756587, -0.7444422029097798, -1.402241542734518, -0.02156321264488275, -2.3843401662463775, 1.630207626796743, -1.2837240472168714, 0.5468160294663421, -1.6409069731679071, 0.1628540600868286, 0.19384826079740589, 0.1948496118839067, 0.7424518318326575, -1.3419601476485046, 2.8894619687907266, -0.8962289981065754, -0.07821955154825569]}, {"output_weights": [0.7631766635936489, -1.4782887146962105, -2.722041204416845, -0.39077638911776824, -1.1623959530312802, -0.44212962171863696, -0.2817684126092348, 1.075854243566343, -1.797743670159556, -1.9177625692640725, -0.5007036773355874, -0.7062643856971657, 1.005771450393544, 2.226376833401914, -0.25031937907021024, -0.4691500163809853, -1.048307609686747, -1.1561330196807156, -0.43612532018322886, 1.305414737912926, 0.2562808360762539, 0.0908958536857471, 0.10083151569652159, -1.7881742045763396, 0.6142016203703992, 1.2450393832490458, 0.0678481570728534, -0.017345975310355196, -0.8729598882226046, 0.029016931692554985]}, {"output_weights": [-0.4445270923047938, -0.47217497445885326, 0.18295219166425192, -1.2017858911726953, -1.8945041891286585, 1.6856493444204723, -1.7573343074058836, 1.3082274215163128, 1.5376896249087662, -0.560258596799012, 0.09512224718744267, -0.6791657451879671, -0.032988880148983525, -1.681778626325635, -1.4482464532572847, -0.9163303179714095, 0.42578326144515477, 0.9757686033616547, -0.7199782385664486, 0.7308599216531266, 0.7742670279498723, -1.3466278516278907, -0.6446692338685354, 1.1451415249769126, 1.102197169210057, 1.3541883796989638, -0.046472361006494434, -0.4317356957451742, -1.249878067685858, -0.5050032190049651]}, {"output_weights": [-0.07264525708396442, 1.9176710394952463, 0.2987159820339378, 1.149348290052471, -0.10523414419735021, -0.5877414926341412, 0.8700410686733174, 0.6810341548949789, 0.2684941391891132, -0.3469120187687262, 0.4557900644567755, -0.5465201656702992, -0.23170849662315748, 0.5856849621366804, 1.8972268816034883, 2.785682329171517, 1.441118344666061, -1.2979147619834102, -0.08052623970839329, -0.8843744303019904, -1.381078447731475, -1.7231188381509603, -1.05871510087397, 0.030434968742963763, -1.1638451589037493, -0.9496750995115428, 0.03739692465322579, 0.17942784880620263, -0.920632422375066, -0.2033048381260845]}, {"output_weights": [-1.5504242376765844, 0.022145892017066966, 0.1690098709258735, 0.22732893976869495, -0.21460955041456722, 0.4538993655021476, -1.3593673286742542, -1.665846987326048, 0.011024180663733046, -0.46265753726791875, 1.7436670475862064, 0.2704301810359628, 0.5227988521593802, -0.28401206402914475, 0.12800099750982363, 0.9248354170747083, -1.4846494553282865, 0.22540893118514554, -0.6862925470024812, 1.2885476338063566, -1.1850807722479306, -0.12536033324841672, -0.446041317991079, 0.011881016297152073, 0.385502154475717, -0.8605267541552999, 1.4989749871126778, -0.5722545919780597, -1.122272226623671, 1.8766499305888225]}, {"output_weights": [-1.2900410689353436, 1.2602559738098995, 0.5467013096959406, 0.06180913424833389, -0.06875383647114926, 0.9344952017612093, 0.845219049411625, -1.238711864136313, 0.13375410291554432, -0.16330872984748926, 0.3245231233041729, 0.963136514794277, -0.14137830435704118, -0.45486087418074433, 1.4628424067005839, 0.052900309668266365, -1.1252183981126833, -1.0862483888477052, -1.0648643353835434, 1.0116432510923756, -2.0530248251927077, -0.24227287147466003, -1.3445129312478399, -2.526699637637353, -1.6863369015112708, 1.09416779360792, 0.7415767620103098, 1.8431706570653568, -0.2919717872829616, 0.26884025018885216]}, {"output_weights": [-1.515226734915966, 0.7857173553867076, -0.7766214416155065, 0.8623443129190387, -1.3667666266049825, -0.501131821008587, -0.06888976568124268, 1.9972233638105732, -0.1328555611193246, 1.1907021151368513, -0.8171125433957375, -0.4834309659464513, -3.6716280617585793, 0.043875254471342676, 0.8005184500418354, -0.053965926306973895, 0.0958357769686988, 0.5375226956454242, -0.0006800790185662475, 0.1392188089135812, 0.4862255362635482, -1.4655707537820781, -1.3400336053904125, 0.5629361883746733, 0.22725475516352112, 2.146241571586574, -1.1753061305332877, -0.4326243210853694, 0.2659678177920408, -0.029547474739438185]}, {"output_weights": [-0.3703255159778919, 0.5212277735870438, -0.5532448347073865, -0.6948948430780157, -0.9286385380489335, -1.4710854645050362, -1.4827217344088341, -0.21708454225033277, -0.6403390344705866, 0.913796613413647, -0.7354929410570509, 3.1794686132399965, 1.1514710460678796, -1.2236110237603803, 0.32800684257450524, -1.6271662128756113, -2.2359990226695867, -1.8723339207559617, 0.4401925224478727, -0.19714323572066744, -1.9387230169846057, -0.9081343909755135, 0.49129265118065407, -0.5216379993988043, 0.5695192916238325, -0.7672325691627918, -1.759066820960131, 0.6429171296880485, 0.10767688601526117, -0.46438588011465887]}, {"output_weights": [0.8754547713273009, 0.5240646466039316, -0.4264507420829685, -0.5827608806476197, 4.059088926981075, -1.2870810524553598, 1.525280596741484, 0.7112284110738165, 0.12042771235090392, 1.1783440307039683, 0.05551824263546607, 1.9840456934535815, -1.460749624836908, 0.3206366748544613, -0.3024060448551493, -1.5420414077908244, -0.8912995456921063, 0.7122641563783724, 0.0033622884401888087, 1.4844739049181659, 0.7302292031169106, -1.0960335895637359, 0.22062778591162024, 1.1493785102133336, 0.5208884045535548, -1.7246396742278312, 0.595927971109047, 0.7158976863813676, 0.630743600686007, -1.2413190639358935]}, {"output_weights": [-0.9943356003174187, 0.5152454897153325, 0.49032052553507977, -0.2369709856232822, 2.7700800585500716, -1.7872860068090939, -1.5312548796600811, -1.2609840770595906, 1.068976354742482, 0.01765027263899003, 0.8772332594680718, -0.1942574691708506, -0.9524588238649788, 0.7270519733123022, 0.7763400356118053, 0.48196773075258914, -0.2795610863342604, 0.08696517183329666, 0.31440453878152225, -0.5604192017185637, -0.673072024732188, 0.14463707855751953, 0.11123311261267907, 0.7094618822531648, 1.3518775151676663, 0.11842360563202924, 0.7727996929459673, 1.0485427840525519, 1.5188179243092177, 0.014710471022863821]}, {"output_weights": [0.11889536395578114, -0.13995987216949995, 0.1560789140693195, -0.06383074869779518, 0.6515981953757116, -1.4388440534212645, -0.2756353516915367, -0.2304994653731968, -0.27785865154062767, 0.7278579728076842, -0.026637355884963725, 0.7831180965769766, 1.5383555475321993, 0.6208308162831361, -1.4472902093588755, 0.7648728136183388, -1.7146156204052128, -1.774064265152572, 0.17872022279100322, 0.5669131438096251, 0.12372826094381074, 0.43062267008823263, 0.646647786702293, 1.2565287152116802, -0.06965547447435343, 0.26027024812293464, -0.8764806238694405, 0.024060632018026145, 0.45277789638676147, -0.8205416725283148]}, {"output_weights": [-0.7759649540350428, 0.6031210418511465, -1.0626957974258509, 0.4840755079468585, 0.6401446340110334, 0.19320151726204907, -0.26077982861771604, 0.8587183340740866, 2.261941430912378, 0.07681899770672475, 1.45163216437329, 0.25612311484455724, 1.0781153919661004, -1.8296569886830214, 0.046420181866168315, -1.4496439816256474, 1.3320761648260044, 0.5370377451887477, -0.416974649566618, 2.1061167444166653, 0.24406532666803102, -1.9544025858810934, 0.08138677612100143, -0.44466562528701276, 0.5707824670700052, 0.2937587304169916, -1.3677714816148734, -0.24906612145301238, 1.9532604876975304, -1.2336403769125823]}, {"output_weights": [-0.8716028014301112, 0.6632108741140113, -1.5210348169881076, -0.03858805688927118, -1.6608482676732639, 1.0152556186216033, 0.59976932503804, -0.7195259383489443, 0.054971651004534244, -1.5966439706361673, -1.285721899000934, -0.6438287985530408, -0.8111127868658103, -0.808472755965781, -0.5092002811912971, -1.5509782736904145, 0.13407298781385923, -1.5403463136940656, -0.08526434493059273, 0.6675613298423198, -0.9067449065507459, -0.3778946637726745, 0.5618925063177438, 2.2360151909294914, 0.38262979323848223, -1.6649297781366645, 0.18393338479492644, 0.39678708602988055, -0.17928974660328936, 0.26418475163554633]}, {"output_weights": [-1.23256507919802, 0.545304572320617, 0.27665086597801636, 0.8882573428198759, -0.5368079036603184, 0.6990074619694325, 0.8541238735848273, 0.47634248705054816, 0.9939525002258877, -0.15508264195827626, -0.09841248642757759, 1.3387908480514836, 0.207405118333416, -0.059299849981761216, 0.08021076272000037, -0.7441077965235013, 3.0353410845388433, -0.7460421304975894, -0.013454335892210963, 0.2283904069973958, -1.037176443136175, 0.8331303011574691, 0.03170928459774795, -0.3454093755671042, 1.748734254415234, -1.3580995175367365, 0.4232740301231215, 0.9940583529519491, 0.2732185998251036, -0.7141005701356167]}, {"output_weights": [-0.1540937094641769, -0.020474619440758377, 0.5542251053186539, -0.5548736100382291, 0.24857680355913095, 0.42279105596958744, 0.08466718780992444, 0.9123809641602492, -0.10548928345079242, 1.6212355411116721, -1.8843508654292065, 0.32432970746948353, 1.4377333552740132, 1.3690492433537145, 0.851777171073007, -1.3285380455361866, 1.2377455785901703, -0.6654325591053307, -0.7150503697949071, -1.1525100699257473, -1.23985365522383, 1.714756681436757, 0.8083599645553322, -0.08533465235181281, -0.9956206816499816, 0.6605803635130045, 0.6942685608979815, 0.7137214859676925, 0.09701568828669867, -0.1838710267381662]}, {"output_weights": [-0.3603920673218582, -1.2881893393577373, 0.8030128580844088, 0.3437720120449874, 0.28832205375316117, -0.6060683004760213, 0.7596773620341002, 0.02345228328508867, 0.6380139677074678, -1.457531282097941, 0.9395766082418445, -1.2191992329468302, 0.12348497436252857, -0.8993808043321245, 0.30409556752302047, 0.017578633133752856, 1.2087185068707667, -0.7332168381528904, 1.6595616857326867, 0.32460714751127534, -0.1563925274462604, -0.7529507615088427, 1.3166753244225151, 0.25204262045279263, -0.33901720328441837, 0.3004373530173899, 0.7100127178241489, 0.5211014008604207, 0.2633598486179011, 0.15716206306127453]}, {"output_weights": [1.6642846995318428, 0.12781280626979025, 0.6903281832029079, 0.19828406157708703, -0.695722532273086, 0.036143284474736, -2.267886324739999, 0.5210102982428405, 0.16538609231410648, -2.430144865455244, 1.1689412353842878, 0.9226214304624157, -0.9676783795636482, -0.35601980582930376, 0.27081430981433, 1.0558650524623516, 0.017997309385659317, 0.4391874361466802, 1.1645725504366586, -1.2365680517411777, 1.3917046702040423, -1.611238978947597, 2.1911966860983108, 0.9316719569983641, 0.1719160623548785, -0.9060378645541669, -0.262628353603672, 0.5853397703217809, 1.2842940050126637, -1.777757188251701]}, {"output_weights": [0.6712488049439879, -0.06349054924492617, 0.0995038262915862, 0.6687686709081941, 0.594467839398326, 0.743610052088704, 2.5520717165298215, -1.9751852744361276, 0.1592855360026971, -0.7051154373785707, 1.1501167855801302, -0.060424475361574186, 1.9122641272764833, 0.9416653099018975, 0.16855151172315444, 0.5350022298362938, -0.3725644435930971, 0.5344123602850642, 0.08848840165111035, -1.3155043404330449, 0.7436906011561072, -0.5212923684210713, -0.833967655159197, -0.5300225893953245, -0.6959554321358646, -0.11697391190731558, -0.5748373013833153, -1.6049832471588295, 0.52895605317587, -0.3118636080604456]}, {"output_weights": [2.6468381164812023, 0.5906822302569108, -0.12411624560329977, -0.9400473237848204, -0.013571680482415879, -1.9974420323769941, -0.7323795030188889, 0.8455293192621611, 0.8591172494700422, -2.0348089353625247, 1.718268556123453, 1.7499153904122056, -1.1789682057004645, 0.05037041572749654, -0.9344888959452113, 0.6991756155662335, -0.7474086631513618, 0.4183867064817933, 0.9801392882039696, -0.5398004671061114, 1.2623146540409982, -0.23328195380291517, -0.8828745129525746, -0.8891572749664987, 0.9185967197696124, 0.12457693889658368, 2.1887731247889177, 0.3251487632767401, -0.2830305718927482, -0.314866574811766]}, {"output_weights": [-0.3358644227685427, -0.08045185554407178, 1.4288528229491808, -0.691752866324662, -0.9452273053406438, 0.30109794662352884, -0.43069788853785007, 0.7340226497729315, 0.555829976001883, -0.9647455170631262, -0.47514167995020856, -0.11224911169303439, -0.01039511890614628, -0.35092916177047195, 0.07059760194125944, -0.8087039612205156, 1.3013784485596094, 0.37087994436048977, 1.1366760592235599, -0.33821557971604527, 1.763685287964718, 0.13649911966708958, 0.3106329126901442, -0.029311670803722968, -1.0280755166866202, 0.18368571536295872, 0.6128331685068265, -1.6438068586998709, -0.6946942166804427, -1.3161194304171508]}, {"output_weights": [1.0208674694126236, 1.1368883469461317, 0.2815935362918826, 0.3474887130281973, 1.243495049804658, 0.791051451490893, 0.511539471405503, -0.048413068083761585, 0.8776377471521909, -0.2418734066916631, -0.7270385409337441, 0.208308895421214, -0.007981726989043128, 1.6005986687489084, -0.4960005139893479, 0.8272291849314063, 0.160809629736017, -0.4504883745822209, 0.28860204171900844, -0.5418970878775224, -0.5704009992279193, 2.036292189674398, -0.4858752744981077, -0.3102393053810087, -0.6092429000258109, -0.9645517422100647, 0.810572263304902, -0.6912877633227883, 0.7930252640701175, -1.3471929555987379]}, {"output_weights": [0.9989345734431232, 0.22667520332837623, -1.6009814669934415, -0.6573271659012152, 0.11382527929337342, -0.9005917963710136, 0.48971483437244634, -1.6732877840959812, 0.5982923484722571, 0.432965197307528, -0.9815426880939497, -0.11806621383838489, -0.09773478895191573, 1.2063248997988845, -0.02518700516708103, -0.9291471549366886, -0.22056382907521516, -1.6401230615973739, -0.6188506035671393, 0.7130180664367864, 0.4232077822106559, 