{"template": [784, 16, 16, 10], "iterations": 0, "data": [{"layer_type": 1, "layer_data": [{"output_weights": [0.027197465869293537, 0.0003142430740028096, 0.03284565042703737, -0.028861408552641084, 0.05820794004101225, -0.010806064765684208, -0.018527968308080504, -0.02408421180087937, 0.022463898359900536, 0.0408909976315054, 0.011381404867826787, 0.03425362050115331, 0.05203111485918787, 0.04782061041468331, -0.008382769762968971, 0.006939564665005948]}, {"output_weights": [-0.04280096064427599, -0.024137157925613703, -0.053038173986986105, -0.057312229207072324, 0.024696740617586546, -0.022785759723856866, 0.05072296560629943, -0.027952091061158077, -0.011047120512688448, -0.03572877236130236, 0.031247450547422548, -0.028421174374223812, 0.018287683955110913, -0.029207042883085073, -0.062133072161657275, 0.03145822348943096]}, {"output_weights": [0.026772652005774472, 0.013575489120490843, 0.022258839363676307, 0.02131701563508044, -0.003103631098672531, 0.00524470734020583, 0.045813591533436275, -0.04131818779007093, -0.007284862244895385, -0.03566414161301591, -0.01938182759183167, -0.03734990341412224, -0.05624312428077383, 0.053868280309591184, 0.006458711723563514, -0.021081513575493954]}, {"output_weights": [-0.005136837766497697, -0.011543919721800196, 0.0548586381191127, 0.04256735376292049, 0.04086626920941422, -0.04042308803662318, 0.04953452251109574, -0.017280810375985625, -0.015334605022766547, -0.0074138274222889655, -0.04488537584892773, -0.0491074894973908, 0.023297119403103396, 0.06129610542815828, -0.05661409444802052, -0.028205693488394974]}, {"output_weights": [0.013578882725079622, 0.01250465583023376, -0.027381468462105395, 0.038768985528604125, -0.057223545305567836, -0.02856833010100332, 0.03967288730265784, -0.0025358221362709182, 0.0008800316785222556, 0.024933067243580367, 0.038754715768281066, -0.048477240157468175, -0.043068298090503526, -0.0388569267618329, -0.03628854909663794, 0.007575558059440594]}, {"output_weights": [0.03727832579140097, -0.04765228761236167, 0.031077257760282063, -0.003771520260838594, -0.002094033582862427, -0.012475518507767201, -0.02248490452590856, -0.027422209072538305, 0.031764356527013426, 0.029133885172718435, -0.008191018275051531, 0.05960702866984393, 0.00046399468994615806, -0.02234911098766265, 0.008711894912187226, -0.016045699504786924]}, {"output_weights": [0.04534940893293019, -0.020312076342615212, 0.0404314294211788, 0.026291755490858375, -0.026456978075449028, 0.008519089422353222, 0.04040403705758384, -0.05620313741297182, 0.05460389236618025, -0.002274044130617152, -0.04535141987728372, 0.04705685328407859, 0.04863653577912022, 0.027891204032303323, 0.04703651606129853, 0.03408339394961282]}, {"output_weights": [0.029096776762748, -0.042435757082966985, 0.014374487808470726, 0.027077592046563487, 0.045579049285342094, -0.04277819396121731, -0.036130393914081155, 0.010879516140214554, -0.01362758475299726, -0.01285099936093053, 0.02372454142716729, 0.035812175420207905, 0.01481809192252296, -0.017929222848651935, -0.00874425910449659, 0.032483350737032464]}, {"output_weights": [0.024362502796845424, 0.017193099501348764, 0.019076518008077067, 0.005183943925168404, 0.04117783779783698, 0.054581611028815806, -0.01654408775033426, 0.032833493194985686, 0.03515973017350324, -0.010119993634878297, -0.04311236016737159, 0.04180467308068872, -0.05922376893636728, 0.016232379603881242, 0.06155993967348822, 0.04614193388136049]}, {"output_weights": [0.0008621434153339574, -0.050435560146213115, 0.023454378005929623, -0.038307410662251566, -0.00018969842252919422, -0.030017122442666397, 0.005949644824628349, -0.02516253300624395, -0.005797886801811265, 0.007372610278694833, -0.018161789552370196, 0.020617466524245988, 0.04414349278721316, -0.01159781705816787, 0.018064238998433055, 0.002562155448457573]}, {"output_weights": [0.022237179640420157, -0.01793885776877701, -0.037240091076433966, -0.03546281582022012, 0.0472627853090079, -0.004804000234120136, -0.018901938051546892, 0.05147278757472381, 0.020442813275257377, -0.029943967744772787, -0.004554349631566194, 0.017702993999225335, 0.04762603442186878, 0.05007773735461077, -0.012016406784301138, -0.04312755612945979]}, {"output_weights": [-0.01948751841036634, -0.058895426412854085, -0.015422765028283367, 0.011487753739549612, -0.028850443775513913, 0.007239807411015181, 0.05653173833925752, 0.002457254694919024, 0.02938307558387441, 0.027359125168241877, 0.05633280738972332, -0.047908866267933656, -0.05801667335169897, 0.03876166053923947, 0.048341781623404585, 0.03040569289834546]}, {"output_weights": [-0.04152144295261718, -0.04132340662284942, -0.04153946014036212, 0.0384294212389681, 0.018620186374165897, -0.057146112267404944, 0.04172075008707149, -0.0538218686615113, -0.008368763903660807, -0.03849738193557415, 0.01828028259242051, 0.03462522870455731, 0.04632098947386113, -0.018206451700795802, 0.010145252054015189, 0.040218606274506644]}, {"output_weights": [0.04554753990095576, -0.006577760100837805, -0.014657383186100374, 0.04137666525260033, 0.05665871793836108, 0.055108121564269155, -0.05928433198423407, 0.0420870543899709, -0.03829978475253095, -0.04110468911716145, 0.044457385157629335, -0.04760823475091608, 0.04489432720034558, -0.019484902932206512, -0.05408079649828194, -0.00016533567755740858]}, {"output_weights": [0.0006258758269269207, -0.011008418104865386, 0.02454590303906093, 0.04718836109702841, 0.0258292461492262, 0.011736866585022779, 0.012260984748814888, 0.05296653762241046, -0.053367165082306274, -0.0037724688161877157, 0.0428248880605267, 0.007554623712600017, 0.014674330225421826, 0.026315888360309396, -0.02142812908103222, -0.009366832146358355]}, {"output_weights": [-0.008558897698308955, 0.05698023744084536, 0.025423362424509946, -0.01628076496068105, 0.024418154231000515, 0.053112625487513936, 0.040632745560745046, 0.03394945178652867, 0.011449319132142366, 0.060901403776514935, 0.013821567795478745, 0.044594847191499816, 0.0021847493253071212, 0.011323411313095964, 0.04938686618031578, -0.011588386186388966]}, {"output_weights": [0.02463308469393761, -0.018012272311178898, 0.021732112839987952, 0.024572863930457357, 0.05669527789844745, 0.006858286554361395, -0.04115623691450821, 0.014435832922828615, 0.06053272423332973, 0.00045330591183145863, -0.053931334247782195, 0.025131846799964386, -0.052770459699626515, -0.0303268329179463, 0.05309575017733273, -0.01368814249318634]}, {"output_weights": [0.026898205963303543, 0.022079920239170076, 0.025071587950948472, -0.05499021458732687, -0.05496525790704061, -0.013802571042397502, -0.06071042656054522, 0.05788795362858364, -0.05452466612133061, -0.04786811970469773, -0.03792046705545476, -0.04840565826440581, 0.024987156487374138, 0.010270643122935692, 0.014331436374383756, 0.04016380199333056]}, {"output_weights": [0.05292586977777133, -0.05635026424274804, -0.001742846465156149, 0.0622631865446272, -0.01347437167417373, 0.01048029756689893, -0.03586573079077206, -0.007232727359754998, -0.03491560500975204, 0.037888964029807085, 0.05290576461793153, 0.04208180294769353, -0.03683026380322943, -0.0177650750402866, 0.045583753592466025, -0.03616458441978534]}, {"output_weights": [0.0595848585325917, -0.0029538354408488107, -0.023057372183811854, -0.017018964145917033, 0.06113511993709734, 0.021459523022103286, -0.012932160628019412, -0.05967659235682083, 0.027143342539266764, -0.0559711167611043, -0.05849283013635487, 0.0027756774667670597, 0.01951749666062951, 0.015388219819874344, -0.032484011298926446, -0.0406957318269419]}, {"output_weights": [0.029949062108578825, 0.04861665471593008, -0.051220129711000296, 0.04155761139694791, -0.04830068336906345, -0.002494235762798183, -0.0003179580964500911, -0.030774425067388554, 0.06161929172657038, -0.038018975246786435, 0.05322890525943577, -0.00773056415375542, 0.03180106808188766, 0.062338818742226104, 0.03901535390927253, 0.04365859670961918]}, {"output_weights": [-0.019240114694198847, -0.040186781380667266, 0.012218631178988006, -0.0278510822576064, 0.008032369002463853, 0.03636693180465938, 0.006385905676713363, -0.05681600524050927, -0.021300862722352612, -0.0337933076198559, -0.04849689024771079, -0.05395487545219202, -0.0030984808942185887, -0.04421296204231201, -0.011228080130179098, 0.05802231254986901]}, {"output_weights": [0.009052146044974202, 0.0440697811092519, 0.021848425018484337, -0.04078525149858738, -0.013021806623297959, -0.030952307596092042, -0.030214517438476515, -0.019683026910785446, 0.059321795999587486, 0.05870243890193284, 0.0031660336082249135, -0.03684441009383891, 0.05627976808956691, 0.025719357688004173, -0.023016290089347802, -0.007708985952861361]}, {"output_weights": [-0.0013142848686934147, -0.0004952188101092006, 0.06077779493652676, -0.043811239342328424, -0.05005320020939923, 0.034041524820740465, 0.046760674938426075, 0.041536997000954465, 0.039441907450647996, -0.06028510955094797, -0.033757308277738776, 0.039365643048519826, -0.013183264854310046, -0.039051559415700106, -0.056414604315828655, -0.01641644076949972]}, {"output_weights": [0.04554307138927358, 0.052107226300283194, -0.051729396126822036, 0.008126350340376419, -0.03899685225130232, 0.039629019630554776, 0.015491780275933287, 0.05512623988457257, 0.022494585496707638, -0.03292188345651026, -0.007849150065636995, 0.021343313270031673, 0.052007957849452245, 0.03115225996653137, 0.05684561435851133, -0.05376073919058973]}, {"output_weights": [0.032198414637853945, -0.03894541427746457, -0.0011271847763152792, -0.02572421409290194, -0.04258547058044811, 0.012372239764742936, 0.05814031691451542, -0.0051880590030208215, 0.05100728207049812, 0.040232236485614074, 0.060203189557014494, -0.01781587906024059, -0.018427675928181904, 0.05240396180643045, -0.039578251002791234, 0.0364715947863794]}, {"output_weights": [0.04987208181839916, -0.06053377212906033, -0.03154636157767757, 0.053113639897590506, -0.008199769630177038, -0.008536782888999186, 0.0082918546156346, 0.0574914601372619, 0.0479824878441107, 0.05434985835366884, -0.010677901232394753, -0.04700517620854622, 0.017792991664553205, 0.010907432570587988, 0.03936901385508419, 0.007748981876657693]}, {"output_weights": [0.04450889443150018, -0.0032398938528085605, 0.008805221247271233, 0.0501445545749233, 0.04177649988419834, -0.03801882800628636, -0.026084232551336156, 0.0619232209513565, -0.039266256912749556, -0.04107677920730059, 0.03607128469028127, -0.018180091421588565, 0.04170249731360694, 0.01115382042901724, 0.013002525031845798, -0.059105145033308534]}, {"output_weights": [0.041143664037259865, 0.02836340933620852, -0.056379334900414205, -0.018528751427085273, 0.010987146571290234, -0.03624716337507475, 0.009487858752016819, -0.05439997946515039, -0.060311344254847035, 0.02425358686069473, 0.0325823895797606, -0.056148937380521895, 0.04121604226915618, -0.051512231394552556, 0.04701436402446968, 0.0572734745511685]}, {"output_weights": [-0.04159700249346985, 0.03995448311187571, 0.036231349980206606, -0.007026106150689632, -0.05191354229221799, -0.029903052987999244, 0.039794764377633456, 0.04049306304196571, 0.05422345420364699, 0.00992826123186679, -0.048405344117230395, 0.00386872885264556, -0.0037911451447539754, -0.05030924401186801, -0.035165584939467275, 0.028975726165572584]}, {"output_weights": [-0.03545845803433786, 0.04253871372288222, -0.015709362370084544, 0.024898072388313548, 0.012086218691701393, -0.010827852762829958, 0.0492507115456258, 0.004121746359604439, -0.05336708727756603, 0.02210865578233985, 0.021592957842591694, -0.00931962941969141, 0.005408201471749578, 0.044558691306780224, 0.04780183796587146, 0.04042810384959159]}, {"output_weights": [0.00795163408455439, -0.01841554061803241, 0.025872106338995747, 0.038832645760891675, -0.029124800521074516, 0.015424283169362438, 0.027790205002566376, 0.02094675420175019, 0.008463092695822669, 0.040108506719914734, 0.031095961684905124, 0.04037014196274959, 0.04633761040943621, 0.03508252323391232, -0.02077686931705458, 0.04762898411411506]}, {"output_weights": [-0.011508660566350644, -0.03666966029177302, 0.03066373718318032, 0.051729371184941045, -0.0005748482506331143, -0.05737655409289459, -0.009420407492963856, -0.04652179991201743, -0.028980110857190107, 0.008912508505351684, 0.03600008942136475, -0.06083292429307707, -0.0012703736732360138, 0.02021133816205991, 0.022483881162194796, -0.04226582640508176]}, {"output_weights": [0.048392499891328905, -0.055874510565895576, -0.027565966698724367, -0.023268930495213454, 0.011038296093418061, -0.019495461863113878, 0.004843525947385394, -0.01927725395992027, 0.007063173251159266, 0.009433174878020964, -0.03923182904386182, -0.05726304935253529, -0.012945988135703988, 0.050888743428354526, 0.05873082950580626, -0.05042370487360791]}, {"output_weights": [-0.055844454162781644, 0.06073947045243823, 0.014862254383698752, 0.044905452031401845, 0.009803310434722483, 0.012874036956779064, -0.055505361153676214, -0.028142744027065902, -0.06025863645069247, 0.055832903050167505, -0.055020756441669046, -0.03673235796162029, 0.05788487606328527, -0.037958598739099784, 0.008029650067712835, -0.012943715860015081]}, {"output_weights": [-0.023436817202125287, -0.05231871800643615, 0.037132613689046995, 0.025635962025922027, 0.0056769293934405204, -0.04657460910121241, -0.028947888661806663, 0.029191173356850036, -0.013390733564952705, 0.0423315556826235, -0.05909311834919975, 0.058827476305298526, -0.014105403878855394, -0.059140934859031845, -0.05704782354173924, -0.013532630777584043]}, {"output_weights": [0.006278606606223203, 0.03405122520364065, -0.04212992301526539, -0.041381589825172246, -0.060024919801999595, -0.032189637004205844, -0.015119282603486217, -0.05325620319413757, 0.03020995761746604, -0.026295305478750503, 0.04217900903807289, -0.04069969978352296, -0.008308465266651764, 0.04695948944636652, -0.008417112141220782, -0.059894265426171]}, {"output_weights": [0.02124985045474473, -0.02528789492836629, -0.004656368613217204, -0.010532713410872425, -0.04508186435908333, -0.04041167210197283, 0.03344103884907727, -0.003061408608676567, -0.03187102469697168, 0.049715016947150865, -0.012006529804863702, -0.05975897793457016, 0.05187895380653927, -0.039357956968849285, 0.012468889877954739, -0.05916493679706638]}, {"output_weights": [0.04488608514659674, -0.01492371595113528, -0.049948635355884015, 0.05346965929528415, 0.060281058388464794, -0.05654310608833675, -0.03662277183909562, -0.04323380172465584, 0.017234876202097, 0.018237915622333165, -0.021379972520811655, 0.0485836529812205, -0.03207663969714487, 0.05683009405391713, 0.028789090985298197, -0.023547309420079467]}, {"output_weights": [-0.04320862573180321, 0.04394130823974707, 0.01666665923052262, 0.013619974350404136, 0.04265548583326248, 0.00787001295832662, -0.04275978319137518, -0.015958319252280508, 0.046438980978737235, 0.0008374078910529896, -0.035565751796446915, 0.05807535739627306, -0.016672223963800456, -0.0008485597785545278, -0.06194935780762861, 0.042811868707821325]}, {"output_weights": [0.06243902417777849, -0.008614230104300489, 3.5444837386136934e-05, -0.00448012875120939, 0.02894604989757913, 0.016020341755330115, 0.03010140727719996, -0.042573398642410165, -0.036304006999334094, 0.05423319389395209, -0.012565146772867661, 0.05496762848866339, -0.008303818507432233, 0.02508614070500921, 0.03568399577735349, 0.021446379253962377]}, {"output_weights": [-0.030938651066045455, -0.056738302793965675, -0.03544924733614936, -0.034183639174943534, -0.05688856367991185, -0.022552706223209432, -0.007625614769929338, -0.01756419476733957, 0.023312901695192095, -0.034730072816834684, 0.04486173105021691, 0.023303029044078133, -0.020125446775208066, 0.007804939325341649, -0.029336813322710525, -0.050474698289059775]}, {"output_weights": [0.051163836220982875, 0.03006894077965818, 0.06034129869670242, -0.017009601141675684, 0.003724838345294322, 0.002514876591047195, 0.02462073549495796, -0.06198720835559751, 0.04274648960692522, 0.03256361701170799, 0.0053074181267521725, -0.0019436265480177195, -0.004195211746678755, 0.018806524904716765, -0.006517820205555463, -0.05078045190264558]}, {"output_weights": [-0.021511205711308705, 0.0006159220398803708, 0.015377486965341254, 0.03452206757000329, 0.03218742043733304, 0.03831990987481069, 0.05160547455692386, -0.012573694464580967, -0.06237930751394249, -0.0026184359487117317, 0.055096166064069925, 0.04579568738700145, -0.01324645061907001, 0.025657998033858813, -0.040330964154297745, -0.046027789504265]}, {"output_weights": [-0.026543231996319503, -0.04593671724869707, 0.02329416813477326, 0.05682042432761767, 0.0036853346738823308, 0.0519022537050674, 0.03436541643691645, -0.005914603557742064, -0.007739853622904997, -0.02665505720163142, -0.008455970980694899, -0.027478383432685625, -0.053599034830556946, -0.01481625118610734, -0.015668798393801305, 0.0082975623497666]}, {"output_weights": [0.05502164632850817, -0.01480086676520303, -0.019390935555121686, 0.04758110519894307, -0.024118644616535716, 0.05142941635629856, 0.007467104559862545, -0.05361112572709165, -0.05550708950428384, -0.026575971165545706, -0.05768725501622652, -0.037603377446884106, 0.04071833703590503, -0.019793497545430087, -0.04312655898150246, 0.002526889153331316]}, {"output_weights": [-0.01884782373404177, 0.04597582872984165, -0.02041655941206797, -0.05109280696418686, 0.05723941768440752, 0.014237405680533104, -0.01771459953874674, -0.032104478241352596, -0.021057175751214095, 0.038680440798460565, 0.051260595761486984, 0.020894910656407563, -0.03606319734098645, -0.040328731959202946, -0.024350386092008812, 0.049450087114485314]}, {"output_weights": [-0.03598770863172622, -0.035211824373138266, 0.029132792055018772, -0.006412373651330627, -0.062026613743084956, 0.0005189501735725632, -0.04634825008412661, -0.04940740385340477, -0.05197382757352656, -0.030943779375665247, -0.024467181825254286, 0.010349006792973008, 0.0025258451711874935, -0.06026846835043658, 0.05709513031175497, -0.04728742102692768]}, {"output_weights": [0.03502475371574721, -0.028004674852288712, -0.009073324010944336, 0.0001508955629876338, 0.03551596484458578, 0.059775949329816225, -0.012552642148319734, 0.051532258490306425, -0.047162237348693035, 0.025241157811264743, 0.02197187719724244, 0.02495467126429752, -0.04037769624186229, 0.007484477317724371, -0.009033098873766923, 0.034020741855212575]}, {"output_weights": [-0.05124586477026601, 0.04387622502058923, -0.028958372386649098, -0.06169208243039681, 0.041832806564321645, -0.008914854535300762, 0.013221905650370083, 0.008018588697264906, -0.0320766016684497, 0.041786784604543964, 0.05784891670075999, -0.00689758084095915, -0.03935541157695166, -0.035635628336578413, -0.02067780690888156, -0.004760467287786153]}, {"output_weights": [0.045193793165012715, -0.06033801193885188, 0.035090952219280575, -0.02437640571583012, 0.009205325567175363, -0.0013322193811363611, -0.04037374743116874, 0.03916122730925787, 0.0021335800124433826, 0.024286135274163706, -0.031177673739843606, -0.05080303180182736, -0.018300765392684326, -0.04827683551762431, 0.009112194003790555, 0.035041450772521306]}, {"output_weights": [0.04970457221537617, 0.011044108098392222, -0.0622288612925475, -0.018208389812482198, -0.050669319269450896, -0.03592702717546563, -0.035085809753797555, -0.01299407740693797, 0.05568518379475693, -0.05742030352240745, 0.0354204554800117, 0.055051678591579084, -0.02647829659744106, 0.003530690403640825, 0.017696269936036325, 0.03847064834840213]}, {"output_weights": [-0.020929172065053812, -0.06235986201860049, -0.005145951921503043, 0.0525540188200834, -0.03550636116799186, 0.050911329258168034, -0.011759110965142462, -0.011007774589136127, 0.047868806248484934, 0.05909068676202333, 0.03725969972310923, 0.04279907800310143, -0.040958439273313864, -0.032503551766651914, 0.06158977655912067, 0.023887429153422547]}, {"output_weights": [-0.02034720907664806, 0.060779868808796746, -0.06212604056154446, 0.001622540507262224, -0.01374467378817891, -0.004867675245530653, 0.03456209001506501, 0.019864095057363286, -0.038977172204326026, -0.04521502734564976, 0.010554471059757708, -0.044903489933761025, 0.049109183555598776, -0.054110082576228444, 0.06233964929037572, 0.013986899243051666]}, {"output_weights": [0.014642902900228252, -0.03168536053230608, -0.020694901453685598, 0.03250372344390907, -0.053983544880687864, 0.029713634353497637, -0.007401378913275046, -0.0564472864260573, -0.00436441842478591, -0.06186923639394188, 0.06045088683174794, -0.014027603235533669, 0.01664683971514739, 0.028671379640721938, -0.03610602327617224, 0.0402405235911908]}, {"output_weights": [0.02020030764176, -0.05600802740086929, -0.010912336363632702, 0.03426802512612978, 0.007429994896090766, 0.04177733841299119, 0.02902154706371312, -0.05156712781180246, 0.011718112772444021, -0.025672015681770022, 0.05525351321025559, -0.05657024545342404, 0.03698467887871494, -0.012035973704036064, -0.03638496973651295, -0.03496807755642228]}, {"output_weights": [-0.052244664329314405, -0.04213314012814696, 0.04599907170027916, -0.005573759226558429, 0.05143192785296197, 0.0061816116161453535, -0.011091831414064869, -0.023374572301308634, -0.05696907494065878, -0.05125288207313593, 0.0487058127622286, -0.04842614719248853, -0.026879633920176636, -0.04033962167417664, -0.03652966091075329, 0.030644816077729703]}, {"output_weights": [-0.05036497687562515, 0.06217554141374857, -0.040136515023360235, 0.032653567862080124, -0.03748423756787496, 0.04940742915615533, -0.023361751050367113, 0.03226707378366998, -0.012811194905339371, -0.04972092005751836, -0.016939835787528522, 0.02152569767410125, 0.03266039055836915, -0.03807211474584223, -0.011791646314022484, 0.0467794974570977]}, {"output_weights": [0.047934281345200024, -0.0101706802621125, 0.05495353554508971, -0.05891731683427787, 0.007346690489708235, 0.04258785015723722, 0.017118227301985173, 0.055531529421476065, 0.0465099381436218, -0.05807011725518447, -0.03463292217048152, -0.002499287953684079, -0.039038829674859096, 0.05960825748472165, -0.02256841459915082, -0.03768285324603109]}, {"output_weights": [-0.055964573457689, 0.05160649519140076, -0.0060076401552020195, 0.007565184120246642, 0.04444884638646271, 0.018541454260935362, -0.002261727351537457, -0.0256752759816945, 0.01725042479092631, -0.03708491750456497, 0.04322658096939016, 0.02743194068100649, -0.04014560888431446, -0.002407546520917979, 0.06006392694121451, 0.04249681908577127]}, {"output_weights": [0.011690735058065463, 0.05860828747443028, 0.056482545803181815, -0.028205021189630114, 0.04286490183546438, -0.05534435089114546, -0.025702220221350915, 0.02347886536298343, -0.01224246771886095, -0.04256444736167237, -0.03718364356263316, 0.059951885916417216, 0.01852621255870633, 0.03560023918480132, 0.010110200627850889, -0.053268732028645814]}, {"output_weights": [-0.05584693823090225, -0.0333862400257084, -0.05538245651416993, -0.050763428455931896, -0.0018198950159510688, -0.05547849151865731, 0.02454703349952475, 0.06154343302091007, 0.008779899165488853, 0.05531931615886664, -0.03793868723765961, 0.022699989903623194, -0.029524383614464626, 0.019522140977827465, -0.05018212821601685, 0.04550380362874559]}, {"output_weights": [-0.04447492940063608, 0.04516744587258214, 0.026387408646934826, -0.040305105992200496, -0.04970094979004216, 0.022692386673007353, 0.010945151271038865, 0.032393677996498595, -0.020943420843545862, -0.04207975131757188, 0.044216231524510693, -0.04164668029659875, 0.028351697953979585, 0.02813060928979043, 0.004967981095965836, -0.06206669895867441]}, {"output_weights": [-0.013306997204365189, 0.0314330331178687, 0.014685019723233788, -0.0570956962543359, -0.013303519747218773, 0.012889321604914069, -0.013958960153207153, 0.007286114664091453, -0.03476670273459963, -0.055427139389076646, -0.06188969715776635, -0.06223418769270805, -0.03816145046808976, 0.03145131911080992, -0.02859587034445294, 0.033750117176318276]}, {"output_weights": [-0.027207686897829066, -0.02969094319085152, 0.001092834072228676, 0.03878222923790175, 0.016691535433383208, -0.05804813423309366, 0.03186965249642394, 0.006313773985486673, -0.0414909782933438, 0.033137722327597985, 0.030660139553682658, -0.05080754866723025, 0.03080168324858727, 0.05313040436567187, -0.030119116507690495, -0.031488417163914935]}, {"output_weights": [0.015356546370285367, 0.03820021317775613, -0.009083549518591687, -0.00812752620545688, 0.04471394739215005, 0.010136033936818287, -0.03359949838771338, 0.018359581400315576, -0.03568439016060348, 0.04968954105963835, 0.02745590494951976, 0.03621371652053117, -0.031506358897718564, 0.0351238281105541, 0.05859363515801647, 0.008417754494677694]}, {"output_weights": [0.043423304515657575, 0.002366569719677607, -0.003918655026789794, 0.051667105129977436, -0.025104855094588926, 0.03743785485393334, 0.04623013827975531, -0.031086678130112826, -0.0033893686319452616, -0.012522816145120762, -0.060494174178604344, -0.05783377120530166, 0.01327530390150193, 0.034722043247137076, -0.018002918763522904, 0.015212197903344968]}, {"output_weights": [-0.009861544456888447, -0.039939027406266446, 0.01614808081940346, -0.010540369495404461, 0.007986099000263912, -0.011929025514584858, -0.025811249225589597, -0.011674960876094157, -0.045906657224582946, 0.006026285588944808, -0.061098001554437086, 0.05541519918326131, 0.001569510746242231, 0.04353024628523547, -0.02742515497010567, 0.0495603875012913]}, {"output_weights": [0.03552198242417392, -0.03295364431158723, -0.036847626971888016, -0.03599812761838018, 0.002933823098940301, -0.04892297286580038, -0.0481498776748844, -0.014685843189092612, 0.042801843324088075, 0.04950256360673302, -0.025471365859636882, -0.00459501641073044, -0.04542949961188548, -0.01861463195403613, 0.02930717545848612, 0.0261391799242896]}, {"output_weights": [0.011276365895453859, -0.010716824822378051, -0.050814206704341607, 0.04354775190936795, 0.03115155559313277, 0.016880361920370276, -0.03810336122404658, 0.0022686545100233575, 0.0583673712256561, -0.022296992898060752, -0.044567175042484544, 0.003032797363906852, -0.02940155657921408, -0.04807471960647054, -0.05849341002830489, 0.05902818247187687]}, {"output_weights": [0.04259690453740109, 0.061823760802050015, -0.06005094887957515, 0.012145005115534069, -0.027606297647352892, -0.025951227856615473, -0.03763108280239242, 0.042356468604546074, 0.01756950020024988, 0.014300915546469728, -0.009939569065815468, -0.06120093185487264, 0.0022258508992695687, -0.028314024210198012, -0.052741438756386046, -0.05713233135307167]}, {"output_weights": [0.025363192133952623, -0.04610598936573367, 0.015464134562492472, -0.03614154497761181, -0.02404201094460075, -0.05465800126374802, -0.045412892877528, -0.009113568305686864, 0.05965474830262343, -0.02868703788619498, 0.013991721299328904, 0.04289806999536455, 0.037764877497977446, 0.03931382071492814, -0.03039449002507497, 0.02818737037700236]}, {"output_weights": [-0.03411889838662881, 0.022282024610666792, 0.038585622345938, 0.06217851935222911, 0.04814979812094699, -0.02495480616963672, 0.00703224279450205, -0.002191746752901556, 0.018596305997278528, 0.05495246894990584, 0.027594324097450055, 0.02281182422566222, 0.008683192798352207, -0.04007468257680909, 0.03360698501217185, -0.03532129237919267]}, {"output_weights": [0.04220142885648844, 0.05039302993299837, -0.01249047086775855, -0.035102636827392765, -0.05828263649072547, 0.029430011159387818, -0.060857604944357456, -0.03718104612415468, -0.001956619717971477, 0.036618774866217035, 0.044605882013868975, -0.06112957538881744, 0.03819017481848904, 0.02385909693170375, -0.01789757403498979, -0.05887811229517421]}, {"output_weights": [0.02882194749892568, -0.016371716464205332, 0.03724028188905056, 0.052968860800526464, -0.0008405464724438535, 0.027913347730203496, 0.04296418809289504, -0.044355135182210285, -0.013926656110986903, -0.05891052106622536, -0.0595577215830175, -0.046989513071655824, -0.04611057031202372, 0.009784141092872845, -0.04716326483200584, -0.003623774980911336]}, {"output_weights": [-0.0337622459594119, -0.047831272172935035, -0.0082502945913021, 0.04497133363590732, 0.002763739871923535, 0.04678518608399881, -0.05311241217704393, -0.04970889281000155, 0.050658225765485655, -0.0028767777956188734, -0.043867530539569065, 0.026879823866440493, 0.03484244856237879, 0.01910934161320516, 0.05280684784224203, 0.003342680880920485]}, {"output_weights": [0.007663193811696953, -0.019942744518295134, -0.024209737818430953, 0.041800124841962494, -0.03420083626288573, 0.05302003398935128, -0.02261861892196232, -0.028664408433605255, 0.050904609121294984, -0.02622860362162403, 0.000143038724376709, 0.022760468158029932, 0.01623082776191352, -0.02380486866215588, -0.00878773892474882, 0.024088453387069247]}, {"output_weights": [0.023179893587455574, -0.0011092112260845616, -0.036445189036485554, 0.010532985960544396, -0.05069341860336347, -0.05709479366978447, -0.052647549100766675, 0.009226312162933892, 0.007532857775864454, 0.013288464869946674, -0.017353298634866985, -0.06122818419228489, -0.05708369202121357, 0.016304034881029935, -0.044260011726767384, 0.021741616461400968]}, {"output_weights": [0.02960955654787916, -0.0446550408166527, 0.0021229399907496753, -0.028534934682915455, 0.02944711790210573, 0.017539951757755013, -0.02582187511936996, 0.0346587444878402, -0.013746814194829175, -0.056903920324964434, 0.05384273672993116, -0.007117500482061465, -0.009579413932945063, 0.018526968912271798, 0.019241616407099753, -0.014816805907132451]}, {"output_weights": [0.056015423816542786, -0.0051176582714776795, -0.057136224852595556, -0.00044645644845922925, -0.051733052390913414, -0.04742259258089399, -0.00974552676579554, 0.06115084341814327, -0.03758290329352558, 0.0431468761844328, 0.04148024463675456, 0.02946706681325391, -0.03349314033953518, 0.02389284154296108, 0.013130944247060504, 0.03631081481266945]}, {"output_weights": [-0.03228484455114828, -0.02640887482108754, -0.001243789922819298, 0.051084522664803955, -0.015309159051738108, -0.04709690761619678, -0.02111097555151956, -0.05359100898184625, -0.003432611773833979, 0.015147862547147424, 0.03240231756175453, -0.03642259950368578, 0.010288558263086818, 0.017873085379324513, 0.008778911366305443, 0.051627080121967595]}, {"output_weights": [0.061512417691246594, -0.041021443986564196, 0.03085886090616219, 0.0523290150551154, 0.015898772600021156, 0.034638353143000636, -0.017909105513861254, 0.03995444509257923, 0.06121406371967236, 0.03157548231361406, 0.037275116718169236, 0.024819842981455835, -0.017849977987962798, -0.05488808338450522, 0.0496864757978026, -0.004926867244141105]}, {"output_weights": [-0.007232152625470403, -0.047409410354810694, -0.012705372000961682, 0.03199030600854629, 0.026239442397394792, -0.010907716515047516, 0.046047459757777506, 0.049095058871033166, -0.04088900302668374, 0.0480955611396187, -0.0392210462672524, 0.023919914664862554, 0.048154027976465515, -0.009368092386047494, -0.06102559900705257, 0.026672398707654123]}, {"output_weights": [-0.059230739895056096, -0.0047758833383117275, -0.0606845744629692, -0.060263577128971395, 0.007070615677980001, 0.032159756004032494, 0.045506880510868514, -0.021024856419800543, -0.04498829713232256, -0.0181449098428079, -0.03675340920645196, 0.017173551298563856, -0.017311675512699146, 0.022120781947821536, 0.045341975444356426, -0.025501893353582952]}, {"output_weights": [-0.028491048876452478, -0.006940765502746096, -0.043495465845769486, -0.037417453363263804, -0.03808931945844379, -0.03109881234550755, 0.05969683286685664, 0.057934850771025406, -0.02460074962274071, 0.0028167319178946312, 0.04792345061802923, -0.01770042473041445, -0.04175271880608578, -0.02184993833880182, 0.05549212648567042, 0.03263100331935804]}, {"output_weights": [-0.04349270331756096, -0.03708193002932663, 0.059251726392658716, 0.0364620763552867, 0.01363789639346228, 0.05128584794669967, -0.012299444493336788, 0.033978164971590216, -0.007218248873749632, -0.009142052362471335, -0.01008798261246937, -0.061308372718443374, 0.03491675415077996, 0.05707667558436083, -0.0004993876205990969, 0.012560910003474784]}, {"output_weights": [-0.013403008789891174, 0.0459412665973605, -0.04809925891630418, -0.00043299497851524704, 0.0015749479578198375, 0.022766662169826188, 0.017968458402804255, -0.009672291259552865, -0.03358830111082261, -0.050883522638580585, -0.05778421661119276, 0.0412302759388888, -0.03850024578198304, -0.02457277751391091, -0.008636102066177369, -0.04144133132603587]}, {"output_weights": [0.04107652718261432, -0.06225622915870398, 0.008666622262799031, 0.054467520308080365, 0.027137500776597594, 0.023990701686443246, 0.023871087738499136, -0.013777750112359502, 0.009283042545756785, -0.05964153212220929, -0.007908710008364364, -0.012969115962201141, 0.005500147666736982, 0.020136963360930217, -0.014971378255885064, 0.02165437645401362]}, {"output_weights": [-0.021737828646636828, 0.03322136971832434, -0.003040775820347924, 0.012769892647932157, 0.024037497026440452, 0.002981146993489378, 0.02663898796260635, 0.0006577520359264052, -0.057901009263255594, 0.05413585048406018, 0.022883573610094875, 0.02840454569111716, -0.023528651029188635, 0.05315434044442059, -0.0113634260981536, 0.059217387613240205]}, {"output_weights": [-0.04832819128170858, -0.035572351569612935, -0.013078614242357922, 0.05265205674034952, -0.005676469297333006, -0.012553901360980302, -0.02647245217497998, -0.045978141740473134, -0.02352720056009877, 0.0020046762580919622, 0.01800609730345249, 0.03858670766193251, 0.05273220246231892, 0.04864846456192963, -0.028733069001745448, -0.062260483866068216]}, {"output_weights": [0.009222814889289105, -0.01228938798814962, -0.013381975138405095, -0.0004580352837817543, -0.04508244714834259, -0.009016983467962252, 0.009108430098401715, -0.02060048791258244, 0.00957295372616023, 0.01815161241874109, 0.04080782103351117, -0.03341546539164451, 0.050535788883562825, -0.009936503211855742, -0.03513940075203809, 0.04630568361796409]}, {"output_weights": [-0.03045800885110994, 0.012193155247868341, 0.0022248440304633997, 0.05940390261739978, -0.05582310594750188, -0.03067014830843978, 0.053580600801399765, -0.05452621813736972, 0.028873384223270546, -0.016535640956474675, 0.008474739288258516, -0.05189511775344365, 0.056543128949087064, 0.02696036718850881, 0.020159427477481093, 0.03928741401075575]}, {"output_weights": [0.06022645098851198, 0.04732313476565298, 0.008263550111408908, 0.034175245551702975, -0.05204935948724591, -0.03976834804610002, -0.014990832553270448, 0.03218578057212242, -0.05233623048083081, -0.0142594485821538, -0.050007233653005176, 0.0024122184781751243, 0.030900906551851657, 0.0317488599076657, -0.060565569183848623, -0.027325908452477413]}, {"output_weights": [-0.03498837797563667, -0.040482083911634784, -0.016513102752708394, -0.016722576803943734, -0.04125538727937441, 0.014207526427906306, 0.0030194029233980573, -0.010418203825788976, -0.05003483221508456, 0.0054418266732013535, 0.06168743282286998, -0.014785147680894999, -0.057324598390745905, -0.001747735305663593, 0.049763318045261684, 0.0028395949592258116]}, {"output_weights": [-0.00503274593708044, 0.01424526729138543, -0.010096875405947031, 0.03283376645663748, -0.04256328935859994, 0.02867386034848455, -0.018680894314402126, -0.04348672075968402, 0.004433123297204929, -0.01100086671333033, 0.015689838449284264, 0.00016280227170540552, -0.015414387181973514, -0.04919074048756762, 0.05619109976288949, -0.01479136845799611]}, {"output_weights": [-0.031390538082718814, 0.020513747881421192, -0.04622173364766557, -0.015285986130013637, -0.04415235890382225, 0.025642546315884678, -0.05305907357281561, -0.045851495272565934, -0.005467703874320724, -0.04781947228158566, -0.05938468651621056, 0.013918616133273167, -0.06068558861853357, -0.0053951376627608995, 0.03214054487836669, 0.012197228555157428]}, {"output_weights": [0.0054837095352519155, -0.013180513303107846, 0.04366113915270748, -0.033698767678580814, -0.03441732220625242, -0.047962302360573916, 0.0557714443096301, -0.021469766464532906, 0.02345827594307353, -0.0008799192107179368, 0.02781023333400178, -0.027522885464126904, 0.021040720238243497, -0.004192659419152497, -0.0394911128081131, 0.04866660052377182]}, {"output_weights": [-0.032004520119183, 0.03813409189629371, 0.041978688640814645, -0.02227328285021981, 0.004830156187456903, -0.03131038370732304, -0.028266695278008864, 0.02859259509426494, -0.02525098506622627, 0.00017980943408497292, 0.05071263591339893, 0.054769546889900704, -0.015836845063300117, 0.011007753524172366, -0.011429111239956508, -0.009253672784028421]}, {"output_weights": [0.024127915657587966, 0.014604821683693226, 0.011691508797458987, 0.012391841172398098, 0.05820969890996668, -0.057567888215885495, 0.041586501290543726, -0.03574522935387283, 0.058920998308147426, -0.04155291846103844, -0.03028582443619541, -0.03824359542130423, 0.003409949495029853, -0.0037835317176139454, 0.026224031171247428, 0.026870432407416087]}, {"output_weights": [0.04279228809435635, 0.056494805253484395, 0.025727282019771255, -0.04143467165914707, -0.052216301170026784, -0.00762299551304119, -0.0393916010868818, -0.01834732894934881, 0.05780372035327977, 0.04643661213364522, -0.021030311903919952, 0.006070568009474981, -0.05309724278972755, -0.030676648972567017, -0.01015365775385643, -0.02468331344672504]}, {"output_weights": [0.048874100318642, -0.04805267665761514, -0.008930861085286186, 0.02739631441211662, 0.0021514823501466566, -0.049445689494018265, -0.041797104116883005, 0.06011520864606984, 0.030870132503238893, 0.045754943687564914, -0.017754597773677057, 0.04514264538879142, 0.03116297127079926, -0.005773876293366787, 0.03137894587670471, 0.0587579464385108]}, {"output_weights": [0.05617452647226193, -0.019894529288411598, 0.026711255481213614, -0.04278931232935743, -0.006017874424822461, 0.053578768238012, 0.03815133720533678, 0.05362064733526707, -0.007397834716446698, -0.0329475157639756, -0.05857769450493101, 0.049037089200580634, 0.03345302526844735, -0.00833737919137517, -0.056506957609351614, 0.006398935387015253]}, {"output_weights": [-0.04028098731725164, -0.047863517798881365, -0.02492777525093467, 0.007588907357869662, -0.05763205123081194, 0.029635341711992804, 0.02735103216300981, 0.033346037949435595, 0.004849290454626303, -0.004916137090310071, 0.05288694097308209, 0.0397874054341294, -0.013124788199200548, -0.04363983619060992, 0.04988689743914885, 0.02081243985498094]}, {"output_weights": [-0.02101750325503532, 0.003992530782445204, -0.052470483725591675, 0.048746837292882345, 0.012248037671486307, 0.04949563735471818, -0.022336347686078558, -0.055281529010190344, -0.03879955767974601, 0.06203854326337323, 0.05770723299091101, -0.04352173075432925, 0.06169365355332448, 0.0016940643192848747, 0.04555601339448829, -0.03943092245435202]}, {"output_weights": [0.01281973715054898, 0.0073924552267262454, -0.053152515740762664, 0.011176013118874218, 0.025274209846538453, 0.05640691207544179, 0.04812272007950464, -0.01922388475348604, 0.030747675928369928, 0.03377110093878071, 0.008594798353174574, -0.057154893088442016, 0.03723601787020985, 0.0134463891417, -0.026265233903412368, -0.054743277499903376]}, {"output_weights": [-0.00453242704350605, 0.031223687405058334, -0.05915598342242579, 0.05827967579994008, 0.047820958695923496, -0.04513966585456541, 0.01450431798599893, -0.050894031510283426, -0.0231732135679227, -0.03291363078353241, -0.024010587973298383, 0.04080324561817105, 0.0596971693958887, 0.009886831839596705, 0.016652990814182204, 0.055388537196995845]}, {"output_weights": [0.00033434041420142986, -0.05470891913377941, 0.05266385593908537, -0.05302178619908753, 0.06226661104681306, 0.017619430294766033, 0.0373271657781511, 0.00277311221198822, 0.03732962671374088, 0.0027939954619652166, -0.05779062672365635, -0.04308777047515934, -0.01222474897468241, -0.025474181298119892, -0.030309206270668423, -0.044891852370236685]}, {"output_weights": [0.013030344061164888, 0.06002445436018339, 0.026951729718573684, 0.0617159368152413, 0.02017455351835245, -0.05556259166827083, 0.037088726345440755, 0.043406553239068266, 0.01547213442208645, -0.05079387420083219, -0.03961748057366443, -0.030685673768772636, -0.026503621359979117, 0.006901776382195916, -0.06090501857068159, -0.04293927474389223]}, {"output_weights": [-0.04788678834405271, -0.02676621213610269, -0.032760416630876935, 0.05631924242234162, 0.036314470645522776, 0.04649596568705819, -0.035224076367397814, 0.06150755190349897, 0.014367982792350959, -0.021076903762518057, -0.018541662792919356, 0.04137826947116204, 0.04335899924506265, -0.022773503314992154, -0.0067104275547719364, -0.010355436156814724]}, {"output_weights": [0.00924959955582391, 0.02167392981051754, -0.044023580833458656, -0.016302798846399624, 0.04434674377854665, 0.02295463208932066, -0.022123406021092015, 0.00598260664019951, -0.06029290093737777, -0.04833022359205954, 0.024186038201954935, 0.03631554187123758, -0.052216244104592364, 0.014224390792655252, 0.051527860394438685, 0.009323685039795873]}, {"output_weights": [0.04997817868129736, 0.0006859200690616518, 0.032931307822617925, 0.03964924392919135, 0.03988345354966725, 0.041991818590044236, -0.05410279416623505, 0.04679431100204512, 0.016691992895498525, -0.05467713585397839, -0.008444700018640255, 0.0554549804254799, -0.012157310055618577, -0.01033110987344421, -0.027585398489046432, -0.028486427652291958]}, {"output_weights": [0.034167970127644755, -0.0012958957914219957, -0.006964578919030288, -0.012360562304935437, -0.024923280385963045, 0.04038675386664312, -0.003043436719395061, -0.04742139432753968, -0.026750635981614777, -0.0005312285082169771, -0.02402239795656899, 0.01894823175509522, 0.047323565293688655, -0.05845309617831788, -0.03701142892574217, -0.04360721427586454]}, {"output_weights": [-0.02895799592695509, -0.0032517302152864427, 0.02616024989519823, 0.013236951873683768, 0.028526383661432925, 0.009582116055719993, -0.028703061937479755, -0.006715378573194167, 0.010371262252686489, -0.002222800724933534, -0.025321730462396046, -0.028405293662145413, -0.028752760509664854, 0.04540633923234713, 0.03371087210626067, -0.04270953463738056]}, {"output_weights": [0.040228053484062304, 0.027072649618715708, 0.010531153972354865, 0.01430115775616185, -0.013752013156550606, 0.04886645995386819, 0.052799964192153846, 0.028114526427896476, 0.03701642679621692, -0.038341833762577, -0.003821078881262742, -0.024975640791777748, -0.012447875049411847, -0.04524933779880411, -0.00031005921385753726, -0.030587425949008637]}, {"output_weights": [0.011293298312071362, 0.0512584369535549, 0.005239926111530499, -0.05361165410172875, -0.03381566349187058, -0.005129642125626145, 0.03653613177743335, 0.05417777600240968, -0.02533373645888768, 0.03153065646819912, 0.04501986782158564, -0.0038628747185462387, 0.028538517367648127, -0.022660905591196177, 0.03692142148653358, -0.004954165070873345]}, {"output_weights": [0.03691236700492181, 0.0025500124638342947, 0.005743454363610866, 0.029697802244138406, 0.02304797917867054, -0.0353876668777023, -0.028249927450944005, -0.0003615394691697596, 0.034912454847342976, 0.029228053220706367, -0.002483592120415226, 0.001974891962726849, -0.017107877834576346, 0.006888803719055259, -0.015405773912327898, 0.05658201264352087]}, {"output_weights": [0.03622462972394387, -0.01878311218825682, 0.0025987651941007206, -0.015555166432224604, -0.005397434871982681, 0.05666616411308673, 0.04200862569360848, -0.00404220297209206, -0.05836475358718399, -0.0006164545319195226, -0.030843178766037135, 0.020205511668341735, 0.014697849489564072, -0.01469862606478611, -0.0058230616243755565, -0.030942030226399003]}, {"output_weights": [-0.024436725405733415, -0.032787725627576814, 0.007436673316817627, -0.021403125398537594, -0.016679722141204018, 0.02465450222456031, 0.05651951554412969, -0.014178824607964964, -0.03470911402806345, 0.03559111926628327, 0.052576194473028526, -0.018738737108359393, 0.041503271910215335, 0.020515193195692408, -0.05804610487531319, -0.04226855341880217]}, {"output_weights": [-0.007686535476544667, 0.061508962408740056, 0.007393621519120179, -0.010381411037859703, 0.004893726990954118, -0.0015814825108502368, -0.0336639578418374, 0.0006508668348629345, 0.03610469198604832, -0.045436863476704156, 0.013483415645322855, 0.0478313944901178, 0.015624703334360555, 0.01623873309567705, 0.005850406784775867, -0.06249074896095504]}, {"output_weights": [-0.015579495111122048, 0.033993362228743565, 0.06257487852613464, -0.04252288217519264, 0.04375449463042156, 0.009167974568348027, -0.021758899701366845, -0.025458082708770646, -0.006646153087142473, -0.04886612033648591, -0.027982767220410803, 0.029926539241895447, 0.004634870342043231, 0.022413958133359592, -0.054803220349516395, -0.034794578299019004]}, {"output_weights": [0.012958655275724058, -0.05854614274284846, -0.024292377227144318, 0.03739680009307545, -0.01328485633526926, 0.0346611451846279, -0.028004372217744985, 0.029878907170639738, -0.057722240565838454, 0.009081180282184924, -0.019621805496118593, -0.057492542466758216, 0.05697027653305581, 0.010013722078811578, -0.0031934917151549558, 0.060673236389084964]}, {"output_weights": [0.014575679649173194, 0.05108401949932942, -0.043766484344276775, 0.029696992859748448, 0.028582347054291333, 0.019968375396650175, -0.022446515879903838, 0.033234746206673084, 0.03678201051566057, -0.027023219599225826, -0.055138638934026075, -0.05803844507156946, 0.05443685931441114, 0.014363983848978936, -0.02309514938294888, -0.014387429366796212]}, {"output_weights": [0.029944271207771607, -0.06103100414148889, -0.0575298760201644, -0.01976646633870761, -0.05296205964675652, 0.06069428945404416, 0.03496967225492572, -0.03988593133853662, -0.06163412647722192, -0.04782363947886495, -0.05949957195691823, 0.030473477173335116, 0.005452918802042837, 0.06059067993514672, 0.05847743188037128, -0.04193836585736505]}, {"output_weights": [-0.03799585254817227, -0.01322004161191883, 0.023908765705692888, 0.01065877822133711, 0.018886410469687386, 0.038639033519946596, 0.010999369261282635, 0.006674053242616207, 0.004219632379494741, -0.04775145079426076, 0.01087084029291579, 0.043016881071883506, -0.029312580523850315, -0.01651321618939719, 0.014697688899360803, -0.017495744094744248]}, {"output_weights": [0.025128692821055086, -0.014384200325011736, -0.022126043342844723, 0.016243152895414382, 0.014509156221300251, 0.042928509915985555, 0.027547390438828336, 0.0468364803649953, -0.05961050513784522, -0.03932519050664049, 0.05488263683818528, 0.005336526249908207, 0.028012551636568878, -0.0004754851603336368, -0.04989038659619954, 0.01152764169501227]}, {"output_weights": [0.051159944170685756, 0.01158646957021659, -0.01903320953659367, 0.03543912839861144, 0.03495386943513747, -0.03522424055918936, 0.005885888177771355, -0.05014590154123888, -0.03449075428895117, 0.04826032936659028, 0.021548801746423398, -0.04421269846194303, -0.020401965219776243, -0.05741746621038743, 0.054388635421031145, 0.008601672084203432]}, {"output_weights": [-0.06043132021916687, 0.000802840896587135, -0.004720702063694849, -0.05028040617592657, 0.0201068001019402, 0.05247537965009369, -0.006809447799148138, -0.04086515262043726, 0.018026922224198227, 0.0054949124805072575, -0.009732656278180563, -0.0032426987729438994, -0.033612542018787495, -0.048478710835643236, 0.024566853373086762, -0.0340637680655656]}, {"output_weights": [0.02690416189884948, 0.059611510411427794, -0.0011428479464779104, -0.01674060879351592, -0.0571805676952316, 0.029269554341660356, 0.017087079117928995, -0.035006538152535155, -0.01681883684491397, 0.04072805201412905, -0.013036582911798671, -0.031956392337817115, 0.03812281962233145, 0.041002208374740876, -0.014347768295483721, -0.017128076787863336]}, {"output_weights": [-0.03739001406189953, 0.021514699158469465, -0.03811711648691928, 0.05198255275659438, -0.017904914798058384, 0.046892758507861024, -0.0040903261291063584, 0.05469202294690111, 0.03359469223775729, -0.02197965256795516, -0.05925370026199617, 0.024896790057351074, -0.0023203842895798622, -0.06011600167536807, -0.048864939981518224, 0.01352602183816887]}, {"output_weights": [0.05667012870463963, 0.04491609380135167, -0.04591455064119766, 0.04125005587447451, -0.031235930203990556, -0.03294964864701871, 0.03467988083972126, -0.029219873572823525, 0.030102141285593513, -0.016715569500192266, 0.057935544738692536, -0.04142881487908627, 0.05618106506847661, -0.03085552485435682, -0.030261787148039315, -0.02918270778465053]}, {"output_weights": [-0.027118375352988448, -0.007047207186360054, 0.053014613090949264, 0.03610894543974398, 0.04969350406579925, 0.03862527976222428, 0.05225414974148493, -0.03096206584834298, -0.0293396035593082, 0.03525583740957265, -0.04859648636153919, -0.009819727885857265, 0.008173410813908934, -0.02486988776502587, 0.05756387788947643, -0.030141968918772702]}, {"output_weights": [-0.0076319393036738195, 0.038241560107628164, -0.0008896855504973843, 0.04278530970423736, -0.005916316376296065, 0.053636939724128176, -0.051879906090719796, 0.03242956082089417, -0.03276349729675208, -0.04476158991670109, 0.0007927584453068323, 0.05579315706682854, 0.021739063125830887, 0.007880859415536295, -0.0031194157242623293, 0.002040044350476842]}, {"output_weights": [-0.007322050589659539, -0.01747371076669516, -0.051526206642385726, 0.030624313774663653, -0.04244664301051711, 0.002266820877289174, 0.004295497229892071, -0.05781110709769168, 0.036880277632324994, -0.03052774596986897, -0.0408315590126925, 0.04605196584946979, 0.030618253155374663, 0.04381129426853175, 0.032727879711534756, 0.054207958206555065]}, {"output_weights": [0.0017255380259176324, -0.014584273674745584, -0.05194515245319892, 0.054598455847523486, -0.045578773454906595, 0.06057995366167771, -0.04342849083276771, -0.05645983837154991, -0.028016075417190475, 0.05935223707409061, -0.046079665407245105, 0.005605444713017799, 0.02187616387934278, -0.04303020518972754, 0.03854194691248295, -0.05192753772579714]}, {"output_weights": [0.023580092470722635, 0.0038349965054341713, -0.0544108620334961, 0.06244481835188453, -0.033612464265647006, -0.009752505788482255, -0.0026841631122825, -0.03902254952573887, -0.0006945602274646132, 0.013930590870625358, 0.03684089294665195, 0.00691659761763771, 0.013111120538111198, -0.031187724935469865, -0.02901782083212923, 0.05612823460458192]}, {"output_weights": [0.01837346805969242, 0.015485856134825504, -0.024439424939325216, -0.03013222763693466, 0.0226728323992467, -0.041001421975182785, 0.03788795316597739, -0.046696899263029744, -0.0182949619069274, -0.0060244910019421625, -0.01029363311171095, -0.0443600417090951, -0.020106049644445522, -0.04011825500977185, 0.05543180352828546, 0.047369830181565355]}, {"output_weights": [0.034889590777568584, 0.028057494456659924, 0.011473623563575007, 0.062352634755498265, 0.017665734256191567, -0.020213129714691348, -0.013714869952809974, 0.06108317307619604, -0.01694917287455462, 0.04629143105456013, -0.06193991033229002, -0.04055925914036413, -0.045862094179169345, -0.02901465332898298, -0.023065206342272927, -0.007990024330453468]}, {"output_weights": [-0.022820798694807794, -0.006142909400586856, 0.05812191218140915, -0.022255156214861516, -0.03518396623944793, -0.05765864618851962, -0.00799775524633933, -0.008885493631591069, 0.010763052797334225, 0.012966222179358926, 0.0539224413774541, -0.06218356762066044, 0.026828406643950642, -0.017521036994047, -0.014879585781703668, 0.02735503349482482]}, {"output_weights": [0.04215421219845272, -0.017948536779933286, -0.0157269394663562, -0.01741649667234217, 0.06248344664793393, -0.02460524552823324, -0.002031419814746027, -0.020035864462347862, 0.0415904442840108, 0.03274383960411062, 0.020125357522772204, -0.015687375229979948, -0.05954417319854076, -0.044807833216675946, -0.05508347773280478, -0.012019515100946863]}, {"output_weights": [-0.0037537654329922593, -0.0160976617204392, -0.05034415968619854, 0.05033875760078733, -0.005044969753199166, -0.007682872069239399, 0.061660041915598034, 0.012894439764190684, -0.05701763705235942, 0.013012508225171263, 0.051768913085623244, 0.05079651906015058, 0.010135456560423375, -0.019413630625713295, 0.0011052118124641255, -0.012429398381823907]}, {"output_weights": [-0.034369424539470325, -0.037916153060071275, -0.025381295731788885, -0.05789226061025149, 0.03307285099632013, 0.011113513254637455, 0.010944405163987272, 0.04796957249529446, -0.05230615139031056, -0.03060347962097973, -0.05412476553670043, 0.018945564192535756, -0.04832580575156119, -0.01567709093683322, 0.0459700671049805, 0.006520686656497764]}, {"output_weights": [0.05510515000151411, 0.039871530340174134, 0.0022214426288406017, -0.02509253050136607, 0.01603915102153959, 0.03600950835625499, 0.04787155206643297, -0.04933972777142392, -0.035256684597836804, -0.03379634566474659, 0.031061436135133888, 0.05826176627356589, -0.04039214357788178, 0.058218754041697116, 0.021333396405891714, -0.057197483877539965]}, {"output_weights": [-0.0543062463175666, -0.04114622478890029, -0.007971260782446317, -0.04664781964357004, -0.0036509761811347394, -0.01732995393543328, -0.01028476768619433, -0.008227483105261738, -0.027891051607572534, 0.02525372625565063, 0.040124795440005356, -0.006951192359235407, -0.01551633221749478, 0.06017572195758327, -0.049773963488712276, 0.03846931520205993]}, {"output_weights": [-0.02596011941160592, -0.01252897967890678, -0.03037554679845933, 0.0552665354610229, -0.040376561460403165, 0.031624015145331356, -0.016190907156151783, -0.049646019658439414, -0.05880697309261891, 0.028392186838140376, -0.02005161929559566, -0.03685107039624638, 0.04567456957944692, -0.04511895002408721, -0.03000033908273217, 0.031146384360230595]}, {"output_weights": [-0.04967311248855535, 0.06122294138814407, -0.00979319485620212, -0.056195769076947004, 0.0065729800582886196, 0.016417923802625002, -0.019026657526001287, -0.048892041637456446, -0.059713726476300744, -0.013790387221165021, -0.046078629942219826, 0.0581794223119265, 0.052809203497355656, -0.0010850765255496027, -0.01957460106110888, -0.05792393151930214]}, {"output_weights": [0.021121754452394642, 0.05067888046304061, -0.003210768713748495, -0.0018654981979086512, -0.05341476323071821, -0.002850119427111315, 0.05329263013166113, -0.004686985211772614, 0.0486482851812609, -0.0070243090584051595, 0.046055330230162186, -0.04753831904941365, -0.011581715125318326, 0.0449421805116774, -0.010993611563846116, -0.05767089280437603]}, {"output_weights": [0.0033185192870371924, -0.0026793327817023907, 0.011981798875477033, 0.03325550248393563, 0.012629025419710107, -0.004570869746463577, -0.03652379808151852, 0.01662040836382627, -0.056072136446375036, -0.05683044823541986, -0.05561534052714208, 0.04508848278837605, 0.016813941013558507, 0.06088001229637146, 0.0003066596623642062, 0.006304806080394844]}, {"output_weights": [-0.032788763051876044, 0.011681658671610418, 0.04184298037657864, -0.031203266997276304, 0.005716772160420439, 0.013431636323495049, -0.016247951348865027, 0.014091288985291337, 0.00835725505129548, 0.007001350194990868, -0.04357177765874211, 0.04481301428153356, -0.032955040347846264, 0.039469890993237396, -0.01406879944993212, -0.030884424884601087]}, {"output_weights": [-0.044261477639944286, -0.05387311042408003, -0.032571796148551546, -0.003625062663874817, -0.015468769836983866, 0.04124761427328613, 0.05418990802735239, -0.03252169608582717, -0.060595636064890455, 0.0348722611868337, 0.04680336396455899, 0.029401533786986664, -0.022464719952836738, 0.03801960921312848, 0.023632023437123794, 0.0008877475438793341]}, {"output_weights": [-0.0025393681089409203, -0.04348133024702356, -0.04559439992718493, -0.0008036349040314369, -0.05504237157226556, 0.01703233730098228, 0.03881213346860448, 0.05021290768359893, -0.061171604819201524, -0.030647554908864325, 0.0018368878031875429, 0.013011327584922449, 0.04525406850798251, 0.019629147455889503, 0.03167478198838022, 0.036866062473852164]}, {"output_weights": [-7.48491384690977e-05, 0.0008606913447475177, 0.003867102998071417, 0.057523922965211506, 0.01934265800062954, -0.008648987898368302, 0.019165045588805378, -0.05231822049026266, -0.026612021318876, -0.036629627435694104, 0.03612140689767733, -0.02104835198296494, -0.03255113964625006, -0.03808123624616229, -0.022740912363936945, 0.025517217549189144]}, {"output_weights": [0.030263198191923666, 0.02797597814068355, -0.036151578030766546, 0.010237093897854545, 0.05231449064396984, 0.002773545612163767, -0.0512376347192456, 0.045798974051154864, 0.06028837898564019, 0.026252441347129646, 0.008475754761434183, -0.028776128088641377, -0.05569246001374706, -0.052223332054337046, 0.05454814395258434, -0.02177561015580791]}, {"output_weights": [0.013809310453420712, 0.038602167875621374, -9.656096467155284e-05, 0.0025201333868254704, -0.014309824166835702, -0.007508244055516325, -0.01097047492735817, 0.03395574501212979, 0.022474668072168944, -0.010914968282172796, -0.0019044870959000321, -0.033024695449462335, 0.05475866267985621, 0.015462693907850109, -0.017905639397880722, 0.049734804426844074]}, {"output_weights": [-0.026354360939826616, 0.031497700430597055, 0.007538535699886106, -0.010769349860303317, -0.00046398170197938036, -0.009228112910227784, 0.0379648713932331, -0.005159881805886191, -0.054862191804460496, 0.05062039246129405, -0.02857544037001413, 0.04994234384071883, 0.017424431427660227, 0.04196807178090718, -0.006208946954567624, -0.04679155762240061]}, {"output_weights": [0.056181401488955285, -0.03233460246186149, 0.010681596175261302, -0.0009178995115328827, -0.030635226110360667, 0.033129805772021764, -0.02662584144654662, 0.006235964541826045, 0.01704616855070344, 0.026447237587486884, -0.017635893489248818, -0.02860782686058736, 0.05261960424246553, 0.01516196329119307, 0.03960341339323727, -0.0008576133583838779]}, {"output_weights": [-0.02580195967633877, 0.023791454417073404, -0.01819003989296766, -0.0589530513256147, -0.05574923668330434, -0.036448096983217895, -0.038173422640472576, 0.003994644957216983, 0.04966916612968532, 0.014442558091812373, -0.046707022650999665, -0.018948743499114486, 0.015171046694051726, 0.01102585435240559, -0.02076382439635622, -0.058283592411987245]}, {"output_weights": [-0.036832849367144385, 0.0554369814603641, 0.010147254907448437, 0.05411124654402658, 0.03431955822965636, -0.03227759418500227, -0.020952210119345605, 0.04704693319011439, -0.04147993117371758, -0.0207464662179142, -0.04149458524772297, 0.05288813778047132, -0.008867292197097835, 0.04660195501899569, 0.013379864495977604, -0.03173984828996502]}, {"output_weights": [0.025951346978842202, -0.00829856087577662, 0.059897382418235764, 0.0011933934101250915, -0.053352834714808554, -0.025573886705253172, 0.0013703104315755659, -0.05667235373778507, -0.04711595934848935, -0.03250821737428001, 0.011095388594606773, -0.006345515085578287, 0.0016056980363905687, -0.034326053603111056, -0.05752251720023489, 0.06008910154309535]}, {"output_weights": [-0.02319690503846852, -0.0020329481417412903, 0.044869221211863305, -0.027867638173680657, -0.05594968617356838, -0.05518706603061493, 0.037475625405045614, 0.05509157117023115, 0.01584704163479291, 0.0272235848818501, -0.00393608229200868, 0.04659865523739354, -0.05643026538482402, 0.01852913816435648, 0.04015674836026723, -0.013760051060536151]}, {"output_weights": [0.021349518893037968, 0.030943807063117255, -0.0006898920663473428, -0.051714640333947445, -0.006841688223749249, -0.02881848129211737, 0.03423828998491321, -0.022450986403125206, 0.05816701560947386, 0.024677359061300724, -0.02559034450017605, 0.050590868596824386, -0.029781415164898586, 0.03437045771135418, -0.045317541347890115, -0.043920699006352204]}, {"output_weights": [-0.0007157042445542742, 0.033076200955520885, -0.013724875615852396, -0.02651760312785078, -0.05610626996482201, 0.016351846833058802, -0.026012252327733607, -0.02254973931891995, 0.023290650941745386, -0.04197603393735975, 0.014826604957469644, -0.04282490151636111, -0.0008542402400280488, 0.01617497648505186, -0.04151041712439845, 0.052802952252615144]}, {"output_weights": [0.009295451606928042, 0.03969437530396394, 0.058296388506515175, -0.01941613051113297, -0.033938340537371256, 0.011407268507606122, -0.06138841672255831, -0.00916963580629201, -0.008989342744402301, 0.05713012053434188, 0.03207298136615216, -0.03424287236906618, -0.0002527112566306068, 0.018398843668771533, -0.02742267625013283, -0.05796323332063133]}, {"output_weights": [0.038129868421583155, 0.05976475153307795, 0.03946543474256286, 0.05129529942798573, -0.04375191677673989, 0.05249192023275268, 0.015423692415764603, 0.012659886516883736, -0.04226780294302148, 0.03268622555026417, -0.058706436447746486, 0.016493624554038726, 0.008771085594229545, 0.017615907821853776, -0.051170308445190965, -0.03285045096155752]}, {"output_weights": [0.0010850797723483904, -0.026781381980746335, -0.02547796593734709, -0.023912026150119493, -0.042720470908267874, -0.04396798948408374, -0.06231824935746052, -0.04765415122497164, -0.05498408866548596, 0.023559178469744323, 0.000319440150347624, -0.006381977355897135, 0.009374174382095436, -0.0018221578693355272, -0.030663516076567688, 0.060817217938899173]}, {"output_weights": [0.028934636232459624, -0.05985828431573154, -0.0521295245625933, 0.05509756440101097, 0.022880313143170416, -0.032494678069948345, -0.006649785364049386, 0.04888321859055107, -0.05198147626176349, 0.04754622479193453, 0.03758653037550802, -0.05034224184860399, 0.05259804119713536, -0.030764899873103137, -0.029403372381160822, -0.03324288913651498]}, {"output_weights": [0.05089550556485209, 0.007455981709344901, -0.002833582811266792, -0.01508336610205123, -0.047867666374555876, 0.052370050033529555, 0.010283700237274493, -0.03305164861336023, -0.011467483201339848, 0.003617923286930334, 0.0270483140951892, -0.04977030975613563, -0.047644723498608856, 0.041985770595648425, 0.03149079739600195, -0.007052201270236889]}, {"output_weights": [-0.02390996700790296, 0.04558371498461948, 0.018253262794108573, 0.01648898695635549, -0.047869143226465155, -0.04640542044352913, 0.03767385665267234, -0.01433306807778286, 0.005426267502017718, -0.04601597011757564, -0.034114702917485085, -0.03877563380686598, -0.013821712489554234, -0.037285701147581965, 0.040382526880816005, 0.038795704682814784]}, {"output_weights": [0.06024692830499042, -0.03692165449000793, 0.00873502717625204, 0.024181248310017972, -0.060654907376852224, -0.043529496070993726, -0.037260706975018903, 0.0009180972463654902, -0.002318809893249882, 0.03428660318317477, 0.06188841931423571, -0.05543776968297257, 0.0003177595338906686, 0.012163095049927478, -0.03711073414892451, -0.03437995997254856]}, {"output_weights": [0.040333002079876154, -0.06198832010430779, 0.002827685945118466, 0.046793695307618996, -0.03517123637912721, -0.0004989115475577746, -0.05638503758961266, 0.044197211276425306, 0.05642316427075289, -0.04551338611583904, 0.018928352861935907, 0.039771097933666746, -0.007356658613595329, 0.03678486463673049, -0.05671673170319721, 0.047481590116684076]}, {"output_weights": [0.015207456582465688, 0.006654131010998557, 0.005172518792266358, 0.03310312483432368, 0.05196926401701956, 0.018732133745875165, -0.05271060210545986, -0.04827439702310477, -0.013838045380583835, -0.03879230715135844, -0.025846088412323075, 0.05668987637084538, -0.02018895992569933, -0.006940779086942669, -0.01649218750052516, 0.02646766501971829]}, {"output_weights": [0.009382243445068925, 0.01693044461994492, 0.0032194597412217767, -0.038156248334597485, 0.04613563033796159, -0.020706715969857865, -0.026448214520879504, -0.017742851947917013, -0.062464298281419355, 0.01707461404426426, -0.024702304270795027, -0.043537823345035545, -0.02699399147448993, -0.03346809137072771, 0.004531827715508685, -0.0553806047601193]}, {"output_weights": [-0.037328157867598064, -0.00931392858055303, 0.044735303905008864, -0.04259935516963192, -0.04193412075128279, 0.03401498787336157, 0.01502975838952945, 0.05271112476066432, -0.0390385873824342, -0.013402042098845867, 0.04905984570884559, -0.011901234236314529, -0.04625959768940372, -0.012519994190764326, -0.0038703229352168604, -0.010352375844823746]}, {"output_weights": [0.045400315532652044, 0.046861766490154895, -0.05276972622798729, -0.0007255747348135128, 0.01076540071631255, -0.06226023001171833, -0.005599404228758586, -0.03531608689839794, -0.0509150843280289, -0.060372850922628125, 0.01880872078272377, 0.02095547689096623, 0.053312713740696856, -0.052920680429840175, -0.019928273202178114, 0.008291440424864316]}, {"output_weights": [-0.061877016469195925, 0.017484393156708203, -0.014198954144257024, 0.03945712369824047, -0.025334919322746095, 0.03864621412616094, -0.05219654652719275, -0.02908230295700009, -0.04402445507437797, -0.04328015137716485, 0.044473361594172624, 0.0014000570738055282, -0.016652453193611947, 0.03057846305494777, -0.04073526335869696, -0.05900622473070961]}, {"output_weights": [0.04725913232201541, 0.05956573545812626, 0.051396374686873185, -0.009358382922288352, -0.009582432494996775, 0.0016194445562554938, -0.005277318459278742, -0.01203051603328225, -0.0031022050508400247, -0.039053539098606274, -0.05910098083271363, -0.05435058678186648, 0.048022127769832994, -0.053404282698497015, -0.041015346005626355, -0.03578773790370574]}, {"output_weights": [-0.013668855886852752, 0.04547211330993513, -0.06076141014435788, 0.013964807711244448, -0.02012097686004477, -0.034414990925626276, 0.056108559599111534, -0.038371127440224154, 0.006710913189000473, 0.04417794848073209, 0.03456598151543843, 0.02936309403275859, 0.005931544368969594, -0.03392930042627743, -0.026157541300976486, -0.05314796121521335]}, {"output_weights": [0.041195438069005705, -0.013300520429612717, -0.002562694713577482, 0.0018697450649887736, 0.03999523965845291, 0.003943330060752848, 0.060620323174260256, -0.044903261371186505, 0.002614723104380276, 0.05406520554950151, -0.03169071767356972, 0.027143396894944535, 0.016681359182273706, -0.018651976558589748, 0.027086045620463624, -0.02442721500259929]}, {"output_weights": [-0.05736489381676485, 0.047545917356443146, -0.021689626657739304, -0.045078568185772785, 0.059149172461945294, -0.04682854709579208, -0.006460401180373137, -0.02589927180313515, 0.043624018179974536, 0.05965426374596439, 0.020209149060415675, -0.01604812057976112, 0.048049967078128746, -0.020203418937567445, 0.05839917956934971, 0.013953734729506478]}, {"output_weights": [0.03896476033061376, 0.06165029012215517, 0.04045434383480298, 0.0011350384859181689, 0.05324611353471676, 0.038102804738643685, 0.006712526433387232, -0.010445446152780742, 0.0021330231293964033, -0.0235588436459019, 0.0584440107835673, -0.03725118370037703, -0.010295046710487792, -0.014386340118893729, -0.015428206973352298, 0.05165724657814877]}, {"output_weights": [0.05348515699027861, 0.06065091738124299, -0.006562638521034708, 0.053696697144939284, -0.057899457103695796, 0.027974917200431347, -0.05984457668579069, 0.06474410677246464, 0.03879294995884348, 0.005362758190625587, 0.06498465368273293, -0.033449482831720945, 0.04443036492415192, 0.0027727655437838417, 0.05059135924037941, 0.00497407362642813]}, {"output_weights": [-0.031143744969919705, 0.05349911941328187, -0.06053729151772453, 0.051164418441701845, 0.019753226175604585, -0.0306033501180336, 0.05039816862655219, 0.042426243680341494, 0.029303956435538066, 0.057292742479096125, 0.040062224148476426, 0.033578939416751635, -0.024922713738447948, -0.03580312203295975, -0.04013870071347036, 0.029774357570525854]}, {"output_weights": [-0.013763081431425682, 0.05850850661012262, -0.019267796593803226, 0.0436764806212758, 0.059194917492755614, -0.05315888550856615, -0.022548746141082918, -0.04349663421571863, -0.056689982086503686, -0.01160710862024611, -0.021440953681285572, 0.05433027005141322, 0.06458432133893466, 0.021978409750984387, 0.007244326369765506, 0.029073256617996687]}, {"output_weights": [0.03637377104832849, 0.010796837958313588, 0.04704424108928683, -0.04962971628078352, 0.04895339497583228, 0.013032606356886063, -0.03145052886665001, 0.020360532885841973, 0.015084202338076499, 0.017409603992656127, -0.030693710433006473, 0.01270863048545281, 0.038801125139689044, -0.03765569204702231, 0.04094695757251103, 0.02216508998617007]}, {"output_weights": [0.044811633946296545, -0.05299481261709079, 0.0335505272040307, -0.020167048454695795, 0.02462061253634041, -0.049073056689913276, -0.06127440693466484, 0.062908664201128, -0.008891595841929039, -0.023955369155186017, 0.017698319389695346, -0.04127320247718546, 0.02924559947323655, 0.060910085224850946, 0.011254273131588926, -3.083368118677502e-06]}, {"output_weights": [-0.001272930910626916, 0.06298444366571472, -0.020076105060077613, -0.016871319636244567, 0.06070015756143785, 0.03834314996839959, 0.0417567765384907, 0.044377455044452896, 0.012317460214907391, -0.03580140543800655, -0.01715251975596167, -0.0007950570101937901, -0.0270449650770877, 0.05850254364182777, 0.018971366863279427, -0.01523749481725944]}, {"output_weights": [-0.05366733643641708, 0.03454972513905253, -0.037412868700679225, 0.0688450723980105, -0.02569298665111807, 0.048588038878776454, 0.010620668998728268, 0.01212798096515796, 0.0310986199196265, -0.047645128652236635, -0.0008117853063780858, 0.052547120232709896, -0.03087524405723871, 0.007913413823367582, 0.0032438189313500265, 0.05797481936058063]}, {"output_weights": [0.03438812310597316, -0.013093334168418912, -0.006957806838177051, 0.03401069644712804, 0.007565109948825017, -0.02150949736612635, 0.04947770248831544, -0.0024951100635195425, -0.03267126175855658, 0.0389749888987767, -0.02283662393484217, -0.009841721601230704, -0.0003208068322368454, 0.003391138807932918, 0.03801114436666957, 0.03646174346809113]}, {"output_weights": [0.01710050962851552, -0.02312400650207839, 0.009872258864465557, -0.048841321906516, 0.013292395448550017, -0.02807583395127041, 0.03958380191947518, -0.025756756402060852, -0.008978067722656228, 0.047810507692880096, 0.060756255701999086, 0.03157067099960379, 0.04069099540126612, 0.017333730395193106, 0.05984347953236752, 0.051468681306754506]}, {"output_weights": [-0.01537271028661674, 0.06363577410696877, -0.02755809830384529, 0.01543369712637509, 0.03917839132405357, -0.02751130148022867, 0.024681930290797936, -0.030544914069759652, 0.049204226941998774, 0.025321340517500967, 0.06283903487989635, 0.029585356470645776, 0.041264436145885215, -0.05158211499534329, 0.026829520427443066, 0.04555946668596967]}, {"output_weights": [0.05336439398035403, 0.005986093884516018, -0.0017670276592068614, 0.02305954016569722, 0.060621948542006254, -0.015695716575899184, -0.01273170416462984, 0.04342504516488292, 0.007866492966615742, 0.028798996419753087, 0.029447851741181738, 0.03275775653381055, -0.04215932379174573, 0.037497299285263706, 0.03300587172352527, -0.020145894563062063]}, {"output_weights": [-0.024153727785971475, -0.02671372507193191, -0.047117080156151195, 0.015505939395803112, 0.03250389202773297, -0.015869333217868656, -0.054279479819549295, 0.01222349718025521, 0.038527094168812455, -0.06223756590023613, 0.061685257097053116, 0.01465568889252664, 0.026068964804476725, -0.0535653095000913, -0.05027156543777545, -0.052950544654239005]}, {"output_weights": [0.019599713180737884, -0.015509965884652081, 0.036200812950626306, -0.028899918348798417, -0.002862622829829639, -0.03741584572775901, 0.05340919279809576, 0.011291679393407738, -0.021869464600554958, 0.016161029695503516, 0.044448242100061236, 0.057042393598780744, -0.0017168342797524315, -0.04758663343441836, 0.056549084045667566, -0.0350604094985971]}, {"output_weights": [-0.054392293494806225, -0.01838826846304102, -0.04633359929388967, 0.02778440311753837, 0.04186656123075555, -0.04494092083652265, 0.018598214707920033, 0.0031765517326908643, 0.042756563325439, 0.025471065145696928, 0.01989984147321277, 0.0021802568947952286, -0.016226244743957615, 0.0187006106741752, 0.019763443953141165, 0.002033938043137091]}, {"output_weights": [-0.030134478814070203, -0.0531684275871069, -0.04177835345212398, -0.02451600153799884, -0.007553111104654286, -0.033081308572696845, 0.01562289409497193, 0.03017940168595957, -0.03668216603421429, 0.0459504992299288, 0.022221771984128093, -0.011181383201967056, 0.002685430144413614, -0.010866101485774183, -0.06132289395544836, 0.025169215656871677]}, {"output_weights": [0.006088384581661633, 0.023717913049073603, 0.0004134176671562594, 0.017408046903665274, 0.04195139938585891, 0.041854387177355325, 0.03507173951898657, -0.0206121891468515, 0.06138290427098462, 0.007949759750238598, 0.007082416041815101, 0.007428894447392454, -0.03688130148629223, 0.053717975081482544, -0.02089215853795042, 0.01346003817922478]}, {"output_weights": [0.06092589930982832, -0.009722445245242827, 0.04335806236368409, 0.021184973289634056, -0.03029575534471131, 0.040545947491726665, 0.0471933843578603, -0.0006030795553814087, 0.0060072181183272975, -0.012851973156224236, 0.019640098474711144, -0.007377931279477898, 0.05836245186602884, -0.012258318532596322, -0.055349723284079035, -0.021862527649101942]}, {"output_weights": [0.023689415715897916, -0.01856240754193953, -0.020861513048055842, 0.055645899327233496, -0.0042479055327065834, 0.03704716220749833, 0.04482421608823431, -0.011215490164623525, -0.02195908126756975, 0.009940308427505852, -0.03103415587590197, -0.04380064163007767, 0.04575238837788643, 0.020797236601427696, -0.031332948980573254, -0.018203842473082474]}, {"output_weights": [0.040288759504226446, -0.033138648072512135, -0.03080001116371952, -0.03265715277102025, 0.04384475896132391, 0.04137238421207027, -0.04856658399436054, 0.026278268868536576, -0.018901080766820087, -0.04152548915721546, -0.009967584925971953, -0.04287249442511208, -0.01015305493673134, 0.005245525646631666, 0.06142999718628105, -0.061592712514507965]}, {"output_weights": [-0.02552056372883354, 0.04759160520390537, -0.05969685491164703, -0.05774822606173662, -0.021133309692630626, 0.016124535900585425, 0.04782199005626015, -0.021227190996775298, 0.041930525489980386, -0.047947386099176245, 0.045856478593266276, -0.02791078130713772, 0.03815285787009748, -0.05598542268131653, -0.024475847379148496, 0.03722030667800268]}, {"output_weights": [0.038801608805085167, 0.059113420596862344, 0.019546435724689146, 0.04184224967743762, 0.0473549101319074, -0.0340179784104409, 0.019262285166933898, 0.01884749388264607, -0.04602532889115476, -0.004683565632191763, -0.04239297059918358, -0.06180930028814069, -0.015093101071770441, -0.0033943632217780795, -0.01659901783289752, 0.008044918531942283]}, {"output_weights": [-0.04643612146374877, 0.06049350068065096, 0.019095133540849008, 0.05149854651896939, -0.03385636095728485, -0.000548676814889008, -0.004724596150028373, 0.04381938543556095, 0.024913156600627925, 0.03897109457661121, -0.009226480055086476, 0.02753990445614107, -0.024453564706495533, 0.014434593670312175, 0.05728509324549329, 0.0013204528960269381]}, {"output_weights": [-0.024902496248310733, -0.040454061294323156, 0.06034341301741705, -0.0037028928728964194, 0.013143066230666805, 0.06146785227480286, -0.019667168442964074, -0.03374430557660992, -0.04907360690289773, -0.008123429487392716, -0.044635927800598704, -0.04679764092235804, -0.021237470141842293, 0.03972965012282556, -0.006223510038365484, -0.05304422798226298]}, {"output_weights": [0.00879145004025386, -0.009825646688132822, 0.029166385312575902, -0.03853204475238043, 0.023163057770295165, 0.011982589792999768, 0.030492324344584563, 0.04943830399199885, -0.05382084544342564, -0.018277850848576898, -0.0209817373976713, -0.02015610416924879, 0.0647248409813397, 0.04977882107251599, 0.03082380218206492, 0.06133472783826232]}, {"output_weights": [-0.05105526786403538, -0.03241723602429989, 0.047912024290096826, -0.007396221093933226, -0.057492971343336224, -0.005128423523606414, -0.044391380392182454, 0.060698716897486994, 0.02721549570513137, -0.00013826813226820045, -0.010462631931092998, -0.032860723418289405, 0.0076843558759431985, -0.018173430209442874, 0.05406900969505383, 0.044781046007115036]}, {"output_weights": [-0.013934347383081157, 0.013635951868289985, 0.015360409228084668, 0.013888133656592848, -0.013587739848654593, 0.06561290133314344, 0.03459715778374357, 0.020889012278232696, -0.026240952034518022, 0.019346994341153997, 0.027160746343956016, -0.060767605583734584, 0.028681773029310874, 0.009258263475202184, -0.03536452149749006, -0.020171547029644247]}, {"output_weights": [-0.007244339543599526, -0.05119546458247073, -0.03683634918702506, 0.025753367082486316, 0.04249447152006023, -0.054839744392460046, 0.011940565944378529, -0.03731071484940791, 0.025694982764062478, -0.015822168856368723, -0.05735924508437737, 0.010440701600084066, 0.031003533989255556, -0.038547820832893785, 0.03289555565010836, -0.04455335993126057]}, {"output_weights": [0.03341109460605825, 0.024030014186968086, -0.0500358356287809, -0.0019243439427308409, -0.03994510261985007, 0.0008850402719080947, -0.051420319426916675, -0.021476502439437887, -0.00549004113586498, 0.020805130325241877, 0.04353819990897023, 0.01236411507079251, 0.0177560158844989, 0.021551270604106994, -0.03319214749386513, 0.01667608546830016]}, {"output_weights": [0.0031234883163798687, 0.03477548320470597, 0.019201801609068484, 0.06258540297333323, 0.04239255970309404, 0.013138804875492812, -0.04973744812737856, -0.00481973213092861, 0.006152846020465113, -0.0032841181464678317, 0.02558202272101795, 0.0234820272751631, 0.060960064086336675, -0.0010503791780370226, 0.014421994075061178, -0.006146702168569023]}, {"output_weights": [0.016918744382698813, 0.01775246963753753, 0.010876324359334099, 0.018891370447612306, 0.02497863432097112, 0.012224337477468407, -0.046439930108597566, -0.0014809433527185987, -0.003176110413450134, 0.05763782852367191, -0.04273992029379429, -0.003824289640838041, -0.04269711396946022, -0.008809228553267389, -0.04302237950070863, 0.055912149006786926]}, {"output_weights": [-0.000271491559235322, -0.007677215488221907, 0.009715752222939198, 0.05037304454857347, 0.018852249173486494, 0.05254880888593741, 0.059459997835755694, 0.03202389163382407, -0.03988466050518754, 0.008060103688844808, 0.055633199956333035, 0.023247991198438015, -0.021774228456491452, 0.014519882694080175, -0.005583759485417475, 0.014088512660550051]}, {"output_weights": [0.010991931130747751, 0.020977589781793718, -0.024867281839742766, 0.009321457617816999, 0.049361150068042876, -0.018304569695192077, 0.02166465398669485, 0.05996624106697239, 0.04545106747289894, 0.00021846435946282672, 0.03311964097944342, -0.039050666388465306, 0.03034919387290457, 0.04038988644102779, 0.05740154086172973, 0.056243975081370606]}, {"output_weights": [-0.039582802697602816, 0.047328155233605805, -0.03722249601004968, 0.028267977703595865, -0.062355930856690556, 0.028035037255759777, 0.05628955486543913, 0.06003338271946633, 0.06095412402360984, -0.05196058670187268, -0.03270246596733606, 0.05726507796120437, 0.05844681206661138, 0.031641366357781885, -0.04336808764707721, -0.01609259050951191]}, {"output_weights": [0.02646168798782432, 0.0030006604407282634, -0.002063224475404466, -0.007847711443667716, -0.004246367036455653, 0.0422315871794119, 0.01287086183624181, 0.06840089477490384, 0.00802763600616637, 0.019108533832026618, -0.004050156163185769, -0.002178610174107064, -0.0017038241294193804, 0.05767566933223808, 0.006380836681023836, -0.05784078274286314]}, {"output_weights": [0.06259158355554481, -0.049348834613295055, -0.05228478413871501, 0.03017386558538304, 0.018819418989187934, 0.04868696759468528, -0.03769695140352148, -0.04302754581872996, 0.01624249239752736, -0.05913046280117225, -0.007134853109284617, -0.03319342311389912, 0.05406536631501244, -0.00823695969870055, 0.04654061011831928, 0.024175362759656652]}, {"output_weights": [0.0004879250172898761, -0.047794239818193536, 0.029543763548097738, 0.04725635924906517, 0.006626632965457831, -0.01827547329358184, -0.028197933246545796, 0.049568948085169665, -0.008441315231772304, 0.03496101835236669, -0.04440545797611254, 0.028105729925712832, 0.011579869928685219, 0.043767295798271245, 0.06029432397459874, -0.049944706816731604]}, {"output_weights": [0.0004930907808756276, 0.05410196826323474, -0.04589122145081217, -0.011419031775677707, -0.002266550788005934, 0.003575716324499526, 0.02105499304639276, 0.018135211521600015, -0.043981404462924444, -0.0056716183783366075, 0.03536155854116365, 0.03182957777979035, 0.015091090809761901, -0.018163996156429052, -0.026280356079724527, -0.012425889330402153]}, {"output_weights": [-0.0282265615086798, 0.04143791561246085, -0.012762846938984534, -0.006458737394432707, 0.05386296169128774, -0.05222269256997274, 0.03141351252039792, 0.004197210000993034, 0.04152900338198, 0.011915947143545174, 0.023462782371915656, 0.04730505283024763, -0.001009288901033716, 0.0477356487662314, 0.024163115999400193, -0.060353345153894365]}, {"output_weights": [-0.021055218975616255, 0.02691031180870544, -0.035494264210081276, 0.039618059395240775, 0.03450277161490573, -0.02012727998502897, 0.022582540582219028, -0.022449252063691506, 0.05915523849095336, -0.03528516669541345, 0.020550765996416826, -0.033284130535267374, -0.035374696525537624, 0.020628531746796016, -0.038644148358677785, 0.029480944397443448]}, {"output_weights": [0.0525156018096104, 0.039341500876325396, 0.0002211902952493903, -0.0010898824613821878, -0.015045007424974171, 0.018218216954844543, -0.060013548389089816, -0.029245423285513977, -0.05925219522537537, -0.015643136846242123, -0.03360795176519244, 0.04393384929140195, 0.01769956262760818, 0.028168045161082646, -0.04925959316284511, -0.028546906694286073]}, {"output_weights": [0.03753974912781892, 0.05494794281200619, 0.01771243510529916, -0.03379706391817264, -0.03580286785511253, 0.032468814469419585, 0.03670209299138002, -0.05456590834673672, 0.038370955937740786, 0.0069249798890562465, -0.036638793665021215, -0.030573625439562654, 0.05173724717337803, -0.025284408436434157, 0.05073276505198779, 0.049772487960626284]}, {"output_weights": [-0.0019027923381059728, -0.05959053149158368, -0.0328016564896505, 0.012840923711209833, -0.01383011756243787, 0.04270369362304325, -0.011943026169133755, -0.057226371773266595, -0.03831201424604626, 0.006919943806025573, 0.040850593880731444, -0.034061814586071285, 0.04066307879528049, -0.03506005783260607, 0.013445320579591687, -0.03147933208462554]}, {"output_weights": [0.033285561783955794, -0.05029720440208375, -0.038474636025344164, 0.0560035734839443, -0.004639724405668048, -0.027233616929642285, -0.055322277866609884, 0.03893127088251795, 0.009189730087693943, -0.040099200021166403, -0.06044804186092278, 0.010423015485271763, -0.01918082506925034, 0.02873880887984423, -0.04633954137159815, 0.031395791727172426]}, {"output_weights": [0.020576711405861026, -0.006166695520034213, -0.038138316480220855, 0.05235426443951637, -0.009409085713759575, 0.014852632801140788, -0.01924523315712571, -0.04886451546398588, 0.0007470956109531517, 0.021997568257950944, -0.046666327210048174, -0.029496976887095933, 0.03392538941396354, 0.039899218652761095, -0.009820311382473593, -0.008798341337037283]}, {"output_weights": [0.0020182576349075058, 0.06028871030226724, -0.04377980886058082, 0.05559732508516386, 0.04720480788580672, 0.03447423835217178, -0.062097706138505994, -0.007939531263900557, -0.03142601844454004, 0.015488896854182527, 0.05498107899641472, -0.06033828182309615, 0.03225632609760789, -0.04804106996711602, -0.0362557836166519, 0.0016616403091210214]}, {"output_weights": [0.03943816091603796, -0.03015627004781181, 0.009628985488113785, -0.011058676947974778, -0.0008896824278938342, -0.027957491921888844, 0.013392678340410788, 0.005194578176589672, -0.00724566434510427, -0.029854663986646858, -0.03074372648758164, 0.014345750652851721, 0.022005020230181527, -0.046633224554816555, -0.02968622846181604, 0.030137139979503638]}, {"output_weights": [-0.02866085917413634, 0.037155261777890004, -0.028234061619567125, 0.05975684313087219, 0.01927478134414451, 0.003849147635023406, 0.042953837142819036, 0.014661026526183542, -0.025726738122675924, -0.04381723132917292, 0.016077240364277386, 0.0550119299605743, 0.051744427457691616, 0.0011391932119742612, 0.014086178390265651, -0.04063918659985044]}, {"output_weights": [0.039174821849323374, 0.030852552527599848, 0.018539510322999993, 0.029023317256499825, 0.0007267994028381494, 0.04456156836366192, -0.03707601688084345, 0.029441120801666453, 0.05403740684312909, 0.020930042507439878, 0.020467048462565612, 0.033003109113907, 0.014508793283640912, 0.021753309490046568, 0.05409881527680426, -0.029039341091092557]}, {"output_weights": [0.033260857505630397, 0.024925145883693586, 0.03616115588991374, 0.008326616212501508, -0.02889115141246649, 0.01328173254712109, 0.049144946248567224, -0.05536331112741474, 0.03325164340266011, 0.01619852136776178, -0.021278986786930597, -0.022790242335756862, -0.03021728016890903, 0.034331136252363455, 0.051758045352653485, -0.030134441796598535]}, {"output_weights": [-0.0553633478490998, 0.045013505037457845, -0.019343473088541046, 0.02566336301672146, -0.060115179511506044, -0.01661002642066501, 0.04745656686527679, 0.005887630499423691, 0.025943248396520433, -0.009278469531539376, -0.029957903887550524, 0.025269731865182447, -0.014193661422169991, 0.0016096610045989305, 0.014815113258877497, -0.009894094641645855]}, {"output_weights": [-0.032587817615926364, -0.045556490246978255, 0.04695769467280479, -0.027432321283322455, 0.0506450117209896, -0.02945024733954768, 0.012836559447900861, 0.026830234407884297, 0.03322227017312836, 0.017835603580113202, -0.025499752648052015, -0.05492335222626544, -0.009133065777226656, -0.030326242187562146, -0.03884448292881543, -0.007259814114617607]}, {"output_weights": [0.03241071256393319, -0.003932858718923844, 0.01045162965066959, -0.034502633327816994, -0.055340728435198744, -0.04508701090037253, 0.05349758498666256, -0.023054511692653844, 0.03729081694497326, 0.023086576578145637, 0.052896781956172916, 0.023286634930370916, 0.06371566324025205, -0.0350296318005458, -0.011016855960342346, -0.021850787040598806]}, {"output_weights": [-0.003503597769421463, -0.00855758560647703, 0.02042679319722099, 0.06697302909141876, 0.007770157422214698, -0.054233228363161315, -0.043413436928697216, 0.05844528221216078, -0.024699855416000283, -0.04303166502224957, -0.03481934571213284, -0.00441942359472581, 0.019731212919728555, -0.010707136538377718, 0.05429638018549288, 0.009483728263911126]}, {"output_weights": [-0.03255315069663729, -0.0032873840413040565, 0.03887458077526528, 0.06218160047433074, 0.011673626286950478, 0.006134399582866883, 0.015933618345683947, -0.02507183800916729, 0.008433606933386248, 0.015181149423822243, 0.023813006355960602, -0.05729247679195536, 0.031087638008509184, -0.05162681963936194, 0.006308758769714817, -0.05094459257271664]}, {"output_weights": [0.03031661627155794, -0.0215728505586365, 0.032118612995405284, -0.008637954516313683, 0.000733601016378757, 0.04658000277143242, -0.03124892191654756, 0.004102723027861031, 0.04016236974387636, -0.04784948170622613, 0.04925244599171277, -0.041235404841802714, -0.05167352638939318, 0.04098311067204962, -0.007230805491363821, -0.03784513366507747]}, {"output_weights": [0.028326581146581282, 0.019353222936890308, 0.017008288019021586, -0.033585391447754624, 0.05709450201340832, 0.061385061205457475, -0.026527542549156492, -0.05116064764203844, 0.005392835602957505, 0.03624981867831176, 0.0052116929859326805, -0.01148032960109094, 0.065182559580691, 0.05361157167960142, 0.059109888403840155, -0.05546531100760962]}, {"output_weights": [0.05866175251843921, 0.04887790056201644, 0.021772740827560356, 0.06991509042387496, 0.05410067361500068, -0.00020707736509084217, 0.054544230895812805, -0.017948607394875603, -0.035508195790284525, -0.019844656532707054, 0.07061166995868468, 0.028422556977894288, 0.02068540875073579, 0.0016666577764036972, -0.02234265816121826, -0.0233941786492022]}, {"output_weights": [-0.025216315703354038, 0.05565722630744387, -0.04497749486035006, 0.013743586002841911, -0.039373318327986594, 0.003281806239717586, -0.03666927821478328, 0.05990749361770906, 0.05853507131017968, 0.017648017095420847, -0.007668589514758593, -0.036162884745544646, 0.02253341886782442, -0.050027452955305765, 0.054838823593080475, -0.04576514224790324]}, {"output_weights": [0.03463821238660559, 0.03772946347001298, -0.006751614462429365, -0.03709949088414249, 0.05998001118925875, 0.009516303855983376, -0.008225213146345773, 0.03965770225077541, -0.06112026741789443, 0.009705717431613694, 0.0584021995180409, 0.015768459842523425, 0.05395349454887358, 0.06934224537132908, -0.04324103070214549, -0.026206390300126302]}, {"output_weights": [-0.03330708127812471, 0.012397861966317734, 0.03084734898305099, 0.07858878492733463, 0.04532388194703875, -0.05230706210212957, -0.035729201179836634, -0.03468974800268315, 0.040734899217803516, -0.007150042278425449, 0.007508435257904372, -0.06057003206891846, 0.019334825428983345, -0.04745635265223627, -0.009677521899372089, -0.033130077790169805]}, {"output_weights": [-0.02789481306332837, -0.040726433125401966, 0.00797118178789257, -0.03476239934577358, -0.007696898847505818, 0.039749926937944755, 0.00992428415853709, 0.06623099484759694, 0.019127584700127216, -0.020127424330575676, 0.06600407895473819, -0.04125007062331002, -0.027244744476076135, -0.01799549196345958, 0.02888777563863728, 0.020908368587074167]}, {"output_weights": [0.04298183190305765, 0.011515286859253097, -0.03561290662789197, -2.9161191167653597e-05, 0.028623858511774812, -0.04820359084586236, 0.05570619121006644, 0.009730805375363813, -0.05888164142125801, -0.055188585502086544, -0.03554429219982525, -0.04910399947027301, 0.006754109636195289, 0.0014673372395033668, -0.03200409235106001, 0.014963966560623992]}, {"output_weights": [-0.03017056281354726, -0.005724310541616851, 0.0056810528882098215, -0.013815190825773998, -0.048627182864370136, -0.03934312583228393, -0.056442173910057465, 0.0591810290973145, -0.019604129451665543, 0.038028961137081534, -0.040213572766088834, 0.05961383486168977, -0.05069729686439276, -0.041006440189414205, 0.018902770123752535, 0.03988739523730156]}, {"output_weights": [-0.05640037864217669, 0.0009760396657439945, 0.014597695295562863, -0.021571902960416132, -0.006019890207369492, -0.027847087328923, -0.055237156391226824, -0.04172493054664097, 0.06056979924446528, 0.021867259037460212, 0.0322774517471483, -0.0466617260329521, -0.011906959672605997, 0.014634162145935336, 0.048359490141740485, -0.02344965849459071]}, {"output_weights": [0.05319415956498985, 0.025969658468426384, -0.043571956065286646, -0.015349361252172091, 0.009112335181257187, -0.033034162718197785, 0.06052391883608324, 0.06866851578641772, -0.04766160203354093, -0.012824981308575605, -0.004247037329697432, -0.0005080355010794685, -0.0500496254942731, 0.021838935820492223, -0.010494881282875436, 0.059875350558213976]}, {"output_weights": [0.023012369936172544, 0.03391050037568345, 0.018445593504537387, -0.011132343315526311, -0.005202848866574854, -0.05424517017091031, 0.01195970659076565, 0.040165564448450014, -0.015623809009328351, 0.02878928181895103, 0.04130813099008174, 0.02407466223018551, -0.031334578004208614, 0.00523839290258696, 0.0034198217812823517, 0.005418205352929056]}, {"output_weights": [0.05708546303666453, -0.04534910776424895, 0.01811860164581298, 0.07378261057887107, -0.030474629974502766, -0.018853620860887692, 0.03492639293830646, 0.07014679462588845, 0.023591744664698336, 0.013534586032386524, 0.028585460198787147, 0.019580065155848314, 0.0009736421948741567, -0.04714330987591416, -0.013827708737484052, -0.030135213492202675]}, {"output_weights": [-0.04185311258354426, -0.020302858361310565, 0.039881114656289546, -0.015733833915878435, -0.035094204638438826, -0.023453725353903075, -0.056994330969330945, 0.06713385300180147, 0.02667516698888724, -0.026436081734421055, 0.02784856668361298, -0.033492046478065036, -0.036730792520218235, 0.041659408400094286, 0.06676966276725826, 0.01688226178106409]}, {"output_weights": [0.01872850653352763, 0.0013759911666113489, 0.023600086999145158, 0.046642940425705125, 0.013019449424214973, 0.007974741886870628, 0.046825617067490395, 0.041590514989131376, -0.0554934798916062, -0.01656631922117662, -0.037409294832888386, 0.04509942232741143, 0.003518304933310599, -0.011611304663489218, -0.03101541746996298, -0.04564475287750062]}, {"output_weights": [-0.054201075557426065, -0.0174962812947387, -0.011491505925967486, 0.026566372998886326, -0.018707533092455368, -0.02937623274231932, 0.03153883878707658, -0.0077843735222541, -0.015056881331582173, 0.02647856809698496, -0.004367788259827955, 0.061431112920297036, -0.02705092523137727, -0.018589300979689943, -0.0150052062497666, 0.033899817685235346]}, {"output_weights": [-0.04707627063040049, 0.03179261908778016, -0.04566032504199157, -0.020625756053124156, 0.04638899181794075, 0.05819917883384668, -0.024012526561066817, -0.005429343877054946, 0.027639422119102103, 0.05329030979195337, -0.057861868272392376, 0.047392938403398324, -0.06031825942038557, 0.033727350756856025, 0.017996866594084584, 0.02344166709725245]}, {"output_weights": [-0.05486625877982316, -0.0127223393870057, 0.05935781830763267, -0.007691553017824155, 0.03495004021849191, -0.047918942378663294, 0.014297153506378255, 0.030910187018097633, 0.02655796414602094, -0.06025131925251877, -0.05901608874504023, -0.008597949004656642, -0.05057077227763693, -0.05668370657199334, 0.008953574766042612, -0.02502441976907782]}, {"output_weights": [0.011665156541293948, -0.02435818390561964, 0.024863186271763024, -0.027662890136002607, 0.0565233434162907, -0.05689600254155225, 0.0424889397219473, 0.055683197026035094, -0.05190675195621756, -0.036839881254963194, -0.021320187785911424, 0.0363260385278134, -0.007742051839928479, 0.027696465296073097, -0.042921317261795995, -0.017478749178530137]}, {"output_weights": [0.014859744116935851, -0.00024983408498791687, 0.010676843391802762, -0.04506092961720467, 0.03521451032005044, -0.018730517782122008, -0.0004986255229538772, 0.05853409092515597, 0.06019422623461849, 0.032690462160311975, 0.012516104583405303, 0.014482511266614213, -0.057630431041607526, -0.03953931270105331, -0.020008922591142578, 0.006966076043528488]}, {"output_weights": [0.043139695003833536, 0.0022082428026639856, 0.062421345126255134, -0.05703202395965188, -0.03687475597413109, 0.032537708676720185, -0.021302162520545512, 0.00364677378462178, -0.05010045169212503, 0.0014862519626314102, -0.059765892274424345, 0.020025749894254825, -0.02044080550511512, 0.03355928277576829, 0.025576486868798296, -0.017221601291011777]}, {"output_weights": [-0.04619718758216758, 0.013829170443135535, -0.03437097512958709, -0.04850379793959342, 0.033553661907766735, -0.010607134776052877, 0.010847076159637993, 0.00885806184369005, 0.039400325525484906, -0.030085377642128215, 0.011775215857201454, -0.05092391752195218, -0.044790607538545656, 0.02300487382166858, 0.003656301719477018, -0.016358386181073464]}, {"output_weights": [-0.05163741195240231, 0.0064052527955099185, 0.044248090117911504, -0.02815249195583911, 0.01295323181240533, -0.059560749691107084, -0.048843948455900336, -0.00314953161357257, 0.041117927642343344, 0.00027472346622029305, -0.021053798047378922, 0.050290453219931225, -0.06078746283734504, -0.029410050233238005, -0.031153843271007932, 0.023869810417591144]}, {"output_weights": [0.024054747278972617, -0.05112415432158528, -0.03781204186757478, -0.045161060428475085, 0.059633779416116035, -0.049755921741268055, -0.056136856919566616, -0.046288943348694225, 0.017622025098403445, 0.0025330557276801624, 0.03731512849949691, 0.041260156285299304, 0.0009288653093876408, 0.03923061142271769, -0.04119754850459006, 0.05267435892876344]}, {"output_weights": [0.008754312666983137, 0.016059231760150994, 0.006484421255103425, -0.0228457667595808, 0.02479626359042968, -0.018821110855187746, 0.0033945442683265357, 0.030049351335555873, -0.012718842943283756, -0.0598488336458434, 0.024177322850454173, -0.01957607433762916, -0.004283541942131511, 0.02393357078433861, 0.05688121361899597, 0.013855560457913179]}, {"output_weights": [0.06186830962523115, 0.00039215169482504904, 0.024317448120891247, 0.05721185082192761, -0.0159743593291586, 0.02396322320368964, -0.0589026484433094, -0.0046641256711054966, -0.022186766726432744, 0.045086650681548344, -0.015513338168341186, -0.009435321823640312, 0.0659914236292068, 0.06532565362962563, -0.005955732931645307, 0.01393220339635637]}, {"output_weights": [0.03599249804819621, -0.03983081375355377, 0.010421408773748739, 0.07494235076651068, -0.054409521920925824, 0.01542910509487825, 0.007179929897897244, -0.030739820110606653, 0.02945034364479402, -0.0026052021958668076, 0.06319908863905398, -0.017407658781195556, 0.004736081226503876, 0.07251219692975874, 0.02677262675463543, -0.06269871871236667]}, {"output_weights": [0.01394733565186671, -0.03790854519122821, -0.02558792013942004, -0.01606345945260892, -0.06049878441283209, 0.06018427021489216, 0.018698737163611458, 0.03673802581531319, 0.024462424073632028, 0.028162638533211635, 0.012187320720955236, -0.011761669344807525, 0.07088435760960891, 0.016429324037898804, 0.05054124332188817, -0.03382240927089893]}, {"output_weights": [0.0272381766547223, -0.031169772976959442, 0.02866557061080798, 0.03421363220500144, 0.023924597457892657, 0.04666591761386759, 0.04557517555469622, -0.03679009285987398, -0.05132920212003254, 0.027984665177325944, -0.004457055380021067, 0.006599860143607863, 0.02398308692172419, 0.0349673212743936, 0.013244576390880971, -0.037955579192315125]}, {"output_weights": [0.011055474366855613, 0.0017975127151736183, -0.0456553699763346, 0.05386534834051292, 0.03672089859163493, 0.056857459108978915, 0.010380399392158889, 0.02049459383547999, 0.049866623680744106, 0.019974519480569324, 0.03611377161980423, -0.027508377355795855, 0.007626282991636316, 0.06051244062061441, -0.0450150808388141, -0.030606235328423877]}, {"output_weights": [-0.05211278772857319, 0.0022151489949068935, 0.028190232212013798, 0.06680476496221026, -0.02185829168768509, 0.05689128952430876, -0.04278102978174168, 0.06407302207981205, 0.016012587316298628, -0.023434266008350305, 0.07355645004965022, 0.04304267864854203, 0.06702328642145713, 0.02394646006115487, 0.061140346525046775, -0.00741738765496712]}, {"output_weights": [0.03899794350762408, 0.0050042096896848525, 0.02423599284864811, 0.042453426905469924, 0.0067885112785380656, 0.031884322276282066, 9.78786400644992e-05, -0.032707237325533094, -0.032769532018612504, -0.0628843223075061, 0.03394282742425643, -0.027131238394230064, 0.05217525938296685, 0.037783426341771634, -0.04514301338740415, -0.03243481033547556]}, {"output_weights": [0.02037910011260383, 0.036319903440427036, 0.03264853777787558, -0.015048417770806295, -0.003694324371177582, 0.06537308603851753, 0.025648540255184593, -0.027776187531328687, -0.048830775073015704, -0.01551937012880623, -0.0027543946888736004, 0.046190048829152695, 0.028151244788847528, -0.025516078346050616, -0.01825481518519357, -0.06373831224344824]}, {"output_weights": [-0.04029993103975422, 0.0002236383484984799, -0.007910156325939355, 0.07574918839680178, 0.04049048988847187, 0.023534195800505697, 0.01857014780705513, 0.04547035294302794, -0.031155734844576576, -0.011429530135007549, 0.07208978975656541, -0.03583206411160556, 