{
  "template": [
    784,
    16,
    16,
    10
  ],
  "iterations": 0,
  "data": [
    {
      "layer_type": 1,
      "layer_data": [
        {
          "output_weights": [
            0.027197465869293537,
            0.0003142430740028096,
            0.03284565042703737,
            -0.028861408552641084,
            0.05820794004101225,
            -0.010806064765684208,
            -0.018527968308080504,
            -0.02408421180087937,
            0.022463898359900536,
            0.0408909976315054,
            0.011381404867826787,
            0.03425362050115331,
            0.05203111485918787,
            0.04782061041468331,
            -0.008382769762968971,
            0.006939564665005948
          ]
        },
        {
          "output_weights": [
            -0.04280096064427599,
            -0.024137157925613703,
            -0.053038173986986105,
            -0.057312229207072324,
            0.024696740617586546,
            -0.022785759723856866,
            0.05072296560629943,
            -0.027952091061158077,
            -0.011047120512688448,
            -0.03572877236130236,
            0.031247450547422548,
            -0.028421174374223812,
            0.018287683955110913,
            -0.029207042883085073,
            -0.062133072161657275,
            0.03145822348943096
          ]
        },
        {
          "output_weights": [
            0.026772652005774472,
            0.013575489120490843,
            0.022258839363676307,
            0.02131701563508044,
            -0.003103631098672531,
            0.00524470734020583,
            0.045813591533436275,
            -0.04131818779007093,
            -0.007284862244895385,
            -0.03566414161301591,
            -0.01938182759183167,
            -0.03734990341412224,
            -0.05624312428077383,
            0.053868280309591184,
            0.006458711723563514,
            -0.021081513575493954
          ]
        },
        {
          "output_weights": [
            -0.005136837766497697,
            -0.011543919721800196,
            0.0548586381191127,
            0.04256735376292049,
            0.04086626920941422,
            -0.04042308803662318,
            0.04953452251109574,
            -0.017280810375985625,
            -0.015334605022766547,
            -0.0074138274222889655,
            -0.04488537584892773,
            -0.0491074894973908,
            0.023297119403103396,
            0.06129610542815828,
            -0.05661409444802052,
            -0.028205693488394974
          ]
        },
        {
          "output_weights": [
            0.013578882725079622,
            0.01250465583023376,
            -0.027381468462105395,
            0.038768985528604125,
            -0.057223545305567836,
            -0.02856833010100332,
            0.03967288730265784,
            -0.0025358221362709182,
            0.0008800316785222556,
            0.024933067243580367,
            0.038754715768281066,
            -0.048477240157468175,
            -0.043068298090503526,
            -0.0388569267618329,
            -0.03628854909663794,
            0.007575558059440594
          ]
        },
        {
          "output_weights": [
            0.03727832579140097,
            -0.04765228761236167,
            0.031077257760282063,
            -0.003771520260838594,
            -0.002094033582862427,
            -0.012475518507767201,
            -0.02248490452590856,
            -0.027422209072538305,
            0.031764356527013426,
            0.029133885172718435,
            -0.008191018275051531,
            0.05960702866984393,
            0.00046399468994615806,
            -0.02234911098766265,
            0.008711894912187226,
            -0.016045699504786924
          ]
        },
        {
          "output_weights": [
            0.04534940893293019,
            -0.020312076342615212,
            0.0404314294211788,
            0.026291755490858375,
            -0.026456978075449028,
            0.008519089422353222,
            0.04040403705758384,
            -0.05620313741297182,
            0.05460389236618025,
            -0.002274044130617152,
            -0.04535141987728372,
            0.04705685328407859,
            0.04863653577912022,
            0.027891204032303323,
            0.04703651606129853,
            0.03408339394961282
          ]
        },
        {
          "output_weights": [
            0.029096776762748,
            -0.042435757082966985,
            0.014374487808470726,
            0.027077592046563487,
            0.045579049285342094,
            -0.04277819396121731,
            -0.036130393914081155,
            0.010879516140214554,
            -0.01362758475299726,
            -0.01285099936093053,
            0.02372454142716729,
            0.035812175420207905,
            0.01481809192252296,
            -0.017929222848651935,
            -0.00874425910449659,
            0.032483350737032464
          ]
        },
        {
          "output_weights": [
            0.024362502796845424,
            0.017193099501348764,
            0.019076518008077067,
            0.005183943925168404,
            0.04117783779783698,
            0.054581611028815806,
            -0.01654408775033426,
            0.032833493194985686,
            0.03515973017350324,
            -0.010119993634878297,
            -0.04311236016737159,
            0.04180467308068872,
            -0.05922376893636728,
            0.016232379603881242,
            0.06155993967348822,
            0.04614193388136049
          ]
        },
        {
          "output_weights": [
            0.0008621434153339574,
            -0.050435560146213115,
            0.023454378005929623,
            -0.038307410662251566,
            -0.00018969842252919422,
            -0.030017122442666397,
            0.005949644824628349,
            -0.02516253300624395,
            -0.005797886801811265,
            0.007372610278694833,
            -0.018161789552370196,
            0.020617466524245988,
            0.04414349278721316,
            -0.01159781705816787,
            0.018064238998433055,
            0.002562155448457573
          ]
        },
        {
          "output_weights": [
            0.022237179640420157,
            -0.01793885776877701,
            -0.037240091076433966,
            -0.03546281582022012,
            0.0472627853090079,
            -0.004804000234120136,
            -0.018901938051546892,
            0.05147278757472381,
            0.020442813275257377,
            -0.029943967744772787,
            -0.004554349631566194,
            0.017702993999225335,
            0.04762603442186878,
            0.05007773735461077,
            -0.012016406784301138,
            -0.04312755612945979
          ]
        },
        {
          "output_weights": [
            -0.01948751841036634,
            -0.058895426412854085,
            -0.015422765028283367,
            0.011487753739549612,
            -0.028850443775513913,
            0.007239807411015181,
            0.05653173833925752,
            0.002457254694919024,
            0.02938307558387441,
            0.027359125168241877,
            0.05633280738972332,
            -0.047908866267933656,
            -0.05801667335169897,
            0.03876166053923947,
            0.048341781623404585,
            0.03040569289834546
          ]
        },
        {
          "output_weights": [
            -0.04152144295261718,
            -0.04132340662284942,
            -0.04153946014036212,
            0.0384294212389681,
            0.018620186374165897,
            -0.057146112267404944,
            0.04172075008707149,
            -0.0538218686615113,
            -0.008368763903660807,
            -0.03849738193557415,
            0.01828028259242051,
            0.03462522870455731,
            0.04632098947386113,
            -0.018206451700795802,
            0.010145252054015189,
            0.040218606274506644
          ]
        },
        {
          "output_weights": [
            0.04554753990095576,
            -0.006577760100837805,
            -0.014657383186100374,
            0.04137666525260033,
            0.05665871793836108,
            0.055108121564269155,
            -0.05928433198423407,
            0.0420870543899709,
            -0.03829978475253095,
            -0.04110468911716145,
            0.044457385157629335,
            -0.04760823475091608,
            0.04489432720034558,
            -0.019484902932206512,
            -0.05408079649828194,
            -0.00016533567755740858
          ]
        },
        {
          "output_weights": [
            0.0006258758269269207,
            -0.011008418104865386,
            0.02454590303906093,
            0.04718836109702841,
            0.0258292461492262,
            0.011736866585022779,
            0.012260984748814888,
            0.05296653762241046,
            -0.053367165082306274,
            -0.0037724688161877157,
            0.0428248880605267,
            0.007554623712600017,
            0.014674330225421826,
            0.026315888360309396,
            -0.02142812908103222,
            -0.009366832146358355
          ]
        },
        {
          "output_weights": [
            -0.008558897698308955,
            0.05698023744084536,
            0.025423362424509946,
            -0.01628076496068105,
            0.024418154231000515,
            0.053112625487513936,
            0.040632745560745046,
            0.03394945178652867,
            0.011449319132142366,
            0.060901403776514935,
            0.013821567795478745,
            0.044594847191499816,
            0.0021847493253071212,
            0.011323411313095964,
            0.04938686618031578,
            -0.011588386186388966
          ]
        },
        {
          "output_weights": [
            0.02463308469393761,
            -0.018012272311178898,
            0.021732112839987952,
            0.024572863930457357,
            0.05669527789844745,
            0.006858286554361395,
            -0.04115623691450821,
            0.014435832922828615,
            0.06053272423332973,
            0.00045330591183145863,
            -0.053931334247782195,
            0.025131846799964386,
            -0.052770459699626515,
            -0.0303268329179463,
            0.05309575017733273,
            -0.01368814249318634
          ]
        },
        {
          "output_weights": [
            0.026898205963303543,
            0.022079920239170076,
            0.025071587950948472,
            -0.05499021458732687,
            -0.05496525790704061,
            -0.013802571042397502,
            -0.06071042656054522,
            0.05788795362858364,
            -0.05452466612133061,
            -0.04786811970469773,
            -0.03792046705545476,
            -0.04840565826440581,
            0.024987156487374138,
            0.010270643122935692,
            0.014331436374383756,
            0.04016380199333056
          ]
        },
        {
          "output_weights": [
            0.05292586977777133,
            -0.05635026424274804,
            -0.001742846465156149,
            0.0622631865446272,
            -0.01347437167417373,
            0.01048029756689893,
            -0.03586573079077206,
            -0.007232727359754998,
            -0.03491560500975204,
            0.037888964029807085,
            0.05290576461793153,
            0.04208180294769353,
            -0.03683026380322943,
            -0.0177650750402866,
            0.045583753592466025,
            -0.03616458441978534
          ]
        },
        {
          "output_weights": [
            0.0595848585325917,
            -0.0029538354408488107,
            -0.023057372183811854,
            -0.017018964145917033,
            0.06113511993709734,
            0.021459523022103286,
            -0.012932160628019412,
            -0.05967659235682083,
            0.027143342539266764,
            -0.0559711167611043,
            -0.05849283013635487,
            0.0027756774667670597,
            0.01951749666062951,
            0.015388219819874344,
            -0.032484011298926446,
            -0.0406957318269419
          ]
        },
        {
          "output_weights": [
            0.029949062108578825,
            0.04861665471593008,
            -0.051220129711000296,
            0.04155761139694791,
            -0.04830068336906345,
            -0.002494235762798183,
            -0.0003179580964500911,
            -0.030774425067388554,
            0.06161929172657038,
            -0.038018975246786435,
            0.05322890525943577,
            -0.00773056415375542,
            0.03180106808188766,
            0.062338818742226104,
            0.03901535390927253,
            0.04365859670961918
          ]
        },
        {
          "output_weights": [
            -0.019240114694198847,
            -0.040186781380667266,
            0.012218631178988006,
            -0.0278510822576064,
            0.008032369002463853,
            0.03636693180465938,
            0.006385905676713363,
            -0.05681600524050927,
            -0.021300862722352612,
            -0.0337933076198559,
            -0.04849689024771079,
            -0.05395487545219202,
            -0.0030984808942185887,
            -0.04421296204231201,
            -0.011228080130179098,
            0.05802231254986901
          ]
        },
        {
          "output_weights": [
            0.009052146044974202,
            0.0440697811092519,
            0.021848425018484337,
            -0.04078525149858738,
            -0.013021806623297959,
            -0.030952307596092042,
            -0.030214517438476515,
            -0.019683026910785446,
            0.059321795999587486,
            0.05870243890193284,
            0.0031660336082249135,
            -0.03684441009383891,
            0.05627976808956691,
            0.025719357688004173,
            -0.023016290089347802,
            -0.007708985952861361
          ]
        },
        {
          "output_weights": [
            -0.0013142848686934147,
            -0.0004952188101092006,
            0.06077779493652676,
            -0.043811239342328424,
            -0.05005320020939923,
            0.034041524820740465,
            0.046760674938426075,
            0.041536997000954465,
            0.039441907450647996,
            -0.06028510955094797,
            -0.033757308277738776,
            0.039365643048519826,
            -0.013183264854310046,
            -0.039051559415700106,
            -0.056414604315828655,
            -0.01641644076949972
          ]
        },
        {
          "output_weights": [
            0.04554307138927358,
            0.052107226300283194,
            -0.051729396126822036,
            0.008126350340376419,
            -0.03899685225130232,
            0.039629019630554776,
            0.015491780275933287,
            0.05512623988457257,
            0.022494585496707638,
            -0.03292188345651026,
            -0.007849150065636995,
            0.021343313270031673,
            0.052007957849452245,
            0.03115225996653137,
            0.05684561435851133,
            -0.05376073919058973
          ]
        },
        {
          "output_weights": [
            0.032198414637853945,
            -0.03894541427746457,
            -0.0011271847763152792,
            -0.02572421409290194,
            -0.04258547058044811,
            0.012372239764742936,
            0.05814031691451542,
            -0.0051880590030208215,
            0.05100728207049812,
            0.040232236485614074,
            0.060203189557014494,
            -0.01781587906024059,
            -0.018427675928181904,
            0.05240396180643045,
            -0.039578251002791234,
            0.0364715947863794
          ]
        },
        {
          "output_weights": [
            0.04987208181839916,
            -0.06053377212906033,
            -0.03154636157767757,
            0.053113639897590506,
            -0.008199769630177038,
            -0.008536782888999186,
            0.0082918546156346,
            0.0574914601372619,
            0.0479824878441107,
            0.05434985835366884,
            -0.010677901232394753,
            -0.04700517620854622,
            0.017792991664553205,
            0.010907432570587988,
            0.03936901385508419,
            0.007748981876657693
          ]
        },
        {
          "output_weights": [
            0.04450889443150018,
            -0.0032398938528085605,
            0.008805221247271233,
            0.0501445545749233,
            0.04177649988419834,
            -0.03801882800628636,
            -0.026084232551336156,
            0.0619232209513565,
            -0.039266256912749556,
            -0.04107677920730059,
            0.03607128469028127,
            -0.018180091421588565,
            0.04170249731360694,
            0.01115382042901724,
            0.013002525031845798,
            -0.059105145033308534
          ]
        },
        {
          "output_weights": [
            0.041143664037259865,
            0.02836340933620852,
            -0.056379334900414205,
            -0.018528751427085273,
            0.010987146571290234,
            -0.03624716337507475,
            0.009487858752016819,
            -0.05439997946515039,
            -0.060311344254847035,
            0.02425358686069473,
            0.0325823895797606,
            -0.056148937380521895,
            0.04121604226915618,
            -0.051512231394552556,
            0.04701436402446968,
            0.0572734745511685
          ]
        },
        {
          "output_weights": [
            -0.04159700249346985,
            0.03995448311187571,
            0.036231349980206606,
            -0.007026106150689632,
            -0.05191354229221799,
            -0.029903052987999244,
            0.039794764377633456,
            0.04049306304196571,
            0.05422345420364699,
            0.00992826123186679,
            -0.048405344117230395,
            0.00386872885264556,
            -0.0037911451447539754,
            -0.05030924401186801,
            -0.035165584939467275,
            0.028975726165572584
          ]
        },
        {
          "output_weights": [
            -0.03545845803433786,
            0.04253871372288222,
            -0.015709362370084544,
            0.024898072388313548,
            0.012086218691701393,
            -0.010827852762829958,
            0.0492507115456258,
            0.004121746359604439,
            -0.05336708727756603,
            0.02210865578233985,
            0.021592957842591694,
            -0.00931962941969141,
            0.005408201471749578,
            0.044558691306780224,
            0.04780183796587146,
            0.04042810384959159
          ]
        },
        {
          "output_weights": [
            0.00795163408455439,
            -0.01841554061803241,
            0.025872106338995747,
            0.038832645760891675,
            -0.029124800521074516,
            0.015424283169362438,
            0.027790205002566376,
            0.02094675420175019,
            0.008463092695822669,
            0.040108506719914734,
            0.031095961684905124,
            0.04037014196274959,
            0.04633761040943621,
            0.03508252323391232,
            -0.02077686931705458,
            0.04762898411411506
          ]
        },
        {
          "output_weights": [
            -0.011508660566350644,
            -0.03666966029177302,
            0.03066373718318032,
            0.051729371184941045,
            -0.0005748482506331143,
            -0.05737655409289459,
            -0.009420407492963856,
            -0.04652179991201743,
            -0.028980110857190107,
            0.008912508505351684,
            0.03600008942136475,
            -0.06083292429307707,
            -0.0012703736732360138,
            0.02021133816205991,
            0.022483881162194796,
            -0.04226582640508176
          ]
        },
        {
          "output_weights": [
            0.048392499891328905,
            -0.055874510565895576,
            -0.027565966698724367,
            -0.023268930495213454,
            0.011038296093418061,
            -0.019495461863113878,
            0.004843525947385394,
            -0.01927725395992027,
            0.007063173251159266,
            0.009433174878020964,
            -0.03923182904386182,
            -0.05726304935253529,
            -0.012945988135703988,
            0.050888743428354526,
            0.05873082950580626,
            -0.05042370487360791
          ]
        },
        {
          "output_weights": [
            -0.055844454162781644,
            0.06073947045243823,
            0.014862254383698752,
            0.044905452031401845,
            0.009803310434722483,
            0.012874036956779064,
            -0.055505361153676214,
            -0.028142744027065902,
            -0.06025863645069247,
            0.055832903050167505,
            -0.055020756441669046,
            -0.03673235796162029,
            0.05788487606328527,
            -0.037958598739099784,
            0.008029650067712835,
            -0.012943715860015081
          ]
        },
        {
          "output_weights": [
            -0.023436817202125287,
            -0.05231871800643615,
            0.037132613689046995,
            0.025635962025922027,
            0.0056769293934405204,
            -0.04657460910121241,
            -0.028947888661806663,
            0.029191173356850036,
            -0.013390733564952705,
            0.0423315556826235,
            -0.05909311834919975,
            0.058827476305298526,
            -0.014105403878855394,
            -0.059140934859031845,
            -0.05704782354173924,
            -0.013532630777584043
          ]
        },
        {
          "output_weights": [
            0.006278606606223203,
            0.03405122520364065,
            -0.04212992301526539,
            -0.041381589825172246,
            -0.060024919801999595,
            -0.032189637004205844,
            -0.015119282603486217,
            -0.05325620319413757,
            0.03020995761746604,
            -0.026295305478750503,
            0.04217900903807289,
            -0.04069969978352296,
            -0.008308465266651764,
            0.04695948944636652,
            -0.008417112141220782,
            -0.059894265426171
          ]
        },
        {
          "output_weights": [
            0.02124985045474473,
            -0.02528789492836629,
            -0.004656368613217204,
            -0.010532713410872425,
            -0.04508186435908333,
            -0.04041167210197283,
            0.03344103884907727,
            -0.003061408608676567,
            -0.03187102469697168,
            0.049715016947150865,
            -0.012006529804863702,
            -0.05975897793457016,
            0.05187895380653927,
            -0.039357956968849285,
            0.012468889877954739,
            -0.05916493679706638
          ]
        },
        {
          "output_weights": [
            0.04488608514659674,
            -0.01492371595113528,
            -0.049948635355884015,
            0.05346965929528415,
            0.060281058388464794,
            -0.05654310608833675,
            -0.03662277183909562,
            -0.04323380172465584,
            0.017234876202097,
            0.018237915622333165,
            -0.021379972520811655,
            0.0485836529812205,
            -0.03207663969714487,
            0.05683009405391713,
            0.028789090985298197,
            -0.023547309420079467
          ]
        },
        {
          "output_weights": [
            -0.04320862573180321,
            0.04394130823974707,
            0.01666665923052262,
            0.013619974350404136,
            0.04265548583326248,
            0.00787001295832662,
            -0.04275978319137518,
            -0.015958319252280508,
            0.046438980978737235,
            0.0008374078910529896,
            -0.035565751796446915,
            0.05807535739627306,
            -0.016672223963800456,
            -0.0008485597785545278,
            -0.06194935780762861,
            0.042811868707821325
          ]
        },
        {
          "output_weights": [
            0.06243902417777849,
            -0.008614230104300489,
            3.5444837386136934e-05,
            -0.00448012875120939,
            0.02894604989757913,
            0.016020341755330115,
            0.03010140727719996,
            -0.042573398642410165,
            -0.036304006999334094,
            0.05423319389395209,
            -0.012565146772867661,
            0.05496762848866339,
            -0.008303818507432233,
            0.02508614070500921,
            0.03568399577735349,
            0.021446379253962377
          ]
        },
        {
          "output_weights": [
            -0.030938651066045455,
            -0.056738302793965675,
            -0.03544924733614936,
            -0.034183639174943534,
            -0.05688856367991185,
            -0.022552706223209432,
            -0.007625614769929338,
            -0.01756419476733957,
            0.023312901695192095,
            -0.034730072816834684,
            0.04486173105021691,
            0.023303029044078133,
            -0.020125446775208066,
            0.007804939325341649,
            -0.029336813322710525,
            -0.050474698289059775
          ]
        },
        {
          "output_weights": [
            0.05116344717667296,
            0.030068613493487786,
            0.06034119747197565,
            -0.017010458406030743,
            0.0037248055300802413,
            0.002514499428429469,
            0.024620698143744957,
            -0.061987910378776635,
            0.04274641837721857,
            0.03256368932575104,
            0.005306880336912276,
            -0.001943633757777348,
            -0.004195827551142513,
            0.018805846943858957,
            -0.006518256255934836,
            -0.05078036026634009
          ]
        },
        {
          "output_weights": [
            -0.021512093832662643,
            0.0006151749017540148,
            0.015377255886672062,
            0.0345201105826877,
            0.03218734552583423,
            0.03831904887731972,
            0.051605389290518416,
            -0.012575297062949478,
            -0.06237947011913139,
            -0.0026182708681690148,
            0.05509493838221319,
            0.04579567092835826,
            -0.013247856394916567,
            0.025656450365637955,
            -0.040331959582436516,
            -0.046027580314315086
          ]
        },
        {
          "output_weights": [
            -0.026543652478553448,
            -0.04593707098223477,
            0.023294058730270586,
            0.05681949778937533,
            0.0036852992069337787,
            0.05190184606466239,
            0.034365376067423604,
            -0.0059153623100669794,
            -0.007739930608547531,
            -0.026654979044029338,
            -0.008456552228299635,
            -0.027478391225052093,
            -0.053599700396997574,
            -0.014816983931680933,
            -0.01566926968057497,
            0.00829766139102607
          ]
        },
        {
          "output_weights": [
            0.05502150092810952,
            -0.014800989084276815,
            -0.019390973386585228,
            0.047580784807214414,
            -0.024118656880807644,
            0.05142927539653234,
            0.007467090600318291,
            -0.05361138809939092,
            -0.05550711612548733,
            -0.02657594413908517,
            -0.057687456008388906,
            -0.03760338014144073,
            0.04071810688676201,
            -0.01979375092474058,
            -0.043126721949826065,
            0.0025269234012434694
          ]
        },
        {
          "output_weights": [
            -0.01884782373404177,
            0.04597582872984165,
            -0.02041655941206797,
            -0.05109280696418686,
            0.05723941768440752,
            0.014237405680533104,
            -0.01771459953874674,
            -0.032104478241352596,
            -0.021057175751214095,
            0.038680440798460565,
            0.051260595761486984,
            0.020894910656407563,
            -0.03606319734098645,
            -0.040328731959202946,
            -0.024350386092008812,
            0.049450087114485314
          ]
        },
        {
          "output_weights": [
            -0.03598770863172622,
            -0.035211824373138266,
            0.029132792055018772,
            -0.006412373651330627,
            -0.062026613743084956,
            0.0005189501735725632,
            -0.04634825008412661,
            -0.04940740385340477,
            -0.05197382757352656,
            -0.030943779375665247,
            -0.024467181825254286,
            0.010349006792973008,
            0.0025258451711874935,
            -0.06026846835043658,
            0.05709513031175497,
            -0.04728742102692768
          ]
        },
        {
          "output_weights": [
            0.03502475371574721,
            -0.028004674852288712,
            -0.009073324010944336,
            0.0001508955629876338,
            0.03551596484458578,
            0.059775949329816225,
            -0.012552642148319734,
            0.051532258490306425,
            -0.047162237348693035,
            0.025241157811264743,
            0.02197187719724244,
            0.02495467126429752,
            -0.04037769624186229,
            0.007484477317724371,
            -0.009033098873766923,
            0.034020741855212575
          ]
        },
        {
          "output_weights": [
            -0.05124586477026601,
            0.04387622502058923,
            -0.028958372386649098,
            -0.06169208243039681,
            0.041832806564321645,
            -0.008914854535300762,
            0.013221905650370083,
            0.008018588697264906,
            -0.0320766016684497,
            0.041786784604543964,
            0.05784891670075999,
            -0.00689758084095915,
            -0.03935541157695166,
            -0.035635628336578413,
            -0.02067780690888156,
            -0.004760467287786153
          ]
        },
        {
          "output_weights": [
            0.045193793165012715,
            -0.06033801193885188,
            0.035090952219280575,
            -0.02437640571583012,
            0.009205325567175363,
            -0.0013322193811363611,
            -0.04037374743116874,
            0.03916122730925787,
            0.0021335800124433826,
            0.024286135274163706,
            -0.031177673739843606,
            -0.05080303180182736,
            -0.018300765392684326,
            -0.04827683551762431,
            0.009112194003790555,
            0.035041450772521306
          ]
        },
        {
          "output_weights": [
            0.04970457221537617,
            0.011044108098392222,
            -0.0622288612925475,
            -0.018208389812482198,
            -0.050669319269450896,
            -0.03592702717546563,
            -0.035085809753797555,
            -0.01299407740693797,
            0.05568518379475693,
            -0.05742030352240745,
            0.0354204554800117,
            0.055051678591579084,
            -0.02647829659744106,
            0.003530690403640825,
            0.017696269936036325,
            0.03847064834840213
          ]
        },
        {
          "output_weights": [
            -0.020929172065053812,
            -0.06235986201860049,
            -0.005145951921503043,
            0.0525540188200834,
            -0.03550636116799186,
            0.050911329258168034,
            -0.011759110965142462,
            -0.011007774589136127,
            0.047868806248484934,
            0.05909068676202333,
            0.03725969972310923,
            0.04279907800310143,
            -0.040958439273313864,
            -0.032503551766651914,
            0.06158977655912067,
            0.023887429153422547
          ]
        },
        {
          "output_weights": [
            -0.02034720907664806,
            0.060779868808796746,
            -0.06212604056154446,
            0.001622540507262224,
            -0.01374467378817891,
            -0.004867675245530653,
            0.03456209001506501,
            0.019864095057363286,
            -0.038977172204326026,
            -0.04521502734564976,
            0.010554471059757708,
            -0.044903489933761025,
            0.049109183555598776,
            -0.054110082576228444,
            0.06233964929037572,
            0.013986899243051666
          ]
        },
        {
          "output_weights": [
            0.014642902900228252,
            -0.03168536053230608,
            -0.020694901453685598,
            0.03250372344390907,
            -0.053983544880687864,
            0.029713634353497637,
            -0.007401378913275046,
            -0.0564472864260573,
            -0.00436441842478591,
            -0.06186923639394188,
            0.06045088683174794,
            -0.014027603235533669,
            0.01664683971514739,
            0.028671379640721938,
            -0.03610602327617224,
            0.0402405235911908
          ]
        },
        {
          "output_weights": [
            0.02020030764176,
            -0.05600802740086929,
            -0.010912336363632702,
            0.03426802512612978,
            0.007429994896090766,
            0.04177733841299119,
            0.02902154706371312,
            -0.05156712781180246,
            0.011718112772444021,
            -0.025672015681770022,
            0.05525351321025559,
            -0.05657024545342404,
            0.03698467887871494,
            -0.012035973704036064,
            -0.03638496973651295,
            -0.03496807755642228
          ]
        },
        {
          "output_weights": [
            -0.052244664329314405,
            -0.04213314012814696,
            0.04599907170027916,
            -0.005573759226558429,
            0.05143192785296197,
            0.0061816116161453535,
            -0.011091831414064869,
            -0.023374572301308634,
            -0.05696907494065878,
            -0.05125288207313593,
            0.0487058127622286,
            -0.04842614719248853,
            -0.026879633920176636,
            -0.04033962167417664,
            -0.03652966091075329,
            0.030644816077729703
          ]
        },
        {
          "output_weights": [
            -0.05036497687562515,
            0.06217554141374857,
            -0.040136515023360235,
            0.032653567862080124,
            -0.03748423756787496,
            0.04940742915615533,
            -0.023361751050367113,
            0.03226707378366998,
            -0.012811194905339371,
            -0.04972092005751836,
            -0.016939835787528522,
            0.02152569767410125,
            0.03266039055836915,
            -0.03807211474584223,
            -0.011791646314022484,
            0.0467794974570977
          ]
        },
        {
          "output_weights": [
            0.047934281345200024,
            -0.0101706802621125,
            0.05495353554508971,
            -0.05891731683427787,
            0.007346690489708235,
            0.04258785015723722,
            0.017118227301985173,
            0.055531529421476065,
            0.0465099381436218,
            -0.05807011725518447,
            -0.03463292217048152,
            -0.002499287953684079,
            -0.039038829674859096,
            0.05960825748472165,
            -0.02256841459915082,
            -0.03768285324603109
          ]
        },
        {
          "output_weights": [
            -0.055964573457689,
            0.05160649519140076,
            -0.0060076401552020195,
            0.007565184120246642,
            0.04444884638646271,
            0.018541454260935362,
            -0.002261727351537457,
            -0.0256752759816945,
            0.01725042479092631,
            -0.03708491750456497,
            0.04322658096939016,
            0.02743194068100649,
            -0.04014560888431446,
            -0.002407546520917979,
            0.06006392694121451,
            0.04249681908577127
          ]
        },
        {
          "output_weights": [
            0.011690735058065463,
            0.05860828747443028,
            0.056482545803181815,
            -0.028205021189630114,
            0.04286490183546438,
            -0.05534435089114546,
            -0.025702220221350915,
            0.02347886536298343,
            -0.01224246771886095,
            -0.04256444736167237,
            -0.03718364356263316,
            0.059951885916417216,
            0.01852621255870633,
            0.03560023918480132,
            0.010110200627850889,
            -0.053268732028645814
          ]
        },
        {
          "output_weights": [
            -0.05584693823090225,
            -0.0333862400257084,
            -0.05538245651416993,
            -0.050763428455931896,
            -0.0018198950159510688,
            -0.05547849151865731,
            0.02454703349952475,
            0.06154343302091007,
            0.008779899165488853,
            0.05531931615886664,
            -0.03793868723765961,
            0.022699989903623194,
            -0.029524383614464626,
            0.019522140977827465,
            -0.05018212821601685,
            0.04550380362874559
          ]
        },
        {
          "output_weights": [
            -0.04447492940063608,
            0.04516744587258214,
            0.026387408646934826,
            -0.040305105992200496,
            -0.04970094979004216,
            0.022692386673007353,
            0.010945151271038865,
            0.032393677996498595,
            -0.020943420843545862,
            -0.04207975131757188,
            0.044216231524510693,
            -0.04164668029659875,
            0.028351697953979585,
            0.02813060928979043,
            0.004967981095965836,
            -0.06206669895867441
          ]
        },
        {
          "output_weights": [
            -0.013306997204365189,
            0.0314330331178687,
            0.014685019723233788,
            -0.0570956962543359,
            -0.013303519747218773,
            0.012889321604914069,
            -0.013958960153207153,
            0.007286114664091453,
            -0.03476670273459963,
            -0.055427139389076646,
            -0.06188969715776635,
            -0.06223418769270805,
            -0.03816145046808976,
            0.03145131911080992,
            -0.02859587034445294,
            0.033750117176318276
          ]
        },
        {
          "output_weights": [
            -0.027207686897829066,
            -0.02969094319085152,
            0.001092834072228676,
            0.03878222923790175,
            0.016691535433383208,
            -0.05804813423309366,
            0.03186965249642394,
            0.006313773985486673,
            -0.0414909782933438,
            0.033137722327597985,
            0.030660139553682658,
            -0.05080754866723025,
            0.03080168324858727,
            0.05313040436567187,
            -0.030119116507690495,
            -0.031488417163914935
          ]
        },
        {
          "output_weights": [
            0.015356723408646876,
            0.03820024308914293,
            -0.00908346754468215,
            -0.008127168527259598,
            0.04471392638190853,
            0.010136264097166553,
            -0.033599465829872915,
            0.018359939277765316,
            -0.03568440257515695,
            0.049689529582163786,
            0.02745610327110257,
            0.036213759440610546,
            -0.03150601342532614,
            0.03512422043695902,
            0.05859387777450319,
            0.008417705829688014
          ]
        },
        {
          "output_weights": [
            0.0434239439529765,
            0.002366678737068857,
            -0.003918357211148248,
            0.051668396316573884,
            -0.025104931794455488,
            0.03743868513886206,
            0.04623025736300176,
            -0.03108538536879502,
            -0.003389413351693403,
            -0.01252285800641726,
            -0.060493458123637385,
            -0.05783361665803458,
            0.013276551182250754,
            0.03472345861040199,
            -0.018002045711894506,
            0.01521202002552694
          ]
        },
        {
          "output_weights": [
            -0.009860856028702106,
            -0.03993893578985155,
            0.016148393240202653,
            -0.01053902463768984,
            0.00798601222415612,
            -0.011928146577700577,
            -0.025811122081085002,
            -0.011673580039481992,
            -0.04590672708770485,
            0.006026246364814526,
            -0.06109725808482246,
            0.05541536659674189,
            0.0015708541232620802,
            0.043531761323319734,
            -0.027424240704498344,
            0.049560196229726045
          ]
        },
        {
          "output_weights": [
            0.03552214507929726,
            -0.03295365960839614,
            -0.03684756758071683,
            -0.03599787029049288,
            0.0029337983796519406,
            -0.048922783705578586,
            -0.048149851847147464,
            -0.014685532194204653,
            0.04280179697872124,
            0.04950256306360646,
            -0.025471227157155288,
            -0.004594974577653666,
            -0.0454291805237079,
            -0.018614282858964295,
            0.029307362480737262,
            0.026139138963082665
          ]
        },
        {
          "output_weights": [
            0.011276394431135595,
            -0.010716819900976601,
            -0.05081419331418826,
            0.04354780949020423,
            0.031151552123578303,
            0.016880398914217706,
            -0.038103355824320805,
            0.0022687122102258536,
            0.058367369236863066,
            -0.022296994789500167,
            -0.044567143102246694,
            0.003032804233558855,
            -0.029401500947408645,
            -0.048074656539657826,
            -0.058493371253578695,
            0.05902817441289725
          ]
        },
        {
          "output_weights": [
            0.04259657431093957,
            0.06182348445617263,
            -0.06005103510306777,
            0.012144274776818238,
            -0.02760632428649027,
            -0.025951549668030614,
            -0.03763111485425798,
            0.042355871690329124,
            0.017569438480777147,
            0.01430097683077039,
            -0.009940025442678607,
            -0.06120093892215047,
            0.002225327738840391,
            -0.028314600089260976,
            -0.05274180969496998,
            -0.05713225232399618
          ]
        },
        {
          "output_weights": [
            0.02536153097518523,
            -0.04610735831283396,
            0.015463696438754476,
            -0.03614525773175706,
            -0.024042127323326855,
            -0.054659644324755605,
            -0.04541305915323619,
            -0.009116585896621926,
            0.05965441957050163,
            -0.02868673100992756,
            0.013989427110185193,
            0.04289802069754954,
            0.037762239186240054,
            0.03931091779862516,
            -0.030396367771126885,
            0.028187786011288768
          ]
        },
        {
          "output_weights": [
            -0.034120814722010624,
            0.02228043807574852,
            0.03858511843321214,
            0.062174249673548565,
            0.048149657788729164,
            -0.024956693273368878,
            0.007032052715124668,
            -0.002195222751773796,
            0.01859593306246939,
            0.05495282345122881,
            0.027591676954631654,
            0.022811772093978687,
            0.008680151489896858,
            -0.0400780293398333,
            0.03360482288330402,
            -0.0353208191337726
          ]
        },
        {
          "output_weights": [
            0.04220025666633996,
            0.05039204976984027,
            -0.012490777090931162,
            -0.035105230691396996,
            -0.058282730409910014,
            0.029428867959055707,
            -0.06085771890072101,
            -0.03718316550530865,
            -0.001956839464484611,
            0.0366189923532697,
            0.04460426208966299,
            -0.061129600974819946,
            0.03818831753845736,
            0.02385705254010368,
            -0.017898891167648187,
            -0.05887783111176539
          ]
        },
        {
          "output_weights": [
            0.02882171711621023,
            -0.01637190982619137,
            0.03724022185312462,
            0.052968352324421784,
            -0.0008405655310138609,
            0.027913123869600896,
            0.04296416586744399,
            -0.0443555512194319,
            -0.013926698678792834,
            -0.05891047827340065,
            -0.059558040016358296,
            -0.04698951763265009,
            -0.04611093511717641,
            0.009783739492690747,
            -0.047163523300646756,
            -0.0036237203324420006
          ]
        },
        {
          "output_weights": [
            -0.03376317384161583,
            -0.04783186610576266,
            -0.008250606007422532,
            0.044968659806502546,
            0.0027638278040078962,
            0.04678389894718532,
            -0.05311254663404956,
            -0.04971087605265985,
            0.050657866946312316,
            -0.0028765924368063392,
            -0.0438689219733885,
            0.026879659650335185,
            0.034840758614304176,
            0.019107492919402266,
            0.05280563141341425,
            0.0033429580697407505
          ]
        },
        {
          "output_weights": [
            0.007660588504358173,
            -0.019944485707793953,
            -0.0242105849524563,
            0.04179289055085326,
            -0.034200657325097576,
            0.05301658372120927,
            -0.022618977494737326,
            -0.028669839130781954,
            0.05090368063865046,
            -0.026228094991492572,
            0.0001391843164994658,
            0.02276006832782208,
            0.01622618144064898,
            -0.023809953558216933,
            -0.008791077993674571,
            0.02408919150105333
          ]
        },
        {
          "output_weights": [
            0.023176508656794433,
            -0.0011116753448694654,
            -0.03644620681454702,
            0.010524318764956055,
            -0.050693372278811995,
            -0.05709882661220638,
            -0.052647962042538354,
            0.00921962183263948,
            0.007531867038404661,
            0.013289106022631387,
            -0.017358169574259053,
            -0.06122853686316246,
            -0.057089464668856005,
            0.01629770749112669,
            -0.0442641444568124,
            0.021742509464916036
          ]
        },
        {
          "output_weights": [
            0.02960689550273972,
            -0.04465720863502062,
            0.002122230958802542,
            -0.02854094721858494,
            0.02944694617665944,
            0.017537275387905997,
            -0.0258221408499817,
            0.03465388146358282,
            -0.01374735391063785,
            -0.05690344144719746,
            0.05383905576717979,
            -0.007117592521592319,
            -0.009583665047405734,
            0.018522294532748475,
            0.019238594681448916,
            -0.014816155940652763
          ]
        },
        {
          "output_weights": [
            0.05601484210999915,
            -0.005118135104394014,
            -0.05713638071816364,
            -0.00044777418435085247,
            -0.05173309053615389,
            -0.047423179827257425,
            -0.009745584836957017,
            0.06114977754507412,
            -0.037583021328967736,
            0.0431469782909855,
            0.041479438954059034,
            0.02946704677215074,
            -0.03349407165575844,
            0.023891816436252857,
            0.013130283488541927,
            0.036310962007597175
          ]
        },
        {
          "output_weights": [
            -0.03228484455114828,
            -0.02640887482108754,
            -0.001243789922819298,
            0.051084522664803955,
            -0.015309159051738108,
            -0.04709690761619678,
            -0.02111097555151956,
            -0.05359100898184625,
            -0.003432611773833979,
            0.015147862547147424,
            0.03240231756175453,
            -0.03642259950368578,
            0.010288558263086818,
            0.017873085379324513,
            0.008778911366305443,
            0.051627080121967595
          ]
        },
        {
          "output_weights": [
            0.061512417691246594,
            -0.041021443986564196,
            0.03085886090616219,
            0.0523290150551154,
            0.015898772600021156,
            0.034638353143000636,
            -0.017909105513861254,
            0.03995444509257923,
            0.06121406371967236,
            0.03157548231361406,
            0.037275116718169236,
            0.024819842981455835,
            -0.017849977987962798,
            -0.05488808338450522,
            0.0496864757978026,
            -0.004926867244141105
          ]
        },
        {
          "output_weights": [
            -0.007232152625470403,
            -0.047409410354810694,
            -0.012705372000961682,
            0.03199030600854629,
            0.026239442397394792,
            -0.010907716515047516,
            0.046047459757777506,
            0.049095058871033166,
            -0.04088900302668374,
            0.0480955611396187,
            -0.0392210462672524,
            0.023919914664862554,
            0.048154027976465515,
            -0.009368092386047494,
            -0.06102559900705257,
            0.026672398707654123
          ]
        },
        {
          "output_weights": [
            -0.059230739895056096,
            -0.0047758833383117275,
            -0.0606845744629692,
            -0.060263577128971395,
            0.007070615677980001,
            0.032159756004032494,
            0.045506880510868514,
            -0.021024856419800543,
            -0.04498829713232256,
            -0.0181449098428079,
            -0.03675340920645196,
            0.017173551298563856,
            -0.017311675512699146,
            0.022120781947821536,
            0.045341975444356426,
            -0.025501893353582952
          ]
        },
        {
          "output_weights": [
            -0.028491048876452478,
            -0.006940765502746096,
            -0.043495465845769486,
            -0.037417453363263804,
            -0.03808931945844379,
            -0.03109881234550755,
            0.05969683286685664,
            0.057934850771025406,
            -0.02460074962274071,
            0.0028167319178946312,
            0.04792345061802923,
            -0.01770042473041445,
            -0.04175271880608578,
            -0.02184993833880182,
            0.05549212648567042,
            0.03263100331935804
          ]
        },
        {
          "output_weights": [
            -0.04349270331756096,
            -0.03708193002932663,
            0.059251726392658716,
            0.0364620763552867,
            0.01363789639346228,
            0.05128584794669967,
            -0.012299444493336788,
            0.033978164971590216,
            -0.007218248873749632,
            -0.009142052362471335,
            -0.01008798261246937,
            -0.061308372718443374,
            0.03491675415077996,
            0.05707667558436083,
            -0.0004993876205990969,
            0.012560910003474784
          ]
        },
        {
          "output_weights": [
            -0.013403008789891174,
            0.0459412665973605,
            -0.04809925891630418,
            -0.00043299497851524704,
            0.0015749479578198375,
            0.022766662169826188,
            0.017968458402804255,
            -0.009672291259552865,
            -0.03358830111082261,
            -0.050883522638580585,
            -0.05778421661119276,
            0.0412302759388888,
            -0.03850024578198304,
            -0.02457277751391091,
            -0.008636102066177369,
            -0.04144133132603587
          ]
        },
        {
          "output_weights": [
            0.04107652718261432,
            -0.06225622915870398,
            0.008666622262799031,
            0.054467520308080365,
            0.027137500776597594,
            0.023990701686443246,
            0.023871087738499136,
            -0.013777750112359502,
            0.009283042545756785,
            -0.05964153212220929,
            -0.007908710008364364,
            -0.012969115962201141,
            0.005500147666736982,
            0.020136963360930217,
            -0.014971378255885064,
            0.02165437645401362
          ]
        },
        {
          "output_weights": [
            -0.021737828646636828,
            0.03322136971832434,
            -0.003040775820347924,
            0.012769892647932157,
            0.024037497026440452,
            0.002981146993489378,
            0.02663898796260635,
            0.0006577520359264052,
            -0.057901009263255594,
            0.05413585048406018,
            0.022883573610094875,
            0.02840454569111716,
            -0.023528651029188635,
            0.05315434044442059,
            -0.0113634260981536,
            0.059217387613240205
          ]
        },
        {
          "output_weights": [
            -0.0483282421064074,
            -0.035572392917398714,
            -0.013078627957708764,
            0.05265194108973441,
            -0.0056764726448034165,
            -0.012553952831926868,
            -0.026472457359765132,
            -0.04597823517856537,
            -0.023527210905830116,
            0.0020046854787943,
            0.018006026783014207,
            0.03858670581505032,
            0.052732120927906564,
            0.048648374723515964,
            -0.02873312701662969,
            -0.062260471560095926
          ]
        },
        {
          "output_weights": [
            0.009221911451355171,
            -0.012290098544644508,
            -0.013382231353231485,
            -0.00046017853507959505,
            -0.04508248390338407,
            -0.009017953294814043,
            0.009108330915442402,
            -0.020602192854321563,
            0.009572744490982063,
            0.018151778999891226,
            0.040806550681176106,
            -0.03341551795298142,
            0.050534307220399456,
            -0.009938133407670366,
            -0.035140457147609536,
            0.04630590619422287
          ]
        },
        {
          "output_weights": [
            -0.030459231693012314,
            0.012192232227737878,
            0.002224480602009225,
            0.05940090162247926,
            -0.055823123685813374,
            -0.03067152884148176,
            0.05358045587065602,
            -0.05452857187295264,
            0.028873068981462777,
            -0.016535408276746648,
            0.00847300440479645,
            -0.05189521518071437,
            0.056541089518219026,
            0.026958129809652936,
            0.020157966817326924,
            0.039287700112042336
          ]
        },
        {
          "output_weights": [
            0.06022544991709107,
            0.04732189704014659,
            0.00826340524876287,
            0.03417259400817678,
            -0.052049506885608283,
            -0.03976926125203096,
            -0.014990889110402236,
            0.0321839976005526,
            -0.05233669445378222,
            -0.014259162344909461,
            -0.050008851063470035,
            0.0024122918362938168,
            0.030899502323561364,
            0.03174737056308381,
            -0.06056659640437725,
            -0.027325692278373757
          ]
        },
        {
          "output_weights": [
            -0.0349877888497921,
            -0.040482886247370946,
            -0.016512548641524277,
            -0.016721937053873977,
            -0.04125567600498658,
            0.014208614715712027,
            0.0030196231545699657,
            -0.010416818775028373,
            -0.05003532256006086,
            0.005441977814217287,
            0.06168767394255975,
            -0.014784741428122241,
            -0.057322994681059336,
            -0.0017458307353803422,
            0.049764405402792006,
            0.002839418120682248
          ]
        },
        {
          "output_weights": [
            -0.00503095263865169,
            0.014245304936662423,
            -0.010095946326004893,
            0.032837325765328794,
            -0.042563583499916104,
            0.028676332939238162,
            -0.0186805219741224,
            -0.043482997966214264,
            0.0044329040207679565,
            -0.011000933762664292,
            0.015691753033211416,
            0.00016332626077180464,
            -0.015410734532496462,
            -0.04918657751145882,
            0.05619364808002651,
            -0.014791864033489551
          ]
        },
        {
          "output_weights": [
            -0.03139022130341792,
            0.020513371688415393,
            -0.04622175523088262,
            -0.01528605028217166,
            -0.04415244559414443,
            0.025642741214919978,
            -0.053059064053095885,
            -0.04585103322209131,
            -0.0054680731447256815,
            -0.04781939148231435,
            -0.05938476248946536,
            0.013918718862432473,
            -0.06068495193564812,
            -0.00539454217430215,
            0.03214063685370488,
            0.012197191076169109
          ]
        },
        {
          "output_weights": [
            0.005483587925255398,
            -0.013181116780043552,
            0.04366085454398357,
            -0.03369996560558848,
            -0.03441737383652637,
            -0.047962751703869946,
            0.055771354768268035,
            -0.02147025289272407,
            0.023457813983553438,
            -0.0008797735742829041,
            0.027809514580741566,
            -0.02752287878645752,
            0.021040509806461584,
            -0.004193067800100159,
            -0.03949173487556794,
            0.048666701726424635
          ]
        },
        {
          "output_weights": [
            -0.03200302796726353,
            0.03813489869879361,
            0.04197919610157436,
            -0.022270180169695723,
            0.0048299408705984705,
            -0.031308837687042464,
            -0.02826646793028943,
            0.02859527841213293,
            -0.02525074246331453,
            0.0001796269238760997,
            0.05071454683788793,
            0.05476955202011681,
            -0.015834671366942322,
            0.011009866338343504,
            -0.011427552206904654,
            -0.00925405326957731
          ]
        },
        {
          "output_weights": [
            0.02412893334637102,
            0.014605447377546236,
            0.01169184989572696,
            0.012393974484123958,
            0.05820951210732715,
            -0.05756688897687529,
            0.041586659256659775,
            -0.03574345854495127,
            0.058921234244106814,
            -0.04155305052590421,
            -0.03028447136118439,
            -0.03824366465659111,
            0.0034112672745257285,
            -0.003782365473719403,
            0.026225012653119963,
            0.02687017914130201
          ]
        },
        {
          "output_weights": [
            0.04279232878399725,
            0.05649463317603804,
            0.025727363911964056,
            -0.041434735505819935,
            -0.05221655028839138,
            -0.007622971059219245,
            -0.039391542669105696,
            -0.018347338097882908,
            0.05780375659516063,
            0.04643666006684547,
            -0.02103030760067042,
            0.006070464997789894,
            -0.053097479019956005,
            -0.03067719215876544,
            -0.010153784757128376,
            -0.02468331596747789
          ]
        },
        {
          "output_weights": [
            0.04887248473106819,
            -0.04805379548493569,
            -0.008931264004337847,
            0.02739178304560548,
            0.0021513483575883816,
            -0.049447749749502244,
            -0.04179720014613948,
            0.06011176443117718,
            0.030869716156079845,
            0.04575532523410701,
            -0.017756947306973567,
            0.045142259665338635,
            0.031159821890006403,
            -0.005777577052717986,
            0.03137684435207475,
            0.05875840898558963
          ]
        },
        {
          "output_weights": [
            0.056170240603984616,
            -0.019897197685962143,
            0.026709954029900604,
            -0.042799875470431986,
            -0.006018092735637992,
            0.0535739686852663,
            0.03815115363815192,
            0.05361209212343013,
            -0.0073984890546002595,
            -0.03294660940302427,
            -0.05858374236568045,
            0.049036373413303636,
            0.033445638294797186,
            -0.00834583766451937,
            -0.05651214382384844,
            0.006399989252683295
          ]
        },
        {
          "output_weights": [
            -0.04028546444929813,
            -0.04786594743260797,
            -0.024929191997438992,
            0.007578614785507043,
            -0.057632215654110336,
            0.02963066521700705,
            0.027350996925005346,
            0.03333738514984585,
            0.004848608400231069,
            -0.00491519963776113,
            0.0528807717658271,
            0.03978675395081403,
            -0.013131964395160334,
            -0.04364810635435653,
            0.04988170342512268,
            0.020813444049542072
          ]
        },
        {
          "output_weights": [
            -0.0210241350332397,
            0.003988692404225697,
            -0.05247255706971212,
            0.04872987935076741,
            0.012248199034839875,
            0.04948770942241723,
            -0.02233677237554459,
            -0.055294904263084775,
            -0.03880144175770532,
            0.06203992377835575,
            0.0576977892715548,
            -0.043522769711409656,
            0.06168243024385467,
            0.0016813977739215775,
            0.045547934091736644,
            -0.03942921307264015
          ]
        },
        {
          "output_weights": [
            0.012811876885592752,
            0.007387274004512166,
            -0.053154988120251725,
            0.011155547182649328,
            0.02527443635731749,
            0.05639731820170245,
            0.04812189851916959,
            -0.01923973830410037,
            0.030745396276063604,
            0.03377265862404701,
            0.008583444221699871,
            -0.057155960390303975,
            0.03722250675962992,
            0.013431433482350458,
            -0.02627495360361112,
            -0.05474117901567026
          ]
        },
        {
          "output_weights": [
            -0.004539266366550851,
            0.0312186393012531,
            -0.05915797155470995,
            0.05826224395377776,
            0.04782096725799104,
            -0.04514773015288979,
            0.014503516352390321,
            -0.05090750932312175,
            -0.023175157277549777,
            -0.03291231786466003,
            -0.024020397145871238,
            0.04080253306814969,
            0.05968547169714495,
            0.009873954419846434,
            0.016644674466080416,
            0.05539036873093673
          ]
        },
        {
          "output_weights": [
            0.00032968953063104234,
            -0.054712543742546325,
            0.05266259116893245,
            -0.05303303436641019,
            0.06226643795276143,
            0.017614328543234834,
            0.03732667376813453,
            0.002764248807736452,
            0.03732848977406828,
            0.00279486521341292,
            -0.05779717956693358,
            -0.043088121732874345,
            -0.01223250654483441,
            -0.025482747758149047,
            -0.030314685533077125,
            -0.04489065954802039
          ]
        },
        {
          "output_weights": [
            0.01302906575865398,
            0.06002340663951808,
            0.026951388325756883,
            0.061713040615626616,
            0.020174470318191244,
            -0.055563881845000676,
            0.03708859880190218,
            0.04340421116175352,
            0.01547187539568345,
            -0.050793647041831064,
            -0.039619250550189465,
            -0.03068571787854656,
            -0.02650566826823833,
            0.006899523885423168,
            -0.06090647243879154,
            -0.042938950262908185
          ]
        },
        {
          "output_weights": [
            -0.04788807615857502,
            -0.02676726873316389,
            -0.032760756730930284,
            0.05631633161124008,
            0.03631438758794845,
            0.046494671877819554,
            -0.03522420455145781,
            0.0615051967979892,
            0.014367725308478093,
            -0.02107666446106826,
            -0.01854344438485984,
            0.04137822557941956,
            0.04335693840318931,
            -0.022775768926473892,
            -0.006711898911233087,
            -0.01035512466480724
          ]
        },
        {
          "output_weights": [
            0.009249428302185649,
            0.02167378999225597,
            -0.04402362709667511,
            -0.01630318508169678,
            0.04434673315516807,
            0.022954460118701794,
            -0.022123423294000237,
            0.005982293806693038,
            -0.06029293442167593,
            -0.048330191700934014,
            0.024185801062887348,
            0.03631553602077256,
            -0.05221651789882143,
            0.014224089821362626,
            0.051527664914995414,
            0.00932372409172185
          ]
        },
        {
          "output_weights": [
            0.04997817868129736,
            0.0006859200690616518,
            0.032931307822617925,
            0.03964924392919135,
            0.03988345354966725,
            0.041991818590044236,
            -0.05410279416623505,
            0.04679431100204512,
            0.016691992895498525,
            -0.05467713585397839,
            -0.008444700018640255,
            0.0554549804254799,
            -0.012157310055618577,
            -0.01033110987344421,
            -0.027585398489046432,
            -0.028486427652291958
          ]
        },
        {
          "output_weights": [
            0.034167970127644755,
            -0.0012958957914219957,
            -0.006964578919030288,
            -0.012360562304935437,
            -0.024923280385963045,
            0.04038675386664312,
            -0.003043436719395061,
            -0.04742139432753968,
            -0.026750635981614777,
            -0.0005312285082169771,
            -0.02402239795656899,
            0.01894823175509522,
            0.047323565293688655,
            -0.05845309617831788,
            -0.03701142892574217,
            -0.04360721427586454
          ]
        },
        {
          "output_weights": [
            -0.02895799592695509,
            -0.0032517302152864427,
            0.02616024989519823,
            0.013236951873683768,
            0.028526383661432925,
            0.009582116055719993,
            -0.028703061937479755,
            -0.006715378573194167,
            0.010371262252686489,
            -0.002222800724933534,
            -0.025321730462396046,
            -0.028405293662145413,
            -0.028752760509664854,
            0.04540633923234713,
            0.03371087210626067,
            -0.04270953463738056
          ]
        },
        {
          "output_weights": [
            0.040228053484062304,
            0.027072649618715708,
            0.010531153972354865,
            0.01430115775616185,
            -0.013752013156550606,
            0.04886645995386819,
            0.052799964192153846,
            0.028114526427896476,
            0.03701642679621692,
            -0.038341833762577,
            -0.003821078881262742,
            -0.024975640791777748,
            -0.012447875049411847,
            -0.04524933779880411,
            -0.00031005921385753726,
            -0.030587425949008637
          ]
        },
        {
          "output_weights": [
            0.011293298312071362,
            0.0512584369535549,
            0.005239926111530499,
            -0.05361165410172875,
            -0.03381566349187058,
            -0.005129642125626145,
            0.03653613177743335,
            0.05417777600240968,
            -0.02533373645888768,
            0.03153065646819912,
            0.04501986782158564,
            -0.0038628747185462387,
            0.028538517367648127,
            -0.022660905591196177,
            0.03692142148653358,
            -0.004954165070873345
          ]
        },
        {
          "output_weights": [
            0.03691236700492181,
            0.0025500124638342947,
            0.005743454363610866,
            0.029697802244138406,
            0.02304797917867054,
            -0.0353876668777023,
            -0.028249927450944005,
            -0.0003615394691697596,
            0.034912454847342976,
            0.029228053220706367,
            -0.002483592120415226,
            0.001974891962726849,
            -0.017107877834576346,
            0.006888803719055259,
            -0.015405773912327898,
            0.05658201264352087
          ]
        },
        {
          "output_weights": [
            0.03622438551834455,
            -0.018783269305028966,
            0.0025986801237857537,
            -0.0155558753869641,
            -0.005397410793777296,
            0.056665822298416796,
            0.0420085895271621,
            -0.004042728589971581,
            -0.0583648448338288,
            -0.000616404715826902,
            -0.030843545744990174,
            0.020205468161880832,
            0.014697402405011996,
            -0.014699116064383073,
            -0.005823382748658699,
            -0.030941953656284146
          ]
        },
        {
          "output_weights": [
            -0.024437745860312884,
            -0.03278848223806211,
            0.00743636126177,
            -0.021405723816885158,
            -0.016679716741751453,
            0.024653297285004396,
            0.05651939093100521,
            -0.014180839355827929,
            -0.03470939646203009,
            0.035591313765193235,
            0.052574727487064266,
            -0.018738836354223107,
            0.041501534230974337,
            0.020513283952643794,
            -0.05804734600587236,
            -0.04226827888389188
          ]
        },
        {
          "output_weights": [
            -0.007690054623509318,
            0.06150627966628542,
            0.007392561127598817,
            -0.010390130699646038,
            0.004893671566736178,
            -0.001585489953683655,
            -0.03366437120785052,
            0.0006440381715460792,
            0.03610377702950273,
            -0.04543620164119551,
            0.013478401146356261,
            0.04783110510962847,
            0.01561878664253427,
            0.01623222793361555,
            0.005846183038424698,
            -0.0624898905420302
          ]
        },
        {
          "output_weights": [
            -0.015588334129031536,
            0.033987171859970876,
            0.06257204276509694,
            -0.04254603170588843,
            0.04375476398107654,
            0.00915702898384611,
            -0.021760068099692262,
            -0.025475905016241727,
            -0.0066487967502105545,
            -0.04886440269834037,
            -0.027995551737023512,
            0.029925468645289794,
            0.004619495018472615,
            0.022397083954207024,
            -0.054814244816077315,
            -0.03479222634633803
          ]
        },
        {
          "output_weights": [
            0.012950929459393084,
            -0.05855291018900405,
            -0.024294377756439917,
            0.03737523346177646,
            -0.013284883299062595,
            0.03465183471387077,
            -0.028005247070338808,
            0.029863462180261733,
            -0.057725475242472714,
            0.009082986546909855,
            -0.019633734837647406,
            -0.05749314137892225,
            0.05695745475747364,
            0.009999786617289987,
            -0.0032027605656400823,
            0.0606753457933636
          ]
        },
        {
          "output_weights": [
            0.014571503639881534,
            0.051079840490092544,
            -0.043767150086595055,
            0.029684772470640792,
            0.028582150150121076,
            0.019963521380283282,
            -0.022446828971692742,
            0.033226546810680414,
            0.036779760302799724,
            -0.027022173697463094,
            -0.05514539701592553,
            -0.05803865851197262,
            0.05443039394048192,
            0.014356830188047039,
            -0.023099872804354066,
            -0.014386282975603506
          ]
        },
        {
          "output_weights": [
            0.029947417069822183,
            -0.06102998539348712,
            -0.05752807379476028,
            -0.019759399783363964,
            -0.052962557581689614,
            0.06069857525375601,
            0.03497041474870582,
            -0.03987931237271714,
            -0.061634126697068296,
            -0.04782401681540292,
            -0.05949571919187005,
            0.030474111779629127,
            0.00545925594476257,
            0.06059745338164535,
            0.058481917691383646,
            -0.041939196774752725
          ]
        },
        {
          "output_weights": [
            -0.037992877914712266,
            -0.013218036524236667,
            0.02391010644361501,
            0.010665247716349125,
            0.018886162862663806,
            0.038642276657803544,
            0.010999989710281216,
            0.006679724751359157,
            0.004219886022203131,
            -0.047751913778457146,
            0.010874530658872948,
            0.043017005952308236,
            -0.029307339260143915,
            -0.016508038573270576,
            0.01470128599468643,
            -0.017496469887874216
          ]
        },
        {
          "output_weights": [
            0.025131167100190557,
            -0.014382294731123197,
            -0.022124962808257025,
            0.01624815407954785,
            0.014508870959912568,
            0.04293081807169225,
            0.027547958857632057,
            0.04684093594340193,
            -0.05961058321085832,
            -0.03932554754527145,
            0.05488559203375575,
            0.005336393162051463,
            0.028016580654921904,
            -0.0004720750979151035,
            -0.04988780028440036,
            0.011527093407751186
          ]
        },
        {
          "output_weights": [
            0.05116243136084087,
            0.01158783191339131,
            -0.01903232443878927,
            0.03544314075733591,
            0.03495360740700866,
            -0.03522241445854522,
            0.005886245915937204,
            -0.05014182243114723,
            -0.034491207600495455,
            0.04826014257502838,
            0.021551378475776324,
            -0.044212807794523974,
            -0.02039852058966907,
            -0.05741455770824884,
            0.0543908219805899,
            0.008601171217434781
          ]
        },
        {
          "output_weights": [
            -0.060431362912347915,
            0.0008029601357640502,
            -0.004720807737245741,
            -0.05028268061401423,
            0.020106740216066014,
            0.05247386223691507,
            -0.006809498656007597,
            -0.04086633144045557,
            0.018025930256471014,
            0.005495181782279187,
            -0.009733452049695626,
            -0.0032432705819959826,
            -0.03361395745726551,
            -0.04848114818833763,
            0.02456569235473831,
            -0.03406359117798509
          ]
        },
        {
          "output_weights": [
            0.026903614732721404,
            0.0596111970702446,
            -0.0011433976400608845,
            -0.01674495465249164,
            -0.05718070998745376,
            0.02926702030833849,
            0.017086904943980706,
            -0.03500920379012927,
            -0.01681977302966754,
            0.040728492002506764,
            -0.013038367019544205,
            -0.031957313847932274,
            0.038120006262151784,
            0.04099797738620403,
            -0.014350151275999904,
            -0.017127707692272797
          ]
        },
        {
          "output_weights": [
            -0.037392531924578885,
            0.021513384584953416,
            -0.03811831995954524,
            0.05197308820419956,
            -0.017905174798576357,
            0.04688809252771802,
            -0.004090458217423267,
            0.05468521467384826,
            0.03359378676364172,
            -0.02197876276771687,
            -0.059258118053455794,
            0.02489529610715142,
            -0.0023266874317704475,
            -0.06012426498866942,
            -0.04886972955401927,
            0.013526886336167296
          ]
        },
        {
          "output_weights": [
            0.05666441360330963,
            0.04491291659588379,
            -0.04591615234155608,
            0.041234880572123156,
            -0.031236498929390746,
            -0.0329565914366903,
            0.034679929380029416,
            -0.029231902943643927,
            0.03010082197156754,
            -0.016714102078077556,
            0.057927343716724936,
            -0.04143034152858881,
            0.05617039449718732,
            -0.030868618154309656,
            -0.030269228274918736,
            -0.029181240190638138
          ]
        },
        {
          "output_weights": [
            -0.02712824139403074,
            -0.00705254913259079,
            0.05301219317165832,
            0.0360853790014239,
            0.049692703713788346,
            0.03861478491561124,
            0.05225439292300062,
            -0.03098141623249344,
            -0.029341809271095993,
            0.03525816039046274,
            -0.04860988573662784,
            -0.009821571003802258,
            0.008156790816547353,
            -0.024889816371463685,
            0.05755242070124686,
            -0.030139595473062997
          ]
        },
        {
          "output_weights": [
            -0.007642444526137419,
            0.03823588254634761,
            -0.0008919277256413369,
            0.04276123978140883,
            -0.005917302532375842,
            0.05362632909959459,
            -0.051879513281681174,
            0.032409517789181067,
            -0.032765765206558946,
            -0.044759243676709276,
            0.0007788221638774418,
            0.05579138807088745,
            0.021721862030940203,
            0.00786017502133015,
            -0.003131117570999321,
            0.002042470328980085
          ]
        },
        {
          "output_weights": [
            -0.007332800267339938,
            -0.01747957288901758,
            -0.051528962780766456,
            0.03059833273569326,
            -0.042447157003768735,
            0.0022549932816548638,
            0.004295420353587301,
            -0.05783227047926595,
            0.03687806216062137,
            -0.030525484568769665,
            -0.04084630294914779,
            0.04605001802109203,
            0.030600217467054016,
            0.04379009786803626,
            0.03271528546604865,
            0.05421062742468019
          ]
        },
        {
          "output_weights": [
            0.0017128162512622868,
            -0.014592712841478794,
            -0.05194875602624536,
            0.054567161964741914,
            -0.04557895000269954,
            0.06056549219372573,
            -0.04342952329472724,
            -0.05648467776257,
            -0.02801907396079875,
            0.059354665131347004,
            -0.04609756357471271,
            0.005603855302721633,
            0.02185487985399078,
            -0.04305417021558528,
            0.03852674128982321,
            -0.051924244638434605
          ]
        },
        {
          "output_weights": [
            0.023569407093259685,
            0.0038273534291833173,
            -0.05441385265995299,
            0.06241967512450306,
            -0.03361282392476919,
            -0.009763984651055433,
            -0.002685092394520715,
            -0.03904278021013585,
            -0.000696772546820768,
            0.013932555575422981,
            0.03682600172856308,
            0.0069156628377670505,
            0.013093721246877835,
            -0.031207144604375365,
            -0.02903031174248648,
            0.05613090236803279
          ]
        },
        {
          "output_weights": [
            0.01836852705217819,
            0.015482126250798322,
            -0.024440752075969106,
            -0.030143280970311527,
            0.02267251851943198,
            -0.041006344283167184,
            0.03788758338601536,
            -0.046705961033626724,
            -0.018295897808483022,
            -0.006023553345115497,
            -0.010300411130903511,
            -0.04436030577000493,
            -0.02011388140307229,
            -0.04012698632292092,
            0.055426208930296074,
            0.047371019634879205
          ]
        },
        {
          "output_weights": [
            0.03488701534144147,
            0.02805539001133344,
            0.011472938130296647,
            0.06234682496403582,
            0.017665568492353626,
            -0.02021571391084024,
            -0.013715127837252643,
            0.0610784682793365,
            -0.016949683350180128,
            0.04629191006206754,
            -0.061943473875835015,
            -0.040559345088911014,
            -0.04586621062574197,
            -0.02901917958434223,
            -0.023068143301248782,
            -0.007989409185058246
          ]
        },
        {
          "output_weights": [
            -0.0228218081899386,
            -0.006143733592444534,
            0.058121639471922705,
            -0.022257432970297385,
            -0.03518402886146901,
            -0.057659659910062416,
            -0.007997857065587788,
            -0.008887337702787114,
            0.010762855416208245,
            0.012966410169151505,
            0.053921043505055694,
            -0.062183602107612146,
            0.02682679269902141,
            -0.01752281114061406,
            -0.014880738081579777,
            0.02735526369565163
          ]
        },
        {
          "output_weights": [
            0.04215421219845272,
            -0.017948536779933286,
            -0.0157269394663562,
            -0.01741649667234217,
            0.06248344664793393,
            -0.02460524552823324,
            -0.002031419814746027,
            -0.020035864462347862,
            0.0415904442840108,
            0.03274383960411062,
            0.020125357522772204,
            -0.015687375229979948,
            -0.05954417319854076,
            -0.044807833216675946,
            -0.05508347773280478,
            -0.012019515100946863
          ]
        },
        {
          "output_weights": [
            -0.0037537654329922593,
            -0.0160976617204392,
            -0.05034415968619854,
            0.05033875760078733,
            -0.005044969753199166,
            -0.007682872069239399,
            0.061660041915598034,
            0.012894439764190684,
            -0.05701763705235942,
            0.013012508225171263,
            0.051768913085623244,
            0.05079651906015058,
            0.010135456560423375,
            -0.019413630625713295,
            0.0011052118124641255,
            -0.012429398381823907
          ]
        },
        {
          "output_weights": [
            -0.034369424539470325,
            -0.037916153060071275,
            -0.025381295731788885,
            -0.05789226061025149,
            0.03307285099632013,
            0.011113513254637455,
            0.010944405163987272,
            0.04796957249529446,
            -0.05230615139031056,
            -0.03060347962097973,
            -0.05412476553670043,
            0.018945564192535756,
            -0.04832580575156119,
            -0.01567709093683322,
            0.0459700671049805,
            0.006520686656497764
          ]
        },
        {
          "output_weights": [
            0.05510515000151411,
            0.039871530340174134,
            0.0022214426288406017,
            -0.02509253050136607,
            0.01603915102153959,
            0.03600950835625499,
            0.04787155206643297,
            -0.04933972777142392,
            -0.035256684597836804,
            -0.03379634566474659,
            0.031061436135133888,
            0.05826176627356589,
            -0.04039214357788178,
            0.058218754041697116,
            0.021333396405891714,
            -0.057197483877539965
          ]
        },
        {
          "output_weights": [
            -0.0543062463175666,
            -0.04114622478890029,
            -0.007971260782446317,
            -0.04664781964357004,
            -0.0036509761811347394,
            -0.01732995393543328,
            -0.01028476768619433,
            -0.008227483105261738,
            -0.027891051607572534,
            0.02525372625565063,
            0.040124795440005356,
            -0.006951192359235407,
            -0.01551633221749478,
            0.06017572195758327,
            -0.049773963488712276,
            0.03846931520205993
          ]
        },
        {
          "output_weights": [
            -0.02596011941160592,
            -0.01252897967890678,
            -0.03037554679845933,
            0.0552665354610229,
            -0.040376561460403165,
            0.031624015145331356,
            -0.016190907156151783,
            -0.049646019658439414,
            -0.05880697309261891,
            0.028392186838140376,
            -0.02005161929559566,
            -0.03685107039624638,
            0.04567456957944692,
            -0.04511895002408721,
            -0.03000033908273217,
            0.031146384360230595
          ]
        },
        {
          "output_weights": [
            -0.049674408656736356,
            0.061222107460661146,
            -0.009793646383258482,
            -0.05619953199056433,
            0.006573107857994128,
            0.01641610955553074,
            -0.019026849486370543,
            -0.048894831455432365,
            -0.059714210785415514,
            -0.01379012281267342,
            -0.04608057775358595,
            0.058179191393018644,
            0.05280683051011772,
            -0.0010876772926411784,
            -0.019576305489996323,
            -0.057923525108692524
          ]
        },
        {
          "output_weights": [
            0.021116720243309194,
            0.050675304397529146,
            -0.0032123923473282253,
            -0.001878885248953926,
            -0.05341458792337016,
            -0.0028564176670981462,
            0.05329197027489996,
            -0.004697210259611376,
            0.048646733721414676,
            -0.007023328319778163,
            0.04604798840512479,
            -0.04753893546760906,
            -0.01159049686545986,
            0.04493254549360786,
            -0.010999893533489291,
            -0.05766949854645858
          ]
        },
        {
          "output_weights": [
            0.003308307156356255,
            -0.0026866423611562884,
            0.011978552966767555,
            0.03322896241001168,
            0.012629248842949753,
            -0.004583312043556047,
            -0.036525106290229044,
            0.016599963047792952,
            -0.05607516273104251,
            -0.05682845444697223,
            -0.05563008139173692,
            0.045087347357883875,
            0.016796315296240552,
            0.060860667776579946,
            0.0002940634121294806,
            0.006307530237558747
          ]
        },
        {
          "output_weights": [
            -0.032804706210581805,
            0.011669510726866299,
            0.04183823648648948,
            -0.03124563603746921,
            0.0057169616729564506,
            0.01341222353704859,
            -0.016249940507775854,
            0.014059347963721845,
            0.008351945154170334,
            0.007004666813046316,
            -0.043595198706574655,
            0.04481135568922942,
            -0.03298241594438964,
            0.03943989170978763,
            -0.014088358904226644,
            -0.030880138791232067
          ]
        },
        {
          "output_weights": [
            -0.04427236454055445,
            -0.05388306539269825,
            -0.03257407049648374,
            -0.0036553817757588353,
            -0.015469257254400137,
            0.04123486973123408,
            0.05418890621879495,
            -0.03254319542168404,
            -0.0606002856984787,
            0.034874882250698715,
            0.04678657825061898,
            0.029400708868295867,
            -0.022482680934016477,
            0.03799975472378106,
            0.023619266025856886,
            0.0008905735892848143
          ]
        },
        {
          "output_weights": [
            -0.002543871008158358,
            -0.043485840968138685,
            -0.04559432069308136,
            -0.0008177711145687865,
            -0.055042904807409324,
            0.01702687295355239,
            0.038812075601906186,
            0.050203840155064655,
            -0.06117435061649599,
            -0.03064631832110004,
            0.0018295829078822095,
            0.013010703509998466,
            0.0452466638074216,
            0.019620394914428966,
            0.03166984182710929,
            0.03686723996698925
          ]
        },
        {
          "output_weights": [
            -6.966400164479414e-05,
            0.0008639512464069499,
            0.003870413707580232,
            0.05753555320112757,
            0.01934206124845374,
            -0.008642896155902238,
            0.019166158389858086,
            -0.05230799347349219,
            -0.026611459546591616,
            -0.0366304081254894,
            0.03612868029451238,
            -0.02104815032850057,
            -0.03254258569039728,
            -0.038072483039998814,
            -0.02273375897572577,
            0.025515788543131367
          ]
        },
        {
          "output_weights": [
            0.03026670878760699,
            0.027978693792982522,
            -0.036148731034343705,
            0.010243895599042575,
            0.052314209276525955,
            0.002776986178232912,
            -0.05123677209767112,
            0.045805467553532556,
            0.060288044763717054,
            0.02625206551450082,
            0.008480741761743833,
            -0.028776435882415716,
            -0.055687405946653945,
            -0.05221866126840581,
            0.05455296744725436,
            -0.0217765275735675
          ]
        },
        {
          "output_weights": [
            0.013808743890688556,
            0.038602200010403244,
            -9.516559387383916e-05,
            0.0025140636434211796,
            -0.014309415924906858,
            -0.007511504119651024,
            -0.010970499650659018,
            0.033953095617785055,
            0.02247193523517164,
            -0.010914344173281163,
            -0.00190631567208799,
            -0.03302570379030502,
            0.05475580512439142,
            0.015458623180209827,
            -0.017906665666793418,
            0.04973528844530951
          ]
        },
        {
          "output_weights": [
            -0.026357213223297496,
            0.03149616242328657,
            0.007539223662041776,
            -0.010783026024219128,
            -0.0004632182385965289,
            -0.00923528293249777,
            0.03796421282803896,
            -0.005168015105746091,
            -0.054865708718024875,
            0.05062163091462934,
            -0.028580658231396404,
            0.04994067983619809,
            0.01741602076209939,
            0.041958221891145425,
            -0.006213213404109591,
            -0.04679026740367092
          ]
        },
        {
          "output_weights": [
            0.05617153078636499,
            -0.032340510204808895,
            0.010679742839683601,
            -0.0009516834731856928,
            -0.03063381088468682,
            0.03311232737946914,
            -0.02662798583889159,
            0.006212403670055205,
            0.01704074139659534,
            0.02644987640157705,
            -0.017651022848119008,
            -0.028611197224764785,
            0.05259659486216554,
            0.015135965031422099,
            0.03958913004771568,
            -0.0008542519923294521
          ]
        },
        {
          "output_weights": [
            -0.025821050322592024,
            0.023779203223926376,
            -0.018195941956685637,
            -0.05901332574319078,
            -0.0557474688250315,
            -0.03647842208661814,
            -0.03817690829710743,
            0.00395105199602322,
            0.049660360722633176,
            0.014447240017764736,
            -0.04673652289057639,
            -0.018953934605650067,
            0.01513085789083954,
            0.010979990948864163,
            -0.020791644644404153,
            -0.05827759450144597
          ]
        },
        {
          "output_weights": [
            -0.03685795348857711,
            0.055421164254351785,
            0.010138927170369997,
            0.05403466437530098,
            0.03432091306948964,
            -0.03231533643823279,
            -0.020955728363045593,
            0.04699060104459842,
            -0.0414907250282456,
            -0.020740407292197,
            -0.041533249985796,
            0.05288162407385761,
            -0.008917824035137035,
            0.046543305581949204,
            0.013343739142596182,
            -0.03173235176603324
          ]
        },
        {
          "output_weights": [
            0.0259284326017852,
            -0.00831127443952977,
            0.05989149692986862,
            0.001127907450238457,
            -0.053353039639702025,
            -0.025604858840991986,
            0.0013690738553941806,
            -0.05672215058993873,
            -0.047123624390532526,
            -0.03250243479926577,
            0.011062105118987755,
            -0.0063518168828900845,
            0.001560972554841664,
            -0.03437882480654243,
            -0.057552629613896344,
            0.06009533574054593
          ]
        },
        {
          "output_weights": [
            -0.023219408516608652,
            -0.002044354303233963,
            0.04486481037971331,
            -0.027927875703689764,
            -0.055951026696237846,
            -0.055214563055081316,
            0.037475910301643024,
            0.05504443582795624,
            0.015840449658496174,
            0.027229342932943885,
            -0.00396725744852012,
            0.04659269083529352,
            -0.05647238593441929,
            0.018478696561151,
            0.04012964941813682,
            -0.013754394291034354
          ]
        },
        {
          "output_weights": [
            0.021325922570397497,
            0.030931653631736375,
            -0.0006944291506560501,
            -0.05177264049980121,
            -0.006843474683141963,
            -0.028844357729859087,
            0.03423900870318447,
            -0.022497877357641357,
            0.058160969480720796,
            0.02468313932722593,
            -0.025622018250186476,
            0.050585882521743994,
            -0.02982251424609865,
            0.03432127482492234,
            -0.04534429882188721,
            -0.043915080771484184
          ]
        },
        {
          "output_weights": [
            -0.0007392592778864346,
            0.03306416995239244,
            -0.013730714060185653,
            -0.026575012477106235,
            -0.05610746299431974,
            0.016325779227902747,
            -0.026011994642313754,
            -0.022596525078077783,
            0.023285260845773554,
            -0.04197061958643367,
            0.014794319617506407,
            -0.0428294738877716,
            -0.0008941897205034705,
            0.016127670740798437,
            -0.04153782128435211,
            0.05280866505604571
          ]
        },
        {
          "output_weights": [
            0.009270112439614718,
            0.03967883182910808,
            0.05828931858797355,
            -0.0194784181611854,
            -0.03393897046258868,
            0.011378614559618134,
            -0.06138976367595437,
            -0.009219533564300319,
            -0.008995070424801742,
            0.057135355401944476,
            0.03203749633064605,
            -0.03424661330390793,
            -0.00029543566239962894,
            0.018350056327196197,
            -0.02745278178971008,
            -0.05795688583517865
          ]
        },
        {
          "output_weights": [
            0.03810890506349063,
            0.059750071358310265,
            0.039459979099958825,
            0.05124534251425786,
            -0.04375291461053859,
            0.05246927752480763,
            0.015422209198500072,
            0.012619871007931206,
            -0.0422725007136619,
            0.032690308648063,
            -0.05873549636878145,
            0.016491409328029127,
            0.0087363574256379,
            0.017576591115638463,
            -0.051194748987973125,
            -0.03284525447872055
          ]
        },
        {
          "output_weights": [
            0.0010704961456864366,
            -0.02679168642715285,
            -0.02548231150889582,
            -0.02394619437514125,
            -0.042721198546169896,
            -0.04398348821618985,
            -0.062319382108079656,
            -0.04768193055772181,
            -0.054986789227384716,
            0.02356194641842911,
            0.00029929870387151503,
            -0.0063833802465323,
            0.009350181957103425,
            -0.001849100687860775,
            -0.03068071816973435,
            0.06082084449841106
          ]
        },
        {
          "output_weights": [
            0.028927169978055157,
            -0.05986380146167615,
            -0.0521317037441905,
            0.05507938917522765,
            0.022880206301195805,
            -0.03250308868849156,
            -0.006650632340813345,
            0.048868831093079136,
            -0.0519832629589495,
