{"template": [784, 30, 10], "iterations": 33307, "batches": 3330, "learning speed": 0.03, "batch size": 10, "data": [{"layer_type": 1, "layer_data": [{"output_weights": [0.2527438917842491, 0.2950097268161453, -0.5101393910858885, 0.18889448670847325, -0.49218715725596435, -0.9790204186629577, 0.12706934702610811, 1.922750424005614, 0.9652158405068404, -0.44325961821006454, 0.7714529121852216, -0.11542534371529653, 0.47648451992608937, -0.790269188444601, 0.06696485323211894, 0.31578325330238066, -0.07463436771496036, -0.5101563808512015, 1.6423606751600954, -0.4821339695638367, 1.4151730817758463, 1.498532337870265, 0.17725910761813846, 0.472611387330136, 2.399294453300808, -0.032938107775029944, -0.21361041125815883, -0.6455431262757579, 1.5395103260252574, -0.7438998373724992]}, {"output_weights": [1.0773146365088384, 0.4009970460443855, -1.791832220550691, -0.788634533319347, -0.7803332529355832, 1.1752865562168768, 0.7655280811914256, -1.4464107238085906, 0.07567752564883949, -0.6057476997913727, 0.17294813560850963, 0.33508428412964525, 0.30899412105339347, 0.09438199702674768, -0.45622646822307433, -0.23362169860738605, -0.6908487654544956, 0.6733512222354673, -0.6389214868985338, 0.9937484239560094, -1.3478730430391932, -0.024204200918283757, 0.37426769446837765, -0.8036488703585202, 0.8052908210055711, 0.6364774951585087, 0.5730896206908394, -0.8425500588058366, -0.5588811417003117, 0.5108684542878378]}, {"output_weights": [0.9405490116351343, 0.7148567204984684, -0.03856946527411314, -0.4909069859975618, -1.064674840854428, -0.5997239905004057, -1.5891981836921236, -0.031489386064101024, -1.266714625437276, -0.7809759013947902, -0.8535312090500028, -0.04886309309303795, 1.291962782877542, 0.7836618572414337, 0.009814976400366401, 1.527746060382386, 0.16272782418267862, -0.7842158462129681, -0.5938656216677343, 0.35304261723113295, -0.3526282325965246, 0.43574449625202316, -1.3264564504031868, -1.6030892726600652, -0.5217643625625482, -1.477866519834914, 0.9211273178489818, 0.19602012472774716, -0.9812815241353458, -2.93322200893765]}, {"output_weights": [-0.11456687556124605, -1.1555124320464836, 1.0458212924517425, 1.2742140094401524, 0.5191194097738119, -0.8393530754778109, -0.7190292598525154, 0.5532215271158861, 0.9391657616777623, -0.8004061395792729, 0.45227181022265567, 1.0269695136728225, 0.4036349247394748, -1.8110074661703262, -0.03131761503162327, -0.01499543180649049, -1.0690133499686103, -0.0376477453169333, 0.21033695424885582, -1.2339274652493761, 0.2976778149209488, 0.2953148236953597, -0.6492053493576757, -1.84620934444062, 0.31658894857332454, -0.273251584040903, -0.5907804385486386, 0.07341215019036382, -0.91305435574288, -0.28324340427378814]}, {"output_weights": [-1.1915786384957368, 0.3606435916393283, 0.1520562814323616, -1.598029528996293, 0.17286170302770598, -0.5133354690937699, 0.12056089418020687, 0.10720865799428722, -1.211707618894033, -0.6998522912642446, 0.21119225833771985, 0.38731541913740863, 2.0121835172001235, 0.5401528698645016, -0.9166863769605837, 0.8110891551993175, 1.9294368183683377, -0.2261943826242223, 1.2176098547449439, 0.8419662173644469, 0.32499655575411485, -1.1189531512594917, -0.17563784677960034, 1.4750866290288538, -0.448169672205108, 0.8427532415037228, -0.3151781527039135, -0.005181624760457013, 0.13993580644671177, -1.5411879708979332]}, {"output_weights": [1.2845019057042093, -1.239968331688958, 1.6924495792406458, -0.06841279058591339, -1.0321122074194282, 1.5043253514821322, -0.8856288179440667, 2.2090001912021116, 0.7382508744873221, 0.06470805229071923, 0.6408860031749154, -0.5051044301332074, 0.4456184823880157, 0.14177217641709003, 0.9249591852744674, 1.0096042486519008, -0.5191974862638983, 0.6762026524320138, -0.5995578104824838, 0.4549564228443514, -0.7788754042418342, -1.5386331106547453, 0.3572410452913678, -0.4303882448098141, 2.210223472738537, 0.393565503137145, 1.2908204481578174, -0.752324882317124, -0.08865717160686486, -0.0809340700893994]}, {"output_weights": [0.8537213304594066, 0.1391960943885905, 0.7062905179699, 0.533970423318654, 1.8138484791762455, -0.8964003138461142, 2.467538891155562, -1.8978389025357927, -0.0012114315908768277, 0.6836889412281865, -0.18681318054662147, -0.0017550711714029155, -0.264552778896245, 1.50539140336087, 1.2472274849138365, -0.026221728650564165, 0.6071294949621853, 0.04909298915858012, -1.4591768906566007, 0.5521184960281936, 0.8309721042089613, 0.2771167543964021, -0.27899661839895556, 0.32028438842676205, -0.4763198846156224, -1.4788063589405134, -1.1210641253532867, 0.38893706523116767, 0.05561220846390841, 0.26291389445785435]}, {"output_weights": [-0.7745736315846385, -1.2783055484834402, 0.4151529551545217, 0.1403822675050688, 0.5361504115829809, -0.5540639178244572, 1.902580786993719, 1.853338799000077, -0.7967305069182732, -1.0920009115496774, -0.777047444252665, -0.22526266169633496, -1.307963042381562, -0.9728221639844183, -0.5673621019153046, -0.7472351341314112, 1.1203360791262285, 0.7297070506462452, -0.8686237632900894, -0.5117300574264607, -0.7229136987087711, -1.0372687344896538, 0.039473612543808725, 0.8351370223213392, 2.6445619543133088, 0.9564360377674516, 0.6734304867815828, 0.35449520011561725, 0.09679160285886627, 0.910856471755179]}, {"output_weights": [2.2308768363687927, -0.84961347183847, -1.011965609242431, 1.0271312305068643, -0.1491061997980467, -1.0746777467342676, 0.6483815868667989, 1.0339606166062973, -0.47400648551002783, -0.7027186262107264, -0.9542295038301627, -1.7213541323657378, -0.18503507347782006, 0.4591174066308618, 0.2730811061911773, -0.9864737766291269, -1.7013129898880723, -0.2681310202326541, -0.3235129792316363, -1.0058125367659174, -1.1883634834610823, 0.3731697291661961, 1.313731528298271, -0.24521428450591626, -1.460500545410405, 0.2788759319934313, -0.8293661857218214, 0.26728530387928623, 0.09504115953682628, 0.9428605146253359]}, {"output_weights": [-1.8665468253778763, -0.00056314957786341, -0.8676408377666486, 2.316352029749503, -0.7746070299866094, 0.44293966229028825, -0.6253000649468866, -0.15461983666978527, -1.3964500779027464, -1.0829254759900129, 0.9564535632492968, -1.1638523039807018, -0.281695840200627, -0.5011995028772017, -0.8338668057623204, -0.7562449027512521, -0.21230542972149755, 1.3964362208847474, 1.374554461593825, -0.966588126284483, -0.1785240894356547, 0.7997469318040265, 0.08617936371309691, -0.10498164511114313, 0.19706763385494647, 0.5149739928887717, -0.6631412897547406, 0.7240735720874204, -0.2232754061693391, 0.31759303153158464]}, {"output_weights": [-2.2363878598507405, 1.3365023167234673, -0.01786049361178373, -0.7360842035184478, -0.8761066948430309, 0.0002720095868937911, 0.016711842856238727, 1.2127950856855918, 1.4760469907445637, 0.1860208266251896, 0.30562844641161785, 0.6204302432863936, -2.1014406331560713, 1.6258300653795814, 0.9501152386185906, 0.5670696906673263, -1.2850458039209574, 0.23147886192962178, -0.33377934190425934, 0.8741363169705268, 1.5169448231774465, -1.1515745194415807, -0.33831787568720634, -0.12003448488959949, -0.16779421264955627, 0.5714693764739539, -2.1355464725373494, -0.8871323068065597, -1.232248838123655, 0.6859184888260554]}, {"output_weights": [-0.17346762262134477, 0.46688216656916753, -0.3886529508230564, 1.0675225628923928, -0.4367610553165336, 0.8254048276363537, -1.3937137720565616, 0.7061963499205767, 1.0483870190611995, 0.05060245275120135, 0.7349176796358028, 0.013956304279443393, -0.1751439560517761, -0.44469523758254487, 0.30114142892127455, -0.41993423874845237, -0.26556535169829526, 0.2177138201103044, 0.5045208466246298, 0.5198347498734185, 0.3144668961812409, 0.7008628415623155, 1.1314636068751809, -0.013127911786234927, 0.5391823125750617, -0.6666196876953954, 0.7593629789787717, -0.30770809431725227, 1.1540660127442761, -1.9596298236391843]}, {"output_weights": [0.557111939021454, -0.569553414805782, -2.3402329129264356, 2.1639924491112366, -1.527208614711415, 1.1413199909653517, -0.8087619218732385, 0.14271550822524756, -0.981935129302548, -0.2311768978990189, 0.837896129465899, 0.6793163309874091, 0.27517516985468743, -1.5140053908796565, 0.48101983566225653, 2.1952217477200078, -1.423005014119478, -0.2538819811436161, 0.08657613808682416, 0.96854547591674, -0.17749649499511683, 0.24469735387583985, 0.8963187905996707, -0.2525371461909499, 0.6916189188377513, -0.009806104749478892, 0.47656188387624765, -0.5914626124055014, 0.7852733152640133, -0.5992827023946182]}, {"output_weights": [-1.0474175924104299, -0.5431272054584972, -0.5473269569923443, -2.3141844479218943, 3.3540795602611864, 0.8997324121804363, -0.01489744675373506, 0.7370264263341745, -0.04433171239766422, -0.9341500609693044, 1.5648201592264168, -1.899451257582705, 1.0216209788893418, -0.637993155311011, 0.6186918874077387, 1.778491944133774, -1.0363564011238264, -1.2568203845777808, 1.8147345561144066, 0.08973789564841818, 0.9682731494022169, -1.2330713194461482, -0.8782865352946656, 0.4867444742667687, -0.7465345524310594, -0.8639779179024154, -2.374663263041998, -0.07795520710411824, -0.995429914953764, -0.23622175446295499]}, {"output_weights": [-0.817504548940889, -1.0279843299993738, 0.9345507018489659, 1.70887008097588, 0.07300971858060341, -0.5771122370168517, -0.00859973200376043, 0.9295055070886876, 0.17560068796553396, 0.03510542242830299, -0.8143097475587081, 0.5642135674073471, -0.7451745411752755, 0.03783179615232439, -0.532164815278303, 0.29042492946607845, 0.031219346786901792, 0.29659480891866524, 0.8072532701122276, -0.20444071868223748, -0.1419138925155927, 0.12049487641921514, 0.9425575615217824, 2.421249950325489, 0.8703135439733717, -1.5271678253710912, -0.46023487368158095, -0.7497794101449501, -0.624247740975814, 0.10742110192710468]}, {"output_weights": [0.12486803400126699, -0.5134474534683685, 0.9588023551836199, 0.3911598829357234, 0.7461226607652627, -0.26159198267637057, 0.8115322002275025, -0.3678712066392466, -0.5543056140428402, 0.2662323495976367, 1.7782070450260903, -0.37585128977223425, -0.17021477333186516, -1.1666834449061454, 1.3245936055493555, 0.25680822455061986, 1.6143205705147206, -0.6954358187959093, -0.23301027070951383, -0.11907952945765764, -0.38657704535233123, 1.6601950531239644, 0.47054567422345545, 0.5772125829791735, 1.3254852079649924, 1.1607325777815292, -0.43793022021809924, 0.38520625772642075, -0.6606585154647231, -1.7632774330979455]}, {"output_weights": [-1.4654184645846853, -0.6738588294046174, 0.8436189221475046, -0.2968495413212966, -1.2519977025844844, 1.3979817317715673, 0.3604251735460537, -0.6987287565868078, -0.2182260880683238, 0.5337200998745234, -0.11275612286079131, -0.03358971676012135, 1.0389851754063644, 1.3489362156801803, -0.12222641148803148, -0.4597047822099242, -2.1061254678958607, 0.9027822583174616, -0.4862641322772414, 1.3873768095199501, -0.24821648477391267, -0.526993137431904, 0.32578045276874645, -0.5208993850754041, -0.5885745960049754, -0.14636478279216894, -1.2841247295803118, 1.308019068772719, 0.2564985812822549, 0.19377164709910616]}, {"output_weights": [0.9382022836083719, -0.8370870261172761, -2.7035979150043934, 1.0010392935866015, 1.9468389031998372, -0.7724474253894589, 2.2129929073615973, -0.619803291615062, -0.5933262396137953, 2.0544246801668984, -0.5902147145209847, 0.8257552977370562, -1.5382244868027013, -0.3171049651399667, -0.8333865003994506, -1.056619860252003, -0.9054422498908633, -1.2262581214759036, -0.9910166569220321, 0.42926348011318083, -0.5750871621262783, -0.7777036739460962, -1.8850316495274344, -0.56090924738506, 2.2762183533892206, -0.37620906676061266, -0.4826024820449602, 1.8317790131225922, -1.8285884668572057, -0.295170274773887]}, {"output_weights": [-1.6578306076443943, 2.5556954336437134, 2.062738552270925, -0.1951299536083904, 0.08004686993039188, -0.4160309414554821, 1.2840185454338053, -1.284703446686738, -1.465410791346719, 0.3095288189108681, 0.5405933835209209, -1.0484611943729214, -0.42048625319723903, -0.8727253793512906, 2.0682415415289688, -1.2256464156511735, 0.38034370569906917, -0.7609695633518448, 1.662797103518025, 0.22328107852278992, 1.5138700950641493, 1.332143796599132, -0.7294762651183557, 0.12014545901928107, 1.2618123576964897, -0.15253425799406092, -0.014235523903829402, -1.0293082532821718, -0.1176588488870313, -0.7847989157261803]}, {"output_weights": [-1.5870481540826207, 1.1607919115973666, 1.462056288507949, 3.3300850511629663, -0.39811918094074195, 0.8060388829234518, -2.0411756192934436, -0.48606505363351127, 1.0848719275349687, 0.3473542817681782, 0.9163848213874702, -0.6105393102420534, -0.572404259610089, 1.7855652201000798, 1.269961248550291, -0.762572613247613, -0.6846910172694262, 0.9973515408637103, -0.2872151368862416, -0.8762134455472129, -1.4754333232251613, -1.5791349070616783, 1.1794368985526074, -0.7778191927184843, -0.23939148012584247, -0.5517073271899442, 0.1285619323806274, -0.07428676921003767, -0.49570488095760284, -0.22553640112381143]}, {"output_weights": [0.15064796739262762, -1.1752224437307555, 0.04307595210313307, -1.141421180226247, 1.2296724848651621, 3.702121185124664, -1.0762480837185497, -1.2892561731081116, 0.06641871315396794, 0.12676208301282976, 0.07161638719089683, 1.6760011904132106, 0.4076399471840779, -0.9584482293931745, 0.047716174350766895, 1.3392086010635689, 0.14062019667545045, 0.2526472993463383, 0.09913464334927907, 0.048070250603931206, 2.018388697548157, 0.9537015182843591, -0.47969249588080765, 1.3264220578260484, 0.6838004626483486, -1.3907668725215405, 0.6167555758492071, 0.5804187342399911, -0.7458237533779286, -1.7821909488361753]}, {"output_weights": [2.4778776639625133, 0.3532578132446791, 0.9598777790848678, 0.45148376804318396, -0.061059187715615734, 0.7800745629096281, -0.5805249760680526, -1.3975018452909016, 1.8225124310516958, 0.621878399819274, -1.03225716238086, -0.31836690318097527, -0.21781224027309673, 0.8031819283564514, -0.13323055605633247, 0.5422259191120015, -0.10847413689711498, 1.7017977656936771, -0.3999143058673346, -0.9080660486583245, 0.6633654910243507, -1.1363990450820494, -0.21340830816394044, 0.5265784194151649, -0.4500277381533992, -0.5832577020202286, -1.0574620710546383, 0.35869586071204806, 0.38266759225530633, -1.2753552496585476]}, {"output_weights": [-0.4895232760991357, -0.7923295530977023, 0.9320512351318263, -1.8873840931422112, 0.3085374487733624, 0.9017023595300199, -0.35434041088658447, 0.1435280951989361, 0.7399357108092522, -1.1566674137778155, -0.08237513511722055, -0.5139452624948114, 0.8895817204154067, 0.622289179867651, -0.8886329966960373, 1.4153097521102072, 0.5276817618216153, 0.4195787007397283, 0.8447897191222871, 2.2864373663336974, 0.3430187998614192, 1.0535635975839492, 1.3281953584833976, 0.20250956142666765, 0.651717046390169, -0.6925113879240488, 0.7036975216929889, -1.1007412949851862, -0.6927801488913309, -0.9325588152987744]}, {"output_weights": [-0.8130571474039554, -0.5468349851408263, 0.6080354983699834, 0.5573503631120722, -1.5737523943289757, 0.26175856350279453, 1.3192454946824654, -0.34737647128190036, 0.15009895475617502, 0.8937843694685813, -2.259552514032866, 0.40596778168261116, -0.5567530067626016, -0.10140188540471802, -0.2811572021671133, 0.6648687011128892, 0.7408672529799376, 0.4768749877296733, 0.14861677797770015, 1.8702346203455287, 0.7834740124663222, 0.6621846519494887, 1.7829277072720227, -2.382482367674228, 0.3834997456424386, -1.7239336194267008, -2.8061272300944142, 1.8140965514667868, 0.2174724412680467, 0.917396019696126]}, {"output_weights": [-0.3415131142233377, 0.7703055576159867, 0.014296116160036086, -1.0699540482587349, -1.314617905435101, 1.5193946807617573, 0.6484548093931886, 0.6483755741559108, 0.29631356390622166, -0.15764395196661113, -0.6711169133393714, -0.8850005200660412, -0.810462352466935, -0.8880077262732754, 1.5969667105790688, -0.248872201020185, -0.30410758342044897, -0.27240440090440426, -0.6018907390714222, 0.7592160871540656, 2.191166792255787, -2.0275671137792335, 0.6908784739935516, -0.511812532663391, 1.009458795569489, -0.1521052852115776, -1.8475414759703463, 1.2497564615494943, 2.422100331112909, 0.15292809005773092]}, {"output_weights": [0.7613553907499783, 0.6361819600671468, 0.5268462393013651, -0.48032922659474275, -0.37824720289547425, -0.12225824591061614, -1.8207823119658402, 0.9464923996742505, -1.5878648291065545, 0.6837883559026585, -0.11133594780384526, 1.918780699726287, -1.9267486196929537, 0.027083184166293576, -1.411062295144771, 0.7894332328703791, -0.25621427884916614, -0.5333733754432013, 1.9425287787255292, 0.5364008345237812, 1.4427471558602782, 0.14932419071703198, 0.985493635237845, -0.32598129826276057, -0.5587717755588093, -1.5421552426775027, 0.20811892431211063, 0.03898468434302586, 1.957816809876301, -1.153220150537041]}, {"output_weights": [-0.6276268848471845, -0.42242542956726153, 0.0058595601351038055, -0.0011065001014900668, 2.280000884303295, -0.0010113392238333973, 0.8457881358565469, 1.848863220769298, 0.006651686825647927, 1.3023126365917796, 0.028861852211130606, 0.25787097037503054, 0.36026875493589644, -1.3913631236903925, -2.0668552249913694, 0.6217336367212092, 0.049346753623853414, -0.6174223026922607, -0.9901669964385736, 0.8731273949948064, 0.9916530579356005, -0.17497220625707358, -1.5676215980050405, -1.2670772314034995, 0.27397753814385106, -1.5519705789294742, -0.21607283815220857, -0.08229701119272466, -1.8228748044750893, 1.7971625201096757]}, {"output_weights": [-1.44252369285284, 0.9145660715385794, -0.33567024487833497, -0.2847529444459859, -1.2675625736468332, 0.46813732772005107, 0.432337109878886, -0.027411598009385505, -1.2707846241591654, -0.24741435197879635, -0.31616965007988224, 0.24274327863544215, -0.20131701696579501, -0.48415671816907413, -0.2367556067515193, -0.44164503961929635, -0.5814034882484984, 0.8387972348548914, -0.25034758286488434, 0.2163838564971838, -0.5982283817521266, -1.8664925618222947, -0.22937374377800565, -0.4608137548418241, -0.13858303589027224, -0.14745474774796946, 1.0916989761722873, -0.5535413422881232, 0.10613201781411094, 0.5203765361897497]}, {"output_weights": [1.1137793195883992, -0.831422734185298, 0.3779170237182041, -0.5248927724600452, -0.9682686150631098, 0.8335660358911754, -0.0766944773777339, -1.2047455398740152, 0.2629458289815752, -1.0899263125490684, 0.3448542765522032, -1.335129899288951, -1.270702761506384, 0.6010038286189044, 0.4119886566838518, -0.5126861571296703, 0.5250628472116581, 0.2953036070739522, -0.1242807557663616, -0.5661140394265205, 0.1443126387888961, 0.20313826432034754, -0.0006086907062173455, -0.697268820916581, -1.062998783423996, -0.11888727734586987, 0.3502967756555156, 0.19706510732142182, -0.8688450385174126, 0.6257065151989788]}, {"output_weights": [0.981464843451815, 0.15944782664766624, -0.38461027860901364, -0.07461240406872736, 0.4515228987091039, 1.7059630938702335, 0.340708154935171, -0.20511866789629754, -1.0012757750217836, 1.0341079289579918, -2.1133827596854466, 0.4722690957540341, 0.11691616153618915, -0.20509579522910282, 1.1833556658342876, -0.9839315098150512, -2.533031185337983, -1.06777078152569, 1.3950877327894924, 0.16821061138072244, 2.8064891708240687, 0.22140741208439937, 1.2904054973913497, -0.360687809561933, -0.15379716086070627, -0.3054396111101111, 0.09469814270814628, -0.6271809413313453, -0.34331267237529867, -0.470169390513995]}, {"output_weights": [0.31110927072812816, -0.35066346395649656, -0.6959265784307556, -0.1435777193297723, 1.0240267904231688, -0.47264838605777504, -1.069976416131542, -1.1387258125052808, -0.5512601303395156, -0.7172915095587503, 0.8635530794073051, -0.1659943399470563, 0.8473424034623837, -0.843863855922147, 0.4662822090564105, 0.22442912088813488, -0.26583770440123616, 0.08849676945633406, 0.30633398060562855, 0.8287846075834209, 0.13820999070768247, -0.1683423814446349, 2.1119966941530817, 0.5195462545126023, -0.1661866089126973, -1.8836130998329623, -1.684732369911955, -0.935604986117187, -0.21220513520358314, 0.7946501463604502]}, {"output_weights": [0.1360932226195262, -0.8640993175904582, -1.144520146127184, -0.7450684435277334, -2.298067470398209, 0.31655312647457634, -0.3699211478434433, -2.035322314206086, -1.223778905206301, -1.4668067162961327, -0.47822430410339917, 0.6082397992827692, -1.4276061486426876, -0.3145299263742664, -0.09741220685804, -1.1389661317989581, -1.1113962833217346, 0.11982897349928152, -0.3606629229200422, -0.848597179126897, -1.0473422839603015, -0.1507825212136648, 0.04290993708238809, 1.7480238950708473, 0.7240235577623179, -1.0205775858542832, -0.6523188951826644, -1.8701014461987966, 0.422790721241244, -1.4487179324272446]}, {"output_weights": [0.42311205363923077, -1.4214189109689641, 0.2975926697442395, 0.6638314265028553, 0.374927824292079, -0.6746322183933713, -0.7254574576774578, 1.0568236611787167, 0.0097543104268165, 0.36889885433369185, 1.0675498681173257, -0.5031144621989617, 2.2193240156054928, 0.7676250851401638, 2.4503527860283225, 0.5159713083172505, 0.19299695004763653, -2.1384758441661864, -1.6213431702936472, -0.42498479827996866, 2.48568799237109, 0.4288337102519425, 0.5799374475787228, -0.42150555037374354, 2.3333952908637854, 1.9623515808651815, -0.07831917468811958, -0.06928653101970318, 1.6972842199448992, 0.6869391659670537]}, {"output_weights": [-2.8588585229060657, 0.2187302269948085, 0.07963021020487075, -0.27440734392536137, 0.6249519434136641, 0.6807725505213695, 0.27951148230229, 0.5403683370655353, 1.0792330864623716, 1.635151825424581, 1.8011876053921356, 0.11041211565991713, 0.5132680189690015, 0.8057231736165368, -0.7560540665022247, -0.7950126202954412, 0.046750033242085494, -0.9650640304005172, -0.08339898995343376, 0.6969405020232644, 1.4520194544924896, 1.7931824148396363, -0.2832369493143142, 0.7524918639324227, -0.4953351937726597, 1.0158946439041463, 1.2132355212080113, -1.3989472612967313, 1.3963719367829328, -1.9116600124882122]}, {"output_weights": [1.0968759708053522, 0.2630656842236748, 0.8745447284976396, -0.6692608726135024, -2.520277913825788, -1.4302842101503233, -0.3931971410209425, -0.36250103666288547, -1.1505102895418644, 1.6306445361464084, -2.148922362067626, -0.15286113958149802, 0.13634293797964434, -0.8210673450884675, 0.6065507931595872, 0.8468491660857023, 1.3351216770735224, 0.8864377223842315, 0.37666575059619256, -0.17774200946110735, 0.11021167373554325, -1.661042048752625, -0.4998973159052269, -0.34671826056316934, 0.2055169463313912, -0.6065798033720543, -0.9706961963208458, -1.0353294155042359, -1.1095293060780673, -1.2365563610994756]}, {"output_weights": [-0.22734711958942616, -0.3766053486971889, -0.6498466248410687, 0.23169872964912025, -0.44482549492876416, -1.7256166722920865, -0.45293653676791984, -0.08941752966134735, -0.05557083378961922, -0.7847541775604242, -0.7218996467084263, -0.5265443385310293, -1.9635376780886158, 1.2367426323425643, 0.05386951324449718, -0.2723068957140549, -1.1810691707816794, -1.7778191598374449, 0.7161412902617359, -0.26162760586758116, 0.5717135331135121, 0.4384538757288895, -2.5799046439814726, -0.4073159600284729, -1.1924216307185562, -0.9762375723985681, 0.8278237580545764, 0.8098319942034528, -0.5565174579363424, -1.2398544987700912]}, {"output_weights": [0.28224480134578234, -0.33509506360761365, -1.277760707242195, -0.15645862189986995, 0.4639929518056781, 0.8412282329185065, -0.44482377287143865, 0.023932946921178932, -0.6283149471146843, -0.7513356972987065, 0.14721276643992995, 1.7819529000356091, -0.8514709355291962, 0.9562829343383631, -1.0794397203048989, 0.04584665130558937, -1.2296152739767572, -1.186744526161719, -0.6634816031108964, -1.2220633915413417, -0.24751006582039273, 1.32338636002878, 0.40799651108436946, -1.0508029546768278, 0.09775457149556513, -0.022329424754885707, 0.9448344608740626, 0.47541950088255186, 0.8892370977426286, 0.5936725648049911]}, {"output_weights": [-0.9917181970538328, 0.13460623602965469, -3.2325149446203554, 0.564013611041622, -0.9377512855993475, -1.330922891321215, 1.0898202678894215, 1.039694472132275, -1.7343174302684303, 0.3805879325599665, 0.041422304373831424, 0.589487637648181, 0.5632260099963742, 0.4498069488963668, -0.9316998936425902, -1.0439933306377347, 0.6100958868535983, -0.29463690456398167, -0.48402566525408136, 0.5199737283065266, 0.951150735123157, 1.0576034295801122, 0.07603407820327329, 0.08261383115413624, -1.112752361115378, 0.5479665334497094, 0.8942262913186908, 1.337261173669194, 0.4382037576388686, -0.5323294976494886]}, {"output_weights": [0.12585575831497836, 0.44299435237120555, 1.210606637703451, 0.9583856864169986, 1.47642140104685, -0.10399398653787724, -0.16341540737897522, 2.513129167012377, 0.4568810497544839, 1.2790570099027987, 0.060673958857317745, -0.4810248146972349, -0.788687033487202, -1.9024684240116743, -1.3003676547879526, -0.2955531167119265, 0.48895629158993564, -0.1895636465445607, -0.7827474743367365, -1.76737176889649, -0.010209197195653245, 0.46364561662637804, -2.1076222014772052, 0.8745380327167652, 0.3827343029777549, -0.649750703893245, 0.9404679803589528, 0.2872212738092127, -1.544522022980041, -0.3484717995964367]}, {"output_weights": [-0.5602655690937045, -1.166507233421503, -0.029919070920955814, -0.2852496949842123, -0.11157669325850332, 0.5742233992972496, 1.437285222141986, 1.9949536735686055, 0.4811404851377126, -0.5202304047214042, -0.9639510087900001, 1.0836771767738989, 0.7878214504672744, -0.5624095601019643, -1.0980358097120175, 0.42192901400994853, 0.17090399814918786, -0.04066251727464732, 2.2068156805672094, -0.20697338162834128, -1.538343630236052, -0.10857068036721162, -0.31751005479507877, -0.1354149138867589, -0.8366801142730798, 0.6988672753711758, 0.28599998587626035, -1.7017313338586915, -1.1786352275312026, -1.6385095021219171]}, {"output_weights": [-1.8632037046091383, 2.2296767160710926, 1.0645001623337835, -0.10106573944200502, 1.5330265071430558, 1.5885595816292446, -2.51733070428795, -0.5500349376115119, -0.517096623695141, -0.3475693186055264, -0.39179537031878175, 0.45535635249807055, -0.2315809937617056, 0.9242337451968037, -0.3511858652040841, -1.372720276788933, 0.5945699888347769, -0.5868003628062735, 1.6784735408775682, 0.2264465043738557, 0.4501562321260355, 0.29477089483897784, 0.12320502526132997, 0.9526770217170093, 0.34652323007174257, -0.3601447271446795, 1.1896754244177816, 1.4317233120821096, -0.7436217801467527, 0.44704830046851707]}, {"output_weights": [-1.5981158905341586, 1.93705408401907, -0.8324318411005016, 0.42010742028166675, -1.0919844947189035, 0.5878534619159058, -0.14793254799867023, -0.4255262346857278, 1.3324074482743713, -0.8677455924700069, -2.123183796078839, -1.5498830063632287, -0.9658742034547563, 0.19055472786194594, -1.1081195645204163, -1.026622795292723, -1.801438569035892, -0.5901342307608962, 0.2208007595959717, -0.5638521703151862, -1.7867960057973278, -1.9171239291363362, -0.045151134092285224, 0.5711340411297959, 1.3874656544393638, -1.5097958109255836, 0.6168757472505034, -1.282897533730366, 0.1255357972371395, -0.3141880856034193]}, {"output_weights": [-0.3956248766886145, -1.5963908749217006, 0.7602776038468901, -0.08760799766559887, 0.5685334236521017, 0.9476977326377471, 1.2234982857161811, 0.8816748757615941, 0.6850881742664039, -1.4140154326950691, -0.078425418305896, 0.3216304483772092, 0.6803861426349785, -1.4141652697974463, 0.3501180003507013, 0.540967022958686, -0.037466661052226714, -0.5903434686309674, -0.5020544812876682, -0.2381246977554689, 0.5819034130576107, 1.4841713390854685, 0.9189906823442845, -0.7871069434516469, 1.5703940476116436, 1.0608660702487451, -0.4389220261225694, -1.8076026995196663, -0.3802481983656189, 0.8781054871691815]}, {"output_weights": [-0.7535978752873206, -0.6908530338624109, -0.41029694369340575, 1.612052212125505, 0.6137234952311871, -0.6291497488277815, -1.0003264288503915, -0.3032719940351943, 0.08768089404742449, 0.3552218442429186, 1.730826707096436, 1.4329849404987736, -0.025771461569434908, -0.6710837937659797, -0.06021183199674525, -1.41257752321073, 0.26237400808288647, -0.2749768032310938, -1.4852125744982043, 0.7818595261602014, -0.3857327474308847, 1.1607830780098591, 0.2717789403549921, 0.06037429450567108, 1.667152971559907, 0.4801941998354038, -2.4592878396982982, 0.3193089781916993, -1.6902285254037024, 0.06340709727624073]}, {"output_weights": [-0.8669427986081323, 1.080186415972704, -2.0234419252113796, 0.5874022706085436, -0.6984470458348798, 0.5539159113697226, 0.4351541060871942, -0.29479554630886284, -1.2541242935099688, 0.11700705263098514, 0.45366483764194787, -0.3065326979488368, 0.49005251340903255, 0.02187608784064621, 0.058729513193022886, 0.10929797919573311, 0.7492096762489114, 1.5922160102682188, -1.891777090695084, -1.3262435038581275, -0.41728991016719846, 0.39069148182700303, -1.0577965994027065, -1.340582821732934, 0.26048771590907804, -0.21980814404859586, 0.2890245262962883, 0.2166463945258382, -0.36010934730074, 0.4276411923924856]}, {"output_weights": [0.9599485007912865, 0.5205770877814972, -0.292304699797858, -1.9597474414542861, 1.0301068413325076, -1.08910252560001, 0.22390536438472955, 0.6870580606017549, -0.665239534399135, 1.7600209070468689, -0.6941460948657275, 1.370429761638016, -0.7605551952236016, 0.2789915729714331, -0.4501833520858267, 0.5030183090682485, 0.1593685115832346, -0.03167844796432354, 0.36863269472504173, -0.9776105451149787, -1.895173723389106, -0.5081207894728432, 0.059780262124763534, -0.5019934518536182, 1.3373309407959302, -0.1139678194639791, -1.6958176768237874, 0.865510707940265, -0.40296636014548265, -1.0492589280825895]}, {"output_weights": [0.40205024069863515, 1.6067491815797883, -0.029098101249133906, -0.6159422563705731, -1.643162906262612, -0.992285073311339, -0.3564456696958994, -0.2646179179866511, -2.0491698073520377, -0.9994027657599416, 0.045687726022624255, 0.5769535770720711, 0.7348083876694649, -0.9622517705304316, -0.4810269012707708, -0.4132970510223354, -0.23970304982167207, -1.3159814321291652, -0.8601340775893814, -1.077658096538997, 0.3686888316056673, -0.0528843596605521, -0.7923998245345011, 1.4237522484750367, -0.6017118613142173, 0.06482788852627737, -0.30615105184371, -0.8472976022743065, 0.17270415267584965, -2.0258124611810353]}, {"output_weights": [-0.4571120936226176, 0.16739232408110993, -0.5518398264043307, 0.09209632137534435, 1.1205843357127558, -1.4621854079649346, 0.07717275445062675, -0.9355506379133888, 0.5182846734392604, -1.1075993878273414, 0.4553774237588053, 0.8295204192020453, -0.842773263629276, 0.8652454223549112, -1.3693448892876348, 0.5251734998515811, 1.997897157214606, -1.1293236771075579, 0.2567604187508768, 0.013898074794912408, 0.8664126114561312, -1.2115582171721384, 0.7641146326349213, 1.201671986541702, -0.0357147147954545, 0.47565856397195316, -0.7930453271543303, -0.13513755497491645, 1.2323093036201185, 1.209285150965999]}, {"output_weights": [-0.7718366480816575, 0.41016819916315334, -0.3993318709835369, -0.4352883769072466, -1.2489455085018342, -0.7892320908198418, -1.7412162582102217, 3.2441194311448314, 0.2667964082954873, -0.4358937323556392, -0.6466344291383633, 0.37894872564567794, 0.7266429821127541, -0.07932851559049278, -0.5220112826318101, 3.841499774962024, 1.5139005972534534, -0.3965456593562606, 0.5361219929334616, -0.2916144544093303, 0.6657920990567665, -1.8808913463851382, -0.11407059569544685, -0.38147211091369915, 0.023199619517928743, -1.2661229386726074, -0.9252713821213394, 0.5516091234390131, -0.11802178871662379, 0.09576412133991284]}, {"output_weights": [-0.3511703393405435, 0.7796861983023219, -0.6813292430640981, 0.5807879174820475, 0.35733400879659705, -1.063104220678427, 1.2216102722056845, -0.16224355035682572, 0.16822995728421847, -0.05964068343799954, -1.3457876938544728, -0.6919477159866645, -1.1437581277543742, -1.0975357328697415, 0.40296434619519106, -0.1999480862253287, -0.09277126342711317, -0.44013521516106036, -0.0810992799022437, 1.847187770313651, -1.3632017415079218, -1.3994285129952926, -2.0385822182529125, 0.6902409274743931, -0.7425391708717997, -1.3774767177999012, -0.8564525027859846, -1.6381271590781274, -1.1721694151505724, 1.0677014079095577]}, {"output_weights": [0.035274469989315, -0.5059850320389052, 0.45014262037494296, 0.12237781213928113, -0.7721625174263551, -0.492812079872403, -0.29682279856632665, 1.8978085617186966, 0.6800804953553563, 1.702094987820109, -0.5045492864765754, 0.01969391625980753, -0.4617649918579774, 0.1007311169722167, -2.0445633879958827, -1.0877747666471882, 0.10968896191911776, -0.3037111483618335, -0.8364628522868015, -0.6626193946243479, -0.8593640140370543, -1.020571077027853, -0.37154907710964646, -0.14251115799199324, 0.9225166182110276, 0.5867506512776933, 1.347896107108986, 0.970595323025037, -0.1114698585149687, 0.6058410605311573]}, {"output_weights": [1.0120972856073973, 0.14937683266942506, 1.5208658868406228, -0.6519148683412833, -1.029611755252002, 0.9300004569940991, 1.9262736628238128, -1.0246200933135057, 1.838863032476254, 1.2589182343600764, 0.08275324652114693, 1.0987574091653483, 0.32153053296147716, -1.4727739508542816, 0.08085600323366418, 0.9349994757469265, -0.6385797509562511, 0.8041347403092624, 0.35201406875921276, 0.5648928885578092, -1.2574870726577547, -1.0475006918920733, 0.7480341814278813, -0.804007564900887, -1.3862230396479904, -1.4979424654317721, 0.8291794213402098, 0.06893782257951715, -1.985334769566698, 0.2997755816822151]}, {"output_weights": [0.24831433441410108, -2.769614940942727, -1.415821099519261, -0.18797852839189, 0.8495947681927217, 1.2332950599168777, -1.5181296143876202, 0.22916055126649443, -1.421174183119432, -0.07886178100193725, 0.9339583571415142, 0.41363844895071245, -1.2890260316452706, -1.4855202666352745, -0.9799016653463186, 0.72573658771512, 1.2890659468540093, -1.4134492486682422, 0.5210436538709835, 0.9229777353562768, 0.8291329710505011, -1.8606741898172516, -0.4838134526663844, 0.43558536473061005, 0.38243658415548454, 0.2588506418220963, -1.351558179197066, -3.2595016156380936, 2.2147600166268084, -0.10775645247725157]}, {"output_weights": [1.1300324341740364, -0.24174191803029832, 0.8083502498481206, -0.04914499410293658, 0.8177910555470912, -1.356186234804976, -0.4008717617570335, -0.3992216902594622, -1.1083067509215936, -1.5926807008655801, -1.391986159855771, -0.47039791627385646, -1.3865070984766905, -0.9589991584541686, 1.0947426712315118, -1.6702054093674006, -0.7274512279031988, 1.602301300995587, -0.1568154143488476, 1.1139612195574455, -0.6975294457333525, 2.858672956917589, -0.13896499942317514, -0.24258294788281967, 0.11373009403140803, 1.81902479377059, 1.1579003007562505, -0.8452945159142163, -0.2459816607628286, -0.4380388351338323]}, {"output_weights": [-0.5755910613165833, -0.6221360968490149, -0.40217925908243385, -0.13070030118605036, 0.5929663337531856, 1.553745965672754, 0.3858247094379926, 0.023281858850243305, -1.925390978679318, 0.6888397837435143, 0.6761102986299321, -0.5358417689739978, -0.058704503712641125, 0.22490767908494172, 0.2600236242488184, -0.7365898415229786, 0.7532377179245666, -0.4205899830975062, 0.40486098196582465, -0.2907070165821864, 3.3545919723062094, -0.262650955263475, 0.401027656660902, -1.245860600055723, 0.6644171353901115, -1.7414136543608167, 1.3950305092885746, -0.113903251864256, -1.1806653073653919, 0.9143492315747762]}, {"output_weights": [-0.6640678901093899, -1.0656099172880933, -0.7881405302824842, 0.08546288677354676, -0.4070514432849964, 0.6833643502974157, 0.7330734873490891, 0.49024107855469773, 0.25976874187859156, 1.5649416314974756, -0.17932294691573297, 2.224964737614244, 0.4911018760019781, 1.5826923573503546, -0.05082847387523184, -0.40283601670613617, 0.14768486419812532, 0.6091027063248429, 0.03746676277688082, -0.6065446673694757, 0.5245635689752619, -0.571886982926824, -0.725538271133204, -0.8684986161554007, -0.11488507924736513, 0.08044063884177854, 0.38065549638346985, 0.83728708563739, 1.0724395941846505, -0.011942724231407346]}, {"output_weights": [-0.8790294591742702, 1.3163857462465791, 0.6423230238567312, 0.411025624741303, 1.2238338797850676, 0.03134497947666719, 1.0100998561434862, -0.6257360983558782, -0.7795568649405167, -1.1215843958744556, 0.0595393048923207, 0.2950981433927508, 1.7245957218211525, -1.6781214438871916, -0.315292103853448, -0.13979781559272209, -0.7033699823384684, -0.8555976839607694, -0.5162191482477665, -0.05120616891798201, 0.9762587312081263, 1.4267678191415318, -1.5325184436545654, 1.1296208951503999, 2.1204553350205884, -1.8044073975176662, -0.012713215027809942, -0.024496281999085916, 0.3129392222265253, -0.32237638917611994]}, {"output_weights": [0.44985205971338366, 0.697961120676552, -0.022768990186964367, -2.0816401039423624, -1.1930231924629064, -0.7945254187125796, -0.07365530890325638, -0.5547117545815128, -0.6485423077202874, -0.7048067290336159, 0.011278531142957432, -0.15958168063335854, -1.0263225519290964, -0.5195957048491424, 2.303123190476646, -1.3765904510237996, 1.3989604859759557, 0.521213458992158, 1.0402835330036058, -2.3753314667069834, 0.034179192587747244, 0.02825774543544209, -0.997771800633436, 0.9713455063513445, -0.26763690778934907, -0.28920950170570364, 0.7286371350849256, -1.1190670792059902, 0.09940720717069086, 0.430229364711832]}, {"output_weights": [1.0894231107369514, 1.2199082975479125, 0.23629721202952678, 0.13412047855430984, 1.960329419088489, -0.949771644378036, 0.6395004799353131, 0.4646288546957162, -0.21782402023478922, -0.727940671624453, 2.2329679879519793, 0.9340205456675466, 2.921062025623184, -1.625768867544239, 0.02611758494273171, 0.25730416621195235, 3.025519090139694, 1.1433684332331306, 0.4584561893228449, 0.9705969682042618, 0.2249081022621574, -1.132100910674571, -0.7183035729865422, 2.31655094073853, 1.4124813879882452, -0.8663340779907708, 1.0289862428740835, 0.7029032248208538, -0.6522017054990449, 0.8620363275968139]}, {"output_weights": [-0.17388017029173886, 1.2165870921737072, -0.6311791507917793, -0.26807660915504755, -0.6730222885427323, -1.4633650599521144, -1.3374050631647936, 0.7241412557559288, 0.07481850724577901, 0.19620740046669694, -0.7463098952852987, -0.3353259098106525, 0.2924806747871867, -0.8153334333377349, 1.4030901668777092, -0.4902832600645506, -1.231060519959044, -0.43026715153939893, 0.07932429159271083, -0.43363470245853764, -1.234722192246273, -0.1432368459459042, -0.2654802271379637, 0.745937835896101, -0.3209534143622834, 1.3100376837908332, -0.4447372367517468, -0.16604694100543935, -0.3526225306146852, -0.694329665640726]}, {"output_weights": [-0.0024962979420265295, -0.8905331686845717, -0.4698505077587705, -2.0751684746492014, 0.3663391448309335, -0.38953707106531116, 0.9386514725830212, 0.35719557416515846, -0.2509645624097351, -0.8825504062656994, -0.7680115746737757, 0.9916977721428554, 0.33773235553383907, -0.4919932487471319, -1.299387751166039, 1.432629280732556, -0.7428344334232414, 1.03367144993745, 1.7518997369107827, -1.0969963661354525, 0.2215481754345971, -0.5502149037102527, 1.956876958585393, -0.7400711770683591, -0.4828259736668757, -1.4482038189892512, -1.2764532711158378, -0.6650850836361869, 0.6509178505933898, 0.13546400260350716]}, {"output_weights": [-0.3921775861185902, -0.9074274285911262, -0.2920640713329113, -0.6212385177767914, 0.279853902680646, -0.6422569770962804, -0.2183980254185427, 2.7941596641523008, 0.43039663471726386, -0.27815614557210167, -0.5035981138187989, -0.34818668637765676, 1.053227604470907, -0.7388058068448903, -0.39623641345047, 0.4125333673422056, 0.006698081571189707, 0.09396428406116963, 1.4407406047572284, -0.8881965945489995, 0.7791931970597661, 0.022124769445404698, 0.4898473570819992, 0.0810245089700253, 0.7586412707935782, 0.7656369581128606, -0.8333140823660713, -1.4762812804309045, -2.2880481208448717, -0.5827642764522233]}, {"output_weights": [-1.807124882261423, -0.5697493888511729, 0.624920853306533, 2.160465108441546, 3.4054422076712125, -0.553642196572904, 0.9401611183566444, 0.1809416190252627, 1.775443485144468, 1.0315218245119833, -0.6404784497953333, -1.8049555476163701, 1.0891535937824375, -1.3314615956015534, 1.188890723086003, 0.7970813948152289, -0.4213271879798869, -1.1749488551159297, 1.4415842658546283, -0.8282874305830421, -0.19339254259707184, 1.1636124673071828, 1.006821070427771, -1.0350740819419748, 2.1050549359808524, 0.11930154069793536, 0.3527501306709567, 0.7556753068374565, 0.025898773816875026, -0.9895335745538836]}, {"output_weights": [0.6946951169568278, 0.8284950256929035, 1.533771624349642, 0.3663491113617123, 1.1406835749826656, 0.766811808172482, 0.5717299732114779, -1.1931120663070445, 2.0407938336023816, 0.2059260866644573, 0.20221603321631915, 0.06584619563195912, 0.428739979023379, -0.6484483652381762, -2.1563049010111497, -0.4210849113753233, 0.13183222068776349, -0.43745758228505066, 0.354816000422861, -0.6478134203919883, 0.008554357450760774, 0.5157532687533667, -0.6814365566356061, -0.13034339015955146, 0.07102515288769326, 0.9946465221822611, -1.4037132406340966, 0.6649515037802185, -0.6333744379441477, -0.6462346757661896]}, {"output_weights": [-0.37185117028235115, 0.167037514533107, -0.5836662714774936, -0.5309725691024293, 0.4083291462397606, 0.4699686722706258, -1.419936141043477, -1.7039730080227058, -0.7627778057548438, 1.5472641906415547, -0.6936400905624694, -1.574727178604065, 0.3593663834521079, 0.47447308226735785, -0.44502694979535007, 0.19095562324604434, -0.5884643556566216, -2.3123141600651387, -0.8107195713111687, 2.2340721102608785, -0.2877054280059398, 0.9642409249344907, -0.39453038436307786, 1.5381298007122715, 0.29198913100583773, 0.8852784753923673, -0.9146960581763467, -1.1506840225004353, -1.149587417912598, 0.6306552383905716]}, {"output_weights": [-0.8577498078698664, 0.36633469228472826, -0.8401247373067855, -0.725095629888786, 0.4021926313121122, -0.5072054627579329, -0.4197766879520979, 0.2945912357268887, -0.8511440975700859, -1.0044485968067278, -0.3685066093262938, 0.09475482948596037, -2.082630092052943, 0.15769155826896275, 2.386472917521786, -1.310413582415827, -0.3998488266175054, -0.07586286514585618, -0.6583451314027365, -0.7286104961166625, -0.1172989561832406, -0.6081762343596143, 0.31294229364450593, 0.5985599021438675, 0.67974425006076, 0.5432752935468697, 1.137494556338941, -0.30635570899356174, 0.403034411602817, 0.8792733587305342]}, {"output_weights": [-1.0497319904039402, 0.08411132639478859, 2.8437747856342517, -0.5667991575255655, 1.2400847070762198, 1.4723435886548935, 0.305053206917065, 0.22577936068236062, 0.6779291147452973, 1.3704860629927968, -0.30553072707447815, -1.5409670401809432, 2.0989371958253704, -1.0769368589408868, 2.2279566082543445, -0.3202179155065511, -1.1561522488875644, 0.32043196589913603, 1.0182868023499596, 0.5212024616221264, -0.6240094755430291, -1.2906951643793372, 0.26406625432758407, -1.2163893783682307, 0.9733904422386028, 0.8506372149336971, 0.5261500581897334, -0.11974675737561796, -0.4139597200256636, 0.4157563117203428]}, {"output_weights": [-0.5289996993856764, -1.9044720504226988, -1.2204552871260208, 0.4580475719902328, 0.0027142718867333823, -0.08113189626109928, 0.7752708120432774, -0.5658116749176224, 1.0644097588500547, 2.235238248824091, 1.3055624611938916, -0.4578999512787515, 0.5394030419190926, -3.3976664946214736, -0.20721962732140758, 1.1894664071292658, -0.5619440022896821, -0.6698443419510469, 1.0811622669159322, 1.8707720256212113, 0.3931170100934339, -0.359889936867003, 1.2586965327343038, -0.8270558572751564, 0.6179988483996125, 0.6279253559122167, -0.5748462503402962, 0.4998981396737729, -1.3160951747602005, -1.4364242797410296]}, {"output_weights": [0.21105656109104945, -0.22402591691717844, 1.1595303783722877, -0.849879772250397, 1.234120663638333, 1.7714881302283467, 0.29673826835448974, 0.47885072215571234, -1.6924666622319824, -0.42459198542572263, 1.1284677298160972, -0.2551887444169802, 1.6863963830054827, -0.3866939188207341, 0.6095909597476686, 0.629567023026303, 1.4709608789941526, -1.2309463503078282, -1.4517306134097818, -0.06755217557669235, 0.5507598960259799, 0.41220794107685893, 0.8038119845980296, 0.8213084359925394, -0.2863765713287983, 0.7478371861479951, 0.9398787708984735, 0.6222180568022426, 0.1200151755558448, 1.3711424645132801]}, {"output_weights": [0.17967565658257448, -0.8703030325577733, -0.3121183137951258, 0.03161344898191008, -0.317976973832698, -0.4580859544538589, 0.4610651582581511, 0.4695996554483293, -0.3602756331830194, 1.0618416704764133, 0.019143581896907267, -1.0172922422127049, 1.6708383959141677, 0.20884258337602227, 0.30294797535785306, 0.014770395282610324, -0.03275612519680458, 1.3594973053477837, 2.078264661226492, 1.2248164558927284, 0.7586283301230129, -1.865288933972621, -2.3146135869153808, -0.20292594837198719, 1.0177093441854095, -0.3855045959639412, -0.12166245665854553, -0.08392071894357962, -1.559305647884446, -1.7782533209064517]}, {"output_weights": [-0.04241976299911093, -0.6426776484307627, 1.0534325987565618, 2.0244879392983166, -0.14777312634841383, 1.4600889153620842, -0.22113428877521452, 1.139007774663289, -0.8313120688355103, -1.2610059343528426, 0.31706140084006984, 0.8740569688120295, 1.1174554045281335, -0.031904213723832855, -0.17824681295148853, 2.5310810166585083, -0.4120879029607496, -0.6792753411291973, 0.5200435737493775, 0.25196614217686775, -0.34254552338606425, -1.6629653751785154, 0.5524171683198402, -0.42688939676296367, 0.05549397538682786, 0.8099353724947813, -0.7041333824758814, 0.26405509536572097, 1.939936513718502, -0.31325881062018646]}, {"output_weights": [0.26470445303895407, 0.4395364425530158, 1.4777128540502653, 0.9850576552721191, 0.891201072554143, 0.45114924027572023, -1.436309772030523, -1.2176142116456936, -1.1152789100499647, -1.2865556951858337, -0.32611754563958734, -0.9954192231910534, 0.11955100867910451, -0.2787345830981398, -0.7930467822602768, 1.2062206720092161, -1.0673378808019496, -1.9734882543889285, -0.8999361625742841, 0.7316823846632161, 1.6891414263261193, -1.1790400879687009, 1.2252642277666475, 0.8464254234104072, 0.9469447065188763, -0.6500627803524966, -0.6016366793603767, -0.5320287306264418, -2.1675189048876824, 1.7949811040352206]}, {"output_weights": [1.1210891552700493, 0.1927351889257517, -1.2457575069563405, -1.0257865822564574, -0.3315172626214653, -0.047112408131828536, -0.09770462488765994, 0.8340026925008939, -1.025538626985319, -0.47402663617945784, -1.805926571610599, 0.4805528612401483, 0.36907179407822205, 0.5348275293293123, -0.1182295510902887, 0.17497612072868968, 0.22643271487189498, -2.308763894912607, 0.24879288154506932, -0.7472963074390989, -1.1600735213233964, 1.2355637426249597, -1.3625709404906667, 0.30855945803136364, -0.19135233368720755, -0.32054532447714607, 0.8559310480475435, 0.8598429929452307, 0.8433923983796344, 0.0638513182656558]}, {"output_weights": [0.9429907768994018, 1.2898169132471484, -0.5370408826190317, 1.4468356193147718, -0.3607452938620386, -1.3510521871606456, 2.7462954849389267, 0.10313952844650086, -0.3568359573572809, -0.17861666389172068, -0.4855409237947889, 0.7178296345635261, 0.3211525374568595, 0.3269955062005893, -1.1919375324875419, -0.5684569703405956, 0.28467381681740145, 1.31561127236538, 0.637396636520354, 0.77841463407473, 0.9433149262162759, -1.0921249079910107, -0.39343361718610786, 0.19072935712104147, 0.6672727564767053, -0.4946657571601352, -0.3464592943713085, 0.1627315941564777, -0.42795926520222966, 0.13312028364906453]}, {"output_weights": [0.8628512759752008, -0.09466572807225763, 0.5359582960767311, 0.3063786960455199, -0.4514148892776917, -0.5894093288119446, -0.15825767305519842, -1.0809052215546913, -0.11779631192633977, -1.2517122190912886, 1.1453625004386272, -2.4699603448533574, 1.6147246702688223, 1.9111218172726385, -0.6912510671062302, 1.0056466866039797, -0.4298629910205419, -0.4575939992513207, -0.8308425154116083, 0.08587831874971341, -0.27360822880044566, 0.5820771115891362, 0.7341672982533992, -0.20054645081790334, -0.9917734182663867, 0.5521653010127293, 0.38356630241064066, -0.06110130965175943, 0.06472241068707076, 1.4247184138330973]}, {"output_weights": [-0.40635199997437826, -0.21176023789435652, 1.108824936922185, -3.45260316337317, 0.46560579285854886, 0.38374434475662095, 0.10227197921794488, 1.1816666452410778, 1.8490550659369063, 0.5856504344760508, 0.3704969893551682, -1.8090746576322907, 0.13992388719211127, 0.8005634168317411, -1.18441708160709, -2.0082819809069608, 1.5104391658065728, 0.3597912017973833, 1.3607823741357044, -0.5568021993623674, -0.30369661877238646, 0.6683573732816923, -0.38111969611740454, 1.841637354439002, 0.9116473600773506, -0.4934858539216205, -0.8705391970125281, -1.0476993723129562, 1.736050379723503, 1.2141841822923913]}, {"output_weights": [-0.21004650348720585, -0.5409995009920224, -0.43422265979447816, -0.3123275947823879, 0.5432989059839965, 1.7847381653999612, 0.8062856048691659, -0.21503872999982962, 0.7636398155407004, 1.2110406522852133, 1.047813806031769, -0.20935526337493363, -0.2099606904136267, 0.6076607441308994, 0.9784793277008954, -2.1849237892318643, -0.5238238504806798, -1.052711123586354, -0.39427339442707865, 0.15236254082175787, 1.1488220180236715, -0.10034247045015598, -0.8658861280446211, -2.0673034881694563, -0.2680576091489946, 1.6621740241942515, -0.5165582675491731, 0.8368227966329234, -0.4666822282752496, 0.6262156134399812]}, {"output_weights": [-0.10418224393746563, 0.6436023618777866, 0.05071484046631015, -1.7584024305389852, -0.6512367293818068, 0.0005662117185248691, 0.3077980538817137, 0.9923620565929667, -0.5873563447374579, -2.620564269931186, 0.21321667933000177, -0.4880720703587895, -1.5364692841389578, -0.5130205887611099, -0.9105888564371442, 0.9313788188731174, 0.2442288545708226, 0.517851115251496, 0.05293804417121096, 1.0090777993586915, -0.37932722806828123, 0.10565751684251781, -0.7362516193988902, -1.4248604061937469, 0.46063634114229296, -0.5884902288589742, -0.7083674992249028, 0.6460492236288635, 0.005703273668195288, -0.5138381367461466]}, {"output_weights": [-0.16279989923616728, -2.069203966210296, -0.20916774726856963, 0.5596429086899476, -0.27963683088689095, 0.11358799414914968, -1.0498523171051635, 0.7328046882186322, 0.07515202439321027, -0.3538568756354192, -0.14184518709805088, -1.014445122674434, 0.07405106250069274, -0.20271459282410434, 0.8545123563296871, 1.0821392607032418, 0.031073965669138174, 0.7025102273751875, -0.17281684952957435, -1.2085382091056198, -0.6033376656911111, 0.9572110693077154, 1.6533756278868885, -0.6034762819640167, 0.40069685910144553, -1.8208457470917452, -0.8996596630084511, 0.4992180186575831, 0.26418453394403335, -0.2555448835017479]}, {"output_weights": [-0.5062842560790627, 0.9461318153401939, -2.2231628576111273, -0.7428962771447976, 1.814229675987877, 0.1760469095988973, -0.32332811322870514, -1.681410327011521, 0.8727846622339481, 1.232427779553885, 0.2289404287208315, 0.9108802866032755, -0.6271520419859402, 0.9163678788605852, -1.1271515959539111, -0.2508796260077279, 0.47221852458508706, -0.006982938828063637, -0.14725444760975384, 0.47545270366596576, -0.5571753108041874, 1.1646583443026517, -1.4933951170629296, 0.9948030133038765, -0.7437187293243235, 0.8529318689006955, 0.9629523578336285, 0.6950284661881592, 0.18526002431277036, -0.9196802539495103]}, {"output_weights": [-0.11263868639192197, 1.9941960618853884, -1.2627238126427096, -0.21169389121419038, -0.8724577447561559, 0.40904138157826175, -1.0154692561336087, 0.8054632155349248, -0.9368574910164007, -0.11973462190029364, -0.7040263271438943, 0.3489618331943984, 1.2469940675029283, -0.6081441089314046, -0.034231892199678135, 1.6053192835577696, -0.8893909118361926, 2.026114081218551, -0.5203498010476947, -0.6664775714122505, -1.1584010142792898, 0.08312503609328296, 0.7895669138700847, 0.04062383692750839, -0.8083612115722446, 0.5922453166953409, 1.2221611253352767, -0.33139152084991746, -0.04006866631589254, 0.22209174118439165]}, {"output_weights": [-1.1358197669739285, -0.7088750386008063, -0.004900544923095168, -0.5872530458007557, -0.731260625992324, -0.22326804996030641, 1.6612417276027838, -0.15624900717682255, 1.0943843717827784, -0.6409760993028499, 0.9614030046598314, 0.8363752510099776, 1.890911161719372, 0.5442527211246548, -1.535409112668593, -1.4809873312295176, -2.281388340810303, -1.9542877260121219, -0.3311805981008414, -0.16287627093888737, 0.05277650819571576, -0.5871834673148479, -0.13764620823307544, 1.2646767805895103, -0.7399433157478886, 0.8544886442156483, 1.2563749839114575, 0.2793044377781605, -0.6850630186790813, 0.07164320705809976]}, {"output_weights": [-0.04610386955431581, 0.6754087798994126, -0.8000315647830795, -1.0854261254056037, 0.5539975685943519, 0.003754303266621056, 1.6248588920024163, 1.1927204530356401, 0.9298150883780871, 0.5666111476025487, -2.7221661712319993, -0.4514351821385498, 1.7050731186225756, 0.29473409097606695, 0.7271661558301656, -0.7681479523700349, -0.4936900258105841, 0.35628916637383223, 0.4618916846384248, 0.15639004198975492, -1.7282269047230867, -0.27523601437849293, -0.5151533123389312, 0.29736942919631043, 0.19942490400804974, -1.0848377491488044, -1.7222782565210972, 0.5333756270796616, 0.4938445577721465, -1.2717302774557624]}, {"output_weights": [-1.6186127653457196, -0.045259298338072074, -1.1008028917762154, -0.6580981534861627, -0.45507970916611257, 0.8869827660823102, -1.272704654209317, -1.2199896934549823, 0.04595714115589016, 1.7760518343392255, -0.008055910999955763, -0.9768636698424455, 1.4872811296613901, 0.7868102930102179, -1.4487295485003475, 0.1347843499668042, -0.01699938370464425, 0.5272980471501416, 0.061585723529242714, -0.32751037281717377, -0.34816700764481223, 0.4298899048215016, 1.942097846805217, -1.6361876677471223, 0.8394916298271401, -0.6997978816470545, 0.914009934470095, -0.965865527338202, -0.45465551056485354, 2.1083118677378487]}, {"output_weights": [-0.27741032574654095, 0.7695785462416342, -0.8520333793797866, 0.4219523392676027, 1.0439805735073322, 1.6022304027765553, 0.6190820140578817, -0.8698796952592781, 1.292977364303608, -1.1206923437798473, 0.3126180312644865, 0.3300777198266778, -0.5741406700871733, 0.47232698464307427, -2.0201423530642, -0.9983655181724177, 0.840961620960852, -2.219610912746448, 0.04827118608292764, -0.715078606895347, -1.1802873372439069, 0.8097390998596895, 0.8672870862788697, 0.9715376217270799, 1.428669330148691, -1.0135081504759629, 0.5644356046364793, -2.226711221952673, -1.270471197654947, -1.8378768880265384]}, {"output_weights": [0.30855377708436393, -1.3861461114548483, -1.2927538235023528, 0.8611634400982773, 0.2160319712843799, 2.895054730275582, 1.8005050052037401, 0.5570545000136444, -0.03157100291620201, 1.548092809678277, 0.9117336156243694, 0.7973289415917396, -0.4478910948036161, 1.0750996471440992, -1.084487882787424, 1.8310690625963713, 0.7281118499802063, -1.2950223681787791, -0.7975429063974524, 1.5526353468879672, 0.7581913752364887, 1.4446624577028224, -0.11113851263263565, -0.38868064761916, -0.610582746817137, 0.2594695056281819, -1.2411548960089136, 1.0877309980029974, 0.9287661559353209, -0.704313926418338]}, {"output_weights": [-0.8516774541486652, -1.0397516583413284, 1.1366706346086608, 0.33508501165032084, 1.3036400491446167, 2.106186631214925, -1.309989724123231, -0.09218207040719034, 0.6371219032633059, -1.8080115978342357, -0.28513681886871456, 1.2137385947943908, -0.40874366892201447, 0.08837485223753774, 0.15827144842022906, 0.6986334135027719, -1.0159987318811319, 0.152111090276297, 0.7854282712240711, -0.8009890859806582, 0.9939704058833108, -0.21492121885099577, -0.8028295896887062, 1.410457924814477, -0.6157496795551274, 0.5610160730776391, -1.0051862141755188, 0.500810079938615, -0.030435990713323584, 0.0340157282508343]}, {"output_weights": [-0.7390355174989401, 1.4973951862425048, 0.4389766688209765, 0.9490057524495896, 0.3544755157127189, -2.4488344372581117, 0.8838581054134439, -0.5141099385870583, -0.4686206083627833, -2.783770369203155, -0.21447319589360406, -1.0473451772648645, -1.3224969038528263, 0.8193537211384201, -0.04778486959082716, 1.0392549373490072, 2.199449802082387, -1.9828336989674342, -0.7969225535910711, 0.1758167964024127, 0.31318923888119227, 0.9823510826257024, -0.5731276420597381, 1.0039399498906965, 1.2418663975813637, -0.3479308153301832, 0.30917210934164946, -0.023990747396817714, -0.43257352124125414, -1.0880891108974315]}, {"output_weights": [-1.0814857491570036, -1.1020399304718695, -0.7217157455937276, 1.8691722631471877, 1.7388043018132169, 0.14605231197544308, 2.8433298254809745, -0.5122753254150226, -0.8955672363763832, -1.647383803253733, -0.5294381891168753, 0.3028779704154052, -1.622117449580285, 0.868276491341415, 0.9124804743686036, -0.7620443560839025, 1.6495807440613932, 0.78818590130428, 0.6585518556198066, 0.06680649124910892, 0.133635829347277, 1.73088232752979, 0.3815724040531738, -0.19967911556403062, -0.31381030040111546, 0.582162856079027, -2.107511768151703, -0.018105564413898673, 0.10624092319716144, -0.8331607109777643]}, {"output_weights": [0.6399257604191869, -0.7675596436927957, 1.287891364674959, 0.7815682308337076, 0.2338982210156456, -0.9523996788861904, -1.8094144014782214, -0.07626164390650086, 0.8444231025104906, 0.1678627202195849, -0.5717951764775671, 0.7851517009636204, -1.0146668153818168, -1.3196280126144573, -1.1155340771554325, 0.47531030603811425, -1.1535941259929385, -0.04966521602407295, -0.4932882447458432, -0.45305195666971027, -0.48055398250704745, -2.831959953120095, 0.1777587029164918, -1.433379270210747, -0.7625614929466675, -0.2801505606214576, 0.3832044283029954, -0.29490584384778495, 0.5599047358593203, 1.1647194962029375]}, {"output_weights": [-0.7956962094763168, 0.8968172027579748, -0.5303075463508616, 0.7782533032075301, -0.5628583326756024, 1.4107731960724659, 0.24454809490236282, 1.5555607260564654, -0.8019232597557588, 1.6143064674853482, -0.1522666428513371, 2.3159153204416456, -1.5918600875318132, 0.1121868737925534, 0.23994997555025246, 0.48583516692491624, -0.5627866666978659, 0.22278347547788743, -0.6199420007786, 0.7942901964608027, 0.7666589184287151, -0.9781420098100724, 0.14835288252888007, 0.12197998709572694, 0.4993697668768813, 0.9292330994490937, 3.1524002817382106, 0.7026276715881591, -1.7338496420428986, -0.4241230949887743]}, {"output_weights": [0.7151035120598135, 0.8624564594415943, 1.3593042774577047, -0.6320721257398727, -0.5508881305940349, -0.39876892175880774, -1.34137086213427, -0.34611284545786447, -0.4687850146188436, -0.916200069588665, -0.09202873053649713, 1.0570154032428505, 0.6940458381501491, -0.5909736576195987, -0.9667239267012612, -1.15778796193861, -1.4783720748698952, 0.2354597206499449, 1.4260003815996047, 1.640869995200383, -0.6547290297251038, 1.2178572619963337, -0.38734565596141857, 0.2453876387791996, 0.7400221021872121, 0.17469616617686304, -1.0632076567791537, 0.7443281335989353, 0.256988223035761, 1.084227150760673]}, {"output_weights": [1.5316210670483645, 1.7762242533968258, -0.09833326085370192, 0.9401405264667527, -0.2120085180153185, 0.1275100281022855, 0.5545453353594175, -1.6020859702413712, -0.8686224141501458, 0.5745604806242891, 0.7889821412149794, 0.28504902263612225, 1.7505778750382992, -1.6037809933402758, -0.045315841604424326, -0.455747577831895, 0.9859386923268547, 0.6757454124313031, 0.25432796302071964, 0.17833570952024844, 1.4934084956001155, 0.9373301688423475, -0.2114345870280843, 1.2592952070418322, -0.7466146774224893, -0.8496860890938881, 0.3581071336128824, 0.4866445160631584, -1.3666411961801963, -0.031339622509902944]}, {"output_weights": [-0.8163355067612595, -1.1598567748441622, -0.22601354269762877, 1.2123472345387964, -0.799440239419876, 1.3296473383499419, 1.079338485592894, 0.3924777406546158, -1.4463517031793993, -0.626453733800163, 0.5319138139264128, -0.018458319346068258, -0.24160891109270496, -0.8484294287929941, 1.4247171309735065, 1.5385508997825534, 0.5566305619052138, 1.4226954059603594, -0.44683258005017656, -1.5070163405266734, -1.108318529403427, -0.044867787010472636, -2.8643017695362203, 1.1953845990425365, 0.5004659079607787, 1.7488565420838447, -0.5259551335629432, -1.0486783185604287, -0.7522159605151055, 1.9960680699063496]}, {"output_weights": [0.7562945347731739, -0.7898714328161118, 0.26850316972012966, -0.3916938143217272, -0.0657580143342362, -0.05016999487413687, 0.5655618984844675, -0.7497955456634017, 1.69752192114057, -1.3548787990009903, -0.38240159736937956, -1.6102770206800143, 0.00984286586913381, -1.4704756968886388, 1.0790387719403893, 0.04954280430072416, 0.8307270302294288, -0.004262684942879141, 0.467536879508498, 0.9051049894836845, 2.009711851780026, 0.8110705520368466, 0.06118821765216416, -0.5729601866694484, -0.923311803154108, 1.1155062656354031, 0.18559778353384224, -1.902999566713771, 1.253311850074094, 2.427858053353866]}, {"output_weights": [-0.3248945463629817, 0.02061397557261001, -0.2653845112692902, -0.731781632322213, 0.10559924830859312, -0.3063494997851477, 1.1810364275701648, -0.10431159883497212, -1.084848444287346, -0.16509570700745932, -0.7061869102669708, 1.153209644534578, 0.6104102536942732, 0.4890456455080708, -0.03691709157993403, -1.5841791212524834, -0.5129385670222986, -1.638597612084366, 0.7556400947027113, 0.33418232817527715, -0.31307790563121035, -1.1008433680720666, 0.6569928271906316, -0.9374777410827697, -0.047421898614082636, 0.16515010167783706, 1.305399391031187, -0.6438815894578583, 1.260515046851712, -0.754026034258996]}, {"output_weights": [0.5262869494427408, 0.7499504826638382, 0.09684919249805507, 0.008218732340578934, -0.9315735887158476, 0.8297708083241015, -0.10229483472382109, -2.212518651797282, -0.4671983875019024, 0.334067679288547, -0.5550648566086714, 1.9991431031324327, 1.231480115227927, 0.9074062823739469, 1.1586955798233067, 0.9418201525031272, -0.324685657231521, 3.9659129396738373, 0.5326717179452903, -0.39266965015150057, 1.5186863819100966, 1.049360804719106, -0.16087301562898612, 0.5033875415557605, 0.11198722132287456, -1.3486522417502975, -1.1890960787165377, 0.7065194624381413, 0.05624223420653838, -0.9375775175199197]}, {"output_weights": [-0.3729811022512984, -0.46487168449624006, 0.5575927342200254, 1.0895147798268434, 0.3048557502229253, 2.4474250338876176, 0.1292117849938353, -0.2589329289459848, -1.5375346263467984, 0.6460064071628986, -1.3178130418267944, 1.330597140745181, 0.26198802738264365, 0.8957845709177713, -0.40963019807150197, -2.889927558653257, 0.4969969463017422, 0.793615914222909, 0.045440905113019285, 1.105053946319038, 0.4442795046617338, -1.8990348556110699, 0.854332182593707, 1.2443574032758231, 0.22990547584545415, 0.24471644878666762, -1.3558360222325614, -0.7570325093791085, -0.5510706483324017, 0.8408942349630065]}, {"output_weights": [-0.30660442138396504, 0.9659388455821103, -1.3937432408505286, 0.02479241382110724, 0.2458137507663154, 0.6175233546295568, 0.3877047464951768, -1.5258019455779859, 0.4698504675709892, -1.1390332753168975, 2.121004023127337, 2.187244532022759, 0.53265389330492, 0.20039043550227534, 1.7742185755930189, -0.5915125095685559, -0.04561288820406821, -0.48584309955905297, -1.0224200910400614, 0.24314931913701524, 0.44422759206334517, -1.2517080842939188, 2.1583795114757844, 0.3601650681830008, -1.8355148434956894, 0.3581133041243457, -0.021361229379343517, 0.316382469248949, 1.925742453921528, 0.27386956562427966]}, {"output_weights": [-2.183995018646139, -0.1045286535913691, -0.08988350060913286, 0.23063651999343834, -0.46280628529326945, -0.10197426489168981, -0.3555158132666891, -1.727517333026739, 2.4496606234094775, -0.9276312411636848, -0.37822581368705993, -1.8142408263805676, -1.5152748351652423, -1.7076642578201442, -0.4067451534784862, -0.7234065738447729, 0.12473813571119442, 0.8603358563490369, 1.345347571375812, -0.09765413930567234, 0.08432323945640813, -0.7252511945298522, 1.4357556880077942, -0.7921056852911186, -0.9135142083283024, -0.457784352654854, 0.8369250951188965, 2.2200249911242356, -2.727171053614537, 0.24789436953349794]}, {"output_weights": [1.8771311510587978, 0.28574126944252504, 0.031585723568280745, -0.9379093022419911, 0.12752843796444796, -0.04949684072341295, -1.9886676729478954, 0.276936636423007, -0.45990773144371827, -1.147618611610114, 0.8484302997395042, -0.1467595489403123, -0.18542369850631996, 0.028730233162751122, 1.1877492251653217, 1.170063468605764, -1.9716248495264803, 0.8537157749024286, 0.6966499520679087, 0.40218854771778023, -0.9269416306286914, -3.061331896694106, -1.2267161986362893, -1.1111152041146881, -0.12842429736664895, 0.40728262302308066, 0.2352711220120481, -1.422014861047812, -1.3096229359470188, -0.18871060933102698]}, {"output_weights": [1.3244741611868118, 0.19913812933625494, 1.2605987530652094, -0.008768987528935802, -0.40576513273027065, 0.9741925820604088, -0.1872231777247847, -0.6414283010143657, 0.13630672697717394, 1.3895347870452828, -0.5911827611227656, 1.7979686963946837, -0.22209083001671917, 0.17156023219453873, -1.2400717493823228, -0.67090966262394, -1.656476541249334, 0.8156220562415896, -0.42970684965295103, -0.9901580834675512, -0.05646219828901514, 1.275978727293033, -1.058508746394802, 0.3013235325399924, -0.49328560907957303, -0.1438508037950816, 0.5190104059905543, -0.4071887144342921, -3.105493422574884e-07, -0.30133422134802446]}, {"output_weights": [0.23515689414124552, -1.1627001234194578, 0.9053773811011728, -1.6428109995936138, -0.02981167881828783, 1.3337609319260209, 0.5420806993267868, -0.7133073018390339, -0.8006058481519264, 1.7823383817065597, 0.10916953755578326, 1.0450499861961366, 0.8913517883966473, -0.4492925533551039, -0.6726093564478701, 0.6075118638918775, -1.1270284652442322, -1.4277504618010683, -0.3778636733544488, -1.5697582298425306, -0.9121050590950558, 0.43009687700200705, 0.410310186998743, -1.4155968957012242, -1.3333435790791164, 1.1556759719865735, 0.7402699917694984, 1.7904707555907917, -0.6795495399195831, 2.038697776588403]}, {"output_weights": [-0.8639959701092619, 2.477445395013299, -0.9617115444856745, -1.5312928625317617, -2.4020033016584006, 0.8470963464536946, -0.20988549385310654, -1.113221052095624, 1.0589143966821715, -0.5913200854148325, 1.7507335078353812, -2.7709551638067635, -1.1534581932314245, 0.17810729714177392, -0.32202909110852457, -2.1416086728465413, -0.8270846459540309, -1.2729693569868277, -1.071972368051466, -1.1029363468779183, 0.8304906279762201, -1.1487067606184014, -0.3574252565187317, 0.5330417630277569, 0.2482034583542896, 0.09386637418663711, -0.6586132158251932, 2.2589119667273017, -0.621579370808775, 1.0119387432842315]}, {"output_weights": [-0.6976492747649395, 0.5204258939280585, -0.2399280967688534, -1.409091973353975, -1.416229714382038, -0.10084975678029114, -0.019410538032769657, 0.4988685553704231, 1.4930426306125597, 1.2258686146329993, 0.4538477974358839, 1.328608406798669, 1.177733749889798, -2.667127530197594, -0.6103698328774708, -0.45745517127629315, -1.5946978009054775, -1.3074430279699525, 1.2684686126189533, -0.9968984339813105, -0.27056194959849406, 1.6385658510221082, 0.9490659239721355, -0.6422111542861995, -0.2515108997931177, -0.21661464935762553, 1.1979426761305512, 0.8250800274501693, -0.2285019809435387, 0.46245344193764587]}, {"output_weights": [-0.6623835366746103, -0.014079339964477506, -0.3796709033390506, 0.44181377123436455, 0.8188242446503243, -0.653501833614196, -2.220098981795853, -0.7520793381258215, -0.6025207476080914, -0.7299900010709552, 0.045682930948173495, -1.6843000534256063, -0.7519253292959744, 0.7375810743681913, 0.27090082234553325, -2.313362460148124, 0.5883967112958732, 0.03450037644288969, -0.5876921373875655, 0.9390242332152299, -1.7050985111089916, -0.2398368765908775, 0.01887354576343618, -1.23738419612746, 0.9310941896146765, 1.8822851583759412, 0.7834430390963529, 1.174457783300193, 1.1941375640453693, -0.051742859264960625]}, {"output_weights": [0.842291572159463, -1.04566411523909, 1.4198959451840707, -0.29979092066606067, 0.6145245057681563, -1.1740888041874933, -0.03918895185465587, -1.0095310543962317, -0.17492595611757777, -0.44827591466126965, 0.44691843847051077, 0.47234278080066106, 0.7708906987484164, -0.21843375033882406, 0.010436830678820204, 0.1434021699074442, 0.6217451005023967, 0.3633162952122107, 1.8008409511300572, -0.5404873993483721, -0.3445730799444412, 0.7708460030665171, 2.3003164794404, -0.6401279757221284, -0.5915765445811327, 0.8594882369334266, 2.108942211280398, 0.6757892891243353, 1.218555529696484, 0.4463285638475879]}, {"output_weights": [0.5727125767073118, 0.9968688996899335, 0.132025624028097, 0.7146140402279556, 0.9637059825942782, 1.0149998799719027, 0.4859234709511522, 0.19514144379277332, 0.9528640266664792, 1.0462982109103127, -0.36156370815797584, -1.4654440717653228, 0.8434467611552916, -0.167828451123269, -0.9903805828915865, 1.1759840089875646, 1.0060463328587994, 1.7475452415886281, 0.8928607882692355, 0.8464110028712148, -1.8252238861645782, 0.01851857465305246, -0.06330745771669431, -0.8272508555009566, 0.7996576671276503, -0.01245038380817036, 1.2697451978876126, 0.48467146623304497, 1.3143883470982636, 0.6332096367357039]}, {"output_weights": [-1.0055195946011124, -0.556918373996515, 1.7315945760519094, 1.1032426983012673, 0.44661697637207387, 0.5203552777940861, -0.8994015573646116, 0.1253209900499957, -0.2512677526314675, -1.4316165354433972, -1.1859961483565387, -0.1697035626566728, 0.5487504787688396, -0.48477278325775547, 0.28519871534184366, -1.7453114197305608, -2.0909649841988225, 1.7058217662925945, -2.1908644925771976, -0.014685637272739882, 0.6544799413946638, -0.21775894793719902, -0.6272046285244256, -1.4735932937316383, -0.2604037039603235, -0.5093533011204011, 1.5855710251337598, 0.40239759531878855, -1.0300242068640417, 0.9048167802658506]}, {"output_weights": [0.2873314986938231, -0.3370921843684679, -1.3249768427162087, -1.6637791712821524, -0.10473506694946291, 0.37755387579248134, 0.3548381361615617, -0.9206499582349327, -2.208833082365653, 0.08115516129128696, -1.6123409522293368, 0.14036971193704528, 1.4595728817424967, -0.20946405818372482, -0.08453536749745907, -0.9694317761923509, 0.5604043632189818, -0.920614200988283, -0.48720567366532685, 1.547981440484328, -0.0773085998004462, -0.7308815212458086, 0.8564879806933716, 1.4594677597792836, 0.28249787244460717, -1.3285744873526029, -0.41087400956189174, -1.567475588237951, -0.38888174501512046, -0.7850509515875551]}, {"output_weights": [-0.6305676964389527, -0.4786016687615948, -0.07002314207726992, 0.5027910839405342, -2.3902250409379886, -1.0586397015865583, -0.5769543555038502, 0.9247249197703011, 0.4450382203887544, 0.9731956661521659, -1.002491869428662, -0.5004975434632832, 0.18000890541536058, 1.021846303824894, -1.4905299600104782, -0.5166543566115523, 1.4555662125192517, 1.1149105877658778, 0.8256951011822377, -0.7153797276021944, 0.053867444239986635, -0.3036808844856536, -1.0024661978386036, -0.38121938663953536, 0.9420107330870631, 1.1526752177430928, 2.2173222316861705, -0.600357929735864, 0.7433163795784686, -2.0629036236341007]}, {"output_weights": [-2.252103772100324, 1.13575030351792, 0.7315936233076175, -0.7179953833574462, 0.4182090730063564, 0.0308435340123854, 2.2202335663332287, -1.0804239568551206, 0.8302841130192476, 1.5256671300343683, -0.40610538815342423, 0.7840148453888025, -0.7373760534077858, 0.5681466424055187, 0.28775684174698024, 1.9265467056017047, -1.5119164677581336, -0.9350299131976036, -0.40064943081551346, -0.03073350253128185, -0.9947245186996069, 0.5172850620144045, -1.0497179376170656, 0.01266879090433675, 0.27262466347836606, -1.7383121516457318, -1.6686201245298884, 1.0468358821793344, -0.3528106646823503, 0.4982499204422491]}, {"output_weights": [0.13424455132237326, 1.4407507330528637, 0.7770020528879599, -1.2213478903281736, -0.0742141842876495, 0.8807920216339287, 0.1453087704813888, -0.6810092993313808, 0.9134761504984874, -0.11394172809175399, 0.05611956136079886, 0.014034887529069385, 1.306661266368197, 1.283911313261896, 0.8890487749077493, 0.06488174761716257, -0.9827358519724999, 1.174734491818261, -0.5247753650274481, -0.1611009917672412, -0.8860382225572754, -1.0481263060297616, -0.27197265193453923, -0.17992533800678237, -0.7179038757905926, 1.164166971803774, -0.47273937897310003, 0.11327636241429645, -1.92834330662587, -0.09769637465172415]}, {"output_weights": [-0.2586143061835176, -0.5196192066100634, -0.21736941196179954, 1.2010954037785877, 0.05889041792108541, 0.2511040837625957, -0.48444232303849044, -0.27696296173082113, -1.4362141748286057, -0.6894229649453313, 0.3548083404156526, -0.7917649760470565, -0.27814950411677386, 1.1561926937709217, -0.21079130937354032, 0.3308393033497817, 0.398540165345671, -0.22172882979329794, -0.9386949819133403, -0.020930216634932223, 1.1628480123555445, 0.3692266688280269, -0.5163827923217803, -1.5256689314129517, 0.7263239560632071, 0.0845244577163285, 0.4100567724053124, -0.17730835035473774, -0.9833117364355812, -0.6562646460763087]}, {"output_weights": [-0.41959070606208093, 0.5332719058672901, -0.8651542657774836, -1.9010830410199981, -0.08733365598354706, -1.188977650829733, 0.05582646299825951, 1.0381516244199194, -0.7288374359351838, 0.07936896546264378, 0.06432007341993554, 0.604885973651264, -1.3374783905452219, 0.7155108740858879, 0.565211562536041, 1.3319052980549, 0.35352955342620873, -0.5037709019527805, -0.6590861458214958, 0.13499253691588423, 2.079363146059223, 0.15300874964836386, 0.8981435548530432, 0.7908983506967706, -0.015741250916030854, -0.746372868745788, -1.0663014130569326, -1.8616205341352239, 2.1008820412393203, -1.9823997095429586]}, {"output_weights": [-0.13277926305093182, -0.8803133848466226, 0.5355605175690878, -0.3178972100026789, 1.6145610917191036, 0.6760788277769524, -1.0639502463784045, -0.5414228239093112, -0.8482964787317203, 0.8720591122079316, 0.6723507220529451, 0.8328026003806782, -0.09484369824122803, 1.1203698569640992, -1.4409050111489994, -0.11424076815261483, 1.054671448212653, 0.6498146634881042, -0.03818718216462273, -0.27449238876095433, -1.7745441281593288, -1.3895252907233577, -0.29612493093992837, -1.5707176831971008, -1.6942039541048113, -0.16406878217967258, -0.6430417341390146, 0.890056453606239, 0.13201255813508453, 0.69070488022006]}, {"output_weights": [2.0446677940146682, 0.42623360966850865, -2.0221183717028364, 0.43081649348949336, 1.204564586902966, 1.0907456683564178, -0.14088796628223083, -0.3113225334719709, 0.216353339140622, 0.37242148630204625, 0.8335249943029548, -0.4530050293176524, 0.1613109729348247, 0.6911562544653992, -0.7783762898441517, -0.4987285610465402, -0.4613641246973111, 0.9081196124795989, -0.020965002012581377, -0.6640939560761917, 2.1218515017668684, 0.28791341835827844, -0.06513807583847686, -2.06653980882641, -1.5759449401214316, -0.6407518846547441, 0.4235184312844182, 0.9570086803765792, -0.5942015440397956, 0.5390330973937332]}, {"output_weights": [-1.5423944935801943, -0.3698877454600127, 0.10922641282749826, -0.6336796360123166, 1.1964886993933588, 1.5316451588320208, -1.3724573339628328, -0.3344967048851454, 0.7480014314066775, 2.3722614038954104, 0.006861649495360294, -0.29982283917500513, 1.5967495236480125, -0.041108089686705776, 2.9363536346666637, -2.4048817505698947, 0.36545817863950625, -2.0350621636155197, 1.7999960728909803, -0.4915527843749004, 0.5589795834723298, 0.3038482671684887, -0.933036481367493, 0.6519488505257185, -0.6939453835683392, 0.23496362920813008, 0.7420783187393845, 0.7602089690204598, 0.594797137422575, -1.304456134669618]}, {"output_weights": [0.6262156675607822, 1.0880407584147351, 0.6761689723514632, -0.6829686847170024, -0.22911598468403746, 1.1473739364327726, 0.2893270194197556, 1.355868162881193, 2.1288256035202653, -0.3125207992055025, 1.5392169853721045, 1.1250481706251747, 0.5964218710820564, -0.6417576135397656, 1.0854293881811623, -0.16938206642186635, -0.7856267963473269, 0.29030873231499343, -1.4685612148608904, -1.9855103537068395, 0.07678023252808341, 1.1594837396144275, -0.7045356334954138, -0.35561142739568957, -0.36820069655211446, -0.19399684777053075, 1.4077954405753237, -2.033262066475784, -0.960228015445178, -0.7124343300928798]}, {"output_weights": [0.7513815928286693, -0.42087431936575187, 0.5072148147106352, -0.5961117264751832, 0.3224026100892347, 0.4477071604029157, 1.4475100697239327, 0.028900174331640674, -0.4695292002079878, 0.015005386958025339, -1.3352705964747316, -0.15390789834810456, 0.7894971518863282, -0.9319567088628272, 0.4631025241580706, 1.8835751361849045, 1.5149267874463082, -0.5716538001952126, 0.5532862349574279, 1.0330903877048727, -0.1702989537699657, -0.5633907465735626, -1.0986831767068743, 2.366784586656976, -3.9212049551264583, -0.04071664066189579, 1.049907716562956, -0.4500361076022421, 0.4535313037514558, -0.43139480333178803]}, {"output_weights": [-0.18315834063922226, -0.07494431344148812, 0.4595219770229897, -1.934018641880221, 1.34936311888132, -0.09000622300742986, 1.778997407945441, -0.13436458050254255, -1.303384885986796, -0.50879060035262, -0.5206597596450173, -0.8280873242566299, 0.5859085156752732, 1.7881845027350192, -1.5331953453217662, 0.6656682102697158, 1.6724831830527236, 0.643556174586787, -0.635974043324188, -0.25914661279011436, 1.2728821649745663, 0.04948130531729367, 0.18161771860820217, -0.33199049934970926, 1.788547706073489, 0.6788252487405256, 0.04820349014714378, 1.4549001324922477, -0.9473343271452014, 0.7889205301976253]}, {"output_weights": [0.7378808586224265, 1.2576135417502508, 0.9315295153010743, 0.027060483452351885, -1.1324630828758946, -0.20876063435339415, -0.9023040035299197, 0.8345305120525214, 0.1654464969653283, -0.23804072329444548, 0.19893327634170896, -0.6958074359250832, 0.4771100132600658, -1.5797783124230138, -0.6221402623381318, -0.8489478817107532, 0.06815494540016703, -0.5806185396432351, -0.5494670412178514, 0.2863032369842859, -0.23739268243062162, -1.1969653588152342, -2.3039129853938083, 0.5080051848993447, 0.7316009354765407, 0.9840113864145217, 1.101123879692668, -0.2266493008778421, -1.8506411437670258, -0.023143279219776214]}, {"output_weights": [-0.14893066277478526, -0.2449804733212961, -0.5425674927221501, 1.1989834840939926, 0.4325838466927973, -0.15482916276814307, 0.632631242351617, 1.8813455055633226, -1.0860361775794238, 1.0580338252734374, -1.2172290227569862, -0.7553085691956754, -0.5271333359742958, 1.566063319988577, -0.24267884033531648, -0.7718564068481305, -0.5950975109460672, -1.2963819774749008, -0.29591185166783573, 0.28591939689607504, 0.23658123849701188, 0.24293271849739087, 0.09035061973507992, 1.215446384907813, -1.4815978156983847, -0.715518461426782, 1.729012119120644, -0.6187839556234878, -1.0953335873868923, 0.990680120453689]}, {"output_weights": [0.17938531103020408, -0.07944409485325943, 2.3056001664507333, -0.03189903624328651, 0.7377694264630913, 0.337970302781178, 0.58349324242215, 0.4367870301416787, -0.12595711069232493, 1.1563825328458028, 0.8347351843789584, 0.14201687274080757, -0.13140029532242758, -0.09876110579299409, 0.24310490522368236, -1.8849648637284155, -1.199101633799653, 0.45858202260450276, 1.7751608025175465, -0.3728701694308289, -0.5967118901755204, -0.4619830112417331, -1.0348378751615204, 1.1259213643734844, -1.4240473582751072, -0.2600272371194516, -0.7544337042740693, -1.5367204301332094, -1.7957755985262704, 0.5650125739510697]}, {"output_weights": [0.9887039692396405, 1.76920493752839, 0.610045615348846, 0.29334285214424827, 0.7765856882653275, -0.3894678543801463, 1.251574196815827, 0.2905253161821742, 0.4948281184678963, -0.30993712068993046, -0.9551572342243065, -0.101211364481077, 0.403905455015376, -0.6015416663491088, 0.21140862270605515, -0.07645452879726627, -1.2162756176946672, -0.6111852913594091, -0.1648731732658265, -0.6054563566245009, 0.24852248254126472, -0.2767404590277761, -0.3706631740609662, -0.5502644819592719, -1.5028227329433432, 1.5384975892408528, 0.07939217854034653, -2.605827319624312, -0.602534935306509, 0.08399832906598906]}, {"output_weights": [0.46194388344924797, 0.1678655256928165, -0.05558661239130466, -0.9021431970676145, 1.2049051833721227, -0.8337111321872986, -0.5582112635403854, 2.063225645843569, -0.761388176886718, 0.6197264485354448, -1.6320180907069224, -0.6995469673741319, 0.4081032432063808, -0.25255662046681465, 0.5884784864918183, -0.5782987665306355, 1.245272150941443, 0.6191190932202132, 0.3087885770705844, -0.08282685701560613, -1.0772171146010552, -1.7608939149988618, 0.24642767943434082, 0.8925321704303956, 0.3737848117099324, -0.49728499835591, 0.14691212306127233, -1.1411561062597495, 0.9375715713633402, -1.461105749774478]}, {"output_weights": [0.23873621566732456, -0.1796944063142421, 0.4990156900246009, 0.8040394036020059, 0.2981365816798588, 0.48471439159091184, -1.3560784730269153, -0.8589681901499628, 0.2132217173033848, -0.6529754568672079, -0.378731580423181, -0.37139544240834976, -0.4648003901207905, -0.8432546555455761, -1.1694605715854898, -0.5299617757773492, -1.9099518710951124, -1.472165906002389, -1.379651343807259, -1.2593912239199325, -1.3268788207358722, -0.039705984113805375, -1.6033346929884267, -0.26687360017013606, 0.22958198027586457, 0.43900973031277574, 0.08427464453860627, 0.09899817946881223, 1.476510026882852, -0.3337750869093521]}, {"output_weights": [0.34223654778160517, -0.3126692209206173, 0.23651499283943067, 0.01965521610661167, 0.19357432237761552, -0.5329067346688227, 1.547250088419602, 0.3059792911980516, -0.6370915731226648, 0.5863675934228932, -0.851419140301221, 0.620812375338222, -1.0525567799632132, 0.8152116209918105, 0.03384587814004155, -0.42970576691288903, -0.49440250286487314, -2.483730020562931, -0.0794718239295576, 1.4693273264218583, -1.1480778471955033, -0.5025144166798668, -0.9726844276909324, 1.1371129607336454, 0.8598655064717067, -0.0676229268757118, 0.46852344131238605, 0.0517552976990945, -1.2653656712812138, -0.0662658322493876]}, {"output_weights": [-0.755592635766358, -0.25392477294036864, -0.4623545548508775, -1.6498376979983238, 1.6830973622474898, 0.9597886466110557, 1.2147672368746236, 0.15061610293836916, 0.7240801642434221, 0.11814158323991988, -0.4862263158031597, 0.5086282641429403, 1.581153770029737, 1.463691736802891, -1.6146243400002418, 1.0132922127190571, -1.2656861331160398, -0.7403366954996433, -0.4230339004449836, 0.9807529181946886, -2.0604926059221533, -0.23035051525764252, -2.0686670462875387, 1.3931195281047892, 0.5437203027398848, -0.053007320266292915, 0.47255425547060625, -1.5151109581744442, 0.7812150151555687, -0.4118488873586366]}, {"output_weights": [-0.31268939162312215, 1.239746317700736, 0.6509752988932955, 0.5256735134873783, -0.3061648095712366, -0.021908635141379813, 0.3529158624323647, 0.033632666657386776, -0.23116194207904406, -2.0427658359293748, 0.4621851606036227, 1.1834815410823334, 0.5057610961449098, -0.1793939561202744, -0.726083657713885, -0.6071515657191007, 0.05040675471498411, -1.2570986354711284, 0.9931768928800364, 0.4797582074177681, 2.0690781238594953, 1.3627741938778357, -0.01836510084065346, -1.6988771291075397, -0.3668777443759861, -1.5935001017853991, 0.4163266184011459, -0.27093920069104777, -1.9885635028807396, -1.617928064132032]}, {"output_weights": [-0.0034386842760520094, 0.6441856135797024, 0.3316685297755038, 0.5355756057167304, 0.6010779713499322, 2.3100770872916527, -1.6503349016583637, -1.026475303737552, -0.17976676524960714, -1.0220889119257326, 0.6216073137028547, 2.1061058557207737, -1.0718460069607698, -0.11661428138178234, -0.9385091881712881, -0.31045579456109124, -1.4894655838598327, -2.603084308398138, 0.8042174759009099, 0.6116023359071935, 1.647391357803668, -0.14957341998056212, 0.213781493883494, 1.0074410260634603, 0.959842186447541, 1.8753497065898717, 0.01700023933667921, -0.3367656023910246, -0.6090558353947253, -0.639321760970487]}, {"output_weights": [0.009997757467636688, -0.9443282590864238, -1.6935650475054942, -0.5457750765928984, -0.7127154318509852, -0.6019990125000148, -0.7247721679726834, 0.9504224167887599, 1.774894196367829, 1.1122247268917864, -0.18094677499219688, -1.556510912099174, 0.37399219805896516, 0.07134859684813241, -0.20595648539526076, -0.7423721829568289, 0.04521477703980839, 1.4023148023294536, -0.7668599684935269, -0.06834534220568277, 1.2249937066231733, -2.3220162426577637, 0.96403051647301, -0.8863129077584102, -1.3143609184831875, -0.9118279189281372, 0.43050308167789525, -0.5575911724313503, -1.05243398442832, -1.8969916537797429]}, {"output_weights": [-1.2461491724636153, -0.3212914345606999, -2.3981780097335768, -0.8877393276322302, -0.28936567604151614, -0.8699591017744522, 0.579319537166163, 1.2485187711241563, -0.6628094549607704, -1.0126437572977942, 1.1189082230474583, 0.06239796744349907, -0.18589841592947742, 0.559912400288224, 0.3645539975016119, 0.03497634326649065, -1.0968392266822355, -1.558500094052544, -2.279939815781494, -0.7028313765607169, 1.6468694454082344, 1.2531532867183592, -0.1467481774119044, -1.2105569180365359, -1.1623359787817071, -1.226490030225131, 0.011164221143376138, 0.6580139112647904, -0.4202218265668648, -0.2982695649986911]}, {"output_weights": [-2.0303967388874593, -1.1993015861867713, -0.3232536261481745, 1.5654991061373869, -1.597889741950548, 1.5413310547843626, -0.6933266468386797, -0.9386440713173961, 1.52133132413786, 0.04934414687952892, 0.234816267025128, 0.8155150354313476, -2.075921130390527, 0.6729986996355855, 1.7346330669314245, -0.6982072889931488, -0.121740258412179, -1.037490214942052, 0.12819765537714883, 0.2759005073603622, -1.9696582583961544, 0.8192958176301866, -0.8268189522177286, -0.7484412391254748, 0.3397351311458015, -0.6087894580133182, 0.44835835625711806, -0.2385830250547765, -0.16198063573442253, 1.4097471228540752]}, {"output_weights": [-1.7782572596346549, 0.35779943972936484, 0.42343164487221985, 0.46013796240234767, -0.38142214263956076, 0.4602726342822169, 2.249925766187362, -1.2411909514231856, 0.3331771112925451, 0.4236356795867396, -0.7587784688196362, 0.23226997986354303, 0.8775312033810969, 1.1860440657993074, -0.7445242780873231, -1.404019136317138, -0.020436904669351205, -2.3847526891346256, 1.6270818223319745, -1.2842979583983438, 0.5504455300948448, -1.6409490844439711, 0.1637440721082445, 0.19391903589426457, 0.1952386101122627, 0.7403845067572455, -1.343932051769863, 2.888608261535808, -0.8959093435757362, -0.07972425066709199]}, {"output_weights": [0.7626631159124032, -1.4767230933448503, -2.723078520325496, -0.3903671372560948, -1.1599152187415656, -0.44328851867627633, -0.2826963960317796, 1.0752706730428778, -1.7971480866581782, -1.9185651195458848, -0.5012124676300708, -0.7061783380370414, 1.0061949713213156, 2.2268496487746736, -0.2503817249216739, -0.4697691101932618, -1.0485372478773818, -1.1561352742375886, -0.4374067096201717, 1.305750794140805, 0.25366067329983794, 0.09093470995383465, 0.10149867861224658, -1.7882914815983926, 0.6142576805106476, 1.2443434565445648, 0.06697565798581488, -0.017810746407196924, -0.8729123405009322, 0.028079650145212114]}, {"output_weights": [-0.44488276199799687, -0.4716936938164231, 0.18245853980477464, -1.2016707316613744, -1.893807336624549, 1.6849078265723756, -1.7576150298158448, 1.3077940887745232, 1.5379996130275817, -0.5607040915307479, 0.0951105220890704, -0.6791744188886069, -0.032640305564542844, -1.681644072750046, -1.4482726432737072, -0.9168852419617609, 0.4256953916210833, 0.9757994573121535, -0.7204419303640881, 0.7314051549033962, 0.7721512908127763, -1.3466240989924123, -0.6444433820710587, 1.144997395133074, 1.1022032810174045, 1.3540539797821984, -0.04633076874078032, -0.4321030682035444, -1.2499267953344526, -0.5048834197403076]}, {"output_weights": [-0.07263096269756522, 1.917646799441414, 0.29866746360272245, 1.1493160240959361, -0.10508560039049024, -0.5878151075774234, 0.8699006778085441, 0.6808870552454944, 0.26868291659605004, -0.3471575044206275, 0.4557774161725556, -0.5465192891703031, -0.2315097499744628, 0.5857655664368223, 1.8972761686877049, 2.785322409665891, 1.441092530913153, -1.2979189492651322, -0.080626664862733, -0.8842732147447383, -1.3817865442460455, -1.7231223010954726, -1.0585518639206053, 0.030434968708430578, -1.163841774104938, -0.949607095394522, 0.0375469148979919, 0.17930334918183746, -0.9206934484496738, -0.20329421829199518]}, {"output_weights": [-1.5504242376799118, 0.022122170942755218, 0.16901058765496274, 0.22730983778014544, -0.21459845866406901, 0.45392949215847744, -1.359368347268624, -1.665904599921428, 0.01103126712112369, -0.462703953984653, 1.743678689029742, 0.27043392752029216, 0.5228606746554547, -0.2840071032940786, 0.12800307001360914, 0.9247744149666722, -1.4846493757436428, 0.22541279634035946, -0.6862943228841969, 1.288579053115654, -1.1851617004592736, -0.12535963538755945, -0.4460093873366017, 0.011877882909822193, 0.38550215446408914, -0.8604715346300634, 1.4989933910986581, -0.5722413098934385, -1.1222958386037487, 1.876655923958146]}, {"output_weights": [-1.290041068939019, 1.2602559733905618, 0.5467013147576709, 0.0618091268463626, -0.06875383696956616, 0.9344953247765732, 0.8452190518863003, -1.2387133499939076, 0.13375413908295156, -0.16331146043746791, 0.3245214727469369, 0.96313651474852, -0.14137830435752594, -0.45485281956075335, 1.4628437517416226, 0.05290021443657281, -1.1252184287362963, -1.0862483883069622, -1.0648643358430634, 1.0116432263500648, -2.0530261705928, -0.2422720462162539, -1.3445128998622784, -2.526702726745842, -1.6863369015157554, 1.094167791266436, 0.7415777831080257, 1.843168594719473, -0.291971787480427, 0.268840222967186]}, {"output_weights": [-1.515226734915966, 0.7857173553867076, -0.7766214416155065, 0.8623443129190387, -1.3667666266049825, -0.501131821008587, -0.06888976568124268, 1.9972233638105732, -0.1328555611193246, 1.1907021151368513, -0.8171125433957375, -0.4834309659464513, -3.6716280617585793, 0.043875254471342676, 0.8005184500418354, -0.053965926306973895, 0.0958357769686988, 0.5375226956454242, -0.0006800790185662475, 0.1392188089135812, 0.4862255362635482, -1.4655707537820781, -1.3400336053904125, 0.5629361883746733, 0.22725475516352112, 2.146241571586574, -1.1753061305332877, -0.4326243210853694, 0.2659678177920408, -0.029547474739438185]}, {"output_weights": [-0.3703255159778919, 0.5212277735870438, -0.5532448347073865, -0.6948948430780157, -0.9286385380489335, -1.4710854645050362, -1.4827217344088341, -0.21708454225033277, -0.6403390344705866, 0.913796613413647, -0.7354929410570509, 3.1794686132399965, 1.1514710460678796, -1.2236110237603803, 0.32800684257450524, -1.6271662128756113, -2.2359990226695867, -1.8723339207559617, 0.4401925224478727, -0.19714323572066744, -1.9387230169846057, -0.9081343909755135, 0.49129265118065407, -0.5216379993988043, 0.5695192916238325, -0.7672325691627918, -1.759066820960131, 0.6429171296880485, 0.10767688601526117, -0.46438588011465887]}, {"output_weights": [0.8754546797690685, 0.5240340421949544, -0.4264269942439292, -0.5827646074297675, 4.05908891442492, -1.2871006585476226, 1.5252831268438276, 0.7112365563538644, 0.1204273932631224, 1.1783409910383003, 0.05553405096423679, 1.9840551276776381, -1.460749493941032, 0.3206366712870738, -0.3024060482597299, -1.5420640018009182, -0.8913007731187124, 0.7122657494855854, 0.0033679590602603174, 1.4844739969771812, 0.7302277990665985, -1.0960223150351807, 0.22063881425256052, 1.1493785095156526, 0.5208880984414345, -1.724626393829803, 0.5959270604376525, 0.7159070659648293, 0.6307430171537346, -1.241384693043268]}, {"output_weights": [-0.9944676528416189, 0.5150479321902709, 0.49035377053907087, -0.23696915654288875, 2.7700660867045586, -1.7873905316162908, -1.5311766195469725, -1.2609489784511172, 1.0690137819746037, 0.017684205876309245, 0.8772100208900125, -0.19418745563492743, -0.9524331581069034, 0.7270523958757988, 0.7763456459425176, 0.48181232828313963, -0.2795823997250735, 0.08697836922443956, 0.31438398990434574, -0.5604312031311937, -0.6730563436211958, 0.14470887567399768, 0.11134663520658698, 0.7093956000490232, 1.351866456504337, 0.11847224670177656, 0.7728569050517845, 1.048570773178587, 1.5187913395323736, 0.014366699723500674]}, {"output_weights": [0.11858645516842464, -0.1403077494483444, 0.15633465575654748, -0.0637520985876047, 0.6514368156089211, -1.4382492484228662, -0.27553540131446885, -0.2303129780343586, -0.2777171810027185, 0.7284832970854717, -0.0268266187467772, 0.7833200023804713, 1.5383425618468258, 0.6208871246875665, -1.4468398508614373, 0.7645249949043348, -1.7146312753240196, -1.7740749099985391, 0.17821275697015143, 0.5666954185207187, 0.1242808846453637, 0.4306847006309422, 0.6469727050927224, 1.256395502331684, -0.06970051467005277, 0.2603430613322636, -0.8762393741344201, 0.024186338086818665, 0.4525015166257539, -0.8210923117610878]}, {"output_weights": [-0.7761793357627993, 0.6026270773332054, -1.0619287378569737, 0.48389221175978453, 0.6400938986908556, 0.19425187998253932, -0.26109682371396703, 0.8590379080952403, 2.2621235718311645, 0.07775575127294869, 1.4516062988418337, 0.2566696725425954, 1.0778314469590402, -1.8294727854904635, 0.047329076154596264, -1.45009633024232, 1.3322655297445676, 0.536865157248601, -0.4177766491409776, 2.1052363933647977, 0.24614627536905123, -1.9542693826780722, 0.08150291464782117, -0.4446750443204839, 0.5707194975178116, 0.2937082746222593, -1.3666175071914592, -0.2490053795766849, 1.9528221126892409, -1.2346195347832745]}, {"output_weights": [-0.8716734501198754, 0.6628735230224359, -1.5201030659344865, -0.03868525293734204, -1.6604401419653574, 1.0171868347191315, 0.5986341113162792, -0.7197588198679592, 0.055236279572367486, -1.5947722885110132, -1.2848060577968425, -0.6434256744349712, -0.8116347334346287, -0.8078863208703567, -0.5074970062500442, -1.551622082198097, 0.13435128432314228, -1.5408956470450241, -0.08693582308993678, 0.6659539742174376, -0.9038684839965639, -0.37754048029763354, 0.5619547277004019, 2.2362628712497905, 0.38249804547047844, -1.6651229739819173, 0.18620115390298414, 0.39639360806709784, -0.179458222228578, 0.26335779365926837]}, {"output_weights": [-1.2327823751678644, 0.5448389325070588, 0.2775828773186786, 0.8874464733952548, -0.5359406671229779, 0.7025402769879053, 0.8523742760526506, 0.47450690663862766, 0.9951412493002522, -0.15311443037430258, -0.09710545672028159, 1.3392549939945093, 0.20702278645173838, -0.05818276495354181, 0.08350687504345389, -0.7449198641779746, 3.035325975576948, -0.7463360625355911, -0.0161688495042447, 0.22648394680252518, -1.034283936890708, 0.8336578657357717, 0.030309691861171904, -0.34495265438007183, 1.7486712128404593, -1.357899491015122, 0.42618198057933143, 0.9923892808377195, 0.27356532704609293, -0.7145731020324254]}, {"output_weights": [-0.15387299133516796, -0.02263348823971716, 0.5551497209938012, -0.5575589786470543, 0.24953714834977736, 0.42687841311590663, 0.08277010282015473, 0.9087052268069804, -0.10248258276646004, 1.6216943055132336, -1.884329610337916, 0.32486091187341654, 1.4375276873911111, 1.3706778694401818, 0.8568679656301039, -1.3303394664113972, 1.2368311432243912, -0.6652825973044437, -0.7193363019563829, -1.1548207843178226, -1.236962238496704, 1.7153094505910569, 0.8048378240138109, -0.08476174997191045, -0.9954815328816659, 0.6613962739584524, 0.6973702807406537, 0.7110565084893609, 0.09697652426625837, -0.1837631132247615]}, {"output_weights": [-0.35989459935467516, -1.2916471953817728, 0.8036342776341195, 0.339917164541894, 0.2894336487623598, -0.6042279771609597, 0.7581061366758955, 0.0197228594798488, 0.6428400093240089, -1.45854225846161, 0.9383545276115404, -1.2179467768212018, 0.12336759092959974, -0.8971464753713738, 0.30849482604191003, 0.013959337001340843, 1.2069976093026393, -0.732566070029118, 1.6550782932913244, 0.32206309266826555, -0.15698035088405557, -0.7528266139231041, 1.314742262045996, 0.2528612898347086, -0.3391485197959847, 0.30157964560189965, 0.7132207665528189, 0.5183291787230078, 0.261816058877252, 0.15787994861785157]}, {"output_weights": [1.664683700328715, 0.1253921052355934, 0.6899194402355088, 0.19538160177462724, -0.6923646720940575, 0.03364905374958663, -2.269326997242106, 0.5175718926435413, 0.1713850307331708, -2.4323329963492863, 1.1680680155786687, 0.9254346629585491, -0.9678273387178352, -0.3525142160925368, 0.27413734423434133, 1.0501063284301373, 0.015454975465359977, 0.44004165810944357, 1.161373057640302, -1.2374739926688576, 1.386242975401219, -1.6109705782764805, 2.1926898836564663, 0.9327695875481151, 0.17153083258576987, -0.9042466439863861, -0.2587483140687203, 0.5837441888764162, 1.2824499165282552, -1.77652845064789]}, {"output_weights": [0.6713795331893705, -0.06350957109846271, 0.09669987302658584, 0.6676013251648489, 0.6021652735392209, 0.7364505137431144, 2.5504457607322273, -1.978298196147839, 0.1627153447590055, -0.7084197915624089, 1.1530992596778447, -0.056374914903290746, 1.9120398997526662, 0.9467988782189946, 0.17089199002867708, 0.5311094113953793, -0.37580910324569566, 0.5355707967805478, 0.08645977447519296, -1.3137213494497253, 0.7318522704530463, -0.5204108552832675, -0.8287168786721191, -0.5279251456769309, -0.6966173374792107, -0.1146299930796291, -0.5707969653272884, -1.6060445601709568, 0.5277994120671327, -0.30918539749437635]}, {"output_weights": [2.6482592357362584, 0.5929856291545188, -0.13021548038200523, -0.9391130017762142, -0.0030372331188714273, -2.011081893847303, -0.7346750207490036, 0.8435191437895639, 0.8598570151912333, -2.038525577082682, 1.7270169352579, 1.7543019431759874, -1.1798934238557597, 0.05647423044994203, -0.9327931965730696, 0.6980641617347397, -0.7501309208422404, 0.42005001806976117, 0.9779303565124228, -0.5356010233575674, 1.2458014537002395, -0.2319614167858151, -0.8757460093109006, -0.8854796499024611, 0.9185864139728807, 0.12774983404478585, 2.192471987619313, 0.32389615828107393, -0.2815378893604584, -0.310685092483008]}, {"output_weights": [-0.33241876045247987, -0.07634268675093346, 1.420298198881757, -0.6893598565836894, -0.9335217120756719, 0.27925211003590883, -0.436185915846548, 0.7336145745992372, 0.5561172395521639, -0.9667347221818544, -0.46063865768842444, -0.10733332934333677, -0.014066864748031793, -0.34450660981195197, 0.07136449684009555, -0.8090610543280972, 1.3015531860634424, 0.37260142189925394, 1.134646004522101, -0.3323438591543572, 1.7456281969286775, 0.1380897222808159, 0.318976743745154, -0.024469254254498543, -1.027967242531928, 0.1882769736144783, 0.6151730235999574, -1.6442924342557075, -0.6893198588238331, -1.309237522435726]}, {"output_weights": [1.0317282296992267, 1.1455486986241001, 0.2711828448209395, 0.3499044425005749, 1.2551520920293886, 0.7595998274293208, 0.5000579955621134, -0.046821886596272996, 0.8803767107249145, -0.24190937950857638, -0.7072457883775156, 0.2122245001637482, -0.015364341958499596, 1.6074975988537654, -0.4960936917029234, 0.8268295874417195, 0.16786071834618746, -0.44974382571694854, 0.28697909522049125, -0.5348930767643985, -0.5872569478118264, 2.0379281951118187, -0.4772296599113937, -0.30439963010690424, -0.6085083019907275, -0.9593819283672633, 0.8099083462227098, -0.6893489521802345, 0.8029083759652826, -1.33850382965316]}, {"output_weights": [1.0205174752339077, 0.24119627002695052, -1.6134132177204028, -0.6551594150924914, 0.12099119063846851, -0.939826212031341, 0.47047883120886386, -1.6684006810005854, 0.6053169613006868, 0.4367163287870316, -0.9583819225804902, -0.11618033379594345, -0.10897494809625136, 1.2126786238980238, -0.026340407823535843, -0.930671841624784, -0.2036703453093935, -1.6432272178292413, -0.6204058281995563, 0.7202864437277942, 0.4101874467137637, 