{"template": [784, 30, 10], "iterations": 0, "data": [{"layer_type": 1, "layer_data": [{"output_weights": [-0.6867693598537481, -0.17774648337889212, -0.4918060093831565, 0.5602247522989008, -1.3462848062686035, -0.5887525765992362, 0.35790646241191526, 0.3828122216312237, -0.06696582636401434, 0.691332519290684, -0.06288465594515034, 0.5953894476329737, 0.8703957111755501, -1.6647596339218884, -0.5676419136301146, 0.3139498132503401, 0.18927334304993035, 0.6618758294551271, 0.5505189922722104, 1.8473697359314074, -0.22014410781579025, 0.09874316709274851, 0.17348067760570593, 0.7272970108729381, -0.4361153534294834, -0.04939509516295436, 0.05727568329711587, -0.11372926634111376, 2.727058867910874, -1.1885542188102476]}, {"output_weights": [0.13225175282440074, 0.6843503023344761, -1.4790270167000727, -0.6939438800623796, 0.8070109392455639, 1.5676228577148292, -0.788897756820764, 0.6424932299784293, -0.4366333704766838, -1.8306417558566714, -0.7596495029360346, 0.8017454816760561, 1.50132350917347, 0.9211481721159119, -0.7326255034427286, -0.8778086646660772, -1.819701001740179, 1.2264375659090212, -0.8115081266636429, -0.6985455933765543, 0.9320866132635779, -0.4529796790934126, 0.8944751478050611, 0.4173597972959426, -2.141411076851038, 0.13280599046560304, 0.12129787887383515, 1.633125281681833, 1.48151609356975, -1.2307872640290234]}, {"output_weights": [0.7777451897546163, 1.0171832994815782, 0.9542196800352564, -0.314134744653305, -0.5761189516509377, 1.1367560975442588, -0.626449481118017, 0.2690803353292622, -0.19048216599296303, -0.09331998421480911, 0.4484136064057513, 0.09943994260581822, 0.2973171856168382, -0.3119560545941156, 0.10050112288480532, 0.19859194594247148, -0.5998329519591272, 1.9621645736385553, 0.68716533350771, -0.9563102877735327, 0.9127793668525473, -0.9170490124003672, 1.4518859715038748, -2.2192820192448526, 1.1431088289081015, 0.06793368378794978, 0.799625515781846, 0.6211112079893519, 2.3256252943505458, 0.8585483385456583]}, {"output_weights": [-0.09901538235391703, -0.38806120755668544, 0.7562692921115387, 0.006000299426927504, 1.1662141467493343, -1.4012043401693475, 1.1678859274826126, -0.6754832156775202, 0.6357060450656064, -0.34922540188804324, -0.6825099407558385, -0.05452863254316054, 1.1223415547126412, 1.580622267388318, 1.0133566370545581, -0.2735062553578057, -0.32314956232749104, -0.499784401999003, 0.010820113426060145, -0.6983815859138799, -1.7599163294408373, 2.0030580431942884, 0.9239873097104411, 0.7180719554621384, 0.09374834144360247, 1.7880742614675444, -0.14670467599920414, -0.03452216574823874, -0.26032715206777357, 0.6156219991667703]}, {"output_weights": [0.29489801343718264, 0.8948543258447091, -0.8107530250404876, -1.5917065028626862, 1.271440729861072, -0.7197711786850846, -0.9769694954789829, 0.6858293273681976, 1.9558666677869305, 0.8410317975476661, 0.8010787428169016, 1.510580691286591, 2.10868982011689, -0.9880538083966818, -0.9337977132383193, -0.2246804626809905, 0.5750586663063897, 0.06799842826949415, -0.4647644815968453, 0.9934546101706033, -0.8130868021682958, 0.5309892672699194, 1.0202402472495495, 0.7260485731601273, -1.572023879980963, -0.017990261866426296, 2.727397621267632, -0.9583620781462272, -0.5518488355105268, 0.3614164015070227]}, {"output_weights": [0.42463891829183903, -0.8321611775717282, 1.343531839142396, -0.15690713614658094, 1.241461988769444, -0.35754507971713845, 0.19525253590125788, -0.3663640256468145, 0.01245486506357809, 0.06226718082390434, 0.39591450781428755, 0.33460797524397806, -0.4562510023286858, 0.17216061057139168, -0.361355359585657, -0.8018125870806244, 0.5333426576866175, 0.05984583096727448, -1.0301704252624146, -0.08252839722068331, 0.3329303582163139, 0.8831370676078533, 0.8446829221559445, -0.15634446669500116, -2.051033894458588, -0.06904402269437082, 0.11400624133869756, -1.9443159241508314, -0.8632410699998546, -0.8390417103427624]}, {"output_weights": [1.318736804893479, -0.7125887026155998, -2.322225357536028, -1.0190820812718968, 1.4463637297042726, -0.8494116096413065, 0.64689739829709, -0.35759086168508764, -1.7542886736511072, -0.7294097564201908, -0.1337327737967612, -0.3080804197196715, -0.6954763203332264, 0.717571232879325, -0.49407866830251274, 0.23872320428263794, -0.4159348442849708, 0.9422050093667099, 1.2277097244646151, -0.0016733910318140481, -0.48652649327049396, -0.9389109314142567, 0.6080708851790637, 1.1827448201269126, 0.9169665351870904, 0.2794666360761454, -0.38920934121196515, -0.188282961725592, 0.14346503939758326, 0.6357412257136841]}, {"output_weights": [0.2855442575407928, -0.5952221738444705, -0.3913903819666196, 1.7981556051743304, 0.8028214719544564, 0.9517624192624569, 0.14113057281944522, 0.8332637011671242, 1.0525189810640632, -0.018217826368946394, 1.2630823221347394, 0.007260223470044982, -1.7323571196449774, 0.34124276327863456, 0.08484805459504967, -0.22245605462870666, -2.2582484014473403, 0.9454339681239844, -2.0130922779063547, -0.025880364386307603, -0.5075700202087167, -0.6025112566980413, 0.6086948583231433, -0.2514360883949532, 1.1482698217429457, -0.639088208458853, 1.2367933551190151, 0.4385724314985693, 0.2733548189566422, -0.7163740657576594]}, {"output_weights": [-0.7285505719669286, -0.44512600186902274, 0.40545342276166785, 1.3596975619000624, 0.9038728124603798, 1.0326906726245622, 0.20004363352586152, 1.4117286765999837, -0.4700626271998178, -1.2161679022262133, -1.7074939280121852, 0.9628813179548686, 1.0283596623060367, 1.8573791914469078, 0.0955194459186576, -0.08420076826349358, 0.25020688757432463, 1.0323743344452763, -0.6116114843803651, 0.38023086694643, -1.3180144792560218, 0.33645834751249837, -1.4873004369396594, -1.4364537331263605, -0.48458714321339474, -0.20455486399334358, -0.379706026943033, 1.3264339951093602, 0.28807542428137184, -0.6840437681115537]}, {"output_weights": [0.39965335766763616, 0.6870960393359111, -0.8927091754756232, 0.7196584662842557, -0.3915230279128425, 0.6174484959599317, -0.18178702637019706, -0.669731899791486, 0.6012329932663184, 0.33666127497783016, -1.1915056621820734, 0.45902928969556994, 0.6031984570844628, -2.0667620278582177, 0.7688898521210956, 0.9899052192968788, 0.48150177081848494, 0.5092360019484008, -0.029742276933656366, 0.09330734560934363, -1.5372459563478444, 0.7412633353985763, 0.05132711626100896, 0.12462613280579395, -0.5670474961257661, 0.082819424099438, 0.6440133198895727, -1.6150643881431272, -2.1705715000490926, -0.3744447106603408]}, {"output_weights": [-1.0393485317042426, 0.04718011700065989, 1.93259612792471, 1.1670891319725534, 1.565013648972137, -0.19037461550822296, 0.7137184000903946, 0.9285111592838926, 0.598482082062792, -0.2630754910532627, -1.6209070810444437, 0.29913635205298755, -1.1750586738724926, -2.4767098805794103, -0.20186801601900128, -0.4923470977039019, -0.6819363648194762, -0.012068575481895473, 0.5672917731475047, -1.4118735169427234, -1.7006636790119787, 0.2007987369703232, -0.6645458589683709, -2.8702060212723652, 0.03900387842286401, 0.2240955061088031, -0.8908743724304193, 0.07388748683854578, 2.0033828021592788, 0.43873419587135026]}, {"output_weights": [-0.6851437546913622, -0.7971531196872262, 0.03823064581874328, -0.7206074448806891, -0.2826315995800884, 2.2924617184568823, -0.37670282627047097, 2.154693216192417, -0.1830882818225773, 0.10454222348502175, -3.3191836950211524, 0.7362610604243668, 1.9797443863083115, 0.5068094784764445, -0.2712962079273669, 0.25438517615435413, 0.09183503432484899, 0.6374205870492468, 0.5512886324138491, 0.5291891265258237, -1.1242967363106116, -0.5894473025946719, -1.6248952812870887, -0.8809588378200353, 0.26875766719018, -0.2613500122047162, 1.1580520581651315, -0.42998278112373894, 1.1440721796924, 1.8477995117703814]}, {"output_weights": [1.5020246062182119, -0.9319932011077187, 1.1673713040554687, -0.5437498321841335, 0.43352562947999684, 0.6725272288026213, -0.5450438199460176, -1.362548827696263, -0.04360288004993726, -0.2759776683163281, -0.6316378278126139, -0.6460413983296854, -0.29484719329916065, -1.7531605360327485, -1.1079371798797069, -1.094777678592615, -0.6224359750155055, 0.21197839788824238, 1.0520549895672973, 2.06883597037986, 0.6929070462394132, -0.0060923270102335204, -0.631693620780464, -0.4438727692388707, -1.9698208056725282, 1.5373129581474394, 0.3451038587717331, 0.784167648713389, 0.23761178729093596, 0.18962015486333023]}, {"output_weights": [0.45810978020920223, 0.3518657652249552, -0.6009560416863797, -1.4646069205167136, -0.20285251156253187, -0.41294980512724405, 0.36760310916908273, 0.18971884632518704, 0.9180822951256189, -2.4055556376798277, -0.4631818559410988, 0.5915560458787957, -0.13432286151814446, -1.044752739844013, -1.183269645115507, 0.27799211768847903, 0.06592602745138132, 0.44633823785415705, -1.114771357047724, -1.943498089019488, -0.24389970871572736, -1.1353094236937562, -0.16528258640933727, 0.7531290908676745, -0.516079710523562, -0.38354512930490087, -0.30610667207878106, -1.4151305980938407, -0.5712439766467495, 0.39000906099759564]}, {"output_weights": [-0.07161796057238601, 0.3649695038518629, -0.7282086577999265, -0.6895576363198137, -0.872245319100379, -0.4722023146209504, 1.4582030964517076, 0.6474168734224446, 0.6249769694224203, 1.2336189124499062, 0.36657617676138793, 0.6264022037914587, -1.748180013279889, -0.4119633249459402, -0.21874710836700423, 0.47620785724504444, -1.287514790249861, 0.5960336864628539, 1.8281465409965953, 1.464709024281732, -0.26282240849843846, 0.7028443249060504, 0.33353373177092516, 0.9252149918984318, 0.40376522117656233, -1.3954843325166368, 0.029320084978059324, 2.189974640575125, -0.98807043143526, 0.007757413512283712]}, {"output_weights": [-0.1888009464411956, 0.467946251665233, 1.4034256035624706, 1.0101174019219272, 0.08420384349638065, -0.4083527729321326, -0.7202595408512493, 1.3422150478665253, 0.615029259966099, 1.8044902734095492, -1.5044838877197384, 0.23606423615312452, 1.2231934903958277, 0.03761098251496541, -0.6312787321101537, -0.30623996394806763, 1.6318339576496135, -0.4311089437031401, -0.45366633066417017, -0.3879848932612792, -1.4974572976481975, 1.1720877741910585, 0.39358665372719626, -0.7350544090338358, 0.664577996792513, 0.02871924715448622, -0.7495449808054572, -1.5093600409763521, -0.1859876265982859, -1.6630294656524227]}, {"output_weights": [-0.21698481314958923, 1.296863525517836, -0.6241281519559583, -1.5640812556603363, 0.5984257630679005, -1.0323832936063841, 1.6666291994604012, -0.3449183596494606, 1.1204628704581323, 1.3808923556119057, -0.6498905625629208, -1.1118247204065306, 0.801371215393015, -0.8628082248451457, -1.1361131269929101, -0.47489706256276154, 0.14260849658892394, 1.2004539150052913, 0.31279314104870565, -0.711330363844826, -0.5642787457348611, 0.08302561974998138, -0.7807291545791142, -0.8472967412376882, 0.42994573750479737, 0.7508792109006194, 0.38558930884448, 0.6376037849639337, -1.2630243375498846, -0.40919245207243954]}, {"output_weights": [1.1907431037925151, -0.20815236054265135, -0.0737406922324037, 1.4207299796536605, -0.4620130998707966, -0.18805647847926557, -1.1710893111342635, -0.9850732390494529, -0.8871535950985461, -0.29500373608158287, -1.4708154442430088, 0.725456789303941, -0.7029139353438206, -0.15072055627137157, 0.2795213972463342, 0.4412622319903537, -1.351233567542875, -0.534382660028208, 0.45137626472240944, -0.12903833296097808, -0.17762553328390152, 0.45208631471574606, -0.17061553176093097, 1.9269983323802289, -0.29216962218099973, -0.029927787752897016, -0.02786203582451968, -0.7539649914545364, 0.4329385148592208, -1.6278960511888938]}, {"output_weights": [0.13564246937513413, -0.38374179221885524, 2.1159613187015895, 1.0951960816010826, 0.6322755856463581, -1.083786775839395, 0.208725572880941, 0.1572242109153725, -0.020073643287100144, -0.4370941900145297, 1.6931838565219204, 0.16544456154415152, 0.09397448576609133, -1.2718687260022103, 0.37723693477510073, -0.7159270660765963, -0.19043905565077296, 0.8795892714013885, 1.2224428247848085, -0.029875789309023775, -1.210141983744876, 1.6422621976471594, 0.6373970684497369, -0.3666503930152746, 1.14713471824439, 0.5326614294428424, 1.1058525493188494, -1.9160871946352718, 0.1695630507218444, 0.8580919503235723]}, {"output_weights": [-1.7431316872797284, 0.7385003567676593, 0.35603300355442685, 2.5468382032356485, -1.2267289894652682, 0.837564249858699, -0.3117804579272221, -1.2109036910091477, 0.3344822118369676, -0.33606842045961516, -2.022508883278488, -0.49773871193603403, -1.2226029499639122, 0.3121337511212969, -0.3205441573469845, 0.51288148037553, -1.0575339377008215, 0.9685295619549632, 1.6628594023705863, 0.6327087784777774, -1.9848288611065223, -0.04278628024181864, 0.18905073824653612, -2.038938527374514, 0.5353312863055226, 0.7857461602844932, -0.42322575537223717, -1.2252390123803132, 0.6401185539920482, 0.2823523704350375]}, {"output_weights": [1.2426867671427675, 1.0475483262783127, 1.1286684487594414, -0.6119391095109132, 0.858432698495592, -0.6957479290077936, 0.44978362317175746, -0.5232150347766475, 0.39851124306945446, -0.255218850578447, 1.0338413082653606, -1.3770986585423586, -1.2768215484854186, -0.2456591633932746, -0.7373155205053875, 2.202906819086135, 0.6803382372767282, 0.8115576165754058, -1.5544150241543335, 0.3038241830083037, 0.4767809270091058, -0.08041227837461691, 1.0084971737806065, 0.3962464137894653, 1.360102438426419, 1.1367605183306009, 0.9144261996722793, 0.6838729397460693, -1.3180366353257977, -2.589406847967545]}, {"output_weights": [-0.9913766950618649, 1.3134872392096077, -0.9794785776835538, 0.4258708956427105, -1.0262618475577012, 0.7388493893033264, -0.6383632718730333, 0.15449144008895208, 0.0550272517815165, -2.0620675390398286, -0.19204490041357705, -1.7050372353272634, -2.533131912473229, 0.34411683397108545, -0.7824438827961726, -0.2472942297752394, 0.2680920959782258, 0.346710524916365, 0.05090253401673552, 0.743845980597464, -0.3556622790940333, -0.7471575757065971, -0.48522092263684424, -0.40006297584209777, -1.3887944766559794, -0.9980012147011751, -0.01752422042347328, 1.085853061881579, -1.0806356149952783, 0.13679535355612055]}, {"output_weights": [0.29438526390565806, 1.3085412133361256, 0.8595552694701571, -1.0388679506986105, 0.6309142057886128, -0.9993350073635875, 0.3503570728792269, 0.6153082115750105, -0.6911893664795145, 0.6885957563425156, -0.11544156037348399, 1.3946067547649528, 1.3861750042340726, -1.0512518903186128, 0.15252453847471453, 0.9702080987906475, -2.0265686070678353, -1.7469154645653657, 1.547200913753116, 0.41882117208236913, 0.02653212924132098, -0.8032133005476474, 0.9226781691282722, -0.23222892625866665, -0.0017842206991730194, -1.0397255874036286, 1.8543551964940672, -1.4139981619176476, -0.7937563521285984, 1.2903362866025625]}, {"output_weights": [-1.3320607736871561, 0.7179857697234769, -0.21014290711919148, -0.9445470510292443, 1.0942885507830706, -1.5257648780996458, 2.6195253203853803, -0.6523117127933572, 2.0195285015632027, 1.7781354315040205, 1.6631297816192208, -0.06991148968994607, 0.1221909800747995, 0.17104502747645786, -0.272142910088473, 1.4074202110346457, -1.1793655981743334, 1.1829016808898083, -0.7422310559533832, 1.225878998255327, 1.1116398920861719, -1.2245496094324844, 0.23559188121185462, 0.829313006199172, -0.4390744912808121, 0.41177213419623276, -1.338387211464495, 0.09612537319241875, -0.006125965269363917, -0.027514468442383228]}, {"output_weights": [2.1106853881307766, 1.5966148799249478, -0.19361982015522242, -1.482203836930934, 2.1054537769561206, -0.10269278296984127, -0.37190933093620304, -1.6534957481741783, -0.2764065770715829, 1.7010635851567733, -1.6609770600310985, 0.9723822490998476, 0.8212925276368166, -1.623071622978415, 2.2810533980204304, 0.733640092228826, 1.2528463122275137, 0.32975187168573084, 1.0078971729726192, 0.6893830691054098, 2.825825396011008, -1.0549623357670108, -0.7796837694175851, -1.1000536077091472, -0.9083658373711236, -0.43083342096996674, -1.1544065278478841, 1.3501476569473363, -1.5715965246364445, -0.23207388811015572]}, {"output_weights": [-1.5606600103464674, 1.0499925720019956, -1.690681690657063, 0.3191297897089433, 1.192274734464268, 0.410886971055481, -1.2993314984684041, 0.4387403296797819, -0.155293669901601, -0.6034019822107395, -0.08302215480033062, 1.822233272983032, -0.5241283858905127, -0.4245804427819829, 0.5201572891833665, 0.042046250666345146, 2.780113082571647, -0.19510852598333517, 2.1121084776325336, 1.0618909579293887, 0.1914719145000829, -0.2593536944903564, -0.7497204605045203, 1.4579378254392528, 1.3601715277805473, -0.8552252466914854, -1.1640030707754943, 0.046566824501025506, 0.2925485665419762, -0.5054163194030716]}, {"output_weights": [0.4791568092965727, -0.71332146571279, 0.16881013448843052, -1.5136690077579382, -2.3038918992551682, 0.6234495206075347, -0.9570504815012162, 0.8339798450230982, -0.02811433186709853, -0.6364367960612305, -0.21591830895233471, 0.5241863195889699, -0.3255988675692553, 0.6954690371797826, 0.3759938359838762, -0.6760283558184547, 0.377940918342408, 0.6663691637152441, -0.9398310892189138, 0.6654981889276713, -0.6372904946113609, 0.8615378366867356, 0.012564857296883877, 1.8509547862977858, 0.6887613063651811, -2.4619566412355254, 0.5549247690527389, -1.7378834637068483, 0.3234930848515085, 1.1284290673404926]}, {"output_weights": [-0.2411568611717685, 0.948500375085772, 1.7777295253738161, 0.24388398206520606, 2.503866490183087, -0.1858612439778838, -1.5784551138999618, -0.6614682871947697, 1.0519430883429226, 0.4557315100803782, 0.21356210973104123, 1.6060707637998193, 0.2247455071008991, 0.6344189871944116, -0.5159447813209641, 0.8055566159174199, -0.02985201751474766, -0.5036104194789159, -0.7978967488400243, -0.6731186122546946, -1.4897781416744083, -0.8786341146027865, 0.2887714162761849, -0.1270831446869444, -0.5809609956319146, 1.1755431055384478, -1.0200671870411169, -0.4379291216570862, -0.35230277951159694, 1.8616157849902257]}, {"output_weights": [-0.9592909287430401, 0.09329140480333838, 0.6053500930696034, 0.2917179699891097, 1.0460352400780397, 0.9109632185845515, 0.2779970678794267, 0.08205904828965564, 0.9274471110575212, -0.4885211804004814, 0.744925774856313, 0.26499749802249606, -0.6050177617317548, 0.5961566726631364, -1.0215143329548149, -1.0929508302988133, -1.4188395154846187, -0.4927308301208294, 1.5307107372519684, -0.1683873390837361, -0.20525452320641918, 1.8961634265122143, 1.1434994821808018, -1.9118203640714924, 0.25008914120581277, -1.2321115579596686, 0.6739130862495877, -0.15807467425663124, -0.983213387376617, -0.3507230593059039]}, {"output_weights": [-1.8954028138012289, 0.5851798496179674, 1.043763235683275, -0.20951629426401003, -0.7921989050603285, -0.050746136546084196, 1.9469468501229885, 1.2774361621379646, 1.0591137028816384, -0.1431864502553245, -0.1135405458255945, -1.610320605422266, 1.7262346540824687, 0.7297582919926807, 0.5223096442380621, -0.9755274745412219, 0.42281305399140023, 0.2591081959002191, -0.31009940844914247, 0.30169910883252143, 0.5618997767493221, 0.3519784248149438, 0.6736389630647796, 1.158028259144509, -1.3092831791807429, -0.6205639524621536, 0.30629961589833105, -2.2604206183702513, 0.6229499987220509, -0.7361993068495865]}, {"output_weights": [-0.3711941682106711, 0.9557368516796144, 0.8322111663359176, 0.9664778849248639, 1.6164749385596955, 0.43809069306272097, 0.60004209927149, -1.3409691844416078, -0.8933613470904145, -1.658958897154158, -0.38185469443104436, 0.3133707539577015, 0.371011233182021, 0.35371468513708815, 0.1650417652819657, 1.6505478241674656, -0.454382305719423, 0.6040113198026499, 1.6695987806628256, -1.0466302833882186, -0.6798445226133303, 1.0963249770801706, -1.0727889199219818, -0.697154426190974, 0.494487244888515, -0.8245449006380973, -1.2957306711573116, -0.032996257972619875, 1.3658874370581817, 2.0815727283086027]}, {"output_weights": [0.03179504379111773, -0.4697736700059725, 1.7052080526949829, 0.631005778992016, -1.1541444913329968, 0.45419218406451234, -0.9942326691745077, -1.447634198440361, 0.9909546611893847, 0.45508599896218066, 0.3651652593493376, 0.6937914834917834, 0.3956825649831703, 0.5990179882081542, -0.4293456550994533, -0.4178894426775026, 0.6070413791852303, 1.0801234632359855, 0.3296984167966858, -1.118551589367511, 0.07682905270567007, 0.40539488479358354, -0.44216612337846406, -0.9728058372417127, 1.3803033133572915, -0.8764859323660371, 0.4345703772749689, 0.14001654963374663, 0.15102640048352384, 0.5478144895566758]}, {"output_weights": [0.8190294600571553, 1.1728241749788983, -0.9359208877789011, -0.18960106379568092, -0.7843979307641098, 0.26152452328074316, -0.4031868438268881, 0.6547379387718231, -2.5754322786871984, -1.587407660177795, -0.2113245127172645, -1.3448462399887702, 0.3797376957656903, 1.2547460342967984, -0.5922706290656159, 0.6843708387858545, 1.1165543801199018, -2.441051646566257, -0.00899022802009083, 0.31671224888517324, 1.2438708700865473, 0.618300169356626, -0.36895028376625677, 0.42253787582995145, 2.087495439277939, -1.4110332080030192, -1.7832140841768747, -0.1868680451366879, 1.3495234299148644, -0.17887176184448692]}, {"output_weights": [-2.167925495072335, -1.3644594087442161, -1.1986684817430353, -1.785053692593948, 0.3601599107718058, 0.1353301442275277, -1.5661206300020252, -0.7631891496705104, 0.37024599884402365, -0.09223732720669102, 1.9340561518779809, 1.3114991855582363, -1.4998058701681425, 1.104814198669562, -1.485396932673638, -1.5021296565589217, -0.9549708632817607, -0.9571377531962021, 0.2740002325249185, -1.4156272842429465, -1.648008613807173, -1.341379675237583, 0.18174569709706412, 2.011483234085008, 0.5995350320365562, 0.45681082733240497, 0.07052615871872937, -1.3472007780618367, 0.06343903202668341, 0.6680699761925721]}, {"output_weights": [0.301358913680005, 1.3607056686818806, 1.6724130759538256, 1.5701018845477357, 0.7666727130063855, 1.8108553658781448, 1.5525914959488398, -0.6569303675774224, -0.5210742843394274, 1.5044282602320675, 0.6338076862374997, -1.0675789001841858, 1.2603479548943357, 0.9564808742749858, -0.029731158462042002, -0.5086512722621939, 1.3154178331212554, -0.5577598323991743, -0.6162063265226219, 0.24323746919035477, -0.2236296802485642, 0.42061603357123595, 0.8586159301343427, 0.9787535831527236, -1.5391800165857967, 0.25694532363379186, 0.15163511357098292, 0.5568640902272507, 1.4990398032957026, -1.3989950542113097]}, {"output_weights": [0.7068293280260165, -2.386729153166788, 0.4121197574032463, -1.402890054267931, 0.4136879344545688, -0.5810974556862752, 0.34597866787335996, 0.774292312973396, -1.2684373381286065, 1.9185065840977524, -1.0809084148114882, 0.2555556947900891, 2.1476670630055037, -0.17297279390743303, -0.023854542922145592, 0.962207071260118, -1.4466872635608938, -0.992386953253914, -0.32789336806850766, 0.058807790283725035, -1.668882937160137, 0.46776276448803455, 0.45009410801616945, 0.24971416168052302, -1.1348804755596194, -0.2641402629410278, -1.412609158846328, -1.6662189744109588, 2.5588308212688697, 2.2054463801206943]}, {"output_weights": [-0.3889409017259266, 1.7333528284350077, -0.5547018025638385, -1.8507895894694324, -1.6678925224608805, -1.297281266739369, 0.7669912962966806, -0.47712394530669633, 0.7006391469044028, 0.6051756628153119, 0.3599888198879138, -0.9199247569460169, 0.19588372664151493, -0.20497284595076445, -0.7548790576538548, 0.8462756307369932, -0.5115648153985449, -0.44195314697407573, -0.8881394527205806, 0.8591350435066816, 0.32666316896507325, -1.7280249768644753, -0.8276850169483411, 0.6668946496688587, 1.2295062777556747, -1.3872402577702163, -1.3864544789506046, 0.169540067944253, -0.4789222428902628, 1.0179950869209584]}, {"output_weights": [0.5338487383176654, 0.4123552363549181, -0.010811216725752758, 1.1067681386756136, 1.268431007821975, 0.0009037306769316422, -0.09116236302742967, -1.132579496657184, 0.5368357296673412, -0.3737787139768683, -0.6692811419199696, 0.20109103229360134, 0.9683481402640313, -1.1839975093786912, -0.4930689097258939, 1.0449653495435434, 0.4053459308795047, -0.09824438147122173, 0.8224548296119228, -0.42980710482839907, -0.3152071241370765, -0.8279572628928862, -1.1034656289193727, -1.320179519947823, 1.1166164321149754, -1.2766737851852545, 2.3477738455240136, -0.0663227173978026, 1.1073926350254228, -1.6361670795564758]}, {"output_weights": [0.5645589313837223, 0.08669278451716841, -2.414105511436659, -1.105271362842045, 0.9682103690568957, -0.6736540727317863, -0.7475676071358585, 1.251965521892603, 0.902126476691593, -1.9192686345301129, 0.7416904115630724, -1.1287656919043738, -0.23576570139386102, 0.4396304728560236, -0.1400836741407501, -1.2503934333022637, -1.011052967798378, -0.2413825486699623, -1.00825679548124, 0.9157077350887122, 0.6760857969698686, 1.3422124463086769, 1.3875631213763768, 1.816791361150399, 0.29114301772789936, -2.557493750239541, -0.8156933095120962, -0.6039870644358168, 1.4481846300617058, 1.6908493561203615]}, {"output_weights": [-0.3588547562597684, -1.236449099861309, 0.8025679821339989, 0.6486178830829218, -0.3332827451454862, -1.017604368659968, -0.5859534031169847, -1.4452794807062357, -1.230999517099742, -1.3719586724483641, -0.2591924642966467, -0.6755957723065146, 1.0847096795782625, 0.3530607371908975, 0.6073811968765519, -0.5873125385894672, -0.49607838112781527, 1.0103044957116123, -0.8218217014172352, 1.8374171079018213, -1.7317072545208467, 1.983761770832878, 0.43816013445025415, -0.2472909225761518, 2.273061628285257, -0.6641159255991647, 0.08355169628365408, 1.828510130244099, 0.46284630458377285, 1.4421419865618288]}, {"output_weights": [0.31904376976031823, -0.14301798254488923, 0.4772633534542199, -1.3142348894241365, 0.4830133166528584, -0.6525732770450479, -1.256124006270608, -0.05836062375109516, 1.172081953623432, -0.4150084030041942, -0.5198444426311591, 1.9690258001224183, -0.9664064272862715, -1.9661649183567085, -0.38398929866579684, 1.8405299384873492, -0.7639939427835631, -0.05728208334794514, -0.08666688993010352, 0.5888745480140132, -0.14782507214245874, -0.34661925289027157, 0.6171373711924076, 1.4218337612279304, -0.6968883346670548, 0.6658002561247967, 0.07105085828805166, -0.9011989536781936, 1.0335914857447894, -2.173741900489904]}, {"output_weights": [0.888217003157342, -1.6773398243076083, 0.05654953715798217, -1.532655217713989, -0.8130960847042008, -0.4074563553207009, 1.7320622121936566, -0.5998957983276455, 0.3768629756161289, 1.0131779932398564, -0.39866904788789176, -0.3511877233693192, 1.285602671291751, -0.8919556987776982, -1.9357674669135627, 0.005545766564200824, -0.22094241215732927, 2.7256764788915047, -1.4758719884135447, -0.41191018128374174, 1.4803387041580975, -0.16003316718169716, 0.32787040857610616, -0.35349647016354124, 0.6679757102169595, -0.6719317192243521, 0.8519984583402367, 0.734275574622785, -0.9503425596025814, -0.9317357922402569]}, {"output_weights": [0.08166424714310369, 0.18664598681325026, -1.709947891951043, -0.5885898551481051, 0.4740080591067061, -0.49295231402890743, -0.6663909813730347, -1.8742681462328694, -0.17047206568917664, 1.9239513767111542, 0.3627353551403024, 1.17557744701652, -1.5205940803427085, -0.43625479543903184, 1.1308814986779028, 0.9812103880403903, 0.256313614911766, 0.5645876254191692, -0.19930729500569194, -0.5901477352635082, -0.18028113180004274, 0.9445598042645972, 2.3516390535506586, -0.02035241892716546, 1.4039791665846562, -0.4171357689818014, 0.12031403239963448, -2.0015167008231494, -0.8240339265777558, 1.323338787215521]}, {"output_weights": [-1.4090229586441199, 0.6853371154611183, 1.261544968915553, -0.9311583248256449, 0.3243033619707025, 0.24745747909578844, 1.7900861366529441, 0.7126091961425145, -0.19002642938047107, -0.0043290537487218565, -0.06623878818019446, -0.8018901352348972, -0.22077994847902374, -2.265965003742795, 0.08260746112188032, 2.1754691357996867, 0.06903860185825365, 0.09953081538852351, -1.9716025491488782, -1.170350803590348, -0.21179751330526156, -1.9032744645226685, -0.20945885235829095, 1.498395178826549, -0.11625257204847873, -0.13039477029232502, -1.6705992942831673, 1.035980288909973, -0.2899061551709148, -0.5776626748997485]}, {"output_weights": [1.1764467140623422, 0.08775037046875246, 1.2997900972435763, 0.9587909000026504, -1.117961411776874, 0.20581602161801527, -1.7078718454465027, -1.334869092244898, 0.47636030011854863, 0.3409070488410969, 0.20497889467421615, -1.7546547801771613, -0.9659104222637125, -1.1686688452375353, 0.36223345865349743, 0.4289074617448482, 1.3184237416911817, 1.0008174421301061, -3.648988687752284, -0.5895081578304664, -0.1307157925993618, 0.8128473430143502, -0.6048419977582871, 1.5384540785679786, -0.1690609725049877, -0.7827041059533523, -1.280431114489695, 0.7454282067380222, -0.7806810966014995, -2.737245229747559]}, {"output_weights": [-0.06454801150329792, -0.1270829625530149, -2.030638800035772, 0.3421265062903346, -0.352323043151722, 0.17762013900154347, 0.3978893161946982, -1.3743753979649547, 0.34321921722942833, -1.1453342728417322, -0.960464425320922, 0.1871959479184211, 0.9588817432743055, -0.3947029500168199, 0.6361946426383565, -1.273173350064174, -1.587063445382295, -0.23985445347325812, 0.47780169514670595, -0.03103248306773493, 1.1139534860993525, 0.43308463440626527, -1.0575608347634486, -1.9719145412239427, 0.39559722764079686, 2.1216938605909514, -1.4306468031216184, 0.1387995241352982, -0.6333709042107618, 0.7819949762608513]}, {"output_weights": [-0.4558298122036516, 0.6004409151129556, -0.6253178747678992, 0.06144651138610567, -1.406017889664064, -0.22657332660461196, -1.774132367805427, 1.050167087915783, 0.7374612230146436, 0.16101372909846018, 1.7833734005124988, -0.9978887339933837, -0.25605863747693725, 0.15643359810171947, 0.9112933025637214, -0.9133384792731134, 0.7701814778505872, 0.9501399778412704, 0.1613565767467759, 1.4118686539798972, 1.0598502472483409, -0.4471766333238839, 0.9593732989060479, 0.41815022103040395, 0.5591986542302888, 1.3140899772136558, -0.06084729175500181, -0.46450122054209136, -0.6977492533128002, -0.4114909289340164]}, {"output_weights": [0.30321922827564457, 0.9200721355331383, -1.188978793573903, -0.29578378247730636, 0.7420265526094802, 0.16647824813691803, 2.0120274933802436, -0.4382979994428144, -1.5306208455188073, -0.9498162070596512, 1.1803523928773962, 1.042463883415894, 1.958140485067964, 0.27206889190333117, 0.9256873979111173, 0.16575509512102118, 0.8860973922357945, 0.9353624130877604, 0.029629656343503587, -0.9007076273225225, 0.6928834486164299, -0.6132589423090217, 0.3409240117831711, -1.1495302359512753, 0.8472776212176528, -1.0829281128180712, 0.06365693424156456, -0.5864308263190651, -0.12385770963143561, 0.2418810354658825]}, {"output_weights": [0.78202310871479, -1.6174319164678956, 0.2479267270555071, -1.2048888574690915, 0.0965074971547676, -1.1901638269335384, 1.349478167010908, 0.6880195992003779, -0.7567761513494929, 0.2502107516434036, 1.3098040812059737, -0.2311603070455012, -0.7065953419477236, 0.7668931621340032, 0.5319697132345683, 0.15474834822757952, 0.9145371483189655, -0.9605159757046072, -0.6758328286400654, -1.590800600545758, -0.7136811877651206, 0.6313816140627333, -0.5696911411247022, 1.1285592954063906, 0.6973275345920213, -0.994111518187374, -0.36171674319783975, 2.229416711524164, -0.13334488757270765, 0.052247477830841854]}, {"output_weights": [0.7010749448599434, -1.8921586178190466, -1.1043753163629784, -0.17672315788060816, -0.9217043487547649, 1.2016878984654151, 0.4957193374155971, -0.03568799158103737, 2.1076204217487504, 0.9630604168847682, 0.7931565541467064, -2.2054221223954826, -0.051180929887517976, 1.7826921848129649, -0.4178158891850538, -0.3729778781381122, 1.263739351999986, 0.5535556040439952, 1.950295732213651, -0.19606826913727013, -0.1197937985993845, -0.42152413705343833, 1.1910962030003815, 1.271389797999519, -1.0764124619139053, -0.33499611641044597, 1.3768701034099893, 0.8940558815440048, 0.43311615733610287, 0.25630975500627545]}, {"output_weights": [0.7266206373335133, -0.31468153046012537, -1.1356450273624865, -0.3813017957969262, 0.9524490446506794, 0.485737502337035, 0.9485025300094021, 0.9349424830328462, 0.7761683026099331, -0.6517880410417586, 0.5523791709722767, 1.0849548327392113, 0.6442722368054163, 0.1642599893283114, -1.0387477972994188, -0.23375687429500888, 1.5695199212349482, -0.7697850093313809, 1.7039282191474117, 0.9917532527023528, -1.3322255988213856, 1.212979552086847, -0.46242809313230826, 0.43599046025274857, 0.20835952352705356, 1.4320126139555338, -0.3835077892941285, 0.03939823852342897, 0.7489675293842951, -0.057121203055685396]}, {"output_weights": [-0.7758043911410566, 0.10995375889538161, -1.2831708355805467, -0.38863928068529335, 0.10574346282446724, 1.1202082115494187, 0.8355935682097977, 0.7007174749480711, -0.31719214602144835, -1.1506372765281274, 0.11634379512758179, -0.28709234500913705, 0.05484031632373351, 0.2755412778043775, 0.5931177546929469, -0.6327991326270013, -0.9991907358169859, 1.8483802046286828, 0.08770085605326858, -0.5293484025813088, -0.5443213369846422, 0.10364360189384537, 0.2780712903214863, -1.1746667074398949, -0.0998397803861394, 0.7856336373780678, 0.8524623908056643, 0.6925802622337814, 0.2326043285982821, 0.4923689148599063]}, {"output_weights": [0.23378227835899484, 0.09973647408462907, 0.519118349657341, -0.4598286349583162, -0.5951310579770214, -0.08284150570466677, -0.2221937564065111, 0.14097330604586403, -0.7424673875313804, -0.30413117163361086, 1.9529139835624985, -1.1600566521159428, -0.1665223797214595, -0.5170726852478482, -1.758921924523006, 0.06517551683173414, 0.983116913046724, -1.2097172694047147, 1.1738191775210727, 0.26825036449716294, 0.15897445745648273, 2.0462287550976272, 2.4237402465695923, -0.1170194481212651, 1.0715216776364764, 1.0304505076877828, 0.773638396951358, 0.49263912713751074, 1.2810938979050508, 0.4502796420886072]}, {"output_weights": [-1.1982231722858285, -0.6135920853552029, 0.10897654700968384, 0.17178910292176228, 2.016831608579524, -0.019232077142635508, -1.8495250019265048, 0.31317008467608126, -1.3095204412053945, -0.22248819704759765, -0.9861528209700099, -0.4944452981531494, -0.527503918202824, -0.6261015425113126, -1.9460095721250135, 1.0157457304255977, -1.6812488970732031, 0.20820350321739958, -0.4156529266064237, 0.1803996318209127, -1.9497165499833393, 1.1217380734644573, -0.0002241615852483277, 0.5622373986713219, -0.6674261677622968, -0.6964712560857076, 0.02541774702672375, 0.8646943978482172, 0.41130326619139396, 0.012564119740825011]}, {"output_weights": [-0.06414671392727385, -1.9854728524673364, -0.15318705399630936, 0.30977612466744875, -0.8426932642420656, 1.0117273938620788, -0.4227709056180772, -2.373353508996894, 0.427408773278726, 0.17064961251972405, -1.1969379630739456, -0.3346057705733567, 0.4488118942251688, 0.3521249369333552, 2.158276423809195, 1.680143497097333, 1.5922813893775092, -1.6231644676231372, -0.3643337721315634, 1.1914954067777879, 0.2680659819193732, -0.9422630667933134, -0.01538215833504503, -0.7043773752696749, -0.44234624279972184, -0.02040285731541473, -1.6452500295018433, -0.12782105714503295, 0.4749931492379479, -0.7836867156002031]}, {"output_weights": [-1.25100513214149, 0.14568837559752393, -0.791667297267767, 0.9897688480791906, -0.7567801045723787, -0.9263594639184506, 0.46226365283048804, 0.028606101919970126, -1.1984876003750835, 0.8870621903373102, -0.653324904232976, 1.4318809113604465, -1.6548466145390988, 1.289511902138037, 0.2896911533010162, -0.7551064377726535, 0.20449264850020404, 1.2149833902651106, -1.3853587588292693, 0.31099608533892104, -0.6072077446327601, 1.1023696083686325, -0.002505512731452135, -1.195795306417727, -0.6722271911927018, 0.467086361417235, -1.6670558966303748, 1.1098461884305486, -1.173057423572914, 0.9044313333198909]}, {"output_weights": [-0.19813987840696942, 0.44627416833458233, -0.3794716661847838, -0.991591878031506, -0.9769436380423823, 0.637861944267672, 1.0944392318686702, 0.3525384545436856, -1.7390211090194168, 0.365061978553884, -0.4310309112058788, -0.23943110915810725, 1.4278948888063014, -0.7083853264265186, 0.1307312332786557, 0.8173666261915734, 0.1956027338115548, -1.009866780053822, 2.2368320381360127, 0.4074891982410223, 1.5510445537195183, 0.9994247209599277, -0.5507825169840594, -0.2457970855126694, -0.9427688812746042, 0.6738231587750619, 1.287035957268032, -1.3326366322366276, 1.5662679186053332, 0.6806143995060946]}, {"output_weights": [0.2335580072628962, 0.06143490011464553, -0.6244011387664419, -0.045987686194847284, -0.49249987216622904, 2.6222960140940503, -0.9838666576782834, -0.0387332048280012, -0.03861041255900956, 1.177289208907483, -1.086580616384836, -0.4737420981974625, 1.0381676480032815, -2.27153176370928, -0.8103387515876511, -0.5542359578827072, 1.155534707050462, 1.447650812261995, -0.30994436647568996, -0.035715221003326, -2.515071967255447, -0.9792285286918597, 1.5591523444687987, -0.822120736068953, -1.4366690673083482, -1.6686783523271238, -0.35669281885527504, -0.544421650045104, -0.020652279268617818, 0.38752916306072194]}, {"output_weights": [0.8607072438239783, 0.9074989595292723, -1.592231588502441, 0.32114986818931957, -0.7669262189178202, 0.03647816316275735, -0.4869571035133736, 0.9675281845181667, 1.5961485588485342, 0.2388187018274567, 1.671855749845261, 1.3029754347957094, -0.7967584495664846, -0.13643281162615195, -1.188519305074181, 0.14131345052769906, 0.9966072846204629, -1.5658383103553486, -0.5704181175268843, -0.7537917720196978, 0.5601450892755596, -1.9697999802114914, 0.7118111864269573, -1.983674126202483, 0.4131288418559821, -0.9701659546094322, 1.2712178649285835, -1.1079750053457667, 0.37616024803205816, 0.623696795981412]}, {"output_weights": [0.7029952836450188, 1.0285875052032165, 1.7176216090040874, -0.3881181025525821, -0.8196080897963348, -0.744087585190472, -0.04796971143393197, 0.41109038547437393, -0.6599713720839774, 0.07466973919203734, -0.6819038114747553, -1.5305163890163807, 0.8532641723805314, -0.6059281819683993, -0.38178835756341933, 0.0836865040791771, -0.5976665443450372, 0.15287457062221982, -0.07921445863332009, 1.14310741633642, -0.9745467925489101, 0.05744559984852517, -0.42502476739392536, 1.4100184234400885, 0.4108268634599342, 1.5394636707918168, -0.30858647631795033, 0.436421161044396, 0.7991491939704365, -1.0328782793871802]}, {"output_weights": [-0.20898606752195742, -2.018448756386485, 0.41635309439667084, 0.1821334860386727, -1.4934949705836966, -0.28495981602246945, -0.4736876959381669, -0.25097241926459696, 1.7554911009894656, 1.094502659456888, -0.4094060017778594, -2.517090396959309, -0.6495776086090657, 0.6498082859100577, -0.8679440833601315, -0.6131558069500538, 0.7983229049099063, 0.8260110581404838, 1.9189704306977204, 0.5284292986275948, 0.09818995409918785, -0.09111290552306162, 0.2765691891526732, 0.8252664900983027, -0.21035134524957513, 0.4694075772758385, -0.05203476379731566, 0.29181864323183676, -1.3053730790257443, -0.5609574371047538]}, {"output_weights": [0.7267896554680244, -0.5760627546041577, -0.6918051720459181, 1.1715598256861868, 0.14706196185391238, -1.2292284895487655, 0.35358578493617077, -0.9712178051268114, -0.6009442602132421, -0.11796615186807216, -0.3474377624291388, 0.6238062747814859, 1.0012154656418353, 1.6366931066795194, -0.4585154159327003, -0.07207526011486008, -0.04764460336004521, 0.15564058741038933, -1.1139314613758062, -0.7909641429705593, 0.06459941658797666, -0.6028606813324223, 0.7209654390788749, -0.21979643731888088, -1.9958443631484473, -0.48194507929736397, 1.6529342202424764, -0.9788812839313648, -0.26496839496698044, 0.9109282753562971]}, {"output_weights": [0.2716629868754875, -0.13080313025568938, 1.0183868946679366, 1.0771190503871106, -0.5559385909768362, 0.19967821051110682, 1.112963821583925, -0.5771917787257459, 0.056801133380898594, 0.41928891341639196, -1.1930857794228056, 1.1591815043608518, -0.26235012412152153, 0.1508975721967772, -0.6024361511567737, -0.22328039796279583, -0.5270050409499958, -0.19985819066185037, 0.1424099461947784, -1.2868360899663964, 0.8027963414596816, -1.0687854948286046, -0.6840077403880532, -1.3028323760867353, 0.07428797670847571, -0.5915199466350137, -0.18170877343915412, 0.8313365496614253, -0.7149009895258315, 1.1947453728930315]}, {"output_weights": [-0.4661776366348131, 0.7175283449494415, -0.8150859665199286, 0.1974408890129821, 0.40553107806981276, -1.3733241735069104, -0.7291701234987652, -0.3017782602843919, 0.9472689174677194, -0.39634978017891354, -1.3873648654961617, 0.026920607322679046, 0.5551892486484833, -0.3123270885440111, -1.1601674530939365, -1.3674015942093456, -0.8527669294736605, 0.14837168045979915, -0.32902199948470406, -1.3792353552425507, -0.36560311221569397, 1.4911498862181878, -0.3375113637268494, -1.6815067609439476, 0.8509430783982639, 0.5413465188597925, 2.2338693113808556, 0.8049979436953374, 1.189232845243448, 0.049042514572978514]}, {"output_weights": [0.5959836497529136, 0.4688190218334958, 1.9021198794747445, -0.21431378614486182, 2.0084774663080736, 0.15345663372131246, 0.4148045969127519, 0.4015563273742087, 0.5329562862384116, 0.39682486465025085, -0.44966985165891127, 0.6049400648282935, 0.21507449654791222, 0.9283742111925254, -1.1238456571768274, -0.218532498565558, -0.04030184502605795, 1.3765247128060547, -0.6549122399020576, -0.9460395856310878, 1.1294496563725696, 2.411885385053771, 0.35177794301842624, -0.15241635507384593, 0.6802235972156657, -1.1612406179458865, 0.044398227305199815, 0.07906735414760356, -2.928318763275225, 0.4117002476449817]}, {"output_weights": [2.1062657281934976, 1.8578440852062699, -0.08674295732150823, -1.154044259336727, -0.8035987038241437, 0.307820641374631, 1.1322275911459048, -0.13586029120938042, -0.771324948937525, -0.8882805053505269, -1.805683493254531, -0.802247521215462, 1.4424202084792301, -0.13865335133414594, 0.23497241499896593, -0.9323017117037735, 0.6358842128723156, -0.09022252819053606, -0.8712214892908072, -1.8645013285442156, 0.6087923610563538, -0.03154546169987195, 0.12576292480784684, 0.3034822818517364, -0.0051137453609398, 1.7117761402085496, 0.5113783984860488, -0.714811434804358, -1.4125010403329221, -0.733264547549884]}, {"output_weights": [-0.3854805452814884, 1.0105307751315895, 0.48058025595557596, 0.7615404253442403, 1.254442794279555, -1.6701810191484594, -0.7081696349898826, 1.036477619426349, 0.32101918586978617, 1.2717965448496782, -1.2907319918690676, -0.7801886478954368, -0.9861162314439684, -0.12374795120605071, -0.9594187268533458, 0.865262652483621, 1.7018099947210088, 0.4757211096904464, 0.7662394375224524, -0.0718899843237673, -0.7537615814663404, -1.2000772915242877, -0.7177732962283074, 0.23626732298100528, 0.5140299894768057, -0.8137778829493687, 0.6098628483645012, 0.14579972111331682, -0.7523971230892488, 0.9703869641582767]}, {"output_weights": [-0.25880312145579104, -0.3133851358543927, -1.4865006270005008, 2.205135131424725, -0.5949019009924226, 0.4101653220757436, -0.9924527039740109, -0.2685302635025758, 0.5078639305160079, 1.8502388271639179, 1.0835006676382457, -0.8565045827261442, -0.18390938638975846, -0.5681710461003134, -1.0023831978963098, 0.1320231686840806, 1.2319493435354778, -1.3399959526800862, 1.0794766413421326, 0.09126137990794496, -0.5101237774071264, 1.2110812073462423, 0.3305432579829584, -0.061312718962784146, -1.5491625704516891, 1.4868257477920288, 0.7435184975276041, -0.687993437237594, -0.7181691420126408, 0.7161295384908436]}, {"output_weights": [-0.2637614772990477, -0.799655136811036, 0.2836170738929994, 1.5512426456751904, 0.35713817776613294, 0.47753528729132244, 0.6766473228016883, -0.7203582111417587, 0.5149275458868844, -0.1305616384525919, 0.10403529144095307, -0.26388685350710933, -0.6241971496543135, -0.2174408420338754, -1.5430840409561564, 0.02369665810882608, 0.043465079317916516, -0.0980157274441999, 1.0248699822523724, 0.16669394409222163, 0.27313739878176174, 0.25514383266318724, -0.5229105979056023, 1.0152036419447337, 0.23809189708035663, -1.368552233882323, -1.6675202755052194, -0.6476000714007155, 0.8497874319954118, 1.2672440815767718]}, {"output_weights": [1.5804018890534914, -0.17275217946014468, 0.5251652981324434, 1.0334134703474336, -1.8749345445478691, -2.083543277854433, 1.0409291696962542, 1.0706400696885165, -0.02710856195237325, 1.1486580605843641, -0.8238835558805072, -0.020891822938460466, 0.2281252460436872, -0.050228699874139034, 0.8193392361827542, -1.0967040946832305, 1.651795925441833, 1.2921552624991273, 0.6037001099502817, -1.0634559933194174, 0.3941700117052924, -0.05045611262706617, -0.596256007472143, 0.3590868530562639, -2.391976514513168, 1.4392231066872985, -0.48065814292190884, -0.2709910882212506, 0.0634030822667932, -0.747947024791403]}, {"output_weights": [0.15658583416571936, -1.6568167440813568, 0.4207063886356914, 0.6820052656088929, -0.39911682329904363, 0.3645211588832991, 0.576542119017501, -1.3973224894987464, -0.8943690895250482, 0.21690599582977577, -1.0966819003573351, -2.1585539829399054, -0.28023067002409174, -0.38045488881630124, -0.9534504979769288, -0.39787731308452273, 0.2482108035194519, -1.150844724453046, -0.9073970369691504, 0.5004277352896161, 0.46222439939585336, -1.4353629241214085, 0.04976117284692382, 0.2723754359700427, 0.881147132469387, 0.5312500487040469, -1.1012730949656881, -0.35161636065914464, -0.33791490818321523, 0.10708869491269297]}, {"output_weights": [-1.5123338912965933, -1.993175286430663, -1.8987138824408583, -0.8791288826789776, -0.16361896592235256, 0.2836772061859467, -0.7562632013289187, -0.35655746097144125, -1.9057522872547785, -0.5818057082732291, -0.8896688956891214, -0.5582030161335231, -0.37099904651970234, 1.023415585244574, 0.9401565789489522, 0.8894874003212008, 1.1999814314719992, -0.5820191661729485, -1.6183565392426562, 0.18068019582859932, -0.47114925044862144, -0.17705785782832092, 0.13291543981287904, -0.7256629046415157, -0.3649535610340806, 0.16626410587524107, -1.5321848493631562, -0.29733021915917196, -0.2617373370214455, -1.1167038713770585]}, {"output_weights": [-0.07176146937643807, 1.3966563084846126, -0.9855823085138636, 0.9060026168908534, -0.03801218765728949, 1.5508770712297975, -0.6674136070639403, 0.3299252578453577, 0.6524128844295523, -0.9932173256962394, -1.2400985043677408, 0.4949491733543413, 0.9028202238434859, 0.730844524188615, 0.994293000069721, -0.04073224689771253, 1.6084666157023801, 0.23806753211785597, -0.7966940416944284, -0.1861360308496861, -0.3867359473653194, -0.6508774374295608, 0.37681883764115487, 0.5619636512150677, -1.8235466044556115, -1.0513132032309114, 1.2485573613655634, -0.3981806849671401, 0.14606039950853386, 0.7832403537495229]}, {"output_weights": [0.2396771090637994, 0.3602498604669683, -1.3105199522501365, -0.285036849413649, -1.8057126865194766, 0.4762915296389209, 0.8327709544758986, -1.9693296231948094, 1.0820144884245133, 0.7851811252284389, -0.022519301550181874, -1.0472704811827842, 0.616999398021651, 0.9000641054077773, 2.21005446903485, 0.6003603957534387, 0.2401813506003908, 0.23255317212481902, -1.0303478600502158, -1.04065040762998, 1.0682884848211334, -0.0858493282660069, -0.5607559511603973, -0.6661754626804874, -1.360097522811588, 0.18868869253050008, 0.06180160621748798, 0.2100351256175677, 0.7635043361582933, 1.150888963911242]}, {"output_weights": [-0.7706948077173746, 0.6406351083254026, -0.051909798540335034, -0.2838045800166747, 0.9947242446808162, 0.017519852822127466, 0.7667930715609328, 0.9218260865244641, -0.3751033165792224, -1.2588735372009658, -0.9254000349379297, 0.009249703618822259, 0.7031040024874754, 1.7666773490774588, -0.35593312838321284, -0.8814300723593281, 0.19854530692780523, -1.0017506111315646, 0.7901153435760229, 0.17059438192224358, -0.35943995587415645, -0.508463099762937, -0.8438286904086075, -1.49334195318238, -1.3790140909743205, -0.5171533375138727, -0.8996542825459958, -0.8993057384545701, 0.8243596112777511, 1.4134404223048243]}, {"output_weights": [2.011795526750355, 1.9815594766847608, -0.5058613644675053, 0.5587227929953102, 2.2106435899211605, 1.2773304869240483, 0.41779491569084737, 0.12144139099143793, -0.4866299197396999, -0.00903192269180835, 1.322508052253655, -1.2753427811953328, -0.7384496046233464, -1.0249864091234189, -0.9905379704129703, -1.0019222778645283, 1.5128991944786, 0.2731247146147361, 1.6875032284844524, -0.4855285149585193, 0.4423502363032369, 0.6378906328203952, -0.3259990932177963, -1.3932282110557608, 1.9154454830706598, -1.6228091150786963, 0.9279865417699412, -1.528992674980881, 1.5033638176318085, -0.935454984542998]}, {"output_weights": [0.8298926072199649, 1.4943719813676029, -0.6096869145464211, -0.4013579047716883, 1.888882365347639, 0.22646291388401205, -2.0920603743337574, -1.3886504826612718, -0.6055239603201912, -0.14941583903789013, 0.15882184502060975, 1.421942269356003, -1.7684717012162354, 1.292372869966533, -0.76940905093379, -0.6522211378211799, 0.48374431187976763, -2.0662771799802906, 0.1733478870325389, -0.4689933185784898, -1.2657751824851593, 0.06445083551063566, -2.2396722011780104, -0.0205837105364029, 0.6777852397852473, -2.0221427034033748, 0.4230485111349223, -1.3479297578858258, 0.7439095792543159, -1.3150034668041886]}, {"output_weights": [-0.2704036999369435, 0.37848319394869406, -1.0653974711666314, -0.546375023224242, -2.237398344573389, -0.3463626369634318, 0.9762494798869855, 0.17068529238389032, 0.8752894588759634, 0.545018073171789, 0.16778175964167177, -2.143368757506695, -0.6473476691989122, -0.17704497666719382, 1.561038850940205, 1.6793467114506617, 1.0562008987868086, 1.2724280744773961, 1.3431301357015377, -0.17719204908340808, 1.2856542058514338, 1.0630158790897946, -1.1340104333944663, 0.8247897965315951, -0.03128653827406266, -1.2688862013443334, -0.546415086638052, 1.4812692010892865, 1.750722634918899, -0.6346539270087485]}, {"output_weights": [-0.8832844705445122, -0.2866744182197857, -1.3205047245068422, 0.5706615323206687, 0.3221648028084904, -1.4180629071176807, -1.2879874853858533, 0.13333773730593113, -0.7366132427635733, -1.1092764670548851, 0.8179291473393157, 0.30263915781360745, 0.41683548206272786, -0.9598750902596564, 0.521750574390477, -0.13745237837810745, -1.5346099772347004, -0.6785562903202734, -0.020037652809315593, 1.226193069052251, -0.09775130477906323, -0.1742920593777558, -0.9421242466957587, -0.5886081018184448, -1.3847568478119014, 0.09941731546123542, 0.39459536049841987, 1.1603038580777614, -0.3960516575969043, 0.4937817436875093]}, {"output_weights": [0.36027835753095505, -0.8756919816633162, -0.21569776585259523, -0.002473842778131301, 0.237077796145282, -2.1312079509440864, -0.6843418153450664, 1.0131473085875446, -0.10171711586789878, 0.3147734663072125, 1.3734054189481777, 1.15725410735512, -1.6496698883215974, 1.1097148199755755, 0.35222058309824206, 0.4073351118420487, -0.8913109574646352, -0.35550643751701466, -0.3635463313691109, 1.6120711592307881, -1.0348239698210613, -1.07757130332528, 1.359257865067415, 1.0791142776266351, -1.7685529657282284, 0.15635318489474065, 0.07273978428376811, -0.04807829642032447, 0.7293999607665819, 0.6703967238811086]}, {"output_weights": [0.030137748268856433, -1.028880131514683, 0.7647406862776018, -0.25506234413407974, 0.8628909559913025, -1.8932736828321202, 0.3590904020912683, -0.020788294645133244, -0.42116834477919685, 0.46976309926537857, -2.1906733005356203, 2.535673723495375, 0.24207718248201396, -0.21564586200511623, 0.3163706596243428, -0.8027732444625553, -1.0448371910155034, -2.086626865032951, -0.736285776351838, -0.6952060728411502, -1.5994447808077854, -0.19179668730110114, 1.6590923450321466, -1.8257965639412175, 0.8165433602501418, 0.8271069936018549, -1.1066575264218828, -0.4976934164861678, 0.983794004576585, 0.2841371238624034]}, {"output_weights": [0.4662084255470686, -1.3064181358884224, 1.103201722954394, 1.4321774049050637, 0.4845166971132098, -0.046646102471632034, -1.713193691690918, 0.8522175947157665, -1.1233112711160393, -1.2183171858925521, 2.019035707752356, 0.3354105096681824, -0.1922691511354689, 0.4334455464523659, 0.3193007736364068, -0.945903180798667, -1.9350794367912034, -2.6726986187210677, 0.44591795599168177, 0.18581364518400756, 0.19122669953451926, -0.04210137212253873, -0.35765599109912694, 0.6273073210978382, -0.6859761680204108, -0.14448034838840593, 1.3943144407742551, -1.4553368993848725, -0.5350676549858342, 0.6680511848160818]}, {"output_weights": [0.9411470581599296, -0.7450615756771796, -0.7584135844054891, 0.988532971617311, 0.38212708908304044, -0.46084627648175214, -0.7763021936831448, -1.4581343396945021, 1.2094112726320598, 0.28911136458853925, -0.07201044299464436, 2.018083323380319, 0.7990636576903659, -0.5470792391462814, -0.1299383654935065, -0.6341368511197358, 2.4627727830847577, -0.550321401733403, -0.7777993891100864, 0.3365309463110917, -2.1762396613737143, 0.12988819073814736, 1.233777803706841, -0.7885164975690412, 0.10091943917751248, -0.42621402386664736, -0.6291570360750025, 0.0748078067005304, 0.1694678977295707, -0.4745001122786715]}, {"output_weights": [0.6989323631755042, 2.033100007360894, 0.1881210125105925, 1.1963704579434233, -1.1381244316189036, 0.13877178543838636, -0.15896044343470625, 1.8977579500104513, 1.7925227679458573, -0.25563198025652306, 0.0042852593294638395, 0.334783217027083, 0.1493276393271508, 0.8860114983938067, -0.6821093828964601, 0.7808197871255567, -0.5612762255891174, -0.34114171390117093, -0.9910255231470252, -0.804606964019593, -1.075389151028924, 1.0812921324898037, -0.06104600906798129, -0.32970949703748276, -0.21668938643951705, -1.2826687015293454, -0.1797434782903677, 0.6369351868068979, -0.9185500143844099, -0.21464194906590586]}, {"output_weights": [-0.2154606096915439, -1.3281548181012344, -0.1984014565582434, -1.2015701224914723, -0.6833723616219739, -0.8036706107810246, 0.47459810671990976, 0.6224540925264157, -0.8871045399888488, -1.0220435724252193, 0.9096550005832124, -0.5439958960081729, -1.5456556198969085, 0.044550137976529354, -0.3474751962217273, -0.23474566043560152, -1.1788003351220142, -0.2521090488830712, -0.5720845551472599, -1.2011667440624911, -0.033753916630155784, 0.5856347583914169, 0.20960884085437453, -0.3477259634841166, 0.36980095929162815, 0.08511621791687139, 0.24090377645298064, 0.8860831257799107, 1.3170279041653623, 2.0333993649961166]}, {"output_weights": [1.1346002656381013, -2.036128522293136, 1.7150858565650529, 0.9523601770874431, 0.8238238097666627, 1.2191194098068654, -0.413833450127526, 0.4967324159029223, 1.545028523901404, -0.4202270560339558, 0.5970349420999355, -0.31604468295076077, 0.742767574355794, 0.2947469735370006, 0.8264077356035489, -0.3391186125563053, 1.0750745082774953, 0.3377079109553557, 0.34038599541301073, 0.6943883188456874, 0.0504225137505034, -0.9413637261585167, 1.6269606099330525, 1.0445145982997226, -0.9375287972075174, -0.0321820654675358, 0.801196400923265, 1.0717166998863565, -0.495308695751208, -1.5729408211013651]}, {"output_weights": [-0.8439748668952265, -0.005946125045998609, -0.4688418614934473, 0.9942385651846423, 1.5196823691397903, 0.7034314652969206, 1.3391172632900343, 0.0628241391855459, -0.05711590875272443, 1.3304494664587, 0.17205077335711796, -0.1016574589290289, 0.3606451778394241, 1.5830958530342758, -0.4319544314647584, -2.505349485174594, 0.6706447467261205, -1.157457105517846, -1.367427490638184, 0.8793885388906223, 0.24876928865389678, 0.18831288405774085, 1.7733182706118396, 0.41319298008556066, -0.6057550844773819, -1.4483671255039199, -1.2618608729488192, -0.17696416966244646, 2.926550532826689, 0.0020790808835874017]}, {"output_weights": [-0.5138415353207519, 0.26169053936454145, -0.6049084950536454, 0.6229889652079997, 1.5069565753229117, 2.1503178405222982, -0.5434852322666107, -0.6106098036996257, -0.8022996813000501, -1.1253977556672532, -1.484817609478061, 0.14742599452041252, 1.531492207802943, -1.3439407863499138, 1.6520245154359794, 0.6846680458692328, -0.20145775538710253, -0.799294368092138, 2.1877441509036353, 0.5094011358372039, -0.29764231046951894, 0.7996297760227522, 0.051789428717924406, 0.24317294626566208, 1.2712581615643044, -0.06097246830664657, 0.36291563903962, 0.8332318807757677, -0.2702958693317704, -0.3256965152488889]}, {"output_weights": [-0.9089144561925079, -0.37791207929714077, -0.0359981840865728, -0.9591290648320003, 0.01855682737364392, 0.3461086196844832, -0.5626659194807401, 0.09751634882905823, -0.4543781881227595, 1.1669582141289925, 0.06643006270283128, -1.0226918337245452, 1.5050545217279974, 0.6291360964077355, -0.8147844917897469, -0.31600513288278387, 0.3916079329832588, 0.26998730677822225, -0.37597481200800076, -0.5221908525216534, 1.9472093801683448, 1.0447802840274936, 0.6015340775559929, -0.544872559805534, 2.009304780263828, 0.3352023381798296, -0.6453344338709522, 0.12536965877452388, 1.7837681232226779, -2.219834217959091]}, {"output_weights": [1.5484508886329142, 1.4561287039647302, 1.6332864015973867, -0.8314716092237472, -0.6246612849739736, -0.8540333914764933, 0.30800920442639157, 0.8737310771397152, 0.8906682384400637, -0.9093091144012684, 0.6685836633022255, 1.4764883375534017, -0.38662083589308033, 0.09908230389317683, -0.6760640836661891, 1.2679587411277766, -0.3132807506810385, 0.12132273237092804, -0.9289976649081239, 0.03555368178818056, 1.036720305907086, 0.22636032861329455, -1.280381648921609, 1.4442947549873306, 1.8635515078534324, -0.3722224473574474, 1.8515353619418582, 1.7273138217903143, -0.6641701828193415, 0.41832757446974095]}, {"output_weights": [1.1415445130113404, 0.23154365417074851, -1.5453583619470312, 0.14335200975302645, 0.19769240046637965, -0.7171122945344709, -0.21004513876613018, 0.6242805017120502, -0.9832484789944679, -1.679614013636492, 1.9985649377087344, -1.4176775228023488, -0.13329737961746943, 1.259779034288768, -0.11158961991703328, -0.5602294901046903, -0.7866801736861472, -0.9772084517698727, -0.16511651858825355, 1.1777342859168725, -0.04455815097739053, -0.47144200463568414, 0.07585702050919155, -0.42416398735780303, 0.7578692802423682, -1.9762732342605367, -0.027819058760279444, 2.2219887593022345, 0.6585638964723677, 0.059199115565759804]}, {"output_weights": [-0.8343813113454722, -1.487185555476366, 1.393152295063863, 0.8609867559921003, 1.5766454929426856, 0.7142614601402058, 1.1269059226417444, 0.5040676277610288, 0.8935326997594683, -0.8108533136681931, -0.9760259439378934, 1.0771357805163346, 0.3490138406688077, 1.273443421672209, 1.2111605833185104, 0.20832180711509735, -0.27727516808026476, 0.8110486490590358, 0.7243867359982665, -0.07114611263695945, -0.17861450867366616, -0.4161949507553511, 1.2911206579646572, -0.8956566185379315, 1.5874787452760133, -0.14929870155908004, 1.9974636525067682, -1.305357219857344, -0.38317131735239546, -0.4639274939001171]}, {"output_weights": [-0.03397366629289232, 2.5307333416672018, -1.4413557134417485, 0.33122203891178664, 0.9646228571124593, 0.9189263373677192, 0.28246251465021593, -0.363822871789145, -0.32222865137966783, 0.1906266184214796, -1.3851459769672518, 0.006044290806857985, -1.7118253649032025, 0.07735438509292769, 0.7522616744530778, -0.27191655221165556, 0.8887780331777848, 0.268287892790653, 0.2707488717941358, -0.08788098913497151, -1.8606279463900977, -0.44017307407268397, 0.3810196320019603, 0.3915588808555089, 1.3369576587175913, 0.7258952820702029, -0.07167687527666618, -0.9197336898476076, -0.2543091087809203, -0.11394779331040711]}, {"output_weights": [-0.6246804097771581, -1.9233869593213528, -0.5758661931491889, -0.1954750120396951, -2.004445012575047, 0.1630350263541532, 0.5595853231997473, -2.0116888257926764, 2.2294352470245067, 0.6275358453030226, 0.6918506448126895, 1.7772344517403886, 2.152812224815227, -0.5003675384538744, 1.4746699710463202, -1.8343732955809846, 0.31121278295541166, 0.7040018237142984, -0.4444347486707428, 0.09821528335046113, -0.6566430660187534, 0.1205210058843607, -0.019855326250485687, 0.29691600958402015, -1.7836805736999326, -0.6470902998342852, -0.35082047121473015, -0.3501292797790518, 0.8363388790034377, -0.40192615951711647]}, {"output_weights": [0.42853972953357927, 0.44756036105895625, -1.2210000746313565, 1.2387724894077394, -1.1650775892808671, 0.7539965852189122, -2.045932686106202, 1.1565966693675003, 1.1973482177673656, -0.793992138475355, -0.25817756572721756, -0.4353562298815207, -0.7605065436005717, -1.4096428423132743, 2.38409177827747, -2.4125332223146017, -1.457359810075912, -0.5091007232272992, -0.7640079058398055, 0.8051615044027641, 0.8458474127107954, 0.6931719045042509, 0.15345649945995293, 0.205787075245654, -0.05104955219027539, -0.015713353401553123, 0.13039130790684686, -0.43850752935351067, -0.8987501460694564, 0.22538692897397566]}, {"output_weights": [-1.3351122018783892, -1.3941268354430156, -2.0589002987995215, -0.599748047517079, -0.741244849021965, 1.2981112360292875, 0.8219740324223359, -0.03522093144781849, -0.7336600982806517, -1.8316583412081306, 1.4127026718632747, -1.2939043786917945, -0.3388019057475612, 0.5931396395462116, -0.2752399477723547, 0.7288097160002589, -0.023873714459669487, 0.9358827358181757, 2.796252105363865, 1.4567338285661908, -1.7038255246271135, -1.3971929178614022, -0.46342142973594164, 0.5578440338236867, -1.3296401585182243, 0.7861547535553801, 1.703247311106867, -0.9913506863418455, 1.5482799679467425, -1.269124047334249]}, {"output_weights": [-1.1742806225780589, -1.8885010916181078, 0.8655567754797078, 0.17277689378044586, -0.5748600002455087, -0.599899305007623, -0.8559933336023289, -1.4731669679248416, 0.30701740913934056, 1.085428003015667, -1.262659817717347, -1.38509859602497, -0.011042031916438488, -1.0877916781340031, -0.573812718865967, 1.0471402030777326, 0.8041435025142997, 0.16139446079898806, 0.14011143195991135, 0.8106978599411947, 0.9894020206153378, 0.6561639079118846, -0.19238607298925015, 0.6712886712208312, 0.3085845219752225, 0.0009423344565379144, -0.049420716939394295, 0.27036675020698625, 0.5111079462583878, 0.24774553070644326]}, {"output_weights": [-0.7950169534347636, -2.8258920991977305, 1.161011522726321, -1.409556882143851, 0.421684541000063, 0.6347811139434318, 0.5376242203912018, 0.35307568289957353, 0.3647890420432674, -0.6471972637623491, -1.1255102153616952, -1.5948782654764606, 1.829627154030283, 0.6096035784405694, -1.1359210825230674, -1.6853919647246856, -0.6406072050271756, -0.998048098166037, -1.551564852993695, 0.498811646162771, -0.8406954664623076, 0.9911051549215372, 0.016594436411611305, 0.9349787496799333, -0.967381116179384, -1.8306253430607264, -1.3424857039646654, 0.28958591737703826, -2.6161933463112903, -2.111489244058376]}, {"output_weights": [-0.2239687827533736, -2.3544464131754665, 1.1615623038984235, 0.39892773254686825, 0.5626917895563741, -0.23157804966447576, -1.8095687707350903, 0.9218096541899669, 1.2504322495167364, 1.4734018318381361, -0.5746275500742271, -0.9138671172137427, 0.2472489192593096, 0.5113501492828787, 0.9993722574672268, -1.9353925968284424, -1.0172241537133784, 2.047071869802624, -0.05740430841697172, -0.8687030070305608, -0.7111391779517937, -0.23490339038108599, 1.219190383378213, 0.355329997760078, -1.0477522774074406, 0.07919295848911219, -1.3198927281330801, 1.674072160517309, -0.07730520852074245, 1.869035089314802]}, {"output_weights": [-0.16721671074174435, 0.8070475687173677, 0.06314433680185315, -1.0362334581199868, -0.5286840275853641, 1.3677151469522826, -0.9696202363716622, -0.42478386332628815, 0.05779402688582936, 0.6680755551365163, -0.9270637521102071, -1.5337621407172277, 1.249560734435105, 1.0470457805630258, 0.9125327815919024, -0.22564409966576943, 1.309241354697348, -1.433461991309575, 0.32683383831538004, 0.17095869870164737, 0.7739121021456289, 0.680451023294154, -0.4218879436472544, 1.5384239345697148, -0.7138755158687966, -0.35302651192580625, -0.17938403657288152, 1.4479420615776328, 0.6279879536712151, -0.45349229751642606]}, {"output_weights": [-0.06593473677114872, 0.47259848134504856, 0.011003852291586949, 1.5108279782814795, 0.12155953300798462, -1.1327863499762372, 0.759330296191735, 0.5066163833162722, 1.047373798594415, 1.0464304277892233, -0.034799620363537904, -0.12162932084801449, 1.0015319171708106, 0.08639180493097184, -1.0231400171067624, -1.949665837066383, 1.0205901136225806, 0.3075433049593571, -1.202211925937491, 0.2987144972809095, 0.054333082913102, 0.8980488033942536, -1.2478198533241354, -0.7503375974352066, -0.5507732245872482, -0.5766890277818746, -1.049280716346592, -0.4500052716333458, -2.492379300139366, 1.2520355916398043]}, {"output_weights": [-0.9315637856209611, -0.7277031512639215, -0.1655378161886634, -0.989363731753574, 0.09965401828873592, -0.663553414038686, 0.410160388458162, 1.4402808704709262, -0.1830343185277349, 0.5641901443606643, 0.11198264929854476, 1.7316717001650694, -1.133496409773332, -0.49800436376390145, 0.4375619271940218, -0.4668244377037126, -1.279542778920504, -0.06074195852868957, 0.7203629817425843, -0.25317542037510604, 0.3213044912862901, 0.7671450662219983, -0.5148082331957579, 0.12860465956930414, 0.08585317161086653, -1.6868056563944065, 0.22234974153290984, 0.13182446663945815, 0.33875987931939266, 0.06776873466599838]}, {"output_weights": [1.1142339576787115, -0.24722193584524454, 2.736075184663606, 1.8562577363855277, 1.7054675093446896, -0.637195186166229, -0.47781161857112125, -1.7341838675308545, 0.07023174383101012, -1.7990060838084763, -0.1543913599376842, 0.04649688762136396, 0.6089069433137374, 0.4338732705212049, -0.05248352429107813, -0.2958914273643627, -1.158091677152121, -1.6963253441648092, 1.1167100492598026, -0.27487512327329117, 0.7798684105536764, -0.32912213892363607, 0.21429708021484425, -0.18369192877910803, 0.042459503541424276, -0.7023475969586901, -0.8693648794911321, 0.7993920263138586, -0.7936407506756544, 0.9401469355377726]}, {"output_weights": [0.025338612932880013, 0.7791988957325596, 0.5675831893900621, -0.33481666846314734, -1.6861214755865792, -1.3819359103668014, -1.2211879163389692, 0.21101447622691638, 2.319094361703965, -0.07425137918943527, 1.878144184176285, -0.9864954595856926, -0.12468990392377546, 0.4246722462458153, 0.37827229093074777, 2.3312517198438925, 0.3070910190937639, -0.030150630506641088, -0.6390340698970866, -0.3373691392108048, 1.1961772919584694, 0.7645719470556556, -0.7717917344354841, -1.0290652987706215, 0.025629151910057362, -0.728509638683963, 1.7508404537290063, -0.13185587895956713, -0.06959394552521625, 1.3622249956296428]}, {"output_weights": [-0.9364355907030174, 0.26017317429682424, 0.0095221949985428, -0.36085170626497337, 2.140112325628363, -1.9335298159798535, -0.9589312373341653, 1.9549750233578103, 0.2671849688213631, 0.17938524063418076, -0.8491331986082229, -0.8866395490575432, -0.14128070760350656, -1.0780702122587453, 0.59899610919734, 1.3910043392862745, -0.7124149093719612, 0.7712210873496257, -0.13511815643410527, -0.1546596590167439, -0.2906248567163484, 0.8718910453417447, 0.3558488757052643, -0.6727164732072789, -0.3751915688244133, -0.21380895996890123, 0.5153993123434684, 0.48222357710234365, -1.2381724092621296, -1.7985341646859996]}, {"output_weights": [-0.4429672743696079, -2.080014197477409, -0.3354177932588435, -0.2878798530293102, -1.4912495106266177, -1.2056790350817839, -0.5629013570463371, -0.7828859860516314, -0.11546624059521102, 0.032921196981918505, -0.7266299573797261, 1.4159401243986358, 1.1054464460414903, -1.8235582448724617, -0.8510426194036936, -1.6358903249577026, 0.08240266819709789, 0.6159094215585871, 1.301931423466521, -0.9817664678498358, -0.7035856387688383, 0.6490354522041516, 1.0162538462869926, -1.2018849099725366, 0.5164350361526506, -1.1550323243379363, -1.4139206429858375, 0.5252725163511891, 0.09948224692996863, -3.176067368926285]}, {"output_weights": [-1.9934254493562213, -1.0163591795372349, 2.306179894151576, -0.6588454465582867, 0.7227116232215862, 0.3294666963370737, -1.0108845822391797, -0.2935343967433938, -0.19302632522621063, 1.9374109261665562, -0.4124584311531131, -0.4898092611203701, -0.5895911562513876, -0.2814940099512079, -2.0614816432802456, -0.1904202892714757, -0.6951471501087565, 0.08628976080039559, -0.48784406613072123, 0.21689581094690266, 1.0573297632653047, -1.3499249611233937, -0.8281068595772656, -0.04915432250354156, 0.3060660323377759, 0.8648455026605323, -0.8305635563451526, 0.6208477998669839, -0.9654589515970013, -1.5617936093753972]}, {"output_weights": [-1.3186347015963047, 0.4516920743672332, -1.52339463448673, -0.5992227651586045, 1.9021779709655557, -1.029865699366594, 0.48195670288827974, -0.8391890822501906, 0.44914345554475016, 0.9596684497704446, 0.7563253142834242, 1.2203342688624603, -0.5978551057661241, 0.1442076188482743, -0.43753245895795295, 0.13781369509800664, 1.4192000894620318, 2.036651912073152, 1.2027763568069683, 0.6763320323086031, -0.5925334278662848, 1.111045133182934, 0.28098097849381065, -1.442452057339433, -1.770698473730402, -0.6228659095367969, 0.731853158263753, -0.1126249209820618, 1.4291742490134178, 0.7066478210573259]}, {"output_weights": [-0.37077251736172473, -0.4765152202389699, -0.26321947747601104, -1.9569178523305177, 0.903340056827529, 1.059963855742131, 1.4151095299277459, -1.242268337060651, -0.9852659621042488, 1.2944189259612744, 0.47726835538403567, 2.2371654609425975, -1.2527237863666953, 0.5810751032803484, -1.1992917942123393, -0.6591797544975245, -0.25916287016658573, -0.19199404177455806, 0.9847369917393622, 0.08061373694165476, -1.083526120051918, -0.5810240887672483, 0.3783533544839786, 2.0557345029853984, 0.1823459356592091, 0.464491552925431, 0.26521253416531204, 0.5076355012313981, -0.6513811030073166, -0.024760632127418757]}, {"output_weights": [1.394978547249729, 0.2115032595953865, -0.003303573809071006, 0.09160282920147958, 1.1728126333093072, -0.22646967034792764, -1.9248340794932002, 0.028700006235560748, 0.29486085065843537, -0.15390999302145555, -0.651572000067503, 1.535601568646186, 2.021426104262484, -1.1400526653612384, -0.10564300295723875, 0.21413129158402638, 0.4243510201503223, -0.23963741131050006, -0.9958340835602056, -0.25965580813610023, 1.7755320253400262, 0.31821273939883965, -0.14427961375335388, -0.7036012781342454, -0.2631014712054509, 1.252637825141341, 0.9280407698182925, 0.07626536860690428, -0.4986719007387108, 0.5372689132572908]}, {"output_weights": [-0.386938206632229, 0.37251118591345445, -0.29093328205389024, -1.1801977057253648, 0.8601200915650803, 0.18059211842983044, -0.2997104128357596, -1.4301998886863656, -0.26472569541473207, -1.9630149446706655, 0.5249029070784371, -1.3267303068705367, -0.5263357681975886, -0.40744252483000504, -0.6219361568521933, 0.49070981778175377, -0.26517979530437447, -1.0160841785697319, -0.9729610238169111, -0.3059665050371986, 0.44867630181033874, -1.124898799899967, -0.16698233601089305, 1.6292549896220905, 0.5291801128887672, -0.7634697376505456, -1.1443527696646691, -0.5187772925375677, -0.11701789638403372, 0.9606358595989012]}, {"output_weights": [-0.4580935084075332, -0.2541318245937854, -0.2827853344135766, 2.8388470118720273, 0.9119630804362483, 1.4295602654573478, 0.2393368571405394, 0.20525959078110548, -0.14819941692314073, 0.11023372322156846, 0.4573692046160427, -0.4778670931007285, -0.04114483801175561, -0.1199401181647664, -0.46891602801821436, -0.3792978730122012, 0.6884019431084136, -1.0517575266919321, 0.597985446028289, -0.6633231818638228, 0.060259179448012436, -0.31631369112280255, 1.2686508755595909, -1.3176833501746887, 0.04075251022206215, -0.37441265974068333, -0.14043970531282315, -0.9780901833817885, -1.2419904357197775, -0.0205377460649257]}, {"output_weights": [-1.2203084213358528, 0.08557458991594936, 1.5586945362881104, 0.5322519896079451, 0.2990826639295155, -0.49928866632856744, -0.34183140727444333, 0.2020421599682305, 1.2925750411095491, 0.2031274087669236, -1.0040054374184244, -0.902261794333584, 1.9434986923055335, 0.1967615005764067, 0.6941575549812659, -1.5469348297702097, 0.6705106933866664, 0.2970142346752259, -0.8691644689550558, -0.859030433385625, -1.5877417486143013, -0.08554429687988951, -0.12665755797566344, 0.3596847026253406, -0.6927522781056039, 1.0538056750597775, 1.3711748067782434, 0.9229755350496845, -0.010823028085064947, -0.08293513691052244]}, {"output_weights": [1.387964059903537, -1.3269168458927247, 0.5563489847148373, -0.02211776608853837, 0.24546557114753412, 0.31075059293871643, -0.7834634060091328, -1.2249309471041236, -0.5998631140410537, 0.0528723837728279, -0.4445312021023453, 0.008870735919465743, 0.8059332519158003, 0.7112655507940772, 0.4875380952762904, 0.890105792884104, -0.6973596299836435, 0.7184950772553592, 0.2461108105881096, -0.0026135170269208094, 0.7003873582600958, -1.1620434613846593, 0.7761237335264948, 0.8461030049305649, -1.4215308797063435, -1.3607047403037384, 0.3864006125365041, 0.16787835236024615, -0.06303021340287263, -0.426296342305232]}, {"output_weights": [0.32548947691892705, -1.1140816479321831, -0.1123089531667905, 0.7841968395527065, -1.1938918131766272, -1.7287010235663904, 0.6674217453670015, 0.42285523226816213, 0.5860322946540277, -0.347586572187999, -0.38126678803122516, 0.9915688654565558, -1.3602211844997298, -0.202323025545089, 0.5213362109973305, 0.8532364834081337, 0.0711730901729117, -0.877064390073392, -2.1904002775053097, -1.385309440600267, -0.46344179711893063, 0.5836389775955484, -0.019599366904995502, -0.006083288496467608, 0.5181743779825887, -0.33441055402867614, 0.12330164142608359, 0.7929311354385413, 0.010736631767386885, 0.7376903685099687]}, {"output_weights": [-0.05954933530718828, 1.792338118169882, -1.4004628889879434, 1.8729752365014785, 0.29643655363311294, 0.6702994860963252, 0.05482418738120306, 0.6646329730664589, -0.37269929219872433, -0.8281471131068152, -0.29698610420320626, -1.7445826059572171, 1.1887148133968812, -1.2262256640048081, -0.050170577670941525, 1.5895450891189546, 0.38637643226334417, -0.5422975802363819, -0.6025124418857685, 0.30043286104164085, 1.0477710255550285, 1.7817805592314548, -2.4209879813939414, -1.9306231855095173, 0.3132693919454873, -0.28856607222026515, -1.4323601524240372, -0.020147501610906123, -0.6420643949528123, -0.07598945596537697]}, {"output_weights": [1.7408601189774557, 0.9710435714746106, 0.7394511611083299, 0.18457015806356414, 0.061988234817187376, 0.5816774257871256, -0.16379200690400328, 0.9137672957375601, 0.3968770659307343, 0.6144324044516355, -1.1933688872230324, 2.183334770244888, 1.0114595806337163, 0.15703866717456996, -1.1454135818416515, 0.5080612510073992, -0.13189452320282116, 2.2858637662450683, -1.5750520122053773, -1.5344856186509384, 0.16988308451366807, 0.13094523295625143, -0.06903920006661517, -1.958117681838932, 0.8576269237498023, 0.5529223435393673, 0.2110104161583141, 0.05773755490533702, 0.3736699865746346, -0.08899865270547398]}, {"output_weights": [0.019882441610678557, 0.97576595485914, -0.43407695346756525, -0.2263820638014749, -1.1735458113397994, 0.13433296986089668, -0.04593958744770834, 0.9707250656884451, 0.7941196210419673, 1.6346031420259035, 0.6006234474990871, 0.9012227321701672, -0.6521434287218859, 0.1529645080015865, 2.031772696232047, -0.05026794926541485, 0.17415073759976085, -0.2227860636825024, -0.9620580082998483, -0.18227493079096255, -0.3020061765064126, -0.08845568915374454, 1.4514756022190456, -0.17401457677771462, 0.12825163466185693, 1.5784425194036145, 1.1748165328182143, 0.007240299336087155, 0.5403734236541103, 0.7644241254352178]}, {"output_weights": [-1.0527810127976296, -0.18852751861544317, -0.17400788014881763, -0.7922267822612775, -1.3613906369209416, -0.32978987236118074, -0.5135952437648721, 0.6104920615701599, 1.773170448847219, -0.3858085748062094, 0.2587635832667324, 0.4949882940635052, 0.681086014115325, -1.0281210431699814, 0.13290278357460886, -0.7259985489341734, 0.18319898291935996, -0.9208914346054149, 0.33045852579258184, 0.9358926561049363, 0.1852976536788991, -0.14067221353757545, 0.11795532320860123, 0.20851553622258903, 2.0240451169132605, 0.5001996457827873, 1.4290284901383095, -1.2825472136386542, 0.47778388812815253, -0.4146501832032998]}, {"output_weights": [1.520339635250693, -0.2349677459132482, -0.7135246001800754, 0.3634019771170196, -0.6142237990782636, 1.6678151215772923, -1.1746044186927356, -1.0875261722671792, -0.3572787198171619, 0.08087261995218366, -0.6885670231252395, -0.9457652137700072, 1.2936637766684596, -0.020902060866635506, 0.34617061439432467, 0.31204174057886336, -2.0089507799447883, 0.9862141229660056, 1.1264669766012607, 0.8496395618564668, -0.12687502365803088, 1.6868135507083017, -0.5541027668749945, -0.06650276494768605, 2.1312733207751227, 0.07964151595728171, -0.22284577373740777, 0.6426838427001095, -2.2197586688311404, 1.5279249614533197]}, {"output_weights": [0.09331770826889169, -1.2286253769061561, -0.529264003513274, -0.21136078593253663, -0.03863746894954433, 1.201508078764594, 0.13231851831799607, 1.6111064011405858, 0.09407350764986307, 0.2698366249027756, -0.8935954860063368, -0.2787606361291173, -0.5676967802254276, -1.4166745667602352, -1.2872194616301942, -0.1094089507127468, 0.05611187864502754, -0.7504768447602269, 0.036877358436085306, -0.9797572901367372, -0.17099988223328152, 0.3168524156973027, -1.512694276377409, -0.22478144309984774, 1.0147665267216408, 0.1926267243869731, -1.814785802395369, 0.06090345357024322, 1.809021029725372, 1.4496650765947583]}, {"output_weights": [0.14666426942980654, -0.11147347981626814, -0.2586357148932222, 0.6033409292403954, 0.039223375208273785, 2.3389640315866607, 0.3033266126943475, 1.2809616656591902, -0.9300150453300979, 1.0010857437687528, -0.9019013592797106, 1.3809057089027867, 0.6873912081090812, 0.3408553323082893, -0.8027420308231858, -1.8345906195393513, -1.9304113362240107, -0.5721187989471948, -0.5632797585786412, -0.7322329960561608, 0.1697708167271967, 0.7970260651512352, -0.5930761771394641, -0.7714835021420863, 0.8192613235348892, -1.6827269110155534, -0.1832157099233988, -1.260149203852201, 0.1374685160783369, -1.1200965842459576]}, {"output_weights": [0.5960740697744268, 0.2195161994143369, -1.2263575249173677, -1.399982120825078, -1.9368064376858949, 0.6664690587384837, 0.6401769254085349, 1.143552096547314, -2.018620711749136, -0.3584069578026557, 1.8313194697026358, 0.6195204363570399, -0.7474280325408581, -0.3357152153609444, 0.6249442242599155, 0.5217794709583854, -2.4549381392390615, 0.1713432907943939, -0.354189223915959, -0.3106711342206359, 0.8696903065269367, 0.7452263727358821, 0.7932819029506476, 0.5940057796672635, 1.711978766111361, -2.589090250531168, -0.0405259119049512, -0.3937858707868571, 0.7347295363362604, -1.0797057072413458]}, {"output_weights": [0.5200266886066547, 0.14482114133292037, -0.7473216892278629, -1.3474093171829924, 0.9720945363890118, 1.1305898977983997, 0.206126968336896, 0.6450819059696874, -0.33381545838311155, 0.5104238831773606, -2.1256236456977056, 0.19853958764206142, 0.4265329547617298, -0.24341464418897776, -0.15812812197566697, 0.639066198640963, 0.2712975368280283, 0.14941180775340066, -0.12455078743740172, 0.010855451110509581, 0.27324364175194227, 0.027937216391767928, -0.5578179653932388, 0.2380417407357495, 0.9709943205275103, 0.14362148931157262, -0.3136349893130528, 0.4056220544413986, 0.2544739316361547, 0.14382616716683327]}, {"output_weights": [0.6481806703168896, 1.5219101906534078, 0.4316053005499271, 1.4489308831393815, -2.2387072501992, 0.8647429476209727, -0.4501996235544352, 1.2767209242784936, -0.9239418642753627, -0.2783295215362547, 0.8852053436673794, -1.9492467560867643, -0.09202056978731286, 1.1147986641014602, 0.3428540018326928, -1.5479713118547183, 0.27252395967585186, -1.3010252717938087, -0.4057849011050829, -1.307351295256898, 1.1233564614292233, 0.6072576121989057, -0.16327857870255308, -0.05131904393273763, 0.2833577961950221, -0.49461907394124566, -0.10206627623193036, -1.7438861069027005, 0.13695395363118676, -0.4220777577934056]}, {"output_weights": [-0.6058374969032385, 0.4679611780400357, -0.7437810750235663, 0.40620787854263096, -0.25069108194082623, -0.44088176045830957, -1.1553858757714037, 2.2337560261637486, -0.7816647463439006, 0.010069860327235088, -0.5789642692092843, 0.04019459253053014, -0.3069656988989257, -0.807050094364298, -0.946337541698074, -2.3167466885556802, -0.891701513306707, -1.9344068667027798, 2.2458825985107818, 1.403959387988537, 1.11763599791071, -0.6067790489938103, -1.997705225928127, -0.3720761424170209, -0.6785265278810514, 0.3544518027899779, -0.9969949108607705, -0.8904874429326867, -0.11566636451233182, 1.9132492855071956]}, {"output_weights": [-0.6150960265444643, -0.2321990571594124, 0.7039729809390813, -1.2824947514923466, -1.1068574403438183, 0.7452401372547609, -1.4363025616682394, 0.9271771356358299, 0.9890620158773197, -1.0253258306007726, -0.7861037325238126, -0.46701830229420555, -1.3137214352097186, 1.1624442526386949, -0.9546646953627919, -0.23728143856171033, 1.4429010735917849, -0.4850416202598216, -0.9287412905017806, -1.187843329811138, -2.3430178370072237, 1.0230393361260623, 1.3521975358040612, -0.7921246322589922, -0.7387101432050004, -0.3262845757136173, -0.5105875725990752, -1.0352001233705177, -0.06234114720896406, -1.0999241728345417]}, {"output_weights": [0.7819982022817403, 0.3113760191789877, 1.0873381089625471, 0.8268497679051544, -1.3525798031179808, 0.338520166204278, -1.2003542077843101, 0.4572670047123968, -1.1121875633227931, 0.2547072642636483, 0.8700508290481923, 0.6471454410133021, 0.009760314958444103, -0.663693336832683, -0.005429043150726953, -2.0180884138612734, 0.5943379962480979, -1.4239028206723816, -0.5609969475319879, -2.200114078687682, 2.35140734381335, -0.469668860897692, -0.8918486350435315, -0.4310298362517098, 0.07075124102499597, -2.0676552022613173, -0.46131579909121695, 1.0593276262829125, -0.28875147824687647, 0.3669888381383467]}, {"output_weights": [0.5430655271213574, -1.3366835644302273, 1.1190908515915206, 0.9315158801723094, -0.9494682003531799, -0.7746097862934652, 2.263250618862476, -1.8759464408036435, -0.953146524477677, -0.29967037370349625, -1.460555167507621, 0.837747678668265, 1.2014257731548499, 0.24152435695082114, -0.6461709739731324, 1.027968931194334, -0.9763143039454378, -0.5784510807868152, 0.8360307772334739, -0.11672825825697872, -1.790057940904224, -0.7432215935986676, 0.25015879690392734, 0.3280133043896685, -0.41693476640949767, 1.3639765251032272, 0.43829341403776173, -0.9351025565300579, -0.06338600859437374, -0.07742470193364741]}, {"output_weights": [-0.8824895356243562, 1.2764994918936612, 1.5856677508536146, 1.0929557601314532, 1.8997373682679215, -0.7173484147487632, 0.6252167780826028, 0.5893715131232984, 1.6092581624960813, 1.1848295893828273, -0.9339671014939055, 0.9514327255979337, -0.2713774721038393, -2.007794145443121, 0.12081005409762674, -0.21316548086455198, 0.18905919562062493, 0.03136275337243828, 3.0064234397147294, -0.4118597140597176, -1.1417979951037858, 0.7334153878578703, 0.16614252108930663, -1.268274790985093, -1.6579058976742789, 1.3744180229054412, -1.9391301158878802, 0.17605920336025477, 1.0252255783251363, 1.5788074767159739]}, {"output_weights": [0.6713872499512756, 1.8322408924621285, 0.9154638629160397, 0.42896196686975074, 0.16540050391910663, -0.44142415088591846, -1.2219437225645855, -1.138066432755231, 1.2227998517392669, 0.5928748498222566, 0.8490455644255197, -1.063113757345511, -0.9117921765104723, -0.9406044683898592, 1.0444675158873549, 0.8439478647287791, -0.40213788075467205, -1.3041271361303264, 0.36568682630460453, -2.749053199887697, 0.9701768870624279, 0.5681848285292761, 1.6138746373891484, 1.2917141963697192, 0.11088686300457946, -0.961425085063083, 0.43445735514183076, 1.4110742845004738, 0.03786463271268061, 0.09939760913192079]}, {"output_weights": [1.151341770576354, 0.4953238394459507, 0.0480875281134228, 0.4094507942294961, -0.2542059522137275, -0.5422701868948208, 1.067145950278075, -1.7877399416843287, 0.26966253160164744, -0.38558084848206425, 0.37613289238313136, 1.407390834121039, 1.0526638672615896, -0.7303850970422175, -0.1835473354149159, -0.5782038927666088, 2.067848534164293, -0.15547348887586787, -0.46971957274525533, -0.7839674999308598, 0.22081510618532266, 1.5731776201852132, -0.5492958329826862, -1.2796704680350368, -0.7367265103567378, 0.23698981307247483, -2.6143405539782436, -1.1524107888517743, 1.0329660144366266, 1.2834493473894582]}, {"output_weights": [-0.5307792581199844, 1.0125075157630017, -0.04897029386063343, 0.04926518654088734, 0.45025461354279717, 0.8195582468697543, -1.8969036348018153, 1.7123436741745393, -0.06177282440536513, 1.9170852241024796, 0.20191259887235283, 0.9539743600574001, -0.8890483572288267, -0.6497705336646653, -0.8961758378242951, -0.17903452305030104, -1.2299724774416207, -0.3635086303030691, -0.0018675238906960359, -0.8606993622700944, -0.8880476070684238, 0.37489825365452634, 0.3649001555320185, 0.26698814664788917, 0.5582246946387679, -0.49559330378234756, 1.0061864708653585, 1.2070730322248704, 1.9334990443375049, -0.45098562942128034]}, {"output_weights": [-0.4289375400056218, 0.4965662178834514, 0.612421726531785, -1.2396965204814416, -0.4880971992853005, -0.3292804943471053, -0.3498812043551715, 0.3668571093063419, 1.0701050113880577, -0.14165960583823067, 0.4646124742534244, -0.33062975954369106, 0.5068803949883731, -0.05666537921371703, -1.2893635855114203, 1.1774619982831631, -0.10217907423868179, 0.3182648411934993, 0.36663519537799544, 0.0599646091002765, 1.6108504207591832, 0.6488009387219136, -0.802034988886129, -1.215633022581044, 1.9093576028373582, -0.48045837896502075, -0.8030355655216813, -0.2519010163722346, -0.05052870994359995, 0.3230837316759912]}, {"output_weights": [0.5803310501332966, -0.5688662970768122, -0.6501185411325864, 1.377751305482396, 1.3898760155186691, -0.37575623673592146, 1.1694771410656193, -0.012616063687866235, 0.29705450659224025, -0.15244689620910865, -0.6897053337103136, 0.30898418308123005, 0.4497632836381648, -0.2348640555819456, -0.09983742152780942, -0.4457546124511818, -0.2706884516191081, -0.8509232088314799, 0.7724186201432148, -0.35956648603305646, 0.5073319651569088, 0.24239567531948114, 0.34077854913103056, -0.4920635428236599, -0.10685974034751042, -1.8942560437386733, -0.24813958460471294, -0.47707883370500354, 0.6351841730040243, -0.4734373654702675]}, {"output_weights": [-3.5449944597688297, 0.7230216317584803, -1.8524827948060325, 0.3044914686266376, -1.4582878191494888, -0.4603373568736459, 0.863028216423907, 1.647636833386639, 0.818615334833268, -1.1544544173559443, 0.558540662717918, -0.53408013802355, 0.2912265486240185, 0.9856262595011718, -1.646214868702416, -0.2953507569518248, -0.7064689314151708, -2.430036991976786, -2.109399494768528, 0.488707483088295, -0.15078225113123137, -1.0137340472189185, -2.226363073109925, 0.6828480794214248, -0.19130501333092023, 0.261476685304714, 0.14249098941260002, 1.8109538151698468, 0.8255574818404057, 0.24016359737237522]}, {"output_weights": [-0.26534737976090744, -1.3020646498872492, 0.1070195903291082, -0.7171689418378995, 0.9210314914246128, 0.9554353029218934, -1.1184034397737335, -0.8486980594630551, -0.0064768249924416505, -0.017803044785396658, 0.19477373146025825, 1.0101288559134778, -0.6259270986597517, -0.5949437846622307, 0.45363621400445525, -0.856466774441895, 1.6625578903125777, 1.1386543539317062, -1.2235908625976581, 0.7612563102352532, 0.6577049668361216, -0.7881179095522388, 0.12188500091670858, -2.4564614349345812, 1.175569549993257, 1.2754876415433662, 0.5659934665703642, 0.6303746944316341, 0.37753849095215913, 0.3067103701255017]}, {"output_weights": [-2.0733684931970777, -0.4162001300350016, -0.828330146075913, 2.5425967095015496, 0.17764515486808277, 0.4242534438835781, 1.923522934285408, -0.7573141209874558, -0.5179113437221292, 0.031127630158527243, 0.9783202668775863, -0.6952560199185699, -1.4388193732668664, 1.389957714910876, -0.4458884486308044, 1.124729314608558, 0.9258792230374674, 0.7703041985917287, 0.5343774681141773, 1.8644486930093924, -0.6336396549115568, 1.2028068501069857, 0.22307079793949014, -0.5809552508110943, 1.3277487478133023, 2.47857505277644, -0.5071579173885872, 0.2762180981937398, -1.4810286714637688, 0.07627824557848714]}, {"output_weights": [0.14497982018572625, -0.8561883183980963, 0.19660160650318304, -0.2584457662690023, 1.5328965491394886, 1.775749723481865, 2.7913067494703654, 2.0235701849555805, 0.0664420467989999, 0.6778356099610577, 1.5218812596558273, 0.9942772478883418, -0.6242203511706572, -0.5834068765476624, 0.9618424817879767, -1.7268765021511434, 1.1503977706467468, -0.14770069028266708, 0.8219501220024293, -0.8718944480592669, -0.9665282870460982, 0.09988871006458622, -0.8094228235107714, 1.1635518395364135, -1.1294929583615392, -0.5051632045284775, -3.156114145560577, -0.32966336462755425, 0.33999159076792856, 0.7642806821612336]}, {"output_weights": [0.6969239890568619, 0.9198168417174664, -1.7606677763083143, -0.867479167758185, -0.015339964028884644, 0.9023352836494087, -1.7135830021701914, -0.2623284688190795, 1.8169486754305677, 1.0990518801825402, 1.3538805764531527, -0.0045218803092735025, 0.09312119780939214, 0.16711383390892567, 0.6754090651075948, 1.8121117986585862, 1.0834858163521621, -0.055971603249375924, 0.39003107006741944, -0.5678136777361927, 0.15243564505157378, 0.33922766824803574, 0.2390359197836946, 0.2740005974261075, -1.041055328567773, -1.0948689415325674, -0.061856033652741754, 0.5755300731893132, -0.9454824125351985, -0.29375517937695905]}, {"output_weights": [-1.9610512172066754, -0.6341176996702667, -0.5015467315255066, -0.15735338159320086, 2.095535136252311, 1.4378064292312025, 0.730323471953993, 0.5133547505281146, 0.22734681673336715, -2.0699928885938816, -1.5477791636015004, -0.1433115244143531, -0.08780920606935468, 0.42899682903379793, 0.4766757288685553, -2.1945487708646003, 0.6885973340353034, -1.1862406206932885, -0.22215237444909236, 1.529939394251377, -0.6189186477697014, 0.5576829792650982, 2.1893580060795226, -0.20624469091984868, 0.4225767351776779, -0.4355662272196645, -0.018445100467939627, 0.48873616192100805, 0.04525348498252644, -0.7533059442167642]}, {"output_weights": [-1.6159274089086417, -1.1991293497990263, 0.8462102902812704, -0.8053029255261377, 0.8214967284298714, 1.850556974667837, 0.8766582866604634, 1.2507714282887343, -1.8784494414567756, 1.1252259591209064, 0.8494971000345282, -0.414355641499293, 0.7662032280024141, 0.40883712385242865, 0.3199288626662174, 0.0649163663259185, -0.7816216079969184, 0.6122527219145802, -1.9226483499217315, 0.3592435193154039, -0.49633134984729804, 1.129365264755574, -1.0943628473251397, -0.11734257777857679, 1.967654455914625, -1.4066732725693085, 0.5967498433145687, 0.9417013208259124, 0.451270779118095, -2.4417137463585945]}, {"output_weights": [0.4276063157553098, 1.0546308605750963, -1.015394158706977, -1.3225907324413608, -0.4716092541949554, -0.6263562607116857, -1.082016842518339, 1.8082526734148574, 0.561315267506963, -0.4821828427922542, -0.25647196546560735, -0.2876715186207283, -1.4152036152889977, -0.01735597903091361, 0.6674175603737352, 2.353101443579495, 0.8779416333529864, -0.019691154707665245, 0.029666418279773194, -0.2975395303454829, -1.1150861595006027, -0.06622940224914187, -0.20600504317241794, 2.052924358431763, -0.0782982210702086, -0.058714894191403307, -0.5971934398279062, 0.17928013522778086, 1.6465672115399141, -1.3502691043109516]}, {"output_weights": [-1.232383427340648, -1.371759772196627, 0.3483788595231506, -0.2515845489175907, -1.3681304605451465, 0.8462455591714035, -1.1803383338247309, 0.17890704780282007, 0.9655196262298905, 0.4893764779624617, -0.3319672161637989, -0.2781055345306224, -0.3489285346998937, -1.0284236000901943, 0.5873348181639254, 0.8862958332438233, 0.5628395305287576, 0.1435536286396966, 0.9676977601894851, 0.8419748741725123, 0.06920189469880775, 0.2191700051772175, 0.7148341703261659, 0.9307757064040028, -0.5489073622121378, 3.734417983832659, 0.13928435721735402, 1.7063309666547495, 1.7736250682719354, -0.2552811546692194]}, {"output_weights": [-0.884634762246205, -0.00674103889637582, -0.5997906786692949, -1.3010038051958424, 0.6782289668665332, -1.4599551005893607, 0.7504817961350231, -1.1072992538434203, 0.6838029467216654, -1.9583815266463809, 1.4603489510061416, 1.2492599348946485, -0.1090179911475747, -1.136129061135094, 0.6840153808372075, -1.7207688776770977, 0.431066401418177, 0.7104781342343566, 0.06902147319184042, 1.2870855198256386, 0.08634558595560149, -0.29867641038739556, -0.3316327181216721, -0.040202597767776065, -1.1037478804660474, 0.7524355826528978, -0.290956840210463, 0.40525644375038716, 0.06896562142313016, 1.5946177408482036]}, {"output_weights": [1.4647397394170336, 0.7759126892580795, 1.1887981253641573, -0.1581451075587987, 0.4092973760011463, 0.7263437502582079, 0.7676305230509071, -1.124795799745312, -1.3082801320614994, 0.23329159875543698, 0.9775763927542719, -0.16147504427912032, -0.4576275433445612, -0.8093664663028438, -0.0597236911072848, -0.34116330216374663, 0.23494141423640127, -2.713364705342289, -0.13320223859869218, -0.5670463339786412, 0.022871499802149326, -0.9393082837424058, 0.41380175694869065, 0.9869347511070893, 0.6972525886894004, -0.25472435675048655, 0.45356801750036635, -0.8188878231376524, 0.8296969261856894, 0.2263496223955229]}, {"output_weights": [-0.5029801889220247, 0.09371600744961954, -0.5406588666779143, 0.6107449817674295, -0.871912683849293, -0.433206768632219, 1.8164236562872758, -0.7836984477939252, 1.1363979964460542, -1.6985809527082938, 0.6975287795199427, 0.0835191292430812, -0.9885489332344739, -0.18514104688467464, -1.5936853292789432, -0.45280922970432097, -1.5811037532975525, 0.6782160715053432, 0.5303869933387415, -0.5640798678181539, 0.8358608823825537, -0.07490874884218882, 1.3722200996227296, -1.3742419294310058, 0.9978948473869469, 0.1682574904567063, 1.9322315145125633, 1.0331327673703707, -0.021833021329607766, 0.5612807804937369]}, {"output_weights": [0.7023834993539255, 0.18236409898228695, -0.414404843056985, 0.26680005722198824, -0.0709628931200472, -0.6149105452931187, -0.5772809560995384, 0.44864777563171127, -0.1767503755928733, 0.047383183473109006, 0.8361032972277764, -0.5420185307955059, 0.1890996145152827, 0.7642456734099229, -0.9080475174008404, -0.6583827707263907, 0.6260051762061724, -0.8913615775919007, -1.6439242713989595, -1.168216766538386, -0.03340497571359895, -1.7138125741675536, 1.0809640217974625, -0.6772128935197107, -1.6268870928479016, 0.8948043064626664, -0.40135634812396476, 0.5479473480299784, -0.4372168486895222, 0.9328241430978568]}, {"output_weights": [1.22525770031601, 0.9370174709102296, -2.076326674127511, -1.3477812225438648, 0.5846280082031714, -0.7064632318972279, -2.162665915918951, 0.15939344776102576, 0.8394226088929071, 0.09976669890567708, 0.7328779311729655, -1.814349101751401, -0.5204538699943618, -1.5944289355956223, 1.7930711082113444, 0.31798671903272924, -0.04062811627642132, -1.397631664298503, 1.0486929439218176, 1.3353145022348236, -0.14322472911012982, 0.8441858337394342, -0.9021991676125909, 1.1850957401339233, -0.6366129262723211, 0.5120255602725515, -1.7573003756176981, 0.5189100597297966, 0.10036245516032534, 0.08624577516554302]}, {"output_weights": [0.7851558162717679, 0.8472545154545837, 1.360995733365584, 0.28739438287761093, -1.8189504499966729, 0.2407628135286248, 0.05302751095130167, -0.3828902231338452, -0.9986384120420532, 0.9661491179544618, -2.1459091490800364, -1.13341619394531, 1.5781676495259613, 1.089134889502646, -0.12450854485667445, 1.119030662552171, -0.32801813568597504, 1.3037545406865627, 0.746267830565248, 1.095849072729753, 1.4072366138831114, -1.2984057228705208, -0.4684603313057911, 1.2025501639355094, 0.46911410132817627, -1.0074392839253536, 1.4011778201264307, 0.31474604351089613, -0.574302697484243, 1.3490683364281877]}, {"output_weights": [0.5922902544803332, 2.018671871283492, -0.9982221843628344, 0.9083402523793948, 0.229268262219284, -0.29335138067306127, 1.117623799147161, 0.9013356715196884, -1.1112896925435116, 0.20072069827105973, -0.11825553524821404, -0.6263637656959495, 0.6195544271800382, -0.7832816474163652, 0.38652077608380675, -0.31222046353511124, -0.03161787200995137, 1.0394573078904628, -2.457806276255368, 0.16964718469549064, 0.5720860106414973, 0.08802402716406539, -0.19767196224965286, -0.6199912468904983, 0.42380518485667623, 1.922982220646927, 1.437914077322066, 0.02395824796689936, 0.32939893625285416, -0.17459243323089185]}, {"output_weights": [-0.9338409556759535, 1.6657697555574125, -0.6955634647848633, 0.3740538956926022, -0.5738735331132052, 1.563904297580512, 0.07208035810590516, 0.6736710143196978, 0.00755084647424058, 0.47576462211180814, 0.6269838876473207, -0.05615618655818992, -0.16302938629087352, 0.22723007447956478, -2.0080034892830967, -0.7316772968919997, 2.384202364476142, 0.24640114968968901, -0.8831854149054522, 0.22483069065068143, 0.010930892813818696, -0.958158925244781, -1.4470803616461567, -0.1190284891773413, -0.44722176649299084, 2.060625983292698, -0.014682079387791779, 0.4598685679179942, -1.2244781641330011, 1.541262899243916]}, {"output_weights": [-0.4366811328611409, -0.029720550876774887, 0.7075456914055968, -0.5305523959041218, -0.6030713755592255, -0.16613178785150476, -0.6073931327927494, -0.06240535348230331, 0.826652531027694, -0.7118023327496151, 0.30020684988535207, 0.43253386840362146, -0.4217934727869916, -0.0855435402310861, -1.9270798281846075, 0.2636908849240206, -0.36639764942778713, -1.2440916862602056, 0.24067642129194805, -1.1154437253531604, 0.1304190356103558, -0.3830629201172473, -0.10811491865616817, -0.3229666126709963, -1.0790567381980427, -0.8209411672585605, -1.9943792411898311, -0.14001458341535425, 0.44043044553508065, 1.500518981772224]}, {"output_weights": [-0.0807181447356727, 1.243932788251764, -1.9273731918941588, 0.998642575561044, -0.9641301461888419, 0.5775497516684062, 0.2879969779186065, -1.9622442156843605, 0.29679216805015207, 0.1786597104302818, 0.8933903350980715, 1.9225570911719618, 0.7875533300447223, -0.14409660181176695, 0.32898850132709156, 1.7709161056232265, 0.9398078065402569, -0.6085628628931911, 0.6290116331779176, 0.7275817548344405, -0.532660039961064, 0.6078280719854959, 0.773156253314464, -1.0098406381009772, -1.1404209137903893, -0.5805877998501122, -0.14445007261878093, 1.1520941108864882, -2.51677299075611, 0.10595208444858299]}, {"output_weights": [-1.4805993770727703, -0.23698829905893412, -0.6193528849463028, -0.7202937422113892, 0.08000077938118803, 0.29452564644564433, -2.392497038066636, -1.3315441631353897, -0.0745576545816035, 0.6090934564126865, 0.31480823888339254, -1.207132278376257, 0.10704287050644075, -2.196624734734248, -0.6334620693395137, 1.09919513735728, -0.40363377332867323, -2.204154244516995, 1.5774898636871781, -0.21811148523156387, -0.9336559881934481, -1.6293334226646328, 0.00891160631544024, 0.9311602936434451, 0.4731182727333313, -0.1644321921179152, 1.3475229587554698, 1.2575786616440785, 0.35629115085817115, 2.0206361845467766]}, {"output_weights": [0.5845708876927743, -0.34332658531125637, 0.730444990610941, 0.2160458843180531, 1.2185537848150139, 1.9887159486508144, 0.6575935675389539, -0.3273631544389712, 0.47745199506474806, 0.712598941204734, 0.2786063386764284, 1.5919917983442402, -0.3651203500665589, -1.2173780117673865, 1.071149135495742, 1.2061351372414775, 0.3795902565253354, 0.16663584219261193, 0.5158830288454734, -1.0362578120303603, 0.05152764249818372, 0.9383415008909152, 0.5559539157506277, 0.6490326529283648, -1.6666667225545841, 